SVM-light Version V6.02
0 # kernel type
3 # kernel parameter -d 
1 # kernel parameter -g 
1 # kernel parameter -s 
1 # kernel parameter -r 
empty# kernel parameter -u 
46 # highest feature index 
9404 # number of training documents 
5656 # number of support vectors plus 1 
0 # threshold b, each following line is a SV (starting with alpha*y)
-0.01 1:0.049554002 2:0 3:0 4:0 5:0.048537001 6:0 7:0 8:0 9:0 10:0 11:0.58568901 12:0 13:0 14:0 15:0.590289 16:0.054200999 17:0.5 18:0.33333299 19:0 20:0.054361999 21:0.34158701 22:0.45348999 23:0.66905701 24:0.66913599 25:0 26:0 27:0 28:0 29:0 30:0 31:0 32:0 33:0 34:0 35:0 36:0 37:0.29879799 38:0.480544 39:0.63839698 40:0.68284398 41:0 42:0 43:0 44:0.208262 45:0.089286 46:1 #docid = GX000-01-8011551 inc = 1 prob = 0.278009
-0.01 1:0.049198002 2:0 3:0 4:0 5:0.048179999 6:0 7:0 8:0 9:0 10:0 11:0.593041 12:0 13:0 14:0 15:0.59747499 16:0.016434999 17:0.41666701 18:0.66666698 19:0.25 20:0.016752999 21:1 22:1 23:0.98939699 24:1 25:0 26:0 27:0 28:0 29:0 30:0 31:0 32:0 33:0 34:0 35:0 36:0 37:1 38:1 39:0.980591 40:1 41:1 42:0.253333 43:0 44:0.040667001 45:0.017857 46:0 #docid = GX043-50-8139281 inc = 1 prob = 0.256
0.02 1:0.25205001 2:1 3:1 4:0 5:0.25481799 6:0 7:0 8:0 9:0 10:0 11:1 12:1 13:1 14:0 15:1 16:0.13457701 17:1 18:1 19:0.41666701 20:0.135242 21:0.83354503 22:0.591483 23:1 24:0.69039202 25:0.61572301 26:0.79188001 27:1 28:0.82065898 29:0.84771198 30:1 31:0.929488 32:1 33:0 34:0 35:0 36:0 37:0.83103198 38:0.61806601 39:1 40:0.70564902 41:0.33333299 42:0.253333 43:0 44:0.0047269999 45:0.017857 46:0.52777803 #docid = GX062-53-0946803 inc = 0.00793992937527452 prob = 0.205853
-0.029999999999999999 1:0.062031999 2:0.60000002 3:0 4:0 5:0.062098999 6:0 7:0 8:0 9:0 10:0 11:0.61344397 12:0.51499403 13:0 14:0 15:0.61803102 16:0.066958003 17:0.66666698 18:0 19:0.33333299 20:0.067171 21:0.70348501 22:0.697007 23:0.926103 24:0.76038998 25:0.46378699 26:0.367603 27:0.58319199 28:0.40568599 29:0 30:0 31:0 32:0 33:0 34:0 35:0 36:0 37:0.70278901 38:0.72254801 39:0.92318201 40:0.77542299 41:0.66666698 42:0.413333 43:0 44:0.37746 45:0.035714 46:0 #docid = GX239-51-1457804 inc = 1 prob = 0.267237
0.029999999999999999 1:1 2:0 3:0 4:0 5:1 6:0 7:0 8:0 9:0 10:0 11:0 12:0 13:0 14:0 15:0 16:1 17:0.083333001 18:0 19:0.166667 20:1 21:0.337818 22:0.42628601 23:0.778139 24:0.60395002 25:0 26:0 27:0 28:0 29:0 30:0 31:0 32:0 33:0 34:0 35:0 36:0 37:0.30099899 38:0.45769599 39:0.76214898 40:0.62084001 41:0.66666698 42:0.47999999 43:0 44:0.020984 45:0.017857 46:0 #docid = GX262-67-1741687 inc = 0.00321604952750335 prob = 0.103488
-0.02 1:0.031962998 2:0.25 3:1 4:0 5:0.032026 6:0 7:0 8:0 9:0 10:0 11:0.73011202 12:0.253387 13:1 14:0 15:0.74031699 16:0.01382 17:0.178571 18:0.42857099 19:0 20:0.013748 21:0.63784802 22:0.670784 23:0.53419602 24:0.77037001 25:1 26:0.42864299 27:0.33414799 28:0.35601199 29:0.87970501 30:1 31:1 32:1 33:0 34:0 35:0 36:0 37:0.63448501 38:0.67523903 39:0.498788 40:0.77707398 41:0 42:0.076922998 43:0 44:1 45:1 46:0.95454502 #docid = GX000-04-0402532 inc = 1 prob = 0.0913272
0.029999999999999999 1:0.038486999 2:0 3:0.5 4:0.5 5:0.037907999 6:0 7:0 8:0 9:0 10:0 11:0.74978697 12:0 13:0.20052101 14:0.5 15:0.75835299 16:0.030076999 17:0.25 18:0.71428603 19:0.071428999 20:0.030185999 21:0.79174602 22:0.62889999 23:0.63873398 24:0.69358897 25:0 26:0 27:0 28:0 29:0.126397 30:0 31:0 32:0 33:1 34:1 35:0 36:1 37:0.78352797 38:0.62781399 39:0.60311198 40:0.69751 41:0 42:0.153846 43:0 44:0.029475 45:0.005076 46:0.54545498 #docid = GX000-39-10370543 inc = 0.00301697423894129 prob = 0.0914436
-0.02 1:0.515329 2:0 3:0 4:0 5:0.51437902 6:0 7:0 8:0 9:0 10:0 11:1 12:0 13:0 14:0 15:1 16:0.248781 17:0.071428999 18:0.071428999 19:0.071428999 20:0.24859899 21:0.79302001 22:0.75177097 23:1 24:0.799389 25:0 26:0 27:0 28:0 29:0 30:0 31:0 32:0 33:0 34:0 35:0 36:0 37:0.78448898 38:0.74748099 39:1 40:0.79880798 41:0.33333299 42:0.065934002 43:0 44:0.00062100001 45:0.005076 46:0.045455001 #docid = GX059-10-14768774 inc = 1 prob = 0.376403
-0.01 1:0.29419401 2:0 3:0.5 4:0 5:0.293464 6:0 7:0 8:0 9:0 10:0 11:0.57436597 12:0 13:0.63838398 14:0 15:0.58088797 16:0.26770201 17:0 18:1 19:0.071428999 20:0.26780099 21:0.329503 22:0.31898701 23:0.56920201 24:0.43948501 25:0 26:0 27:0 28:0 29:0.31353 30:0.428013 31:0.37748599 32:0.347992 33:0 34:0 35:0 36:0 37:0.33345899 38:0.32029301 39:0.526752 40:0.44835401 41:0 42:0 43:0 44:0 45:0 46:0 #docid = GX130-86-5589114 inc = 1 prob = 0.297692
0.02 1:0.055447001 2:1 3:0 4:0 5:0.056209002 6:0 7:0 8:0 9:0 10:0 11:0.78193998 12:1 13:0 14:0 15:0.79369497 16:0.021206999 17:1 18:0.214286 19:0.142857 20:0.021691 21:0.951859 22:1 23:0.87487203 24:1 25:0.92677999 26:1 27:1 28:1 29:0 30:0 31:0 32:0 33:0 34:0 35:0 36:0 37:0.94948602 38:1 39:0.87984598 40:1 41:0 42:0.208791 43:0 44:0.046654999 45:0.106599 46:1 #docid = GX231-04-10429380 inc = 1 prob = 0.76645
-2.2204460492503131e-016 1:0.025505999 2:0 3:0 4:0 5:0.025505999 6:0 7:0 8:0 9:0 10:0 11:0.026202001 12:0 13:0 14:0 15:0.026229 16:0.021981999 17:0 18:0.25 19:0 20:0.021902001 21:0.50240999 22:0.36757299 23:0.47293201 24:0.42971501 25:0 26:0 27:0 28:0 29:0 30:0 31:0 32:0 33:0 34:0 35:0 36:0 37:0.52227598 38:0.380449 39:0.47799799 40:0.44301301 41:0.125 42:0.016393 43:0 44:0 45:0 46:0.16091999 #docid = GX000-04-16714794 inc = 1 prob = 0.0897452
-0.01 1:0.024626 2:0.166667 3:0.33333299 4:0 5:0.026385 6:0 7:0 8:0 9:0 10:0 11:0.021841001 12:0.166667 13:0.36046901 14:0 15:0.023477999 16:0.017794 17:0.42424199 18:1 19:0.1875 20:0.018294999 21:0.86794102 22:0.77479601 23:0.74918503 24:0.78040701 25:0.106353 26:0.00049499999 27:0 28:0 29:0.127462 30:0 31:0 32:0 33:0 34:0 35:0 36:0 37:0.88174403 38:0.79486501 39:0.75529897 40:0.79771602 41:0.125 42:0.098361 43:0 44:0.001557 45:0.000401 46:0.057471 #docid = GX001-14-5693231 inc = 0.16914963039243 prob = 0.122989
-1.1400862240142084e-006 1:0.019348999 2:0.83333302 3:0.66666698 4:0 5:0.025505999 6:0 7:0 8:0 9:0 10:0 11:0.019038999 12:0.83333302 13:0.72093803 14:0 15:0.025201 16:0.008777 17:0.45454499 18:0.4375 19:0.125 20:0.0090969997 21:0.83891898 22:0.756293 23:0.65040898 24:0.79440302 25:0.360181 26:0.058945 27:0.36371699 28:0.077877998 29:0.37010899 30:0.165507 31:0.21726599 32:0.081514999 33:0 34:0 35:0 36:0 37:0.85609198 38:0.78668898 39:0.680089 40:0.820871 41:0 42:0.16393401 43:0 44:0.002293 45:0.0088179996 46:0.471264 #docid = GX004-48-14115966 inc = 1 prob = 0.110175
0.10000114008622422 1:0.012313 2:0.83333302 3:1 4:0 5:0.019348999 6:0 7:0 8:0 9:0 10:0 11:0.01061 12:0.841995 13:1 14:0 15:0.016154001 16:0.014688 17:0.15151501 18:0.1875 19:0.5 20:0.014848 21:0.80460501 22:0.71119702 23:0.63505501 24:0.73124599 25:1 26:1 27:1 28:1 29:1 30:1 31:1 32:1 33:0 34:0 35:0 36:0 37:0.93302101 38:0.82596302 39:0.74967402 40:0.82180601 41:0.625 42:0.344262 43:0 44:0.002992 45:0.003206 46:0.229885 #docid = GX015-86-13774839 inc = 1 prob = 0.199059
-0.01 1:0.031661998 2:0 3:0 4:0 5:0.031661998 6:0 7:0 8:0 9:0 10:0 11:0.033034999 12:0 13:0 14:0 15:0.033062998 16:0.0084560001 17:0.21212099 18:0.3125 19:0.125 20:0.0085760001 21:0.92051798 22:0.71946198 23:0.76271099 24:0.67830002 25:0 26:0 27:0 28:0 29:0 30:0 31:0 32:0 33:0 34:0 35:0 36:0 37:0.93886203 38:0.74066401 39:0.76879501 40:0.69467998 41:0.25 42:0.21311501 43:0 44:0.0059870002 45:0.0010019999 46:0.068966001 #docid = GX027-44-7302986 inc = 1 prob = 0.094742
-0.01 1:0.024626 2:0 3:0 4:0 5:0.024626 6:0 7:0 8:0 9:0 10:0 11:0.026337 12:0 13:0 14:0 15:0.026362 16:0.017113 17:0 18:0.375 19:0 20:0.017072 21:0.84934801 22:0.61358202 23:0.68731201 24:0.57849002 25:0 26:0 27:0 28:0 29:0 30:0 31:0 32:0 33:0 34:0 35:0 36:0 37:0.87076199 38:0.63400602 39:0.69404298 40:0.59578902 41:0.25 42:0.114754 43:0 44:0 45:0 46:0.011494 #docid = GX042-67-7292550 inc = 1 prob = 0.108209
-0.01 1:0.078276001 2:0 3:0.33333299 4:1 5:0.080035001 6:0 7:0 8:0 9:0 10:0 11:0.073651001 12:0 13:0.36046901 14:0.91381598 15:0.075211003 16:0.058010001 17:0 18:0.375 19:0.0625 20:0.05799 21:0.73236603 22:0.68292397 23:0.79149598 24:0.693753 25:0 26:0 27:0 28:0 29:0.25352001 30:0.086791001 31:0.0067230002 32:0.052602001 33:0.91381598 34:0.26251099 35:0.00446 36:0.26256201 37:0.75050998 38:0.70216101 39:0.79270601 40:0.71070999 41:0.125 42:0.057376999 43:0 44:0 45:0 46:0.068966001 #docid = GX056-94-1557278 inc = 1 prob = 0.114194
-0.01 1:0.058927 2:0.5 3:0.33333299 4:0 5:0.062445 6:0 7:0 8:0 9:0 10:0 11:0.055286001 12:0.5 13:0.36046901 14:0 15:0.058651999 16:0.051837999 17:1 18:0.625 19:0.125 20:0.052579999 21:0.73089802 22:0.66913801 23:0.76168102 24:0.68311399 25:0.135572 26:0 27:0.225724 28:0.01219 29:0.181657 30:0.046838 31:0.00403 32:0.025203999 33:0 34:0 35:0 36:0 37:0.74882901 38:0.68794799 39:0.764911 40:0.69976503 41:0.25 42:0.13934401 43:0 44:0.00105 45:0.0010019999 46:0.057471 #docid = GX091-07-7148753 inc = 0.16914963039243 prob = 0.124052
-0.01 1:0.57168001 2:0 3:0 4:0 5:0.57168001 6:0 7:0 8:0 9:0 10:0 11:0.55312502 12:0 13:0 14:0 15:0.55225998 16:0.53421497 17:0 18:0 19:0.125 20:0.53409499 21:0.65258503 22:0.60658401 23:0.78780597 24:0.619591 25:0 26:0 27:0 28:0 29:0 30:0 31:0 32:0 33:0 34:0 35:0 36:0 37:0.67282897 38:0.62195301 39:0.78598303 40:0.63355798 41:0.125 42:0.049180001 43:0 44:0.000115 45:0.001403 46:0 #docid = GX234-97-8382086 inc = 1 prob = 0.094695
-0.01 1:0.131047 2:0 3:0 4:0 5:0.131047 6:0 7:0 8:0 9:0 10:0 11:0.12601399 12:0 13:0 14:0 15:0.12570401 16:0.074501999 17:0.060605999 18:0 19:0.1875 20:0.074441001 21:0.97888601 22:0.81815797 23:1 24:0.80305803 25:0 26:0 27:0 28:0 29:0 30:0 31:0 32:0 33:0 34:0 35:0 36:0 37:0.996185 38:0.84049302 39:1 40:0.82200599 41:0.25 42:0.327869 43:0 44:5.7000001e-005 45:0.00019999999 46:0 #docid = GX243-72-3826417 inc = 1 prob = 0.137109
-0.01 1:0.13368499 2:0 3:0 4:0 5:0.13368499 6:0 7:0 8:0 9:0 10:0 11:0.124132 12:0 13:0 14:0 15:0.123714 16:0.090993002 17:0.121212 18:0 19:0.25 20:0.090993002 21:0.73601103 22:0.69797403 23:0.84927398 24:0.70301098 25:0 26:0 27:0 28:0 29:0 30:0 31:0 32:0 33:0 34:0 35:0 36:0 37:0.752321 38:0.716003 39:0.84774202 40:0.71882802 41:0.5 42:0.155738 43:0 44:0.001775 45:0.00019999999 46:0 #docid = GX250-61-5740739 inc = 1 prob = 0.101265
-0.01 1:0.207564 2:0 3:0 4:0 5:0.207564 6:0 7:0 8:0 9:0 10:0 11:0.189126 12:0 13:0 14:0 15:0.1883 16:0.16154701 17:0.242424 18:0.25 19:0.5 20:0.161787 21:0.79628199 22:0.72206497 23:0.91628498 24:0.71935397 25:0 26:0 27:0 28:0 29:0 30:0 31:0 32:0 33:0 34:0 35:0 36:0 37:0.81339097 38:0.74083698 39:0.91480899 40:0.73564303 41:0.375 42:0.28688499 43:0 44:2.6e-005 45:0.000401 46:0.057471 #docid = GX254-59-6117024 inc = 1 prob = 0.126646
-0.01 1:0.030782999 2:0 3:0 4:0 5:0.030782999 6:0 7:0 8:0 9:0 10:0 11:0.023486 12:0 13:0 14:0 15:0.023158001 16:0.022042001 17:0.121212 18:0 19:0.25 20:0.022042001 21:0.90806103 22:0.81184202 23:0.823762 24:0.80534899 25:0 26:0 27:0 28:0 29:0 30:0 31:0 32:0 33:0 34:0 35:0 36:0 37:0.920331 38:0.831783 39:0.82150501 40:0.822469 41:0.375 42:0.63934398 43:0 44:2.9999999e-005 45:0.00019999999 46:0 #docid = GX260-73-14560286 inc = 0.16914963039243 prob = 0.107342
0.02 1:0.079470001 2:1 3:1 4:0 5:0.095132999 6:0 7:0 8:0 9:0 10:0 11:0.080622002 12:1 13:1 14:0 15:0.097902998 16:0.112009 17:0.80000001 18:0.66666698 19:0 20:0.111929 21:1 22:1 23:0.84894001 24:1 25:1 26:0 27:0 28:0 29:1 30:1 31:1 32:1 33:0 34:0 35:0 36:0 37:1 38:1 39:0.87625802 40:1 41:0 42:0 43:0 44:1 45:0.66666698 46:0 #docid = GX042-63-1155386 inc = 0.0604449031569078 prob = 0.931205
-0.02 1:1 2:0 3:0 4:0 5:1 6:0 7:0 8:0 9:0 10:0 11:1 12:0 13:0 14:0 15:1 16:1 17:0 18:0 19:0.40000001 20:1 21:0.96785498 22:0.79363102 23:0.956734 24:0.86119503 25:0 26:0 27:0 28:0 29:0 30:0 31:0 32:0 33:0 34:0 35:0 36:0 37:0.94712901 38:0.78062803 39:0.95520198 40:0.84662902 41:0.25 42:0 43:0 44:0 45:0 46:0 #docid = GX265-45-5315866 inc = 1 prob = 0.784978
-0.029999999999999999 1:0.170213 2:1 3:1 4:0 5:0.26666701 6:0 7:0 8:0 9:0 10:0 11:0.19060101 12:1 13:1 14:0 15:0.28475299 16:0.006699 17:0.72727299 18:1 19:0.15000001 20:0.007218 21:0.87998599 22:0.92807198 23:0.76028597 24:0.97282499 25:0.52778602 26:0 27:0 28:0 29:0.92373103 30:0.97817802 31:0.99981898 32:0.98413497 33:0 34:0 35:0 36:0 37:0.94852 38:0.98961401 39:0.81582201 40:1 41:0.66666698 42:0.21929801 43:0 44:0.031060999 45:0.1 46:0.40000001 #docid = GX028-13-6079777 inc = 0.0277289217815105 prob = 0.628982
0.02 1:0.57446802 2:0 3:0 4:0 5:0.555556 6:0 7:0 8:0 9:0 10:0 11:0.61845797 12:0 13:0 14:0 15:0.56592 16:0.032600001 17:0.45454499 18:0.88888901 19:0.15000001 20:0.032963 21:0.54964203 22:0.59424001 23:0.74915498 24:0.73882401 25:0 26:0 27:0 28:0 29:0 30:0 31:0 32:0 33:0 34:0 35:0 36:0 37:0.52554798 38:0.55594802 39:0.69796902 40:0.71084797 41:0.33333299 42:0.087719001 43:0 44:1 45:0.40000001 46:0.285714 #docid = GX036-78-12952699 inc = 0.0193400694352523 prob = 0.824883
-4.7162794503119443e-018 1:1 2:0 3:0 4:0 5:1 6:0 7:0 8:0 9:0 10:0 11:1 12:0 13:0 14:0 15:0.93414903 16:1 17:1 18:0.33333299 19:0 20:1 21:0 22:0.238499 23:0.51848298 24:0.35903201 25:0 26:0 27:0 28:0 29:0 30:0 31:0 32:0 33:0 34:0 35:0 36:0 37:0 38:0.209608 39:0.461862 40:0.35274699 41:0 42:0 43:0 44:0.58217198 45:0.5 46:0.17142899 #docid = GX057-82-3444168 inc = 0.00485314591414909 prob = 0.118979
0.020000000000000004 1:0.85106403 2:0 3:0 4:0 5:0.84444398 6:0 7:0 8:0 9:0 10:0 11:0.92760199 12:0 13:0 14:0 15:0.86629599 16:0.053254001 17:0.45454499 18:0 19:0.85000002 20:0.053833999 21:0.70466501 22:0.744048 23:0.87678301 24:0.79506803 25:0 26:0 27:0 28:0 29:0 30:0 31:0 32:0 33:0 34:0 35:0 36:0 37:0.67634797 38:0.70503497 39:0.829189 40:0.76543498 41:1 42:0.64912301 43:0 44:0.0027050001 45:0.1 46:0 #docid = GX208-16-1804510 inc = 1 prob = 0.981789
0.02 1:0.80851102 2:0 3:0 4:1 5:0.86666697 6:0 7:0 8:0 9:0 10:0 11:0.87151599 12:0 13:0 14:1 15:0.87851298 16:0.029735001 17:0.27272701 18:0 19:1 20:0.030358 21:0.95727003 22:0.945485 23:0.98706299 24:0.95348197 25:0 26:0 27:0 28:0 29:0 30:0 31:0 32:0 33:1 34:1 35:1 36:1 37:0.93590802 38:0.91999 39:0.96111798 40:0.92847198 41:0.33333299 42:1 43:0 44:0.076233998 45:0.1 46:0 #docid = GX236-09-15065050 inc = 1 prob = 0.961183
-0.029999999999999999 1:0.21276601 2:0 3:0 4:0 5:0.17777801 6:0 7:0 8:0 9:0 10:0 11:0.23309 12:0 13:0 14:0 15:0.190971 16:0.053849999 17:0 18:0 19:0.40000001 20:0.053908002 21:0.376362 22:0.49830899 23:0.66902798 24:0.61903697 25:0 26:0 27:0 28:0 29:0 30:0 31:0 32:0 33:0 34:0 35:0 36:0 37:0.363368 38:0.46430999 39:0.61616403 40:0.59915298 41:0.66666698 42:0.57894701 43:0 44:0 45:0 46:0 #docid = GX271-11-0661866 inc = 0.0078320265365477 prob = 0.29371
-0.02 1:0.066097997 2:1 3:1 4:0.5 5:0.074946001 6:0 7:0 8:0 9:0 10:0 11:0.100316 12:1 13:1 14:0.33333299 15:0.101727 16:0.030536 17:0.77777803 18:0.89999998 19:0.555556 20:0.031757001 21:0.74400401 22:0.72590798 23:0.59158701 24:0.78419799 25:0.77132303 26:1 27:1 28:1 29:0.67049903 30:1 31:1 32:1 33:0.60192299 34:0.90229702 35:0.64771199 36:0.89302599 37:0.55233097 38:0.71036398 39:0.58888698 40:0.68799502 41:0.25 42:0.489362 43:0 44:0.335971 45:0.003521 46:0.237179 #docid = GX000-18-12239769 inc = 0.0581520009295469 prob = 0.133028
-0.01 1:0.031982999 2:0.5 3:0 4:0.5 5:0.034260999 6:0 7:0 8:0 9:0 10:0 11:0.053300999 12:0.59307599 13:0 14:0.33333299 15:0.059806 16:0.011188 17:0.277778 18:0.5 19:0.555556 20:0.011748 21:0.476468 22:0.495994 23:0.42939201 24:0.431813 25:1 26:0 27:0.0088649997 28:0.030470001 29:0 30:0 31:0 32:0 33:0.60192299 34:0.90229702 35:0.64771199 36:0.89302599 37:0.30913401 38:0.46489099 39:0.42285401 40:0.27564901 41:0.25 42:0.489362 43:0 44:0.90798402 45:0.53521103 46:0.237179 #docid = GX002-18-6899128 inc = 0.00568797444466885 prob = 0.0894879
-0.02 1:0.50106603 2:0 3:0 4:0.25 5:0.50107098 6:0 7:0 8:0 9:0 10:0 11:0.43318701 12:0 13:0 14:0 15:0.42585301 16:0.125173 17:1 18:0.30000001 19:0.77777803 20:0.12636 21:0.77751303 22:0.91288799 23:0.86534703 24:0.98175901 25:0 26:0 27:0 28:0 29:0 30:0 31:0 32:0 33:0.061485998 34:0.109819 35:0 36:0 37:0.72299999 38:0.90411901 39:0.85695398 40:0.914868 41:0 42:0.63829798 43:0 44:1 45:1 46:1 #docid = GX004-67-3520414 inc = 0.0176386471128856 prob = 0.0905373
-0.02 1:0.098081 2:0 3:0 4:0.25 5:0.096359998 6:0 7:0 8:0 9:0 10:0 11:0.114306 12:0 13:0 14:0 15:0.106487 16:0.046445999 17:0 18:0.69999999 19:0.66666698 20:0.046891 21:0.65526402 22:0.60589099 23:0.57249898 24:0.631414 25:0 26:0 27:0 28:0 29:0 30:0 31:0 32:0 33:0.054731 34:0.114112 35:0.001606 36:0.0072920001 37:0.518139 38:0.58573598 39:0.55964899 40:0.50894397 41:0 42:0.765957 43:0 44:0 45:0 46:0.032051001 #docid = GX011-96-12699832 inc = 0.0307912553115928 prob = 0.096232
-0.01 1:0.095949002 2:0 3:0 4:0.25 5:0.094218001 6:0 7:0 8:0 9:0 10:0 11:0.071139999 12:0 13:0 14:0 15:0.069509 16:0.068411998 17:0.166667 18:0.1 19:0.555556 20:0.068644002 21:0.29643601 22:0.31108201 23:0.394703 24:0.38797501 25:0 26:0 27:0 28:0 29:0 30:0 31:0 32:0 33:0.047433998 34:0.012147 35:0.003212 36:0.015261 37:0.25183901 38:0.295827 39:0.38469499 40:0.23368099 41:0.75 42:0.53191501 43:0 44:0.003828 45:0.001174 46:0.019231001 #docid = GX032-82-5155776 inc = 0.0092589785682571 prob = 0.0891424
-0.02 1:0.091683999 2:0 3:0 4:0.25 5:0.089936003 6:0 7:0 8:0 9:0 10:0 11:0.074251004 12:0 13:0 14:0 15:0.080885001 16:0.052501999 17:0.166667 18:0.30000001 19:0.222222 20:0.052687999 21:0.37373 22:0.441679 23:0.427264 24:0.48861599 25:0 26:0 27:0 28:0 29:0 30:0 31:0 32:0 33:0.021562999 34:0.13903999 35:0.0080359997 36:0.044741999 37:0.402309 38:0.45499501 39:0.43759501 40:0.43044999 41:0 42:0.29787201 43:0 44:0.057788 45:0.016432 46:0.089744002 #docid = GX046-37-0217310 inc = 1 prob = 0.0405039
-0.02 1:0.18763299 2:0 3:0 4:0.5 5:0.188437 6:0 7:0 8:0 9:0 10:0 11:0.224003 12:0 13:0 14:0.33333299 15:0.237358 16:0.05979 17:0.111111 18:0.30000001 19:0.33333299 20:0.059973001 21:1 22:0.96432799 23:0.82609099 24:0.99113601 25:0 26:0 27:0 28:0 29:0 30:0 31:0 32:0 33:0.63367498 34:0.94079101 35:0.65092701 36:0.93108898 37:0.96540898 38:0.98434299 39:0.83782703 40:1 41:0 42:0.234043 43:0 44:0.011062 45:0.001174 46:0.070513003 #docid = GX056-01-12784687 inc = 0.00551275297078799 prob = 0.089823
-0.02 1:0.034115002 2:0 3:1 4:0.25 5:0.036403 6:0 7:0 8:0 9:0 10:0 11:0.042757999 12:0 13:0.984905 14:0 15:0.028322 16:0.0085709998 17:0 18:1 19:0.33333299 20:0.0090290001 21:0.33864999 22:0.49590999 23:0.388289 24:0.274777 25:0 26:0 27:0 28:0 29:0.61357999 30:0.80789602 31:0.89078498 32:0.91569799 33:0.030936999 34:0.131246 35:0.0064269998 36:0.033785 37:0.18514 38:0.504583 39:0.38800299 40:0.122001 41:0.25 42:0.27659601 43:0 44:0 45:0 46:0 #docid = GX060-22-9225542 inc = 1 prob = 0.0897427
-0.02 1:0.121535 2:0 3:0 4:0.25 5:0.119914 6:0 7:0 8:0 9:0 10:0 11:0.099356003 12:0 13:0 14:0 15:0.107676 16:0.070464 17:0.277778 18:0.69999999 19:0.222222 20:0.070951998 21:0.51041102 22:0.53731 23:0.53531998 24:0.581707 25:0 26:0 27:0 28:0 29:0 30:0 31:0 32:0 33:0.021562999 34:0.13903999 35:0.0080359997 36:0.044741999 37:0.53890997 38:0.55296701 39:0.54600102 40:0.52749997 41:0.5 42:0 43:0 44:0.003757 45:0.001174 46:0.032051001 #docid = GX067-06-8465758 inc = 1 prob = 0.0878941
-0.01 1:0.068230003 2:0 3:0 4:0.25 5:0.066381 6:0 7:0 8:0 9:0 10:0 11:0.053582001 12:0 13:0 14:0 15:0.058896001 16:0.10136 17:0.055555999 18:0.30000001 19:0.33333299 20:0.101478 21:0.285164 22:0.30423701 23:0.35512799 24:0.44890901 25:0 26:0 27:0 28:0 29:0 30:0 31:0 32:0 33:0.030936999 34:0 35:0.0064269998 36:0.033785 37:0.32343501 38:0.32087499 39:0.35764 40:0.32093599 41:0 42:0.340426 43:0 44:0.031505998 45:0.028169001 46:0.153846 #docid = GX099-72-13209456 inc = 0.0168824081297843 prob = 0.0746734
0.19000000000000003 1:0.057569001 2:0 3:0 4:0.75 5:0.059957001 6:0 7:0 8:0 9:0 10:0 11:0.072051004 12:0 13:0 14:0.66666698 15:0.079187997 16:0.015858 17:0 18:0 19:0.555556 20:0.015904 21:0.77455002 22:0.83564597 23:0.59723699 24:0.78594398 25:0 26:0 27:0 28:0 29:0 30:0 31:0 32:0 33:0.85505003 34:1 35:0.86543697 36:0.960518 37:0.60500902 38:0.82341301 39:0.59864902 40:0.69231701 41:0.25 42:0.234043 43:0 44:0 45:0 46:0 #docid = GX233-01-2393979 inc = 1 prob = 0.11034
-0.01 1:0.53518099 2:0 3:0 4:0.25 5:0.53533202 6:0 7:0 8:0 9:0 10:0 11:0.480445 12:0 13:0 14:0 15:0.48955801 16:0.8136 17:0.222222 18:0 19:0.33333299 20:0.81346202 21:0.33655101 22:0.279026 23:0.30237901 24:0.46493101 25:0 26:0 27:0 28:0 29:0 30:0 31:0 32:0 33:0.030936999 34:0.131246 35:0.0064269998 36:0.033785 37:0.43893999 38:0.286614 39:0.31842801 40:0.352559 41:0.5 42:0.489362 43:0 44:0.000102 45:0.001174 46:0 #docid = GX233-90-12883675 inc = 1 prob = 0.139467
-0.02 1:0.34968001 2:0 3:0 4:0.5 5:0.35117799 6:0 7:0 8:0 9:0 10:0 11:0.43268299 12:0 13:0 14:0.33333299 15:0.39446199 16:0.17541701 17:0.222222 18:0.60000002 19:0.555556 20:0.175918 21:0.909114 22:0.97164601 23:0.87326801 24:0.97786802 25:0 26:0 27:0 28:0 29:0 30:0 31:0 32:0 33:0.60192299 34:0.90229702 35:0.64771199 36:0.89302599 37:0.748137 38:0.94402301 39:0.84819698 40:0.89913398 41:0.25 42:0.42553201 43:0 44:0.005227 45:0.001174 46:0.179487 #docid = GX234-30-0915828 inc = 0.0815692334460509 prob = 0.209653
-0.02 1:0.042644002 2:0 3:0 4:0.75 5:0.044968002 6:0 7:0 8:0 9:0 10:0 11:0.060729001 12:0 13:0 14:0.66666698 15:0.067709997 16:0.016936 17:0 18:0 19:0.555556 20:0.016981 21:0.61443001 22:0.63966 23:0.49795899 24:0.57677197 25:0 26:0 27:0 28:0 29:0 30:0 31:0 32:0 33:0.85505003 34:1 35:0.86543697 36:0.960518 37:0.46465701 38:0.62760299 39:0.49801901 40:0.45438799 41:0.25 42:0.234043 43:0 44:0 45:0 46:0 #docid = GX235-08-0400309 inc = 0.0181256373895864 prob = 0.10138
-0.02 1:0.14925399 2:0 3:0 4:1 5:0.154176 6:0 7:0 8:0 9:0 10:0 11:0.18558399 12:0 13:0 14:1 15:0.15175401 16:0.067385003 17:0 18:0 19:0.555556 20:0.067411996 21:0.90212798 22:0.926377 23:0.78049201 24:0.93590099 25:0 26:0 27:0 28:0 29:0 30:0 31:0 32:0 33:1 34:0.97083199 35:1 36:1 37:0.68248999 38:0.90072799 39:0.758762 40:0.85293299 41:0.25 42:0.234043 43:0 44:0 45:0 46:0 #docid = GX236-06-16168827 inc = 1 prob = 0.234178
-0.02 1:0.40938199 2:0.5 3:0 4:0.25 5:0.41113499 6:0 7:0 8:0 9:0 10:0 11:0.56544 12:0.59307599 13:0 14:0 15:0.49116901 16:0.252143 17:0.33333299 18:0 19:0.111111 20:0.252206 21:0.64325899 22:0.57011598 23:0.56824899 24:0.62287599 25:0.883564 26:0.86698198 27:0 28:0 29:0 30:0 31:0 32:0 33:0.011295 34:0.148426 35:0.0096450001 36:0.057229001 37:0.51070499 38:0.547683 39:0.54668599 40:0.49931899 41:0 42:0.340426 43:0 44:0.001148 45:0.001174 46:0 #docid = GX238-63-7852597 inc = 1 prob = 0.142607
-0.02 1:0.046907999 2:0 3:0 4:0.75 5:0.049251001 6:0 7:0 8:0 9:0 10:0 11:0.061795998 12:0 13:0 14:0.66666698 15:0.068779998 16:0.017347001 17:0 18:0 19:0.555556 20:0.017392 21:0.64621103 22:0.69080001 23:0.52515697 24:0.60022098 25:0 26:0 27:0 28:0 29:0 30:0 31:0 32:0 33:0.85505003 34:1 35:0.86543697 36:0.960518 37:0.49547699 38:0.679865 39:0.52643102 40:0.48230401 41:0.25 42:0.234043 43:0 44:0 45:0 46:0 #docid = GX240-84-12521534 inc = 1 prob = 0.113302
-0.02 1:1 2:0 3:0 4:0 5:1 6:0 7:0 8:0 9:0 10:0 11:1 12:0 13:0 14:0.113973 15:1 16:0.28632301 17:0.88888901 18:0.2 19:0.33333299 20:0.287092 21:0.981704 22:1 23:1 24:1 25:0 26:0 27:0 28:0 29:0 30:0 31:0 32:0 33:0.23702399 34:0 35:0 36:0 37:1 38:1 39:1 40:0.95037699 41:0 42:0.27659601 43:0 44:0.051925998 45:0.0093900003 46:0.198718 #docid = GX249-30-0566443 inc = 1 prob = 0.12118
-0.01 1:0.083155997 2:0 3:0 4:0.75 5:0.085653 6:0 7:0 8:0 9:0 10:0 11:0.107921 12:0 13:0 14:0.66666698 15:0.078436002 16:0.054451998 17:0 18:0 19:0.33333299 20:0.054381002 21:0.335123 22:0.29850301 23:0.34676099 24:0.190171 25:0 26:0 27:0 28:0 29:0 30:0 31:0 32:0 33:0.88854802 34:0.88637 35:0.86865199 36:0.99858201 37:0.191938 38:0.277996 39:0.330432 40:0.0080909999 41:0.25 42:0.191489 43:0 44:0 45:0 46:0 #docid = GX252-95-9973377 inc = 0.0137583834475319 prob = 0.0920219
-0.02 1:0.25373101 2:0 3:0 4:0.25 5:0.25267699 6:0 7:0 8:0 9:0 10:0 11:0.21636599 12:0 13:0 14:0 15:0.209966 16:0.184347 17:0.66666698 18:0 19:0.33333299 20:0.184845 21:0.474572 22:0.494297 23:0.52656198 24:0.58965099 25:0 26:0 27:0 28:0 29:0 30:0 31:0 32:0 33:0.030936999 34:0.131246 35:0.0064269998 36:0.033785 37:0.46443799 38:0.481309 39:0.51648301 40:0.46700999 41:0.25 42:0.489362 43:0 44:0.00070400001 45:0.001174 46:0 #docid = GX255-30-4478761 inc = 1 prob = 0.0727547
0.16 1:0.41791001 2:0 3:0 4:0.75 5:0.42184201 6:0 7:0 8:0 9:0 10:0 11:0.51283902 12:0 13:0 14:0.66666698 15:0.40438601 16:0.25388801 17:0 18:0 19:0.33333299 20:0.25374499 21:0.720267 22:0.72122598 23:0.68178302 24:0.75189602 25:0 26:0 27:0 28:0 29:0 30:0 31:0 32:0 33:0.88854802 34:0.88637 35:0.86865199 36:0.99858201 37:0.56038898 38:0.69925499 39:0.66012198 40:0.647044 41:0.25 42:0.148936 43:0 44:0 45:0 46:0 #docid = GX256-52-1414955 inc = 1 prob = 0.150435
-0.02 1:0.074626997 2:0 3:0 4:0.75 5:0.077087998 6:0 7:0 8:0 9:0 10:0 11:0.105617 12:0 13:0 14:0.66666698 15:0.102199 16:0.029561 17:0 18:0 19:0.555556 20:0.029602 21:0.58469099 22:0.54109198 23:0.51609802 24:0.53785503 25:0 26:0 27:0 28:0 29:0 30:0 31:0 32:0 33:0.85505003 34:1 35:0.86543697 36:0.960518 37:0.42453399 38:0.52245599 39:0.50621402 40:0.405072 41:0.25 42:0.234043 43:0 44:0 45:0 46:0 #docid = GX262-10-8546840 inc = 1 prob = 0.131301
-0.040000000000000001 1:0.0076049999 2:0 3:0 4:0 5:0.0074100001 6:0 7:0 8:0 9:0 10:0 11:0.52432901 12:0 13:0 14:0 15:0.54295301 16:0.014027 17:0.125 18:0.27586201 19:0 20:0.014184 21:0.246388 22:0.113226 23:0.163532 24:0.210731 25:0 26:0 27:0 28:0 29:0 30:0 31:0 32:0 33:0 34:0 35:0 36:0 37:0.24377 38:0.120708 39:0.157793 40:0.20984299 41:0.2 42:0.107914 43:0 44:0.003027 45:0.058823999 46:0.5 #docid = GX000-33-12616744 inc = 0.0144181720116128 prob = 0.0797483
-0.099999999999999992 1:0.078198001 2:0 3:0 4:0 5:0.078002997 6:0 7:0 8:0 9:0 10:0 11:0.65934998 12:0 13:0 14:0 15:0.67171103 16:0.076667003 17:0.125 18:0.103448 19:0.052632 20:0.076723002 21:0.44759801 22:0.50329697 23:0.44096401 24:0.576738 25:0 26:0 27:0 28:0 29:0 30:0 31:0 32:0 33:0 34:0 35:0 36:0 37:0.44496301 38:0.50770801 39:0.43798599 40:0.57624102 41:0 42:0.151079 43:0 44:0.44773099 45:0.117647 46:0.1875 #docid = GX000-56-6822960 inc = 1 prob = 0.0897452
-0.080000000000000002 1:0.059672002 2:0 3:0 4:0.33333299 5:0.059672002 6:0 7:0 8:0 9:0 10:0 11:0.42728901 12:0 13:0 14:0.168827 15:0.44801599 16:0.075661004 17:0.45833299 18:0.27586201 19:0.157895 20:0.076059997 21:0.41644701 22:0.468261 23:0.41575801 24:0.574009 25:0 26:0 27:0 28:0 29:0 30:0 31:0 32:0 33:0.248623 34:0.459447 35:0.017975001 36:0.078654997 37:0.41522199 38:0.475243 39:0.41459501 40:0.57456398 41:0.2 42:0.18705 43:0 44:0.020107999 45:0.235294 46:0.1875 #docid = GX000-59-7720562 inc = 1 prob = 0.0897452
-0.11999999999999998 1:0.093409002 2:0.222222 3:0 4:0 5:0.093603998 6:0 7:0 8:0 9:0 10:0 11:0.77473098 12:0.26030001 13:0 14:0 15:0.78766102 16:0.091766998 17:0.25 18:0.24137899 19:0.052632 20:0.091981001 21:0.54691797 22:0.191578 23:0.329144 24:0.41032699 25:0.49592 26:0.295219 27:0.23346999 28:0.195179 29:0 30:0 31:0 32:0 33:0 34:0 35:0 36:0 37:0.54309899 38:0.20445099 39:0.327252 40:0.41181099 41:0 42:0.071942002 43:0 44:0.17181399 45:0.117647 46:0.09375 #docid = GX003-58-9515531 inc = 0.0118593285431632 prob = 0.0864988
0.040000000000000001 1:0.292512 2:0.222222 3:0.40000001 4:0 5:0.29309699 6:0 7:0 8:0 9:0 10:0 11:0.54060501 12:0.120437 13:0.26555899 14:0 15:0.54451698 16:0.25567701 17:0.625 18:0.413793 19:0.052632 20:0.25618401 21:0.75514197 22:0.88821101 23:0.88864797 24:0.907139 25:0.122534 26:0 27:0.005074 28:0.021019001 29:0.242402 30:0.224922 31:0.098119996 32:0.220195 33:0 34:0 35:0 36:0 37:0.75342399 38:0.89167798 39:0.88985503 40:0.90840501 41:0.2 42:0.057553999 43:0 44:0.24535599 45:1 46:0.25 #docid = GX005-83-2591962 inc = 1 prob = 0.744669
0.13999999999999999 1:0.30733201 2:0.111111 3:0.2 4:0 5:0.30752701 6:0 7:0 8:0 9:0 10:0 11:0.75358498 12:0.060219001 13:0.081270002 14:0 15:0.74919403 16:0.255768 17:0.29166701 18:0.413793 19:0.052632 20:0.256093 21:0.93086201 22:0.93423003 23:0.95271498 24:0.94655198 25:0.12341 26:0.21022899 27:0.0038379999 28:0.02335 29:0.074183002 30:0.032037001 31:0.00095900003 32:0.0041689998 33:0 34:0 35:0 36:0 37:0.92246002 38:0.93097699 39:0.94722199 40:0.94347 41:0.2 42:0.057553999 43:0 44:0.212607 45:1 46:0.3125 #docid = GX007-46-3183102 inc = 0.244825398379702 prob = 0.823543
0.02 1:0.179602 2:1 3:1 4:0 5:0.182137 6:0 7:0 8:0 9:0 10:0 11:0.77373499 12:1 13:1 14:0 15:0.79482502 16:0.134303 17:1 18:0.55172402 19:0.052632 20:0.13512699 21:1 22:1 23:1 24:1 25:0.670748 26:1 27:1 28:1 29:0.73124802 30:1 31:1 32:1 33:0 34:0 35:0 36:0 37:1 38:1 39:1 40:1 41:0.2 42:0.115108 43:0 44:0.042778999 45:0.41176501 46:0.09375 #docid = GX010-09-3889069 inc = 1 prob = 0.886762
-0.040000000000000001 1:0.041342001 2:0 3:0.2 4:0 5:0.041342001 6:0 7:0 8:0 9:0 10:0 11:0.44242299 12:0 13:0.081270002 14:0 15:0.46266201 16:0.094508 17:0.083333001 18:0.413793 19:0 20:0.094720997 21:0.111495 22:0.18034001 23:0.102864 24:0.308878 25:0 26:0 27:0 28:0 29:0.074183002 30:0.032037001 31:0.00095900003 32:0.0041689998 33:0 34:0 35:0 36:0 37:0.11495 38:0.192139 39:0.103027 40:0.31140101 41:0 42:0.043164998 43:0 44:0.016607 45:0.058823999 46:0.03125 #docid = GX014-85-7711000 inc = 0.0244320228135818 prob = 0.0572756
0.27000000000000007 1:0.00351 2:0 3:0 4:0 5:0.0033150001 6:0 7:0 8:0 9:0 10:0 11:0.53081 12:0 13:0 14:0 15:0.54933798 16:0.0031069999 17:0.208333 18:0.172414 19:0.052632 20:0.003266 21:0.65385598 22:0.60541803 23:0.468077 24:0.55712801 25:0 26:0 27:0 28:0 29:0 30:0 31:0 32:0 33:0 34:0 35:0 36:0 37:0.63882703 38:0.579835 39:0.45985699 40:0.54029 41:0 42:0.086331002 43:0 44:0.090144999 45:0.17647099 46:0.09375 #docid = GX015-58-10656785 inc = 0.0392560181817517 prob = 0.0960681
-0.11999999999999998 1:0.78802699 2:0 3:0.2 4:0 5:0.78802699 6:0 7:0 8:0 9:0 10:0 11:0.434165 12:0 13:0.081270002 14:0 15:0.408207 16:0.85262901 17:0 18:0.37931001 19:0 20:0.85265303 21:0.38995799 22:0.41154099 23:0.38881901 24:0.593867 25:0 26:0 27:0 28:0 29:0.079092003 30:0.034734 31:0.001439 32:0.0065259999 33:0 34:0 35:0 36:0 37:0.38395599 38:0.42060301 39:0.38946599 40:0.59448397 41:0 42:0 43:0 44:0 45:0 46:0 #docid = GX020-60-2262246 inc = 0.0392560181817517 prob = 0.116802
-0.12 1:0.00039 2:0 3:0.2 4:1 5:0.00097499997 6:0 7:0 8:0 9:0 10:0 11:0.52164102 12:0 13:0.30927801 14:1 15:0.54926801 16:0.00047999999 17:0 18:0.137931 19:0.36842099 20:0.00063999998 21:0.67381001 22:0.69367802 23:0.38034499 24:0.48748001 25:0 26:0 27:0 28:0 29:0.56073803 30:0.38299301 31:0.47226399 32:0.25231099 33:1 34:1 35:1 36:1 37:0.79132599 38:0.737342 39:0.443288 40:0.611983 41:0.60000002 42:0.32374099 43:0 44:0 45:0 46:0 #docid = GX025-92-15355597 inc = 1 prob = 0.120451
-0.21000000000000005 1:0.024571 2:0.111111 3:0.2 4:0 5:0.024766 6:0 7:0 8:0 9:0 10:0 11:0.53195298 12:0.060219001 13:0.081270002 14:0 15:0.54804301 16:0.024238 17:0.58333302 18:0.482759 19:0.052632 20:0.024805 21:0.805655 22:0.83107299 23:0.71023703 24:0.89600402 25:0.071332999 26:0.15800001 27:0 28:0 29:0.065990999 30:0 31:0 32:0 33:0 34:0 35:0 36:0 37:0.78888601 38:0.81974 39:0.70109898 40:0.886195 41:0 42:0.115108 43:0 44:0.026472 45:0.117647 46:0.1875 #docid = GX026-99-0601755 inc = 1 prob = 0.448626
-0.12999999999999998 1:0.030421 2:0.111111 3:0.2 4:0 5:0.030616 6:0 7:0 8:0 9:0 10:0 11:0.55010599 12:0.060219001 13:0.081270002 14:0 15:0.56554103 16:0.026544999 17:0.41666701 18:0.34482801 19:0.052632 20:0.026929 21:0.60461998 22:0.54350501 23:0.50079799 24:0.66320598 25:0.093999997 26:0.19762599 27:0.0021909999 28:0.011314 29:0.084696002 30:0.037748002 31:0.0019189999 32:0.0091120005 33:0 34:0 35:0 36:0 37:0.592704 38:0.54184097 39:0.49416801 40:0.658126 41:0 42:0.115108 43:0 44:0.026472 45:0.117647 46:0.1875 #docid = GX026-99-2287576 inc = 0.034498574472078 prob = 0.189925
0.040000000000000008 1:0.190328 2:0 3:0.60000002 4:0 5:0.190718 6:0 7:0 8:0 9:0 10:0 11:0.60599399 12:0 13:0.511702 14:0 15:0.61693603 16:0.169598 17:0.29166701 18:0.413793 19:0.052632 20:0.169937 21:0.71905601 22:0.77856898 23:0.77841401 24:0.83851802 25:0 26:0 27:0 28:0 29:0.40995601 30:0.26545101 31:0.23204599 32:0.26816201 33:0 34:0 35:0 36:0 37:0.71286798 38:0.77866697 39:0.77449602 40:0.83660299 41:0 42:0.107914 43:0 44:0.026472 45:0.117647 46:0.1875 #docid = GX026-99-9879345 inc = 0.244825398379702 prob = 0.697028
0.02 1:0.185452 2:0.222222 3:0.80000001 4:0 5:0.186427 6:0 7:0 8:0 9:0 10:0 11:0.59600902 12:0.120437 13:0.512151 14:0 15:0.60369498 16:0.171426 17:0.208333 18:0.44827601 19:0.052632 20:0.17174099 21:0.73733401 22:0.780904 23:0.78401798 24:0.84613597 25:0.25409099 26:0.196743 27:0.010558 28:0.058233 29:0.38932699 30:0.353448 31:0.34604099 32:0.32570899 33:0 34:0 35:0 36:0 37:0.73261499 38:0.78165901 39:0.78083599 40:0.84461099 41:0 42:0.115108 43:0 44:0.032205001 45:0.17647099 46:0.1875 #docid = GX027-07-1171395 inc = 0.244825398379702 prob = 0.579806
-0.21000000000000005 1:0.64001602 2:0.111111 3:0.2 4:0 5:0.64021099 6:0 7:0 8:0 9:0 10:0 11:0.74815398 12:0.060219001 13:0.081270002 14:0 15:0.72747397 16:0.64159101 17:0.45833299 18:0.37931001 19:0.052632 20:0.641922 21:0.70086598 22:0.78358901 23:0.79774201 24:0.83743203 25:0.087081999 26:0.19438 27:0.0016430001 28:0.0081049995 29:0.079092003 30:0.034734 31:0.001439 32:0.0065259999 33:0 34:0 35:0 36:0 37:0.694718 38:0.78409201 39:0.79427302 40:0.835612 41:0 42:0.107914 43:0 44:0.026472 45:0.117647 46:0.1875 #docid = GX027-09-9112829 inc = 1 prob = 0.389535
-0.060000000000000005 1:0.011895 2:0 3:0 4:0 5:0.0117 6:0 7:0 8:0 9:0 10:0 11:0.51186001 12:0 13:0 14:0 15:0.53086001 16:0.01558 17:0.29166701 18:0.31034499 19:0.31578901 20:0.015989 21:0.39726701 22:0.31578499 23:0.31606999 24:0.36060899 25:0 26:0 27:0 28:0 29:0 30:0 31:0 32:0 33:0 34:0 35:0 36:0 37:0.391698 38:0.312747 39:0.30826101 40:0.356415 41:0.80000001 42:0.24460401 43:0 44:0.001687 45:0.117647 46:0.375 #docid = GX031-87-16421769 inc = 1 prob = 0.0747776
0.0099999999999999967 1:0.36486 2:0 3:0.40000001 4:0 5:0.36505499 6:0 7:0 8:0 9:0 10:0 11:0.68918902 12:0 13:0.349612 14:0 15:0.69129002 16:0.324599 17:0.083333001 18:0.20689701 19:0.052632 20:0.32466099 21:0.76990402 22:0.80155098 23:0.81313598 24:0.85120702 25:0 26:0 27:0 28:0 29:0.50848901 30:0.39142299 31:0.34119201 32:0.338061 33:0 34:0 35:0 36:0 37:0.76558697 38:0.80212301 39:0.80986899 40:0.84964502 41:0 42:0.12949599 43:0 44:0.014406 45:0.235294 46:0.34375 #docid = GX033-19-3645193 inc = 0.244825398379702 prob = 0.719034
0.31000000000000011 1:0.40756601 2:0 3:0.40000001 4:0 5:0.40776101 6:0 7:0 8:0 9:0 10:0 11:0.34980601 12:0 13:0.29648599 14:0 15:0.360282 16:0.42819899 17:0.33333299 18:0.44827601 19:0.052632 20:0.42854199 21:0.57022798 22:0.71653801 23:0.70978999 24:0.78261799 25:0 26:0 27:0 28:0 29:0.25481501 30:0.261181 31:0.173097 32:0.244763 33:0 34:0 35:0 36:0 37:0.56762302 38:0.71875101 39:0.70728898 40:0.78151798 41:0 42:0.136691 43:0 44:0.016825 45:0.29411799 46:0.375 #docid = GX033-20-4011873 inc = 0.244825398379702 prob = 0.407821
0.0099956370360115288 1:0.0117 2:0.222222 3:0.40000001 4:0 5:0.012285 6:0 7:0 8:0 9:0 10:0 11:0.58977097 12:0.28439599 13:0.483558 14:0 15:0.61634701 16:0.0067850002 17:0.125 18:0.103448 19:0.105263 20:0.006875 21:0.84366202 22:0.75399202 23:0.63299 24:0.69687802 25:1 26:0.764983 27:0.48200101 28:0.585109 29:1 30:0.62795103 31:0.51087099 32:0.50432801 33:0 34:0 35:0 36:0 37:0.837502 38:0.75550997 39:0.63685799 40:0.69561398 41:0.2 42:0.410072 43:0 44:0.036471002 45:0.058823999 46:0.03125 #docid = GX033-43-14485165 inc = 1 prob = 0.319097
-0.10999999999999999 1:0.00507 2:0 3:0.2 4:0.33333299 5:0.0052649998 6:0 7:0 8:0 9:0 10:0 11:0.53143603 12:0 13:0.215216 14:0.27803701 15:0.55369103 16:0.003084 17:0.041666999 18:0.172414 19:0.105263 20:0.003175 21:0.55731899 22:0.61075801 23:0.40554699 24:0.54590201 25:0 26:0 27:0 28:0 29:0.34737301 30:0.243267 31:0.172557 32:0.156212 33:0.42726699 34:0.61782998 35:0.26523301 36:0.26638499 37:0.56121701 38:0.60568303 39:0.41428599 40:0.542023 41:0.2 42:0.107914 43:0 44:0.0053289998 45:0.058823999 46:0.0625 #docid = GX039-15-0674466 inc = 1 prob = 0.0244277
0.22000000000000006 1:0.0095549999 2:0 3:0 4:0 5:0.0093599996 6:0 7:0 8:0 9:0 10:0 11:0.54379803 12:0 13:0 14:0 15:0.56169897 16:0.0081780003 17:0.29166701 18:0.172414 19:0.052632 20:0.0083830003 21:0.75683999 22:0.69597799 23:0.55898398 24:0.63577098 25:0 26:0 27:0 28:0 29:0 30:0 31:0 32:0 33:0 34:0 35:0 36:0 37:0.74162501 38:0.68298602 39:0.55046999 40:0.626405 41:0 42:0.086331002 43:0 44:0.118153 45:0.235294 46:0.09375 #docid = GX045-24-6386898 inc = 0.0552801631210056 prob = 0.104605
0.14999999999999999 1:0.029641001 2:0.222222 3:0.2 4:0 5:0.030030999 6:0 7:0 8:0 9:0 10:0 11:0.59676802 12:0.26030001 13:0.215216 14:0 15:0.61926699 16:0.026317 17:0.66666698 18:0.068966001 19:0.052632 20:0.026655 21:0.74568999 22:0.653593 23:0.64186603 24:0.69647503 25:0.251793 26:0.29853901 27:0.227989 28:0.161805 29:0.51789302 30:0.27984101 31:0.17400201 32:0.18137699 33:0 34:0 35:0 36:0 37:0.74106997 38:0.65334201 39:0.63727701 40:0.69374001 41:0 42:0.143885 43:0 44:1 45:0.76470602 46:0.46875 #docid = GX049-59-10818151 inc = 0.116624186428566 prob = 0.229927
-0.080000000000000002 1:0.0040950002 2:0 3:0 4:0.33333299 5:0.0040950002 6:0 7:0 8:0 9:0 10:0 11:0.52411997 12:0 13:0 14:0.27803701 15:0.54440898 16:0.0027640001 17:0.041666999 18:0.137931 19:0.105263 20:0.0028319999 21:0.48853701 22:0.54770201 23:0.35365701 24:0.52041203 25:0 26:0 27:0 28:0 29:0 30:0 31:0 32:0 33:0.42726699 34:0.61782998 35:0.26523301 36:0.26638499 37:0.47950301 38:0.53188598 39:0.35212001 40:0.50901097 41:0.2 42:0.107914 43:0 44:0.037785999 45:0.117647 46:0.0625 #docid = GX061-25-14385699 inc = 0.0712129057221733 prob = 0.0260057
0.34000000000000014 1:0.0029249999 2:0 3:0 4:0.33333299 5:0.0029249999 6:0 7:0 8:0 9:0 10:0 11:0.52599698 12:0 13:0 14:0.168827 15:0.54535198 16:0.0034719999 17:0.208333 18:0 19:1 20:0.0039289999 21:0.627056 22:0.49979001 23:0.443147 24:0.457854 25:0 26:0 27:0 28:0 29:0 30:0 31:0 32:0 33:0.14913499 34:0.04403 35:0 36:0 37:0.64971298 38:0.52395499 39:0.443883 40:0.53282899 41:0.60000002 42:0.640288 43:0 44:0.000142 45:0.058823999 46:0 #docid = GX064-97-6227636 inc = 1 prob = 0.0954762
-0.12999999999999998 1:0.035686001 2:0 3:0 4:0 5:0.035491001 6:0 7:0 8:0 9:0 10:0 11:0.52857399 12:0 13:0 14:0 15:0.54614002 16:0.033101998 17:0.041666999 18:0.37931001 19:0.210526 20:0.033371001 21:0.63968402 22:0.55045402 23:0.49728599 24:0.59281403 25:0 26:0 27:0 28:0 29:0 30:0 31:0 32:0 33:0 34:0 35:0 36:0 37:0.63048297 38:0.549106 39:0.49099901 40:0.58963799 41:0.40000001 42:0.18705 43:0 44:0.00098300003 45:0.058823999 46:0.78125 #docid = GX074-17-13786514 inc = 0.034498574472078 prob = 0.143496
-0.16 1:0.019111 2:0.222222 3:0.40000001 4:0 5:0.019695999 6:0 7:0 8:0 9:0 10:0 11:0.55102599 12:0.232042 13:0.389056 14:0 15:0.57611799 16:0.017887 17:0.375 18:0.34482801 19:0.157895 20:0.018296 21:0.57891601 22:0.54996902 23:0.49407801 24:0.62830502 25:0.39346701 26:0.54640299 27:0.22826301 28:0.40581399 29:0.40546101 30:0.401144 31:0.246314 32:0.34809399 33:0 34:0 35:0 36:0 37:0.57784098 38:0.55265403 39:0.49551001 40:0.627433 41:0.40000001 42:0.172662 43:0 44:0.00016700001 45:0.058823999 46:0 #docid = GX078-18-9089020 inc = 0.116624186428566 prob = 0.290724
0.36000000000000015 1:0.0029249999 2:0 3:0 4:0.33333299 5:0.0029249999 6:0 7:0 8:0 9:0 10:0 11:0.51675302 12:0 13:0 14:0.168827 15:0.53642303 16:0.0026730001 17:0.208333 18:0 19:1 20:0.0031290001 21:0.553792 22:0.481161 23:0.39332601 24:0.45536 25:0 26:0 27:0 28:0 29:0 30:0 31:0 32:0 33:0.14913499 34:0.04403 35:0 36:0 37:0.57474297 38:0.49465501 39:0.39445901 40:0.530572 41:0.60000002 42:0.640288 43:0 44:0.000142 45:0.058823999 46:0 #docid = GX082-32-4815730 inc = 1 prob = 0.0890882
-0.12999999999999998 1:0.36680999 2:0 3:0.60000002 4:0 5:0.36719999 6:0 7:0 8:0 9:0 10:0 11:0.30608201 12:0 13:0.511702 14:0 15:0.32594901 16:0.53977197 17:0.166667 18:0.55172402 19:0.26315799 20:0.54016602 21:0.45461899 22:0.48059899 23:0.48159599 24:0.64098001 25:0 26:0 27:0 28:0 29:0.336429 30:0.236719 31:0.23013 32:0.252489 33:0 34:0 35:0 36:0 37:0.45524001 38:0.487955 39:0.48125699 40:0.64122599 41:0.40000001 42:0.28777 43:0 44:0.181941 45:0.117647 46:0.03125 #docid = GX085-75-5381199 inc = 0.0456522192107293 prob = 0.126613
-0.040000000000000001 1:0.015991 2:0 3:0.2 4:0 5:0.015991 6:0 7:0 8:0 9:0 10:0 11:0.493938 12:0 13:0.125894 14:0 15:0.513228 16:0.026248001 17:0.375 18:1 19:0.36842099 20:0.027181 21:0.29699701 22:0.30113599 23:0.292128 24:0.46430299 25:0 26:0 27:0 28:0 29:0.055916 30:0.027944 31:0.0076009999 32:0.022376999 33:0 34:0 35:0 36:0 37:0.287516 38:0.299889 39:0.28511101 40:0.45895401 41:0.80000001 42:0.28057599 43:0 44:0.001676 45:0.058823999 46:0.34375 #docid = GX103-32-10322531 inc = 0.0197017964728741 prob = 0.0768328
-0.019999999999999997 1:0.16536701 2:0 3:0.40000001 4:0 5:0.165562 6:0 7:0 8:0 9:0 10:0 11:0.65140802 12:0 13:0.349612 14:0 15:0.66153902 16:0.135309 17:0.041666999 18:0.27586201 19:0.052632 20:0.135424 21:0.86021698 22:0.86237001 23:0.87798601 24:0.91128403 25:0 26:0 27:0 28:0 29:0.424521 30:0.276508 31:0.34022999 32:0.32232401 33:0 34:0 35:0 36:0 37:0.85324502 38:0.86111498 39:0.87345201 40:0.90894598 41:0 42:0.136691 43:0 44:0.007129 45:0.117647 46:0.25 #docid = GX109-53-10942300 inc = 1 prob = 0.816919
-0.18999563703601158 1:0.014236 2:0 3:0 4:0 5:0.014041 6:0 7:0 8:0 9:0 10:0 11:0.53734303 12:0 13:0 14:0 15:0.55523801 16:0.011468 17:0.166667 18:0.37931001 19:0.105263 20:0.011763 21:0.77215499 22:0.76015103 23:0.60763299 24:0.763161 25:0 26:0 27:0 28:0 29:0 30:0 31:0 32:0 33:0 34:0 35:0 36:0 37:0.75478798 38:0.74650401 39:0.59856403 40:0.752276 41:0 42:0.057553999 43:0 44:8.6e-005 45:0.058823999 46:0 #docid = GX130-58-14618599 inc = 1 prob = 0.293687
-0.080000000000000002 1:0.014821 2:0 3:0 4:0.66666698 5:0.015016 6:0 7:0 8:0 9:0 10:0 11:0.52599102 12:0 13:0 14:0.59374601 15:0.544393 16:0.016974 17:0 18:0.24137899 19:0.94736803 20:0.017449999 21:0.55348998 22:0.49698099 23:0.494699 24:0.63193798 25:0 26:0 27:0 28:0 29:0 30:0 31:0 32:0 33:0.43412799 34:0.399676 35:0.361339 36:0.233942 37:0.54530698 38:0.49316901 39:0.48791599 40:0.625117 41:0.60000002 42:1 43:0 44:0 45:0 46:0.125 #docid = GX144-09-10703041 inc = 1 prob = 0.0890912
-0.060000000000000005 1:0 2:0 3:0.2 4:0.33333299 5:0.000195 6:0 7:0 8:0 9:0 10:0 11:0.51631403 12:0 13:0.30927801 14:0.41558701 15:0.540784 16:0 17:0 18:0.034483001 19:0.157895 20:0 21:0.235311 22:0.359611 23:0.16372401 24:0.061756998 25:0 26:0 27:0 28:0 29:0.88984698 30:0.43836799 31:0.47371 32:0.29038501 33:0.61201602 34:0.79069698 35:0.78423297 36:0.468932 37:0.30001301 38:0.289258 39:0.204953 40:0.02558 41:0.60000002 42:0.143885 43:0 44:0 45:0 46:0 #docid = GX155-61-12712568 inc = 1 prob = 0.0834739
0.36000000000000015 1:0.0029249999 2:0 3:0 4:0.33333299 5:0.0029249999 6:0 7:0 8:0 9:0 10:0 11:0.51675302 12:0 13:0 14:0.168827 15:0.53642303 16:0.0026730001 17:0.208333 18:0 19:1 20:0.0031290001 21:0.553792 22:0.481161 23:0.39332601 24:0.45536 25:0 26:0 27:0 28:0 29:0 30:0 31:0 32:0 33:0.14913499 34:0 35:0 36:0 37:0.57474297 38:0.492136 39:0.39445901 40:0.530572 41:0.60000002 42:0.61870497 43:0 44:0.00014600001 45:0.058823999 46:0 #docid = GX161-44-10770736 inc = 1 prob = 0.089044
-0.060000000000000005 1:0.014821 2:0 3:0 4:0 5:0.014626 6:0 7:0 8:0 9:0 10:0 11:0.502518 12:0 13:0 14:0 15:0.52151197 16:0.022319 17:0.33333299 18:0.37931001 19:0.31578901 20:0.022794999 21:0.40464601 22:0.305482 23:0.30331501 24:0.399223 25:0 26:0 27:0 28:0 29:0 30:0 31:0 32:0 33:0 34:0 35:0 36:0 37:0.39540899 38:0.30452999 39:0.296002 40:0.395399 41:0.80000001 42:0.25179899 43:0 44:0.001374 45:0.058823999 46:0.34375 #docid = GX171-34-8324929 inc = 0.0298896506134909 prob = 0.0752171
0.34000000000000014 1:0.0029249999 2:0 3:0 4:0.33333299 5:0.0029249999 6:0 7:0 8:0 9:0 10:0 11:0.52599698 12:0 13:0 14:0.168827 15:0.54535198 16:0.0034719999 17:0.208333 18:0 19:1 20:0.0039289999 21:0.627056 22:0.49979001 23:0.443147 24:0.457854 25:0 26:0 27:0 28:0 29:0 30:0 31:0 32:0 33:0.14913499 34:0 35:0 36:0 37:0.64971298 38:0.52173698 39:0.443883 40:0.53282899 41:0.60000002 42:0.61870497 43:0 44:0.00014600001 45:0.058823999 46:0 #docid = GX189-09-0870268 inc = 1 prob = 0.0952505
-0.02 1:0.00312 2:0 3:0 4:0 5:0.0029249999 6:0 7:0 8:0 9:0 10:0 11:0.52984798 12:0 13:0 14:0 15:0.54842001 16:0.040068999 17:0 18:0.20689701 19:0.31578901 20:0.040245999 21:0.241009 22:0.016139001 23:0.089962997 24:0.090074003 25:0 26:0 27:0 28:0 29:0 30:0 31:0 32:0 33:0 34:0 35:0 36:0 37:0.242144 38:0.028518001 39:0.086387999 40:0.092868999 41:0.80000001 42:0.32374099 43:0 44:6.7000001e-005 45:0.058823999 46:1 #docid = GX193-07-15997426 inc = 0.0100088742075017 prob = 0.0838721
-0.060000000000000005 1:0.027690999 2:0 3:0 4:0 5:0.027496001 6:0 7:0 8:0 9:0 10:0 11:0.493343 12:0 13:0 14:0 15:0.51266402 16:0.045460999 17:0.29166701 18:0.34482801 19:0.31578901 20:0.045887001 21:0.36204499 22:0.179272 23:0.245969 24:0.30756399 25:0 26:0 27:0 28:0 29:0 30:0 31:0 32:0 33:0 34:0 35:0 36:0 37:0.36145699 38:0.1876 39:0.240932 40:0.30753899 41:0.80000001 42:0.258993 43:0 44:0.0010160001 45:0.058823999 46:0.34375 #docid = GX201-60-7395637 inc = 1 prob = 0.074924
-0.02 1:0 2:0 3:0 4:0.33333299 5:0 6:0 7:0 8:0 9:0 10:0 11:0.51652598 12:0 13:0 14:0.168827 15:0.53626502 16:6.9000002e-005 17:0.208333 18:0 19:0.78947401 20:0.00043399999 21:0.25239101 22:0.306036 23:0.160482 24:0.020972 25:0 26:0 27:0 28:0 29:0 30:0 31:0 32:0 33:0.165713 34:0.117834 35:0.0044800001 36:0.013735 37:0.295185 38:0.190723 39:0.162881 40:0.110739 41:0.60000002 42:0.56834501 43:0 44:0.00012700001 45:0.058823999 46:0 #docid = GX210-71-14291501 inc = 1 prob = 0.0836018
-0.12999999999999998 1:0.013456 2:0 3:0 4:0 5:0.013261 6:0 7:0 8:0 9:0 10:0 11:0.53372401 12:0 13:0 14:0 15:0.551687 16:0.015534 17:0 18:0.72413802 19:0.052632 20:0.015943 21:0.66264302 22:0.58090001 23:0.48051801 24:0.63176203 25:0 26:0 27:0 28:0 29:0 30:0 31:0 32:0 33:0 34:0 35:0 36:0 37:0.647493 38:0.57223898 39:0.471863 40:0.62322199 41:0.2 42:0.079136997 43:0 44:0.000199 45:0.058823999 46:0.03125 #docid = GX225-63-6640446 inc = 0.0227249028497607 prob = 0.144832
0.26000000000000006 1:0.51774597 2:0 3:0 4:0 5:0.517551 6:0 7:0 8:0 9:0 10:0 11:0.47838601 12:0 13:0 14:0 15:0.48491299 16:0.756248 17:0.33333299 18:0 19:0.105263 20:0.75626397 21:0.51315701 22:0.450674 23:0.426296 24:0.62263799 25:0 26:0 27:0 28:0 29:0 30:0 31:0 32:0 33:0 34:0 35:0 36:0 37:0.513439 38:0.45856899 39:0.42596 40:0.62265003 41:0.2 42:0.16546801 43:0 44:0.036263999 45:0.117647 46:0 #docid = GX230-74-16202303 inc = 1 prob = 0.109454
0.25000000000000011 1:0.077223003 2:0.111111 3:0 4:0 5:0.077223003 6:0 7:0 8:0 9:0 10:0 11:0.90835202 12:0.154246 13:0 14:0 15:0.91473103 16:0.079636 17:0.125 18:0 19:0.157895 20:0.079668999 21:0.75741398 22:0.61379802 23:0.669375 24:0.72381699 25:0.542364 26:0.47506401 27:0.31104699 28:0.24440999 29:0 30:0 31:0 32:0 33:0 34:0 35:0 36:0 37:0.74966198 38:0.61845398 39:0.66548502 40:0.722736 41:0.40000001 42:0.136691 43:0 44:0.0023360001 45:0.058823999 46:0 #docid = GX232-46-11848613 inc = 0.0712129057221733 prob = 0.163836
0.3000000000000001 1:0.92043698 2:0 3:0 4:0 5:0.92024201 6:0 7:0 8:0 9:0 10:0 11:0 12:0 13:0 14:0 15:0 16:0.97356898 17:0.166667 18:0 19:0.052632 20:0.973436 21:0.51459002 22:0.67329001 23:0.66488999 24:0.75000602 25:0 26:0 27:0 28:0 29:0 30:0 31:0 32:0 33:0 34:0 35:0 36:0 37:0.51191902 38:0.67681098 39:0.66330302 40:0.74937201 41:0 42:0.122302 43:0 44:0.004247 45:0.058823999 46:0 #docid = GX239-94-4390210 inc = 1 prob = 0.211961
0.22000000000000006 1:0.027886 2:0 3:0 4:0 5:0.027690999 6:0 7:0 8:0 9:0 10:0 11:0.49676901 12:0 13:0 14:0 15:0.51526397 16:0.031273998 17:0.33333299 18:0.103448 19:0.105263 20:0.031475 21:0.57038099 22:0.66669703 23:0.59219998 24:0.79671001 25:0 26:0 27:0 28:0 29:0 30:0 31:0 32:0 33:0 34:0 35:0 36:0 37:0.56314802 38:0.66484898 39:0.58659703 40:0.791776 41:0 42:0.143885 43:0 44:0.014708 45:0.117647 46:0.125 #docid = GX240-23-0788838 inc = 0.0164364286534712 prob = 0.104741
-0.040000000000000001 1:0.0038999999 2:0.111111 3:0 4:0 5:0.0038999999 6:0 7:0 8:0 9:0 10:0 11:0.51356 12:0.060219001 13:0 14:0 15:0.531753 16:0.004797 17:0.25 18:0.103448 19:0.157895 20:0.004979 21:0.26204601 22:0.27951601 23:0.21432699 24:0.32869801 25:0.13778 26:0.21586899 27:0.0043870001 28:0.028561 29:0 30:0 31:0 32:0 33:0 34:0 35:0 36:0 37:0.24755201 38:0.27016699 39:0.208342 40:0.321109 41:0 42:0.151079 43:0 44:0.112478 45:0.76470602 46:0.09375 #docid = GX244-33-3245282 inc = 0.034498574472078 prob = 0.0483574
-0.20000000000000004 1:0.047192 2:0 3:0.2 4:0 5:0.047192 6:0 7:0 8:0 9:0 10:0 11:0.56660801 12:0 13:0.215216 14:0 15:0.58101797 16:0.054233 17:0.083333001 18:0.20689701 19:0 20:0.054315999 21:0.59489799 22:0.674308 23:0.64776599 24:0.74161798 25:0 26:0 27:0 28:0 29:0.31301799 30:0.235994 31:0.172076 32:0.151205 33:0 34:0 35:0 36:0 37:0.59403503 38:0.67945999 39:0.64752799 40:0.74226701 41:0.2 42:0.136691 43:0 44:0.034123 45:0.058823999 46:0.0625 #docid = GX244-42-13106595 inc = 0.0392560181817517 prob = 0.128422
-0.12999999999999998 1:0.006825 2:0 3:0.2 4:0 5:0.006825 6:0 7:0 8:0 9:0 10:0 11:0.53337002 12:0 13:0.17384 14:0 15:0.55330902 16:0.0054370002 17:0.041666999 18:0.137931 19:0.210526 20:0.0055499999 21:0.70131803 22:0.71670502 23:0.49000299 24:0.67148399 25:0 26:0 27:0 28:0 29:0.315182 30:0.195484 31:0.076581001 32:0.123288 33:0 34:0 35:0 36:0 37:0.69677699 38:0.713135 39:0.49111599 40:0.66567099 41:0.40000001 42:0.230216 43:0 44:0.0062199999 45:0.117647 46:0 #docid = GX247-43-16496137 inc = 1 prob = 0.238958
-0.14999999999999999 1:0.0038999999 2:0.111111 3:0.2 4:0 5:0.0040950002 6:0 7:0 8:0 9:0 10:0 11:0.53963298 12:0.13015001 13:0.215216 14:0 15:0.56220901 16:0.0073560001 17:0.125 18:0.24137899 19:0.31578901 20:0.0076290001 21:0.73513001 22:0.61165601 23:0.46762899 24:0.67472899 25:0.457636 26:0.414902 27:0.171067 28:0.195179 29:0.284848 30:0.229846 31:0.17159501 32:0.146972 33:0 34:0 35:0 36:0 37:0.72739398 38:0.60763401 39:0.47117701 40:0.66842097 41:0.60000002 42:0.27338099 43:0 44:0.016248999 45:0.058823999 46:0 #docid = GX247-47-7262440 inc = 1 prob = 0.148083
-0.080000000000000002 1:0.002535 2:0 3:0.2 4:0 5:0.002535 6:0 7:0 8:0 9:0 10:0 11:0.52891397 12:0 13:0.215216 14:0 15:0.54976302 16:0.001531 17:0.041666999 18:0.103448 19:0.210526 20:0.001622 21:0.581406 22:0.67934 23:0.375274 24:0.576011 25:0 26:0 27:0 28:0 29:0.44506699 30:0.26365399 31:0.17352 32:0.170241 33:0 34:0 35:0 36:0 37:0.57263899 38:0.65026599 39:0.37543201 40:0.55301899 41:0.40000001 42:0.23740999 43:0 44:0.0062199999 45:0.117647 46:0 #docid = GX249-36-11498883 inc = 0.034498574472078 prob = 0.0997575
-0.14999999999999999 1:0.011115 2:0.111111 3:0 4:0.33333299 5:0.01131 6:0 7:0 8:0 9:0 10:0 11:0.56155998 12:0.101892 13:0 14:0.27803701 15:0.58203602 16:0.0092749996 17:0.166667 18:0.103448 19:0.210526 20:0.0094330003 21:0.70570701 22:0.684156 23:0.53644502 24:0.64366603 25:0.30389601 26:0.33552301 27:0.060056999 28:0.130079 29:0 30:0 31:0 32:0 33:0.39306501 34:0.60373002 35:0.262977 36:0.249824 37:0.70766002 38:0.69018602 39:0.542126 40:0.64500099 41:0.40000001 42:0.179856 43:0 44:0.0039059999 45:0.058823999 46:0.03125 #docid = GX253-69-14878920 inc = 1 prob = 0.191203
-0.080000000000000002 1:0.57215297 2:0 3:0 4:0 5:0.57195801 6:0 7:0 8:0 9:0 10:0 11:0.32884401 12:0 13:0 14:0 15:0.31865701 16:0.95511001 17:0 18:0 19:0.157895 20:0.95493501 21:0.327856 22:0.32053399 23:0.265349 24:0.514157 25:0 26:0 27:0 28:0 29:0 30:0 31:0 32:0 33:0 34:0 35:0 36:0 37:0.32323599 38:0.33162799 39:0.26737699 40:0.51559103 41:0.40000001 42:0.23740999 43:0 44:0 45:0 46:0 #docid = GX256-66-8890050 inc = 0.0174315502163896 prob = 0.0954315
-0.040000000000000001 1:0.00507 2:0.111111 3:0.2 4:0 5:0.0052649998 6:0 7:0 8:0 9:0 10:0 11:0.51511401 12:0.101892 13:0.17384 14:0 15:0.53729498 16:0.0085669998 17:0.083333001 18:0.137931 19:0.36842099 20:0.0087710004 21:0.19733199 22:0.113064 23:0.146724 24:0.24937201 25:0.436358 26:0.36423001 27:0.061156999 28:0.153661 29:0.315182 30:0.195484 31:0.076581001 32:0.123288 33:0 34:0 35:0 36:0 37:0.249972 38:0.194957 39:0.177559 40:0.275426 41:1 42:0.20143899 43:0 44:0.0037440001 45:0.058823999 46:0 #docid = GX261-54-8718689 inc = 0.0174315502163896 prob = 0.0712068
-0.22000000000000006 1:0.016966 2:0.222222 3:0 4:0 5:0.017161001 6:0 7:0 8:0 9:0 10:0 11:0.660254 12:0.28439599 13:0 14:0 15:0.67927599 16:0.016448 17:0.166667 18:0 19:0.052632 20:0.016468 21:0.98990703 22:0.83573198 23:0.79429299 24:0.82577699 25:0.84821898 26:0.74106199 27:0.481451 28:0.56553 29:0 30:0 31:0 32:0 33:0 34:0 35:0 36:0 37:0.98913598 38:0.83721298 39:0.79197598 40:0.82397097 41:0.2 42:0.39568299 43:0 44:0.018645 45:0.058823999 46:0 #docid = GX262-23-3625758 inc = 1 prob = 0.789277
-0.080000000000000002 1:0.13552999 2:0 3:0 4:0 5:0.135335 6:0 7:0 8:0 9:0 10:0 11:1 12:0 13:0 14:0 15:1 16:0.30266801 17:0.083333001 18:0 19:0.210526 20:0.30266601 21:0.400567 22:0.360652 23:0.32716399 24:0.53152198 25:0 26:0 27:0 28:0 29:0 30:0 31:0 32:0 33:0 34:0 35:0 36:0 37:0.40212801 38:0.370184 39:0.327398 40:0.53253001 41:0.40000001 42:0.20863301 43:0 44:0.0057620001 45:0.058823999 46:0 #docid = GX265-91-16665540 inc = 0.0144181720116128 prob = 0.102281
-0.11999999999999998 1:0.0066300002 2:0 3:0 4:0 5:0.0064349999 6:0 7:0 8:0 9:0 10:0 11:0.53173703 12:0 13:0 14:0 15:0.55017 16:0.0053679999 17:0 18:0 19:0.210526 20:0.0053679999 21:0.69140601 22:0.71212399 23:0.47951499 24:0.665497 25:0 26:0 27:0 28:0 29:0 30:0 31:0 32:0 33:0 34:0 35:0 36:0 37:0.68156201 38:0.70707703 39:0.47294399 40:0.65670598 41:0.40000001 42:0.20863301 43:0 44:0 45:0 46:0 #docid = GX268-23-8833566 inc = 0.116624186428566 prob = 0.220962
0.14999999999999999 1:1 2:0.111111 3:0 4:0 5:1 6:0 7:0 8:0 9:0 10:0 11:0.87709498 12:0.13015001 13:0 14:0 15:0.81712598 16:1 17:0.29166701 18:0 19:0.210526 20:1 21:0.576316 22:0.68273598 23:0.67428398 24:0.758205 25:0.26672399 26:0.379702 27:0.16886801 28:0.166348 29:0 30:0 31:0 32:0 33:0 34:0 35:0 36:0 37:0.57042301 38:0.68596298 39:0.67257899 40:0.75744802 41:0.2 42:0.16546801 43:0 44:0.016566999 45:0.058823999 46:0 #docid = GX272-34-6416864 inc = 1 prob = 0.176626
-0.01 1:0.037436999 2:0 3:0 4:0 5:0.037436999 6:0 7:0 8:0 9:0 10:0 11:0.33861899 12:0 13:0 14:0 15:0.36669901 16:0.020533999 17:0.555556 18:0.4375 19:0 20:0.020683 21:0.80811501 22:0.84850502 23:0.77902102 24:0.92077202 25:0 26:0 27:0 28:0 29:0 30:0 31:0 32:0 33:0 34:0 35:0 36:0 37:0.79264301 38:0.84333599 39:0.74963897 40:0.91168302 41:0 42:0 43:0 44:0.012319 45:0.33333299 46:0.66666698 #docid = GX006-78-10975233 inc = 0.0401315039535841 prob = 0.990104
-0.040000000000000001 1:0.013894 2:1 3:0.40000001 4:0 5:0.015438 6:0 7:0 8:0 9:0 10:0 11:0.049155001 12:1 13:0.61969799 14:0 15:0.110936 16:0.0079039996 17:0.33333299 18:0.3125 19:0.40000001 20:0.0080110002 21:0.188581 22:0.34175199 23:0.349453 24:0.49263901 25:1 26:1 27:1 28:1 29:1 30:0.67999399 31:0.72977698 32:0.56550503 33:0 34:0 35:0 36:0 37:0.24264701 38:0.411062 39:0.343238 40:0.509233 41:0.33333299 42:0.346154 43:0 44:1 45:1 46:1 #docid = GX017-02-1553882 inc = 1 prob = 0.0894579
0.01 1:0.063295998 2:0 3:1 4:0 5:0.065226004 6:0 7:0 8:0 9:0 10:0 11:0.49943799 12:0 13:1 14:0 15:0.56806898 16:0.029942 17:0.111111 18:0.875 19:0.60000002 20:0.03022 21:1 22:1 23:1 24:1 25:0 26:0 27:0 28:0 29:0.798383 30:1 31:1 32:1 33:0 34:0 35:0 36:0 37:1 38:1 39:1 40:1 41:0.66666698 42:0.92307699 43:0 44:0.166783 45:0.166667 46:0.33333299 #docid = GX018-68-3306965 inc = 1 prob = 0.94975
-0.01 1:0 2:0.5 3:0.2 4:1 5:0.001158 6:0 7:0 8:0 9:0 10:0 11:0.006761 12:0.529805 13:0.34736499 14:1 15:0.062245999 16:0 17:0.111111 18:0.0625 19:0.60000002 20:0 21:0.024021 22:0 23:0 24:0 25:0.82508999 26:0.54048401 27:0.63687199 28:0.435065 29:0.99919701 30:0.334232 31:0.39294299 32:0.212788 33:1 34:0 35:0 36:0 37:0.115423 38:0 39:0 40:0 41:1 42:0.80769199 43:0 44:0.097384997 45:0.33333299 46:0.166667 #docid = GX019-11-14023162 inc = 1 prob = 0.0809401
0.050000000000000003 1:1 2:0 3:0 4:0 5:1 6:0 7:0 8:0 9:0 10:0 11:1 12:0 13:0 14:0 15:1 16:1 17:0.222222 18:0 19:1 20:1 21:0 22:0.33017099 23:0.56758201 24:0.593436 25:0 26:0 27:0 28:0 29:0 30:0 31:0 32:0 33:0 34:0 35:0 36:0 37:0 38:0.36732301 39:0.53148901 40:0.59107703 41:0.66666698 42:0.615385 43:0 44:0.091959 45:0.166667 46:0 #docid = GX229-94-3580367 inc = 1 prob = 0.244602
-0.02 1:0.00758 2:0 3:0 4:1 5:0.0070349998 6:0 7:0 8:0 9:0 10:0 11:0.012069 12:0 13:0 14:0.379076 15:0.011294 16:0.003697 17:0.227273 18:0.076922998 19:0.33333299 20:0.003696 21:1 22:1 23:0.73724198 24:1 25:0 26:0 27:0 28:0 29:0 30:0 31:0 32:0 33:0.34459001 34:0.076393001 35:0.001859 36:0.058651 37:1 38:1 39:0.72758901 40:1 41:0.2 42:0.30000001 43:0 44:1 45:1 46:0.261538 #docid = GX004-15-9614463 inc = 1 prob = 0.186925
-0.01 1:0.039524 2:0 3:0 4:0 5:0.038419999 6:0 7:0 8:0 9:0 10:0 11:0.0087980004 12:0 13:0 14:0 15:0.0079549998 16:0.078561999 17:0 18:0.23076899 19:0.444444 20:0.078547001 21:0.18038601 22:0.49323401 23:0.57529199 24:0.61126798 25:0 26:0 27:0 28:0 29:0 30:0 31:0 32:0 33:0 34:0 35:0 36:0 37:0.177985 38:0.491772 39:0.55970001 40:0.57883602 41:0.40000001 42:0.27500001 43:0 44:0 45:0 46:0.184615 #docid = GX010-88-7255057 inc = 0.0435258762395171 prob = 0.104563
-0.02 1:0.0054139998 2:0.111111 3:0.33333299 4:0 5:0.005411 6:0 7:0 8:0 9:0 10:0 11:0.0087440005 12:0.12969001 13:0.33333299 14:0 15:0.010949 16:0.001835 17:0.045455001 18:0.153846 19:0.33333299 20:0.0017819999 21:0.59594399 22:0.60807198 23:0.390057 24:0.53059399 25:0.78708702 26:0.37658799 27:0.35248801 28:0.27983701 29:0.81524199 30:0.50447601 31:0.68130702 32:0.41015601 33:0 34:0 35:0 36:0 37:0.60543102 38:0.59438401 39:0.379632 40:0.494293 41:0.2 42:0.5 43:0 44:0.00068900001 45:0.0024270001 46:0 #docid = GX014-77-11613042 inc = 1 prob = 0.0980463
-0.01 1:0.0043310001 2:0 3:0 4:0 5:0.003247 6:0 7:0 8:0 9:0 10:0 11:0.0084300004 12:0 13:0 14:0 15:0.0074689998 16:0.0078189997 17:0.090908997 18:0.26923099 19:0.444444 20:0.0078969998 21:0.698286 22:0.56920099 23:0.492614 24:0.58357 25:0 26:0 27:0 28:0 29:0 30:0 31:0 32:0 33:0 34:0 35:0 36:0 37:0.69444001 38:0.55807799 39:0.46997201 40:0.54395503 41:0.60000002 42:0.82499999 43:0 44:0.007431 45:0.0097089997 46:0.123077 #docid = GX017-48-16416691 inc = 0.0435258762395171 prob = 0.106566
-0.01 1:0.13752 2:0 3:0.33333299 4:1 5:0.137446 6:0 7:0 8:0 9:0 10:0 11:0.19123399 12:0 13:0.18083499 14:0.379076 15:0.191148 16:0.369964 17:0.227273 18:0.153846 19:0.33333299 20:0.369948 21:0.28409901 22:0.46028 23:0.57446098 24:0.53988701 25:0 26:0 27:0 28:0 29:0.44227201 30:0.088950999 31:0.0030060001 32:0.072564997 33:0.34459001 34:0.076393001 35:0.001859 36:0.058651 37:0.28575799 38:0.46189401 39:0.56027502 40:0.513475 41:0.40000001 42:0.175 43:0 44:0.00073299999 45:0.0024270001 46:0.169231 #docid = GX031-67-7280934 inc = 0.0435258762395171 prob = 0.104199
-0.02 1:0.57931799 2:0.111111 3:0.33333299 4:1 5:0.57954502 6:0 7:0 8:0 9:0 10:0 11:0.49760601 12:0.089303002 13:0.18083499 14:0.379076 15:0.49639699 16:0.31446001 17:0.227273 18:0.153846 19:0.33333299 20:0.31445399 21:0.674016 22:0.87788898 23:0.98328203 24:0.88120598 25:0.256291 26:0.02337 27:0.00053299998 28:0.017385 29:0.44227201 30:0.088950999 31:0.0030060001 32:0.072564997 33:0.34459001 34:0.076393001 35:0.001859 36:0.058651 37:0.69002801 38:0.880068 39:0.98286003 40:0.83450598 41:0.40000001 42:0.25 43:0 44:0.00079800002 45:0.0024270001 46:0.169231 #docid = GX031-68-1449781 inc = 0.165389620779636 prob = 0.298107
-0.02 1:1 2:0.111111 3:0.33333299 4:1 5:1 6:0 7:0 8:0 9:0 10:0 11:1 12:0.089303002 13:0.18083499 14:0.379076 15:1 16:0.43294099 17:0.227273 18:0.153846 19:0.33333299 20:0.43291301 21:0.65580398 22:0.88366598 23:1 24:0.88709402 25:0.256291 26:0.02337 27:0.00053299998 28:0.017385 29:0.44227201 30:0.088950999 31:0.0030060001 32:0.072564997 33:0.34459001 34:0.076393001 35:0.001859 36:0.058651 37:0.67253202 38:0.88576603 39:1 40:0.83994401 41:0.40000001 42:0.25 43:0 44:0.00079800002 45:0.0024270001 46:0.169231 #docid = GX031-68-10384681 inc = 1 prob = 0.27821
-0.02 1:0.0097460002 2:0.222222 3:0.33333299 4:0 5:0.010281 6:0 7:0 8:0 9:0 10:0 11:0.019659 12:0.23874199 13:0.22676601 14:0 15:0.021598 16:0.0093080001 17:0.136364 18:0.23076899 19:0.33333299 20:0.0093599996 21:0.68918401 22:0.52152997 23:0.47289899 24:0.414635 25:0.93037701 26:0.919128 27:0.70293802 28:0.84017599 29:0.44490799 30:0.12878799 31:0.18075401 32:0.149938 33:0 34:0 35:0 36:0 37:0.70368302 38:0.52444899 39:0.46590701 40:0.399885 41:0.40000001 42:0.60000002 43:0 44:0.01287 45:0.050971001 46:1 #docid = GX035-08-9857133 inc = 0.0363929591959961 prob = 0.127082
-0.02 1:0.012994 2:0 3:0 4:0 5:0.011905 6:0 7:0 8:0 9:0 10:0 11:0.025642 12:0 13:0 14:0 15:0.023318 16:0.010425 17:0.31818199 18:0.153846 19:0.222222 20:0.010503 21:0.86457402 22:0.79509598 23:0.72861397 24:0.84841502 25:0 26:0 27:0 28:0 29:0 30:0 31:0 32:0 33:0 34:0 35:0 36:0 37:0.867755 38:0.78752202 39:0.71561497 40:0.79565102 41:0.2 42:0.25 43:0 44:0.018487001 45:0.012136 46:0.123077 #docid = GX043-11-9773727 inc = 1 prob = 0.185454
0.16 1:0.024364 2:0 3:0.33333299 4:1 5:0.024351001 6:0 7:0 8:0 9:0 10:0 11:0.022194 12:0 13:0.18083499 14:0.379076 15:0.021801 16:0.028191 17:0.18181799 18:0.23076899 19:0.77777803 20:0.028372001 21:0.74688798 22:0.86581898 23:0.79671299 24:0.88278103 25:0 26:0 27:0 28:0 29:0.35479301 30:0.0583 31:0.0023370001 32:0.047600001 33:0.291545 34:0.028934 35:0.00037200001 36:0.009668 37:0.763569 38:0.86776298 39:0.791188 40:0.836007 41:0.40000001 42:0.85000002 43:0 44:0.041724999 45:0.01699 46:0.092308 #docid = GX045-05-8449614 inc = 1 prob = 0.372037
-0.02 1:0.027612001 2:0.33333299 3:0 4:1 5:0.02868 6:0 7:0 8:0 9:0 10:0 11:0.049286999 12:0.347794 13:0 14:0.379076 15:0.050299 16:0.021780999 17:0.18181799 18:0.115385 19:0.33333299 20:0.021777 21:0.72009403 22:0.52568299 23:0.53243601 24:0.44835401 25:1 26:0.92106301 27:0.77478099 28:0.84626198 29:0 30:0 31:0 32:0 33:0.34459001 34:0.076393001 35:0.001859 36:0.058651 37:0.72479999 38:0.53135598 39:0.52091902 40:0.431216 41:0.2 42:0.42500001 43:0 44:0.017832 45:0.041262001 46:0.338462 #docid = GX046-11-10398891 inc = 0.0435258762395171 prob = 0.124446
-0.01 1:0.048186 2:0.111111 3:0.33333299 4:0 5:0.048160002 6:0 7:0 8:0 9:0 10:0 11:0.043012001 12:0.089303002 13:0.18083499 14:0 15:0.04245 16:0.077045999 17:0.136364 18:0.23076899 19:0.88888901 20:0.077218004 21:0.51912999 22:0.50467902 23:0.53042197 24:0.50368601 25:0.34801301 26:0.058867 27:0.001067 28:0.043779001 29:0.35479301 30:0.0583 31:0.0023370001 32:0.047600001 33:0 34:0 35:0 36:0 37:0.52055001 38:0.504834 39:0.51456898 40:0.47882301 41:1 42:0.82499999 43:0 44:0.00050299999 45:0.0024270001 46:0.169231 #docid = GX078-42-9926912 inc = 1 prob = 0.0811626
0.099999999999999992 1:0.038982 2:0 3:0.33333299 4:1 5:0.038961001 6:0 7:0 8:0 9:0 10:0 11:0.032903001 12:0 13:0.18083499 14:0.379076 15:0.032090999 16:0.050291002 17:0.090908997 18:0.23076899 19:0.444444 20:0.050335001 21:0.78739297 22:0.924227 23:0.87386501 24:0.88894397 25:0 26:0 27:0 28:0 29:0.35479301 30:0.0583 31:0.0023370001 32:0.047600001 33:0.32959801 34:0.062578 35:0.001487 36:0.044420999 37:0.81089997 38:0.92799699 39:0.87120998 40:0.84287202 41:0.60000002 42:0.44999999 43:0 44:0.000451 45:0.0024270001 46:0 #docid = GX147-34-10535755 inc = 1 prob = 0.438596
-0.02 1:0.010287 2:1 3:0.66666698 4:1 5:0.015693 6:0 7:0 8:0 9:0 10:0 11:0.023492999 12:1 13:0.56009901 14:1 15:0.035700001 16:0.007739 17:1 18:0.26923099 19:0.111111 20:0.0082700001 21:0.72981799 22:0.51393801 23:0.48866501 24:0.42261699 25:0.73859799 26:1 27:1 28:1 29:1 30:1 31:1 32:1 33:1 34:1 35:1 36:1 37:0.76272398 38:0.55935299 39:0.51345801 40:0.443959 41:0.2 42:0 43:0 44:0.089197002 45:0.014563 46:0.292308 #docid = GX226-86-7025851 inc = 0.0649812671269225 prob = 0.142702
-0.02 1:0.0097460002 2:0.222222 3:0.66666698 4:0 5:0.010823 6:0 7:0 8:0 9:0 10:0 11:0.020081 12:0.23874199 13:0.56009901 14:0 15:0.023566 16:0.0063299998 17:0.27272701 18:0.384615 19:0.111111 20:0.006515 21:0.72185898 22:0.55866998 23:0.486534 24:0.45954299 25:0.60539001 26:0.82270998 27:0.70213801 28:0.768543 29:0.78740603 30:0.94593501 31:0.99899799 32:0.95607299 33:0 34:0 35:0 36:0 37:0.739048 38:0.56228799 39:0.484925 40:0.441883 41:0.2 42:0.075000003 43:0 44:0.0044399998 45:0.0024270001 46:0.261538 #docid = GX227-46-7870194 inc = 1 prob = 0.134222
-0.02 1:0.319978 2:0 3:0 4:1 5:0.31926399 6:0 7:0 8:0 9:0 10:0 11:0.163627 12:0 13:0 14:0.379076 15:0.15987401 16:1 17:0.54545498 18:0 19:0.444444 20:0.999973 21:0.26766601 22:0.65636402 23:0.71306998 24:0.647044 25:0 26:0 27:0 28:0 29:0 30:0 31:0 32:0 33:0.32959801 34:0.0064360001 35:0.001487 36:0.044420999 37:0.27004299 38:0.65680403 39:0.70288998 40:0.61341 41:0.60000002 42:0.5 43:0 44:0.002849 45:0.0024270001 46:0 #docid = GX259-15-0221618 inc = 1 prob = 0.144909
-0.01 1:0.319978 2:0 3:0 4:1 5:0.31926399 6:0 7:0 8:0 9:0 10:0 11:0.163627 12:0 13:0 14:0.379076 15:0.15987401 16:1 17:0.54545498 18:0 19:0.555556 20:1 21:0.26766601 22:0.65636402 23:0.71306998 24:0.647044 25:0 26:0 27:0 28:0 29:0 30:0 31:0 32:0 33:0.31585601 34:0 35:0.001115 36:0.031691998 37:0.27003399 38:0.65679801 39:0.70288301 40:0.61340499 41:0.60000002 42:0.625 43:0 44:0.001709 45:0.0024270001 46:0 #docid = GX269-10-3270944 inc = 1 prob = 0.142652
-0.01 1:0.036274999 2:0 3:0 4:1 5:0.035714 6:0 7:0 8:0 9:0 10:0 11:0.021122999 12:0 13:0 14:0.379076 15:0.020366 16:0.075557001 17:0.090908997 18:0 19:0.66666698 20:0.075488999 21:0.386329 22:0.55505502 23:0.59563601 24:0.55815899 25:0 26:0 27:0 28:0 29:0 30:0 31:0 32:0 33:0.30321401 34:0.039094001 35:0.00074300001 36:0.020178 37:0.40360299 38:0.56095302 39:0.587309 40:0.53436297 41:0.60000002 42:0.55000001 43:0 44:0.0010629999 45:0.0024270001 46:0 #docid = GX269-38-0664382 inc = 0.0217979264335841 prob = 0.0971531
0.01 1:0.148451 2:0.25 3:0.33333299 4:1 5:0.148213 6:0 7:0 8:0 9:0 10:0 11:0.15331601 12:0.200619 13:0.34675199 14:0.83373201 15:0.16009399 16:0.075053997 17:0.17647099 18:0.18181799 19:0.125 20:0.075021997 21:1 22:1 23:1 24:1 25:0.497639 26:0.21507201 27:0 28:0 29:0.40349001 30:0.30189699 31:0.14672799 32:0.217428 33:0.833731 34:0 35:0 36:0 37:1 38:1 39:1 40:1 41:0 42:0.169231 43:0 44:0.0042929999 45:0.012739 46:0.020408001 #docid = GX002-45-0109640 inc = 1 prob = 0.70013
-0.01 1:0.106955 2:0 3:0.33333299 4:0 5:0.105448 6:0 7:0 8:0 9:0 10:0 11:0.076095 12:0 13:0.118974 14:0 15:0.075144999 16:0.052427001 17:0.058823999 18:0.45454499 19:0.125 20:0.052423 21:0.89157999 22:0.90800798 23:0.89798301 24:0.96840203 25:0 26:0 27:0 28:0 29:0.092859 30:0 31:0 32:0 33:0 34:0 35:0 36:0 37:0.890266 38:0.90752101 39:0.89633602 40:0.96618301 41:0.33333299 42:0.246154 43:0 44:0.42520201 45:0.15286601 46:0.48979601 #docid = GX013-18-6451461 inc = 1 prob = 0.512487
-0.01 1:0.003795 2:0 3:0.36363599 4:0 5:0.0043950002 6:0 7:0 8:0 9:0 10:0 11:0.75152898 12:0 13:0.360654 14:0 15:0.75410199 16:0.0071430001 17:0.40000001 18:0.285714 19:0.15000001 20:0.0073350002 21:0.63458598 22:0.36474901 23:0.350014 24:0.50517201 25:0 26:0 27:0 28:0 29:0.48604599 30:0.40405399 31:0.396175 32:0.42894 33:0 34:0 35:0 36:0 37:0.63091898 38:0.395668 39:0.37594301 40:0.56913197 41:0.166667 42:0.16483501 43:0 44:0.44753 45:0.0079330001 46:0.136364 #docid = GX000-02-6859203 inc = 0.0796745587397817 prob = 0.0897452
-0.01 1:0.018973 2:0 3:0 4:0 5:0.018777 6:0 7:0 8:0 9:0 10:0 11:0.75541198 12:0 13:0 14:0 15:0.757559 16:0.029673999 17:0.31999999 18:0.33333299 19:0.15000001 20:0.029843999 21:0.82082403 22:0.41553 23:0.594859 24:0.49404299 25:0 26:0 27:0 28:0 29:0 30:0 31:0 32:0 33:0 34:0 35:0 36:0 37:0.78516698 38:0.41318101 39:0.58684099 40:0.54135698 41:0.33333299 42:0.351648 43:0 44:4.3e-005 45:0.000191 46:0.073863998 #docid = GX000-02-14789525 inc = 1 prob = 0.0897452
-0.01 1:0.0013980001 2:0 3:0.81818199 4:0 5:0.002996 6:0 7:0 8:0 9:0 10:0 11:0.75067198 12:0 13:0.84519798 14:0 15:0.75388998 16:0.000216 17:0.12 18:0.57142901 19:0.1 20:0.00036000001 21:0.79674602 22:0.8635 23:0.27278501 24:0.91140598 25:0 26:0 27:0 28:0 29:0.69634497 30:0.87386 31:0.90418297 32:0.914976 33:0 34:0 35:0 36:0 37:0.92376202 38:0.88031298 39:0.40766799 40:0.91311097 41:0.33333299 42:0.27472499 43:0 44:0.0071390001 45:0.00085999997 46:0 #docid = GX000-05-5060274 inc = 0.168498335775714 prob = 0.0905817
-0.01 1:0.037347998 2:0.40000001 3:0.54545498 4:0 5:0.039152998 6:0 7:0 8:0 9:0 10:0 11:0.72773802 12:0.383744 13:0.43594801 14:0 15:0.730151 16:0.017689001 17:0.47999999 18:0.33333299 19:0 20:0.017882001 21:0.48718601 22:0.46440801 23:0.53746301 24:0.56078202 25:0.383073 26:0.48179701 27:0.56852102 28:0.58454698 29:0.49810001 30:0.45083299 31:0.40125501 32:0.446006 33:0 34:0 35:0 36:0 37:0.49284801 38:0.47600099 39:0.56109399 40:0.622419 41:0 42:0.054945 43:0 44:0.97351301 45:1 46:0.045455001 #docid = GX000-07-13503788 inc = 1 prob = 0.0897452
-0.01 1:0.02856 2:0 3:0.090908997 4:0 5:0.028565999 6:0 7:0 8:0 9:0 10:0 11:0.75835401 12:0 13:0.151831 14:0 15:0.760903 16:0.031592 17:0.079999998 18:0.33333299 19:0.2 20:0.031642001 21:0.66489601 22:0.44034299 23:0.60636002 24:0.50959003 25:0 26:0 27:0 28:0 29:0.186203 30:0.134525 31:0.223011 32:0.061175 33:0 34:0 35:0 36:0 37:0.63801098 38:0.438039 39:0.601789 40:0.55915302 41:0.166667 42:0.29670301 43:0 44:0.000202 45:0.000287 46:0.0625 #docid = GX000-08-14308771 inc = 0.110448462694372 prob = 0.0897464
-0.01 1:0.0061909999 2:0 3:0.36363599 4:0 5:0.006792 6:0 7:0 8:0 9:0 10:0 11:0.74927902 12:0 13:0.360654 14:0 15:0.751845 16:0.0089880005 17:0.039999999 18:0.238095 19:0 20:0.0088689998 21:0.54738498 22:0.32479799 23:0.34560901 24:0.491337 25:0 26:0 27:0 28:0 29:0.53939003 30:0.42585 31:0.39676899 32:0.44530499 33:0 34:0 35:0 36:0 37:0.548199 38:0.35194099 39:0.36335701 40:0.551934 41:0.166667 42:0.054945 43:0 44:1 45:0.986045 46:0.147727 #docid = GX000-11-13830400 inc = 1 prob = 0.0897452
-0.01 1:0.021969 2:0 3:0 4:0 5:0.021774 6:0 7:0 8:0 9:0 10:0 11:0.74965101 12:0 13:0 14:0 15:0.75181198 16:0.023921 17:0.039999999 18:0.285714 19:0.2 20:0.023923 21:0.741382 22:0.46322101 23:0.57170999 24:0.51931 25:0 26:0 27:0 28:0 29:0 30:0 31:0 32:0 33:0 34:0 35:0 36:0 37:0.709961 38:0.45732999 39:0.56457001 40:0.567949 41:0.166667 42:0.27472499 43:0 44:0.001404 45:9.6000003e-005 46:0.068181999 #docid = GX000-40-12612524 inc = 0.0457517074006795 prob = 0.0897452
-0.01 1:0.003795 2:0 3:0.81818199 4:0 5:0.0053940001 6:0 7:0 8:0 9:0 10:0 11:0.75314701 12:0 13:0.84519798 14:0 15:0.75633502 16:0.0036190001 17:0.36000001 18:0.52381003 19:0.050000001 20:0.003859 21:0.90295899 22:0.56870699 23:0.434995 24:0.61866099 25:0 26:0 27:0 28:0 29:0.74132001 30:0.89499801 31:0.90477502 32:0.92868698 33:0 34:0 35:0 36:0 37:0.94211698 38:0.64917898 39:0.51311803 40:0.71512401 41:0.166667 42:0.098901004 43:0 44:0.0020109999 45:0.0078379996 46:0.198864 #docid = GX000-78-8023700 inc = 1 prob = 0.0998004
-0.01 1:0.0013980001 2:0 3:0.81818199 4:0 5:0.002996 6:0 7:0 8:0 9:0 10:0 11:0.75067198 12:0 13:0.84519798 14:0 15:0.75388998 16:0.000264 17:0 18:0.33333299 19:0.15000001 20:0.00023999999 21:0.79356098 22:0.82630402 23:0.27236801 24:0.88610601 25:0 26:0 27:0 28:0 29:1 30:1 31:0.90714598 32:1 33:0 34:0 35:0 36:0 37:0.92907298 38:0.91831899 39:0.40870601 40:0.93930602 41:0.33333299 42:0.34065899 43:0 44:0 45:0 46:0 #docid = GX000-95-10041690 inc = 1 prob = 0.0931435
-0.01 1:0.0049930001 2:0 3:0.81818199 4:0 5:0.0065919999 6:0 7:0 8:0 9:0 10:0 11:0.75203103 12:0 13:0.84519798 14:0 15:0.755216 16:0.0039070002 17:0.2 18:0.47619 19:0.050000001 20:0.0040270002 21:0.86666501 22:0.58371001 23:0.439511 24:0.63103002 25:0 26:0 27:0 28:0 29:0.79252797 30:0.91697299 31:0.90536702 32:0.943712 33:0 34:0 35:0 36:0 37:0.92260098 38:0.664002 39:0.51854002 40:0.72737801 41:0.166667 42:0.098901004 43:0 44:0.001447 45:0.0048750001 46:0.1875 #docid = GX000-98-4782581 inc = 0.0796745587397817 prob = 0.0940718
-0.02 1:0.005992 2:0.30000001 3:0.909091 4:0 5:0.0083900001 6:0 7:0 8:0 9:0 10:0 11:0.755925 12:0.404874 13:1 14:0 15:0.76072699 16:0.0037150001 17:0.51999998 18:0.57142901 19:0.050000001 20:0.0040750001 21:0.94656801 22:0.67391902 23:0.50723398 24:0.66794598 25:0.309677 26:0 27:0.446722 28:0.041969001 29:0.78920299 30:0.92464101 31:0.99881601 32:0.93066698 33:0 34:0 35:0 36:0 37:0.97471499 38:0.710594 39:0.59061497 40:0.753865 41:0.166667 42:0.076922998 43:0 44:0.001557 45:0.0055439998 46:0.164773 #docid = GX001-05-2214095 inc = 1 prob = 0.107245
-0.01 1:0.0045940001 2:0 3:0.81818199 4:0 5:0.0061929999 6:0 7:0 8:0 9:0 10:0 11:0.75240302 12:0 13:0.84519798 14:0 15:0.75558901 16:0.0059679998 17:0.40000001 18:0.33333299 19:0.15000001 20:0.0061849998 21:0.80870599 22:0.472792 23:0.42094901 24:0.557338 25:0 26:0 27:0 28:0 29:1 30:1 31:0.90714598 32:1 33:0 34:0 35:0 36:0 37:0.87371302 38:0.56827098 39:0.499311 40:0.65655601 41:0.33333299 42:0.27472499 43:0 44:0.00028400001 45:0.000287 46:0.176136 #docid = GX001-27-8200752 inc = 0.110448462694372 prob = 0.0967275
0.85000000000000053 1:0.0039940001 2:0 3:0.81818199 4:0 5:0.005593 6:0 7:0 8:0 9:0 10:0 11:0.75356197 12:0 13:0.84519798 14:0 15:0.75674599 16:0.0053690001 17:0.23999999 18:0.47619 19:0 20:0.0054890001 21:0.85719001 22:0.47899401 23:0.429699 24:0.56059301 25:0 26:0 27:0 28:0 29:0.79252797 30:0.91697299 31:0.90536702 32:0.943712 33:0 34:0 35:0 36:0 37:0.90881503 38:0.58092099 39:0.50779802 40:0.66529602 41:0 42:0.021978 43:0 44:0.0053460002 45:0.022653 46:0.284091 #docid = GX001-32-8675563 inc = 1 prob = 0.108261
-0.01 1:0.003795 2:0 3:0.81818199 4:0 5:0.0053940001 6:0 7:0 8:0 9:0 10:0 11:0.75314701 12:0 13:0.84519798 14:0 15:0.75633502 16:0.0040750001 17:0.079999998 18:0.66666698 19:0.050000001 20:0.0042190002 21:0.88827097 22:0.538688 23:0.43131301 24:0.60007799 25:0 26:0 27:0 28:0 29:0.62102902 30:0.83872998 31:0.903 32:0.89070398 33:0 34:0 35:0 36:0 37:0.93312597 38:0.63025397 39:0.510225 40:0.70183301 41:0.166667 42:0.087912001 43:0 44:0.0014440001 45:0.0048750001 46:0.176136 #docid = GX002-50-2085283 inc = 0.0544975725188115 prob = 0.0899027
-0.02 1:0.047933001 2:0 3:0 4:0 5:0.047743 6:0 7:0 8:0 9:0 10:0 11:0.76310402 12:0 13:0 14:0 15:0.76502901 16:0.041012 17:0 18:0.190476 19:0.1 20:0.040895 21:0.75597 22:0.52874702 23:0.72950703 24:0.55368698 25:0 26:0 27:0 28:0 29:0 30:0 31:0 32:0 33:0 34:0 35:0 36:0 37:0.72473001 38:0.519189 39:0.72538602 40:0.605232 41:0.5 42:0.21978 43:0 44:0 45:0 46:0.022727 #docid = GX002-63-11640711 inc = 0.296992231394246 prob = 0.0963074
0.26000000000000006 1:0.011184 2:0.5 3:0.81818199 4:0 5:0.013783 6:0 7:0 8:0 9:0 10:0 11:0.75942701 12:0.5 13:0.84519798 14:0 15:0.76315999 16:0.010666 17:0.31999999 18:0.33333299 19:0 20:0.010763 21:0.87643898 22:0.55079103 23:0.57002401 24:0.57970601 25:0.68768001 26:0.80840999 27:0.67404598 28:0.91649902 29:1 30:1 31:0.90714598 32:1 33:0 34:0 35:0 36:0 37:0.91933799 38:0.61112601 39:0.64480799 40:0.67510301 41:0 42:0 43:0 44:0.005349 45:0.022845 46:0.44318199 #docid = GX002-64-8838488 inc = 1 prob = 0.120504
-0.01 1:0.0075889998 2:0 3:0.81818199 4:0 5:0.0091890004 6:0 7:0 8:0 9:0 10:0 11:0.753057 12:0 13:0.84519798 14:0 15:0.75622201 16:0.0085570002 17:0.23999999 18:0.57142901 19:0.1 20:0.008773 21:0.846156 22:0.544384 23:0.501306 24:0.57723701 25:0 26:0 27:0 28:0 29:0.69634497 30:0.87502497 31:0.90418297 32:0.914976 33:0 34:0 35:0 36:0 37:0.884049 38:0.58870602 39:0.562684 40:0.66079497 41:0.33333299 42:0.241758 43:0 44:0.00018 45:0.000382 46:0.17045499 #docid = GX002-96-0513023 inc = 0.296992231394246 prob = 0.0955796
-0.02 1:0.0069900001 2:0.1 3:0.909091 4:0 5:0.0089889998 6:0 7:0 8:0 9:0 10:0 11:0.75468302 12:0.134958 13:1 14:0 15:0.75866401 16:0.0055849999 17:0.079999998 18:0.47619 19:0.050000001 20:0.0056329998 21:0.86092103 22:0.586339 23:0.487268 24:0.61440402 25:0.428334 26:0.26672399 27:0.261886 28:0.069541 29:0.89338899 30:0.96658301 31:1 32:0.95940298 33:0 34:0 35:0 36:0 37:0.918607 38:0.65099698 39:0.56796801 40:0.71104801 41:0.166667 42:0.098901004 43:0 44:0.0012009999 45:0.0041100001 46:0.153409 #docid = GX003-14-15500196 inc = 1 prob = 0.0975937
-0.01 1:0.0057919999 2:0 3:0.81818199 4:0 5:0.0073910002 6:0 7:0 8:0 9:0 10:0 11:0.75128597 12:0 13:0.84519798 14:0 15:0.754471 16:0.0043859999 17:0.079999998 18:0.33333299 19:0.15000001 20:0.0044109998 21:0.84121299 22:0.57552499 23:0.44001299 24:0.62383997 25:0 26:0 27:0 28:0 29:1 30:1 31:0.90714598 32:1 33:0 34:0 35:0 36:0 37:0.90648401 38:0.659554 39:0.51977903 40:0.72297502 41:0.33333299 42:0.252747 43:0 44:4.5000001e-005 45:9.6000003e-005 46:0.164773 #docid = GX003-32-0091192 inc = 0.110448462694372 prob = 0.10118
-0.01 1:0.0077889999 2:0.40000001 3:1 4:0 5:0.010587 6:0 7:0 8:0 9:0 10:0 11:0.74942398 12:0.23724 13:0.92049199 14:0 15:0.75148702 16:0.0065199998 17:0.47999999 18:0.76190501 19:0.1 20:0.006976 21:0.759637 22:0.50749898 23:0.433525 24:0.58042002 25:0.211775 26:0.047968 27:0.013333 28:0.053537998 29:0.59091699 30:0.84170502 31:0.90739799 32:0.887676 33:0 34:0 35:0 36:0 37:0.828448 38:0.59554601 39:0.51563001 40:0.67756599 41:0.33333299 42:0.252747 43:0 44:6.1999999e-005 45:0.000191 46:0.17045499 #docid = GX003-90-0855745 inc = 1 prob = 0.101528
-0.01 1:0.0017969999 2:0 3:0.81818199 4:0 5:0.003396 6:0 7:0 8:0 9:0 10:0 11:0.75155699 12:0 13:0.84519798 14:0 15:0.754767 16:0.00031199999 17:0 18:0.33333299 19:0.050000001 20:0.00023999999 21:0.91403103 22:0.90053999 23:0.34018499 24:0.89687502 25:0 26:0 27:0 28:0 29:1 30:1 31:0.90714598 32:1 33:0 34:0 35:0 36:0 37:0.98254699 38:0.95599997 39:0.45224601 40:0.959113 41:0.166667 42:0.065934002 43:0 44:0 45:0 46:0 #docid = GX005-88-1354360 inc = 1 prob = 0.0967101
-0.01 1:0.0013980001 2:0 3:0.81818199 4:0 5:0.002996 6:0 7:0 8:0 9:0 10:0 11:0.75067198 12:0 13:0.84519798 14:0 15:0.75388998 16:9.6000003e-005 17:0 18:0.33333299 19:0.050000001 20:2.4000001e-005 21:0.80481303 22:1 23:0.273828 24:1 25:0 26:0 27:0 28:0 29:1 30:1 31:0.90714598 32:1 33:0 34:0 35:0 36:0 37:0.93877703 38:1 39:0.41058201 40:1 41:0.166667 42:0.054945 43:0 44:0 45:0 46:0 #docid = GX006-08-9105806 inc = 0.296992231394246 prob = 0.0971224
-0.02 1:0.0051930002 2:0.1 3:0.81818199 4:0.25 5:0.007191 6:0 7:0 8:0 9:0 10:0 11:0.75308001 12:0.111988 13:0.84519798 14:0.28257099 15:0.75685602 16:0.0034040001 17:0.16 18:0.33333299 19:0.1 20:0.003452 21:0.92743403 22:0.64829898 23:0.47770801 24:0.66594797 25:0.247536 26:0.173577 27:0.104044 28:0 29:1 30:1 31:0.90714598 32:1 33:0.35969001 34:0 35:0 36:0 37:0.96967202 38:0.72264099 39:0.56313699 40:0.76602203 41:0.166667 42:0.16483501 43:0 44:0.00051599997 45:0.000765 46:0.147727 #docid = GX006-14-8685263 inc = 1 prob = 0.110965
-0.01 1:0.0013980001 2:0 3:0.81818199 4:0 5:0.002996 6:0 7:0 8:0 9:0 10:0 11:0.75067198 12:0 13:0.84519798 14:0 15:0.75388998 16:0.000264 17:0 18:0.33333299 19:0.15000001 20:0.00023999999 21:0.79356098 22:0.82630402 23:0.27236801 24:0.88610601 25:0 26:0 27:0 28:0 29:1 30:1 31:0.90714598 32:1 33:0 34:0 35:0 36:0 37:0.92907298 38:0.91798002 39:0.40870601 40:0.93930602 41:0.33333299 42:0.208791 43:0 44:0 45:0 46:0 #docid = GX006-20-13795519 inc = 1 prob = 0.0936437
-0.01 1:0.0061909999 2:0 3:0.81818199 4:0 5:0.007791 6:0 7:0 8:0 9:0 10:0 11:0.75571799 12:0 13:0.84519798 14:0 15:0.75887501 16:0.0064719999 17:0.23999999 18:0.809524 19:0.050000001 20:0.006784 21:0.831514 22:0.49151999 23:0.46555001 24:0.56456602 25:0 26:0 27:0 28:0 29:0.53438598 30:0.79382902 31:0.901227 32:0.86017102 33:0 34:0 35:0 36:0 37:0.89024901 38:0.57857502 39:0.53887498 40:0.66085303 41:0.166667 42:0.19780201 43:0 44:0.00023200001 45:0.001147 46:0.13068201 #docid = GX007-18-15469604 inc = 1 prob = 0.102254
-0.02 1:0.0065910001 2:0.1 3:0.81818199 4:0 5:0.0083900001 6:0 7:0 8:0 9:0 10:0 11:0.75294298 12:0.134958 13:0.84519798 14:0 15:0.75652403 16:0.007119 17:0.40000001 18:0.33333299 19:0.050000001 20:0.0072869998 21:0.78359699 22:0.483105 23:0.44772699 24:0.55895001 25:0.15612601 26:0.18981101 27:0.255826 28:0.01215 29:1 30:1 31:0.90714598 32:1 33:0 34:0 35:0 36:0 37:0.86022103 38:0.57591099 39:0.52851403 40:0.65858799 41:0.166667 42:0.087912001 43:0 44:0.000227 45:0.00066899997 46:0.19318201 #docid = GX007-81-13860691 inc = 0.0544975725188115 prob = 0.0921777
-0.01 1:0.0013980001 2:0 3:0.81818199 4:0 5:0.002996 6:0 7:0 8:0 9:0 10:0 11:0.75067198 12:0 13:0.84519798 14:0 15:0.75388998 16:0.00012 17:0.12 18:0.380952 19:0.2 20:0.000216 21:0.80318803 22:0.96620798 23:0.273619 24:0.97803599 25:0 26:0 27:0 28:0 29:0.91969103 30:0.96878201 31:0.90655297 32:0.978917 33:0 34:0 35:0 36:0 37:0.93014199 38:0.92569798 39:0.408914 40:0.94507003 41:0.33333299 42:0.285714 43:0 44:1.9999999e-005 45:9.6000003e-005 46:0 #docid = GX007-87-13105403 inc = 1 prob = 0.0915091
-0.01 1:0.0013980001 2:0 3:0.81818199 4:0 5:0.002996 6:0 7:0 8:0 9:0 10:0 11:0.75067198 12:0 13:0.84519798 14:0 15:0.75388998 16:0.000216 17:0.28 18:0.57142901 19:0.15000001 20:0.00047900001 21:0.79674602 22:0.8635 23:0.27278501 24:0.91140598 25:0 26:0 27:0 28:0 29:0.69634497 30:0.87386 31:0.90418297 32:0.914976 33:0 34:0 35:0 36:0 37:0.91850501 38:0.85094601 39:0.40663299 40:0.89044201 41:0.33333299 42:0.208791 43:0 44:4.6000001e-005 45:9.6000003e-005 46:0 #docid = GX007-99-1693662 inc = 1 prob = 0.0915568
-0.01 1:0.0013980001 2:0 3:0.81818199 4:0 5:0.002996 6:0 7:0 8:0 9:0 10:0 11:0.75067198 12:0 13:0.84519798 14:0 15:0.75388998 16:0.000264 17:0 18:0.33333299 19:0.15000001 20:0.00023999999 21:0.79356098 22:0.82630402 23:0.27236801 24:0.88610601 25:0 26:0 27:0 28:0 29:1 30:1 31:0.90714598 32:1 33:0 34:0 35:0 36:0 37:0.92907298 38:0.91798002 39:0.40870601 40:0.93930602 41:0.33333299 42:0.175824 43:0 44:0 45:0 46:0 #docid = GX008-49-3621378 inc = 0.296992231394246 prob = 0.0927123
-0.01 1:0.0079889996 2:0.1 3:0.909091 4:0 5:0.0099879997 6:0 7:0 8:0 9:0 10:0 11:0.75464302 12:0.134958 13:1 14:0 15:0.75861597 16:0.0063519999 17:0.28 18:0.71428603 19:0.1 20:0.006664 21:0.814179 22:0.52713799 23:0.479204 24:0.591196 25:0.204974 26:0.162506 27:0.25809601 28:0.024868 29:0.67186803 30:0.872729 31:0.99704099 32:0.89553899 33:0 34:0 35:0 36:0 37:0.88265401 38:0.61068797 39:0.55915099 40:0.68644601 41:0.33333299 42:0.252747 43:0 44:0.00011 45:0.000287 46:0.136364 #docid = GX008-52-4837701 inc = 0.0796745587397817 prob = 0.0898245
-0.01 1:0.0013980001 2:0 3:0.81818199 4:0 5:0.002996 6:0 7:0 8:0 9:0 10:0 11:0.75067198 12:0 13:0.84519798 14:0 15:0.75388998 16:0.000216 17:0.51999998 18:0.57142901 19:0.15000001 20:0.00062300003 21:0.79674602 22:0.8635 23:0.27278501 24:0.91140598 25:0 26:0 27:0 28:0 29:0.69634497 30:0.87386 31:0.90418297 32:0.914976 33:0 34:0 35:0 36:0 37:0.912269 38:0.81905198 39:0.405393 40:0.866741 41:0.33333299 42:0.19780201 43:0 44:7.2000003e-005 45:0.000287 46:0 #docid = GX008-67-4012728 inc = 1 prob = 0.0912584
-0.01 1:0.0013980001 2:0 3:0.81818199 4:0 5:0.002996 6:0 7:0 8:0 9:0 10:0 11:0.75067198 12:0 13:0.84519798 14:0 15:0.75388998 16:0.000264 17:0 18:0.33333299 19:0.15000001 20:0.00023999999 21:0.79356098 22:0.82630402 23:0.27236801 24:0.88610601 25:0 26:0 27:0 28:0 29:1 30:1 31:0.90714598 32:1 33:0 34:0 35:0 36:0 37:0.92907298 38:0.91798002 39:0.40870601 40:0.93930602 41:0.33333299 42:0.23076899 43:0 44:0 45:0 46:0 #docid = GX008-73-16589482 inc = 0.296992231394246 prob = 0.0943015
-0.02 1:0.0069900001 2:0 3:0.81818199 4:0 5:0.0085899998 6:0 7:0 8:0 9:0 10:0 11:0.75338602 12:0 13:0.84519798 14:0 15:0.75655198 16:0.006999 17:0.40000001 18:0.33333299 19:0.050000001 20:0.0071669999 21:0.938573 22:0.60039401 23:0.52814198 24:0.60852301 25:0 26:0 27:0 28:0 29:1 30:1 31:0.90714598 32:1 33:0 34:0 35:0 36:0 37:0.94695503 38:0.63266498 39:0.58212 40:0.69035202 41:0.166667 42:0.087912001 43:0 44:0.000222 45:0.00057400001 46:0.18181799 #docid = GX008-75-3659479 inc = 1 prob = 0.111337
-0.01 1:0.0013980001 2:0 3:0.81818199 4:0 5:0.002996 6:0 7:0 8:0 9:0 10:0 11:0.75067198 12:0 13:0.84519798 14:0 15:0.75388998 16:0.000264 17:0 18:0.33333299 19:0.15000001 20:0.00023999999 21:0.79356098 22:0.82630402 23:0.27236801 24:0.88610601 25:0 26:0 27:0 28:0 29:1 30:1 31:0.90714598 32:1 33:0 34:0 35:0 36:0 37:0.92907298 38:0.91798002 39:0.40870601 40:0.93930602 41:0.33333299 42:0.26373601 43:0 44:0 45:0 46:0 #docid = GX008-97-8731785 inc = 1 prob = 0.0960875
-0.01 1:0.0013980001 2:0 3:0.81818199 4:0 5:0.002996 6:0 7:0 8:0 9:0 10:0 11:0.75067198 12:0 13:0.84519798 14:0 15:0.75388998 16:0.000264 17:0 18:0.33333299 19:0.15000001 20:0.00023999999 21:0.79356098 22:0.82630402 23:0.27236801 24:0.88610601 25:0 26:0 27:0 28:0 29:1 30:1 31:0.90714598 32:1 33:0 34:0 35:0 36:0 37:0.92907298 38:0.91798002 39:0.40870601 40:0.93930602 41:0.33333299 42:0.21978 43:0 44:0 45:0 46:0 #docid = GX009-15-1345808 inc = 0.296992231394246 prob = 0.092176
-0.01 1:0.0071899998 2:0 3:0.909091 4:0 5:0.0089889998 6:0 7:0 8:0 9:0 10:0 11:0.752985 12:0 13:1 14:0 15:0.75656199 16:0.0058249999 17:0.079999998 18:0.71428603 19:0.1 20:0.0060169999 21:0.81887001 22:0.532543 23:0.465298 24:0.597673 25:0 26:0 27:0 28:0 29:0.67186803 30:0.872729 31:0.99704099 32:0.89553899 33:0 34:0 35:0 36:0 37:0.88791299 38:0.61914498 39:0.545026 40:0.69441301 41:0.33333299 42:0.30769199 43:0 44:8.1999999e-005 45:0.000478 46:0.102273 #docid = GX009-32-9005395 inc = 0.0544975725188115 prob = 0.0897765
-0.01 1:0.003395 2:0 3:0.81818199 4:0 5:0.0049939998 6:0 7:0 8:0 9:0 10:0 11:0.75231898 12:0 13:0.84519798 14:0 15:0.75551403 16:0.0022770001 17:0.12 18:0.619048 19:0.1 20:0.002445 21:0.92976701 22:0.656905 23:0.42365801 24:0.68184203 25:0 26:0 27:0 28:0 29:0.65652901 30:0.85558099 31:0.90359098 32:0.90236998 33:0 34:0 35:0 36:0 37:0.96498698 38:0.72365302 39:0.50570703 40:0.77307397 41:0.33333299 42:0.27472499 43:0 44:1.9999999e-005 45:9.6000003e-005 46:0.125 #docid = GX009-59-15892139 inc = 0.0796745587397817 prob = 0.0901327
-0.01 1:0.0013980001 2:0 3:0.81818199 4:0 5:0.002996 6:0 7:0 8:0 9:0 10:0 11:0.75067198 12:0 13:0.84519798 14:0 15:0.75388998 16:0.000264 17:0 18:0.33333299 19:0.2 20:0.000264 21:0.79356098 22:0.82630402 23:0.27236801 24:0.88610601 25:0 26:0 27:0 28:0 29:1 30:1 31:0.90714598 32:1 33:0 34:0 35:0 36:0 37:0.92800701 38:0.91052502 39:0.408499 40:0.93373197 41:0.33333299 42:0.208791 43:0 44:0 45:0 46:0 #docid = GX009-73-8793441 inc = 0.296992231394246 prob = 0.0930031
-0.01 1:0.003395 2:0 3:0.81818199 4:0 5:0.0049939998 6:0 7:0 8:0 9:0 10:0 11:0.751118 12:0 13:0.84519798 14:0 15:0.75431901 16:0.0025170001 17:0.039999999 18:0.33333299 19:0.050000001 20:0.0024689999 21:0.86066598 22:0.61558801 23:0.38784799 24:0.65971601 25:0 26:0 27:0 28:0 29:1 30:1 31:0.90714598 32:1 33:0 34:0 35:0 36:0 37:0.92940998 38:0.71207601 39:0.47994301 40:0.76641297 41:0.166667 42:0.065934002 43:0 44:0.00082000002 45:0.0047789998 46:0.1875 #docid = GX010-39-4967903 inc = 1 prob = 0.10017
-0.02 1:0.0045940001 2:0.1 3:0.81818199 4:0 5:0.0063919998 6:0 7:0 8:0 9:0 10:0 11:0.75451499 12:0.134958 13:0.84519798 14:0 15:0.758102 16:0.0023729999 17:0.31999999 18:0.33333299 19:0.15000001 20:0.002541 21:0.98033202 22:0.730928 23:0.48292601 24:0.71064699 25:0.185616 26:0.200455 27:0.257339 28:0.020106999 29:1 30:1 31:0.90714598 32:1 33:0 34:0 35:0 36:0 37:1 38:0.76446497 39:0.56195903 40:0.79673499 41:0.33333299 42:0.19780201 43:0 44:1.8999999e-005 45:9.6000003e-005 46:0.119318 #docid = GX011-96-1855998 inc = 0.296992231394246 prob = 0.0999544
-0.02 1:0.0071899998 2:0.1 3:0.81818199 4:0 5:0.0089889998 6:0 7:0 8:0 9:0 10:0 11:0.75403398 12:0.134958 13:0.84519798 14:0 15:0.75760502 16:0.0046020001 17:0.2 18:0.52381003 19:0.1 20:0.00477 21:0.98373502 22:0.66444498 23:0.545739 24:0.66511899 25:0.25899699 26:0.222901 27:0.25961101 28:0.036866002 29:0.74132001 30:0.89499801 31:0.90477502 32:0.92868698 33:0 34:0 35:0 36:0 37:0.99412698 38:0.70989603 39:0.60736299 40:0.751683 41:0.33333299 42:0.19780201 43:0 44:4.2e-005 45:9.6000003e-005 46:0.164773 #docid = GX012-76-4927297 inc = 1 prob = 0.111831
-0.01 1:0.0051930002 2:0 3:0.81818199 4:0 5:0.006792 6:0 7:0 8:0 9:0 10:0 11:0.75234997 12:0 13:0.84519798 14:0 15:0.75553298 16:0.003763 17:0.079999998 18:0.52381003 19:0.1 20:0.003859 21:0.94221801 22:0.63842201 23:0.47985899 24:0.656048 25:0 26:0 27:0 28:0 29:0.74132001 30:0.89499801 31:0.90477502 32:0.92868698 33:0 34:0 35:0 36:0 37:0.96500301 38:0.69636101 39:0.546951 40:0.74659801 41:0.33333299 42:0.175824 43:0 44:4.2e-005 45:9.6000003e-005 46:0.153409 #docid = GX012-88-9561916 inc = 0.168498335775714 prob = 0.0920807
-0.02 1:0.248652 2:0 3:0 4:0 5:0.248502 6:0 7:0 8:0 9:0 10:0 11:0.81033897 12:0 13:0 14:0 15:0.81064302 16:0.25453001 17:0.079999998 18:0 19:0.1 20:0.254381 21:0.65580499 22:0.42524001 23:0.72680199 24:0.48380601 25:0 26:0 27:0 28:0 29:0 30:0 31:0 32:0 33:0 34:0 35:0 36:0 37:0.63099599 38:0.42651999 39:0.72488499 40:0.53376502 41:0.33333299 42:0.16483501 43:0 44:0.000313 45:0.000191 46:0 #docid = GX014-00-4359642 inc = 0.168498335775714 prob = 0.098038
-0.01 1:0.006391 2:0 3:0.81818199 4:0 5:0.0079899998 6:0 7:0 8:0 9:0 10:0 11:0.75181198 12:0 13:0.84519798 14:0 15:0.75498998 16:0.0072869998 17:0.23999999 18:0.33333299 19:0.050000001 20:0.0073589999 21:0.77458 22:0.489512 23:0.446628 24:0.55945897 25:0 26:0 27:0 28:0 29:1 30:1 31:0.90714598 32:1 33:0 34:0 35:0 36:0 37:0.84850401 38:0.57562 39:0.52155298 40:0.65698898 41:0.166667 42:0.087912001 43:0 44:2.7e-005 45:9.6000003e-005 46:0.198864 #docid = GX014-34-12040322 inc = 0.0638184717703623 prob = 0.0989718
-0.02 1:0.0065910001 2:0 3:0.81818199 4:0 5:0.0081900004 6:0 7:0 8:0 9:0 10:0 11:0.75399297 12:0 13:0.84519798 14:0 15:0.75715798 16:0.005105 17:0.039999999 18:0.52381003 19:0.15000001 20:0.005202 21:0.90330499 22:0.595218 23:0.50032902 24:0.62556797 25:0 26:0 27:0 28:0 29:0.74132001 30:0.89381999 31:0.90477502 32:0.92868698 33:0 34:0 35:0 36:0 37:0.94153202 38:0.66117001 39:0.56707102 40:0.71842498 41:0.33333299 42:0.252747 43:0 44:9.9999997e-006 45:9.6000003e-005 46:0.176136 #docid = GX014-40-13104905 inc = 1 prob = 0.104183
-0.01 1:0.0071899998 2:0 3:0.81818199 4:0 5:0.0087890001 6:0 7:0 8:0 9:0 10:0 11:0.75016803 12:0 13:0.84519798 14:0 15:0.75335002 16:0.0074300002 17:0.2 18:0.33333299 19:0.050000001 20:0.0074789999 21:0.76126999 22:0.49930501 23:0.44352901 24:0.56465799 25:0 26:0 27:0 28:0 29:1 30:1 31:0.90714598 32:1 33:0 34:0 35:0 36:0 37:0.837138 38:0.58157301 39:0.51802701 40:0.66105199 41:0.166667 42:0.087912001 43:0 44:9.5000003e-005 45:0.000382 46:0.18181799 #docid = GX016-03-13676475 inc = 0.110448462694372 prob = 0.103942
-0.01 1:0.0075889998 2:0.2 3:0.81818199 4:0 5:0.0095880004 6:0 7:0 8:0 9:0 10:0 11:0.74982601 12:0.11862 13:0.84519798 14:0 15:0.752635 16:0.006879 17:0.31999999 18:0.33333299 19:0.050000001 20:0.0070000002 21:0.82674998 22:0.57151598 23:0.467298 24:0.59666598 25:0.16314501 26:0.091128998 27:0 28:0.033215001 29:1 30:1 31:0.90714598 32:1 33:0 34:0 35:0 36:0 37:0.87058002 38:0.62083399 39:0.53648198 40:0.68610698 41:0.166667 42:0.087912001 43:0 44:0.000112 45:0.00057400001 46:0.19318201 #docid = GX016-13-11114912 inc = 1 prob = 0.103605
-0.02 1:0.005992 2:0 3:0.81818199 4:0 5:0.0075909998 6:0 7:0 8:0 9:0 10:0 11:0.75422603 12:0 13:0.84519798 14:0 15:0.75739503 16:0.006304 17:0.51999998 18:0.33333299 19:0.050000001 20:0.006544 21:0.95893002 22:0.618182 23:0.52963501 24:0.61608601 25:0 26:0 27:0 28:0 29:1 30:1 31:0.90714598 32:1 33:0 34:0 35:0 36:0 37:0.960594 38:0.64300501 39:0.58423001 40:0.69637603 41:0.166667 42:0.087912001 43:0 44:9.7999997e-005 45:0.000382 46:0.18181799 #docid = GX016-14-5888440 inc = 0.296992231394246 prob = 0.106553
-0.02 1:0.0051930002 2:0 3:0.81818199 4:0 5:0.006792 6:0 7:0 8:0 9:0 10:0 11:0.75221097 12:0 13:0.84519798 14:0 15:0.755395 16:0.0039309999 17:0.28 18:0.33333299 19:0.050000001 20:0.0040270002 21:0.91559899 22:0.64596802 23:0.466277 24:0.65137398 25:0 26:0 27:0 28:0 29:1 30:1 31:0.90714598 32:1 33:0 34:0 35:0 36:0 37:0.94792497 38:0.69083703 39:0.538194 40:0.74043697 41:0.166667 42:0.087912001 43:0 44:9.7999997e-005 45:0.000382 46:0.18181799 #docid = GX016-34-14131307 inc = 0.296992231394246 prob = 0.101473
-0.01 1:0.0049930001 2:0 3:0.909091 4:0 5:0.006792 6:0 7:0 8:0 9:0 10:0 11:0.75203103 12:0 13:1 14:0 15:0.75562698 16:0.002661 17:0.079999998 18:0.71428603 19:0.1 20:0.0028530001 21:0.91157597 22:0.67680103 23:0.449698 24:0.69193298 25:0 26:0 27:0 28:0 29:0.67186803 30:0.872729 31:0.99704099 32:0.89553899 33:0 34:0 35:0 36:0 37:0.95940298 38:0.73808599 39:0.53573698 40:0.78151202 41:0.33333299 42:0.285714 43:0 44:3.1e-005 45:0.000191 46:0.102273 #docid = GX016-36-15602058 inc = 0.110448462694372 prob = 0.0919254
-0.02 1:0.144997 2:0 3:0 4:0 5:0.14482599 6:0 7:0 8:0 9:0 10:0 11:0.78665799 12:0 13:0 14:0 15:0.78780198 16:0.106352 17:0.23999999 18:0.809524 19:0 20:0.106647 21:1 22:0.635203 23:0.98607701 24:0.613177 25:0 26:0 27:0 28:0 29:0 30:0 31:0 32:0 33:0 34:0 35:0 36:0 37:0.958413 38:0.61641902 39:0.98419702 40:0.666987 41:0 42:0.065934002 43:0 44:0.00089999998 45:0.000478 46:0.045455001 #docid = GX018-24-14479970 inc = 0.296992231394246 prob = 0.122289
-0.02 1:0.340523 2:0.60000002 3:0 4:0 5:0.34158999 6:0 7:0 8:0 9:0 10:0 11:1 12:0.65553999 13:0 14:0 15:1 16:0.26567599 17:1 18:0.142857 19:0.25 20:0.266222 21:0.93199903 22:0.59031898 23:0.98368698 24:0.58521903 25:0.32935101 26:0.50347602 27:0.77255702 28:0.53915799 29:0 30:0 31:0 32:0 33:0 34:0 35:0 36:0 37:0.89434302 38:0.57678199 39:0.98360401 40:0.63884699 41:0.83333302 42:0.36263701 43:0 44:6.7000001e-005 45:0.000191 46:0 #docid = GX018-36-11119864 inc = 1 prob = 0.11624
-0.02 1:0.0083879996 2:0 3:0.81818199 4:0 5:0.0099879997 6:0 7:0 8:0 9:0 10:0 11:0.75125003 12:0 13:0.84519798 14:0 15:0.75441903 16:0.0055849999 17:0.31999999 18:0.33333299 19:0.050000001 20:0.0057049999 21:0.93842101 22:0.67620897 23:0.53298098 24:0.65826499 25:0 26:0 27:0 28:0 29:1 30:1 31:0.90714598 32:1 33:0 34:0 35:0 36:0 37:0.95054102 38:0.694929 39:0.58995301 40:0.73738199 41:0.166667 42:0.087912001 43:0 44:6.4e-005 45:0.000287 46:0.1875 #docid = GX019-93-8556230 inc = 0.296992231394246 prob = 0.119927
-0.01 1:0.0085880002 2:0 3:0.090908997 4:0 5:0.0085899998 6:0 7:0 8:0 9:0 10:0 11:0.75108498 12:0 13:0.102618 14:0 15:0.753452 16:0.0044820001 17:0.12 18:0.380952 19:0.2 20:0.0045779999 21:0.96564001 22:0.74073499 23:0.54777598 24:0.70023298 25:0 26:0 27:0 28:0 29:0.115458 30:0.052705001 31:0.037664 32:0.0071970001 33:0 34:0 35:0 36:0 37:0.91338003 38:0.69671702 39:0.54580402 40:0.74507302 41:0.33333299 42:0.37362599 43:0 44:4.5000001e-005 45:9.6000003e-005 46:0.13068201 #docid = GX020-20-10647676 inc = 0.296992231394246 prob = 0.105153
-0.01 1:0.0039940001 2:0 3:0.81818199 4:0 5:0.005593 6:0 7:0 8:0 9:0 10:0 11:0.75356197 12:0 13:0.84519798 14:0 15:0.75674599 16:0.002996 17:0 18:0.52381003 19:0.1 20:0.0030439999 21:0.930466 22:0.622352 23:0.44876301 24:0.65195602 25:0 26:0 27:0 28:0 29:0.74132001 30:0.89381999 31:0.90477502 32:0.92868698 33:0 34:0 35:0 36:0 37:0.96816802 38:0.70306897 39:0.52738702 40:0.75322402 41:0.33333299 42:0.23076899 43:0 44:0.000126 45:0.0013379999 46:0.238636 #docid = GX022-73-2577262 inc = 1 prob = 0.0971406
-0.01 1:0.0039940001 2:0 3:0.81818199 4:0 5:0.005593 6:0 7:0 8:0 9:0 10:0 11:0.75356197 12:0 13:0.84519798 14:0 15:0.75674599 16:0.0031399999 17:0 18:0.52381003 19:0.1 20:0.0031880001 21:0.92562699 22:0.61179799 23:0.44758201 24:0.64459401 25:0 26:0 27:0 28:0 29:0.74132001 30:0.89381999 31:0.90477502 32:0.92868698 33:0 34:0 35:0 36:0 37:0.96445298 38:0.69430399 39:0.52621001 40:0.74651402 41:0.33333299 42:0.23076899 43:0 44:0.000126 45:0.0013379999 46:0.238636 #docid = GX028-59-15804530 inc = 1 prob = 0.0996411
-0.01 1:0.003795 2:0 3:0.81818199 4:0 5:0.0053940001 6:0 7:0 8:0 9:0 10:0 11:0.75314701 12:0 13:0.84519798 14:0 15:0.75633502 16:0.003332 17:0 18:0.52381003 19:0.1 20:0.0033799999 21:0.91250998 22:0.59265202 23:0.43733701 24:0.631657 25:0 26:0 27:0 28:0 29:0.74132001 30:0.89381999 31:0.90477502 32:0.92868698 33:0 34:0 35:0 36:0 37:0.95438403 38:0.67848802 39:0.51700598 40:0.73471302 41:0.33333299 42:0.23076899 43:0 44:0.000126 45:0.0013379999 46:0.238636 #docid = GX028-68-10826682 inc = 1 prob = 0.0976147
-0.02 1:0.30177799 2:0.2 3:0 4:0 5:0.30203801 6:0 7:0 8:0 9:0 10:0 11:0.99229598 12:0.26846001 13:0 14:0 15:0.99209398 16:0.223754 17:0.2 18:0.142857 19:0.2 20:0.223794 21:0.95292199 22:0.60586101 23:1 24:0.59505898 25:0.51520002 26:0.514539 27:0.53558499 28:0.36250699 29:0 30:0 31:0 32:0 33:0 34:0 35:0 36:0 37:0.91437602 38:0.59099001 39:1 40:0.64908302 41:0.66666698 42:0.27472499 43:0 44:3.3e-005 45:0.000191 46:0 #docid = GX029-36-12595704 inc = 1 prob = 0.117983
-0.01 1:0.0013980001 2:0 3:0.81818199 4:0 5:0.002996 6:0 7:0 8:0 9:0 10:0 11:0.75067198 12:0 13:0.84519798 14:0 15:0.75388998 16:9.6000003e-005 17:0.28 18:0.33333299 19:0.15000001 20:0.00023999999 21:0.80481303 22:1 23:0.273828 24:1 25:0 26:0 27:0 28:0 29:1 30:1 31:0.90714598 32:1 33:0 34:0 35:0 36:0 37:0.92907298 38:0.91695499 39:0.40870601 40:0.93930602 41:0.33333299 42:0.208791 43:0 44:8e-006 45:9.6000003e-005 46:0 #docid = GX030-94-4272172 inc = 0.296992231394246 prob = 0.0956887
-0.01 1:0.0013980001 2:0 3:0.81818199 4:0 5:0.002996 6:0 7:0 8:0 9:0 10:0 11:0.75067198 12:0 13:0.84519798 14:0 15:0.75388998 16:0.000264 17:0 18:0.33333299 19:0.15000001 20:0.00023999999 21:0.79356098 22:0.82630402 23:0.27236801 24:0.88610601 25:0 26:0 27:0 28:0 29:1 30:1 31:0.90714598 32:1 33:0 34:0 35:0 36:0 37:0.92907298 38:0.91798002 39:0.40870601 40:0.93930602 41:0.33333299 42:0.23076899 43:0 44:0 45:0 46:0 #docid = GX031-03-16742107 inc = 0.296992231394246 prob = 0.0932555
-0.02 1:0.041940998 2:1 3:0.45454499 4:0 5:0.044746 6:0 7:0 8:0 9:0 10:0 11:0.76323098 12:1 13:0.48454401 14:0 15:0.76708001 16:0.024664 17:0.51999998 18:0.238095 19:0.1 20:0.024882 21:0.77290702 22:0.57838398 23:0.74656999 24:0.59860498 25:0.84110397 26:1 27:1 28:0.95337099 29:0.72467798 30:0.594239 31:0.50648499 32:0.62380701 33:0 34:0 35:0 36:0 37:0.74254602 38:0.57244402 39:0.75907099 40:0.65776199 41:0.33333299 42:0.39560401 43:0 44:0.000138 45:0.000191 46:0.011364 #docid = GX034-04-15868161 inc = 0.296992231394246 prob = 0.0976254
-0.01 1:0.0043939999 2:0.1 3:0.81818199 4:0 5:0.0061929999 6:0 7:0 8:0 9:0 10:0 11:0.75439 12:0.134958 13:0.84519798 14:0 15:0.75797802 16:0.003116 17:0.12 18:0.52381003 19:0.2 20:0.0032840001 21:0.93562502 22:0.62119001 23:0.462082 24:0.65171897 25:0.35168701 26:0.247325 27:0.261127 28:0.055082001 29:0.74132001 30:0.89381999 31:0.90477502 32:0.92868698 33:0 34:0 35:0 36:0 37:0.972179 38:0.69853401 39:0.54383099 40:0.74996501 41:0.33333299 42:0.351648 43:0 44:1.8000001e-005 45:0.000191 46:0.159091 #docid = GX044-37-2829349 inc = 1 prob = 0.102182
-0.01 1:0.0039940001 2:0 3:0.81818199 4:0 5:0.005593 6:0 7:0 8:0 9:0 10:0 11:0.75356197 12:0 13:0.84519798 14:0 15:0.75674599 16:0.0030199999 17:0 18:0.52381003 19:0.1 20:0.0030680001 21:0.92965603 22:0.61996698 23:0.44856599 24:0.65070498 25:0 26:0 27:0 28:0 29:0.74132001 30:0.89381999 31:0.90477502 32:0.92868698 33:0 34:0 35:0 36:0 37:0.967547 38:0.70126998 39:0.52719098 40:0.75208598 41:0.33333299 42:0.23076899 43:0 44:0.000126 45:0.0013379999 46:0.238636 #docid = GX044-86-12886366 inc = 0.168498335775714 prob = 0.0944586
-0.02 1:0.006391 2:0.1 3:0.909091 4:0 5:0.0083900001 6:0 7:0 8:0 9:0 10:0 11:0.754987 12:0.134958 13:1 14:0 15:0.75896901 16:0.0040270002 17:0.079999998 18:0.71428603 19:0.1 20:0.0042190002 21:0.92779702 22:0.626863 23:0.500494 24:0.65211701 25:0.428334 26:0.26672399 27:0.261886 28:0.069541 29:0.67186803 30:0.872729 31:0.99704099 32:0.89553899 33:0 34:0 35:0 36:0 37:0.965231 38:0.69494402 39:0.577555 40:0.74601102 41:0.33333299 42:0.23076899 43:0 44:3.1e-005 45:0.000191 46:0.102273 #docid = GX046-41-9685076 inc = 0.296992231394246 prob = 0.0958805
-0.01 1:0.012183 2:0 3:0.81818199 4:0 5:0.013783 6:0 7:0 8:0 9:0 10:0 11:0.755162 12:0 13:0.84519798 14:0 15:0.75828201 16:0.012512 17:0.16 18:0.76190501 19:0.1 20:0.012777 21:0.78029901 22:0.46175501 23:0.52070099 24:0.53695798 25:0 26:0 27:0 28:0 29:0.560444 30:0.80855697 31:0.90181798 32:0.86970001 33:0 34:0 35:0 36:0 37:0.83494598 38:0.53611302 39:0.58055401 40:0.62625498 41:0.33333299 42:0.19780201 43:0 44:3.9999999e-005 45:9.6000003e-005 46:0.153409 #docid = GX054-47-8318587 inc = 0.168498335775714 prob = 0.0925852
