SVM-light Version V6.02
0 # kernel type
3 # kernel parameter -d 
1 # kernel parameter -g 
1 # kernel parameter -s 
1 # kernel parameter -r 
empty# kernel parameter -u 
46 # highest feature index 
9630 # number of training documents 
3776 # number of support vectors plus 1 
0 # threshold b, each following line is a SV (starting with alpha*y)
-0.01 1:0.007067 2:0 3:0.66666698 4:0 5:0.014134 6:0 7:0 8:0 9:0 10:0 11:0.0073480001 12:0 13:0.591833 14:0 15:0.014699 16:0 17:0.076922998 18:0.074074 19:1 20:0 21:0.69322199 22:1 23:0 24:1 25:0 26:0 27:0 28:0 29:1 30:1 31:0.222801 32:1 33:0 34:0 35:0 36:0 37:0.82000899 38:0.96016097 39:0 40:1 41:0.25 42:1 43:0 44:0.054745998 45:0.25 46:0 #docid = GX029-17-16711721 inc = 1 prob = 0.0825829
0.040000000000000001 1:0.056536999 2:0 3:0.66666698 4:1 5:0.067138001 6:0 7:0 8:0 9:0 10:0 11:0.058781002 12:0 13:0.591833 14:1 15:0.066747002 16:0.00398 17:0 18:0.296296 19:0.2 20:0.0040119998 21:0.94616997 22:0.732324 23:0.52096701 24:0.56238902 25:0 26:0 27:0 28:0 29:0.50459999 30:0.61648798 31:0.215857 32:0.72304899 33:1 34:0 35:0 36:0 37:0.95388502 38:0.91003299 39:0.49003401 40:0.84338403 41:0 42:0.125 43:0 44:0 45:0 46:0.076922998 #docid = GX029-35-5894638 inc = 0.0119881192468859 prob = 0.139842
-0.01 1:0.27915201 2:0 3:0 4:0 5:0.27915201 6:0 7:0 8:0 9:0 10:0 11:0.287177 12:0 13:0 14:0 15:0.28722599 16:0.014966 17:0.076922998 18:0.33333299 19:0.40000001 20:0.015094 21:1 22:0.83461499 23:1 24:0.623339 25:0 26:0 27:0 28:0 29:0 30:0 31:0 32:0 33:0 34:0 35:0 36:0 37:1 38:1 39:1 40:0.90686399 41:0.5 42:0 43:0 44:0.0021860001 45:0.25 46:1 #docid = GX030-77-6315042 inc = 1 prob = 0.341364
-0.01 1:0.59364003 2:1 3:0 4:0 5:0.60070699 6:0 7:0 8:0 9:0 10:0 11:0.68435502 12:1 13:0 14:0 15:0.69225103 16:0.145254 17:0.153846 18:0 19:0 20:0.145023 21:0.923087 22:0.398615 23:0.91423899 24:0.29744899 25:1 26:0 27:0 28:0 29:0 30:0 31:0 32:0 33:0 34:0 35:0 36:0 37:0.927827 38:0.48824999 39:0.905114 40:0.44233799 41:0.25 42:0.40625 43:0 44:0.027561 45:0.5 46:0 #docid = GX256-43-0740276 inc = 0.0136292023050293 prob = 0.400738
-0.01 1:1 2:0 3:0 4:0 5:1 6:0 7:0 8:0 9:0 10:0 11:1 12:0 13:0 14:0 15:1 16:1 17:1 18:0 19:0.40000001 20:1 21:0.65627199 22:0 23:0.50968897 24:0 25:0 26:0 27:0 28:0 29:0 30:0 31:0 32:0 33:0 34:0 35:0 36:0 37:0.66474098 38:0 39:0.416567 40:0 41:0 42:0.40625 43:0 44:0.187052 45:0.75 46:0 #docid = GX266-75-11189217 inc = 0.00240162628819282 prob = 0.0911017
-0.02 1:0 2:0 3:0 4:0 5:0 6:0 7:0 8:0 9:0 10:0 11:0.67601401 12:0 13:0 14:0 15:0.66437799 16:0.003765 17:0.166667 18:0.375 19:0 20:0.0030779999 21:0 22:0 23:0 24:0 25:0 26:0 27:0 28:0 29:0 30:0 31:0 32:0 33:0 34:0 35:0 36:0 37:0 38:0 39:0 40:0 41:0 42:0.051282 43:0 44:1 45:1 46:0.205128 #docid = GX004-58-2379388 inc = 0.00787784586285098 prob = 0.0171166
-0.02 1:0.15261 2:0 3:0 4:0 5:0.15261 6:0 7:0 8:0 9:0 10:0 11:0.56309599 12:0 13:0 14:0 15:0.55334401 16:0.20739201 17:1 18:0.375 19:0 20:0.207421 21:0.18296599 22:0.56583798 23:0.711667 24:0.71649498 25:0 26:0 27:0 28:0 29:0 30:0 31:0 32:0 33:0 34:0 35:0 36:0 37:0.18626601 38:0.57133299 39:0.713337 40:0.71906197 41:0 42:0 43:0 44:0.006916 45:0.049180001 46:0.30769199 #docid = GX026-91-0752750 inc = 1 prob = 0.0694043
0.040000000000000001 1:0.040160999 2:0 3:1 4:0 5:0.044176999 6:0 7:0 8:0 9:0 10:0 11:0.76833701 12:0 13:1 14:0 15:0.77517802 16:0 17:0 18:0.625 19:0.5 20:0 21:0.92578602 22:1 23:0.79336798 24:0.93463099 25:0 26:0 27:0 28:0 29:1 30:1 31:1 32:1 33:0 34:0 35:0 36:0 37:0.93946099 38:1 39:0.80728602 40:0.93187201 41:0.75 42:0.46153799 43:0 44:0 45:0 46:0.282051 #docid = GX030-76-8940205 inc = 1 prob = 0.637585
0.029999999999999999 1:0.11245 2:0 3:1 4:0 5:0.116466 6:0 7:0 8:0 9:0 10:0 11:1 12:0 13:1 14:0 15:1 16:0.069472998 17:0 18:0.75 19:0.66666698 20:0.069766998 21:1 22:0.92970699 23:0.87387502 24:0.99520099 25:0 26:0 27:0 28:0 29:0.90110201 30:0 31:0 32:0 33:0 34:0 35:0 36:0 37:1 38:0.92298502 39:0.87455797 40:0.98643303 41:1 42:0.58974397 43:0 44:0 45:0 46:0.025641 #docid = GX051-80-1956661 inc = 1 prob = 0.790266
-0.01 1:0.54618502 2:0 3:0 4:0 5:0.54618502 6:0 7:0 8:0 9:0 10:0 11:0.589935 12:0 13:0 14:0 15:0.57649899 16:0.51676899 17:0.83333302 18:0.5 19:0.33333299 20:0.51692897 21:0.74019903 22:0.91011202 23:1 24:1 25:0 26:0 27:0 28:0 29:0 30:0 31:0 32:0 33:0 34:0 35:0 36:0 37:0.74616098 38:0.91316003 39:1 40:1 41:0.5 42:0.179487 43:0 44:0.0030710001 45:0.065573998 46:0.051282 #docid = GX253-71-1712302 inc = 1 prob = 0.495703
-0.02 1:1 2:0 3:0 4:0 5:1 6:0 7:0 8:0 9:0 10:0 11:0 12:0 13:0 14:0 15:0 16:1 17:1 18:0 19:1 20:1 21:0.109352 22:0.76710802 23:0.84756202 24:0.95903897 25:0 26:0 27:0 28:0 29:0 30:0 31:0 32:0 33:0 34:0 35:0 36:0 37:0.113725 38:0.76513702 39:0.842206 40:0.953376 41:0.5 42:1 43:0 44:0.0040460001 45:0.032786999 46:0 #docid = GX263-77-2918505 inc = 0.00885951241812525 prob = 0.169748
0.029999999999999999 1:0.114551 2:1 3:0.66666698 4:0 5:0.14330199 6:0 7:0 8:0 9:0 10:0 11:0.22969 12:1 13:0.82132602 14:0 15:0.33005801 16:0.012862 17:0.70833302 18:0.57142901 19:0.050000001 20:0.013133 21:0.795735 22:0.84288901 23:0.857526 24:0.84219903 25:0.77835703 26:0.90514499 27:1 28:0.87003303 29:0.72007102 30:0.67307597 31:0.95906597 32:0.621171 33:0 34:0 35:0 36:0 37:0.88989103 38:0.91443503 39:0.94825602 40:0.910097 41:0.5 42:0.178571 43:0 44:1 45:0.57894701 46:0.65517199 #docid = GX001-20-2991462 inc = 0.0971783377719955 prob = 0.978707
0.040000000000000001 1:0.133127 2:0.88888901 3:1 4:0 5:0.161994 6:0 7:0 8:0 9:0 10:0 11:0.24618 12:0.809717 13:1 14:0 15:0.323971 16:0.01154 17:0.54166698 18:0.42857099 19:0.15000001 20:0.011761 21:0.83835697 22:0.897991 23:0.90007597 24:0.89761502 25:0.813411 26:1 27:0.91856003 28:0.91512698 29:1 30:1 31:1 32:1 33:0 34:0 35:0 36:0 37:0.900711 38:0.95680797 39:0.97184902 40:0.95478398 41:1 42:0.241071 43:0 44:0.17242 45:1 46:1 #docid = GX012-07-6597432 inc = 1 prob = 0.983119
-0.02 1:0.0092879999 2:0 3:0 4:1 5:0.012461 6:0 7:0 8:0 9:0 10:0 11:0.057557002 12:0 13:0 14:1 15:0.088137999 16:0.000864 17:0 18:0 19:1 20:0.001101 21:0.776012 22:0.78316897 23:0.55484802 24:0.77198499 25:0 26:0 27:0 28:0 29:0 30:0 31:0 32:0 33:0.781721 34:0.93081301 35:1 36:0.89850599 37:0.89593101 38:0.87780601 39:0.67222703 40:0.808451 41:1 42:1 43:0 44:0 45:0 46:0 #docid = GX161-43-7991020 inc = 1 prob = 0.505019
-0.02 1:0.160991 2:0 3:0 4:0 5:0.155763 6:0 7:0 8:0 9:0 10:0 11:0.43129599 12:0 13:0 14:0 15:0.43169099 16:0.0080319997 17:0 18:0.71428603 19:0.55000001 20:0.0082019996 21:0.94785899 22:1 23:1 24:1 25:0 26:0 27:0 28:0 29:0 30:0 31:0 32:0 33:0 34:0 35:0 36:0 37:0.95144701 38:1 39:1 40:1 41:1 42:0.60714298 43:0 44:0 45:0 46:0 #docid = GX207-04-13100446 inc = 1 prob = 0.779311
-0.02 1:0.56656301 2:0.33333299 3:0 4:0.66666698 5:0.57943898 6:0 7:0 8:0 9:0 10:0 11:0.67577499 12:0.29136199 13:0 14:0.69032001 15:0.714257 16:0.072732002 17:0.125 18:0 19:0.2 20:0.072748996 21:0.68404901 22:0.77893102 23:0.95683002 24:0.77118099 25:1 26:0.93449998 27:0.60095602 28:1 29:0 30:0 31:0 32:0 33:1 34:1 35:0.83944499 36:1 37:0.71866 38:0.79906499 39:0.97877598 40:0.79132301 41:1 42:0.375 43:0 44:0.0024890001 45:0.052632 46:0 #docid = GX242-43-14427255 inc = 0.0971783377719955 prob = 0.967445
-0.01 1:0.616099 2:0 3:0 4:0 5:0.61370701 6:0 7:0 8:0 9:0 10:0 11:0.241368 12:0 13:0 14:0 15:0.238894 16:1 17:0.125 18:0 19:0.15000001 20:1 21:0.013401 22:0.177246 23:0.179941 24:0.177743 25:0 26:0 27:0 28:0 29:0 30:0 31:0 32:0 33:0 34:0 35:0 36:0 37:0.014779 38:0.178911 39:0.180967 40:0.17903399 41:0.5 42:0.125 43:0 44:0.01004 45:0.105263 46:0 #docid = GX267-77-11931487 inc = 0.00671748260221875 prob = 0.106378
0.029999999999999999 1:0 2:0 3:0 4:0 5:0 6:0 7:0 8:0 9:0 10:0 11:0 12:0 13:0 14:0 15:0 16:0.001206 17:0 18:0.40000001 19:0 20:0.00050299999 21:0 22:0 23:0 24:0 25:0 26:0 27:0 28:0 29:0 30:0 31:0 32:0 33:0 34:0 35:0 36:0 37:0 38:0 39:0 40:0 41:0 42:0 43:0 44:0 45:0 46:0.0033480001 #docid = GX000-00-0000000 inc = 1 prob = 0.0115498
-0.01 1:0.235294 2:0 3:0 4:0 5:0.235294 6:0 7:0 8:0 9:0 10:0 11:0.235294 12:0 13:0 14:0 15:0.235294 16:0.105258 17:0.25806499 18:0.60000002 19:0.83333302 20:0.105319 21:0.45557901 22:0.38213199 23:0.67129099 24:0.26951399 25:0 26:0 27:0 28:0 29:0 30:0 31:0 32:0 33:0 34:0 35:0 36:0 37:0.44541201 38:0.38138101 39:0.56543201 40:0.27186599 41:0.60000002 42:0.57142901 43:0 44:0.101175 45:1 46:0.47098199 #docid = GX005-04-1458789 inc = 0.00442116911968739 prob = 0.0957367
0.01 1:0.235294 2:1 3:1 4:0 5:0.35294101 6:0 7:0 8:0 9:0 10:0 11:0.235294 12:1 13:1 14:0 15:0.35294101 16:0 17:0.25806499 18:0.40000001 19:1 20:0 21:1 22:1 23:1 24:1 25:1 26:0 27:0 28:0 29:1 30:0 31:0 32:0 33:0 34:0 35:0 36:0 37:1 38:1 39:1 40:1 41:0.80000001 42:0.78571397 43:0 44:0.0038139999 45:0.011858 46:0.002232 #docid = GX083-05-15292522 inc = 0.0278997558913288 prob = 0.317664
-0.02 1:0.70588201 2:0 3:0 4:0 5:0.70588201 6:0 7:0 8:0 9:0 10:0 11:0.70588201 12:0 13:0 14:0 15:0.70588201 16:1 17:0 18:1 19:1 20:1 21:0.21286599 22:0.228964 23:0.40591401 24:0.064599 25:0 26:0 27:0 28:0 29:0 30:0 31:0 32:0 33:0 34:0 35:0 36:0 37:0.211118 38:0.229635 39:0.34325799 40:0.066044003 41:0.80000001 42:0.809524 43:0 44:0 45:0 46:1 #docid = GX194-16-10736442 inc = 0.00296823950133102 prob = 0.0953978
-0.01 1:1 2:0 3:0 4:0 5:1 6:0 7:0 8:0 9:0 10:0 11:1 12:0 13:0 14:0 15:1 16:0.6886 17:0.41935501 18:0 19:0.83333302 20:0.68866903 21:0.36494201 22:0.341553 23:0.72216702 24:0.194453 25:0 26:0 27:0 28:0 29:0 30:0 31:0 32:0 33:0 34:0 35:0 36:0 37:0.36011699 38:0.34222299 39:0.61009002 40:0.19753399 41:0.60000002 42:0.64285702 43:0 44:0.0036820001 45:0.01581 46:0 #docid = GX233-47-6223554 inc = 1 prob = 0.249609
-0.01 1:0.02 2:0.25 3:1 4:1 5:0.025 6:0 7:0 8:0 9:0 10:0 11:0.029098 12:0.25 13:1 14:1 15:0.037843 16:0.0046979999 17:0.013333 18:0.228571 19:0.190476 20:0.0047160001 21:0.85990298 22:0.88289899 23:0.611413 24:0.88629401 25:0.810381 26:0.565602 27:0.56404799 28:0.444538 29:0.66973299 30:0.84375602 31:0.99702698 32:0.88360101 33:1 34:1 35:1 36:1 37:0.88609099 38:0.88020301 39:0.66211599 40:0.88410699 41:0.33333299 42:0.225806 43:0 44:0.00020900001 45:0.0017509999 46:0.102564 #docid = GX230-23-8834831 inc = 0.0853328252787582 prob = 0.0900715
-0.01 1:0.032499999 2:1 3:0.5 4:1 5:0.039999999 6:0 7:0 8:0 9:0 10:0 11:0.022707 12:1 13:0.51392698 14:1 15:0.036582001 16:0.0091909999 17:0.079999998 18:0.085713997 19:0.238095 20:0.0092280004 21:0.61133301 22:0.63180202 23:0.50520098 24:0.76067698 25:0.84502202 26:0.50282001 27:1 28:0.41786 29:0.58619499 30:0.26630899 31:0.187369 32:0.19857 33:0.95649201 34:0.88063401 35:0.99700999 36:0.88064498 37:0.63772601 38:0.64794302 39:0.55435902 40:0.76861203 41:0.33333299 42:0.24731199 43:0 44:0.454629 45:1 46:0.615385 #docid = GX230-33-9386763 inc = 1 prob = 0.0920285
-0.01 1:0.02 2:0.25 3:1 4:1 5:0.025 6:0 7:0 8:0 9:0 10:0 11:0.025451001 12:0.25 13:1 14:1 15:0.034185 16:0.0027300001 17:0.026667001 18:0.114286 19:0.238095 20:0.0027109999 21:0.80817598 22:0.98637098 23:0.56124198 24:0.99969399 25:0.63376701 26:0.50986099 27:0.56351203 28:0.39893201 29:1 30:1 31:1 32:1 33:0.95649201 34:0.88063401 35:0.99700999 36:0.88064498 37:0.85224497 38:1 39:0.628465 40:1 41:0.33333299 42:0.354839 43:0 44:0.029495999 45:0.0087569999 46:0.025641 #docid = GX231-41-0398694 inc = 1 prob = 0.0908513
-0.01 1:0.043749999 2:0.5 3:1 4:1 5:0.050000001 6:0 7:0 8:0 9:0 10:0 11:0.033769999 12:0.5 13:1 14:1 15:0.044759002 16:0.020722 17:0.039999999 18:0.142857 19:0.190476 20:0.020722 21:0.68939698 22:0.71180397 23:0.621198 24:0.73693299 25:0.79518002 26:0.52993298 27:0.77375001 28:0.41786 29:0.890248 30:0.94968599 31:0.99925601 32:0.96252698 33:1 34:1 35:1 36:1 37:0.76255703 38:0.74498701 39:0.68705499 40:0.76229799 41:0.166667 42:0.150538 43:0 44:1 45:0.96322203 46:0.30769199 #docid = GX231-83-7677319 inc = 1 prob = 0.0919167
-0.01 1:0.02125 2:0.5 3:1 4:0 5:0.026249999 6:0 7:0 8:0 9:0 10:0 11:0.012297 12:0.48043701 13:1 14:0 15:0.020436 16:0.0093029998 17:0.039999999 18:0.114286 19:0.380952 20:0.009358 21:0.60185498 22:0.65766901 23:0.46377099 24:0.72911501 25:1 26:1 27:0.99229699 28:1 29:1 30:1 31:1 32:1 33:0 34:0 35:0 36:0 37:0.722574 38:0.74675697 39:0.56955397 40:0.78115898 41:0.83333302 42:0.56989199 43:0 44:9.0000001e-005 45:0.0017509999 46:0 #docid = GX248-40-5127675 inc = 1 prob = 0.104172
0.060000000000000005 1:0.33250001 2:0 3:0 4:0 5:0.33250001 6:0 7:0 8:0 9:0 10:0 11:0.058044001 12:0 13:0 14:0 15:0.056837 16:0.161672 17:0.026667001 18:0 19:0.238095 20:0.161579 21:0.46272299 22:0.563851 23:0.64817798 24:0.61437303 25:0 26:0 27:0 28:0 29:0 30:0 31:0 32:0 33:0 34:0 35:0 36:0 37:0.469109 38:0.55067998 39:0.65286398 40:0.60356402 41:0.66666698 42:0.225806 43:0 44:0.0020010001 45:0.0017509999 46:0 #docid = GX253-97-12198295 inc = 0.0169930414271608 prob = 0.0897592
-0.01 1:0.45500001 2:0 3:0 4:1 5:0.45625001 6:0 7:0 8:0 9:0 10:0 11:0.40239799 12:0 13:0 14:1 15:0.404028 16:0.315359 17:0.106667 18:0 19:0.238095 20:0.31537801 21:0.69318497 22:0.62970102 23:0.74187702 24:0.66371602 25:0 26:0 27:0 28:0 29:0 30:0 31:0 32:0 33:0.95649201 34:0.64185399 35:0.99700999 36:0.88064498 37:0.70044702 38:0.61303198 39:0.74734098 40:0.65107697 41:0.5 42:0.29032299 43:0 44:0.010667 45:0.0035029999 46:0 #docid = GX257-69-4828096 inc = 0.314577826097794 prob = 0.0963384
-0.01 1:0.001657 2:1 3:0 4:0.5 5:0.0024860001 6:0 7:0 8:0 9:0 10:0 11:0 12:0.764162 13:0 14:0.5 15:0 16:0.0044479999 17:1 18:0 19:0 20:0.0045420001 21:0 22:0 23:0 24:0 25:0.764162 26:0 27:0 28:0 29:0 30:0 31:0 32:0 33:0.76807201 34:0 35:0 36:0 37:0 38:0 39:0 40:0 41:0 42:0.15000001 43:0 44:1 45:0.33333299 46:0.1875 #docid = GX000-58-1184657 inc = 1 prob = 0.0464543
-0.01 1:0.012428 2:0 3:0 4:0 5:0.011599 6:0 7:0 8:0 9:0 10:0 11:0.011693 12:0 13:0 14:0 15:0.011522 16:0.020671001 17:1 18:0.75 19:0 20:0.020833001 21:0.58429801 22:0.49546599 23:0.65774798 24:0.47676301 25:0 26:0 27:0 28:0 29:0 30:0 31:0 32:0 33:0 34:0 35:0 36:0 37:0.58683997 38:0.44919601 39:0.65118402 40:0.39772901 41:0 42:0.22499999 43:0 44:0.096019998 45:0 46:1 #docid = GX000-79-12709651 inc = 1 prob = 0.0701303
0.050000000000000003 1:0.0041430001 2:0 3:1 4:0 5:0.0057999999 6:0 7:0 8:0 9:0 10:0 11:0.0047510001 12:0 13:1 14:0 15:0.007278 16:0.00054699997 17:0 18:1 19:0.40000001 20:0.00066600001 21:0.91681802 22:1 23:0.64715302 24:0.85180801 25:0 26:0 27:0 28:0 29:1 30:1 31:1 32:1 33:0 34:0 35:0 36:0 37:0.98870403 38:0.94450802 39:0.72578299 40:0.71398801 41:0 42:0.22499999 43:0 44:0.24854399 45:0 46:0.0625 #docid = GX005-32-6186157 inc = 0.00809297330659143 prob = 0.117205
-0.01 1:0.019884 2:0 3:0 4:0 5:0.019056 6:0 7:0 8:0 9:0 10:0 11:0.027561 12:0 13:0 14:0 15:0.027384 16:0.0066840001 17:0 18:0 19:0 20:0.0066590002 21:1 22:0.737755 23:0.84494102 24:0.778391 25:0 26:0 27:0 28:0 29:0 30:0 31:0 32:0 33:0 34:0 35:0 36:0 37:1 38:0.68069398 39:0.84479398 40:0.65702403 41:0 42:0 43:0 44:0.98710102 45:0.66666698 46:0.1875 #docid = GX009-78-0836187 inc = 0.00621360611839339 prob = 0.110855
-0.02 1:0.0041430001 2:0 3:0 4:1 5:0.0049709999 6:0 7:0 8:0 9:0 10:0 11:0.004251 12:0 13:0 14:1 15:0.0042559998 16:0.0016890001 17:0.2 18:1 19:0.60000002 20:0.001855 21:0.96797401 22:0.96296602 23:0.75495499 24:1 25:0 26:0 27:0 28:0 29:0 30:0 31:0 32:0 33:1 34:1 35:1 36:1 37:0.97810799 38:1 39:0.78541303 40:1 41:1 42:0.40000001 43:0 44:0.091558002 45:0 46:0 #docid = GX012-01-9109195 inc = 1 prob = 0.136949
0.02 1:0.192212 2:0 3:0 4:0 5:0.191384 6:0 7:0 8:0 9:0 10:0 11:0.176054 12:0 13:0 14:0 15:0.175868 16:0.208307 17:0.40000001 18:1 19:0 20:0.208381 21:0.58510202 22:0.50829601 23:0.82325101 24:0.60104698 25:0 26:0 27:0 28:0 29:0 30:0 31:0 32:0 33:0 34:0 35:0 36:0 37:0.59368402 38:0.46351501 39:0.820584 40:0.50796503 41:0 42:0.125 43:0 44:0.33265999 45:1 46:0 #docid = GX019-30-15913834 inc = 1 prob = 0.297692
-0.02 1:1 2:1 3:0 4:0 5:1 6:0 7:0 8:0 9:0 10:0 11:1 12:1 13:0 14:0 15:1 16:1 17:1 18:0 19:1 20:1 21:0.89656299 22:0.68873101 23:1 24:0.705257 25:1 26:1 27:1 28:1 29:0 30:0 31:0 32:0 33:0 34:0 35:0 36:0 37:0.90603697 38:0.63741601 39:1 40:0.599213 41:0.5 42:1 43:0 44:0.47241101 45:0.33333299 46:0 #docid = GX268-70-9577863 inc = 0.00874207930041198 prob = 0.116659
0.060000000000000005 1:1 2:1 3:1 4:1 5:1 6:0 7:0 8:0 9:0 10:0 11:1 12:1 13:1 14:1 15:1 16:0.178147 17:1 18:1 19:0.40000001 20:0.180548 21:0.93693501 22:0.96320802 23:0.97792 24:0.809165 25:1 26:0 27:0 28:0 29:1 30:0 31:0 32:0 33:1 34:0 35:0 36:0 37:0.96633297 38:1 39:1 40:0.836887 41:0.25 42:0.40000001 43:0 44:1 45:1 46:1 #docid = GX003-74-12433332 inc = 1 prob = 0.403915
-0.01 1:0.024876 2:0 3:0 4:0 5:0.022624001 6:0 7:0 8:0 9:0 10:0 11:0.073503003 12:0 13:0 14:0 15:0.068131 16:0.0027050001 17:0.166667 18:0.555556 19:0.2 20:0.003155 21:1 22:1 23:0.89779699 24:1 25:0 26:0 27:0 28:0 29:0 30:0 31:0 32:0 33:0 34:0 35:0 36:0 37:1 38:0.99900699 39:0.88748902 40:1 41:0.25 42:0 43:0 44:0.054081 45:0.117647 46:0.033333 #docid = GX023-91-5410820 inc = 1 prob = 0.328172
-0.01 1:0.064677 2:0 3:0 4:0 5:0.058823999 6:0 7:0 8:0 9:0 10:0 11:0.178123 12:0 13:0 14:0 15:0.16507401 16:0.019989001 17:0.119048 18:0.444444 19:0.2 20:0.020283001 21:0.89302701 22:0.87288398 23:0.85550398 24:0.80498099 25:0 26:0 27:0 28:0 29:0 30:0 31:0 32:0 33:0 34:0 35:0 36:0 37:0.89819598 38:0.875687 39:0.84586602 40:0.80779701 41:0.5 42:0.2 43:0 44:0.041285001 45:0.058823999 46:0.166667 #docid = GX031-19-16095168 inc = 0.0392713519355783 prob = 0.523056
-0.01 1:0.129353 2:0 3:0 4:0 5:0.117647 6:0 7:0 8:0 9:0 10:0 11:0.040525001 12:0 13:0 14:0 15:0.037510999 16:0.082711004 17:0.071428999 18:0 19:0 20:0.082635999 21:0 22:0 23:0 24:0 25:0 26:0 27:0 28:0 29:0 30:0 31:0 32:0 33:0 34:0 35:0 36:0 37:0 38:0 39:0 40:0 41:0.25 42:0.366667 43:0 44:0.281701 45:0.17647099 46:0.366667 #docid = GX034-07-4725670 inc = 0.0045068628621207 prob = 0.0598944
-0.01 1:0 2:0 3:0 4:0 5:0 6:0 7:0 8:0 9:0 10:0 11:0 12:0 13:0 14:0 15:0 16:0 17:0 18:0.444444 19:0 20:0 21:0.61701 22:0.71151602 23:0.55454499 24:0.58165002 25:0 26:0 27:0 28:0 29:0 30:0 31:0 32:0 33:0 34:0 35:0 36:0 37:0.618985 38:0.71138799 39:0.54833502 40:0.58226401 41:0.25 42:0.166667 43:0 44:0 45:0 46:0.166667 #docid = GX148-28-2988278 inc = 1 prob = 0.0717021
-0.01 1:0.21393 2:0 3:0 4:0 5:0.19457 6:0 7:0 8:0 9:0 10:0 11:0.267737 12:0 13:0 14:0 15:0.248064 16:0.113571 17:0.047619 18:0.555556 19:0.2 20:0.113738 21:0.54797298 22:0.86331803 23:0.88290799 24:0.78676099 25:0 26:0 27:0 28:0 29:0 30:0 31:0 32:0 33:0 34:0 35:0 36:0 37:0.55874002 38:0.87082899 39:0.87575698 40:0.79310399 41:0 42:0.1 43:0 44:0.104042 45:0.058823999 46:0.033333 #docid = GX246-05-5781015 inc = 0.0107914339048822 prob = 0.100859
-0.01 1:0.44278601 2:0 3:0 4:0 5:0.402715 6:0 7:0 8:0 9:0 10:0 11:0.536075 12:0 13:0 14:0 15:0.49661699 16:0.24422599 17:0.095238 18:0 19:0.80000001 20:0.244353 21:0.73298502 22:0.95477003 23:1 24:0.85408801 25:0 26:0 27:0 28:0 29:0 30:0 31:0 32:0 33:0 34:0 35:0 36:0 37:0.74752498 38:0.96476603 39:0.99352902 40:0.861857 41:0.5 42:0.966667 43:0 44:0.027601 45:0.058823999 46:0 #docid = GX252-33-10692677 inc = 1 prob = 0.196622
-0.0099999999999999967 1:0.033238001 2:1 3:0.5 4:1 5:0.060380001 6:0 7:0 8:0 9:0 10:0 11:0.021810999 12:1 13:0.46853501 14:1 15:0.035700999 16:0.016818 17:1 18:0.53846198 19:0.33333299 20:0.018671 21:0.99466801 22:0.76080197 23:0.795614 24:0.67300999 25:0.80812699 26:1 27:1 28:1 29:0.75076097 30:0.35398099 31:0 32:0.41407299 33:0.90902698 34:0.584961 35:0.66633201 36:0.58496201 37:1 38:1 39:1 40:0.888264 41:0 42:0.297297 43:0 44:1 45:1 46:0.66666698 #docid = GX002-00-12974316 inc = 1 prob = 0.942575
-0.050000000000000003 1:0.004011 2:0.02 3:0.83333302 4:1 5:0.0040250001 6:0 7:0 8:0 9:0 10:0 11:0.001373 12:0.031780999 13:0.85903198 14:1 15:0.001377 16:0.001458 17:0 18:0.92307699 19:0 20:0.001458 21:0.85645801 22:1 23:0.283344 24:1 25:0.62228101 26:0.087777004 27:0.045802001 28:0.040132999 29:0.94930297 30:0.96199501 31:0.93010402 32:0.99099803 33:1 34:1 35:1 36:1 37:0.78604198 38:0.97993499 39:0.25975999 40:1 41:0 42:0 43:0 44:0.043517001 45:0 46:0.66666698 #docid = GX021-52-16527163 inc = 1 prob = 0.207164
-0.01 1:0 2:0.1 3:0.166667 4:1 5:0 6:0 7:0 8:0 9:0 10:0 11:0 12:0.108002 13:0.249529 14:1 15:0 16:0 17:0.057971001 18:0.153846 19:1 20:0 21:0.28951401 22:0.710908 23:0 24:0.61364502 25:1 26:0.72656798 27:0.308945 28:0.86311001 29:0.72695601 30:0.05263 31:0.157152 32:0.033776999 33:0.76909298 34:0 35:0 36:0 37:0.40622899 38:0.74390399 39:0 40:0.62693399 41:1 42:1 43:0 44:0.010015 45:0 46:1 #docid = GX023-40-11281261 inc = 1 prob = 0.125521
0.040000000000000001 1:0.13409699 2:0.1 3:1 4:0 5:0.13686 6:0 7:0 8:0 9:0 10:0 11:0.136612 12:0.108002 13:1 14:0 15:0.13739499 16:0.132606 17:0.115942 18:1 19:0.5 20:0.132965 21:0.25103301 22:0.145135 23:0.75566202 24:0.135941 25:0.65482801 26:0.633268 27:0.308193 28:0.78984302 29:1 30:1 31:1 32:1 33:0 34:0 35:0 36:0 37:0.225477 38:0.168522 39:0.64115697 40:0.16185001 41:0 42:0.432432 43:0 44:0.036952998 45:0 46:0.33333299 #docid = GX233-26-11314023 inc = 0.014511144471929 prob = 0.750384
0.02 1:0.18338101 2:0.079999998 3:0.166667 4:0 5:0.182864 6:0 7:0 8:0 9:0 10:0 11:0.172291 12:0.12712499 13:0.249529 14:0 15:0.17354199 16:0.147826 17:0.20289899 18:0.46153799 19:0.66666698 20:0.14818799 21:0.207707 22:0.096864998 23:0.75055099 24:0.112972 25:0.39235401 26:0 27:0.129995 28:0.0071740001 29:0.43937799 30:0 31:0.15537 32:0 33:0 34:0 35:0 36:0 37:0.146164 38:0.087566003 39:0.59546 40:0.108295 41:0 42:0.62162203 43:0 44:0.078045003 45:0.15000001 46:0 #docid = GX241-82-7773430 inc = 0.0135218742480478 prob = 0.541851
0.02 1:0.096848004 2:0.079999998 3:0 4:0 5:0.095457003 6:0 7:0 8:0 9:0 10:0 11:0.082364999 12:0.076220997 13:0 14:0 15:0.079844996 16:0.065729 17:0.057971001 18:0.53846198 19:0.5 20:0.065796003 21:0.93880802 22:0.55607498 23:1 24:0.465592 25:0.70573503 26:0.41857901 27:0 28:0.53658003 29:0 30:0 31:0 32:0 33:0 34:0 35:0 36:0 37:0.65927303 38:0.51185101 39:0.86887699 40:0.45491201 41:0 42:0.54054099 43:0 44:9.9999997e-005 45:0 46:0 #docid = GX245-08-10870484 inc = 0.0353170005968985 prob = 0.890521
-0.029999999999999999 1:0.036102999 2:0 3:0 4:0 5:0.032202002 6:0 7:0 8:0 9:0 10:0 11:0.031468 12:0 13:0 14:0 15:0.027693 16:0.023432 17:0.028986 18:0 19:0.5 20:0.02324 21:1 22:0.62946099 23:0.77958101 24:0.55011803 25:0 26:0 27:0 28:0 29:0 30:0 31:0 32:0 33:0 34:0 35:0 36:0 37:0.67494899 38:0.555825 39:0.62078899 40:0.516976 41:0.5 42:0.54054099 43:0 44:0.025978999 45:0.050000001 46:0 #docid = GX256-01-5108816 inc = 0.0234328235445197 prob = 0.5887
0.019999999999999997 1:1 2:0.02 3:0 4:0 5:1 6:0 7:0 8:0 9:0 10:0 11:1 12:0.031780999 13:0 14:0 15:1 16:1 17:0.057971001 18:0 19:0.33333299 20:1 21:0 22:0 23:0.74348998 24:0 25:0.294265 26:0.038456 27:0.045047998 28:0 29:0 30:0 31:0 32:0 33:0 34:0 35:0 36:0 37:0 38:0 39:0.58660698 40:0 41:0.5 42:0.432432 43:0 44:0 45:0 46:0 #docid = GX264-55-16328787 inc = 1 prob = 0.0269951
0.040000000000000001 1:0.010646 2:0 3:0.5 4:0 5:0.01139 6:0 7:0 8:0 9:0 10:0 11:0.55797398 12:0 13:0.61040699 14:0 15:0.56967098 16:0.0061579999 17:0.54545498 18:0.25925899 19:0.444444 20:0.0065219998 21:0.782507 22:0.69227999 23:0.61620301 24:0.63749099 25:0 26:0 27:0 28:0 29:0.55001199 30:0.68855 31:0.55220503 32:0.56481099 33:0 34:0 35:0 36:0 37:0.79643101 38:0.68184698 39:0.59892601 40:0.65231901 41:0.444444 42:0.64516097 43:0 44:0.53388703 45:0.33333299 46:0.079365 #docid = GX012-97-12302597 inc = 1 prob = 0.145584
-0.01 1:0.060837001 2:0 3:0.5 4:0.5 5:0.062263001 6:0 7:0 8:0 9:0 10:0 11:0.60310203 12:0 13:0.61040699 14:0.23545399 15:0.610964 16:0.030371999 17:0.18181799 18:0.51851898 19:0.222222 20:0.030758001 21:0.871315 22:1 23:1 24:1 25:0 26:0 27:0 28:0 29:0.33743501 30:0.57193798 31:0.54952198 32:0.50338101 33:0.27643001 34:0 35:0 36:0 37:0.88475198 38:1 39:1 40:1 41:0.222222 42:0.209677 43:0 44:0.54938298 45:1 46:0.42857099 #docid = GX019-58-14973193 inc = 1 prob = 0.27969
-0.01 1:0.00076000002 2:1 3:0.5 4:1 5:0.0045560002 6:0 7:0 8:0 9:0 10:0 11:0.50748301 12:1 13:0.61040699 14:1 15:0.54509902 16:2.6e-005 17:0.18181799 18:0.074074 19:0.66666698 20:0.00020900001 21:0.43101999 22:0.68531901 23:0.198617 24:0.48055699 25:1 26:1 27:1 28:1 29:1 30:0.86221999 31:0.55412602 32:0.67584002 33:1 34:1 35:1 36:1 37:0.66011298 38:0.61211997 39:0.31490299 40:0.43179899 41:0.66666698 42:0.70967698 43:0 44:0.0050559998 45:0.111111 46:0 #docid = GX084-96-1421461 inc = 1 prob = 0.0876272
-0.01 1:1 2:1 3:0 4:0.5 5:1 6:0 7:0 8:0 9:0 10:0 11:0.831424 12:1 13:0 14:0.49648499 15:0.82442701 16:1 17:0.27272701 18:0 19:0.66666698 20:1 21:0.31128901 22:0.14710601 23:0.293966 24:0.413288 25:0.82105899 26:0.92404699 27:0.999327 28:0.94089502 29:0 30:0 31:0 32:0 33:0.49648499 34:0.328556 35:0.46278301 36:0.29683399 37:0.31220201 38:0.150314 39:0.23235101 40:0.43937099 41:0.555556 42:0.5 43:0 44:0.015603 45:0.111111 46:0 #docid = GX233-75-15579208 inc = 0.0068041192361516 prob = 0.0941532
-0.01 1:0.0091249999 2:1 3:0.5 4:0 5:0.01139 6:0 7:0 8:0 9:0 10:0 11:0.56891501 12:1 13:0.61040699 14:0 15:0.59302503 16:0.00067799998 17:0.18181799 18:0.148148 19:0.33333299 20:0.00083500001 21:0.58549398 22:0.63911599 23:0.42679599 24:0.52711302 25:1 26:1 27:1 28:1 29:0.753434 30:0.76612198 31:0.55335701 32:0.61440802 33:0 34:0 35:0 36:0 37:0.59922397 38:0.61218202 39:0.41023901 40:0.51540601 41:0.111111 42:0.33871001 43:0 44:0.076176003 45:0.222222 46:0 #docid = GX243-77-14647202 inc = 1 prob = 0.0305391
-0.01 1:0.242718 2:0 3:0 4:0 5:0.239709 6:0 7:0 8:0 9:0 10:0 11:0.163241 12:0 13:0 14:0 15:0.15979099 16:0.025774 17:0 18:0.32142901 19:0 20:0.025847999 21:0.68888098 22:0.73861599 23:0.77391499 24:0.78558499 25:0 26:0 27:0 28:0 29:0 30:0 31:0 32:0 33:0 34:0 35:0 36:0 37:0.67554301 38:0.74384302 39:0.771617 40:0.79822803 41:0 42:0.122137 43:0 44:0 45:0 46:0.63333303 #docid = GX002-11-3663536 inc = 0.0368621501592667 prob = 0.400321
-0.01 1:0.123786 2:0 3:0.5 4:0 5:0.123487 6:0 7:0 8:0 9:0 10:0 11:0.104992 12:0 13:0.47038701 14:0 15:0.104706 16:0.077321 17:0.5 18:0.178571 19:0.136364 20:0.077724002 21:0.81901002 22:0.64256197 23:0.71759099 24:0.61995 25:0 26:0 27:0 28:0 29:0.56099099 30:0 31:0 32:0 33:0 34:0 35:0 36:0 37:0.81437701 38:0.65251797 39:0.720442 40:0.635647 41:1 42:0.122137 43:0 44:0.00080899999 45:0.005682 46:0 #docid = GX036-34-4122418 inc = 0.0131760195566157 prob = 0.121668
0.01 1:0.026698999 2:0.66666698 3:0 4:0 5:0.029056 6:0 7:0 8:0 9:0 10:0 11:0.021793 12:0.62294197 13:0 14:0 15:0.02208 16:0.0059230002 17:0.34999999 18:0.071428999 19:0 20:0.0059949998 21:0.915645 22:0.82661498 23:0.51878202 24:0.83305502 25:0.55797398 26:0.21664301 27:0.0085549997 28:0.32332 29:0 30:0 31:0 32:0 33:0 34:0 35:0 36:0 37:0.914657 38:0.85266 39:0.55041498 40:0.861211 41:0.25 42:0.068701997 43:0 44:1 45:1 46:0.69999999 #docid = GX036-80-3831115 inc = 0.0177930585172513 prob = 0.263579
0.070000000000000007 1:0.56310701 2:0.66666698 3:0 4:1 5:0.56900698 6:0 7:0 8:0 9:0 10:0 11:0.379821 12:0.62294197 13:0 14:1 15:0.38215899 16:0.077572003 17:0.2 18:0.25 19:0.090908997 20:0.077795997 21:0.70524597 22:0.76375902 23:0.90791202 24:0.75064701 25:0.81204402 26:0.344744 27:0.011131 28:0.400224 29:0 30:0 31:0 32:0 33:1 34:1 35:1 36:1 37:0.69482601 38:0.77424699 39:0.90906298 40:0.76769298 41:0.5 42:0.114504 43:0 44:0.106249 45:0.48295501 46:1 #docid = GX046-14-10035814 inc = 0.0611174109722242 prob = 0.533663
0.029999999999999999 1:0.043689001 2:0 3:0 4:0 5:0.041161999 6:0 7:0 8:0 9:0 10:0 11:0.047286 12:0 13:0 14:0 15:0.044275999 16:0.024553001 17:0.050000001 18:0.035714 19:0.045455001 20:0.024412001 21:0.70392901 22:0.53442103 23:0.485304 24:0.55527598 25:0 26:0 27:0 28:0 29:0 30:0 31:0 32:0 33:0 34:0 35:0 36:0 37:0.69307798 38:0.53860599 39:0.482687 40:0.56554103 41:0.5 42:0.17557301 43:0 44:0.0034620001 45:0.011364 46:0.5 #docid = GX063-52-10751704 inc = 0.00253079193727626 prob = 0.10681
-0.029999999999999999 1:0.54854399 2:0.66666698 3:0 4:0 5:0.54963702 6:0 7:0 8:0 9:0 10:0 11:0.42865399 12:0.62294197 13:0 14:0 15:0.42774901 16:0.15632901 17:0.85000002 18:0 19:0.045455001 20:0.15673999 21:0.958242 22:0.78801399 23:1 24:0.76027298 25:0.27312499 26:0 27:0 28:0.201427 29:0 30:0 31:0 32:0 33:0 34:0 35:0 36:0 37:0.94534099 38:0.79870301 39:1 40:0.77737802 41:0.5 42:0.053435002 43:0 44:0.00015000001 45:0.005682 46:0.066666998 #docid = GX073-54-8247387 inc = 1 prob = 0.499929
0.01 1:0.43203899 2:0 3:0 4:0 5:0.42857099 6:0 7:0 8:0 9:0 10:0 11:0.374026 12:0 13:0 14:0 15:0.37011999 16:0.19096801 17:0 18:0.107143 19:0.090908997 20:0.190917 21:0.91228598 22:0.71169502 23:0.90327901 24:0.68392003 25:0 26:0 27:0 28:0 29:0 30:0 31:0 32:0 33:0 34:0 35:0 36:0 37:0.900976 38:0.72069001 39:0.90201402 40:0.69899702 41:0.5 42:0.15267199 43:0 44:0 45:0 46:0 #docid = GX081-51-8950756 inc = 1 prob = 0.81134
-0.040000000000000001 1:0.033980999 2:1 3:0 4:1 5:0.043584 6:0 7:0 8:0 9:0 10:0 11:0.027969001 12:1 13:0 14:1 15:0.034398999 16:0.003123 17:0.30000001 18:0.214286 19:1 20:0.0040930002 21:1 22:1 23:0.585347 24:1 25:1 26:1 27:1 28:1 29:0 30:0 31:0 32:0 33:0.54529399 34:0 35:0 36:0 37:1 38:1 39:0.65098703 40:1 41:0.75 42:1 43:0 44:0.0031409999 45:0.005682 46:0 #docid = GX208-68-5999222 inc = 1 prob = 0.440306
-0.050000000000000003 1:1 2:0 3:1 4:0 5:1 6:0 7:0 8:0 9:0 10:0 11:1 12:0 13:1 14:0 15:1 16:0.98320103 17:0 18:0.42857099 19:0.045455001 20:0.983522 21:0.67086297 22:0.48101699 23:0.62857598 24:0.457468 25:0 26:0 27:0 28:0 29:0.67445499 30:1 31:1 32:1 33:0 34:0 35:0 36:0 37:0.66767299 38:0.48829299 39:0.62933898 40:0.469778 41:0.25 42:0.038167998 43:0 44:0 45:0 46:0 #docid = GX228-32-0863974 inc = 1 prob = 0.118663
0.02 1:0.033980999 2:0 3:0 4:0 5:0.031477001 6:0 7:0 8:0 9:0 10:0 11:0.027969001 12:0 13:0 14:0 15:0.024985 16:0.0048099998 17:0.15000001 18:0.107143 19:0.090908997 20:0.0048469999 21:0.975003 22:0.91760099 23:0.57882202 24:0.91668999 25:0 26:0 27:0 28:0 29:0 30:0 31:0 32:0 33:0 34:0 35:0 36:0 37:0.95071101 38:0.90760702 39:0.57580501 40:0.91396099 41:0.25 42:0.114504 43:0 44:0.27243701 45:0.81818199 46:0.66666698 #docid = GX244-80-3169340 inc = 0.032870488368547 prob = 0.367488
0.02 1:0.076389 2:0 3:1 4:0 5:0.074782997 6:0 7:0 8:0 9:0 10:0 11:0.076389 12:0 13:1 14:0 15:0.074782997 16:0.065543003 17:0.5 18:0.60000002 19:0.80000001 20:0.065656997 21:0.93075401 22:0.20279799 23:0.89718801 24:0.124936 25:0 26:0 27:0 28:0 29:0.71876198 30:0.31739101 31:0.49974999 32:0.31739399 33:0 34:0 35:0 36:0 37:0.56279302 38:0.115556 39:0.85601699 40:0.111985 41:1 42:0.31034499 43:0 44:0.042946 45:0.00495 46:0.0098040001 #docid = GX005-85-9352588 inc = 0.026055687804262 prob = 0.711807
-0.01 1:0.0052080001 2:1 3:1 4:0 5:0.0052169999 6:0 7:0 8:0 9:0 10:0 11:0.0052080001 12:1 13:1 14:0 15:0.0052169999 16:0.00029299999 17:0.166667 18:0.40000001 19:0.60000002 20:0.00031800001 21:1 22:1 23:0.418423 24:1 25:1 26:1 27:1 28:1 29:0.83637202 30:0.56932098 31:0.74962401 32:0.569323 33:0 34:0 35:0 36:0 37:1 38:1 39:0.319792 40:1 41:0.66666698 42:0.62068999 43:0 44:0.00043499999 45:0.00495 46:0.0098040001 #docid = GX009-87-7259375 inc = 1 prob = 0.122349
-0.01 1:1 2:1 3:0 4:0 5:1 6:0 7:0 8:0 9:0 10:0 11:1 12:1 13:0 14:0 15:1 16:1 17:1 18:0 19:0.80000001 20:1 21:0.87517798 22:0.135732 23:1 24:0.051506002 25:0.41782099 26:0 27:0 28:0 29:0 30:0 31:0 32:0 33:0 34:0 35:0 36:0 37:0.42424899 38:0.039933 39:1 40:0.033991002 41:0.66666698 42:1 43:0 44:0.089312002 45:0.00495 46:0 #docid = GX232-35-9545554 inc = 1 prob = 0.264052
-0.02 1:0.146953 2:0.80000001 3:0.66666698 4:0 5:0.176056 6:0 7:0 8:0 9:0 10:0 11:0.145888 12:0.80000001 13:0.61312401 14:0 15:0.172398 16:0.043079 17:0.62264198 18:0.40000001 19:0.210526 20:0.046105999 21:0.444042 22:0.600398 23:0.49451101 24:0.697155 25:0.52461803 26:0.67200899 27:0.89927 28:0.53665698 29:0.75858498 30:0.59531599 31:0.22434001 32:0.58262497 33:0 34:0 35:0 36:0 37:0.427733 38:0.61421001 39:0.50790298 40:0.71722901 41:0.60000002 42:0.21348301 43:0 44:0.276553 45:0.83871001 46:0.2 #docid = GX003-13-2169733 inc = 0.0254622873938815 prob = 0.125963
-0.02 1:0.028674001 2:0 3:0 4:0 5:0.024648 6:0 7:0 8:0 9:0 10:0 11:0.042183001 12:0 13:0 14:0 15:0.038502999 16:0.110876 17:0.18867899 18:0.86666697 19:0.26315799 20:0.112389 21:0.409711 22:0.69089699 23:0.84657598 24:0.866193 25:0 26:0 27:0 28:0 29:0 30:0 31:0 32:0 33:0 34:0 35:0 36:0 37:0.39400399 38:0.69223702 39:0.83835799 40:0.86606503 41:0.80000001 42:0.32584301 43:0 44:0.080296002 45:0.25806499 46:0.27500001 #docid = GX006-32-16482483 inc = 1 prob = 0.182968
-0.029999999999999999 1:0.064516 2:0.30000001 3:1 4:0 5:0.080986001 6:0 7:0 8:0 9:0 10:0 11:0.062770002 12:0.32896501 13:1 14:0 15:0.078968003 16:0.026735 17:0.20754699 18:0.73333299 19:0.105263 20:0.027845001 21:0.47384301 22:0.62986797 23:0.43973699 24:0.71297199 25:0.64717901 26:1 27:0.89962697 28:1 29:0.82787102 30:0.90845603 31:0.416722 32:1 33:0 34:0 35:0 36:0 37:0.47635999 38:0.67057502 39:0.47780499 40:0.75550997 41:0.2 42:0.25842699 43:0 44:1 45:1 46:0.125 #docid = GX011-26-2847155 inc = 1 prob = 0.191264
-0.02 1:0.028674001 2:0 3:0 4:1 5:0.028169001 6:0 7:0 8:0 9:0 10:0 11:0.012463 12:0 13:0 14:1 15:0.010602 16:0.003733 17:0.037735999 18:0.133333 19:0.105263 20:0.003027 21:0.026673 22:0.15000901 23:0.077225998 24:0 25:0 26:0 27:0 28:0 29:0 30:0 31:0 32:0 33:1 34:1 35:1 36:1 37:0.0093019996 38:0.133303 39:0.054598 40:0.018635999 41:0.2 42:0.11236 43:0 44:0.029584 45:0.032258 46:0 #docid = GX011-96-14879276 inc = 1 prob = 0.0300407
0.11999999999999998 1:0.70250899 2:1 3:0 4:0 5:0.72183102 6:0 7:0 8:0 9:0 10:0 11:0.659307 12:1 13:0 14:0 15:0.67718703 16:0.220743 17:0.45282999 18:0.466667 19:0.105263 20:0.22276001 21:0.434001 22:0.54648 23:0.62599802 24:0.65823299 25:0.79821002 26:0.68014401 27:1 28:0.59983999 29:0 30:0 31:0 32:0 33:0 34:0 35:0 36:0 37:0.41901699 38:0.55605501 39:0.622796 40:0.67461002 41:0.40000001 42:0.089887999 43:0 44:0.052855 45:0.74193501 46:0.22499999 #docid = GX020-38-3460971 inc = 1 prob = 0.180675
-0.02 1:0.017921001 2:0 3:0 4:0 5:0.014085 6:0 7:0 8:0 9:0 10:0 11:0.024018999 12:0 13:0 14:0 15:0.020567 16:0.016546 17:0.037735999 18:0.26666701 19:0.052632 20:0.015939999 21:0.59393698 22:0.71850801 23:0.78649199 24:0.796987 25:0 26:0 27:0 28:0 29:0 30:0 31:0 32:0 33:0 34:0 35:0 36:0 37:0.57103598 38:0.71186602 39:0.77622402 40:0.793589 41:0.2 42:0 43:0 44:0.01839 45:0.032258 46:0.375 #docid = GX030-14-13114464 inc = 1 prob = 0.122021
0.13999999999999999 1:1 2:0.60000002 3:0 4:0 5:1 6:0 7:0 8:0 9:0 10:0 11:1 12:0.60000002 13:0 14:0 15:1 16:0.31315601 17:0.18867899 18:0.466667 19:0.105263 20:0.313761 21:0.39466399 22:0.49276799 23:0.59176803 24:0.61314398 25:1 26:0.77155203 27:0.79958802 28:0.64240301 29:0 30:0 31:0 32:0 33:0 34:0 35:0 36:0 37:0.37951601 38:0.500498 39:0.58466399 40:0.62903798 41:0.40000001 42:0.101124 43:0 44:0.041538998 45:0.29032299 46:0.075000003 #docid = GX031-91-13841286 inc = 1 prob = 0.132397
-0.02 1:0.043010999 2:0 3:0 4:0 5:0.038732 6:0 7:0 8:0 9:0 10:0 11:0.22968499 12:0 13:0 14:0 15:0.223442 16:0.208636 17:0.056604002 18:0.86666697 19:0.210526 20:0.209342 21:0.70137602 22:0.34529299 23:0.71455997 24:0.47884199 25:0 26:0 27:0 28:0 29:0 30:0 31:0 32:0 33:0 34:0 35:0 36:0 37:0.69016099 38:0.34825799 39:0.70247698 40:0.492567 41:0.60000002 42:0.348315 43:0 44:0.058596 45:0.096773997 46:0.075000003 #docid = GX036-97-4301763 inc = 1 prob = 0.121571
-0.01 1:0.003584 2:0 3:0 4:0 5:0 6:0 7:0 8:0 9:0 10:0 11:0.034017999 12:0 13:0 14:0 15:0.030531 16:0.018261001 17:0.113208 18:0.40000001 19:0.210526 20:0.018563 21:0.68396801 22:0.52782202 23:0.75919902 24:0.512384 25:0 26:0 27:0 28:0 29:0 30:0 31:0 32:0 33:0 34:0 35:0 36:0 37:0.65804201 38:0.52469403 39:0.74728203 40:0.51924801 41:0.80000001 42:0.235955 43:0 44:0.205018 45:0.064516 46:0.075000003 #docid = GX038-98-13183264 inc = 0.0651613792130483 prob = 0.108493
0.070000000000000007 1:0.19354799 2:0.2 3:0 4:0 5:0.193662 6:0 7:0 8:0 9:0 10:0 11:0.177406 12:0.2 13:0 14:0 15:0.177755 16:0.04318 17:0.113208 18:0.33333299 19:0.157895 20:0.043281 21:0.40923101 22:0.54909903 23:0.495451 24:0.69265002 25:0.62252998 26:0.63442802 27:0.43772799 28:0.57380199 29:0 30:0 31:0 32:0 33:0 34:0 35:0 36:0 37:0.39202201 38:0.552625 39:0.48618501 40:0.70145702 41:0.40000001 42:0.247191 43:0 44:0.010325 45:0.032258 46:0 #docid = GX229-23-9085721 inc = 0.0213461690094264 prob = 0.0899577
-0.050000000000000003 1:0.039427001 2:0 3:0.66666698 4:0 5:0.042254001 6:0 7:0 8:0 9:0 10:0 11:0.098286003 12:0 13:0.96811599 14:0 15:0.112797 16:0.0080709998 17:0 18:0.533333 19:0 20:0.0075670001 21:1 22:1 23:0.93032902 24:1 25:0 26:0 27:0 28:0 29:1 30:1 31:1 32:0.92416501 33:0 34:0 35:0 36:0 37:1 38:1 39:0.94456702 40:1 41:0.40000001 42:0.134831 43:0 44:0 45:0 46:0.1 #docid = GX231-66-4189329 inc = 0.134394576633935 prob = 0.466902
-0.050000000000000003 1:0.035842001 2:0 3:0.66666698 4:0 5:0.038732 6:0 7:0 8:0 9:0 10:0 11:0.080499001 12:0 13:0.96811599 14:0 15:0.095260002 16:0.008374 17:0 18:0.533333 19:0 20:0.0078689996 21:0.96871901 22:0.973894 23:0.91384798 24:0.98214298 25:0 26:0 27:0 28:0 29:1 30:1 31:1 32:0.92416501 33:0 34:0 35:0 36:0 37:0.97722298 38:0.978172 39:0.93064803 40:0.98563898 41:0.40000001 42:0.134831 43:0 44:0 45:0 46:0.1 #docid = GX231-83-15831348 inc = 1 prob = 0.434913
-0.02 1:0.15770601 2:0 3:0 4:0 5:0.151408 6:0 7:0 8:0 9:0 10:0 11:0.16908801 12:0 13:0 14:0 15:0.163342 16:0.39315999 17:0.018867999 18:0 19:0.210526 20:0.392353 21:0.30909199 22:0.65145802 23:0.87206 24:0.84103 25:0 26:0 27:0 28:0 29:0 30:0 31:0 32:0 33:0 34:0 35:0 36:0 37:0.2974 38:0.65749598 39:0.86724299 40:0.84638101 41:0.60000002 42:0.30337101 43:0 44:8.6e-005 45:0.032258 46:0 #docid = GX232-76-12291280 inc = 0.0583299319785966 prob = 0.20352
-0.040000000000000001 1:0.02509 2:0 3:0.33333299 4:0 5:0.024648 6:0 7:0 8:0 9:0 10:0 11:0.043365002 12:0 13:0.209655 14:0 15:0.041133001 16:0.012409 17:0 18:1 19:0 20:0.012611 21:0.81014001 22:0.84372902 23:0.85066098 24:0.88422698 25:0 26:0 27:0 28:0 29:0.13723999 30:0 31:0 32:0 33:0 34:0 35:0 36:0 37:0.782278 38:0.82830799 39:0.84904301 40:0.87810999 41:0.40000001 42:0.134831 43:0 44:0 45:0 46:0.1 #docid = GX233-25-13492206 inc = 0.0583299319785966 prob = 0.129612
-0.040000000000000001 1:0.028674001 2:0 3:0.33333299 4:0 5:0.028169001 6:0 7:0 8:0 9:0 10:0 11:0.044923 12:0 13:0.209655 14:0 15:0.042647999 16:0.0098869996 17:0 18:0.66666698 19:0 20:0.0095840003 21:0.83113003 22:0.89752001 23:0.86187798 24:0.92051899 25:0 26:0 27:0 28:0 29:0.185867 30:0.063327 31:0.001157 32:0.022041 33:0 34:0 35:0 36:0 37:0.80537999 38:0.88526398 39:0.86044002 40:0.91301602 41:0.40000001 42:0.134831 43:0 44:0 45:0 46:0.1 #docid = GX234-03-15872247 inc = 0.0765277151036363 prob = 0.143665
-0.040000000000000001 1:0.114695 2:0 3:0 4:0 5:0.109155 6:0 7:0 8:0 9:0 10:0 11:0.153561 12:0 13:0 14:0 15:0.14844599 16:0.25 17:0.113208 18:0.26666701 19:0.210526 20:0.250101 21:0.442662 22:0.76606399 23:1 24:0.96124399 25:0 26:0 27:0 28:0 29:0 30:0 31:0 32:0 33:0 34:0 35:0 36:0 37:0.43372399 38:0.77489197 39:1 40:0.964266 41:0.40000001 42:0.235955 43:0 44:0.074378997 45:0.032258 46:0.1 #docid = GX234-58-5937864 inc = 1 prob = 0.195695
0.060000000000000005 1:0.096773997 2:0 3:0 4:0 5:0.091549002 6:0 7:0 8:0 9:0 10:0 11:0.088056996 12:0 13:0 14:0 15:0.083559997 16:0.039345998 17:0.018867999 18:0 19:0.210526 20:0.038539 21:0.46575499 22:0.61329001 23:0.47510901 24:0.694534 25:0 26:0 27:0 28:0 29:0 30:0 31:0 32:0 33:0 34:0 35:0 36:0 37:0.44888201 38:0.61727798 39:0.461577 40:0.70214701 41:0.80000001 42:0.26966301 43:0 44:0.00096899999 45:0.032258 46:0 #docid = GX240-62-9832512 inc = 1 prob = 0.189822
-0.040000000000000001 1:0 2:0 3:0.33333299 4:0 5:0 6:0 7:0 8:0 9:0 10:0 11:0.01623 12:0 13:0.75845999 14:0 15:0.030531 16:0.001513 17:0.094339997 18:0.466667 19:0.210526 20:0.001816 21:0.65751898 22:0.738666 23:0.73207098 24:0.61428499 25:0 26:0 27:0 28:0 29:0.85394698 30:0.836573 31:0.98411602 32:0.61391699 33:0 34:0 35:0 36:0 37:0.77762997 38:0.717318 39:0.770455 40:0.61699599 41:0.2 42:0.247191 43:0 44:0.00093899999 45:0.032258 46:0 #docid = GX244-16-7527285 inc = 0.0651613792130483 prob = 0.128152
-0.040000000000000001 1:0 2:0 3:0.33333299 4:0 5:0 6:0 7:0 8:0 9:0 10:0 11:0.01623 12:0 13:0.75845999 14:0 15:0.030531 16:0.0056500002 17:0 18:0.466667 19:0.210526 20:0.005448 21:0.61048502 22:0.57414699 23:0.72627503 24:0.539985 25:0 26:0 27:0 28:0 29:0.85394698 30:0.836573 31:0.98411602 32:0.61391699 33:0 34:0 35:0 36:0 37:0.74852198 38:0.64544803 39:0.76527297 40:0.57847703 41:0.40000001 42:0.348315 43:0 44:0 45:0 46:0.30000001 #docid = GX244-23-12424858 inc = 0.0439558514216584 prob = 0.129212
0.070000000000000007 1:0.23297501 2:0 3:0 4:0 5:0.225352 6:0 7:0 8:0 9:0 10:0 11:0.25854799 12:0 13:0 14:0 15:0.251607 16:0.36733299 17:0.113208 18:0 19:0.157895 20:0.36692899 21:0.317038 22:0.284531 23:0.34571201 24:0.39583501 25:0 26:0 27:0 28:0 29:0 30:0 31:0 32:0 33:0 34:0 35:0 36:0 37:0.303433 38:0.287624 39:0.32915601 40:0.415685 41:0.2 42:0.235955 43:0 44:0.045309 45:0.096773997 46:0 #docid = GX263-48-6611263 inc = 1 prob = 0.0809539
-0.01 1:0.045198001 2:1 3:1 4:0 5:0.05618 6:0 7:0 8:0 9:0 10:0 11:0.042679999 12:1 13:1 14:0 15:0.053686 16:0.181063 17:0.625 18:1 19:0 20:0.180594 21:0.098921001 22:0.330037 23:0.57048899 24:0.346145 25:0.60466099 26:0 27:0 28:0 29:0.69492197 30:0 31:0 32:0 33:0 34:0 35:0 36:0 37:0.21122301 38:0.35604599 39:0.62918502 40:0.37027401 41:0.25 42:0 43:0 44:0.55160499 45:0.060605999 46:1 #docid = GX002-80-3104818 inc = 0.0016598560684376 prob = 0.0897452
0.050000000000000003 1:0.039547998 2:1 3:0 4:1 5:0.050562002 6:0 7:0 8:0 9:0 10:0 11:0.036191002 12:1 13:0 14:1 15:0.047237001 16:0.0090969997 17:0.25 18:0.33333299 19:0 20:0.0076830001 21:1 22:1 23:0.82191402 24:1 25:1 26:1 27:1 28:1 29:0 30:0 31:0 32:0 33:1 34:1 35:1 36:1 37:1 38:1 39:0.89925498 40:1 41:0.25 42:0.012821 43:0 44:0.119949 45:0.015152 46:0.038462002 #docid = GX010-87-14702853 inc = 1 prob = 0.196285
-0.01 1:0.0056500002 2:0 3:0 4:0 5:0.0056179999 6:0 7:0 8:0 9:0 10:0 11:0.0048099998 12:0 13:0 14:0 15:0.0047869999 16:0.034093 17:1 18:0.444444 19:0.055555999 20:0.033346999 21:0.044918001 22:0.152815 23:0.267629 24:0.39450899 25:0 26:0 27:0 28:0 29:0 30:0 31:0 32:0 33:0 34:0 35:0 36:0 37:0.071877003 38:0.14040899 39:0.27271199 40:0.37747899 41:0 42:0.051282 43:0 44:0.216842 45:0.030303 46:0.84615397 #docid = GX103-77-9540791 inc = 0.00650572284566316 prob = 0.0436714
-0.01 1:0.022599 2:1 3:1 4:0 5:0.033707999 6:0 7:0 8:0 9:0 10:0 11:0.02176 12:1 13:1 14:0 15:0.032876998 16:0.011391 17:0.25 18:0.555556 19:0 20:0.010139 21:0.69222498 22:0.67387599 23:0.57267898 24:0.79410702 25:1 26:1 27:1 28:1 29:1 30:1 31:1 32:1 33:0 34:0 35:0 36:0 37:0.71720201 38:0.68643701 39:0.651802 40:0.80088001 41:0 42:0.179487 43:0 44:1 45:1 46:0 #docid = GX243-26-14691161 inc = 1 prob = 0.230292
-0.01 1:0.27118599 2:0 3:0 4:0 5:0.26966301 6:0 7:0 8:0 9:0 10:0 11:0.235938 12:0 13:0 14:0 15:0.23475599 16:0.28437001 17:0.5 18:0 19:0.38888901 20:0.283802 21:0.50233901 22:0.57895797 23:1 24:0.559641 25:0 26:0 27:0 28:0 29:0 30:0 31:0 32:0 33:0 34:0 35:0 36:0 37:0.50777698 38:0.56182802 39:1 40:0.54761398 41:1 42:0.410256 43:0 44:0.0054159998 45:0.015152 46:0 #docid = GX264-54-5027968 inc = 1 prob = 0.372248
-0.01 1:1 2:0 3:0 4:1 5:1 6:0 7:0 8:0 9:0 10:0 11:1 12:0 13:0 14:1 15:1 16:1 17:0 18:0 19:0.33333299 20:1 21:0.205198 22:0 23:0.215415 24:0 25:0 26:0 27:0 28:0 29:0 30:0 31:0 32:0 33:0.785595 34:0 35:0 36:0 37:0.22817799 38:0 39:0.21998601 40:0 41:0 42:0.53846198 43:0 44:0 45:0 46:0 #docid = GX271-90-9256971 inc = 0.00141779621079467 prob = 0.0905257
0.02 1:0.64130402 2:0.2 3:0.5 4:1 5:0.64855099 6:0 7:0 8:0 9:0 10:0 11:1 12:0.272212 13:0.62635899 14:1 15:1 16:0.91423702 17:0.145455 18:0.285714 19:0 20:0.91120899 21:0.58320898 22:0.24605399 23:0.54590899 24:0.63723701 25:0.74523503 26:0.646375 27:0.73032802 28:0.34953001 29:0.63015097 30:0.73321497 31:0.82185602 32:0.494358 33:1 34:1 35:1 36:1 37:0.51258099 38:0.36370701 39:0.503564 40:0.65954298 41:0 42:0.033333 43:0 44:0.89999098 45:0.44999999 46:0.29411799 #docid = GX000-80-1441433 inc = 0.0130109548988191 prob = 0.401031
-0.02 1:0.14492799 2:0 3:0 4:0 5:0.134058 6:0 7:0 8:0 9:0 10:0 11:0.130637 12:0 13:0 14:0 15:0.046388 16:0.149831 17:0.036364 18:0.214286 19:0.1 20:0.148211 21:0.90936202 22:0.78201002 23:0.62544399 24:0.85419601 25:0 26:0 27:0 28:0 29:0 30:0 31:0 32:0 33:0 34:0 35:0 36:0 37:0.88515902 38:0.81619602 39:0.58359301 40:0.86101002 41:0.166667 42:0.111111 43:0 44:0.647304 45:1 46:1 #docid = GX006-84-7974023 inc = 0.00583194378666649 prob = 0.481047
0.02 1:0.134058 2:0.2 3:1 4:0.5 5:0.141304 6:0 7:0 8:0 9:0 10:0 11:0.115012 12:0.19916999 13:1 14:0.18207499 15:0.069656 16:0.076609999 17:0.109091 18:1 19:0.1 20:0.080351003 21:1 22:1 23:0.63167101 24:1 25:0.78180301 26:1 27:0.53655702 28:0.67313701 29:0.45057401 30:1 31:1 32:1 33:0.165511 34:0.010966 35:0.001586 36:0.0098620001 37:1 38:1 39:0.62674201 40:1 41:0.33333299 42:0.25555599 43:0 44:0.43246901 45:0.60000002 46:0.70588201 #docid = GX032-55-13354167 inc = 1 prob = 0.513678
-0.02 1:0.061593998 2:0 3:0 4:0 5:0.050725002 6:0 7:0 8:0 9:0 10:0 11:0.203971 12:0 13:0 14:0 15:0.117289 16:0.028136 17:0 18:0 19:1 20:0.031397998 21:0.43853 22:0.195519 23:0.28468499 24:0.28477201 25:0 26:0 27:0 28:0 29:0 30:0 31:0 32:0 33:0 34:0 35:0 36:0 37:0.30537099 38:0.286024 39:0.189384 40:0.29143301 41:0.66666698 42:1 43:0 44:0 45:0 46:0.17647099 #docid = GX054-39-2464026 inc = 1 prob = 0.0899731
-0.02 1:0.014205 2:1 3:1 4:1 5:0.025605001 6:0 7:0 8:0 9:0 10:0 11:0.0086859995 12:1 13:1 14:1 15:0.021762 16:0.0038719999 17:0.29411799 18:0.33333299 19:1 20:0.0043660002 21:0.44580099 22:0.51248699 23:0.228861 24:0.50831002 25:1 26:1 27:1 28:1 29:1 30:1 31:1 32:1 33:1 34:0 35:0 36:0 37:0.54878002 38:0.69360501 39:0.31754801 40:0.61744499 41:0.66666698 42:1 43:0 44:0.062042002 45:0.2 46:0 #docid = GX006-00-5738776 inc = 0.00240057186838373 prob = 0.0940265
-0.01 1:0.0625 2:0.5 3:0 4:0 5:0.064011 6:0 7:0 8:0 9:0 10:0 11:0.147499 12:0.5 13:0 14:0 15:0.14818899 16:0.030975999 17:0.29411799 18:0.444444 19:0 20:0.031167001 21:0.72491699 22:0.051736999 23:0.39469999 24:0.148294 25:0.60046202 26:0.81581497 27:0.82682103 28:0.90151 29:0 30:0 31:0 32:0 33:0 34:0 35:0 36:0 37:0.681288 38:0.118088 39:0.374562 40:0.191916 41:0 42:0.037037 43:0 44:1 45:1 46:1 #docid = GX060-27-16204134 inc = 1 prob = 0.197737
0.02 1:0.13068201 2:0 3:0 4:0 5:0.129445 6:0 7:0 8:0 9:0 10:0 11:0.046394002 12:0 13:0 14:0 15:0.042567998 16:0.18631101 17:0.235294 18:0 19:0.33333299 20:0.186432 21:0.21571501 22:0.461128 23:0.59297699 24:0.65755397 25:0 26:0 27:0 28:0 29:0 30:0 31:0 32:0 33:0 34:0 35:0 36:0 37:0.206284 38:0.476327 39:0.57538903 40:0.659114 41:0.66666698 42:0.38888901 43:0 44:0.56708097 45:0 46:0 #docid = GX232-47-1836193 inc = 1 prob = 0.297692
-0.01 1:0 2:0 3:0.5 4:0 5:0 6:0 7:0 8:0 9:0 10:0 11:0 12:0 13:0.73703003 14:0 15:0 16:0.00072100002 17:0.058823999 18:1 19:0.111111 20:0.00098699995 21:0.395818 22:0 23:0.070437998 24:0 25:0 26:0 27:0 28:0 29:0.399753 30:0.423305 31:0.96799898 32:0.30758199 33:0 34:0 35:0 36:0 37:0.49206701 38:0 39:0.087231003 40:0 41:0.33333299 42:0.055555999 43:0 44:0.059751 45:0 46:0 #docid = GX255-80-2347956 inc = 0.00457596794858286 prob = 0.0947496
0.029999999999999999 1:1 2:0 3:0 4:0 5:1 6:0 7:0 8:0 9:0 10:0 11:1 12:0 13:0 14:0 15:1 16:1 17:0.058823999 18:0 19:0.222222 20:1 21:0.80651098 22:0.72182202 23:0.84884101 24:0.818905 25:0 26:0 27:0 28:0 29:0 30:0 31:0 32:0 33:0 34:0 35:0 36:0 37:0.80063897 38:0.73121202 39:0.84345901 40:0.82061398 41:0.66666698 42:0 43:0 44:0.114395 45:0.2 46:0 #docid = GX261-45-3818732 inc = 1 prob = 0.36341
-0.01 1:0.45454499 2:0 3:0 4:0 5:0.45377001 6:0 7:0 8:0 9:0 10:0 11:0.29638901 12:0 13:0 14:0 15:0.29311699 16:0.35945001 17:0.17647099 18:0 19:0.88888901 20:0.35973001 21:1 22:1 23:1 24:1 25:0 26:0 27:0 28:0 29:0 30:0 31:0 32:0 33:0 34:0 35:0 36:0 37:1 38:1 39:1 40:1 41:1 42:0.92592603 43:0 44:0.017790001 45:0 46:0 #docid = GX263-99-0348927 inc = 0.0250020201324468 prob = 0.409354
0.029999999999999999 1:0.011272 2:0 3:0 4:0 5:0.011254 6:0 7:0 8:0 9:0 10:0 11:0.011468 12:0 13:0 14:0 15:0.011244 16:0.012969 17:0 18:0.53846198 19:0 20:0.012874 21:0.783575 22:0.61130297 23:0.63730103 24:0.56874001 25:0 26:0 27:0 28:0 29:0 30:0 31:0 32:0 33:0 34:0 35:0 36:0 37:0.77631903 38:0.596425 39:0.61734903 40:0.61853802 41:0 42:0.054053999 43:0 44:0 45:0 46:0 #docid = GX000-01-10866095 inc = 1 prob = 0.0897452
-0.040000000000000001 1:0.014493 2:1 3:0.5 4:0 5:0.024116 6:0 7:0 8:0 9:0 10:0 11:0.014715 12:1 13:0.5 14:0 15:0.024212999 16:0.0088799996 17:1 18:0.53846198 19:0.166667 20:0.0092639998 21:0.88394201 22:0.71940398 23:0.692321 24:0.64818299 25:0.64553702 26:0.99999499 27:1 28:0.88569599 29:0.73000801 30:0.84529102 31:0.74745399 32:0.91594797 33:0 34:0 35:0 36:0 37:0.945445 38:0.77672797 39:0.76933098 40:0.76389599 41:0.142857 42:0.094595 43:0 44:0.62222397 45:0.115819 46:0.44827601 #docid = GX000-04-3996743 inc = 0.0255843896427272 prob = 0.18163
0.040000000000000001 1:0.0096620005 2:0 3:0 4:0 5:0.0096460003 6:0 7:0 8:0 9:0 10:0 11:0.0097399997 12:0 13:0 14:0 15:0.0095170001 16:0.010414 17:0.384615 18:0.615385 19:0.083333001 20:0.010542 21:0.77784503 22:0.61776501 23:0.61383897 24:0.57882202 25:0 26:0 27:0 28:0 29:0 30:0 31:0 32:0 33:0 34:0 35:0 36:0 37:0.76617801 38:0.598059 39:0.59242201 40:0.62557399 41:0.285714 42:0.054053999 43:0 44:0.012386 45:0.001412 46:0 #docid = GX000-05-9596153 inc = 1 prob = 0.0897452
-0.14999999999999999 1:0.05314 2:0 3:0.5 4:1 5:0.057877999 6:0 7:0 8:0 9:0 10:0 11:0.052834999 12:0 13:0.5 14:1 15:0.057312999 16:0.023734 17:0.23076899 18:0.46153799 19:0.33333299 20:0.023832001 21:0.95483798 22:0.76304901 23:0.89386201 24:0.66928297 25:0 26:0 27:0 28:0 29:0.80220401 30:0.87344199 31:0.747639 32:0.93910098 33:0.82596898 34:0.36072001 35:0.55498499 36:0.429122 37:0.95826 38:0.76098698 39:0.89975297 40:0.74308503 41:0.42857099 42:0.27026999 43:0 44:0.11121 45:0.032485999 46:0.68965501 #docid = GX003-60-14635656 inc = 0.0600276125547425 prob = 0.69949
0.070000000000000007 1:0.0064409999 2:0 3:0 4:0 5:0.0064309998 6:0 7:0 8:0 9:0 10:0 11:0.0067030001 12:0 13:0 14:0 15:0.0064849998 16:0.053729001 17:0.153846 18:0.384615 19:0.58333302 20:0.053861 21:0.31356499 22:0.27416101 23:0.46100101 24:0.31915599 25:0 26:0 27:0 28:0 29:0 30:0 31:0 32:0 33:0 34:0 35:0 36:0 37:0.31411001 38:0.268244 39:0.435269 40:0.34449601 41:0.57142901 42:0.62162203 43:0 44:0.001759 45:0.001412 46:0.482759 #docid = GX005-48-3257004 inc = 1 prob = 0.0692982
-0.16 1:0.012882 2:0 3:1 4:0 5:0.019293001 6:0 7:0 8:0 9:0 10:0 11:0.013197 12:0 13:1 14:0 15:0.019455001 16:0.001533 17:0.23076899 18:1 19:0.25 20:0.001821 21:0.979482 22:1 23:0.69567603 24:0.86842698 25:0 26:0 27:0 28:0 29:0.81717402 30:1 31:1 32:0.92707902 33:0 34:0 35:0 36:0 37:1 38:0.98376501 39:0.75040799 40:0.94866002 41:0.42857099 42:0.24324299 43:0 44:0.010398 45:0.001412 46:0.034483001 #docid = GX009-55-4580798 inc = 1 prob = 0.346868
0.029999999999999999 1:0.075684004 2:0 3:0 4:0 5:0.075562999 6:0 7:0 8:0 9:0 10:0 11:0.075351 12:0 13:0 14:0 15:0.075042002 16:0.058807999 17:0.30769199 18:0.53846198 19:1 20:0.059227999 21:0.88183898 22:0.66643602 23:0.89560598 24:0.59226698 25:0 26:0 27:0 28:0 29:0 30:0 31:0 32:0 33:0 34:0 35:0 36:0 37:0.87659901 38:0.65299201 39:0.88356203 40:0.64672798 41:0.85714298 42:1 43:0 44:0.037742 45:0.0028250001 46:0.79310298 #docid = GX013-61-1558170 inc = 0.0405128066692095 prob = 0.270755
0.060000000000000005 1:0.133655 2:0 3:0 4:0 5:0.133441 6:0 7:0 8:0 9:0 10:0 11:0.133371 12:0 13:0 14:0 15:0.13298599 16:0.091678999 17:0.23076899 18:0.23076899 19:0.5 20:0.091747999 21:0.91227901 22:0.689619 23:0.96500999 24:0.60846502 25:0 26:0 27:0 28:0 29:0 30:0 31:0 32:0 33:0 34:0 35:0 36:0 37:0.90816599 38:0.67736202 39:0.95606101 40:0.66608697 41:0.71428603 42:0.64864898 43:0 44:0.0043560001 45:0.0028250001 46:0 #docid = GX014-64-15434518 inc = 0.118377129485949 prob = 0.870819
-0.029999999999999999 1:0.0032210001 2:0 3:0 4:0 5:0.003215 6:0 7:0 8:0 9:0 10:0 11:0.003457 12:0 13:0 14:0 15:0.003242 16:0.144354 17:0.153846 18:0.92307699 19:0.166667 20:0.144555 21:0 22:0 23:0.252336 24:0.12777901 25:0 26:0 27:0 28:0 29:0 30:0 31:0 32:0 33:0 34:0 35:0 36:0 37:0 38:0 39:0.220231 40:0.13330001 41:0.285714 42:0.14864901 43:0 44:0.017608 45:0.001412 46:0.034483001 #docid = GX015-01-8226161 inc = 0.00786597692452781 prob = 0.0481174
0.029999999999999999 1:0.014493 2:0.25 3:0.25 4:0 5:0.017685 6:0 7:0 8:0 9:0 10:0 11:0.014505 12:0.24443699 13:0.241998 14:0 15:0.017308 16:0.015365 17:0.76923102 18:0.76923102 19:0.66666698 20:0.015941 21:0.78953803 22:0.61536199 23:0.66663802 24:0.56877398 25:0.21702801 26:0 27:0 28:0 29:0.278207 30:0 31:0 32:0 33:0 34:0 35:0 36:0 37:0.79888201 38:0.61794299 39:0.67356002 40:0.63211298 41:0.285714 42:0.45945901 43:0 44:0.0069539999 45:0.0070620002 46:1 #docid = GX016-33-12514907 inc = 0.00713675357880015 prob = 0.0890772
-0.10999999999999999 1:0 2:0 3:0.5 4:1 5:0.0048230002 6:0 7:0 8:0 9:0 10:0 11:0.00021 12:0 13:0.5 14:1 15:0.0047590001 16:0 17:0 18:0.30769199 19:0.5 20:0 21:0.68473101 22:0.98273599 23:0.359662 24:1 25:0 26:0 27:0 28:0 29:1 30:0.94747603 31:0.74801099 32:1 33:0.75985098 34:0.199275 35:0.33281201 36:0.23422401 37:0.87389803 38:1 39:0.525249 40:1 41:0.57142901 42:0.47297299 43:0 44:0 45:0 46:0 #docid = GX025-98-7378997 inc = 1 prob = 0.117443
-0.060000000000000005 1:0.128824 2:0 3:0.5 4:1 5:0.133441 6:0 7:0 8:0 9:0 10:0 11:0.126715 12:0 13:0.5 14:1 15:0.131093 16:0.055358998 17:0 18:0.69230801 19:0.41666701 20:0.055489998 21:0.96014702 22:0.75996703 23:1 24:0.66365403 25:0 26:0 27:0 28:0 29:0.618653 30:0.799402 31:0.747082 32:0.87820202 33:0.79153198 34:0.37199399 35:0.44389901 36:0.326792 37:0.95927 38:0.75215298 39:1 40:0.73214501 41:0.42857099 42:0.47297299 43:0 44:0 45:0 46:0.37931001 #docid = GX027-81-6022098 inc = 1 prob = 0.956075
-0.029999999999999999 1:0 2:0 3:0.5 4:0 5:0.003215 6:0 7:0 8:0 9:0 10:0 11:0.00021 12:0 13:0.5 14:0 15:0.003242 16:6.4e-005 17:0.076922998 18:0.46153799 19:0.5 20:0.00016 21:0.68172997 22:0.91100401 23:0.35944799 24:0.94416797 25:0 26:0 27:0 28:0 29:0.80220401 30:0.87344199 31:0.747639 32:0.93910098 33:0 34:0 35:0 36:0 37:0.831891 38:0.90980399 39:0.48035499 40:0.93338001 41:0.71428603 42:0.71621603 43:0 44:0.021675 45:0.0098869996 46:0 #docid = GX027-95-4478226 inc = 0.0235567229065751 prob = 0.086406
0.01 1:0.0032210001 2:0.5 3:0.5 4:0 5:0.0096460003 6:0 7:0 8:0 9:0 10:0 11:0.003457 12:0.5 13:0.5 14:0 15:0.0097270003 16:0.0023960001 17:0.23076899 18:0.30769199 19:0.58333302 20:0.0025239999 21:0.78521198 22:0.71438998 23:0.497825 24:0.68467301 25:1 26:1 27:0.73164898 28:1 29:1 30:0.94747603 31:0.74801099 32:1 33:0 34:0 35:0 36:0 37:0.91195202 38:0.82717401 39:0.62462997 40:0.82440501 41:0.57142901 42:0.54054099 43:0 44:0.00030700001 45:0.001412 46:0 #docid = GX028-87-16106533 inc = 1 prob = 0.0180413
-0.099999999999999992 1:0.0032210001 2:0 3:0.5 4:1 5:0.0080390004 6:0 7:0 8:0 9:0 10:0 11:0.003457 12:0 13:0.5 14:1 15:0.0080009997 16:0.00041499999 17:0 18:0.615385 19:0.5 20:0.000543 21:0.84705901 22:0.98616099 23:0.50432497 24:0.89620602 25:0 26:0 27:0 28:0 29:0.66973299 30:0.82091701 31:0.74726802 32:0.89589202 33:0.75985098 34:0.28564301 35:0.33281201 36:0.23422401 37:0.92461401 38:0.96987301 39:0.59956902 40:0.95534098 41:0.42857099 42:0.45945901 43:0 44:0 45:0 46:0 #docid = GX033-32-9569359 inc = 0.0318204798926973 prob = 0.120476
0.01 1:0.0032210001 2:0 3:0.5 4:1 5:0.0080390004 6:0 7:0 8:0 9:0 10:0 11:0.003457 12:0 13:0.5 14:1 15:0.0080009997 16:0.00041499999 17:0 18:0.615385 19:0.58333302 20:0.00057500001 21:0.84705901 22:0.98616099 23:0.50432497 24:0.89620602 25:0 26:0 27:0 28:0 29:0.66973299 30:0.82091701 31:0.74726802 32:0.89589202 33:0.73060799 34:0.20681299 35:0.221838 36:0.149716 37:0.923913 38:0.96511 39:0.59946001 40:0.95115799 41:0.42857099 42:0.54054099 43:0 44:0 45:0 46:0 #docid = GX033-34-4501682 inc = 0.0223362964295929 prob = 0.127787
-0.01 1:0.0032210001 2:0 3:0.5 4:1 5:0.0080390004 6:0 7:0 8:0 9:0 10:0 11:0.003457 12:0 13:0.5 14:1 15:0.0080009997 16:0.00041499999 17:0 18:0.615385 19:0.5 20:0.000543 21:0.84705901 22:0.98616099 23:0.50432497 24:0.89620602 25:0 26:0 27:0 28:0 29:0.66973299 30:0.82091701 31:0.74726802 32:0.89589202 33:0.75985098 34:0.28564301 35:0.33281201 36:0.23422401 37:0.92461401 38:0.96987301 39:0.59956902 40:0.95534098 41:0.42857099 42:0.45945901 43:0 44:0 45:0 46:0 #docid = GX034-46-12610504 inc = 0.0216422811225112 prob = 0.105398
0.060000000000000005 1:0.045088999 2:0.5 3:0 4:0 5:0.048232 6:0 7:0 8:0 9:0 10:0 11:0.045033 12:0.5 13:0 14:0 15:0.048006002 16:0.047947999 17:0.30769199 18:0.69230801 19:0.5 20:0.048238002 21:0.81743699 22:0.61324 23:0.81146199 24:0.55351001 25:0.84821898 26:0.94567299 27:0.73144901 28:0.95747101 29:0 30:0 31:0 32:0 33:0 34:0 35:0 36:0 37:0.82870102 38:0.61284399 39:0.811616 40:0.61387599 41:0.57142901 42:0.44594601 43:0 44:0.504071 45:0.086158 46:0.55172402 #docid = GX036-45-4956594 inc = 1 prob = 0.248031
0.070000000000000007 1:0.0080519998 2:0 3:0 4:0 5:0.0080390004 6:0 7:0 8:0 9:0 10:0 11:0.0084319999 12:0 13:0 14:0 15:0.0082109999 16:0.076536998 17:0.92307699 18:0.92307699 19:0.33333299 20:0.077117004 21:0.26354799 22:0.243679 23:0.453697 24:0.29037201 25:0 26:0 27:0 28:0 29:0 30:0 31:0 32:0 33:0 34:0 35:0 36:0 37:0.26354301 38:0.237867 39:0.42721301 40:0.312208 41:0.42857099 42:0.33783799 43:0 44:0.000248 45:0.001412 46:0.44827601 #docid = GX039-35-15573866 inc = 1 prob = 0.0692587
0.060000000000000005 1:0 2:0 3:0 4:0 5:0 6:0 7:0 8:0 9:0 10:0 11:0.00021 12:0 13:0 14:0 15:0 16:0.00131 17:0 18:0.30769199 19:0.58333302 20:0.001342 21:0.627092 22:0.55461597 23:0.35531399 24:0.66672301 25:0 26:0 27:0 28:0 29:0 30:0 31:0 32:0 33:0 34:0 35:0 36:0 37:0.601717 38:0.492906 39:0.32549199 40:0.685139 41:0.57142901 42:0.52702701 43:0 44:0 45:0 46:0 #docid = GX042-95-5801129 inc = 0.0455397786553841 prob = 0.0139014
0.10999999999999999 1:0.024155 2:0.5 3:0.5 4:0 5:0.030547 6:0 7:0 8:0 9:0 10:0 11:0.024455 12:0.5 13:0.5 14:0 15:0.030698 16:0.016739 17:0.46153799 18:0.30769199 19:0.5 20:0.016930999 21:0.88832301 22:0.69493097 23:0.76396698 24:0.62209702 25:0.650693 26:0.86910701 27:0.73105001 28:0.89752901 29:1 30:0.94747603 31:0.74801099 32:1 33:0 34:0 35:0 36:0 37:0.91764998 38:0.71662903 39:0.79425901 40:0.70850003 41:0.71428603 42:0.5 43:0 44:1 45:1 46:0.413793 #docid = GX053-63-4429146 inc = 1 prob = 0.291928
0.02 1:0.035427 2:0 3:0.5 4:0 5:0.038585 6:0 7:0 8:0 9:0 10:0 11:0.035503 12:0 13:0.5 14:0 15:0.038488999 16:0.015876001 17:0.23076899 18:0.46153799 19:0.66666698 20:0.016101001 21:0.95002002 22:0.76733702 23:0.83746201 24:0.67510498 25:0 26:0 27:0 28:0 29:0.80220401 30:0.87344199 31:0.747639 32:0.93910098 33:0 34:0 35:0 36:0 37:0.95253003 38:0.76245099 39:0.84136498 40:0.746858 41:1 42:0.66216201 43:0 44:0.011627 45:0.0028250001 46:0.034483001 #docid = GX056-17-6965537 inc = 1 prob = 0.577886
0.02 1:0.028986 2:0 3:0.5 4:0 5:0.032154001 6:0 7:0 8:0 9:0 10:0 11:0.02922 12:0 13:0.5 14:0 15:0.032214999 16:0.015333 17:0.23076899 18:0.46153799 19:0.66666698 20:0.015558 21:0.927908 22:0.74077302 23:0.80182099 24:0.65600199 25:0 26:0 27:0 28:0 29:0.80220401 30:0.87344199 31:0.747639 32:0.93910098 33:0 34:0 35:0 36:0 37:0.93363702 38:0.73885798 39:0.80764699 40:0.727593 41:1 42:0.64864898 43:0 44:0.011628 45:0.0028250001 46:0.034483001 #docid = GX063-25-14900249 inc = 1 prob = 0.327559
0.02 1:0.028986 2:0 3:0.5 4:0 5:0.032154001 6:0 7:0 8:0 9:0 10:0 11:0.02922 12:0 13:0.5 14:0 15:0.032214999 16:0.014822 17:0 18:0.30769199 19:0.58333302 20:0.014855 21:0.93192703 22:0.74672002 23:0.80320799 24:0.66062999 25:0 26:0 27:0 28:0 29:1 30:0.94747603 31:0.74801099 32:1 33:0 34:0 35:0 36:0 37:0.93858898 38:0.746584 39:0.80960202 40:0.73438001 41:0.85714298 42:0.58108097 43:0 44:0 45:0 46:0.034483001 #docid = GX064-37-8883983 inc = 1 prob = 0.3984
-0.12999999999999998 1:0.00161 2:0 3:0.25 4:1 5:0.0048230002 6:0 7:0 8:0 9:0 10:0 11:0.001728 12:0 13:0.241998 14:1 15:0.0045480002 16:0.002012 17:0 18:0.46153799 19:0 20:0.001885 21:0.69151801 22:0.61392802 23:0.425686 24:0.65963697 25:0 26:0 27:0 28:0 29:0.388264 30:0.056253001 31:0.00074300001 32:0.038362 33:1 34:1 35:1 36:1 37:0.74167299 38:0.65854198 39:0.47466201 40:0.75343001 41:0 42:0 43:0 44:0 45:0 46:0.137931 #docid = GX225-76-16220036 inc = 1 prob = 0.0899728
-0.089999999999999997 1:0.120773 2:0 3:0 4:0 5:0.120579 6:0 7:0 8:0 9:0 10:0 11:0.118283 12:0 13:0 14:0 15:0.117913 16:0.058169998 17:0.076922998 18:0 19:0.58333302 20:0.058109 21:0.93427098 22:0.73372602 23:0.97440398 24:0.64362699 25:0 26:0 27:0 28:0 29:0 30:0 31:0 32:0 33:0 34:0 35:0 36:0 37:0.929214 38:0.72048903 39:0.96578002 40:0.70489103 41:0.57142901 42:0.59459502 43:0 44:0.006327 45:0.001412 46:0 #docid = GX229-64-9094797 inc = 0.118377129485949 prob = 0.833345
0.089999999999999997 1:0.00161 2:0 3:0 4:0 5:0.001608 6:0 7:0 8:0 9:0 10:0 11:0.001939 12:0 13:0 14:0 15:0.001726 16:0.002204 17:0 18:0.153846 19:0.66666698 20:0.002204 21:0.69784302 22:0.59879601 23:0.425776 24:0.64783001 25:0 26:0 27:0 28:0 29:0 30:0 31:0 32:0 33:0 34:0 35:0 36:0 37:0.67739302 38:0.556696 39:0.398395 40:0.682105 41:0.71428603 42:0.55405402 43:0 44:0 45:0 46:0 #docid = GX245-54-11123986 inc = 0.0255843896427272 prob = 0.0160527
0.060000000000000005 1:0.238325 2:0 3:0 4:0 5:0.237942 6:0 7:0 8:0 9:0 10:0 11:0.231638 12:0 13:0 14:0 15:0.231112 16:0.47423699 17:0.23076899 18:0 19:0.41666701 20:0.474204 21:0.59321201 22:0.46967 23:0.78360498 24:0.436838 25:0 26:0 27:0 28:0 29:0 30:0 31:0 32:0 33:0 34:0 35:0 36:0 37:0.59548801 38:0.46213299 39:0.76936102 40:0.47655699 41:0.42857099 42:0.39189199 43:0 44:0.010559 45:0.0028250001 46:0 #docid = GX250-29-2518118 inc = 0.0216422811225112 prob = 0.120511
0.11999999999999998 1:1 2:0 3:0 4:1 5:1 6:0 7:0 8:0 9:0 10:0 11:1 12:0 13:0 14:1 15:1 16:1 17:0.23076899 18:0 19:0.41666701 20:1 21:0.848176 22:0.62347299 23:0.98157698 24:0.55496198 25:0 26:0 27:0 28:0 29:0 30:0 31:0 32:0 33:0.79153198 34:0.276519 35:0.44389901 36:0.326792 37:0.84726298 38:0.61357498 39:0.97417003 40:0.60781801 41:0.57142901 42:0.44594601 43:0 44:0.0041669998 45:0.001412 46:0 #docid = GX251-15-4320099 inc = 1 prob = 0.537598
0.01 1:0.0095600002 2:0.5 3:1 4:0.5 5:0.010547 6:0 7:0 8:0 9:0 10:0 11:0.006844 12:0.31884599 13:1 14:0.57200199 15:0.013093 16:0.000239 17:0.142857 18:0.125 19:0 20:0.00016700001 21:1 22:1 23:1 24:1 25:0.67426199 26:0 27:0 28:0 29:1 30:1 31:1 32:1 33:1 34:0.072062999 35:0.001982 36:0.028935 37:1 38:1 39:1 40:1 41:0.2 42:0 43:0 44:0.077258997 45:0.2 46:1 #docid = GX000-39-15289946 inc = 1 prob = 0.594175
-0.01 1:0.018164 2:1 3:0 4:1 5:0.019175 6:0 7:0 8:0 9:0 10:0 11:0.041846 12:1 13:0 14:1 15:0.047789 16:0.0025810001 17:0.71428603 18:0.208333 19:1 20:0.003083 21:0.489813 22:0.33309799 23:0.47161099 24:0.192012 25:1 26:1 27:1 28:1 29:0 30:0 31:0 32:0 33:0.89739102 34:1 35:1 36:1 37:0.42202601 38:0.303606 39:0.43504399 40:0.17661899 41:0.80000001 42:1 43:0 44:0.107772 45:0.1 46:0 #docid = GX147-69-11012926 inc = 0.00389318960315293 prob = 0.0881806
-0.02 1:0.104693 2:0.166667 3:0.166667 4:1 5:0.099265002 6:0 7:0 8:0 9:0 10:0 11:0.269793 12:0.195654 13:0.190357 14:1 15:0.296143 16:0.0043600001 17:0.096153997 18:0.076922998 19:0 20:0.0033869999 21:0.51738298 22:0.55172497 23:0.640935 24:0.28364801 25:0.39484599 26:0 27:0 28:0 29:0.60309303 30:0 31:0 32:0 33:1 34:0 35:0 36:0 37:0.528552 38:0.549932 39:0.645024 40:0.28257799 41:0.25 42:0 43:0 44:0.025150999 45:0.227273 46:0.52381003 #docid = GX001-57-10486467 inc = 0.00701490994864011 prob = 0.0826056
0.01 1:0 2:0 3:1 4:0 5:0.0036760001 6:0 7:0 8:0 9:0 10:0 11:0.051151998 12:0 13:1 14:0 15:0.083035 16:0 17:0 18:1 19:0.142857 20:0 21:0.77738798 22:0.82997 23:0.75138497 24:0.60845202 25:0 26:0 27:0 28:0 29:0.48461699 30:0.804941 31:1 32:0.85877502 33:0 34:0 35:0 36:0 37:0.78631198 38:0.821859 39:0.78859597 40:0.61351401 41:0 42:0.029851001 43:0 44:0.019537 45:0.045455001 46:0.66666698 #docid = GX003-22-6637647 inc = 1 prob = 0.100507
0.01 1:0.46209401 2:1 3:0.5 4:0 5:0.48529401 6:0 7:0 8:0 9:0 10:0 11:0.94718599 12:1 13:0.49317199 14:0 15:1 16:0.055365998 17:1 18:0.179487 19:0.42857099 20:0.056090001 21:0.808384 22:0.78328699 23:0.94193 24:0.74873197 25:0.27193999 26:0.054715998 27:0.939762 28:0.71551597 29:1 30:1 31:0.48186901 32:1 33:0 34:0 35:0 36:0 37:0.83485198 38:0.80044699 39:0.966856 40:0.76499999 41:0.5 42:0.179104 43:0 44:1 45:1 46:0.35714301 #docid = GX005-21-3275422 inc = 1 prob = 0.442791
-0.01 1:0.036100999 2:0 3:0 4:0 5:0.018382 6:0 7:0 8:0 9:0 10:0 11:0 12:0 13:0 14:0 15:0 16:0.180427 17:0 18:0.025641 19:0.285714 20:0.17946801 21:0 22:0 23:0 24:0 25:0 26:0 27:0 28:0 29:0 30:0 31:0 32:0 33:0 34:0 35:0 36:0 37:0 38:0 39:0 40:0 41:0 42:0.179104 43:0 44:0 45:0 46:0 #docid = GX229-20-5050470 inc = 0.00385199859204427 prob = 0.209714
0.01 1:0.119134 2:0 3:0 4:0 5:0.102941 6:0 7:0 8:0 9:0 10:0 11:0.21488801 12:0 13:0 14:0 15:0.202667 16:0.018323001 17:0.019231001 18:0.102564 19:1 20:0.017486 21:1 22:1 23:1 24:1 25:0 26:0 27:0 28:0 29:0 30:0 31:0 32:0 33:0 34:0 35:0 36:0 37:1 38:1 39:1 40:1 41:0.75 42:0.68656701 43:0 44:0.069604002 45:0.36363599 46:0.26190501 #docid = GX255-48-2055358 inc = 1 prob = 0.558102
-0.040000000000000001 1:0.13880099 2:0 3:0 4:0 5:0.137931 6:0 7:0 8:0 9:0 10:0 11:0.11534 12:0 13:0 14:0 15:0.1144 16:0.106019 17:0.25 18:0.77777803 19:0.33333299 20:0.105281 21:0.81693298 22:0.782812 23:0.85050601 24:0.79095203 25:0 26:0 27:0 28:0 29:0 30:0 31:0 32:0 33:0 34:0 35:0 36:0 37:0.81408399 38:0.76769 39:0.83249801 40:0.77820498 41:0 42:0 43:0 44:0.031445 45:0.466667 46:0.125 #docid = GX000-11-7751005 inc = 1 prob = 0.558649
-0.029999999999999999 1:0 2:0 3:0 4:0 5:0 6:0 7:0 8:0 9:0 10:0 11:0 12:0 13:0 14:0 15:0 16:0.085395001 17:0 18:0 19:0 20:0.083765998 21:0.330663 22:0.45302799 23:0.46667299 24:0.50658202 25:0 26:0 27:0 28:0 29:0 30:0 31:0 32:0 33:0 34:0 35:0 36:0 37:0.335311 38:0.43953201 39:0.449965 40:0.49524799 41:0 42:0.12766001 43:0 44:0.035641 45:0.26666701 46:0.375 #docid = GX000-44-5527765 inc = 1 prob = 0.0689177
0.02 1:0.072554998 2:0.66666698 3:1 4:0 5:0.084638998 6:0 7:0 8:0 9:0 10:0 11:0.066935003 12:0.611817 13:1 14:0 15:0.078677997 16:0.01685 17:0.375 18:0.33333299 19:0 20:0.015782 21:0.94103801 22:0.91850603 23:0.83871102 24:0.92162198 25:0.79141498 26:0.91906798 27:0.85720801 28:0.940512 29:0.93156803 30:1 31:1 32:1 33:0 34:0 35:0 36:0 37:0.950692 38:0.92266703 39:0.84805399 40:0.92615497 41:0 42:0.085106 43:0 44:0 45:0 46:0.1875 #docid = GX021-92-4384142 inc = 0.0165986542709038 prob = 0.883511
-0.029999999999999999 1:0.078864001 2:0.33333299 3:0 4:0.5 5:0.084638998 6:0 7:0 8:0 9:0 10:0 11:0.027000999 12:0.223635 13:0 14:0.407188 15:0.030151 16:0.014423 17:0.0625 18:0.111111 19:1 20:0.013287 21:0 22:0 23:0 24:0 25:0.60451299 26:0 27:0 28:0 29:0 30:0 31:0 32:0 33:0.34683001 34:0 35:0 36:0 37:0 38:0 39:0 40:0 41:1 42:1 43:0 44:0.10026 45:0 46:0 #docid = GX046-92-14795690 inc = 1 prob = 0.0132286
-0.02 1:0.031546 2:0 3:0 4:0 5:0.031348001 6:0 7:0 8:0 9:0 10:0 11:0.031109 12:0 13:0 14:0 15:0.030825 16:0.002359 17:0.3125 18:1 19:0.83333302 20:0.001956 21:0.91930199 22:0.90704501 23:0.73983598 24:0.91668099 25:0 26:0 27:0 28:0 29:0 30:0 31:0 32:0 33:0 34:0 35:0 36:0 37:0.90571898 38:0.878654 39:0.72050798 40:0.89145303 41:0.5 42:0.44680899 43:0 44:0.15826 45:0.133333 46:0.125 #docid = GX047-34-6035269 inc = 0.0106778575363031 prob = 0.574667
0.029999999999999999 1:1 2:0 3:0.5 4:0.5 5:1 6:0 7:0 8:0 9:0 10:0 11:1 12:0 13:0.67644101 14:0.592812 15:1 16:1 17:0.8125 18:0 19:0.33333299 20:1 21:0.82310802 22:0.74590302 23:0.93599498 24:0.75218099 25:0 26:0 27:0 28:0 29:1 30:0 31:0 32:0 33:0.59281099 34:0.37125501 35:0.65274698 36:0.26616001 37:0.82466698 38:0.73379898 39:0.92021698 40:0.74226499 41:0 42:0.12766001 43:0 44:0.012861 45:0.066666998 46:1 #docid = GX236-03-10194106 inc = 0.0210381295576281 prob = 0.638924
0.040000000000000001 1:0.056782 2:1 3:1 4:0 5:0.072099999 6:0 7:0 8:0 9:0 10:0 11:0.055996001 12:1 13:1 14:0 15:0.072414003 16:0 17:1 18:0.77777803 19:0.33333299 20:0 21:0.98076802 22:1 23:0.82505 24:1 25:0.59338498 26:0.88371903 27:1 28:0.844962 29:0.62390202 30:0.61147201 31:0.99193799 32:0.78960103 33:0 34:0 35:0 36:0 37:0.98766297 38:1 39:0.84446698 40:1 41:0.25 42:0.29787201 43:0 44:1 45:1 46:0 #docid = GX244-70-15324710 inc = 1 prob = 0.951999
0.029999999999999999 1:0.19873799 2:0.66666698 3:1 4:1 5:0.21630099 6:0 7:0 8:0 9:0 10:0 11:0.18829399 12:0.611817 13:1 14:1 15:0.20511 16:0.038754001 17:0.25 18:0.66666698 19:0.33333299 20:0.037904002 21:1 22:0.988895 23:1 24:0.98351997 25:1 26:1 27:0.85763001 28:1 29:0.68005198 30:0.68620598 31:0.99395198 32:0.83012998 33:1 34:1 35:1 36:1 37:1 38:0.98638701 39:1 40:0.982449 41:0 42:0.44680899 43:0 44:0.001758 45:0.066666998 46:0.125 #docid = GX252-64-15491683 inc = 0.0544143698869272 prob = 0.983919
-0.029999999999999999 1:0.022051999 2:0 3:0 4:0 5:0.022051999 6:0 7:0 8:0 9:0 10:0 11:0.34528801 12:0 13:0 14:0 15:0.34285 16:0.037781999 17:0.210526 18:0.117647 19:0 20:0.037703998 21:0.33381599 22:0.32636601 23:0.46309799 24:0.25751299 25:0 26:0 27:0 28:0 29:0 30:0 31:0 32:0 33:0 34:0 35:0 36:0 37:0.334894 38:0.32008401 39:0.45637101 40:0.255867 41:0 42:0.085713997 43:0 44:1 45:0.002291 46:1 #docid = GX000-12-12356259 inc = 1 prob = 0.0897452
-0.02 1:0.037392002 2:0 3:0 4:0 5:0.037392002 6:0 7:0 8:0 9:0 10:0 11:0.35218301 12:0 13:0 14:0 15:0.34961501 16:0.023669999 17:0.26315799 18:0.17647099 19:0.133333 20:0.023732999 21:0.53276801 22:0.625799 23:0.627922 24:0.67724901 25:0 26:0 27:0 28:0 29:0 30:0 31:0 32:0 33:0 34:0 35:0 36:0 37:0.53164399 38:0.61981797 39:0.62290901 40:0.67290598 41:0.40000001 42:0.142857 43:0 44:0.82115698 45:1 46:0.115183 #docid = GX000-21-3305676 inc = 1 prob = 0.0897452
-0.01 1:0.0095880004 2:0 3:0 4:0 5:0.0095880004 6:0 7:0 8:0 9:0 10:0 11:0.31888101 12:0 13:0 14:0 15:0.31683999 16:0.0080390004 17:0.052632 18:0 19:0.33333299 20:0.0079690004 21:0.22313599 22:0.19007599 23:0.25509799 24:0.122489 25:0 26:0 27:0 28:0 29:0 30:0 31:0 32:0 33:0 34:0 35:0 36:0 37:0.220448 38:0.186564 39:0.250597 40:0.120806 41:0.40000001 42:0.36190501 43:0 44:4e-006 45:0.00013499999 46:0 #docid = GX001-42-16521101 inc = 0.0363288982991963 prob = 0.021023
-0.060000000000000005 1:0.081496 2:0 3:0.66666698 4:1 5:0.084371999 6:0 7:0 8:0 9:0 10:0 11:0.35190001 12:0 13:0.84712601 14:1 15:0.35773399 16:0.084120996 17:0.157895 18:0.29411799 19:0.066666998 20:0.084135003 21:0.48598 22:0.446109 23:0.53821999 24:0.468739 25:0 26:0 27:0 28:0 29:0.67074299 30:0.90524501 31:0.99351799 32:0.88309997 33:1 34:1 35:1 36:1 37:0.52192301 38:0.454501 39:0.54498702 40:0.47825 41:0.2 42:0.21904799 43:0 44:0.0074519999 45:0.001348 46:0.104712 #docid = GX003-08-7006780 inc = 0.00486932847452763 prob = 0.0897452
0.050000000000000003 1:0.027804 2:0 3:0 4:0 5:0.027804 6:0 7:0 8:0 9:0 10:0 11:0.352368 12:0 13:0 14:0 15:0.349767 16:0.010765 17:0.31578901 18:0.41176501 19:0.33333299 20:0.011108 21:0.80638802 22:0.78443903 23:0.67736501 24:0.72708303 25:0 26:0 27:0 28:0 29:0 30:0 31:0 32:0 33:0 34:0 35:0 36:0 37:0.79521799 38:0.764498 39:0.670277 40:0.714149 41:1 42:0.48571399 43:0 44:6.1999999e-005 45:0.00053899997 46:0 #docid = GX003-58-5141436 inc = 0.0520848842099496 prob = 0.198457
-0.060000000000000005 1:0.058485001 2:0 3:0.33333299 4:1 5:0.060403001 6:0 7:0 8:0 9:0 10:0 11:0.470267 12:0 13:0.418006 14:1 15:0.47166401 16:0.021600001 17:0.157895 18:0.17647099 19:0.133333 20:0.021593999 21:0.82077003 22:0.63425398 23:0.68575698 24:0.54620999 25:0 26:0 27:0 28:0 29:0.42405301 30:0.42186001 31:0.47938201 32:0.35444599 33:0.95451301 34:0.95510101 35:0.99821401 36:0.95510697 37:0.81726497 38:0.62715501 39:0.68085301 40:0.54368699 41:0.2 42:0.27619001 43:0 44:0.002476 45:0.00013499999 46:0.052356001 #docid = GX003-72-6013231 inc = 0.0751548295702115 prob = 0.308342
-0.029999999999999999 1:0.069990002 2:0.60000002 3:0.33333299 4:0 5:0.073826 6:0 7:0 8:0 9:0 10:0 11:0.368494 12:0.67711401 13:0.418006 14:0 15:0.377388 16:0.089642003 17:0.94736803 18:0.29411799 19:0.133333 20:0.090207003 21:0.28715 22:0.085676998 23:0.27777299 24:0.13580699 25:0.25431299 26:0.056395002 27:0.53387201 28:0.26223901 29:0.330971 30:0.395448 31:0.478293 32:0.33265501 33:0 34:0 35:0 36:0 37:0.297515 38:0.085744001 39:0.27722001 40:0.141059 41:0.40000001 42:0.17142899 43:0 44:0.00046700001 45:0.001348 46:0.099476002 #docid = GX009-61-11348129 inc = 1 prob = 0.0721325
0.040000000000000001 1:0.0086289998 2:0.40000001 3:0.66666698 4:1 5:0.013423 6:0 7:0 8:0 9:0 10:0 11:0.33594999 12:0.43056399 13:0.84712601 14:0.729074 15:0.34611601 16:0.0062799999 17:0.31578901 18:0.117647 19:0.133333 20:0.0063470001 21:0.73446399 22:0.66712898 23:0.578511 24:0.49589401 25:0.452647 26:0.75699002 27:0.78153402 28:0.65316302 29:1 30:1 31:0.99515098 32:0.96127498 33:0.69590998 34:0 35:0 36:0 37:0.81231999 38:0.70577198 39:0.61519599 40:0.52571702 41:0.40000001 42:0.29523799 43:0 44:0.001136 45:0.00053899997 46:0.020942001 #docid = GX018-75-10633740 inc = 0.0204223902525837 prob = 0.0972959
0.050000000000000003 1:0.030680999 2:0 3:0.33333299 4:1 5:0.032598 6:0 7:0 8:0 9:0 10:0 11:0.35942101 12:0 13:0.418006 14:1 15:0.36259401 16:0.010144 17:0.052632 18:0.235294 19:0.133333 20:0.010107 21:0.90703797 22:0.87862498 23:0.78854901 24:0.84148699 25:0 26:0 27:0 28:0 29:0.37177399 30:0.40698501 31:0.47883701 32:0.34217399 33:0.95451301 34:0.95510101 35:0.99821401 36:0.95510697 37:0.91148198 38:0.87387902 39:0.79010999 40:0.83907098 41:0.2 42:0.2 43:0 44:0.0013220001 45:0.001887 46:0.083769999 #docid = GX025-60-9219618 inc = 1 prob = 0.287449
-0.01 1:0.57142901 2:0 3:0 4:0 5:0.57142901 6:0 7:0 8:0 9:0 10:0 11:0.33703601 12:0 13:0 14:0 15:0.333166 16:0.54447597 17:0 18:0.941176 19:0.60000002 20:0.54493099 21:0.331705 22:0.287191 23:0.33456299 24:0.39054599 25:0 26:0 27:0 28:0 29:0 30:0 31:0 32:0 33:0 34:0 35:0 36:0 37:0.33631 38:0.28649399 39:0.33377001 40:0.393143 41:0.60000002 42:0.69523799 43:0 44:4.6000001e-005 45:0.00013499999 46:0.052356001 #docid = GX031-37-4833560 inc = 0.00396267360784039 prob = 0.0878766
-0.060000000000000005 1:0.046021 2:0 3:1 4:0 5:0.048896998 6:0 7:0 8:0 9:0 10:0 11:0.359209 12:0 13:1 14:0 15:0.36156499 16:0.019322 17:0.157895 18:0.88235301 19:0 20:0.019663 21:0.77025402 22:0.699871 23:0.689834 24:0.68278801 25:0 26:0 27:0 28:0 29:0.37748599 30:0.89646202 31:1 32:1 33:0 34:0 35:0 36:0 37:0.77830797 38:0.695104 39:0.69119197 40:0.68293798 41:0 42:0.085713997 43:0 44:8e-006 45:0.00013499999 46:0 #docid = GX041-96-11846497 inc = 1 prob = 0.362893
0.040000000000000001 1:0.047938999 2:0 3:0 4:0 5:0.047938999 6:0 7:0 8:0 9:0 10:0 11:0.33208099 12:0 13:0 14:0 15:0.32976899 16:0.030053001 17:0.052632 18:0.235294 19:0.2 20:0.030045999 21:0.287729 22:0.26608899 23:0.32650101 24:0.229077 25:0 26:0 27:0 28:0 29:0 30:0 31:0 32:0 33:0 34:0 35:0 36:0 37:0.28748801 38:0.26319301 39:0.323039 40:0.23032001 41:0.40000001 42:0.20952401 43:0 44:0.000367 45:0.00013499999 46:0 #docid = GX060-21-0142503 inc = 1 prob = 0.0186463
-0.029999999999999999 1:0.01534 2:0 3:0.66666698 4:0 5:0.017258 6:0 7:0 8:0 9:0 10:0 11:0.34442401 12:0 13:0.84712601 14:0 15:0.34757599 16:0.0053480002 17:0 18:0.29411799 19:0.133333 20:0.0053119999 21:0.75338501 22:0.70497 23:0.60686499 24:0.60506701 25:0 26:0 27:0 28:0 29:0.67074299 30:0.90524501 31:0.99351799 32:0.88309997 33:0 34:0 35:0 36:0 37:0.76787698 38:0.706568 39:0.61336797 40:0.605196 41:0.2 42:0.047619 43:0 44:0 45:0 46:0.010471 #docid = GX066-18-5382563 inc = 0.0426828523322869 prob = 0.181614
-0.01 1:0.38446799 2:0 3:0 4:0 5:0.38446799 6:0 7:0 8:0 9:0 10:0 11:0.51185 12:0 13:0 14:0 15:0.50617301 16:0.199193 17:0.42105299 18:0.52941197 19:0.466667 20:0.199696 21:0.45628899 22:0.61160398 23:0.647811 24:0.63270301 25:0 26:0 27:0 28:0 29:0 30:0 31:0 32:0 33:0 34:0 35:0 36:0 37:0.45923999 38:0.60824901 39:0.64450902 40:0.63189602 41:0.60000002 42:0.62857097 43:0 44:0.00013099999 45:0.00013499999 46:0.068062998 #docid = GX133-76-3809795 inc = 0.0316347442270753 prob = 0.134727
0.029999999999999999 1:0.052733 2:0.80000001 3:0.33333299 4:0 5:0.057526 6:0 7:0 8:0 9:0 10:0 11:0.424925 12:0.86112797 13:0.418006 14:0 15:0.43531701 16:0.013595 17:1 18:0.29411799 19:0.133333 20:0.014212 21:1 22:0.91508001 23:0.802715 24:0.81292599 25:0.33349201 26:0.61294699 27:0.91007102 28:0.62195998 29:0.330971 30:0.395448 31:0.478293 32:0.33265501 33:0 34:0 35:0 36:0 37:0.99913102 38:0.899921 39:0.80441499 40:0.80740798 41:0.2 42:0.085713997 43:0 44:0.00068400003 45:0.042998001 46:0.094241001 #docid = GX151-10-9761635 inc = 1 prob = 0.630793
0.058722408480094176 1:0.52444899 2:0.40000001 3:0.66666698 4:1 5:0.52924299 6:0 7:0 8:0 9:0 10:0 11:1 12:0.43056399 13:0.84712601 14:1 15:1 16:0.28586701 17:0.210526 18:0.235294 19:0.066666998 20:0.285833 21:0.93021703 22:1 23:1 24:1 25:0.59005302 26:0.79529399 27:0.78252 28:0.680695 29:0.753434 30:0.92831999 31:0.99406201 32:0.90213799 33:1 34:1 35:1 36:1 37:0.93533802 38:1 39:1 40:1 41:0.2 42:0.047619 43:0 44:0.00014400001 45:0.00013499999 46:0.089005001 #docid = GX225-75-12296992 inc = 1 prob = 0.894297
0.01 1:0.046980001 2:0 3:0 4:0 5:0.046980001 6:0 7:0 8:0 9:0 10:0 11:0.42667201 12:0 13:0 14:0 15:0.42285201 16:0.016493 17:0.105263 18:0.235294 19:0 20:0.016419999 21:0.81062299 22:0.64309603 23:0.68234998 24:0.574853 25:0 26:0 27:0 28:0 29:0 30:0 31:0 32:0 33:0 34:0 35:0 36:0 37:0.80563402 38:0.632101 39:0.67588103 40:0.57027799 41:0.2 42:0 43:0 44:0.0049299998 45:0.0051219999 46:0.078534 #docid = GX226-47-8445097 inc = 1 prob = 0.389292
0.029999999999999999 1:0.052733 2:0.80000001 3:0.33333299 4:0 5:0.057526 6:0 7:0 8:0 9:0 10:0 11:0.424925 12:0.86112797 13:0.418006 14:0 15:0.43531701 16:0.013629 17:0.78947401 18:0.29411799 19:0.066666998 20:0.014074 21:0.99975801 22:0.91361302 23:0.80259001 24:0.81252599 25:0.40255901 26:0.61589402 27:0.91203099 28:0.63801098 29:0.330971 30:0.395448 31:0.478293 32:0.33265501 33:0 34:0 35:0 36:0 37:1 38:0.90205997 39:0.80491197 40:0.80888897 41:0.2 42:0.047619 43:0 44:0.00030499999 45:0.00026999999 46:0.094241001 #docid = GX227-22-5346017 inc = 1 prob = 0.737929
0.080000000000000002 1:0.050815001 2:1 3:0.66666698 4:0 5:0.057526 6:0 7:0 8:0 9:0 10:0 11:0.39853501 12:1 13:0.84712601 14:0 15:0.41323501 16:0.021910001 17:0.26315799 18:0.35294101 19:0.2 20:0.022112001 21:0.82067603 22:0.74994999 23:0.70168698 24:0.66658503 25:1 26:1 27:1 28:1 29:0.60440803 30:0.886392 31:0.99297398 32:0.86754602 33:0 34:0 35:0 36:0 37:0.86006701 38:0.76887703 39:0.72029299 40:0.68365401 41:0.2 42:0.228571 43:0 44:0.00017699999 45:0.00026999999 46:0.104712 #docid = GX231-44-3880112 inc = 1 prob = 0.708363
-0.018722408480094176 1:1 2:0 3:0 4:0 5:1 6:0 7:0 8:0 9:0 10:0 11:0 12:0 13:0 14:0 15:0 16:1 17:0.57894701 18:0 19:0.26666701 20:1 21:0.113637 22:0 23:0 24:0.14189 25:0 26:0 27:0 28:0 29:0 30:0 31:0 32:0 33:0 34:0 35:0 36:0 37:0.116883 38:0 39:0 40:0.146369 41:0.60000002 42:0.180952 43:0 44:0.005229 45:0.0010779999 46:0 #docid = GX233-00-12888560 inc = 0.0204223902525837 prob = 0.041014
-0.040000000000000001 1:0.94822598 2:0 3:0 4:0 5:0.94822598 6:0 7:0 8:0 9:0 10:0 11:0.36203101 12:0 13:0 14:0 15:0.35698 16:0.92132998 17:0 18:0 19:1 20:0.92134899 21:0.33394399 22:0.46625301 23:0.54110098 24:0.591398 25:0 26:0 27:0 28:0 29:0 30:0 31:0 32:0 33:0 34:0 35:0 36:0 37:0.339187 38:0.46534699 39:0.540573 40:0.592879 41:0.80000001 42:1 43:0 44:0 45:0 46:0 #docid = GX234-81-8002008 inc = 0.0114347898135111 prob = 0.101774
-0.01 1:0 2:0 3:0 4:0 5:0 6:0 7:0 8:0 9:0 10:0 11:0.316502 12:0 13:0 14:0 15:0.314522 16:0 17:0.105263 18:0.117647 19:0.26666701 20:0 21:0 22:0 23:0 24:0 25:0 26:0 27:0 28:0 29:0 30:0 31:0 32:0 33:0 34:0 35:0 36:0 37:0 38:0 39:0 40:0 41:0.40000001 42:0.29523799 43:0 44:9.0000003e-006 45:0.00013499999 46:0 #docid = GX255-00-12753389 inc = 1 prob = 0.0823706
-0.01 1:0.13904899 2:0.80000001 3:1 4:0 5:0.14047 6:0 7:0 8:0 9:0 10:0 11:0.448064 12:1 13:1 14:0 15:0.45379701 16:0.088417999 17:0.341463 18:0.70833302 19:0.125 20:0.088918 21:0.320544 22:0.64146298 23:0.69180399 24:0.64159101 25:0.34502101 26:0.65354401 27:0.54241198 28:0.56669402 29:0.45928401 30:0.64507699 31:0.371555 32:0.91520101 33:0 34:0 35:0 36:0 37:0.32181299 38:0.64346099 39:0.69142699 40:0.65416199 41:0.125 42:0.17073201 43:0 44:0.022089001 45:0.024390001 46:0.083968997 #docid = GX027-07-0520922 inc = 0.101765199296507 prob = 0.119726
0.01 1:0.228168 2:0 3:0 4:0 5:0.22801401 6:0 7:0 8:0 9:0 10:0 11:0.42301601 12:0 13:0 14:0 15:0.427149 16:0.188774 17:0.024390001 18:0.125 19:0.5 20:0.18889301 21:0.64218003 22:0.92251301 23:0.97063798 24:0.87675798 25:0 26:0 27:0 28:0 29:0 30:0 31:0 32:0 33:0 34:0 35:0 36:0 37:0.64825201 38:0.92452502 39:0.97056001 40:0.885436 41:0.375 42:0.91463399 43:0 44:0.028921001 45:0.0060979999 46:0.0076339999 #docid = GX246-06-3851371 inc = 1 prob = 0.266366
-0.02 1:0.038017999 2:0 3:0 4:0.5 5:0.037930999 6:0 7:0 8:0 9:0 10:0 11:0.055082999 12:0 13:0 14:0.5 15:0.054694001 16:0.012564 17:0.77777803 18:1 19:0 20:0.012757 21:1 22:1 23:0.84690797 24:1 25:0 26:0 27:0 28:0 29:0 30:0 31:0 32:0 33:0.88893002 34:0.99509197 35:0.014481 36:1 37:1 38:1 39:0.847094 40:1 41:0 42:0 43:0 44:0.36973399 45:1 46:1 #docid = GX002-20-2186640 inc = 0.0520700091790288 prob = 0.972701
0.01 1:0.032258 2:0 3:0 4:0 5:0.031034 6:0 7:0 8:0 9:0 10:0 11:0.036563002 12:0 13:0 14:0 15:0.034306001 16:0.0094600003 17:0.33333299 18:0.75 19:1 20:0.0097270003 21:0.85340703 22:0.91916299 23:0.75513399 24:0.97234797 25:0 26:0 27:0 28:0 29:0 30:0 31:0 32:0 33:0 34:0 35:0 36:0 37:0.85057902 38:0.91163099 39:0.75062501 40:0.965581 41:1 42:1 43:0 44:1 45:0.058823999 46:0.039999999 #docid = GX017-67-8808318 inc = 1 prob = 0.546346
-0.01 1:0.019585 2:0 3:0 4:0.5 5:0.019540001 6:0 7:0 8:0 9:0 10:0 11:0.024941999 12:0 13:0 14:0.5 15:0.024886999 16:0.011562 17:0 18:0 19:0.375 20:0.011559 21:0.70805001 22:0.69365603 23:0.569821 24:0.67530298 25:0 26:0 27:0 28:0 29:0 30:0 31:0 32:0 33:0.77774203 34:0 35:0 36:0 37:0.72135198 38:0.700091 39:0.57593203 40:0.68060899 41:0.33333299 42:0.311111 43:0 44:0.0022160001 45:0.058823999 46:0.039999999 #docid = GX046-00-5682364 inc = 0.0077585661592496 prob = 0.154999
-0.01 1:0 2:0 3:0 4:0.5 5:0 6:0 7:0 8:0 9:0 10:0 11:0 12:0 13:0 14:0.5 15:0 16:0 17:0.111111 18:0 19:0.25 20:0 21:0.65178698 22:0.73025602 23:0.35441399 24:0.59024501 25:0 26:0 27:0 28:0 29:0 30:0 31:0 32:0 33:0.81157899 34:0.29389501 35:0.0048239999 36:0.295394 37:0.671736 38:0.70947099 39:0.37472799 40:0.57418197 41:0.66666698 42:0.42222199 43:0 44:0.0088630002 45:0.117647 46:0 #docid = GX229-49-1386495 inc = 1 prob = 0.105151
0.040000000000000001 1:1 2:1 3:0 4:1 5:1 6:0 7:0 8:0 9:0 10:0 11:1 12:1 13:0 14:1 15:1 16:1 17:0.444444 18:0 19:0.875 20:1 21:0.49001601 22:0.64504701 23:0.73746097 24:0.62073302 25:1 26:0 27:0 28:0 29:0 30:0 31:0 32:0 33:1 34:1 35:1 36:1 37:0.498366 38:0.64949298 39:0.738644 40:0.62469602 41:1 42:0.84444398 43:0 44:0.044709999 45:0.058823999 46:0 #docid = GX261-05-2600556 inc = 0.0104417580902444 prob = 0.121022
-0.01 1:0.050691001 2:0 3:0 4:0 5:0.049424998 6:0 7:0 8:0 9:0 10:0 11:0.033927001 12:0 13:0 14:0 15:0.031677999 16:0.048618 17:0.222222 18:0 19:0.5 20:0.048682 21:0.205634 22:0.31998101 23:0.33850399 24:0.32278401 25:0 26:0 27:0 28:0 29:0 30:0 31:0 32:0 33:0 34:0 35:0 36:0 37:0.21201301 38:0.322887 39:0.34026599 40:0.32548499 41:0.33333299 42:0.77777803 43:0 44:0.035519 45:0.058823999 46:0 #docid = GX271-93-7599658 inc = 1 prob = 0.0139336
-0.02 1:0.122334 2:0 3:1 4:0 5:0.122487 6:0 7:0 8:0 9:0 10:0 11:0.626109 12:0 13:1 14:0 15:0.63168401 16:0.065168999 17:0.235294 18:0.375 19:0.15000001 20:0.065334998 21:0.748034 22:0.75504303 23:0.72127402 24:0.72872502 25:0 26:0 27:0 28:0 29:1 30:1 31:1 32:1 33:0 34:0 35:0 36:0 37:0.76460099 38:0.76673299 39:0.73377401 40:0.761792 41:0.5 42:0.225225 43:0 44:0.52667999 45:0.0068970001 46:0.2 #docid = GX009-16-2717510 inc = 0.0271682968823835 prob = 0.111102
-0.01 1:0.082183003 2:0 3:0.5 4:1 5:0.082286 6:0 7:0 8:0 9:0 10:0 11:0.71400797 12:0 13:0.62783301 14:1 15:0.72079802 16:0.032963 17:0.17647099 18:0.5 19:0.15000001 20:0.033137001 21:1 22:0.98098397 23:0.82802999 24:0.97868299 25:0 26:0 27:0 28:0 29:0.55043203 30:0.38860399 31:0.83542103 32:0.29498801 33:1 34:1 35:1 36:1 37:1 38:0.975541 39:0.82612503 40:0.982337 41:0.5 42:0.13513499 43:0 44:0.010413 45:0.0034479999 46:0 #docid = GX027-72-16532159 inc = 1 prob = 0.398164
-0.02 1:0.018193001 2:0 3:1 4:0 5:0.018216001 6:0 7:0 8:0 9:0 10:0 11:0.47850001 12:0 13:1 14:0 15:0.48550901 16:0.0098369997 17:0.58823502 18:0.375 19:0.15000001 20:0.010198 21:0.62856603 22:0.63349402 23:0.47353801 24:0.51540899 25:0 26:0 27:0 28:0 29:1 30:1 31:1 32:1 33:0 34:0 35:0 36:0 37:0.64028603 38:0.63603997 39:0.491476 40:0.55601501 41:0.5 42:0.23423401 43:0 44:0.71322602 45:0.013793 46:0.25 #docid = GX042-89-1287760 inc = 0.00423543870718748 prob = 0.0909991
0.029999999999999999 1:0.33877 2:1 3:0 4:0 5:0.339196 6:0 7:0 8:0 9:0 10:0 11:1 12:1 13:0 14:0 15:1 16:0.158731 17:0.235294 18:0 19:0.15000001 20:0.158783 21:0.92826599 22:1 23:1 24:0.99320799 25:0.75575799 26:1 27:1 28:1 29:0 30:0 31:0 32:0 33:0 34:0 35:0 36:0 37:0.92928499 38:1 39:1 40:1 41:0.5 42:0.144144 43:0 44:0.028217999 45:0.0034479999 46:0 #docid = GX263-30-0097223 inc = 1 prob = 0.650802
0.02 1:0.288582 2:0.5 3:0 4:1 5:0.28894499 6:0 7:0 8:0 9:0 10:0 11:0.97860998 12:0.720676 13:0 14:1 15:0.98194098 16:0.16051701 17:0.058823999 18:0 19:0.15000001 20:0.160478 21:0.86822301 22:0.86173999 23:0.87468803 24:0.87502003 25:1 26:0.79253399 27:0.98055398 28:0.278523 29:0 30:0 31:0 32:0 33:1 34:0 35:1 36:1 37:0.86868602 38:0.86125201 39:0.87552702 40:0.88980597 41:0.25 42:0.13513499 43:0 44:0.014771 45:0.0034479999 46:0 #docid = GX264-87-0910866 inc = 1 prob = 0.581884
-0.01 1:1 2:0 3:0 4:0 5:1 6:0 7:0 8:0 9:0 10:0 11:1 12:0 13:0 14:0 15:1 16:0.131883 17:0 18:1 19:1 20:0.132267 21:0.098843999 22:0 23:0.022105999 24:0.028904 25:0 26:0 27:0 28:0 29:0 30:0 31:0 32:0 33:0 34:0 35:0 36:0 37:0.097819 38:0 39:0.013605 40:0.022491001 41:1 42:1 43:0 44:0.020249 45:0.125 46:0.54347801 #docid = GX000-20-12029802 inc = 0.00376823641122654 prob = 0.0897452
0.02 1:0.064516 2:0 3:0 4:0 5:0.064516 6:0 7:0 8:0 9:0 10:0 11:0.39284301 12:0 13:0 14:0 15:0.393536 16:0.0083400002 17:0.36363599 18:0.615385 19:0 20:0.0085319998 21:1 22:1 23:1 24:1 25:0 26:0 27:0 28:0 29:0 30:0 31:0 32:0 33:0 34:0 35:0 36:0 37:1 38:1 39:1 40:1 41:0 42:0 43:0 44:0.676691 45:0 46:0.23913001 #docid = GX008-85-1730453 inc = 1 prob = 0.262013
-0.01 1:0.150538 2:0.5 3:1 4:0 5:0.172043 6:0 7:0 8:0 9:0 10:0 11:0.095468 12:0.5 13:1 14:0 15:0.118254 16:0.031908002 17:0.63636398 18:0.69230801 19:0.166667 20:0.032237001 21:0.083920002 22:0.00031999999 23:0 24:0 25:0.47853801 26:0 27:0 28:0 29:1 30:0 31:0 32:0 33:0 34:0 35:0 36:0 37:0.086365998 38:0.0072960001 39:0 40:0 41:0.5 42:0.32352901 43:0 44:0.012473 45:0.125 46:0.26087001 #docid = GX083-18-1744399 inc = 1 prob = 0.0717021
0.02 1:0.017197 2:0 3:0 4:0 5:0.017197 6:0 7:0 8:0 9:0 10:0 11:0.021098999 12:0 13:0 14:0 15:0.017475 16:0.014391 17:0.88888901 18:0.52631599 19:0.117647 20:0.014557 21:0.67890698 22:0.64394897 23:0.52943999 24:0.74173301 25:0 26:0 27:0 28:0 29:0 30:0 31:0 32:0 33:0 34:0 35:0 36:0 37:0.61935598 38:0.62963003 39:0.52902597 40:0.72575498 41:0 42:0.086957 43:0 44:0.239079 45:0.82692301 46:0.57894701 #docid = GX000-10-0099463 inc = 1 prob = 0.154248
-0.01 1:0.067928001 2:0 3:1 4:0 5:0.069646999 6:0 7:0 8:0 9:0 10:0 11:0.032713 12:0 13:1 14:0 15:0.027146 16:0.058564998 17:0.111111 18:1 19:0.117647 20:0.058809999 21:0.17722 22:0.33227301 23:0.40912801 24:0.52255899 25:0 26:0 27:0 28:0 29:0.43433601 30:0.153331 31:1 32:0.088619001 33:0 34:0 35:0 36:0 37:0.16548 38:0.341028 39:0.41842699 40:0.52909899 41:0.5 42:0.15942 43:0 44:0.001344 45:0.019231001 46:0 #docid = GX051-42-0611066 inc = 1 prob = 0.0707149
-0.01 1:0.063629001 2:0 3:0.5 4:0 5:0.064488001 6:0 7:0 8:0 9:0 10:0 11:0.123743 12:0 13:0.399966 14:0 15:0.117805 16:0.028847 17:0.222222 18:0.157895 19:0.29411799 20:0.028695 21:0.95219302 22:1 23:1 24:1 25:0 26:0 27:0 28:0 29:0.63152897 30:0.29071301 31:0 32:0.129939 33:0 34:0 35:0 36:0 37:0.86435598 38:1 39:1 40:1 41:0.5 42:0.057971001 43:0 44:0.075723 45:0.038462002 46:0 #docid = GX092-53-0404342 inc = 1 prob = 0.901121
-0.050000000000000003 1:0.011178 2:1 3:1 4:1 5:0.016337 6:0 7:0 8:0 9:0 10:0 11:0.028322 12:1 13:0.90050399 14:1 15:0.042481001 16:0 17:0.111111 18:0.31578901 19:0.470588 20:0 21:1 22:0.93929499 23:0.61229903 24:0.738563 25:1 26:1 27:1 28:1 29:1 30:1 31:0.88674003 32:1 33:1 34:1 35:1 36:1 37:1 38:0.99934101 39:0.73812699 40:0.77966797 41:0.75 42:0.68115902 43:0 44:0.034201 45:0 46:0 #docid = GX174-79-2969816 inc = 1 prob = 0.487808
0.029999999999999999 1:0.030095 2:0 3:0 4:0 5:0.030095 6:0 7:0 8:0 9:0 10:0 11:0.063206002 12:0 13:0 14:0 15:0.058961999 16:0.014488 17:0.444444 18:0 19:1 20:0.014686 21:0.89496398 22:0.85936099 23:0.77047199 24:0.93676299 25:0 26:0 27:0 28:0 29:0 30:0 31:0 32:0 33:0 34:0 35:0 36:0 37:0.80783898 38:0.84152597 39:0.76480699 40:0.91838902 41:0.75 42:1 43:0 44:0.00074699998 45:0 46:0 #docid = GX204-75-11857377 inc = 0.0697632415740369 prob = 0.773226
0.02 1:0.062769003 2:0 3:0.5 4:0 5:0.063629001 6:0 7:0 8:0 9:0 10:0 11:0.124279 12:0 13:0.399966 14:0 15:0.118361 16:0.028782999 17:0.222222 18:0.157895 19:0.29411799 20:0.02863 21:0.95550501 22:0.99294102 23:0.996741 24:0.99217999 25:0 26:0 27:0 28:0 29:0.63152897 30:0.29071301 31:0 32:0.129939 33:0 34:0 35:0 36:0 37:0.86740202 38:0.99290299 39:0.99667102 40:0.992172 41:0.5 42:0.057971001 43:0 44:0.00049000001 45:0.019231001 46:0 #docid = GX212-68-15754718 inc = 0.0697632415740369 prob = 0.902
-0.02 1:1 2:0 3:0 4:0 5:1 6:0 7:0 8:0 9:0 10:0 11:1 12:0 13:0 14:0 15:1 16:1 17:0 18:0 19:0.29411799 20:1 21:0.558079 22:0.38235801 23:0.551274 24:0.451832 25:0 26:0 27:0 28:0 29:0 30:0 31:0 32:0 33:0 34:0 35:0 36:0 37:0.53999603 38:0.391433 39:0.55715102 40:0.45972601 41:0.75 42:0.27536201 43:0 44:0 45:0 46:0 #docid = GX230-62-8533382 inc = 1 prob = 0.164281
0.01 1:0.300946 2:0 3:0 4:1 5:0.30266601 6:0 7:0 8:0 9:0 10:0 11:0.076884001 12:0 13:0 14:0.21519101 15:0.062532 16:0.183924 17:0.222222 18:0.157895 19:0.17647099 20:0.18375801 21:0.56919497 22:0.65726399 23:0.85486698 24:0.68575197 25:0 26:0 27:0 28:0 29:0 30:0 31:0 32:0 33:0.34369799 34:0 35:0 36:0 37:0.53233099 38:0.66913599 39:0.86445397 40:0.69577199 41:0 42:0.057971001 43:0 44:0.0081820004 45:0 46:0 #docid = GX246-06-16181720 inc = 1 prob = 0.802977
-0.02 1:0 2:1 3:0 4:1 5:0.0034390001 6:0 7:0 8:0 9:0 10:0 11:0 12:1 13:0 14:0.21519101 15:0.0054279999 16:0.0010329999 17:0.222222 18:0.157895 19:0.117647 20:0.00077500002 21:0.51650399 22:0.38942799 23:0.178205 24:0.31334999 25:0.82105899 26:0 27:0 28:0 29:0 30:0 31:0 32:0 33:0.35865101 34:0.030706 35:0.00063299999 36:0.065527 37:0.65112901 38:0.64342201 39:0.35785201 40:0.43798399 41:0 42:0 43:0 44:1 45:1 46:1 #docid = GX246-55-0736139 inc = 0.00900146745035508 prob = 0.111907
0.029999999999999999 1:0.023216 2:0 3:0 4:1 5:0.024936 6:0 7:0 8:0 9:0 10:0 11:0.027078001 12:0 13:0 14:0.21519101 15:0.023398999 16:0.0088740001 17:1 18:0 19:0.117647 20:0.0087470002 21:0.70204002 22:0.79460299 23:0.59401399 24:0.76284897 25:0 26:0 27:0 28:0 29:0 30:0 31:0 32:0 33:0.35865101 34:0.030706 35:0.00063299999 36:0.065527 37:0.63773501 38:0.82671303 39:0.61687899 40:0.78283 41:0.25 42:0.14492799 43:0 44:0.061579999 45:0 46:0 #docid = GX267-64-5667315 inc = 0.0103274736942464 prob = 0.24352
-0.01 1:0.107252 2:0 3:0 4:0 5:0.106339 6:0 7:0 8:0 9:0 10:0 11:0 12:0 13:0 14:0 15:0 16:0.34034401 17:0.071428999 18:0.42857099 19:0.166667 20:0.33970901 21:0.40456301 22:0.47599 23:0.44406199 24:0.52539003 25:0 26:0 27:0 28:0 29:0 30:0 31:0 32:0 33:0 34:0 35:0 36:0 37:0.40911499 38:0.47517401 39:0.44375801 40:0.524836 41:0.33333299 42:0 43:0 44:0.228185 45:1 46:1 #docid = GX003-43-6963458 inc = 0.00125520575124683 prob = 0.0897452
0.029999999999999999 1:0 2:1 3:1 4:0 5:0.0030670001 6:0 7:0 8:0 9:0 10:0 11:0.018921001 12:1 13:1 14:0 15:0.017278001 16:0 17:1 18:1 19:0.5 20:0.002168 21:0.82668602 22:0.73863202 23:0.49546799 24:0.65638399 25:1 26:0 27:0 28:0 29:1 30:0 31:0 32:0 33:0 34:0 35:0 36:0 37:0.80347002 38:0.71580702 39:0.489934 40:0.63887399 41:1 42:0.30303001 43:0 44:0.023530001 45:1 46:0 #docid = GX003-69-12558407 inc = 0.0108869126197423 prob = 0.227466
-0.01 1:0.493361 2:0 3:0 4:0 5:0.492843 6:0 7:0 8:0 9:0 10:0 11:0.29912201 12:0 13:0 14:0 15:0.29883099 16:0.77909499 17:0 18:0.42857099 19:0.33333299 20:0.77862799 21:0.75587201 22:0.80988997 23:0.76900899 24:0.81636101 25:0 26:0 27:0 28:0 29:0 30:0 31:0 32:0 33:0 34:0 35:0 36:0 37:0.75882602 38:0.81032401 39:0.76979399 40:0.816818 41:0.66666698 42:0.30303001 43:0 44:0 45:0 46:0.086957 #docid = GX052-38-4078433 inc = 0.0202004651333256 prob = 0.823601
0.01 1:1 2:0 3:0 4:0 5:1 6:0 7:0 8:0 9:0 10:0 11:1 12:0 13:0 14:0 15:1 16:1 17:0.35714301 18:0 19:1 20:1 21:1 22:1 23:1 24:1 25:0 26:0 27:0 28:0 29:0 30:0 31:0 32:0 33:0 34:0 35:0 36:0 37:1 38:1 39:1 40:1 41:0.66666698 42:1 43:0 44:0.27271801 45:0.5 46:0 #docid = GX232-43-6158156 inc = 1 prob = 0.974477
-0.02 1:0.078652002 2:0 3:0 4:0 5:0.077710003 6:0 7:0 8:0 9:0 10:0 11:0.0071840002 12:0 13:0 14:0 15:0.0074959998 16:0.41007 17:0.85714298 18:0 19:0 20:0.40997201 21:0 22:0 23:0 24:0 25:0 26:0 27:0 28:0 29:0 30:0 31:0 32:0 33:0 34:0 35:0 36:0 37:0 38:0 39:0 40:0 41:0 42:0.136364 43:0 44:0.222958 45:0.5 46:0 #docid = GX255-30-4478761 inc = 1 prob = 0.0553548
-0.040000000000000001 1:0 2:0 3:0 4:0 5:0 6:0 7:0 8:0 9:0 10:0 11:0 12:0 13:0 14:0 15:0 16:0.0037209999 17:0 18:0.166667 19:0 20:0.003484 21:0 22:0 23:0 24:0 25:0 26:0 27:0 28:0 29:0 30:0 31:0 32:0 33:0 34:0 35:0 36:0 37:0 38:0 39:0 40:0 41:0 42:0 43:0 44:0 45:0 46:0.13953499 #docid = GX000-00-14857490 inc = 1 prob = 0.0897452
0.01 1:0.384505 2:1 3:0.66666698 4:0.5 5:0.39398301 6:0 7:0 8:0 9:0 10:0 11:0.50794899 12:1 13:0.785739 14:0.84633601 15:0.53220898 16:0.09945 17:0.38888901 18:0.222222 19:0.40000001 20:0.0995 21:1 22:0.87792498 23:1 24:0.86513102 25:0.91315299 26:1 27:1 28:0.97502202 29:0.87671697 30:0.94341201 31:0.97905201 32:0.95592803 33:0.80783898 34:0.82371098 35:0.99241602 36:0.65776801 37:0.99766803 38:0.86375999 39:1 40:0.859433 41:0.33333299 42:0.32835799 43:0 44:0.52984703 45:0.25 46:0.46511599 #docid = GX000-05-9058226 inc = 1 prob = 0.933056
0.14999999999999999 1:0.0071740001 2:1 3:0.33333299 4:0 5:0.014327 6:0 7:0 8:0 9:0 10:0 11:0.001317 12:0.61067897 13:0.214261 14:0 15:0.001762 16:0.0093379999 17:1 18:0.38888901 19:0.89999998 20:0.0098360004 21:0.022778001 22:0.071335003 23:0.037117999 24:0.075657003 25:0.244872 26:0.025993001 27:0.041536 28:0.029728999 29:0.174523 30:0 31:0 32:0 33:0 34:0 35:0 36:0 37:0.018766999 38:0.113268 39:0.069918998 40:0.116797 41:0.66666698 42:0.70149302 43:0 44:1 45:1 46:1 #docid = GX005-82-8625041 inc = 1 prob = 0.0944942
0.01 1:0.302726 2:0 3:0 4:0 5:0.30229199 6:0 7:0 8:0 9:0 10:0 11:0.172212 12:0 13:0 14:0 15:0.16246 16:0.27903399 17:0.111111 18:0.111111 19:0.80000001 20:0.279017 21:0.58767098 22:0.60224903 23:0.690359 24:0.61992002 25:0 26:0 27:0 28:0 29:0 30:0 31:0 32:0 33:0 34:0 35:0 36:0 37:0.58971602 38:0.59066302 39:0.68553603 40:0.61456299 41:0.66666698 42:0.59701502 43:0 44:0.016838999 45:0.0092590004 46:0 #docid = GX011-93-2275298 inc = 1 prob = 0.325199
-0.029999999999999999 1:0.048780002 2:0 3:0.33333299 4:0 5:0.050143 6:0 7:0 8:0 9:0 10:0 11:0.109385 12:0 13:0.57147801 14:0 15:0.117536 16:0.027659001 17:0.055555999 18:0.38888901 19:1 20:0.027778 21:0.940862 22:0.66384 23:0.678379 24:0.67618901 25:0 26:0 27:0 28:0 29:0.465487 30:0.58313602 31:0.95393598 32:0.45118099 33:0 34:0 35:0 36:0 37:0.949736 38:0.65222502 39:0.68074602 40:0.67038101 41:1 42:0.85074598 43:0 44:0.59110802 45:0.0092590004 46:0.046512 #docid = GX018-50-4114517 inc = 1 prob = 0.0454394
-0.02 1:0.0057390002 2:0.25 3:0.66666698 4:0.5 5:0.011461 6:0 7:0 8:0 9:0 10:0 11:0.0075329999 12:0.34733 13:0.785739 14:0.15366399 15:0.015331 16:0.0011849999 17:0.222222 18:0.5 19:0.60000002 20:0.001327 21:0.793764 22:0.797791 23:0.44964701 24:0.84586 25:0.54465598 26:0.52847499 27:0.76456398 28:0.45790201 29:0.54238403 30:0.78636599 31:0.97767001 32:0.83179498 33:0.134443 34:0.036802001 35:0.000711 36:0.023466 37:0.90188801 38:0.87479103 39:0.549196 40:0.8944 41:0.66666698 42:0.49253699 43:0 44:0.39311099 45:0.0092590004 46:0.46511599 #docid = GX051-70-8287397 inc = 0.00268396190662733 prob = 0.0897252
-0.01 1:0.014347 2:0 3:0 4:0 5:0.014327 6:0 7:0 8:0 9:0 10:0 11:0.015593 12:0 13:0 14:0 15:0.015683001 16:0.032067999 17:0.166667 18:1 19:0.5 20:0.032377001 21:0.52570403 22:0.48713499 23:0.45737901 24:0.532682 25:0 26:0 27:0 28:0 29:0 30:0 31:0 32:0 33:0 34:0 35:0 36:0 37:0.52811098 38:0.47557399 39:0.45491499 40:0.52589703 41:0.66666698 42:0.447761 43:0 44:0.023755001 45:0.0092590004 46:0.232558 #docid = GX062-16-1850941 inc = 0.00485551230966534 prob = 0.0714529
0.01 1:0.058823999 2:0 3:0.66666698 4:1 5:0.064470001 6:0 7:0 8:0 9:0 10:0 11:0.065874003 12:0 13:0.785739 14:1 15:0.074052997 16:0.008343 17:0 18:0.166667 19:0.5 20:0.0082250005 21:0.99867898 22:0.96337199 23:0.80699903 24:0.94593501 25:0 26:0 27:0 28:0 29:1 30:1 31:0.97932899 32:1 33:0.91298503 34:0.95874399 35:0.99964398 36:0.96458203 37:1 38:0.95508802 39:0.82246602 40:0.94560301 41:0.33333299 42:0.38806 43:0 44:0 45:0 46:0.32558101 #docid = GX230-21-1966084 inc = 1 prob = 0.908669
-0.01 1:0.13916799 2:0.5 3:0.33333299 4:0.5 5:0.14469901 6:0 7:0 8:0 9:0 10:0 11:0.13894001 12:0.30533901 13:0.214261 14:0.15366399 15:0.139603 16:0.054205 17:0.72222197 18:0.166667 19:1 20:0.054513998 21:0.915425 22:0.79598999 23:0.845424 24:0.79338998 25:0.182199 26:0 27:0 28:0 29:0.272688 30:0.080326997 31:0.001107 32:0.064785004 33:0.115226 34:0.0054390002 35:0 36:0 37:0.91176301 38:0.78316998 39:0.84589201 40:0.78826803 41:0.66666698 42:1 43:0 44:0.71043402 45:0.018518999 46:0.046512 #docid = GX230-21-5210930 inc = 0.0291163726269306 prob = 0.55828
0.029999999999999999 1:0.014347 2:0 3:0.66666698 4:1 5:0.020057 6:0 7:0 8:0 9:0 10:0 11:0.018832 12:0 13:0.785739 14:1 15:0.026829001 16:0.001209 17:0 18:0.555556 19:0.30000001 20:0.001209 21:0.94694197 22:0.97432798 23:0.58721799 24:0.97144598 25:0 26:0 27:0 28:0 29:0.50394797 30:0.76633698 31:0.97739398 32:0.81568301 33:1 34:1 35:1 36:1 37:0.97214001 38:0.98409998 39:0.64078999 40:0.98191297 41:0.5 42:0.164179 43:0 44:0 45:0 46:0.27906999 #docid = GX230-37-3526402 inc = 0.0157592226681781 prob = 0.153797
-0.02 1:0.011478 2:0 3:1 4:0.5 5:0.017192001 6:0 7:0 8:0 9:0 10:0 11:0.015066 12:0 13:1 14:0.15366399 15:0.019516001 16:0.00054500002 17:0 18:0.5 19:0.60000002 20:0.00059299998 21:0.93204099 22:1 23:0.55472797 24:1 25:0 26:0 27:0 28:0 29:0.639139 30:0.92513603 31:1 32:0.88473701 33:0.134443 34:0.036802001 35:0.000711 36:0.023466 37:0.94696498 38:1 39:0.60485399 40:1 41:0.5 42:0.47761199 43:0 44:0 45:0 46:0 #docid = GX233-45-14829294 inc = 0.0176116109173682 prob = 0.158339
0.01 1:0.002869 2:0.5 3:0.33333299 4:0.5 5:0.0085960003 6:0 7:0 8:0 9:0 10:0 11:0.0070059998 12:0.5 13:0.57147801 14:0.15366399 15:0.014978 16:0 17:0.166667 18:0.166667 19:0.69999999 20:0 21:0.81853902 22:0.77890199 23:0.42695299 24:0.89462 25:0.924362 26:0.88285798 27:0.79137301 28:1 29:0.72731203 30:0.66826701 31:0.95504302 32:0.51615101 33:0.129062 34:0.030135 35:0.00053299998 36:0.016806999 37:0.926844 38:0.94452399 39:0.533692 40:0.96559697 41:0.5 42:0.62686598 43:0 44:0.354103 45:0.0092590004 46:0.023256 #docid = GX245-21-6950310 inc = 1 prob = 0.0146213
-0.01 1:0.024390001 2:0 3:0.33333299 4:0.5 5:0.027221 6:0 7:0 8:0 9:0 10:0 11:0.0077180001 12:0 13:0.214261 14:0.15366399 15:0.0068270001 16:0.00099500001 17:0 18:0.111111 19:0.89999998 20:0.000948 21:0.651366 22:0.85593098 23:0.48047501 24:0.94321799 25:0 26:0 27:0 28:0 29:0.317307 30:0.11983 31:0.0013839999 32:0.095830001 33:0.119497 34:0.018807 35:0.000178 36:0.0051580002 37:0.63070798 38:0.81851703 39:0.48595399 40:0.91448897 41:0.83333302 42:0.64179099 43:0 44:0 45:0 46:0.023256 #docid = GX248-04-3890109 inc = 0.0141264892672832 prob = 0.0296027
