SVM-light Version V6.20
0 # kernel type
3 # kernel parameter -d 
1 # kernel parameter -g 
1 # kernel parameter -s 
1 # kernel parameter -r 
empty# kernel parameter -u 
46 # highest feature index 
18 # number of training documents 
2 # number of support vectors plus 1 
0 # threshold b, each following line is a SV (starting with alpha*y)
1 1:0.0086161699 2:0.029394647 3:0.33512482 4:0.33449307 8:0.28949848 9:0.026636716 10:0.13879971 11:0.22472478 12:0.19270046 13:0.01771413 14:0.067894757 15:0.074205197 16:-0.061512657 17:-0.008460925 18:-0.065274686 19:-0.060247857 23:-0.023702092 24:-0.0010534923 25:-0.2493673 26:0.1441676 27:-0.092306256 28:0.10244832 29:0.064382873 30:0.097202808 31:-0.035837073 32:0.0854536 33:-0.083349332 34:-0.093520388 38:-0.053733785 39:0.038488474 40:-0.1151238 41:0.2400022 42:0.065529957 43:0.27276599 44:0.14298233 45:0.20428433 #
