SVM-light Version V6.20
0 # kernel type
3 # kernel parameter -d 
1 # kernel parameter -g 
1 # kernel parameter -s 
1 # kernel parameter -r 
empty# kernel parameter -u 
46 # highest feature index 
2 # number of training documents 
2 # number of support vectors plus 1 
0 # threshold b, each following line is a SV (starting with alpha*y)
1 1:0.0043738703 2:0.0047737011 3:0.0043093846 4:0.004503224 8:0.0049183173 9:0.0045011612 10:0.0055596852 11:0.0054733637 12:0.0060220785 13:0.0055073267 14:0.0054079634 15:0.0054165339 16:0.0014413332 17:0.0017815211 18:0.0019349878 19:0.0019599821 23:0.0021261887 24:0.0016211758 25:0.0021794129 26:0.0024109553 27:0.0015081097 28:0.0023942434 29:0.0024021557 30:0.0024342199 31:0.0021394787 32:0.0028666116 33:0.0024344779 34:0.002542977 38:0.0027872541 39:0.0022968596 40:0.0034206558 41:0.0042878324 42:0.0034399105 43:0.0041424199 44:0.004001407 45:0.0042051375 #
