SVM-light Version V6.20
0 # kernel type
3 # kernel parameter -d 
1 # kernel parameter -g 
1 # kernel parameter -s 
1 # kernel parameter -r 
empty# kernel parameter -u 
46 # highest feature index 
15 # number of training documents 
2 # number of support vectors plus 1 
0 # threshold b, each following line is a SV (starting with alpha*y)
1 1:-0.029533241 2:0.033044498 3:0.23418637 4:0.23621222 8:0.20884162 9:-0.017718095 10:0.15692836 11:0.16843469 12:0.19127011 13:0.1766759 14:0.19692108 15:0.18686098 16:-0.038258225 17:-0.0070505142 18:0.011623349 19:0.016044391 23:0.087612234 24:0.090372756 25:-0.05660354 26:0.12769122 27:-0.16061275 28:0.046270721 29:0.052144136 30:0.055167791 31:-0.0065977904 32:0.1100235 33:0.072446622 34:0.058857929 38:0.017926499 39:0.13025181 40:-0.12943117 41:0.26465684 42:-0.0329968 43:0.21848918 44:0.12290318 45:0.18917944 #
