SVM-light Version V6.20
0 # kernel type
3 # kernel parameter -d 
1 # kernel parameter -g 
1 # kernel parameter -s 
1 # kernel parameter -r 
empty# kernel parameter -u 
47 # highest feature index 
16 # number of training documents 
2 # number of support vectors plus 1 
0 # threshold b, each following line is a SV (starting with alpha*y)
1 1:-0.0049051768 2:0.026801916 3:0.01670236 4:0.02888469 5:-0.011981673 11:0.052045729 12:0.028583165 13:0.037999198 14:0.041668065 15:0.045609713 16:0.17592129 17:0.12867855 18:-0.16330953 19:-0.21272807 20:0.1735016 21:0.19337152 22:0.078148827 23:0.80488217 24:0.14264748 25:0.11496967 26:0.095903233 27:0.036171701 28:0.058283579 29:0.015947348 30:0.03057339 31:0.023543196 32:0.015988601 33:0.050723396 34:0.043849859 35:0.046486061 36:0.039527986 37:0.14854401 38:0.091560788 39:0.74670178 40:0.18860207 41:-0.12907176 42:-0.10898461 43:-0.18676123 44:-0.075002 45:-0.20564979 #
