SVM-light Version V6.20
0 # kernel type
3 # kernel parameter -d 
1 # kernel parameter -g 
1 # kernel parameter -s 
1 # kernel parameter -r 
empty# kernel parameter -u 
46 # highest feature index 
65 # number of training documents 
2 # number of support vectors plus 1 
0 # threshold b, each following line is a SV (starting with alpha*y)
1 1:-0.74483037 2:0.15404828 3:0.11797252 4:1.0971169 8:-0.1209371 9:0.033299252 10:-0.68648839 11:1.2762327 12:0.41064012 13:-0.11058754 14:0.50632811 15:-0.41958675 16:0.0026254598 17:-0.7880367 18:-0.50907284 19:-0.053991318 23:0.83382285 24:0.31324843 25:-1.3907576 26:2.8079331 27:-0.97723359 28:-1.0161105 29:0.12776805 30:0.10549154 31:-1.6285502 32:-0.20210268 33:1.0009211 34:-0.30361512 38:-1.4659451 39:1.4302145 40:-0.44864798 41:1.9529999 42:-0.21790567 43:1.8757864 44:-1.7192625 45:0.43823066 #
