SVM-light Version V6.20
0 # kernel type
3 # kernel parameter -d 
1 # kernel parameter -g 
1 # kernel parameter -s 
1 # kernel parameter -r 
empty# kernel parameter -u 
47 # highest feature index 
28 # number of training documents 
2 # number of support vectors plus 1 
0 # threshold b, each following line is a SV (starting with alpha*y)
1 1:-0.13083404 2:0.057150666 3:0.2648164 4:-0.39712644 5:-0.13852774 11:0.07813485 12:0.15879902 13:0.2573711 14:-0.09481027 15:0.052668352 16:0.2492189 17:-0.022035429 18:-0.41663232 19:-0.27406776 20:0.24736694 21:0.23062108 22:0.02129069 23:1.2705754 24:0.13850912 25:0.020327955 26:0.064527914 27:0.012407391 28:0.12635444 29:0.17358162 30:0.06830661 31:-0.22161008 32:0.26852694 33:0.068025865 34:0.019622007 35:0.38442603 36:-0.063175336 37:0.21462007 38:0.14049517 39:1.1302093 40:0.24294265 41:-0.19758056 42:-0.32927644 44:0.018675242 45:-0.047436923 46:-0.1260736 #
