SVM-light Version V6.20
0 # kernel type
3 # kernel parameter -d 
1 # kernel parameter -g 
1 # kernel parameter -s 
1 # kernel parameter -r 
empty# kernel parameter -u 
47 # highest feature index 
10 # number of training documents 
2 # number of support vectors plus 1 
0 # threshold b, each following line is a SV (starting with alpha*y)
1 1:0.061684892 2:0.051019464 3:0.086109318 4:-0.11542198 5:0.061251849 11:0.091770262 12:0.04958877 13:0.075631134 14:-0.030211143 15:0.089858279 16:0.096879445 17:-0.0031858387 18:-0.161346 19:-0.17861952 20:0.096496217 21:0.19667146 22:0.2187015 23:0.54652929 24:0.27316278 25:0.10451363 26:0.12308691 27:0.049468238 28:0.12734997 29:0.11973 30:0.093873285 31:0.051267028 32:0.11607642 33:0.018434387 34:0.051186983 35:0.11739679 36:0.019837551 37:0.18478769 38:0.23451103 39:0.51362514 40:0.28099805 41:-0.11488044 42:-0.14998536 44:-0.045585789 45:-0.068850912 46:-0.095440038 #
