SVM-light Version V6.20
0 # kernel type
3 # kernel parameter -d 
1 # kernel parameter -g 
1 # kernel parameter -s 
1 # kernel parameter -r 
empty# kernel parameter -u 
47 # highest feature index 
75 # number of training documents 
2 # number of support vectors plus 1 
0 # threshold b, each following line is a SV (starting with alpha*y)
1 1:-0.46460834 2:-0.57668895 3:-0.23669773 4:-1.3452628 5:-0.80604124 11:1.0582198 12:1.0337871 13:1.2508936 14:0.42714298 15:-0.97876519 16:0.59164464 17:-0.10314161 18:-0.58397251 19:-0.060565464 20:0.49614361 21:0.085940555 22:-1.5606028 23:3.9766312 24:-0.72536248 25:-0.017048892 26:-0.13884436 27:-0.09871459 28:0.30614719 29:0.28973383 30:-1.0614898 31:-0.8269636 32:1.6134957 33:0.7523396 34:-1.1044866 35:0.95596039 36:-0.00074417668 37:0.54184973 38:0.91923559 39:-0.0091245817 40:0.69529063 41:-0.24587151 42:-0.68196893 44:-0.0073443688 45:-0.083587728 46:-0.25525433 #
