SVM-light Version V6.20
0 # kernel type
3 # kernel parameter -d 
1 # kernel parameter -g 
1 # kernel parameter -s 
1 # kernel parameter -r 
empty# kernel parameter -u 
47 # highest feature index 
50 # number of training documents 
2 # number of support vectors plus 1 
0 # threshold b, each following line is a SV (starting with alpha*y)
1 1:-0.29882172 2:-0.021510331 3:0.20053981 4:-0.13289738 5:-0.44831225 11:0.0088383211 12:0.12483027 13:0.23409198 14:0.030797206 15:-0.18429977 16:0.41524908 17:0.12376637 18:-0.44187775 19:-0.36539939 20:0.39708298 21:0.25086477 22:-0.29504278 23:1.4858088 24:0.13985391 25:-0.032985616 26:0.014961238 27:0.17829774 28:-0.032054346 29:-0.11063111 30:0.019438663 31:-0.01847033 32:0.089414828 33:0.39522427 34:-0.019200556 35:-0.11951662 36:-0.059800938 37:0.17020862 38:-0.23078895 39:1.192178 40:0.25568682 41:-0.22699305 42:-0.20580631 43:-0.13306089 44:0.12674513 45:-0.27784792 46:-0.024654832 #
