SVM-light Version V6.20
0 # kernel type
3 # kernel parameter -d 
1 # kernel parameter -g 
1 # kernel parameter -s 
1 # kernel parameter -r 
empty# kernel parameter -u 
47 # highest feature index 
83 # number of training documents 
2 # number of support vectors plus 1 
0 # threshold b, each following line is a SV (starting with alpha*y)
1 1:0.249366 2:-0.58515638 3:0.1903543 4:-0.44006205 5:-1.501363 11:1.9655225 12:0.79648376 13:0.55730718 14:-0.0806721 15:-2.060823 16:1.0354081 17:0.17088605 18:-0.5725916 19:-0.3491959 20:0.047384005 21:-0.1064344 22:-0.92411125 23:2.6779518 24:-0.024895452 25:-0.0059151649 26:0.091172993 27:0.24828185 28:-0.13357407 29:-0.25362641 30:-0.098980986 31:-0.14922416 32:0.27227104 33:1.0851322 34:-0.059008781 35:-0.28430712 36:-0.099987365 37:0.53417689 38:-0.62685031 39:0.54795003 40:1.0847098 41:-0.18818551 42:-0.21971887 43:-0.21554624 44:0.078806683 45:-0.28464597 46:-1.0795941 #
