SVM-light Version V6.20
0 # kernel type
3 # kernel parameter -d 
1 # kernel parameter -g 
1 # kernel parameter -s 
1 # kernel parameter -r 
empty# kernel parameter -u 
47 # highest feature index 
61 # number of training documents 
2 # number of support vectors plus 1 
0 # threshold b, each following line is a SV (starting with alpha*y)
1 1:-0.50603378 2:0.12202699 3:0.063855067 4:-0.68367249 5:-0.55152881 11:-0.044623163 12:-0.03056941 13:0.52687293 14:-0.28139824 15:-0.14713544 16:0.61362642 17:-0.20372798 18:-0.60375172 19:-0.43776006 20:0.61666292 21:0.01092978 22:-0.29094481 23:2.0061371 24:-0.15759523 25:0.28361845 26:-0.4204576 27:0.06161632 28:0.4201957 29:0.26186833 30:-0.27580905 31:-0.21477862 32:0.41493258 33:0.45156205 34:-0.16471808 35:0.62316048 36:-0.078444324 37:0.5574941 38:0.19118001 39:1.6347132 40:0.12945704 41:-0.14805359 42:-0.51396453 44:0.068547226 45:0.020593509 46:-0.14428523 #
