SVM-light Version V6.20
0 # kernel type
3 # kernel parameter -d 
1 # kernel parameter -g 
1 # kernel parameter -s 
1 # kernel parameter -r 
empty# kernel parameter -u 
47 # highest feature index 
2 # number of training documents 
2 # number of support vectors plus 1 
0 # threshold b, each following line is a SV (starting with alpha*y)
1 1:0.00010806989 2:5.1180334e-005 3:3.4347733e-005 4:4.65597e-005 5:0.00010709277 11:0.00012414191 12:5.2376956e-005 13:3.9882056e-005 14:4.9399372e-005 15:0.00012320308 16:6.6559995e-005 17:3.8312952e-005 18:-2.1286385e-005 19:-4.7519225e-005 20:6.616296e-005 21:0.00025196464 22:0.00027814618 23:0.00042049313 24:0.00028657031 25:9.2933209e-005 26:9.1933718e-005 27:7.3514973e-005 28:8.2215469e-005 29:4.1976495e-005 30:5.6135985e-005 31:5.2688247e-005 32:5.7500649e-005 33:5.5896158e-005 34:4.2376614e-005 35:4.6089219e-005 36:4.2374104e-005 37:0.00023782009 38:0.00027783614 39:0.00041385242 40:0.00029491136 41:-1.4147156e-005 42:-3.7349027e-006 43:-4.1592284e-006 44:-1.8320632e-005 45:-3.6830152e-005 46:-2.4582104e-007 #
