SVM-light Version V6.20
0 # kernel type
3 # kernel parameter -d 
1 # kernel parameter -g 
1 # kernel parameter -s 
1 # kernel parameter -r 
empty# kernel parameter -u 
47 # highest feature index 
2 # number of training documents 
2 # number of support vectors plus 1 
0 # threshold b, each following line is a SV (starting with alpha*y)
1 1:0.0010806989 2:0.00051180332 3:0.00034347735 4:0.000465597 5:0.0010709277 11:0.0012414191 12:0.00052376959 13:0.00039882056 14:0.00049399369 15:0.0012320308 16:0.00066559995 17:0.00038312949 18:-0.00021286384 19:-0.00047519227 20:0.0006616296 21:0.0025196462 22:0.0027814619 23:0.0042049312 24:0.0028657031 25:0.00092933205 26:0.00091933715 27:0.00073514972 28:0.00082215469 29:0.00041976495 30:0.00056135986 31:0.00052688248 32:0.00057500647 33:0.00055896159 34:0.00042376615 35:0.00046089219 36:0.00042374106 37:0.0023782009 38:0.0027783613 39:0.0041385242 40:0.0029491137 41:-0.00014147157 42:-3.7349026e-005 43:-4.1592284e-005 44:-0.00018320631 45:-0.00036830152 46:-2.4582105e-006 #
