## LambdaMART
## No. of trees = 151
## No. of leaves = 10
## No. of threshold candidates = 256
## Learning rate = 0.1
## Stop early = 100

<ensemble>
	<tree id="1" weight="0.1">
		<split>
			<feature> 42 </feature>
			<threshold> 0.921875 </threshold>
			<split pos="left">
				<feature> 2 </feature>
				<threshold> 0.278943 </threshold>
				<split pos="left">
					<feature> 41 </feature>
					<threshold> 0.6796875 </threshold>
					<split pos="left">
						<feature> 9 </feature>
						<threshold> 0.1875 </threshold>
						<split pos="left">
							<feature> 33 </feature>
							<threshold> 0.125 </threshold>
							<split pos="left">
								<feature> 27 </feature>
								<threshold> 0.9140625 </threshold>
								<split pos="left">
									<output> -0.920236 </output>
								</split>
								<split pos="right">
									<output> -2.0 </output>
								</split>
							</split>
							<split pos="right">
								<output> -0.2846798 </output>
							</split>
						</split>
						<split pos="right">
							<output> -1.0130421 </output>
						</split>
					</split>
					<split pos="right">
						<output> 0.5868572 </output>
					</split>
				</split>
				<split pos="right">
					<feature> 10 </feature>
					<threshold> 0.5859375 </threshold>
					<split pos="left">
						<output> -0.10789483 </output>
					</split>
					<split pos="right">
						<output> 0.60754627 </output>
					</split>
				</split>
			</split>
			<split pos="right">
				<feature> 9 </feature>
				<threshold> 0.94921875 </threshold>
				<split pos="left">
					<feature> 11 </feature>
					<threshold> 0.77734375 </threshold>
					<split pos="left">
						<output> 1.0664834 </output>
					</split>
					<split pos="right">
						<output> 1.6542954 </output>
					</split>
				</split>
				<split pos="right">
					<output> 0.49729648 </output>
				</split>
			</split>
		</split>
	</tree>
	<tree id="2" weight="0.1">
		<split>
			<feature> 42 </feature>
			<threshold> 0.921875 </threshold>
			<split pos="left">
				<feature> 2 </feature>
				<threshold> 0.278943 </threshold>
				<split pos="left">
					<feature> 41 </feature>
					<threshold> 0.6796875 </threshold>
					<split pos="left">
						<feature> 9 </feature>
						<threshold> 0.1875 </threshold>
						<split pos="left">
							<feature> 33 </feature>
							<threshold> 0.125 </threshold>
							<split pos="left">
								<feature> 27 </feature>
								<threshold> 0.9140625 </threshold>
								<split pos="left">
									<output> -0.892445 </output>
								</split>
								<split pos="right">
									<output> -1.7993697 </output>
								</split>
							</split>
							<split pos="right">
								<output> -0.35021475 </output>
							</split>
						</split>
						<split pos="right">
							<output> -0.9862627 </output>
						</split>
					</split>
					<split pos="right">
						<output> 0.2754276 </output>
					</split>
				</split>
				<split pos="right">
					<feature> 10 </feature>
					<threshold> 0.5859375 </threshold>
					<split pos="left">
						<output> -0.08458681 </output>
					</split>
					<split pos="right">
						<output> 0.6555648 </output>
					</split>
				</split>
			</split>
			<split pos="right">
				<feature> 9 </feature>
				<threshold> 0.94921875 </threshold>
				<split pos="left">
					<feature> 11 </feature>
					<threshold> 0.77734375 </threshold>
					<split pos="left">
						<output> 0.92921835 </output>
					</split>
					<split pos="right">
						<output> 1.4597323 </output>
					</split>
				</split>
				<split pos="right">
					<output> 0.2564593 </output>
				</split>
			</split>
		</split>
	</tree>
	<tree id="3" weight="0.1">
		<split>
			<feature> 42 </feature>
			<threshold> 0.921875 </threshold>
			<split pos="left">
				<feature> 8 </feature>
				<threshold> 0.4609375 </threshold>
				<split pos="left">
					<feature> 2 </feature>
					<threshold> 0.278943 </threshold>
					<split pos="left">
						<feature> 9 </feature>
						<threshold> 0.1875 </threshold>
						<split pos="left">
							<feature> 33 </feature>
							<threshold> 0.125 </threshold>
							<split pos="left">
								<feature> 42 </feature>
								<threshold> 0.875 </threshold>
								<split pos="left">
									<output> -0.78468597 </output>
								</split>
								<split pos="right">
									<output> 0.7136621 </output>
								</split>
							</split>
							<split pos="right">
								<output> -0.20983867 </output>
							</split>
						</split>
						<split pos="right">
							<output> -0.7977623 </output>
						</split>
					</split>
					<split pos="right">
						<feature> 2 </feature>
						<threshold> 0.333333 </threshold>
						<split pos="left">
							<output> 0.46398348 </output>
						</split>
						<split pos="right">
							<output> -0.37236694 </output>
						</split>
					</split>
				</split>
				<split pos="right">
					<output> 0.5894623 </output>
				</split>
			</split>
			<split pos="right">
				<feature> 9 </feature>
				<threshold> 0.94921875 </threshold>
				<split pos="left">
					<feature> 11 </feature>
					<threshold> 0.77734375 </threshold>
					<split pos="left">
						<output> 0.81016874 </output>
					</split>
					<split pos="right">
						<output> 1.3139973 </output>
					</split>
				</split>
				<split pos="right">
					<output> 0.2140591 </output>
				</split>
			</split>
		</split>
	</tree>
	<tree id="4" weight="0.1">
		<split>
			<feature> 42 </feature>
			<threshold> 0.921875 </threshold>
			<split pos="left">
				<feature> 8 </feature>
				<threshold> 0.4609375 </threshold>
				<split pos="left">
					<feature> 2 </feature>
					<threshold> 0.278943 </threshold>
					<split pos="left">
						<feature> 33 </feature>
						<threshold> 0.1640625 </threshold>
						<split pos="left">
							<feature> 9 </feature>
							<threshold> 0.1875 </threshold>
							<split pos="left">
								<feature> 25 </feature>
								<threshold> 0.640625 </threshold>
								<split pos="left">
									<feature> 42 </feature>
									<threshold> 0.6875 </threshold>
									<split pos="left">
										<output> -0.6236152 </output>
									</split>
									<split pos="right">
										<output> -0.8543584 </output>
									</split>
								</split>
								<split pos="right">
									<output> 0.24988298 </output>
								</split>
							</split>
							<split pos="right">
								<output> -0.8464119 </output>
							</split>
						</split>
						<split pos="right">
							<output> -0.20177548 </output>
						</split>
					</split>
					<split pos="right">
						<feature> 2 </feature>
						<threshold> 0.333333 </threshold>
						<split pos="left">
							<output> 0.5164322 </output>
						</split>
						<split pos="right">
							<output> -0.4523446 </output>
						</split>
					</split>
				</split>
				<split pos="right">
					<output> 0.55005074 </output>
				</split>
			</split>
			<split pos="right">
				<feature> 15 </feature>
				<threshold> 0.5 </threshold>
				<split pos="left">
					<output> 0.40886635 </output>
				</split>
				<split pos="right">
					<output> 1.0167656 </output>
				</split>
			</split>
		</split>
	</tree>
	<tree id="5" weight="0.1">
		<split>
			<feature> 42 </feature>
			<threshold> 0.921875 </threshold>
			<split pos="left">
				<feature> 8 </feature>
				<threshold> 0.4609375 </threshold>
				<split pos="left">
					<feature> 2 </feature>
					<threshold> 0.278943 </threshold>
					<split pos="left">
						<feature> 33 </feature>
						<threshold> 0.1640625 </threshold>
						<split pos="left">
							<feature> 9 </feature>
							<threshold> 0.1875 </threshold>
							<split pos="left">
								<feature> 25 </feature>
								<threshold> 0.640625 </threshold>
								<split pos="left">
									<feature> 42 </feature>
									<threshold> 0.6875 </threshold>
									<split pos="left">
										<output> -0.5523223 </output>
									</split>
									<split pos="right">
										<output> -0.7631162 </output>
									</split>
								</split>
								<split pos="right">
									<output> 0.25839004 </output>
								</split>
							</split>
							<split pos="right">
								<output> -0.73366183 </output>
							</split>
						</split>
						<split pos="right">
							<output> -0.12722228 </output>
						</split>
					</split>
					<split pos="right">
						<feature> 2 </feature>
						<threshold> 0.333333 </threshold>
						<split pos="left">
							<output> 0.48246962 </output>
						</split>
						<split pos="right">
							<output> -0.42488402 </output>
						</split>
					</split>
				</split>
				<split pos="right">
					<output> 0.47688854 </output>
				</split>
			</split>
			<split pos="right">
				<feature> 15 </feature>
				<threshold> 0.5 </threshold>
				<split pos="left">
					<output> 0.2902087 </output>
				</split>
				<split pos="right">
					<output> 0.9174508 </output>
				</split>
			</split>
		</split>
	</tree>
	<tree id="6" weight="0.1">
		<split>
			<feature> 42 </feature>
			<threshold> 0.921875 </threshold>
			<split pos="left">
				<feature> 8 </feature>
				<threshold> 0.4609375 </threshold>
				<split pos="left">
					<feature> 2 </feature>
					<threshold> 0.278943 </threshold>
					<split pos="left">
						<feature> 33 </feature>
						<threshold> 0.1640625 </threshold>
						<split pos="left">
							<feature> 9 </feature>
							<threshold> 0.1875 </threshold>
							<split pos="left">
								<feature> 29 </feature>
								<threshold> 0.29296875 </threshold>
								<split pos="left">
									<output> -0.44218665 </output>
								</split>
								<split pos="right">
									<output> -0.6404081 </output>
								</split>
							</split>
							<split pos="right">
								<output> -0.65889955 </output>
							</split>
						</split>
						<split pos="right">
							<output> -0.07986198 </output>
						</split>
					</split>
					<split pos="right">
						<feature> 2 </feature>
						<threshold> 0.333333 </threshold>
						<split pos="left">
							<output> 0.43279815 </output>
						</split>
						<split pos="right">
							<output> -0.3718675 </output>
						</split>
					</split>
				</split>
				<split pos="right">
					<output> 0.41115528 </output>
				</split>
			</split>
			<split pos="right">
				<feature> 15 </feature>
				<threshold> 0.5 </threshold>
				<split pos="left">
					<output> 0.23626629 </output>
				</split>
				<split pos="right">
					<feature> 9 </feature>
					<threshold> 0.94921875 </threshold>
					<split pos="left">
						<output> 0.8709152 </output>
					</split>
					<split pos="right">
						<output> 0.16926944 </output>
					</split>
				</split>
			</split>
		</split>
	</tree>
	<tree id="7" weight="0.1">
		<split>
			<feature> 15 </feature>
			<threshold> 0.52734375 </threshold>
			<split pos="left">
				<feature> 2 </feature>
				<threshold> 0.278943 </threshold>
				<split pos="left">
					<feature> 30 </feature>
					<threshold> 0.90625 </threshold>
					<split pos="left">
						<feature> 33 </feature>
						<threshold> 0.125 </threshold>
						<split pos="left">
							<feature> 29 </feature>
							<threshold> 0.29296875 </threshold>
							<split pos="left">
								<output> -0.3818407 </output>
							</split>
							<split pos="right">
								<output> -0.6617741 </output>
							</split>
						</split>
						<split pos="right">
							<output> -0.17816672 </output>
						</split>
					</split>
					<split pos="right">
						<output> 0.9258168 </output>
					</split>
				</split>
				<split pos="right">
					<feature> 2 </feature>
					<threshold> 0.333333 </threshold>
					<split pos="left">
						<output> 0.49227506 </output>
					</split>
					<split pos="right">
						<feature> 40 </feature>
						<threshold> 0.3046875 </threshold>
						<split pos="left">
							<output> -0.5914804 </output>
						</split>
						<split pos="right">
							<output> -0.024864975 </output>
						</split>
					</split>
				</split>
			</split>
			<split pos="right">
				<feature> 43 </feature>
				<threshold> 0.75 </threshold>
				<split pos="left">
					<output> 0.31957084 </output>
				</split>
				<split pos="right">
					<feature> 9 </feature>
					<threshold> 0.94921875 </threshold>
					<split pos="left">
						<output> 0.84042794 </output>
					</split>
					<split pos="right">
						<output> 0.0942784 </output>
					</split>
				</split>
			</split>
		</split>
	</tree>
	<tree id="8" weight="0.1">
		<split>
			<feature> 2 </feature>
			<threshold> 0.648306 </threshold>
			<split pos="left">
				<feature> 2 </feature>
				<threshold> 0.64624 </threshold>
				<split pos="left">
					<feature> 2 </feature>
					<threshold> 0.278943 </threshold>
					<split pos="left">
						<feature> 30 </feature>
						<threshold> 0.90625 </threshold>
						<split pos="left">
							<feature> 33 </feature>
							<threshold> 0.125 </threshold>
							<split pos="left">
								<feature> 12 </feature>
								<threshold> 0.6796875 </threshold>
								<split pos="left">
									<feature> 9 </feature>
									<threshold> 0.1875 </threshold>
									<split pos="left">
										<output> -0.44824854 </output>
									</split>
									<split pos="right">
										<output> -0.7053721 </output>
									</split>
								</split>
								<split pos="right">
									<output> 1.6006372 </output>
								</split>
							</split>
							<split pos="right">
								<output> -0.15107954 </output>
							</split>
						</split>
						<split pos="right">
							<output> 0.85544175 </output>
						</split>
					</split>
					<split pos="right">
						<feature> 2 </feature>
						<threshold> 0.333333 </threshold>
						<split pos="left">
							<output> 0.4580119 </output>
						</split>
						<split pos="right">
							<output> -0.08438554 </output>
						</split>
					</split>
				</split>
				<split pos="right">
					<output> -1.872172 </output>
				</split>
			</split>
			<split pos="right">
				<feature> 43 </feature>
				<threshold> 0.75 </threshold>
				<split pos="left">
					<output> 0.35249564 </output>
				</split>
				<split pos="right">
					<output> 0.8156685 </output>
				</split>
			</split>
		</split>
	</tree>
	<tree id="9" weight="0.1">
		<split>
			<feature> 10 </feature>
			<threshold> 0.5859375 </threshold>
			<split pos="left">
				<feature> 13 </feature>
				<threshold> 0.66015625 </threshold>
				<split pos="left">
					<feature> 42 </feature>
					<threshold> 0.87109375 </threshold>
					<split pos="left">
						<feature> 12 </feature>
						<threshold> 0.84765625 </threshold>
						<split pos="left">
							<feature> 2 </feature>
							<threshold> 0.8 </threshold>
							<split pos="left">
								<feature> 1 </feature>
								<threshold> 0.5 </threshold>
								<split pos="left">
									<feature> 2 </feature>
									<threshold> 0.278943 </threshold>
									<split pos="left">
										<feature> 29 </feature>
										<threshold> 0.796875 </threshold>
										<split pos="left">
											<output> -0.38649318 </output>
										</split>
										<split pos="right">
											<output> -1.4046711 </output>
										</split>
									</split>
									<split pos="right">
										<output> -0.044917855 </output>
									</split>
								</split>
								<split pos="right">
									<output> -0.8535927 </output>
								</split>
							</split>
							<split pos="right">
								<output> 0.8734475 </output>
							</split>
						</split>
						<split pos="right">
							<output> -2.5725126 </output>
						</split>
					</split>
					<split pos="right">
						<output> 0.1971046 </output>
					</split>
				</split>
				<split pos="right">
					<output> 1.2854974 </output>
				</split>
			</split>
			<split pos="right">
				<feature> 45 </feature>
				<threshold> 0.80078125 </threshold>
				<split pos="left">
					<output> 0.34670973 </output>
				</split>
				<split pos="right">
					<output> 0.7536881 </output>
				</split>
			</split>
		</split>
	</tree>
	<tree id="10" weight="0.1">
		<split>
			<feature> 2 </feature>
			<threshold> 0.648306 </threshold>
			<split pos="left">
				<feature> 2 </feature>
				<threshold> 0.64624 </threshold>
				<split pos="left">
					<feature> 3 </feature>
					<threshold> 0.2578125 </threshold>
					<split pos="left">
						<feature> 26 </feature>
						<threshold> 0.890625 </threshold>
						<split pos="left">
							<feature> 2 </feature>
							<threshold> 0.278943 </threshold>
							<split pos="left">
								<feature> 33 </feature>
								<threshold> 0.125 </threshold>
								<split pos="left">
									<feature> 39 </feature>
									<threshold> 0.09765625 </threshold>
									<split pos="left">
										<output> -0.22278257 </output>
									</split>
									<split pos="right">
										<output> -0.5323704 </output>
									</split>
								</split>
								<split pos="right">
									<output> -0.124886885 </output>
								</split>
							</split>
							<split pos="right">
								<output> -0.06739449 </output>
							</split>
						</split>
						<split pos="right">
							<output> 0.5368465 </output>
						</split>
					</split>
					<split pos="right">
						<feature> 2 </feature>
						<threshold> 0.333333 </threshold>
						<split pos="left">
							<output> 0.55130833 </output>
						</split>
						<split pos="right">
							<output> 0.0042906436 </output>
						</split>
					</split>
				</split>
				<split pos="right">
					<output> -1.5714903 </output>
				</split>
			</split>
			<split pos="right">
				<feature> 45 </feature>
				<threshold> 0.80078125 </threshold>
				<split pos="left">
					<output> 0.34255806 </output>
				</split>
				<split pos="right">
					<output> 0.7844267 </output>
				</split>
			</split>
		</split>
	</tree>
	<tree id="11" weight="0.1">
		<split>
			<feature> 2 </feature>
			<threshold> 0.648306 </threshold>
			<split pos="left">
				<feature> 2 </feature>
				<threshold> 0.64624 </threshold>
				<split pos="left">
					<feature> 10 </feature>
					<threshold> 0.55078125 </threshold>
					<split pos="left">
						<feature> 13 </feature>
						<threshold> 0.61328125 </threshold>
						<split pos="left">
							<feature> 33 </feature>
							<threshold> 0.60546875 </threshold>
							<split pos="left">
								<feature> 43 </feature>
								<threshold> 0.91015625 </threshold>
								<split pos="left">
									<feature> 9 </feature>
									<threshold> 0.38671875 </threshold>
									<split pos="left">
										<feature> 2 </feature>
										<threshold> 0.278943 </threshold>
										<split pos="left">
											<feature> 19 </feature>
											<threshold> 0.90625 </threshold>
											<split pos="left">
												<output> -0.2879563 </output>
											</split>
											<split pos="right">
												<output> 1.3932008 </output>
											</split>
										</split>
										<split pos="right">
											<output> 0.10208459 </output>
										</split>
									</split>
									<split pos="right">
										<output> -0.52161217 </output>
									</split>
								</split>
								<split pos="right">
									<output> 0.6196276 </output>
								</split>
							</split>
							<split pos="right">
								<output> 0.8749564 </output>
							</split>
						</split>
						<split pos="right">
							<output> 1.7509121 </output>
						</split>
					</split>
					<split pos="right">
						<output> 0.24228178 </output>
					</split>
				</split>
				<split pos="right">
					<output> -1.4829624 </output>
				</split>
			</split>
			<split pos="right">
				<output> 0.45840266 </output>
			</split>
		</split>
	</tree>
	<tree id="12" weight="0.1">
		<split>
			<feature> 2 </feature>
			<threshold> 0.648306 </threshold>
			<split pos="left">
				<feature> 2 </feature>
				<threshold> 0.64624 </threshold>
				<split pos="left">
					<feature> 34 </feature>
					<threshold> 0.65625 </threshold>
					<split pos="left">
						<feature> 3 </feature>
						<threshold> 0.2578125 </threshold>
						<split pos="left">
							<feature> 8 </feature>
							<threshold> 0.4765625 </threshold>
							<split pos="left">
								<feature> 14 </feature>
								<threshold> 0.4765625 </threshold>
								<split pos="left">
									<feature> 15 </feature>
									<threshold> 0.49609375 </threshold>
									<split pos="left">
										<feature> 9 </feature>
										<threshold> 0.38671875 </threshold>
										<split pos="left">
											<feature> 9 </feature>
											<threshold> 0.2890625 </threshold>
											<split pos="left">
												<output> -0.25517055 </output>
											</split>
											<split pos="right">
												<output> 0.16617602 </output>
											</split>
										</split>
										<split pos="right">
											<output> -0.5439505 </output>
										</split>
									</split>
									<split pos="right">
										<output> -1.9667622 </output>
									</split>
								</split>
								<split pos="right">
									<output> 0.4948659 </output>
								</split>
							</split>
							<split pos="right">
								<output> -3.4041362 </output>
							</split>
						</split>
						<split pos="right">
							<output> 0.08368925 </output>
						</split>
					</split>
					<split pos="right">
						<output> 0.68405265 </output>
					</split>
				</split>
				<split pos="right">
					<output> -1.4157571 </output>
				</split>
			</split>
			<split pos="right">
				<output> 0.4160781 </output>
			</split>
		</split>
	</tree>
	<tree id="13" weight="0.1">
		<split>
			<feature> 4 </feature>
			<threshold> 0.39453125 </threshold>
			<split pos="left">
				<feature> 13 </feature>
				<threshold> 0.97265625 </threshold>
				<split pos="left">
					<feature> 39 </feature>
					<threshold> 0.58203125 </threshold>
					<split pos="left">
						<feature> 23 </feature>
						<threshold> 0.9296875 </threshold>
						<split pos="left">
							<feature> 8 </feature>
							<threshold> 0.48046875 </threshold>
							<split pos="left">
								<feature> 15 </feature>
								<threshold> 0.51171875 </threshold>
								<split pos="left">
									<feature> 9 </feature>
									<threshold> 0.51953125 </threshold>
									<split pos="left">
										<feature> 10 </feature>
										<threshold> 0.5390625 </threshold>
										<split pos="left">
											<feature> 12 </feature>
											<threshold> 0.8046875 </threshold>
											<split pos="left">
												<output> -0.17239511 </output>
											</split>
											<split pos="right">
												<output> -1.5218204 </output>
											</split>
										</split>
										<split pos="right">
											<output> 0.48101515 </output>
										</split>
									</split>
									<split pos="right">
										<output> -0.6907932 </output>
									</split>
								</split>
								<split pos="right">
									<output> 0.24905176 </output>
								</split>
							</split>
							<split pos="right">
								<output> -1.5307086 </output>
							</split>
						</split>
						<split pos="right">
							<output> -1.539987 </output>
						</split>
					</split>
					<split pos="right">
						<output> 0.32880318 </output>
					</split>
				</split>
				<split pos="right">
					<output> -3.0168104 </output>
				</split>
			</split>
			<split pos="right">
				<output> 0.32769963 </output>
			</split>
		</split>
	</tree>
	<tree id="14" weight="0.1">
		<split>
			<feature> 45 </feature>
			<threshold> 0.80078125 </threshold>
			<split pos="left">
				<feature> 9 </feature>
				<threshold> 0.69140625 </threshold>
				<split pos="left">
					<feature> 33 </feature>
					<threshold> 0.66015625 </threshold>
					<split pos="left">
						<feature> 42 </feature>
						<threshold> 0.8984375 </threshold>
						<split pos="left">
							<feature> 2 </feature>
							<threshold> 0.64624 </threshold>
							<split pos="left">
								<feature> 10 </feature>
								<threshold> 0.55078125 </threshold>
								<split pos="left">
									<feature> 9 </feature>
									<threshold> 0.3828125 </threshold>
									<split pos="left">
										<feature> 9 </feature>
										<threshold> 0.2890625 </threshold>
										<split pos="left">
											<feature> 12 </feature>
											<threshold> 0.7578125 </threshold>
											<split pos="left">
												<output> -0.20048289 </output>
											</split>
											<split pos="right">
												<output> -2.548 </output>
											</split>
										</split>
										<split pos="right">
											<output> 0.14702019 </output>
										</split>
									</split>
									<split pos="right">
										<output> -0.5338136 </output>
									</split>
								</split>
								<split pos="right">
									<output> 0.18397874 </output>
								</split>
							</split>
							<split pos="right">
								<output> -0.7865255 </output>
							</split>
						</split>
						<split pos="right">
							<output> 0.17841369 </output>
						</split>
					</split>
					<split pos="right">
						<output> 0.6498476 </output>
					</split>
				</split>
				<split pos="right">
					<output> 0.42359203 </output>
				</split>
			</split>
			<split pos="right">
				<output> 0.501721 </output>
			</split>
		</split>
	</tree>
	<tree id="15" weight="0.1">
		<split>
			<feature> 45 </feature>
			<threshold> 0.80078125 </threshold>
			<split pos="left">
				<feature> 9 </feature>
				<threshold> 0.69140625 </threshold>
				<split pos="left">
					<feature> 33 </feature>
					<threshold> 0.66015625 </threshold>
					<split pos="left">
						<feature> 41 </feature>
						<threshold> 0.703125 </threshold>
						<split pos="left">
							<feature> 2 </feature>
							<threshold> 0.64624 </threshold>
							<split pos="left">
								<feature> 43 </feature>
								<threshold> 0.8359375 </threshold>
								<split pos="left">
									<feature> 40 </feature>
									<threshold> 0.30078125 </threshold>
									<split pos="left">
										<feature> 25 </feature>
										<threshold> 0.42578125 </threshold>
										<split pos="left">
											<feature> 43 </feature>
											<threshold> 0.72265625 </threshold>
											<split pos="left">
												<output> -0.17901787 </output>
											</split>
											<split pos="right">
												<output> 0.73399806 </output>
											</split>
										</split>
										<split pos="right">
											<output> -0.68163604 </output>
										</split>
									</split>
									<split pos="right">
										<output> 0.027574696 </output>
									</split>
								</split>
								<split pos="right">
									<output> -1.5089724 </output>
								</split>
							</split>
							<split pos="right">
								<output> -0.7224495 </output>
							</split>
						</split>
						<split pos="right">
							<output> 0.1332872 </output>
						</split>
					</split>
					<split pos="right">
						<output> 0.60001147 </output>
					</split>
				</split>
				<split pos="right">
					<output> 0.38874415 </output>
				</split>
			</split>
			<split pos="right">
				<output> 0.45865917 </output>
			</split>
		</split>
	</tree>
	<tree id="16" weight="0.1">
		<split>
			<feature> 2 </feature>
			<threshold> 0.648306 </threshold>
			<split pos="left">
				<feature> 2 </feature>
				<threshold> 0.64624 </threshold>
				<split pos="left">
					<feature> 34 </feature>
					<threshold> 0.65625 </threshold>
					<split pos="left">
						<feature> 12 </feature>
						<threshold> 0.8671875 </threshold>
						<split pos="left">
							<feature> 10 </feature>
							<threshold> 0.5859375 </threshold>
							<split pos="left">
								<feature> 42 </feature>
								<threshold> 0.984375 </threshold>
								<split pos="left">
									<feature> 13 </feature>
									<threshold> 0.6484375 </threshold>
									<split pos="left">
										<feature> 2 </feature>
										<threshold> 0.345687 </threshold>
										<split pos="left">
											<feature> 2 </feature>
											<threshold> 0.278943 </threshold>
											<split pos="left">
												<output> -0.17596632 </output>
											</split>
											<split pos="right">
												<output> 0.25472805 </output>
											</split>
										</split>
										<split pos="right">
											<output> -0.31190568 </output>
										</split>
									</split>
									<split pos="right">
										<output> 1.2513642 </output>
									</split>
								</split>
								<split pos="right">
									<output> 0.7817344 </output>
								</split>
							</split>
							<split pos="right">
								<output> 0.38462943 </output>
							</split>
						</split>
						<split pos="right">
							<output> -0.6668182 </output>
						</split>
					</split>
					<split pos="right">
						<output> 0.50196016 </output>
					</split>
				</split>
				<split pos="right">
					<output> -1.3043276 </output>
				</split>
			</split>
			<split pos="right">
				<output> 0.32768944 </output>
			</split>
		</split>
	</tree>
	<tree id="17" weight="0.1">
		<split>
			<feature> 14 </feature>
			<threshold> 0.75390625 </threshold>
			<split pos="left">
				<feature> 9 </feature>
				<threshold> 0.69140625 </threshold>
				<split pos="left">
					<feature> 9 </feature>
					<threshold> 0.61328125 </threshold>
					<split pos="left">
						<feature> 13 </feature>
						<threshold> 0.78125 </threshold>
						<split pos="left">
							<feature> 40 </feature>
							<threshold> 0.30859375 </threshold>
							<split pos="left">
								<feature> 25 </feature>
								<threshold> 0.42578125 </threshold>
								<split pos="left">
									<feature> 9 </feature>
									<threshold> 0.55078125 </threshold>
									<split pos="left">
										<feature> 41 </feature>
										<threshold> 0.625 </threshold>
										<split pos="left">
											<feature> 30 </feature>
											<threshold> 0.734375 </threshold>
											<split pos="left">
												<output> -0.13552994 </output>
											</split>
											<split pos="right">
												<output> -2.4192212 </output>
											</split>
										</split>
										<split pos="right">
											<output> 0.539979 </output>
										</split>
									</split>
									<split pos="right">
										<output> -1.0667313 </output>
									</split>
								</split>
								<split pos="right">
									<output> -0.638163 </output>
								</split>
							</split>
							<split pos="right">
								<output> 0.07141324 </output>
							</split>
						</split>
						<split pos="right">
							<output> 1.4565376 </output>
						</split>
					</split>
					<split pos="right">
						<output> -0.35354456 </output>
					</split>
				</split>
				<split pos="right">
					<output> 0.36272606 </output>
				</split>
			</split>
			<split pos="right">
				<output> 0.43385398 </output>
			</split>
		</split>
	</tree>
	<tree id="18" weight="0.1">
		<split>
			<feature> 8 </feature>
			<threshold> 0.796875 </threshold>
			<split pos="left">
				<feature> 41 </feature>
				<threshold> 0.81640625 </threshold>
				<split pos="left">
					<feature> 2 </feature>
					<threshold> 0.773706 </threshold>
					<split pos="left">
						<feature> 1 </feature>
						<threshold> 0.8 </threshold>
						<split pos="left">
							<feature> 8 </feature>
							<threshold> 0.76171875 </threshold>
							<split pos="left">
								<feature> 12 </feature>
								<threshold> 0.94140625 </threshold>
								<split pos="left">
									<feature> 12 </feature>
									<threshold> 0.9140625 </threshold>
									<split pos="left">
										<feature> 3 </feature>
										<threshold> 0.28515625 </threshold>
										<split pos="left">
											<feature> 15 </feature>
											<threshold> 0.76953125 </threshold>
											<split pos="left">
												<output> -0.13084586 </output>
											</split>
											<split pos="right">
												<output> -2.9871876 </output>
											</split>
										</split>
										<split pos="right">
											<output> 0.063084796 </output>
										</split>
									</split>
									<split pos="right">
										<output> -0.48719406 </output>
									</split>
								</split>
								<split pos="right">
									<output> 0.8627724 </output>
								</split>
							</split>
							<split pos="right">
								<output> -1.5429952 </output>
							</split>
						</split>
						<split pos="right">
							<output> -1.4360234 </output>
						</split>
					</split>
					<split pos="right">
						<output> 0.318333 </output>
					</split>
				</split>
				<split pos="right">
					<output> 0.2913575 </output>
				</split>
			</split>
			<split pos="right">
				<output> 0.63771325 </output>
			</split>
		</split>
	</tree>
	<tree id="19" weight="0.1">
		<split>
			<feature> 2 </feature>
			<threshold> 0.648306 </threshold>
			<split pos="left">
				<feature> 2 </feature>
				<threshold> 0.64624 </threshold>
				<split pos="left">
					<feature> 34 </feature>
					<threshold> 0.65625 </threshold>
					<split pos="left">
						<feature> 40 </feature>
						<threshold> 0.8359375 </threshold>
						<split pos="left">
							<feature> 45 </feature>
							<threshold> 0.8984375 </threshold>
							<split pos="left">
								<feature> 12 </feature>
								<threshold> 0.8671875 </threshold>
								<split pos="left">
									<feature> 10 </feature>
									<threshold> 0.5859375 </threshold>
									<split pos="left">
										<feature> 26 </feature>
										<threshold> 0.97265625 </threshold>
										<split pos="left">
											<feature> 26 </feature>
											<threshold> 0.92578125 </threshold>
											<split pos="left">
												<output> -0.10841727 </output>
											</split>
											<split pos="right">
												<output> -1.9413515 </output>
											</split>
										</split>
										<split pos="right">
											<output> 1.349734 </output>
										</split>
									</split>
									<split pos="right">
										<output> 0.37892315 </output>
									</split>
								</split>
								<split pos="right">
									<output> -0.67066526 </output>
								</split>
							</split>
							<split pos="right">
								<output> 0.8968565 </output>
							</split>
						</split>
						<split pos="right">
							<output> -1.4444879 </output>
						</split>
					</split>
					<split pos="right">
						<output> 0.4298358 </output>
					</split>
				</split>
				<split pos="right">
					<output> -1.2550267 </output>
				</split>
			</split>
			<split pos="right">
				<output> 0.27714103 </output>
			</split>
		</split>
	</tree>
	<tree id="20" weight="0.1">
		<split>
			<feature> 8 </feature>
			<threshold> 0.796875 </threshold>
			<split pos="left">
				<feature> 41 </feature>
				<threshold> 0.81640625 </threshold>
				<split pos="left">
					<feature> 2 </feature>
					<threshold> 0.773706 </threshold>
					<split pos="left">
						<feature> 1 </feature>
						<threshold> 0.8 </threshold>
						<split pos="left">
							<feature> 44 </feature>
							<threshold> 0.75 </threshold>
							<split pos="left">
								<feature> 27 </feature>
								<threshold> 0.92578125 </threshold>
								<split pos="left">
									<feature> 28 </feature>
									<threshold> 0.859375 </threshold>
									<split pos="left">
										<feature> 34 </feature>
										<threshold> 0.57421875 </threshold>
										<split pos="left">
											<feature> 8 </feature>
											<threshold> 0.734375 </threshold>
											<split pos="left">
												<output> -0.08782282 </output>
											</split>
											<split pos="right">
												<output> -1.4463999 </output>
											</split>
										</split>
										<split pos="right">
											<output> 0.3762047 </output>
										</split>
									</split>
									<split pos="right">
										<output> -1.5315061 </output>
									</split>
								</split>
								<split pos="right">
									<output> 0.5487864 </output>
								</split>
							</split>
							<split pos="right">
								<output> -0.47966525 </output>
							</split>
						</split>
						<split pos="right">
							<output> -1.3868809 </output>
						</split>
					</split>
					<split pos="right">
						<output> 0.31563178 </output>
					</split>
				</split>
				<split pos="right">
					<output> 0.26656926 </output>
				</split>
			</split>
			<split pos="right">
				<output> 0.58730507 </output>
			</split>
		</split>
	</tree>
	<tree id="21" weight="0.1">
		<split>
			<feature> 8 </feature>
			<threshold> 0.796875 </threshold>
			<split pos="left">
				<feature> 32 </feature>
				<threshold> 0.63671875 </threshold>
				<split pos="left">
					<feature> 42 </feature>
					<threshold> 0.98828125 </threshold>
					<split pos="left">
						<feature> 42 </feature>
						<threshold> 0.984375 </threshold>
						<split pos="left">
							<feature> 44 </feature>
							<threshold> 0.99609375 </threshold>
							<split pos="left">
								<feature> 15 </feature>
								<threshold> 0.96484375 </threshold>
								<split pos="left">
									<feature> 11 </feature>
									<threshold> 0.9296875 </threshold>
									<split pos="left">
										<feature> 17 </feature>
										<threshold> 0.50390625 </threshold>
										<split pos="left">
											<feature> 16 </feature>
											<threshold> 0.625 </threshold>
											<split pos="left">
												<output> -0.037455656 </output>
											</split>
											<split pos="right">
												<output> 1.6738346 </output>
											</split>
										</split>
										<split pos="right">
											<output> -0.28326982 </output>
										</split>
									</split>
									<split pos="right">
										<output> 1.2258676 </output>
									</split>
								</split>
								<split pos="right">
									<output> -2.3277988 </output>
								</split>
							</split>
							<split pos="right">
								<output> 1.2336107 </output>
							</split>
						</split>
						<split pos="right">
							<output> 1.2298101 </output>
						</split>
					</split>
					<split pos="right">
						<output> -2.8426905 </output>
					</split>
				</split>
				<split pos="right">
					<output> 0.2422986 </output>
				</split>
			</split>
			<split pos="right">
				<output> 0.5403136 </output>
			</split>
		</split>
	</tree>
	<tree id="22" weight="0.1">
		<split>
			<feature> 15 </feature>
			<threshold> 0.52734375 </threshold>
			<split pos="left">
				<feature> 15 </feature>
				<threshold> 0.51953125 </threshold>
				<split pos="left">
					<feature> 15 </feature>
					<threshold> 0.51171875 </threshold>
					<split pos="left">
						<feature> 2 </feature>
						<threshold> 0.386853 </threshold>
						<split pos="left">
							<feature> 9 </feature>
							<threshold> 0.4453125 </threshold>
							<split pos="left">
								<feature> 9 </feature>
								<threshold> 0.37890625 </threshold>
								<split pos="left">
									<feature> 9 </feature>
									<threshold> 0.375 </threshold>
									<split pos="left">
										<feature> 9 </feature>
										<threshold> 0.37109375 </threshold>
										<split pos="left">
											<feature> 15 </feature>
											<threshold> 0.234375 </threshold>
											<split pos="left">
												<output> -0.10618568 </output>
											</split>
											<split pos="right">
												<output> 0.29525703 </output>
											</split>
										</split>
										<split pos="right">
											<output> -1.6240538 </output>
										</split>
									</split>
									<split pos="right">
										<output> 0.5768114 </output>
									</split>
								</split>
								<split pos="right">
									<output> -0.69351375 </output>
								</split>
							</split>
							<split pos="right">
								<output> 0.93335766 </output>
							</split>
						</split>
						<split pos="right">
							<output> -0.32358402 </output>
						</split>
					</split>
					<split pos="right">
						<output> 1.0870209 </output>
					</split>
				</split>
				<split pos="right">
					<output> -1.0387526 </output>
				</split>
			</split>
			<split pos="right">
				<output> 0.2073402 </output>
			</split>
		</split>
	</tree>
	<tree id="23" weight="0.1">
		<split>
			<feature> 2 </feature>
			<threshold> 0.648306 </threshold>
			<split pos="left">
				<feature> 2 </feature>
				<threshold> 0.64624 </threshold>
				<split pos="left">
					<feature> 45 </feature>
					<threshold> 0.90234375 </threshold>
					<split pos="left">
						<feature> 44 </feature>
						<threshold> 0.85546875 </threshold>
						<split pos="left">
							<feature> 10 </feature>
							<threshold> 0.75390625 </threshold>
							<split pos="left">
								<feature> 13 </feature>
								<threshold> 0.7734375 </threshold>
								<split pos="left">
									<feature> 8 </feature>
									<threshold> 0.6171875 </threshold>
									<split pos="left">
										<feature> 41 </feature>
										<threshold> 0.953125 </threshold>
										<split pos="left">
											<feature> 41 </feature>
											<threshold> 0.9453125 </threshold>
											<split pos="left">
												<output> -0.07122887 </output>
											</split>
											<split pos="right">
												<output> -3.1452565 </output>
											</split>
										</split>
										<split pos="right">
											<output> 1.1213664 </output>
										</split>
									</split>
									<split pos="right">
										<output> 0.4276742 </output>
									</split>
								</split>
								<split pos="right">
									<output> 1.3550187 </output>
								</split>
							</split>
							<split pos="right">
								<output> -0.9150963 </output>
							</split>
						</split>
						<split pos="right">
							<output> -2.1122367 </output>
						</split>
					</split>
					<split pos="right">
						<output> 0.56029725 </output>
					</split>
				</split>
				<split pos="right">
					<output> -1.22161 </output>
				</split>
			</split>
			<split pos="right">
				<output> 0.22718295 </output>
			</split>
		</split>
	</tree>
	<tree id="24" weight="0.1">
		<split>
			<feature> 45 </feature>
			<threshold> 0.80078125 </threshold>
			<split pos="left">
				<feature> 9 </feature>
				<threshold> 0.69140625 </threshold>
				<split pos="left">
					<feature> 9 </feature>
					<threshold> 0.66796875 </threshold>
					<split pos="left">
						<feature> 13 </feature>
						<threshold> 0.80859375 </threshold>
						<split pos="left">
							<feature> 1 </feature>
							<threshold> 0.555556 </threshold>
							<split pos="left">
								<feature> 40 </feature>
								<threshold> 0.30078125 </threshold>
								<split pos="left">
									<feature> 25 </feature>
									<threshold> 0.57421875 </threshold>
									<split pos="left">
										<feature> 26 </feature>
										<threshold> 0.796875 </threshold>
										<split pos="left">
											<feature> 25 </feature>
											<threshold> 0.42578125 </threshold>
											<split pos="left">
												<output> -0.08941538 </output>
											</split>
											<split pos="right">
												<output> -0.5451386 </output>
											</split>
										</split>
										<split pos="right">
											<output> 1.4200234 </output>
										</split>
									</split>
									<split pos="right">
										<output> -1.4184802 </output>
									</split>
								</split>
								<split pos="right">
									<output> 0.088172 </output>
								</split>
							</split>
							<split pos="right">
								<output> -0.34457698 </output>
							</split>
						</split>
						<split pos="right">
							<output> 0.87820554 </output>
						</split>
					</split>
					<split pos="right">
						<output> -0.41446504 </output>
					</split>
				</split>
				<split pos="right">
					<output> 0.25304422 </output>
				</split>
			</split>
			<split pos="right">
				<output> 0.3073735 </output>
			</split>
		</split>
	</tree>
	<tree id="25" weight="0.1">
		<split>
			<feature> 45 </feature>
			<threshold> 0.80078125 </threshold>
			<split pos="left">
				<feature> 13 </feature>
				<threshold> 0.2421875 </threshold>
				<split pos="left">
					<feature> 15 </feature>
					<threshold> 0.2734375 </threshold>
					<split pos="left">
						<feature> 14 </feature>
						<threshold> 0.23828125 </threshold>
						<split pos="left">
							<feature> 12 </feature>
							<threshold> 0.78125 </threshold>
							<split pos="left">
								<feature> 33 </feature>
								<threshold> 0.34375 </threshold>
								<split pos="left">
									<output> -0.12093776 </output>
								</split>
								<split pos="right">
									<output> 0.5210315 </output>
								</split>
							</split>
							<split pos="right">
								<output> -1.7095169 </output>
							</split>
						</split>
						<split pos="right">
							<output> -0.8985993 </output>
						</split>
					</split>
					<split pos="right">
						<output> -1.6062399 </output>
					</split>
				</split>
				<split pos="right">
					<feature> 9 </feature>
					<threshold> 0.20703125 </threshold>
					<split pos="left">
						<output> 0.78168964 </output>
					</split>
					<split pos="right">
						<feature> 2 </feature>
						<threshold> 0.218104 </threshold>
						<split pos="left">
							<output> -1.0650098 </output>
						</split>
						<split pos="right">
							<feature> 33 </feature>
							<threshold> 0.19921875 </threshold>
							<split pos="left">
								<output> 0.14690393 </output>
							</split>
							<split pos="right">
								<output> -0.11817926 </output>
							</split>
						</split>
					</split>
				</split>
			</split>
			<split pos="right">
				<output> 0.27519813 </output>
			</split>
		</split>
	</tree>
	<tree id="26" weight="0.1">
		<split>
			<feature> 8 </feature>
			<threshold> 0.796875 </threshold>
			<split pos="left">
				<feature> 41 </feature>
				<threshold> 0.88671875 </threshold>
				<split pos="left">
					<feature> 8 </feature>
					<threshold> 0.76171875 </threshold>
					<split pos="left">
						<feature> 15 </feature>
						<threshold> 0.96484375 </threshold>
						<split pos="left">
							<feature> 12 </feature>
							<threshold> 0.94140625 </threshold>
							<split pos="left">
								<feature> 42 </feature>
								<threshold> 0.95703125 </threshold>
								<split pos="left">
									<feature> 27 </feature>
									<threshold> 0.9609375 </threshold>
									<split pos="left">
										<feature> 1 </feature>
										<threshold> 0.833333 </threshold>
										<split pos="left">
											<feature> 2 </feature>
											<threshold> 0.8 </threshold>
											<split pos="left">
												<output> -0.049016364 </output>
											</split>
											<split pos="right">
												<output> 0.9179369 </output>
											</split>
										</split>
										<split pos="right">
											<output> -0.91273546 </output>
										</split>
									</split>
									<split pos="right">
										<output> 0.80265146 </output>
									</split>
								</split>
								<split pos="right">
									<output> -1.242053 </output>
								</split>
							</split>
							<split pos="right">
								<output> 0.6459135 </output>
							</split>
						</split>
						<split pos="right">
							<output> -1.8823119 </output>
						</split>
					</split>
					<split pos="right">
						<output> -1.084844 </output>
					</split>
				</split>
				<split pos="right">
					<output> 0.34376296 </output>
				</split>
			</split>
			<split pos="right">
				<output> 0.4358556 </output>
			</split>
		</split>
	</tree>
	<tree id="27" weight="0.1">
		<split>
			<feature> 8 </feature>
			<threshold> 0.578125 </threshold>
			<split pos="left">
				<feature> 12 </feature>
				<threshold> 0.93359375 </threshold>
				<split pos="left">
					<feature> 28 </feature>
					<threshold> 0.87109375 </threshold>
					<split pos="left">
						<feature> 29 </feature>
						<threshold> 0.90234375 </threshold>
						<split pos="left">
							<feature> 25 </feature>
							<threshold> 0.875 </threshold>
							<split pos="left">
								<feature> 44 </feature>
								<threshold> 0.8203125 </threshold>
								<split pos="left">
									<feature> 26 </feature>
									<threshold> 0.8671875 </threshold>
									<split pos="left">
										<feature> 41 </feature>
										<threshold> 0.921875 </threshold>
										<split pos="left">
											<feature> 42 </feature>
											<threshold> 0.82421875 </threshold>
											<split pos="left">
												<output> -0.09900209 </output>
											</split>
											<split pos="right">
												<output> 0.08394642 </output>
											</split>
										</split>
										<split pos="right">
											<output> -4.619381 </output>
										</split>
									</split>
									<split pos="right">
										<output> 0.8289248 </output>
									</split>
								</split>
								<split pos="right">
									<output> -0.8500529 </output>
								</split>
							</split>
							<split pos="right">
								<output> -1.3872118 </output>
							</split>
						</split>
						<split pos="right">
							<output> 1.3336296 </output>
						</split>
					</split>
					<split pos="right">
						<output> 0.31458315 </output>
					</split>
				</split>
				<split pos="right">
					<output> -2.274711 </output>
				</split>
			</split>
			<split pos="right">
				<output> 0.21022059 </output>
			</split>
		</split>
	</tree>
	<tree id="28" weight="0.1">
		<split>
			<feature> 19 </feature>
			<threshold> 0.9921875 </threshold>
			<split pos="left">
				<feature> 41 </feature>
				<threshold> 0.8828125 </threshold>
				<split pos="left">
					<feature> 12 </feature>
					<threshold> 0.94140625 </threshold>
					<split pos="left">
						<feature> 40 </feature>
						<threshold> 0.79296875 </threshold>
						<split pos="left">
							<feature> 38 </feature>
							<threshold> 0.71484375 </threshold>
							<split pos="left">
								<feature> 27 </feature>
								<threshold> 0.9609375 </threshold>
								<split pos="left">
									<feature> 41 </feature>
									<threshold> 0.85546875 </threshold>
									<split pos="left">
										<feature> 2 </feature>
										<threshold> 0.792481 </threshold>
										<split pos="left">
											<feature> 41 </feature>
											<threshold> 0.8125 </threshold>
											<split pos="left">
												<output> -0.06501329 </output>
											</split>
											<split pos="right">
												<output> 0.3867378 </output>
											</split>
										</split>
										<split pos="right">
											<output> 0.38306922 </output>
										</split>
									</split>
									<split pos="right">
										<output> -1.0199798 </output>
									</split>
								</split>
								<split pos="right">
									<output> 0.80646396 </output>
								</split>
							</split>
							<split pos="right">
								<output> 0.70781875 </output>
							</split>
						</split>
						<split pos="right">
							<output> -0.41748652 </output>
						</split>
					</split>
					<split pos="right">
						<output> 0.38833842 </output>
					</split>
				</split>
				<split pos="right">
					<output> 0.45937738 </output>
				</split>
			</split>
			<split pos="right">
				<output> -1.2463568 </output>
			</split>
		</split>
	</tree>
	<tree id="29" weight="0.1">
		<split>
			<feature> 2 </feature>
			<threshold> 0.648306 </threshold>
			<split pos="left">
				<feature> 2 </feature>
				<threshold> 0.64624 </threshold>
				<split pos="left">
					<feature> 9 </feature>
					<threshold> 0.51171875 </threshold>
					<split pos="left">
						<feature> 13 </feature>
						<threshold> 0.80859375 </threshold>
						<split pos="left">
							<feature> 9 </feature>
							<threshold> 0.46875 </threshold>
							<split pos="left">
								<feature> 9 </feature>
								<threshold> 0.38671875 </threshold>
								<split pos="left">
									<feature> 13 </feature>
									<threshold> 0.625 </threshold>
									<split pos="left">
										<feature> 9 </feature>
										<threshold> 0.375 </threshold>
										<split pos="left">
											<feature> 12 </feature>
											<threshold> 0.765625 </threshold>
											<split pos="left">
												<output> -0.016057132 </output>
											</split>
											<split pos="right">
												<output> -0.81322026 </output>
											</split>
										</split>
										<split pos="right">
											<output> 0.43639028 </output>
										</split>
									</split>
									<split pos="right">
										<output> 0.8520439 </output>
									</split>
								</split>
								<split pos="right">
									<output> -0.4150591 </output>
								</split>
							</split>
							<split pos="right">
								<output> 0.3194068 </output>
							</split>
						</split>
						<split pos="right">
							<output> 0.9982631 </output>
						</split>
					</split>
					<split pos="right">
						<output> -0.41363776 </output>
					</split>
				</split>
				<split pos="right">
					<output> -1.1914355 </output>
				</split>
			</split>
			<split pos="right">
				<output> 0.17216837 </output>
			</split>
		</split>
	</tree>
	<tree id="30" weight="0.1">
		<split>
			<feature> 3 </feature>
			<threshold> 0.28515625 </threshold>
			<split pos="left">
				<feature> 15 </feature>
				<threshold> 0.77734375 </threshold>
				<split pos="left">
					<feature> 4 </feature>
					<threshold> 0.34375 </threshold>
					<split pos="left">
						<feature> 15 </feature>
						<threshold> 0.48046875 </threshold>
						<split pos="left">
							<feature> 9 </feature>
							<threshold> 0.3828125 </threshold>
							<split pos="left">
								<feature> 9 </feature>
								<threshold> 0.35546875 </threshold>
								<split pos="left">
									<feature> 31 </feature>
									<threshold> 0.23828125 </threshold>
									<split pos="left">
										<output> -0.015570752 </output>
									</split>
									<split pos="right">
										<output> -0.18142988 </output>
									</split>
								</split>
								<split pos="right">
									<output> 0.4500217 </output>
								</split>
							</split>
							<split pos="right">
								<output> -0.40208814 </output>
							</split>
						</split>
						<split pos="right">
							<output> 0.23745139 </output>
						</split>
					</split>
					<split pos="right">
						<output> -4.0552764 </output>
					</split>
				</split>
				<split pos="right">
					<output> -2.3959696 </output>
				</split>
			</split>
			<split pos="right">
				<feature> 2 </feature>
				<threshold> 0.333333 </threshold>
				<split pos="left">
					<output> 0.43895754 </output>
				</split>
				<split pos="right">
					<feature> 14 </feature>
					<threshold> 0.51171875 </threshold>
					<split pos="left">
						<output> -0.24117249 </output>
					</split>
					<split pos="right">
						<output> 0.16508108 </output>
					</split>
				</split>
			</split>
		</split>
	</tree>
	<tree id="31" weight="0.1">
		<split>
			<feature> 25 </feature>
			<threshold> 0.96875 </threshold>
			<split pos="left">
				<feature> 27 </feature>
				<threshold> 0.9609375 </threshold>
				<split pos="left">
					<feature> 12 </feature>
					<threshold> 0.94140625 </threshold>
					<split pos="left">
						<feature> 12 </feature>
						<threshold> 0.91015625 </threshold>
						<split pos="left">
							<feature> 12 </feature>
							<threshold> 0.90625 </threshold>
							<split pos="left">
								<feature> 2 </feature>
								<threshold> 0.792481 </threshold>
								<split pos="left">
									<feature> 28 </feature>
									<threshold> 0.9453125 </threshold>
									<split pos="left">
										<feature> 44 </feature>
										<threshold> 0.8203125 </threshold>
										<split pos="left">
											<feature> 42 </feature>
											<threshold> 0.82421875 </threshold>
											<split pos="left">
												<output> -0.084756814 </output>
											</split>
											<split pos="right">
												<output> 0.09762281 </output>
											</split>
										</split>
										<split pos="right">
											<output> -0.80956775 </output>
										</split>
									</split>
									<split pos="right">
										<output> -1.5827082 </output>
									</split>
								</split>
								<split pos="right">
									<output> 0.39066163 </output>
								</split>
							</split>
							<split pos="right">
								<output> 0.5430976 </output>
							</split>
						</split>
						<split pos="right">
							<output> -0.37694502 </output>
						</split>
					</split>
					<split pos="right">
						<output> 0.32861403 </output>
					</split>
				</split>
				<split pos="right">
					<output> 0.5775281 </output>
				</split>
			</split>
			<split pos="right">
				<output> -0.8645564 </output>
			</split>
		</split>
	</tree>
	<tree id="32" weight="0.1">
		<split>
			<feature> 45 </feature>
			<threshold> 0.80078125 </threshold>
			<split pos="left">
				<feature> 41 </feature>
				<threshold> 0.9453125 </threshold>
				<split pos="left">
					<feature> 27 </feature>
					<threshold> 0.9609375 </threshold>
					<split pos="left">
						<feature> 29 </feature>
						<threshold> 0.8046875 </threshold>
						<split pos="left">
							<feature> 43 </feature>
							<threshold> 0.78515625 </threshold>
							<split pos="left">
								<feature> 28 </feature>
								<threshold> 0.69140625 </threshold>
								<split pos="left">
									<feature> 43 </feature>
									<threshold> 0.765625 </threshold>
									<split pos="left">
										<feature> 28 </feature>
										<threshold> 0.6484375 </threshold>
										<split pos="left">
											<feature> 27 </feature>
											<threshold> 0.9375 </threshold>
											<split pos="left">
												<output> -0.03352967 </output>
											</split>
											<split pos="right">
												<output> -6.225861 </output>
											</split>
										</split>
										<split pos="right">
											<output> 0.47306255 </output>
										</split>
									</split>
									<split pos="right">
										<output> -2.4620836 </output>
									</split>
								</split>
								<split pos="right">
									<output> -0.2437965 </output>
								</split>
							</split>
							<split pos="right">
								<output> 0.35884815 </output>
							</split>
						</split>
						<split pos="right">
							<output> -0.5380393 </output>
						</split>
					</split>
					<split pos="right">
						<output> 0.78474545 </output>
					</split>
				</split>
				<split pos="right">
					<output> -1.4616427 </output>
				</split>
			</split>
			<split pos="right">
				<output> 0.21371603 </output>
			</split>
		</split>
	</tree>
	<tree id="33" weight="0.1">
		<split>
			<feature> 8 </feature>
			<threshold> 0.796875 </threshold>
			<split pos="left">
				<feature> 40 </feature>
				<threshold> 0.79296875 </threshold>
				<split pos="left">
					<feature> 45 </feature>
					<threshold> 0.8984375 </threshold>
					<split pos="left">
						<feature> 38 </feature>
						<threshold> 0.71484375 </threshold>
						<split pos="left">
							<feature> 8 </feature>
							<threshold> 0.76171875 </threshold>
							<split pos="left">
								<feature> 12 </feature>
								<threshold> 0.9296875 </threshold>
								<split pos="left">
									<feature> 43 </feature>
									<threshold> 0.98046875 </threshold>
									<split pos="left">
										<feature> 12 </feature>
										<threshold> 0.921875 </threshold>
										<split pos="left">
											<feature> 13 </feature>
											<threshold> 0.2421875 </threshold>
											<split pos="left">
												<output> -0.098528706 </output>
											</split>
											<split pos="right">
												<output> 0.07240028 </output>
											</split>
										</split>
										<split pos="right">
											<output> -2.07469 </output>
										</split>
									</split>
									<split pos="right">
										<output> -2.1634974 </output>
									</split>
								</split>
								<split pos="right">
									<output> 0.47172174 </output>
								</split>
							</split>
							<split pos="right">
								<output> -1.5411819 </output>
							</split>
						</split>
						<split pos="right">
							<output> 0.5705219 </output>
						</split>
					</split>
					<split pos="right">
						<output> 0.5291439 </output>
					</split>
				</split>
				<split pos="right">
					<output> -0.38538903 </output>
				</split>
			</split>
			<split pos="right">
				<output> 0.3462206 </output>
			</split>
		</split>
	</tree>
	<tree id="34" weight="0.1">
		<split>
			<feature> 14 </feature>
			<threshold> 0.75390625 </threshold>
			<split pos="left">
				<feature> 12 </feature>
				<threshold> 0.9140625 </threshold>
				<split pos="left">
					<feature> 9 </feature>
					<threshold> 0.69140625 </threshold>
					<split pos="left">
						<feature> 9 </feature>
						<threshold> 0.61328125 </threshold>
						<split pos="left">
							<feature> 13 </feature>
							<threshold> 0.78125 </threshold>
							<split pos="left">
								<feature> 15 </feature>
								<threshold> 0.7421875 </threshold>
								<split pos="left">
									<feature> 33 </feature>
									<threshold> 0.66015625 </threshold>
									<split pos="left">
										<feature> 1 </feature>
										<threshold> 0.625 </threshold>
										<split pos="left">
											<feature> 40 </feature>
											<threshold> 0.84375 </threshold>
											<split pos="left">
												<output> -0.01864468 </output>
											</split>
											<split pos="right">
												<output> -1.2160444 </output>
											</split>
										</split>
										<split pos="right">
											<output> -0.8864517 </output>
										</split>
									</split>
									<split pos="right">
										<output> 0.4411585 </output>
									</split>
								</split>
								<split pos="right">
									<output> -3.0707533 </output>
								</split>
							</split>
							<split pos="right">
								<output> 1.2746044 </output>
							</split>
						</split>
						<split pos="right">
							<output> -0.37026575 </output>
						</split>
					</split>
					<split pos="right">
						<output> 0.33803773 </output>
					</split>
				</split>
				<split pos="right">
					<output> -0.74799436 </output>
				</split>
			</split>
			<split pos="right">
				<output> 0.21738811 </output>
			</split>
		</split>
	</tree>
	<tree id="35" weight="0.1">
		<split>
			<feature> 43 </feature>
			<threshold> 0.75 </threshold>
			<split pos="left">
				<feature> 28 </feature>
				<threshold> 0.69140625 </threshold>
				<split pos="left">
					<feature> 28 </feature>
					<threshold> 0.6484375 </threshold>
					<split pos="left">
						<feature> 33 </feature>
						<threshold> 0.6171875 </threshold>
						<split pos="left">
							<feature> 33 </feature>
							<threshold> 0.47265625 </threshold>
							<split pos="left">
								<feature> 3 </feature>
								<threshold> 0.2734375 </threshold>
								<split pos="left">
									<feature> 45 </feature>
									<threshold> 0.73828125 </threshold>
									<split pos="left">
										<feature> 38 </feature>
										<threshold> 0.62890625 </threshold>
										<split pos="left">
											<feature> 8 </feature>
											<threshold> 0.34375 </threshold>
											<split pos="left">
												<output> -0.059841696 </output>
											</split>
											<split pos="right">
												<output> -0.5638834 </output>
											</split>
										</split>
										<split pos="right">
											<output> 1.3536896 </output>
										</split>
									</split>
									<split pos="right">
										<output> 1.3153974 </output>
									</split>
								</split>
								<split pos="right">
									<output> 0.102028966 </output>
								</split>
							</split>
							<split pos="right">
								<output> -0.4295336 </output>
							</split>
						</split>
						<split pos="right">
							<output> 0.34722373 </output>
						</split>
					</split>
					<split pos="right">
						<output> 0.4164699 </output>
					</split>
				</split>
				<split pos="right">
					<output> -0.4438925 </output>
				</split>
			</split>
			<split pos="right">
				<output> 0.14894079 </output>
			</split>
		</split>
	</tree>
	<tree id="36" weight="0.1">
		<split>
			<feature> 19 </feature>
			<threshold> 0.9921875 </threshold>
			<split pos="left">
				<feature> 27 </feature>
				<threshold> 0.9609375 </threshold>
				<split pos="left">
					<feature> 43 </feature>
					<threshold> 0.9609375 </threshold>
					<split pos="left">
						<feature> 41 </feature>
						<threshold> 0.94921875 </threshold>
						<split pos="left">
							<feature> 13 </feature>
							<threshold> 0.2421875 </threshold>
							<split pos="left">
								<output> -0.084553435 </output>
							</split>
							<split pos="right">
								<feature> 9 </feature>
								<threshold> 0.20703125 </threshold>
								<split pos="left">
									<output> 0.7784234 </output>
								</split>
								<split pos="right">
									<feature> 30 </feature>
									<threshold> 0.90625 </threshold>
									<split pos="left">
										<feature> 28 </feature>
										<threshold> 0.81640625 </threshold>
										<split pos="left">
											<feature> 29 </feature>
											<threshold> 0.8046875 </threshold>
											<split pos="left">
												<output> 0.022902941 </output>
											</split>
											<split pos="right">
												<output> -1.5551292 </output>
											</split>
										</split>
										<split pos="right">
											<output> 0.5300624 </output>
										</split>
									</split>
									<split pos="right">
										<output> -2.3981578 </output>
									</split>
								</split>
							</split>
						</split>
						<split pos="right">
							<output> 0.8560062 </output>
						</split>
					</split>
					<split pos="right">
						<output> -1.7179548 </output>
					</split>
				</split>
				<split pos="right">
					<output> 0.4175935 </output>
				</split>
			</split>
			<split pos="right">
				<output> -0.94495106 </output>
			</split>
		</split>
	</tree>
	<tree id="37" weight="0.1">
		<split>
			<feature> 25 </feature>
			<threshold> 0.96875 </threshold>
			<split pos="left">
				<feature> 27 </feature>
				<threshold> 0.9609375 </threshold>
				<split pos="left">
					<feature> 14 </feature>
					<threshold> 0.8125 </threshold>
					<split pos="left">
						<feature> 1 </feature>
						<threshold> 0.833333 </threshold>
						<split pos="left">
							<feature> 2 </feature>
							<threshold> 0.8 </threshold>
							<split pos="left">
								<feature> 41 </feature>
								<threshold> 0.88671875 </threshold>
								<split pos="left">
									<feature> 41 </feature>
									<threshold> 0.85546875 </threshold>
									<split pos="left">
										<feature> 1 </feature>
										<threshold> 0.75 </threshold>
										<split pos="left">
											<feature> 9 </feature>
											<threshold> 0.51171875 </threshold>
											<split pos="left">
												<output> 5.5851525E-4 </output>
											</split>
											<split pos="right">
												<output> -0.19454515 </output>
											</split>
										</split>
										<split pos="right">
											<output> 0.7245304 </output>
										</split>
									</split>
									<split pos="right">
										<output> -0.7301144 </output>
									</split>
								</split>
								<split pos="right">
									<output> 0.77194566 </output>
								</split>
							</split>
							<split pos="right">
								<output> 0.71701 </output>
							</split>
						</split>
						<split pos="right">
							<output> -1.1354791 </output>
						</split>
					</split>
					<split pos="right">
						<output> 0.26169756 </output>
					</split>
				</split>
				<split pos="right">
					<output> 0.47409478 </output>
				</split>
			</split>
			<split pos="right">
				<output> -0.6971699 </output>
			</split>
		</split>
	</tree>
	<tree id="38" weight="0.1">
		<split>
			<feature> 42 </feature>
			<threshold> 0.82421875 </threshold>
			<split pos="left">
				<feature> 43 </feature>
				<threshold> 0.71875 </threshold>
				<split pos="left">
					<feature> 2 </feature>
					<threshold> 0.8 </threshold>
					<split pos="left">
						<feature> 30 </feature>
						<threshold> 0.390625 </threshold>
						<split pos="left">
							<feature> 41 </feature>
							<threshold> 0.38671875 </threshold>
							<split pos="left">
								<feature> 40 </feature>
								<threshold> 0.67578125 </threshold>
								<split pos="left">
									<feature> 9 </feature>
									<threshold> 0.546875 </threshold>
									<split pos="left">
										<output> -0.07051991 </output>
									</split>
									<split pos="right">
										<output> -1.2764409 </output>
									</split>
								</split>
								<split pos="right">
									<output> -4.0146275 </output>
								</split>
							</split>
							<split pos="right">
								<output> 0.31798095 </output>
							</split>
						</split>
						<split pos="right">
							<output> -0.27038023 </output>
						</split>
					</split>
					<split pos="right">
						<output> 0.5991304 </output>
					</split>
				</split>
				<split pos="right">
					<output> -0.8228836 </output>
				</split>
			</split>
			<split pos="right">
				<feature> 38 </feature>
				<threshold> 0.09375 </threshold>
				<split pos="left">
					<output> 0.64563566 </output>
				</split>
				<split pos="right">
					<feature> 4 </feature>
					<threshold> 0.390625 </threshold>
					<split pos="left">
						<output> -0.062668085 </output>
					</split>
					<split pos="right">
						<output> 0.17198856 </output>
					</split>
				</split>
			</split>
		</split>
	</tree>
	<tree id="39" weight="0.1">
		<split>
			<feature> 42 </feature>
			<threshold> 0.82421875 </threshold>
			<split pos="left">
				<feature> 43 </feature>
				<threshold> 0.71875 </threshold>
				<split pos="left">
					<feature> 31 </feature>
					<threshold> 0.23828125 </threshold>
					<split pos="left">
						<feature> 17 </feature>
						<threshold> 0.328125 </threshold>
						<split pos="left">
							<feature> 29 </feature>
							<threshold> 0.6171875 </threshold>
							<split pos="left">
								<feature> 32 </feature>
								<threshold> 0.44921875 </threshold>
								<split pos="left">
									<feature> 3 </feature>
									<threshold> 0.23828125 </threshold>
									<split pos="left">
										<output> -0.09857967 </output>
									</split>
									<split pos="right">
										<output> 0.18936704 </output>
									</split>
								</split>
								<split pos="right">
									<output> 1.335901 </output>
								</split>
							</split>
							<split pos="right">
								<output> -1.3270924 </output>
							</split>
						</split>
						<split pos="right">
							<output> 0.35021818 </output>
						</split>
					</split>
					<split pos="right">
						<output> -0.20688333 </output>
					</split>
				</split>
				<split pos="right">
					<output> -0.8132053 </output>
				</split>
			</split>
			<split pos="right">
				<feature> 40 </feature>
				<threshold> 0.55859375 </threshold>
				<split pos="left">
					<feature> 43 </feature>
					<threshold> 0.88671875 </threshold>
					<split pos="left">
						<output> 0.14112289 </output>
					</split>
					<split pos="right">
						<output> 0.6573024 </output>
					</split>
				</split>
				<split pos="right">
					<output> -0.08958821 </output>
				</split>
			</split>
		</split>
	</tree>
	<tree id="40" weight="0.1">
		<split>
			<feature> 19 </feature>
			<threshold> 0.9921875 </threshold>
			<split pos="left">
				<feature> 27 </feature>
				<threshold> 0.9609375 </threshold>
				<split pos="left">
					<feature> 43 </feature>
					<threshold> 0.9609375 </threshold>
					<split pos="left">
						<feature> 41 </feature>
						<threshold> 0.94921875 </threshold>
						<split pos="left">
							<feature> 12 </feature>
							<threshold> 0.94921875 </threshold>
							<split pos="left">
								<feature> 14 </feature>
								<threshold> 0.921875 </threshold>
								<split pos="left">
									<feature> 44 </feature>
									<threshold> 0.97265625 </threshold>
									<split pos="left">
										<feature> 8 </feature>
										<threshold> 0.99609375 </threshold>
										<split pos="left">
											<feature> 41 </feature>
											<threshold> 0.9453125 </threshold>
											<split pos="left">
												<output> -0.010888808 </output>
											</split>
											<split pos="right">
												<output> -3.657161 </output>
											</split>
										</split>
										<split pos="right">
											<output> -2.3775957 </output>
										</split>
									</split>
									<split pos="right">
										<output> 1.170267 </output>
									</split>
								</split>
								<split pos="right">
									<output> -2.8034282 </output>
								</split>
							</split>
							<split pos="right">
								<output> 0.24193004 </output>
							</split>
						</split>
						<split pos="right">
							<output> 0.8076481 </output>
						</split>
					</split>
					<split pos="right">
						<output> -1.5403998 </output>
					</split>
				</split>
				<split pos="right">
					<output> 0.33592 </output>
				</split>
			</split>
			<split pos="right">
				<output> -0.84184635 </output>
			</split>
		</split>
	</tree>
	<tree id="41" weight="0.1">
		<split>
			<feature> 8 </feature>
			<threshold> 0.58984375 </threshold>
			<split pos="left">
				<feature> 12 </feature>
				<threshold> 0.94140625 </threshold>
				<split pos="left">
					<feature> 39 </feature>
					<threshold> 0.56640625 </threshold>
					<split pos="left">
						<feature> 31 </feature>
						<threshold> 0.640625 </threshold>
						<split pos="left">
							<feature> 39 </feature>
							<threshold> 0.546875 </threshold>
							<split pos="left">
								<feature> 32 </feature>
								<threshold> 0.640625 </threshold>
								<split pos="left">
									<feature> 17 </feature>
									<threshold> 0.5625 </threshold>
									<split pos="left">
										<feature> 32 </feature>
										<threshold> 0.6328125 </threshold>
										<split pos="left">
											<feature> 31 </feature>
											<threshold> 0.58984375 </threshold>
											<split pos="left">
												<output> -0.019381465 </output>
											</split>
											<split pos="right">
												<output> -2.3232396 </output>
											</split>
										</split>
										<split pos="right">
											<output> -2.179441 </output>
										</split>
									</split>
									<split pos="right">
										<output> -0.3832181 </output>
									</split>
								</split>
								<split pos="right">
									<output> 0.3035364 </output>
								</split>
							</split>
							<split pos="right">
								<output> -0.8779588 </output>
							</split>
						</split>
						<split pos="right">
							<output> -1.1933109 </output>
						</split>
					</split>
					<split pos="right">
						<output> 0.2559712 </output>
					</split>
				</split>
				<split pos="right">
					<output> -1.7890295 </output>
				</split>
			</split>
			<split pos="right">
				<output> 0.13838585 </output>
			</split>
		</split>
	</tree>
	<tree id="42" weight="0.1">
		<split>
			<feature> 40 </feature>
			<threshold> 0.78515625 </threshold>
			<split pos="left">
				<feature> 45 </feature>
				<threshold> 0.87890625 </threshold>
				<split pos="left">
					<feature> 40 </feature>
					<threshold> 0.75390625 </threshold>
					<split pos="left">
						<feature> 41 </feature>
						<threshold> 0.94921875 </threshold>
						<split pos="left">
							<feature> 41 </feature>
							<threshold> 0.9453125 </threshold>
							<split pos="left">
								<feature> 44 </feature>
								<threshold> 0.78125 </threshold>
								<split pos="left">
									<feature> 45 </feature>
									<threshold> 0.75 </threshold>
									<split pos="left">
										<feature> 40 </feature>
										<threshold> 0.73046875 </threshold>
										<split pos="left">
											<feature> 34 </feature>
											<threshold> 0.57421875 </threshold>
											<split pos="left">
												<output> -0.028461333 </output>
											</split>
											<split pos="right">
												<output> 0.48413587 </output>
											</split>
										</split>
										<split pos="right">
											<output> -1.1886593 </output>
										</split>
									</split>
									<split pos="right">
										<output> 0.3571301 </output>
									</split>
								</split>
								<split pos="right">
									<output> -0.5407398 </output>
								</split>
							</split>
							<split pos="right">
								<output> -2.9653313 </output>
							</split>
						</split>
						<split pos="right">
							<output> 0.68461066 </output>
						</split>
					</split>
					<split pos="right">
						<output> 0.6653936 </output>
					</split>
				</split>
				<split pos="right">
					<output> 0.56123817 </output>
				</split>
			</split>
			<split pos="right">
				<output> -0.25314954 </output>
			</split>
		</split>
	</tree>
	<tree id="43" weight="0.1">
		<split>
			<feature> 43 </feature>
			<threshold> 0.58984375 </threshold>
			<split pos="left">
				<feature> 30 </feature>
				<threshold> 0.390625 </threshold>
				<split pos="left">
					<feature> 43 </feature>
					<threshold> 0.484375 </threshold>
					<split pos="left">
						<feature> 25 </feature>
						<threshold> 0.30859375 </threshold>
						<split pos="left">
							<feature> 9 </feature>
							<threshold> 0.36328125 </threshold>
							<split pos="left">
								<output> -0.010797201 </output>
							</split>
							<split pos="right">
								<output> -0.53414965 </output>
							</split>
						</split>
						<split pos="right">
							<output> 0.22983158 </output>
						</split>
					</split>
					<split pos="right">
						<output> 0.5597088 </output>
					</split>
				</split>
				<split pos="right">
					<output> -0.23355156 </output>
				</split>
			</split>
			<split pos="right">
				<feature> 38 </feature>
				<threshold> 0.09375 </threshold>
				<split pos="left">
					<output> 0.56260663 </output>
				</split>
				<split pos="right">
					<feature> 40 </feature>
					<threshold> 0.18359375 </threshold>
					<split pos="left">
						<output> -0.8079318 </output>
					</split>
					<split pos="right">
						<feature> 40 </feature>
						<threshold> 0.19140625 </threshold>
						<split pos="left">
							<output> 0.70865977 </output>
						</split>
						<split pos="right">
							<feature> 25 </feature>
							<threshold> 0.4609375 </threshold>
							<split pos="left">
								<output> 0.1763032 </output>
							</split>
							<split pos="right">
								<output> -0.044085953 </output>
							</split>
						</split>
					</split>
				</split>
			</split>
		</split>
	</tree>
	<tree id="44" weight="0.1">
		<split>
			<feature> 40 </feature>
			<threshold> 0.7890625 </threshold>
			<split pos="left">
				<feature> 41 </feature>
				<threshold> 0.8125 </threshold>
				<split pos="left">
					<feature> 33 </feature>
					<threshold> 0.5703125 </threshold>
					<split pos="left">
						<feature> 12 </feature>
						<threshold> 0.953125 </threshold>
						<split pos="left">
							<feature> 14 </feature>
							<threshold> 0.91796875 </threshold>
							<split pos="left">
								<feature> 34 </feature>
								<threshold> 0.609375 </threshold>
								<split pos="left">
									<feature> 1 </feature>
									<threshold> 0.8 </threshold>
									<split pos="left">
										<feature> 2 </feature>
										<threshold> 0.8 </threshold>
										<split pos="left">
											<feature> 1 </feature>
											<threshold> 0.75 </threshold>
											<split pos="left">
												<output> -0.038528334 </output>
											</split>
											<split pos="right">
												<output> 0.82179976 </output>
											</split>
										</split>
										<split pos="right">
											<output> 0.70158106 </output>
										</split>
									</split>
									<split pos="right">
										<output> -0.83638597 </output>
									</split>
								</split>
								<split pos="right">
									<output> -1.9262004 </output>
								</split>
							</split>
							<split pos="right">
								<output> -3.58309 </output>
							</split>
						</split>
						<split pos="right">
							<output> 0.46193424 </output>
						</split>
					</split>
					<split pos="right">
						<output> 0.3892545 </output>
					</split>
				</split>
				<split pos="right">
					<output> 0.27218467 </output>
				</split>
			</split>
			<split pos="right">
				<output> -0.23915318 </output>
			</split>
		</split>
	</tree>
	<tree id="45" weight="0.1">
		<split>
			<feature> 25 </feature>
			<threshold> 0.96875 </threshold>
			<split pos="left">
				<feature> 27 </feature>
				<threshold> 0.9609375 </threshold>
				<split pos="left">
					<feature> 14 </feature>
					<threshold> 0.8125 </threshold>
					<split pos="left">
						<feature> 15 </feature>
						<threshold> 0.8125 </threshold>
						<split pos="left">
							<feature> 41 </feature>
							<threshold> 0.88671875 </threshold>
							<split pos="left">
								<feature> 42 </feature>
								<threshold> 0.95703125 </threshold>
								<split pos="left">
									<feature> 1 </feature>
									<threshold> 0.8 </threshold>
									<split pos="left">
										<feature> 2 </feature>
										<threshold> 0.773706 </threshold>
										<split pos="left">
											<feature> 9 </feature>
											<threshold> 0.51171875 </threshold>
											<split pos="left">
												<output> 0.0034217066 </output>
											</split>
											<split pos="right">
												<output> -0.17968158 </output>
											</split>
										</split>
										<split pos="right">
											<output> 0.6102347 </output>
										</split>
									</split>
									<split pos="right">
										<output> -0.75935435 </output>
									</split>
								</split>
								<split pos="right">
									<output> -1.7383047 </output>
								</split>
							</split>
							<split pos="right">
								<output> 0.59106797 </output>
							</split>
						</split>
						<split pos="right">
							<output> -4.279374 </output>
						</split>
					</split>
					<split pos="right">
						<output> 0.24257913 </output>
					</split>
				</split>
				<split pos="right">
					<output> 0.38360533 </output>
				</split>
			</split>
			<split pos="right">
				<output> -0.61578065 </output>
			</split>
		</split>
	</tree>
	<tree id="46" weight="0.1">
		<split>
			<feature> 13 </feature>
			<threshold> 0.2421875 </threshold>
			<split pos="left">
				<feature> 15 </feature>
				<threshold> 0.2734375 </threshold>
				<split pos="left">
					<output> -0.05613783 </output>
				</split>
				<split pos="right">
					<output> -1.4966754 </output>
				</split>
			</split>
			<split pos="right">
				<feature> 9 </feature>
				<threshold> 0.20703125 </threshold>
				<split pos="left">
					<output> 0.67177963 </output>
				</split>
				<split pos="right">
					<feature> 26 </feature>
					<threshold> 0.98046875 </threshold>
					<split pos="left">
						<feature> 27 </feature>
						<threshold> 0.9609375 </threshold>
						<split pos="left">
							<feature> 30 </feature>
							<threshold> 0.90625 </threshold>
							<split pos="left">
								<feature> 28 </feature>
								<threshold> 0.81640625 </threshold>
								<split pos="left">
									<feature> 29 </feature>
									<threshold> 0.8046875 </threshold>
									<split pos="left">
										<feature> 33 </feature>
										<threshold> 0.09765625 </threshold>
										<split pos="left">
											<output> 0.22110128 </output>
										</split>
										<split pos="right">
											<output> -0.046341218 </output>
										</split>
									</split>
									<split pos="right">
										<output> -1.4263728 </output>
									</split>
								</split>
								<split pos="right">
									<output> 0.49762374 </output>
								</split>
							</split>
							<split pos="right">
								<output> -1.6255757 </output>
							</split>
						</split>
						<split pos="right">
							<output> 0.53768617 </output>
						</split>
					</split>
					<split pos="right">
						<output> -0.7342426 </output>
					</split>
				</split>
			</split>
		</split>
	</tree>
	<tree id="47" weight="0.1">
		<split>
			<feature> 14 </feature>
			<threshold> 0.75390625 </threshold>
			<split pos="left">
				<feature> 11 </feature>
				<threshold> 0.73828125 </threshold>
				<split pos="left">
					<feature> 12 </feature>
					<threshold> 0.8828125 </threshold>
					<split pos="left">
						<feature> 12 </feature>
						<threshold> 0.87890625 </threshold>
						<split pos="left">
							<feature> 8 </feature>
							<threshold> 0.6015625 </threshold>
							<split pos="left">
								<feature> 8 </feature>
								<threshold> 0.59375 </threshold>
								<split pos="left">
									<feature> 11 </feature>
									<threshold> 0.73046875 </threshold>
									<split pos="left">
										<feature> 24 </feature>
										<threshold> 0.59765625 </threshold>
										<split pos="left">
											<feature> 31 </feature>
											<threshold> 0.640625 </threshold>
											<split pos="left">
												<output> -0.02108262 </output>
											</split>
											<split pos="right">
												<output> -0.965471 </output>
											</split>
										</split>
										<split pos="right">
											<output> 0.257561 </output>
										</split>
									</split>
									<split pos="right">
										<output> -2.8104172 </output>
									</split>
								</split>
								<split pos="right">
									<output> -1.6612608 </output>
								</split>
							</split>
							<split pos="right">
								<output> 0.32186893 </output>
							</split>
						</split>
						<split pos="right">
							<output> -0.6784459 </output>
						</split>
					</split>
					<split pos="right">
						<output> 0.3244869 </output>
					</split>
				</split>
				<split pos="right">
					<output> -0.55218506 </output>
				</split>
			</split>
			<split pos="right">
				<output> 0.1669611 </output>
			</split>
		</split>
	</tree>
	<tree id="48" weight="0.1">
		<split>
			<feature> 40 </feature>
			<threshold> 0.98828125 </threshold>
			<split pos="left">
				<feature> 8 </feature>
				<threshold> 0.796875 </threshold>
				<split pos="left">
					<feature> 40 </feature>
					<threshold> 0.78515625 </threshold>
					<split pos="left">
						<feature> 40 </feature>
						<threshold> 0.75390625 </threshold>
						<split pos="left">
							<feature> 14 </feature>
							<threshold> 0.84375 </threshold>
							<split pos="left">
								<feature> 4 </feature>
								<threshold> 0.6484375 </threshold>
								<split pos="left">
									<feature> 4 </feature>
									<threshold> 0.62109375 </threshold>
									<split pos="left">
										<feature> 4 </feature>
										<threshold> 0.6171875 </threshold>
										<split pos="left">
											<feature> 34 </feature>
											<threshold> 0.671875 </threshold>
											<split pos="left">
												<output> -0.021588722 </output>
											</split>
											<split pos="right">
												<output> 0.5781179 </output>
											</split>
										</split>
										<split pos="right">
											<output> -1.3555194 </output>
										</split>
									</split>
									<split pos="right">
										<output> 0.45242324 </output>
									</split>
								</split>
								<split pos="right">
									<output> -0.45146817 </output>
								</split>
							</split>
							<split pos="right">
								<output> 0.4810141 </output>
							</split>
						</split>
						<split pos="right">
							<output> 0.62880397 </output>
						</split>
					</split>
					<split pos="right">
						<output> -0.26949626 </output>
					</split>
				</split>
				<split pos="right">
					<output> 0.36750445 </output>
				</split>
			</split>
			<split pos="right">
				<output> -0.62504715 </output>
			</split>
		</split>
	</tree>
	<tree id="49" weight="0.1">
		<split>
			<feature> 43 </feature>
			<threshold> 0.58984375 </threshold>
			<split pos="left">
				<feature> 28 </feature>
				<threshold> 0.4140625 </threshold>
				<split pos="left">
					<feature> 43 </feature>
					<threshold> 0.484375 </threshold>
					<split pos="left">
						<feature> 9 </feature>
						<threshold> 0.82421875 </threshold>
						<split pos="left">
							<feature> 41 </feature>
							<threshold> 0.3828125 </threshold>
							<split pos="left">
								<feature> 40 </feature>
								<threshold> 0.4609375 </threshold>
								<split pos="left">
									<output> -0.05278851 </output>
								</split>
								<split pos="right">
									<output> -1.2439516 </output>
								</split>
							</split>
							<split pos="right">
								<output> 0.21621956 </output>
							</split>
						</split>
						<split pos="right">
							<output> -1.4370219 </output>
						</split>
					</split>
					<split pos="right">
						<output> 0.5995749 </output>
					</split>
				</split>
				<split pos="right">
					<output> -0.21042226 </output>
				</split>
			</split>
			<split pos="right">
				<feature> 40 </feature>
				<threshold> 0.125 </threshold>
				<split pos="left">
					<output> 0.91707814 </output>
				</split>
				<split pos="right">
					<feature> 33 </feature>
					<threshold> 0.01171875 </threshold>
					<split pos="left">
						<output> 2.883752 </output>
					</split>
					<split pos="right">
						<feature> 25 </feature>
						<threshold> 0.4609375 </threshold>
						<split pos="left">
							<output> 0.15941861 </output>
						</split>
						<split pos="right">
							<output> -0.031938143 </output>
						</split>
					</split>
				</split>
			</split>
		</split>
	</tree>
	<tree id="50" weight="0.1">
		<split>
			<feature> 44 </feature>
			<threshold> 0.86328125 </threshold>
			<split pos="left">
				<feature> 45 </feature>
				<threshold> 0.80078125 </threshold>
				<split pos="left">
					<feature> 27 </feature>
					<threshold> 0.9453125 </threshold>
					<split pos="left">
						<feature> 42 </feature>
						<threshold> 0.9609375 </threshold>
						<split pos="left">
							<feature> 30 </feature>
							<threshold> 0.89453125 </threshold>
							<split pos="left">
								<feature> 19 </feature>
								<threshold> 0.42578125 </threshold>
								<split pos="left">
									<feature> 41 </feature>
									<threshold> 0.7109375 </threshold>
									<split pos="left">
										<feature> 43 </feature>
										<threshold> 0.84375 </threshold>
										<split pos="left">
											<feature> 43 </feature>
											<threshold> 0.82421875 </threshold>
											<split pos="left">
												<output> -0.015638698 </output>
											</split>
											<split pos="right">
												<output> 1.5800319 </output>
											</split>
										</split>
										<split pos="right">
											<output> -1.409649 </output>
										</split>
									</split>
									<split pos="right">
										<output> 0.343318 </output>
									</split>
								</split>
								<split pos="right">
									<output> -0.19506839 </output>
								</split>
							</split>
							<split pos="right">
								<output> -2.7158492 </output>
							</split>
						</split>
						<split pos="right">
							<output> -2.4039757 </output>
						</split>
					</split>
					<split pos="right">
						<output> 0.29439414 </output>
					</split>
				</split>
				<split pos="right">
					<output> 0.36038244 </output>
				</split>
			</split>
			<split pos="right">
				<output> -0.26679268 </output>
			</split>
		</split>
	</tree>
	<tree id="51" weight="0.1">
		<split>
			<feature> 40 </feature>
			<threshold> 0.7890625 </threshold>
			<split pos="left">
				<feature> 40 </feature>
				<threshold> 0.74609375 </threshold>
				<split pos="left">
					<feature> 43 </feature>
					<threshold> 0.86328125 </threshold>
					<split pos="left">
						<feature> 44 </feature>
						<threshold> 0.77734375 </threshold>
						<split pos="left">
							<feature> 40 </feature>
							<threshold> 0.73046875 </threshold>
							<split pos="left">
								<feature> 45 </feature>
								<threshold> 0.82421875 </threshold>
								<split pos="left">
									<feature> 45 </feature>
									<threshold> 0.8203125 </threshold>
									<split pos="left">
										<feature> 45 </feature>
										<threshold> 0.765625 </threshold>
										<split pos="left">
											<feature> 34 </feature>
											<threshold> 0.57421875 </threshold>
											<split pos="left">
												<output> -0.02210105 </output>
											</split>
											<split pos="right">
												<output> 0.41283235 </output>
											</split>
										</split>
										<split pos="right">
											<output> 0.3644104 </output>
										</split>
									</split>
									<split pos="right">
										<output> -3.1790907 </output>
									</split>
								</split>
								<split pos="right">
									<output> 1.2714998 </output>
								</split>
							</split>
							<split pos="right">
								<output> -1.5638728 </output>
							</split>
						</split>
						<split pos="right">
							<output> -0.70160455 </output>
						</split>
					</split>
					<split pos="right">
						<output> 0.32515654 </output>
					</split>
				</split>
				<split pos="right">
					<output> 0.4886683 </output>
				</split>
			</split>
			<split pos="right">
				<output> -0.21005177 </output>
			</split>
		</split>
	</tree>
	<tree id="52" weight="0.1">
		<split>
			<feature> 2 </feature>
			<threshold> 0.648306 </threshold>
			<split pos="left">
				<feature> 2 </feature>
				<threshold> 0.64624 </threshold>
				<split pos="left">
					<feature> 9 </feature>
					<threshold> 0.66015625 </threshold>
					<split pos="left">
						<feature> 13 </feature>
						<threshold> 0.80859375 </threshold>
						<split pos="left">
							<feature> 12 </feature>
							<threshold> 0.96875 </threshold>
							<split pos="left">
								<feature> 10 </feature>
								<threshold> 0.75390625 </threshold>
								<split pos="left">
									<feature> 8 </feature>
									<threshold> 0.6015625 </threshold>
									<split pos="left">
										<feature> 8 </feature>
										<threshold> 0.59765625 </threshold>
										<split pos="left">
											<feature> 32 </feature>
											<threshold> 0.79296875 </threshold>
											<split pos="left">
												<output> -0.02551481 </output>
											</split>
											<split pos="right">
												<output> 0.483773 </output>
											</split>
										</split>
										<split pos="right">
											<output> -1.9196713 </output>
										</split>
									</split>
									<split pos="right">
										<output> 0.3131573 </output>
									</split>
								</split>
								<split pos="right">
									<output> -1.0005312 </output>
								</split>
							</split>
							<split pos="right">
								<output> 1.2215226 </output>
							</split>
						</split>
						<split pos="right">
							<output> 0.6316546 </output>
						</split>
					</split>
					<split pos="right">
						<output> -0.79434365 </output>
					</split>
				</split>
				<split pos="right">
					<output> -1.1475236 </output>
				</split>
			</split>
			<split pos="right">
				<output> 0.09906621 </output>
			</split>
		</split>
	</tree>
	<tree id="53" weight="0.1">
		<split>
			<feature> 44 </feature>
			<threshold> 0.86328125 </threshold>
			<split pos="left">
				<feature> 45 </feature>
				<threshold> 0.80078125 </threshold>
				<split pos="left">
					<feature> 2 </feature>
					<threshold> 0.333333 </threshold>
					<split pos="left">
						<feature> 9 </feature>
						<threshold> 0.43359375 </threshold>
						<split pos="left">
							<feature> 12 </feature>
							<threshold> 0.7734375 </threshold>
							<split pos="left">
								<feature> 3 </feature>
								<threshold> 0.25 </threshold>
								<split pos="left">
									<feature> 44 </feature>
									<threshold> 0.828125 </threshold>
									<split pos="left">
										<feature> 14 </feature>
										<threshold> 0.26171875 </threshold>
										<split pos="left">
											<feature> 15 </feature>
											<threshold> 0.234375 </threshold>
											<split pos="left">
												<output> -0.032969728 </output>
											</split>
											<split pos="right">
												<output> 0.52697915 </output>
											</split>
										</split>
										<split pos="right">
											<output> -0.51960593 </output>
										</split>
									</split>
									<split pos="right">
										<output> 1.3341814 </output>
									</split>
								</split>
								<split pos="right">
									<output> 0.35217738 </output>
								</split>
							</split>
							<split pos="right">
								<output> -1.1639274 </output>
							</split>
						</split>
						<split pos="right">
							<output> 0.75527817 </output>
						</split>
					</split>
					<split pos="right">
						<output> -0.0735773 </output>
					</split>
				</split>
				<split pos="right">
					<output> 0.32495576 </output>
				</split>
			</split>
			<split pos="right">
				<output> -0.26029184 </output>
			</split>
		</split>
	</tree>
	<tree id="54" weight="0.1">
		<split>
			<feature> 39 </feature>
			<threshold> 0.92578125 </threshold>
			<split pos="left">
				<feature> 39 </feature>
				<threshold> 0.56640625 </threshold>
				<split pos="left">
					<feature> 31 </feature>
					<threshold> 0.640625 </threshold>
					<split pos="left">
						<feature> 25 </feature>
						<threshold> 0.9921875 </threshold>
						<split pos="left">
							<feature> 26 </feature>
							<threshold> 0.9921875 </threshold>
							<split pos="left">
								<feature> 26 </feature>
								<threshold> 0.9765625 </threshold>
								<split pos="left">
									<feature> 8 </feature>
									<threshold> 0.828125 </threshold>
									<split pos="left">
										<feature> 41 </feature>
										<threshold> 0.98046875 </threshold>
										<split pos="left">
											<feature> 10 </feature>
											<threshold> 0.9296875 </threshold>
											<split pos="left">
												<output> -0.0082754 </output>
											</split>
											<split pos="right">
												<output> -0.80244654 </output>
											</split>
										</split>
										<split pos="right">
											<output> 1.054876 </output>
										</split>
									</split>
									<split pos="right">
										<output> 0.37556425 </output>
									</split>
								</split>
								<split pos="right">
									<output> -3.966365 </output>
								</split>
							</split>
							<split pos="right">
								<output> 1.1836922 </output>
							</split>
						</split>
						<split pos="right">
							<output> -1.0362674 </output>
						</split>
					</split>
					<split pos="right">
						<output> -0.84480613 </output>
					</split>
				</split>
				<split pos="right">
					<output> 0.26888216 </output>
				</split>
			</split>
			<split pos="right">
				<output> -0.5606882 </output>
			</split>
		</split>
	</tree>
	<tree id="55" weight="0.1">
		<split>
			<feature> 42 </feature>
			<threshold> 0.82421875 </threshold>
			<split pos="left">
				<feature> 43 </feature>
				<threshold> 0.703125 </threshold>
				<split pos="left">
					<feature> 25 </feature>
					<threshold> 0.42578125 </threshold>
					<split pos="left">
						<feature> 2 </feature>
						<threshold> 0.8 </threshold>
						<split pos="left">
							<feature> 9 </feature>
							<threshold> 0.37890625 </threshold>
							<split pos="left">
								<feature> 9 </feature>
								<threshold> 0.29296875 </threshold>
								<split pos="left">
									<feature> 12 </feature>
									<threshold> 0.7578125 </threshold>
									<split pos="left">
										<output> -0.02800963 </output>
									</split>
									<split pos="right">
										<output> -1.6958421 </output>
									</split>
								</split>
								<split pos="right">
									<output> 0.3177925 </output>
								</split>
							</split>
							<split pos="right">
								<output> -0.25317347 </output>
