SVM-light Version V6.02
0 # kernel type
3 # kernel parameter -d 
1 # kernel parameter -g 
1 # kernel parameter -s 
1 # kernel parameter -r 
empty# kernel parameter -u 
46 # highest feature index 
9442 # number of training documents 
1082 # number of support vectors plus 1 
0 # threshold b, each following line is a SV (starting with alpha*y)
-0.1678309828250806 1:0.007067 2:0 3:0.66666698 4:0 5:0.014134 6:0 7:0 8:0 9:0 10:0 11:0.0073480001 12:0 13:0.591833 14:0 15:0.014699 16:0 17:0.076922998 18:0.074074 19:1 20:0 21:0.69322199 22:1 23:0 24:1 25:0 26:0 27:0 28:0 29:1 30:1 31:0.222801 32:1 33:0 34:0 35:0 36:0 37:0.82000899 38:0.96016097 39:0 40:1 41:0.25 42:1 43:0 44:0.054745998 45:0.25 46:0 #docid = GX029-17-16711721 inc = 1 prob = 0.0825829
0.1678309828250806 1:0.056536999 2:0 3:0.66666698 4:1 5:0.067138001 6:0 7:0 8:0 9:0 10:0 11:0.058781002 12:0 13:0.591833 14:1 15:0.066747002 16:0.00398 17:0 18:0.296296 19:0.2 20:0.0040119998 21:0.94616997 22:0.732324 23:0.52096701 24:0.56238902 25:0 26:0 27:0 28:0 29:0.50459999 30:0.61648798 31:0.215857 32:0.72304899 33:1 34:0 35:0 36:0 37:0.95388502 38:0.91003299 39:0.49003401 40:0.84338403 41:0 42:0.125 43:0 44:0 45:0 46:0.076922998 #docid = GX029-35-5894638 inc = 0.0119881192468859 prob = 0.139842
-0.04389740201007597 1:0 2:0 3:0 4:0 5:0 6:0 7:0 8:0 9:0 10:0 11:0.67601401 12:0 13:0 14:0 15:0.66437799 16:0.003765 17:0.166667 18:0.375 19:0 20:0.0030779999 21:0 22:0 23:0 24:0 25:0 26:0 27:0 28:0 29:0 30:0 31:0 32:0 33:0 34:0 35:0 36:0 37:0 38:0 39:0 40:0 41:0 42:0.051282 43:0 44:1 45:1 46:0.205128 #docid = GX004-58-2379388 inc = 0.00787784586285098 prob = 0.0171166
0.04389740201007597 1:0.11245 2:0 3:1 4:0 5:0.116466 6:0 7:0 8:0 9:0 10:0 11:1 12:0 13:1 14:0 15:1 16:0.069472998 17:0 18:0.75 19:0.66666698 20:0.069766998 21:1 22:0.92970699 23:0.87387502 24:0.99520099 25:0 26:0 27:0 28:0 29:0.90110201 30:0 31:0 32:0 33:0 34:0 35:0 36:0 37:1 38:0.92298502 39:0.87455797 40:0.98643303 41:1 42:0.58974397 43:0 44:0 45:0 46:0.025641 #docid = GX051-80-1956661 inc = 1 prob = 0.790266
-0.13169085774901745 1:0.17956699 2:0 3:0 4:0 5:0.174455 6:0 7:0 8:0 9:0 10:0 11:0.0027999999 12:0 13:0 14:0 15:0.002287 16:0.084187999 17:1 18:0.57142901 19:0 20:0.084560998 21:0.017313 22:0.22022501 23:0.30669001 24:0.295506 25:0 26:0 27:0 28:0 29:0 30:0 31:0 32:0 33:0 34:0 35:0 36:0 37:0.018289 38:0.22082999 39:0.306274 40:0.29700199 41:0 42:0 43:0 44:0.264231 45:0.47368401 46:0.172414 #docid = GX000-03-7721182 inc = 1 prob = 0.0897452
0.32233211179059823 1:0.133127 2:0.88888901 3:1 4:0 5:0.161994 6:0 7:0 8:0 9:0 10:0 11:0.24618 12:0.809717 13:1 14:0 15:0.323971 16:0.01154 17:0.54166698 18:0.42857099 19:0.15000001 20:0.011761 21:0.83835697 22:0.897991 23:0.90007597 24:0.89761502 25:0.813411 26:1 27:0.91856003 28:0.91512698 29:1 30:1 31:1 32:1 33:0 34:0 35:0 36:0 37:0.900711 38:0.95680797 39:0.97184902 40:0.95478398 41:1 42:0.241071 43:0 44:0.17242 45:1 46:1 #docid = GX012-07-6597432 inc = 1 prob = 0.983119
-0.076024701186472754 1:0.312693 2:0 3:0 4:0 5:0.308411 6:0 7:0 8:0 9:0 10:0 11:1 12:0 13:0 14:0 15:1 16:0.79369903 17:0.125 18:0 19:0.1 20:0.79368299 21:0.192241 22:0.131064 23:0.106646 24:0.177882 25:0 26:0 27:0 28:0 29:0 30:0 31:0 32:0 33:0 34:0 35:0 36:0 37:0.197567 38:0.130629 39:0.104626 40:0.17767601 41:0.75 42:0.071428999 43:0 44:0.0028969999 45:0.052632 46:0 #docid = GX257-67-3786382 inc = 0.00736168560505746 prob = 0.10788
-0.11461655285510804 1:0.616099 2:0 3:0 4:0 5:0.61370701 6:0 7:0 8:0 9:0 10:0 11:0.241368 12:0 13:0 14:0 15:0.238894 16:1 17:0.125 18:0 19:0.15000001 20:1 21:0.013401 22:0.177246 23:0.179941 24:0.177743 25:0 26:0 27:0 28:0 29:0 30:0 31:0 32:0 33:0 34:0 35:0 36:0 37:0.014779 38:0.178911 39:0.180967 40:0.17903399 41:0.5 42:0.125 43:0 44:0.01004 45:0.105263 46:0 #docid = GX267-77-11931487 inc = 0.00671748260221875 prob = 0.106378
-0.30189044284620226 1:0.02 2:0.25 3:1 4:1 5:0.025 6:0 7:0 8:0 9:0 10:0 11:0.029098 12:0.25 13:1 14:1 15:0.037843 16:0.0046979999 17:0.013333 18:0.228571 19:0.190476 20:0.0047160001 21:0.85990298 22:0.88289899 23:0.611413 24:0.88629401 25:0.810381 26:0.565602 27:0.56404799 28:0.444538 29:0.66973299 30:0.84375602 31:0.99702698 32:0.88360101 33:1 34:1 35:1 36:1 37:0.88609099 38:0.88020301 39:0.66211599 40:0.88410699 41:0.33333299 42:0.225806 43:0 44:0.00020900001 45:0.0017509999 46:0.102564 #docid = GX230-23-8834831 inc = 0.0853328252787582 prob = 0.0900715
-1 1:0.043749999 2:0.5 3:1 4:1 5:0.050000001 6:0 7:0 8:0 9:0 10:0 11:0.033769999 12:0.5 13:1 14:1 15:0.044759002 16:0.020722 17:0.039999999 18:0.142857 19:0.190476 20:0.020722 21:0.68939698 22:0.71180397 23:0.621198 24:0.73693299 25:0.79518002 26:0.52993298 27:0.77375001 28:0.41786 29:0.890248 30:0.94968599 31:0.99925601 32:0.96252698 33:1 34:1 35:1 36:1 37:0.76255703 38:0.74498701 39:0.68705499 40:0.76229799 41:0.166667 42:0.150538 43:0 44:1 45:0.96322203 46:0.30769199 #docid = GX231-83-7677319 inc = 1 prob = 0.0919167
1.3018904428462021 1:0.33250001 2:0 3:0 4:0 5:0.33250001 6:0 7:0 8:0 9:0 10:0 11:0.058044001 12:0 13:0 14:0 15:0.056837 16:0.161672 17:0.026667001 18:0 19:0.238095 20:0.161579 21:0.46272299 22:0.563851 23:0.64817798 24:0.61437303 25:0 26:0 27:0 28:0 29:0 30:0 31:0 32:0 33:0 34:0 35:0 36:0 37:0.469109 38:0.55067998 39:0.65286398 40:0.60356402 41:0.66666698 42:0.225806 43:0 44:0.0020010001 45:0.0017509999 46:0 #docid = GX253-97-12198295 inc = 0.0169930414271608 prob = 0.0897592
-0.0045559372712113966 1:0.001657 2:1 3:0 4:0.5 5:0.0024860001 6:0 7:0 8:0 9:0 10:0 11:0 12:0.764162 13:0 14:0.5 15:0 16:0.0044479999 17:1 18:0 19:0 20:0.0045420001 21:0 22:0 23:0 24:0 25:0.764162 26:0 27:0 28:0 29:0 30:0 31:0 32:0 33:0.76807201 34:0 35:0 36:0 37:0 38:0 39:0 40:0 41:0 42:0.15000001 43:0 44:1 45:0.33333299 46:0.1875 #docid = GX000-58-1184657 inc = 1 prob = 0.0464543
0.0045559372712113966 1:0.0041430001 2:0 3:1 4:0 5:0.0057999999 6:0 7:0 8:0 9:0 10:0 11:0.0047510001 12:0 13:1 14:0 15:0.007278 16:0.00054699997 17:0 18:1 19:0.40000001 20:0.00066600001 21:0.91681802 22:1 23:0.64715302 24:0.85180801 25:0 26:0 27:0 28:0 29:1 30:1 31:1 32:1 33:0 34:0 35:0 36:0 37:0.98870403 38:0.94450802 39:0.72578299 40:0.71398801 41:0 42:0.22499999 43:0 44:0.24854399 45:0 46:0.0625 #docid = GX005-32-6186157 inc = 0.00809297330659143 prob = 0.117205
0.291307817857827 1:1 2:1 3:1 4:1 5:1 6:0 7:0 8:0 9:0 10:0 11:1 12:1 13:1 14:1 15:1 16:0.178147 17:1 18:1 19:0.40000001 20:0.180548 21:0.93693501 22:0.96320802 23:0.97792 24:0.809165 25:1 26:0 27:0 28:0 29:1 30:0 31:0 32:0 33:1 34:0 35:0 36:0 37:0.96633297 38:1 39:1 40:0.836887 41:0.25 42:0.40000001 43:0 44:1 45:1 46:1 #docid = GX003-74-12433332 inc = 1 prob = 0.403915
-0.20452226786518679 1:0.129353 2:0 3:0 4:0 5:0.117647 6:0 7:0 8:0 9:0 10:0 11:0.040525001 12:0 13:0 14:0 15:0.037510999 16:0.082711004 17:0.071428999 18:0 19:0 20:0.082635999 21:0 22:0 23:0 24:0 25:0 26:0 27:0 28:0 29:0 30:0 31:0 32:0 33:0 34:0 35:0 36:0 37:0 38:0 39:0 40:0 41:0.25 42:0.366667 43:0 44:0.281701 45:0.17647099 46:0.366667 #docid = GX034-07-4725670 inc = 0.0045068628621207 prob = 0.0598944
-0.051849099977634872 1:0.61194003 2:0 3:0 4:0 5:0.55656099 6:0 7:0 8:0 9:0 10:0 11:0.488837 12:0 13:0 14:0 15:0.451996 16:1 17:0.119048 18:0 19:1 20:1 21:0.045756999 22:0.50689298 23:0.53000402 24:0.48773101 25:0 26:0 27:0 28:0 29:0 30:0 31:0 32:0 33:0 34:0 35:0 36:0 37:0.052884001 38:0.51383603 39:0.52909702 40:0.49340099 41:1 42:1 43:0 44:0.053249002 45:0.058823999 46:0 #docid = GX230-04-2866017 inc = 0.00229862974285403 prob = 0.0952844
-0.034936450015005338 1:0.44278601 2:0 3:0 4:0 5:0.402715 6:0 7:0 8:0 9:0 10:0 11:0.536075 12:0 13:0 14:0 15:0.49661699 16:0.24422599 17:0.095238 18:0 19:0.80000001 20:0.244353 21:0.73298502 22:0.95477003 23:1 24:0.85408801 25:0 26:0 27:0 28:0 29:0 30:0 31:0 32:0 33:0 34:0 35:0 36:0 37:0.74752498 38:0.96476603 39:0.99352902 40:0.861857 41:0.5 42:0.966667 43:0 44:0.027601 45:0.058823999 46:0 #docid = GX252-33-10692677 inc = 1 prob = 0.196622
-0.46576569654855826 1:0.033238001 2:1 3:0.5 4:1 5:0.060380001 6:0 7:0 8:0 9:0 10:0 11:0.021810999 12:1 13:0.46853501 14:1 15:0.035700999 16:0.016818 17:1 18:0.53846198 19:0.33333299 20:0.018671 21:0.99466801 22:0.76080197 23:0.795614 24:0.67300999 25:0.80812699 26:1 27:1 28:1 29:0.75076097 30:0.35398099 31:0 32:0.41407299 33:0.90902698 34:0.584961 35:0.66633201 36:0.58496201 37:1 38:1 39:1 40:0.888264 41:0 42:0.297297 43:0 44:1 45:1 46:0.66666698 #docid = GX002-00-12974316 inc = 1 prob = 0.942575
-0.14141930933458813 1:0.004011 2:0.02 3:0.83333302 4:1 5:0.0040250001 6:0 7:0 8:0 9:0 10:0 11:0.001373 12:0.031780999 13:0.85903198 14:1 15:0.001377 16:0.001458 17:0 18:0.92307699 19:0 20:0.001458 21:0.85645801 22:1 23:0.283344 24:1 25:0.62228101 26:0.087777004 27:0.045802001 28:0.040132999 29:0.94930297 30:0.96199501 31:0.93010402 32:0.99099803 33:1 34:1 35:1 36:1 37:0.78604198 38:0.97993499 39:0.25975999 40:1 41:0 42:0 43:0 44:0.043517001 45:0 46:0.66666698 #docid = GX021-52-16527163 inc = 1 prob = 0.207164
0.11014795570685942 1:0.13409699 2:0.1 3:1 4:0 5:0.13686 6:0 7:0 8:0 9:0 10:0 11:0.136612 12:0.108002 13:1 14:0 15:0.13739499 16:0.132606 17:0.115942 18:1 19:0.5 20:0.132965 21:0.25103301 22:0.145135 23:0.75566202 24:0.135941 25:0.65482801 26:0.633268 27:0.308193 28:0.78984302 29:1 30:1 31:1 32:1 33:0 34:0 35:0 36:0 37:0.225477 38:0.168522 39:0.64115697 40:0.16185001 41:0 42:0.432432 43:0 44:0.036952998 45:0 46:0.33333299 #docid = GX233-26-11314023 inc = 0.014511144471929 prob = 0.750384
0.779528305841379 1:0.18338101 2:0.079999998 3:0.166667 4:0 5:0.182864 6:0 7:0 8:0 9:0 10:0 11:0.172291 12:0.12712499 13:0.249529 14:0 15:0.17354199 16:0.147826 17:0.20289899 18:0.46153799 19:0.66666698 20:0.14818799 21:0.207707 22:0.096864998 23:0.75055099 24:0.112972 25:0.39235401 26:0 27:0.129995 28:0.0071740001 29:0.43937799 30:0 31:0.15537 32:0 33:0 34:0 35:0 36:0 37:0.146164 38:0.087566003 39:0.59546 40:0.108295 41:0 42:0.62162203 43:0 44:0.078045003 45:0.15000001 46:0 #docid = GX241-82-7773430 inc = 0.0135218742480478 prob = 0.541851
-0.33453121481335302 1:0.036102999 2:0 3:0 4:0 5:0.032202002 6:0 7:0 8:0 9:0 10:0 11:0.031468 12:0 13:0 14:0 15:0.027693 16:0.023432 17:0.028986 18:0 19:0.5 20:0.02324 21:1 22:0.62946099 23:0.77958101 24:0.55011803 25:0 26:0 27:0 28:0 29:0 30:0 31:0 32:0 33:0 34:0 35:0 36:0 37:0.67494899 38:0.555825 39:0.62078899 40:0.516976 41:0.5 42:0.54054099 43:0 44:0.025978999 45:0.050000001 46:0 #docid = GX256-01-5108816 inc = 0.0234328235445197 prob = 0.5887
0.052039959148260984 1:1 2:0.02 3:0 4:0 5:1 6:0 7:0 8:0 9:0 10:0 11:1 12:0.031780999 13:0 14:0 15:1 16:1 17:0.057971001 18:0 19:0.33333299 20:1 21:0 22:0 23:0.74348998 24:0 25:0.294265 26:0.038456 27:0.045047998 28:0 29:0 30:0 31:0 32:0 33:0 34:0 35:0 36:0 37:0 38:0 39:0.58660698 40:0 41:0.5 42:0.432432 43:0 44:0 45:0 46:0 #docid = GX264-55-16328787 inc = 1 prob = 0.0269951
0.086119774775922586 1:0.026698999 2:0.66666698 3:0 4:0 5:0.029056 6:0 7:0 8:0 9:0 10:0 11:0.021793 12:0.62294197 13:0 14:0 15:0.02208 16:0.0059230002 17:0.34999999 18:0.071428999 19:0 20:0.0059949998 21:0.915645 22:0.82661498 23:0.51878202 24:0.83305502 25:0.55797398 26:0.21664301 27:0.0085549997 28:0.32332 29:0 30:0 31:0 32:0 33:0 34:0 35:0 36:0 37:0.914657 38:0.85266 39:0.55041498 40:0.861211 41:0.25 42:0.068701997 43:0 44:1 45:1 46:0.69999999 #docid = GX036-80-3831115 inc = 0.0177930585172513 prob = 0.263579
0.25629019803442876 1:0.043689001 2:0 3:0 4:0 5:0.041161999 6:0 7:0 8:0 9:0 10:0 11:0.047286 12:0 13:0 14:0 15:0.044275999 16:0.024553001 17:0.050000001 18:0.035714 19:0.045455001 20:0.024412001 21:0.70392901 22:0.53442103 23:0.485304 24:0.55527598 25:0 26:0 27:0 28:0 29:0 30:0 31:0 32:0 33:0 34:0 35:0 36:0 37:0.69307798 38:0.53860599 39:0.482687 40:0.56554103 41:0.5 42:0.17557301 43:0 44:0.0034620001 45:0.011364 46:0.5 #docid = GX063-52-10751704 inc = 0.00253079193727626 prob = 0.10681
-0.42909928052410473 1:0.033980999 2:1 3:0 4:1 5:0.043584 6:0 7:0 8:0 9:0 10:0 11:0.027969001 12:1 13:0 14:1 15:0.034398999 16:0.003123 17:0.30000001 18:0.214286 19:1 20:0.0040930002 21:1 22:1 23:0.585347 24:1 25:1 26:1 27:1 28:1 29:0 30:0 31:0 32:0 33:0.54529399 34:0 35:0 36:0 37:1 38:1 39:0.65098703 40:1 41:0.75 42:1 43:0 44:0.0031409999 45:0.005682 46:0 #docid = GX208-68-5999222 inc = 1 prob = 0.440306
-0.14135792344840237 1:1 2:0 3:1 4:0 5:1 6:0 7:0 8:0 9:0 10:0 11:1 12:0 13:1 14:0 15:1 16:0.98320103 17:0 18:0.42857099 19:0.045455001 20:0.983522 21:0.67086297 22:0.48101699 23:0.62857598 24:0.457468 25:0 26:0 27:0 28:0 29:0.67445499 30:1 31:1 32:1 33:0 34:0 35:0 36:0 37:0.66767299 38:0.48829299 39:0.62933898 40:0.469778 41:0.25 42:0.038167998 43:0 44:0 45:0 46:0 #docid = GX228-32-0863974 inc = 1 prob = 0.118663
0.1295499994918039 1:0.033980999 2:0 3:0 4:0 5:0.031477001 6:0 7:0 8:0 9:0 10:0 11:0.027969001 12:0 13:0 14:0 15:0.024985 16:0.0048099998 17:0.15000001 18:0.107143 19:0.090908997 20:0.0048469999 21:0.975003 22:0.91760099 23:0.57882202 24:0.91668999 25:0 26:0 27:0 28:0 29:0 30:0 31:0 32:0 33:0 34:0 35:0 36:0 37:0.95071101 38:0.90760702 39:0.57580501 40:0.91396099 41:0.25 42:0.114504 43:0 44:0.27243701 45:0.81818199 46:0.66666698 #docid = GX244-80-3169340 inc = 0.032870488368547 prob = 0.367488
0.098497231670351848 1:0.88835001 2:0 3:0 4:0 5:0.88377702 6:0 7:0 8:0 9:0 10:0 11:0.84392899 12:0 13:0 14:0 15:0.83893698 16:1 17:0.2 18:0 19:0 20:1 21:0.65848303 22:0.513547 23:0.67383897 24:0.485825 25:0 26:0 27:0 28:0 29:0 30:0 31:0 32:0 33:0 34:0 35:0 36:0 37:0.65483803 38:0.52051198 39:0.67351502 40:0.49796799 41:0.25 42:0.0076339999 43:0 44:0.001462 45:0.011364 46:0 #docid = GX271-83-0957978 inc = 0.0190059037722439 prob = 0.168997
0.61241567276657549 1:1 2:0.60000002 3:0 4:0 5:1 6:0 7:0 8:0 9:0 10:0 11:1 12:0.60000002 13:0 14:0 15:1 16:0.31315601 17:0.18867899 18:0.466667 19:0.105263 20:0.313761 21:0.39466399 22:0.49276799 23:0.59176803 24:0.61314398 25:1 26:0.77155203 27:0.79958802 28:0.64240301 29:0 30:0 31:0 32:0 33:0 34:0 35:0 36:0 37:0.37951601 38:0.500498 39:0.58466399 40:0.62903798 41:0.40000001 42:0.101124 43:0 44:0.041538998 45:0.29032299 46:0.075000003 #docid = GX031-91-13841286 inc = 1 prob = 0.132397
-0.14793096005733927 1:0.039427001 2:0 3:0.66666698 4:0 5:0.042254001 6:0 7:0 8:0 9:0 10:0 11:0.098286003 12:0 13:0.96811599 14:0 15:0.112797 16:0.0080709998 17:0 18:0.533333 19:0 20:0.0075670001 21:1 22:1 23:0.93032902 24:1 25:0 26:0 27:0 28:0 29:1 30:1 31:1 32:0.92416501 33:0 34:0 35:0 36:0 37:1 38:1 39:0.94456702 40:1 41:0.40000001 42:0.134831 43:0 44:0 45:0 46:0.1 #docid = GX231-66-4189329 inc = 0.134394576633935 prob = 0.466902
-0.46448471270923619 1:0.035842001 2:0 3:0.66666698 4:0 5:0.038732 6:0 7:0 8:0 9:0 10:0 11:0.080499001 12:0 13:0.96811599 14:0 15:0.095260002 16:0.008374 17:0 18:0.533333 19:0 20:0.0078689996 21:0.96871901 22:0.973894 23:0.91384798 24:0.98214298 25:0 26:0 27:0 28:0 29:1 30:1 31:1 32:0.92416501 33:0 34:0 35:0 36:0 37:0.97722298 38:0.978172 39:0.93064803 40:0.98563898 41:0.40000001 42:0.134831 43:0 44:0 45:0 46:0.1 #docid = GX231-83-15831348 inc = 1 prob = 0.434913
0.48359612988354062 1:0.039547998 2:1 3:0 4:1 5:0.050562002 6:0 7:0 8:0 9:0 10:0 11:0.036191002 12:1 13:0 14:1 15:0.047237001 16:0.0090969997 17:0.25 18:0.33333299 19:0 20:0.0076830001 21:1 22:1 23:0.82191402 24:1 25:1 26:1 27:1 28:1 29:0 30:0 31:0 32:0 33:1 34:1 35:1 36:1 37:1 38:1 39:0.89925498 40:1 41:0.25 42:0.012821 43:0 44:0.119949 45:0.015152 46:0.038462002 #docid = GX010-87-14702853 inc = 1 prob = 0.196285
-0.11451563588963509 1:0.011299 2:0 3:0 4:0 5:0.011236 6:0 7:0 8:0 9:0 10:0 11:0.0087820003 12:0 13:0 14:0 15:0.0087430002 16:0.005142 17:0.5 18:0.33333299 19:0.111111 20:0.00404 21:0.037099 22:0.18844099 23:0.068111002 24:0.052448001 25:0 26:0 27:0 28:0 29:0 30:0 31:0 32:0 33:0 34:0 35:0 36:0 37:0.061459001 38:0.159637 39:0.072097003 40:0.027762 41:0.5 42:0.089744002 43:0 44:0.24873801 45:0.030303 46:0.153846 #docid = GX057-03-0983233 inc = 1 prob = 0.0200628
-0.20529201678817088 1:0 2:0 3:0 4:0 5:0 6:0 7:0 8:0 9:0 10:0 11:0 12:0 13:0 14:0 15:0 16:0 17:0.625 18:0 19:1 20:0 21:0 22:0.40163001 23:0 24:0.30055699 25:0 26:0 27:0 28:0 29:0 30:0 31:0 32:0 33:0 34:0 35:0 36:0 37:0 38:0.116213 39:0 40:0.074529998 41:0.75 42:1 43:0 44:0.002777 45:0.015152 46:0 #docid = GX063-44-6989547 inc = 0.00842632330692098 prob = 0.0889032
-0.079395354383528627 1:0.0056500002 2:0 3:0 4:0 5:0.0056179999 6:0 7:0 8:0 9:0 10:0 11:0.0048099998 12:0 13:0 14:0 15:0.0047869999 16:0.034093 17:1 18:0.444444 19:0.055555999 20:0.033346999 21:0.044918001 22:0.152815 23:0.267629 24:0.39450899 25:0 26:0 27:0 28:0 29:0 30:0 31:0 32:0 33:0 34:0 35:0 36:0 37:0.071877003 38:0.14040899 39:0.27271199 40:0.37747899 41:0 42:0.051282 43:0 44:0.216842 45:0.030303 46:0.84615397 #docid = GX103-77-9540791 inc = 0.00650572284566316 prob = 0.0436714
-0.029053798964635003 1:0.022599 2:1 3:1 4:0 5:0.033707999 6:0 7:0 8:0 9:0 10:0 11:0.02176 12:1 13:1 14:0 15:0.032876998 16:0.011391 17:0.25 18:0.555556 19:0 20:0.010139 21:0.69222498 22:0.67387599 23:0.57267898 24:0.79410702 25:1 26:1 27:1 28:1 29:1 30:1 31:1 32:1 33:0 34:0 35:0 36:0 37:0.71720201 38:0.68643701 39:0.651802 40:0.80088001 41:0 42:0.179487 43:0 44:1 45:1 46:0 #docid = GX243-26-14691161 inc = 1 prob = 0.230292
-0.05533932385757101 1:0.27118599 2:0 3:0 4:0 5:0.26966301 6:0 7:0 8:0 9:0 10:0 11:0.235938 12:0 13:0 14:0 15:0.23475599 16:0.28437001 17:0.5 18:0 19:0.38888901 20:0.283802 21:0.50233901 22:0.57895797 23:1 24:0.559641 25:0 26:0 27:0 28:0 29:0 30:0 31:0 32:0 33:0 34:0 35:0 36:0 37:0.50777698 38:0.56182802 39:1 40:0.54761398 41:1 42:0.410256 43:0 44:0.0054159998 45:0.015152 46:0 #docid = GX264-54-5027968 inc = 1 prob = 0.372248
-0.0066555598302073804 1:0 2:0.1 3:0.5 4:0.5 5:0 6:0 7:0 8:0 9:0 10:0 11:0 12:0.136106 13:0.62635899 14:0.81792498 15:0 16:0 17:0.036364 18:0.071428999 19:0.34999999 20:0 21:0 22:0 23:0 24:0 25:1 26:0.81843501 27:0.571051 28:0.39446601 29:1 30:0.96356797 31:0.82903701 32:0.64776099 33:0.605748 34:0.686903 35:0.97690499 36:0.52383602 37:0 38:0 39:0 40:0 41:1 42:0.5 43:0 44:0.0026799999 45:0.050000001 46:0 #docid = GX032-77-4671304 inc = 1 prob = 0.0809401
0.0066555598302073804 1:1 2:0.1 3:0.5 4:0.5 5:1 6:0 7:0 8:0 9:0 10:0 11:0.23291001 12:0.065155998 13:0.34591901 14:0.18207499 15:0.101516 16:1 17:0.18181799 18:0.71428603 19:0.1 20:1 21:0.67123902 22:0.848943 23:1 24:0.93893498 25:0.17449 26:0 27:0 28:0 29:0.20004199 30:0 31:0 32:0 33:0.165511 34:0.010966 35:0.001586 36:0.0098620001 37:0.606148 38:0.88606697 39:1 40:0.94791901 41:0.33333299 42:0.244444 43:0 44:0.00099600002 45:0.050000001 46:0.058823999 #docid = GX092-00-16472315 inc = 0.00467449347769702 prob = 0.18737
-0.73065147760977922 1:0.014205 2:1 3:1 4:1 5:0.025605001 6:0 7:0 8:0 9:0 10:0 11:0.0086859995 12:1 13:1 14:1 15:0.021762 16:0.0038719999 17:0.29411799 18:0.33333299 19:1 20:0.0043660002 21:0.44580099 22:0.51248699 23:0.228861 24:0.50831002 25:1 26:1 27:1 28:1 29:1 30:1 31:1 32:1 33:1 34:0 35:0 36:0 37:0.54878002 38:0.69360501 39:0.31754801 40:0.61744499 41:0.66666698 42:1 43:0 44:0.062042002 45:0.2 46:0 #docid = GX006-00-5738776 inc = 0.00240057186838373 prob = 0.0940265
0.68548495167054391 1:0.13068201 2:0 3:0 4:0 5:0.129445 6:0 7:0 8:0 9:0 10:0 11:0.046394002 12:0 13:0 14:0 15:0.042567998 16:0.18631101 17:0.235294 18:0 19:0.33333299 20:0.186432 21:0.21571501 22:0.461128 23:0.59297699 24:0.65755397 25:0 26:0 27:0 28:0 29:0 30:0 31:0 32:0 33:0 34:0 35:0 36:0 37:0.206284 38:0.476327 39:0.57538903 40:0.659114 41:0.66666698 42:0.38888901 43:0 44:0.56708097 45:0 46:0 #docid = GX232-47-1836193 inc = 1 prob = 0.297692
0.045166525939235314 1:1 2:0 3:0 4:0 5:1 6:0 7:0 8:0 9:0 10:0 11:1 12:0 13:0 14:0 15:1 16:1 17:0.058823999 18:0 19:0.222222 20:1 21:0.80651098 22:0.72182202 23:0.84884101 24:0.818905 25:0 26:0 27:0 28:0 29:0 30:0 31:0 32:0 33:0 34:0 35:0 36:0 37:0.80063897 38:0.73121202 39:0.84345901 40:0.82061398 41:0.66666698 42:0 43:0 44:0.114395 45:0.2 46:0 #docid = GX261-45-3818732 inc = 1 prob = 0.36341
-0.034515169346438758 1:0.012882 2:0 3:1 4:0 5:0.019293001 6:0 7:0 8:0 9:0 10:0 11:0.013197 12:0 13:1 14:0 15:0.019455001 16:0.001533 17:0.23076899 18:1 19:0.25 20:0.001821 21:0.979482 22:1 23:0.69567603 24:0.86842698 25:0 26:0 27:0 28:0 29:0.81717402 30:1 31:1 32:0.92707902 33:0 34:0 35:0 36:0 37:1 38:0.98376501 39:0.75040799 40:0.94866002 41:0.42857099 42:0.24324299 43:0 44:0.010398 45:0.001412 46:0.034483001 #docid = GX009-55-4580798 inc = 1 prob = 0.346868
0.017289927563412077 1:0.0032210001 2:0.5 3:0.5 4:0 5:0.0096460003 6:0 7:0 8:0 9:0 10:0 11:0.003457 12:0.5 13:0.5 14:0 15:0.0097270003 16:0.0023960001 17:0.23076899 18:0.30769199 19:0.58333302 20:0.0025239999 21:0.78521198 22:0.71438998 23:0.497825 24:0.68467301 25:1 26:1 27:0.73164898 28:1 29:1 30:0.94747603 31:0.74801099 32:1 33:0 34:0 35:0 36:0 37:0.91195202 38:0.82717401 39:0.62462997 40:0.82440501 41:0.57142901 42:0.54054099 43:0 44:0.00030700001 45:0.001412 46:0 #docid = GX028-87-16106533 inc = 1 prob = 0.0180413
2.5162176751081233e-006 1:0.035427 2:0 3:0.5 4:0 5:0.038585 6:0 7:0 8:0 9:0 10:0 11:0.035503 12:0 13:0.5 14:0 15:0.038488999 16:0.015876001 17:0.23076899 18:0.46153799 19:0.66666698 20:0.016101001 21:0.95002002 22:0.76733702 23:0.83746201 24:0.67510498 25:0 26:0 27:0 28:0 29:0.80220401 30:0.87344199 31:0.747639 32:0.93910098 33:0 34:0 35:0 36:0 37:0.95253003 38:0.76245099 39:0.84136498 40:0.746858 41:1 42:0.66216201 43:0 44:0.011627 45:0.0028250001 46:0.034483001 #docid = GX056-17-6965537 inc = 1 prob = 0.577886
0.2070426009269335 1:0.028986 2:0 3:0.5 4:0 5:0.032154001 6:0 7:0 8:0 9:0 10:0 11:0.02922 12:0 13:0.5 14:0 15:0.032214999 16:0.015333 17:0.23076899 18:0.46153799 19:0.66666698 20:0.015558 21:0.927908 22:0.74077302 23:0.80182099 24:0.65600199 25:0 26:0 27:0 28:0 29:0.80220401 30:0.87344199 31:0.747639 32:0.93910098 33:0 34:0 35:0 36:0 37:0.93363702 38:0.73885798 39:0.80764699 40:0.727593 41:1 42:0.64864898 43:0 44:0.011628 45:0.0028250001 46:0.034483001 #docid = GX063-25-14900249 inc = 1 prob = 0.327559
-0.22433504470802068 1:0.00161 2:0 3:0.25 4:1 5:0.0048230002 6:0 7:0 8:0 9:0 10:0 11:0.001728 12:0 13:0.241998 14:1 15:0.0045480002 16:0.002012 17:0 18:0.46153799 19:0 20:0.001885 21:0.69151801 22:0.61392802 23:0.425686 24:0.65963697 25:0 26:0 27:0 28:0 29:0.388264 30:0.056253001 31:0.00074300001 32:0.038362 33:1 34:1 35:1 36:1 37:0.74167299 38:0.65854198 39:0.47466201 40:0.75343001 41:0 42:0 43:0 44:0 45:0 46:0.137931 #docid = GX225-76-16220036 inc = 1 prob = 0.0899728
0.034515169346438758 1:1 2:0 3:0 4:1 5:1 6:0 7:0 8:0 9:0 10:0 11:1 12:0 13:0 14:1 15:1 16:1 17:0.23076899 18:0 19:0.41666701 20:1 21:0.848176 22:0.62347299 23:0.98157698 24:0.55496198 25:0 26:0 27:0 28:0 29:0 30:0 31:0 32:0 33:0.79153198 34:0.276519 35:0.44389901 36:0.326792 37:0.84726298 38:0.61357498 39:0.97417003 40:0.60781801 41:0.57142901 42:0.44594601 43:0 44:0.0041669998 45:0.001412 46:0 #docid = GX251-15-4320099 inc = 1 prob = 0.537598
-0.079862167415435711 1:0.104693 2:0.166667 3:0.166667 4:1 5:0.099265002 6:0 7:0 8:0 9:0 10:0 11:0.269793 12:0.195654 13:0.190357 14:1 15:0.296143 16:0.0043600001 17:0.096153997 18:0.076922998 19:0 20:0.0033869999 21:0.51738298 22:0.55172497 23:0.640935 24:0.28364801 25:0.39484599 26:0 27:0 28:0 29:0.60309303 30:0 31:0 32:0 33:1 34:0 35:0 36:0 37:0.528552 38:0.549932 39:0.645024 40:0.28257799 41:0.25 42:0 43:0 44:0.025150999 45:0.227273 46:0.52381003 #docid = GX001-57-10486467 inc = 0.00701490994864011 prob = 0.0826056
0.079862167415435711 1:0.46209401 2:1 3:0.5 4:0 5:0.48529401 6:0 7:0 8:0 9:0 10:0 11:0.94718599 12:1 13:0.49317199 14:0 15:1 16:0.055365998 17:1 18:0.179487 19:0.42857099 20:0.056090001 21:0.808384 22:0.78328699 23:0.94193 24:0.74873197 25:0.27193999 26:0.054715998 27:0.939762 28:0.71551597 29:1 30:1 31:0.48186901 32:1 33:0 34:0 35:0 36:0 37:0.83485198 38:0.80044699 39:0.966856 40:0.76499999 41:0.5 42:0.179104 43:0 44:1 45:1 46:0.35714301 #docid = GX005-21-3275422 inc = 1 prob = 0.442791
0.1800373005239998 1:0.13880099 2:0 3:0 4:0 5:0.137931 6:0 7:0 8:0 9:0 10:0 11:0.11534 12:0 13:0 14:0 15:0.1144 16:0.106019 17:0.25 18:0.77777803 19:0.33333299 20:0.105281 21:0.81693298 22:0.782812 23:0.85050601 24:0.79095203 25:0 26:0 27:0 28:0 29:0 30:0 31:0 32:0 33:0 34:0 35:0 36:0 37:0.81408399 38:0.76769 39:0.83249801 40:0.77820498 41:0 42:0 43:0 44:0.031445 45:0.466667 46:0.125 #docid = GX000-11-7751005 inc = 1 prob = 0.558649
-0.11247895810142206 1:0 2:0 3:0 4:0 5:0 6:0 7:0 8:0 9:0 10:0 11:0 12:0 13:0 14:0 15:0 16:0.085395001 17:0 18:0 19:0 20:0.083765998 21:0.330663 22:0.45302799 23:0.46667299 24:0.50658202 25:0 26:0 27:0 28:0 29:0 30:0 31:0 32:0 33:0 34:0 35:0 36:0 37:0.335311 38:0.43953201 39:0.449965 40:0.49524799 41:0 42:0.12766001 43:0 44:0.035641 45:0.26666701 46:0.375 #docid = GX000-44-5527765 inc = 1 prob = 0.0689177
0.17979855649716825 1:0.072554998 2:0.66666698 3:1 4:0 5:0.084638998 6:0 7:0 8:0 9:0 10:0 11:0.066935003 12:0.611817 13:1 14:0 15:0.078677997 16:0.01685 17:0.375 18:0.33333299 19:0 20:0.015782 21:0.94103801 22:0.91850603 23:0.83871102 24:0.92162198 25:0.79141498 26:0.91906798 27:0.85720801 28:0.940512 29:0.93156803 30:1 31:1 32:1 33:0 34:0 35:0 36:0 37:0.950692 38:0.92266703 39:0.84805399 40:0.92615497 41:0 42:0.085106 43:0 44:0 45:0 46:0.1875 #docid = GX021-92-4384142 inc = 0.0165986542709038 prob = 0.883511
-0.56332954454389228 1:0.078864001 2:0.33333299 3:0 4:0.5 5:0.084638998 6:0 7:0 8:0 9:0 10:0 11:0.027000999 12:0.223635 13:0 14:0.407188 15:0.030151 16:0.014423 17:0.0625 18:0.111111 19:1 20:0.013287 21:0 22:0 23:0 24:0 25:0.60451299 26:0 27:0 28:0 29:0 30:0 31:0 32:0 33:0.34683001 34:0 35:0 36:0 37:0 38:0 39:0 40:0 41:1 42:1 43:0 44:0.10026 45:0 46:0 #docid = GX046-92-14795690 inc = 1 prob = 0.0132286
0.20349368752272157 1:0.056782 2:1 3:1 4:0 5:0.072099999 6:0 7:0 8:0 9:0 10:0 11:0.055996001 12:1 13:1 14:0 15:0.072414003 16:0 17:1 18:0.77777803 19:0.33333299 20:0 21:0.98076802 22:1 23:0.82505 24:1 25:0.59338498 26:0.88371903 27:1 28:0.844962 29:0.62390202 30:0.61147201 31:0.99193799 32:0.78960103 33:0 34:0 35:0 36:0 37:0.98766297 38:1 39:0.84446698 40:1 41:0.25 42:0.29787201 43:0 44:1 45:1 46:0 #docid = GX244-70-15324710 inc = 1 prob = 0.951999
0.11247895810142472 1:0.19873799 2:0.66666698 3:1 4:1 5:0.21630099 6:0 7:0 8:0 9:0 10:0 11:0.18829399 12:0.611817 13:1 14:1 15:0.20511 16:0.038754001 17:0.25 18:0.66666698 19:0.33333299 20:0.037904002 21:1 22:0.988895 23:1 24:0.98351997 25:1 26:1 27:0.85763001 28:1 29:0.68005198 30:0.68620598 31:0.99395198 32:0.83012998 33:1 34:1 35:1 36:1 37:1 38:0.98638701 39:1 40:0.982449 41:0 42:0.44680899 43:0 44:0.001758 45:0.066666998 46:0.125 #docid = GX252-64-15491683 inc = 0.0544143698869272 prob = 0.983919
-0.0089940251118143522 1:0.039310001 2:0 3:0 4:0 5:0.039310001 6:0 7:0 8:0 9:0 10:0 11:0.31257701 12:0 13:0 14:0 15:0.31056401 16:0.032019999 17:0.52631599 18:0.88235301 19:0.26666701 20:0.032737002 21:0.14516801 22:0.083632998 23:0.22608399 24:0 25:0 26:0 27:0 28:0 29:0 30:0 31:0 32:0 33:0 34:0 35:0 36:0 37:0.14398199 38:0.073408 39:0.219302 40:0 41:0.60000002 42:0.25714299 43:0 44:2.4999999e-005 45:0.00013499999 46:0.089005001 #docid = GX063-80-15051765 inc = 0.00822259549877422 prob = 0.0769266
0.026080210279036287 1:0.52444899 2:0.40000001 3:0.66666698 4:1 5:0.52924299 6:0 7:0 8:0 9:0 10:0 11:1 12:0.43056399 13:0.84712601 14:1 15:1 16:0.28586701 17:0.210526 18:0.235294 19:0.066666998 20:0.285833 21:0.93021703 22:1 23:1 24:1 25:0.59005302 26:0.79529399 27:0.78252 28:0.680695 29:0.753434 30:0.92831999 31:0.99406201 32:0.90213799 33:1 34:1 35:1 36:1 37:0.93533802 38:1 39:1 40:1 41:0.2 42:0.047619 43:0 44:0.00014400001 45:0.00013499999 46:0.089005001 #docid = GX225-75-12296992 inc = 1 prob = 0.894297
-0.017086185167221934 1:0 2:0 3:0 4:0 5:0 6:0 7:0 8:0 9:0 10:0 11:0.316502 12:0 13:0 14:0 15:0.314522 16:0 17:0.105263 18:0.117647 19:0.26666701 20:0 21:0 22:0 23:0 24:0 25:0 26:0 27:0 28:0 29:0 30:0 31:0 32:0 33:0 34:0 35:0 36:0 37:0 38:0 39:0 40:0 41:0.40000001 42:0.29523799 43:0 44:9.0000003e-006 45:0.00013499999 46:0 #docid = GX255-00-12753389 inc = 1 prob = 0.0823706
1.7763568394002505e-015 1:1 2:1 3:0 4:1 5:1 6:0 7:0 8:0 9:0 10:0 11:1 12:1 13:0 14:1 15:1 16:1 17:0.444444 18:0 19:0.875 20:1 21:0.49001601 22:0.64504701 23:0.73746097 24:0.62073302 25:1 26:0 27:0 28:0 29:0 30:0 31:0 32:0 33:1 34:1 35:1 36:1 37:0.498366 38:0.64949298 39:0.738644 40:0.62469602 41:1 42:0.84444398 43:0 44:0.044709999 45:0.058823999 46:0 #docid = GX261-05-2600556 inc = 0.0104417580902444 prob = 0.121022
-1.7763568394002505e-015 1:0.050691001 2:0 3:0 4:0 5:0.049424998 6:0 7:0 8:0 9:0 10:0 11:0.033927001 12:0 13:0 14:0 15:0.031677999 16:0.048618 17:0.222222 18:0 19:0.5 20:0.048682 21:0.205634 22:0.31998101 23:0.33850399 24:0.32278401 25:0 26:0 27:0 28:0 29:0 30:0 31:0 32:0 33:0 34:0 35:0 36:0 37:0.21201301 38:0.322887 39:0.34026599 40:0.32548499 41:0.33333299 42:0.77777803 43:0 44:0.035519 45:0.058823999 46:0 #docid = GX271-93-7599658 inc = 1 prob = 0.0139336
-0.014242494167716988 1:0.082183003 2:0 3:0.5 4:1 5:0.082286 6:0 7:0 8:0 9:0 10:0 11:0.71400797 12:0 13:0.62783301 14:1 15:0.72079802 16:0.032963 17:0.17647099 18:0.5 19:0.15000001 20:0.033137001 21:1 22:0.98098397 23:0.82802999 24:0.97868299 25:0 26:0 27:0 28:0 29:0.55043203 30:0.38860399 31:0.83542103 32:0.29498801 33:1 34:1 35:1 36:1 37:1 38:0.975541 39:0.82612503 40:0.982337 41:0.5 42:0.13513499 43:0 44:0.010413 45:0.0034479999 46:0 #docid = GX027-72-16532159 inc = 1 prob = 0.398164
0.014242494167716988 1:0.33877 2:1 3:0 4:0 5:0.339196 6:0 7:0 8:0 9:0 10:0 11:1 12:1 13:0 14:0 15:1 16:0.158731 17:0.235294 18:0 19:0.15000001 20:0.158783 21:0.92826599 22:1 23:1 24:0.99320799 25:0.75575799 26:1 27:1 28:1 29:0 30:0 31:0 32:0 33:0 34:0 35:0 36:0 37:0.92928499 38:1 39:1 40:1 41:0.5 42:0.144144 43:0 44:0.028217999 45:0.0034479999 46:0 #docid = GX263-30-0097223 inc = 1 prob = 0.650802
0.59156906218050542 1:0.017197 2:0 3:0 4:0 5:0.017197 6:0 7:0 8:0 9:0 10:0 11:0.021098999 12:0 13:0 14:0 15:0.017475 16:0.014391 17:0.88888901 18:0.52631599 19:0.117647 20:0.014557 21:0.67890698 22:0.64394897 23:0.52943999 24:0.74173301 25:0 26:0 27:0 28:0 29:0 30:0 31:0 32:0 33:0 34:0 35:0 36:0 37:0.61935598 38:0.62963003 39:0.52902597 40:0.72575498 41:0 42:0.086957 43:0 44:0.239079 45:0.82692301 46:0.57894701 #docid = GX000-10-0099463 inc = 1 prob = 0.154248
-2.7658269473396193 1:0.011178 2:1 3:1 4:1 5:0.016337 6:0 7:0 8:0 9:0 10:0 11:0.028322 12:1 13:0.90050399 14:1 15:0.042481001 16:0 17:0.111111 18:0.31578901 19:0.470588 20:0 21:1 22:0.93929499 23:0.61229903 24:0.738563 25:1 26:1 27:1 28:1 29:1 30:1 31:0.88674003 32:1 33:1 34:1 35:1 36:1 37:1 38:0.99934101 39:0.73812699 40:0.77966797 41:0.75 42:0.68115902 43:0 44:0.034201 45:0 46:0 #docid = GX174-79-2969816 inc = 1 prob = 0.487808
0.071965627168189272 1:0.030095 2:0 3:0 4:0 5:0.030095 6:0 7:0 8:0 9:0 10:0 11:0.063206002 12:0 13:0 14:0 15:0.058961999 16:0.014488 17:0.444444 18:0 19:1 20:0.014686 21:0.89496398 22:0.85936099 23:0.77047199 24:0.93676299 25:0 26:0 27:0 28:0 29:0 30:0 31:0 32:0 33:0 34:0 35:0 36:0 37:0.80783898 38:0.84152597 39:0.76480699 40:0.91838902 41:0.75 42:1 43:0 44:0.00074699998 45:0 46:0 #docid = GX204-75-11857377 inc = 0.0697632415740369 prob = 0.773226
1 1:0.062769003 2:0 3:0.5 4:0 5:0.063629001 6:0 7:0 8:0 9:0 10:0 11:0.124279 12:0 13:0.399966 14:0 15:0.118361 16:0.028782999 17:0.222222 18:0.157895 19:0.29411799 20:0.02863 21:0.95550501 22:0.99294102 23:0.996741 24:0.99217999 25:0 26:0 27:0 28:0 29:0.63152897 30:0.29071301 31:0 32:0.129939 33:0 34:0 35:0 36:0 37:0.86740202 38:0.99290299 39:0.99667102 40:0.992172 41:0.5 42:0.057971001 43:0 44:0.00049000001 45:0.019231001 46:0 #docid = GX212-68-15754718 inc = 0.0697632415740369 prob = 0.902
0.10229225799092456 1:0.300946 2:0 3:0 4:1 5:0.30266601 6:0 7:0 8:0 9:0 10:0 11:0.076884001 12:0 13:0 14:0.21519101 15:0.062532 16:0.183924 17:0.222222 18:0.157895 19:0.17647099 20:0.18375801 21:0.56919497 22:0.65726399 23:0.85486698 24:0.68575197 25:0 26:0 27:0 28:0 29:0 30:0 31:0 32:0 33:0.34369799 34:0 35:0 36:0 37:0.53233099 38:0.66913599 39:0.86445397 40:0.69577199 41:0 42:0.057971001 43:0 44:0.0081820004 45:0 46:0 #docid = GX246-06-16181720 inc = 1 prob = 0.802977
1 1:0.023216 2:0 3:0 4:1 5:0.024936 6:0 7:0 8:0 9:0 10:0 11:0.027078001 12:0 13:0 14:0.21519101 15:0.023398999 16:0.0088740001 17:1 18:0 19:0.117647 20:0.0087470002 21:0.70204002 22:0.79460299 23:0.59401399 24:0.76284897 25:0 26:0 27:0 28:0 29:0 30:0 31:0 32:0 33:0.35865101 34:0.030706 35:0.00063299999 36:0.065527 37:0.63773501 38:0.82671303 39:0.61687899 40:0.78283 41:0.25 42:0.14492799 43:0 44:0.061579999 45:0 46:0 #docid = GX267-64-5667315 inc = 0.0103274736942464 prob = 0.24352
-0.096663686047556041 1:0 2:0 3:0 4:0 5:0 6:0 7:0 8:0 9:0 10:0 11:0 12:0 13:0 14:0 15:0 16:0.0037209999 17:0 18:0.166667 19:0 20:0.003484 21:0 22:0 23:0 24:0 25:0 26:0 27:0 28:0 29:0 30:0 31:0 32:0 33:0 34:0 35:0 36:0 37:0 38:0 39:0 40:0 41:0 42:0 43:0 44:0 45:0 46:0.13953499 #docid = GX000-00-14857490 inc = 1 prob = 0.0897452
-0.90333631395244396 1:0.384505 2:1 3:0.66666698 4:0.5 5:0.39398301 6:0 7:0 8:0 9:0 10:0 11:0.50794899 12:1 13:0.785739 14:0.84633601 15:0.53220898 16:0.09945 17:0.38888901 18:0.222222 19:0.40000001 20:0.0995 21:1 22:0.87792498 23:1 24:0.86513102 25:0.91315299 26:1 27:1 28:0.97502202 29:0.87671697 30:0.94341201 31:0.97905201 32:0.95592803 33:0.80783898 34:0.82371098 35:0.99241602 36:0.65776801 37:0.99766803 38:0.86375999 39:1 40:0.859433 41:0.33333299 42:0.32835799 43:0 44:0.52984703 45:0.25 46:0.46511599 #docid = GX000-05-9058226 inc = 1 prob = 0.933056
4.3905635356252546 1:0.0071740001 2:1 3:0.33333299 4:0 5:0.014327 6:0 7:0 8:0 9:0 10:0 11:0.001317 12:0.61067897 13:0.214261 14:0 15:0.001762 16:0.0093379999 17:1 18:0.38888901 19:0.89999998 20:0.0098360004 21:0.022778001 22:0.071335003 23:0.037117999 24:0.075657003 25:0.244872 26:0.025993001 27:0.041536 28:0.029728999 29:0.174523 30:0 31:0 32:0 33:0 34:0 35:0 36:0 37:0.018766999 38:0.113268 39:0.069918998 40:0.116797 41:0.66666698 42:0.70149302 43:0 44:1 45:1 46:1 #docid = GX005-82-8625041 inc = 1 prob = 0.0944942
-1 1:0.058823999 2:0 3:0.66666698 4:1 5:0.064470001 6:0 7:0 8:0 9:0 10:0 11:0.065874003 12:0 13:0.785739 14:1 15:0.074052997 16:0.008343 17:0 18:0.166667 19:0.5 20:0.0082250005 21:0.99867898 22:0.96337199 23:0.80699903 24:0.94593501 25:0 26:0 27:0 28:0 29:1 30:1 31:0.97932899 32:1 33:0.91298503 34:0.95874399 35:0.99964398 36:0.96458203 37:1 38:0.95508802 39:0.82246602 40:0.94560301 41:0.33333299 42:0.38806 43:0 44:0 45:0 46:0.32558101 #docid = GX230-21-1966084 inc = 1 prob = 0.908669
-1 1:0.014347 2:0 3:0.66666698 4:1 5:0.020057 6:0 7:0 8:0 9:0 10:0 11:0.018832 12:0 13:0.785739 14:1 15:0.026829001 16:0.001209 17:0 18:0.555556 19:0.30000001 20:0.001209 21:0.94694197 22:0.97432798 23:0.58721799 24:0.97144598 25:0 26:0 27:0 28:0 29:0.50394797 30:0.76633698 31:0.97739398 32:0.81568301 33:1 34:1 35:1 36:1 37:0.97214001 38:0.98409998 39:0.64078999 40:0.98191297 41:0.5 42:0.164179 43:0 44:0 45:0 46:0.27906999 #docid = GX230-37-3526402 inc = 0.0157592226681781 prob = 0.153797
-0.31722541707220131 1:0.002869 2:0.5 3:0.33333299 4:0.5 5:0.0085960003 6:0 7:0 8:0 9:0 10:0 11:0.0070059998 12:0.5 13:0.57147801 14:0.15366399 15:0.014978 16:0 17:0.166667 18:0.166667 19:0.69999999 20:0 21:0.81853902 22:0.77890199 23:0.42695299 24:0.89462 25:0.924362 26:0.88285798 27:0.79137301 28:1 29:0.72731203 30:0.66826701 31:0.95504302 32:0.51615101 33:0.129062 34:0.030135 35:0.00053299998 36:0.016806999 37:0.926844 38:0.94452399 39:0.533692 40:0.96559697 41:0.5 42:0.62686598 43:0 44:0.354103 45:0.0092590004 46:0.023256 #docid = GX245-21-6950310 inc = 1 prob = 0.0146213
-1 1:0.037303001 2:0.25 3:0.66666698 4:1 5:0.044413 6:0 7:0 8:0 9:0 10:0 11:0.045724999 12:0.34733 13:0.785739 14:1 15:0.057666 16:0.011874 17:0.055555999 18:0.5 19:0.5 20:0.011922 21:0.93623197 22:0.82773602 23:0.70731801 24:0.82677501 25:1 26:0.66219902 27:0.76539898 28:0.57031602 29:0.54238403 30:0.78636599 31:0.97767001 32:0.83179498 33:0.91298503 34:0.95672798 35:0.99964398 36:0.96458203 37:0.95630902 38:0.83661097 39:0.73933399 40:0.84009302 41:0.33333299 42:0.268657 43:0 44:0.040188 45:0.0092590004 46:0 #docid = GX257-27-4959854 inc = 0.007952460397095 prob = 0.129284
-0.0733381185530535 1:1 2:0 3:0 4:0.5 5:1 6:0 7:0 8:0 9:0 10:0 11:1 12:0 13:0 14:0.15366399 15:1 16:1 17:0.166667 18:0 19:0.89999998 20:1 21:0.75205398 22:0.631639 23:0.75173599 24:0.64661902 25:0 26:0 27:0 28:0 29:0 30:0 31:0 32:0 33:0.119497 34:0 35:0.000178 36:0.0051580002 37:0.75536102 38:0.61963099 39:0.74704897 40:0.64122301 41:0.83333302 42:0.80597001 43:0 44:0.100174 45:0.018518999 46:0 #docid = GX263-60-10308013 inc = 1 prob = 0.119327
0.40914370383810095 1:0.013541 2:1 3:0 4:0 5:0.013907 6:0 7:0 8:0 9:0 10:0 11:0.59657699 12:0.98520797 13:0 14:0 15:0.59840697 16:0.0070620002 17:1 18:0.30000001 19:0.1875 20:0.0072039999 21:0.38628599 22:0.629237 23:0.47255301 24:0.68430901 25:0.715074 26:0 27:0.30860099 28:0.79683298 29:0 30:0 31:0 32:0 33:0 34:0 35:0 36:0 37:0.37583101 38:0.63170803 39:0.47013 40:0.67170602 41:0.40000001 42:0.125 43:0 44:0.140304 45:1 46:1 #docid = GX018-16-6808900 inc = 1 prob = 0.271587
-0.40914370383810095 1:0.37950599 2:0 3:1 4:1 5:0.380238 6:0 7:0 8:0 9:0 10:0 11:1 12:0 13:1 14:1 15:1 16:0.28774399 17:0.166667 18:0.30000001 19:0.25 20:0.28771499 21:0.88262999 22:0.97049898 23:1 24:1 25:0 26:0 27:0 28:0 29:1 30:1 31:1 32:1 33:1 34:1 35:1 36:1 37:0.89281797 38:1 39:1 40:1 41:0.40000001 42:0.26923099 43:0 44:0.080140002 45:0.5 46:0 #docid = GX113-78-3816415 inc = 1 prob = 0.76928
-0.065789312546103873 1:0.036885001 2:0 3:0 4:0 5:0.036885001 6:0 7:0 8:0 9:0 10:0 11:0.036819 12:0 13:0 14:0 15:0.036821 16:0.127983 17:0 18:0.214286 19:0.055555999 20:0.127794 21:0.082521997 22:0.26469401 23:0.286401 24:0.28469899 25:0 26:0 27:0 28:0 29:0 30:0 31:0 32:0 33:0 34:0 35:0 36:0 37:0.085124001 38:0.264222 39:0.28524899 40:0.28413099 41:0 42:0 43:0 44:0 45:0 46:1 #docid = GX001-76-14401281 inc = 0.00153915239350022 prob = 0.0897402
-0.10917443344236633 1:0 2:0 3:0 4:0 5:0 6:0 7:0 8:0 9:0 10:0 11:0 12:0 13:0 14:0 15:0 16:0.020024 17:0.055555999 18:0.214286 19:0 20:0.019843001 21:0 22:0 23:0.001455 24:0 25:0 26:0 27:0 28:0 29:0 30:0 31:0 32:0 33:0 34:0 35:0 36:0 37:0 38:0 39:0.0014759999 40:0 41:0.142857 42:0.089286 43:0 44:0.0011089999 45:0.037037 46:0.23076899 #docid = GX001-95-6441278 inc = 0.00818468218587188 prob = 0.0742515
-0.047928695697148527 1:1 2:0 3:0 4:0 5:1 6:0 7:0 8:0 9:0 10:0 11:1 12:0 13:0 14:0 15:1 16:0.90792698 17:0.055555999 18:0.142857 19:0.166667 20:0.90791398 21:0.34303999 22:0.61935198 23:0.73787701 24:0.62478101 25:0 26:0 27:0 28:0 29:0 30:0 31:0 32:0 33:0 34:0 35:0 36:0 37:0.349592 38:0.61629498 39:0.73355001 40:0.62285501 41:0.285714 42:0.160714 43:0 44:0.0062549999 45:0.037037 46:0 #docid = GX007-52-0518383 inc = 1 prob = 0.108203
-0.04878447263349539 1:0.27458999 2:0 3:0 4:0 5:0.27458999 6:0 7:0 8:0 9:0 10:0 11:0.339252 12:0 13:0 14:0 15:0.33938 16:1 17:0.083333001 18:0.214286 19:0.055555999 20:1 21:0.098347001 22:0.217291 23:0.205009 24:0.270311 25:0 26:0 27:0 28:0 29:0 30:0 31:0 32:0 33:0 34:0 35:0 36:0 37:0.101539 38:0.217335 39:0.204698 40:0.269932 41:0.142857 42:0.1875 43:0 44:0.015099 45:0.074074 46:0.57692301 #docid = GX009-60-8564012 inc = 0.00959975133296597 prob = 0.101834
0.27167691431911412 1:0.061475001 2:1 3:1 4:0 5:0.13524599 6:0 7:0 8:0 9:0 10:0 11:0.062960997 12:1 13:1 14:0 15:0.14392699 16:0.041427001 17:1 18:0.214286 19:0.055555999 20:0.042054001 21:0.43115699 22:0.64533597 23:0.70200598 24:0.66929001 25:0.72414798 26:1 27:1 28:0.92828 29:1 30:1 31:1 32:1 33:0 34:0 35:0 36:0 37:0.68928599 38:0.748577 39:0.82300103 40:0.75651699 41:0.142857 42:0.0625 43:0 44:1 45:0.88888901 46:0.115385 #docid = GX039-02-11941220 inc = 1 prob = 0.305301
-0.091626551236657111 1:0.26262599 2:1 3:0.5 4:1 5:0.313131 6:0 7:0 8:0 9:0 10:0 11:0.26962301 12:1 13:0.60418099 14:1 15:0.338305 16:0.002658 17:1 18:0.27272701 19:0.166667 20:0.0048039998 21:0.78820699 22:0.77968699 23:0.78417099 24:0.73070598 25:0.648682 26:0.473326 27:1 28:0.34033701 29:1 30:0 31:0 32:0 33:1 34:1 35:1 36:1 37:0.78852099 38:0.77717203 39:0.80102599 40:0.73072898 41:0.66666698 42:0.235294 43:0 44:1 45:1 46:1 #docid = GX023-27-14379755 inc = 1 prob = 0.197814
-0.091437295955345554 1:0.39393899 2:1 3:1 4:0 5:0.43434301 6:0 7:0 8:0 9:0 10:0 11:0.404434 12:0.80059701 13:1 14:0 15:0.44748199 16:0.113024 17:0.5 18:1 19:0 20:0.114791 21:0.71511602 22:0.63837802 23:0.766608 24:0.61075598 25:1 26:1 27:0.99407399 28:1 29:0.77890402 30:1 31:1 32:1 33:0 34:0 35:0 36:0 37:0.71820801 38:0.64245802 39:0.77239603 40:0.61464 41:0.33333299 42:0.156863 43:0 44:0.032127 45:0.022472 46:0.27906999 #docid = GX045-39-5609138 inc = 1 prob = 0.0701303
0.091626551236661552 1:0.616162 2:0 3:0 4:0 5:0.616162 6:0 7:0 8:0 9:0 10:0 11:0.53828502 12:0 13:0 14:0 15:0.53851998 16:0.50423998 17:0.055555999 18:0 19:0.83333302 20:0.503793 21:0.67073101 22:0.786529 23:1 24:0.79812098 25:0 26:0 27:0 28:0 29:0 30:0 31:0 32:0 33:0 34:0 35:0 36:0 37:0.67116499 38:0.781425 39:0.99142098 40:0.79357499 41:1 42:0.68627501 43:0 44:0.0046379999 45:0.011236 46:0 #docid = GX257-83-12888650 inc = 1 prob = 0.733586
0.091437295955341114 1:0.20202 2:0 3:0 4:1 5:0.222222 6:0 7:0 8:0 9:0 10:0 11:0.207012 12:0 13:0 14:1 15:0.228614 16:0.023668 17:0 18:0 19:1 20:0.023767 21:1 22:1 23:0.99216002 24:1 25:0 26:0 27:0 28:0 29:0 30:0 31:0 32:0 33:0.82749403 34:0 35:0 36:0 37:1 38:1 39:1 40:1 41:0.66666698 42:1 43:0 44:0 45:0 46:0 #docid = GX270-18-1731397 inc = 1 prob = 0.956338
-0.092083936268859135 1:0.010504 2:1 3:0 4:0 5:0.016666999 6:0 7:0 8:0 9:0 10:0 11:0.014545 12:1 13:0 14:0 15:0.019064 16:0 17:0.875 18:0.54545498 19:0.75 20:0.00021699999 21:0.76111901 22:0.98560101 23:0.383811 24:1 25:1 26:1 27:1 28:1 29:0 30:0 31:0 32:0 33:0 34:0 35:0 36:0 37:0.76537901 38:0.96676999 39:0.42491901 40:1 41:0.75 42:0.641509 43:0 44:0 45:0.030303 46:0 #docid = GX062-01-6480155 inc = 0.00339148809080379 prob = 0.0954596
0.02625781728047949 1:0.172269 2:0 3:1 4:0 5:0.179167 6:0 7:0 8:0 9:0 10:0 11:0.22795901 12:0 13:1 14:0 15:0.23545 16:0.023365 17:0 18:0.63636398 19:0.625 20:0.023389 21:1 22:1 23:0.87690598 24:0.883726 25:0 26:0 27:0 28:0 29:1 30:1 31:1 32:1 33:0 34:0 35:0 36:0 37:1 38:1 39:0.88698697 40:0.922988 41:0.75 42:0.66037703 43:0 44:0.0013830001 45:0 46:1 #docid = GX141-07-15494197 inc = 1 prob = 0.919077
0.065826118988379645 1:0.046218 2:0 3:1 4:0 5:0.054166999 6:0 7:0 8:0 9:0 10:0 11:0.057197001 12:0 13:1 14:0 15:0.066008002 16:0.007427 17:0 18:0.81818199 19:0.625 20:0.0075070001 21:0.90167201 22:0.91899699 23:0.61820102 24:0.83839202 25:0 26:0 27:0 28:0 29:0.84746099 30:0 31:0 32:0 33:0 34:0 35:0 36:0 37:0.922548 38:0.94710702 39:0.65320897 40:0.893619 41:0.75 42:0.679245 43:0 44:0.0013830001 45:0 46:0.89999998 #docid = GX228-33-7792796 inc = 0.00496382239858458 prob = 0.202823
0.057918667132711654 1:0.133333 2:0 3:1 4:0.5 5:0.18333299 6:0 7:0 8:0 9:0 10:0 11:0.12128 12:0 13:1 14:0.670075 15:0.16804001 16:0.001457 17:0.111111 18:1 19:0.66666698 20:0.0016 21:0.99091899 22:0.98587 23:0.94662303 24:0.98860401 25:0 26:0 27:0 28:0 29:0.94155997 30:0.976179 31:0.99955601 32:0.98422003 33:0.72371399 34:0.50907397 35:0.89088601 36:0.33283699 37:0.97161698 38:0.95866501 39:0.92815298 40:0.98917902 41:0.75 42:0.85714298 43:0 44:0.12925699 45:0.909091 46:0.75 #docid = GX003-73-11371433 inc = 0.0152870947037723 prob = 0.334369
-0.3126644089791859 1:1 2:0 3:0 4:0 5:1 6:0 7:0 8:0 9:0 10:0 11:1 12:0 13:0 14:0 15:1 16:1 17:1 18:0.40000001 19:0.33333299 20:1 21:0.214527 22:0.117922 23:0.32972199 24:0.26819399 25:0 26:0 27:0 28:0 29:0 30:0 31:0 32:0 33:0 34:0 35:0 36:0 37:0.21575899 38:0.124381 39:0.315678 40:0.27494699 41:0.5 42:0.33333299 43:0 44:0.94406199 45:0.63636398 46:1 #docid = GX011-92-14993388 inc = 0.00111827990181441 prob = 0.0890912
-0.14873135148033345 1:0 2:0 3:0 4:0 5:0 6:0 7:0 8:0 9:0 10:0 11:0 12:0 13:0 14:0 15:0 16:0.056081999 17:0.5 18:0.80000001 19:0.5 20:0.056736 21:0 22:0 23:0 24:0 25:0 26:0 27:0 28:0 29:0 30:0 31:0 32:0 33:0 34:0 35:0 36:0 37:0 38:0 39:0 40:0 41:0.5 42:1 43:0 44:0.0044430001 45:0.090908997 46:0.041666999 #docid = GX039-50-1599086 inc = 0.00143420310168884 prob = 0.0793824
0.4034770933268077 1:0.15000001 2:0 3:1 4:1 5:0.216667 6:0 7:0 8:0 9:0 10:0 11:0.13798 12:0 13:1 14:1 15:0.193762 16:0.010779 17:0.277778 18:1 19:1 20:0.011638 21:0.94997603 22:0.92495298 23:0.95505601 24:0.93833601 25:0 26:0 27:0 28:0 29:0.94155997 30:0.976179 31:0.99955601 32:0.98422003 33:1 34:1 35:1 36:1 37:1 38:1 39:1 40:0.98002797 41:0.75 42:0.809524 43:0 44:1 45:1 46:0.70833302 #docid = GX104-99-5585325 inc = 1 prob = 0.749495
0.18817169253359367 1:0.15290099 2:0 3:0 4:0 5:0.15290099 6:0 7:0 8:0 9:0 10:0 11:0.05037 12:0 13:0 14:0 15:0.050127 16:0.18153299 17:0.055555999 18:0.173913 19:0.166667 20:0.181787 21:0.39949501 22:0.549025 23:0.65967399 24:0.62797499 25:0 26:0 27:0 28:0 29:0 30:0 31:0 32:0 33:0 34:0 35:0 36:0 37:0.39735401 38:0.54817098 39:0.65958297 40:0.63126802 41:0.5 42:0.091954 43:0 44:0.023181001 45:0.012721 46:0.150943 #docid = GX037-74-6961012 inc = 1 prob = 0.193139
0.098002763286896499 1:0.026549 2:0 3:0.25 4:0 5:0.028023999 6:0 7:0 8:0 9:0 10:0 11:0.027174 12:0 13:0.32317799 14:0 15:0.029307 16:0.0094259996 17:0.027778 18:0.19565199 19:0.208333 20:0.0097030001 21:0.95270598 22:0.83936 23:0.77167499 24:0.88823003 25:0 26:0 27:0 28:0 29:0.57138902 30:0.70859498 31:0.69857401 32:0.62157202 33:0 34:0 35:0 36:0 37:0.94632602 38:0.84043902 39:0.78285301 40:0.89216602 41:0.66666698 42:0.074712999 43:0 44:0.00025000001 45:0.00055300002 46:0.037735999 #docid = GX056-91-16142271 inc = 1 prob = 0.451879
0.87139660893249049 1:0.443461 2:0 3:0.083333001 4:0 5:0.44395301 6:0 7:0 8:0 9:0 10:0 11:0.351906 12:0 13:0.12645701 14:0 15:0.35290399 16:0.62418699 17:0.111111 18:0.217391 19:0.125 20:0.62449503 21:0.57947201 22:0.46320501 23:0.55769402 24:0.55596203 25:0 26:0 27:0 28:0 29:0.207736 30:0.224393 31:0.28797901 32:0.139502 33:0 34:0 35:0 36:0 37:0.57921702 38:0.46306601 39:0.55874401 40:0.55990899 41:0.5 42:0.097700998 43:0 44:0.000279 45:0.00055300002 46:0 #docid = GX060-06-4860134 inc = 0.0926411432936547 prob = 0.12112
-1.1575710647529878 1:0.020648999 2:0.46153799 3:0 4:1 5:0.028515 6:0 7:0 8:0 9:0 10:0 11:0.027965 12:0.32513201 13:0 14:1 15:0.034387 16:0.0045739999 17:0.125 18:0.108696 19:0.91666698 20:0.005316 21:0.98085499 22:0.81558198 23:0.76486897 24:0.78776997 25:1 26:1 27:0.94481498 28:0.95428401 29:0 30:0 31:0 32:0 33:1 34:1 35:1 36:1 37:0.97881299 38:0.82872403 39:0.817415 40:0.805466 41:0.66666698 42:0.70689702 43:0 44:0.018355001 45:0.0016589999 46:0.075471997 #docid = GX148-46-7978201 inc = 1 prob = 0.161103
1.7763568394002505e-015 1:0.650442 2:0 3:0 4:0 5:0.650442 6:0 7:0 8:0 9:0 10:0 11:0.68213803 12:0 13:0 14:0 15:0.68265301 16:0.61109298 17:0 18:0 19:0.208333 20:0.611031 21:0.70967102 22:0.56562001 23:0.70431697 24:0.63397902 25:0 26:0 27:0 28:0 29:0 30:0 31:0 32:0 33:0 34:0 35:0 36:0 37:0.707304 38:0.565391 39:0.70498103 40:0.637775 41:0.33333299 42:0.18965501 43:0 44:0 45:0 46:0 #docid = GX256-02-4514826 inc = 1 prob = 0.193933
5.3290705182007514e-015 1:0.85496598 2:0 3:0 4:0 5:0.85496598 6:0 7:0 8:0 9:0 10:0 11:0.65723401 12:0 13:0 14:0 15:0.65666997 16:1 17:0.097222 18:0 19:0.125 20:1 21:0.82068902 22:0.66474098 23:0.85791498 24:0.71227098 25:0 26:0 27:0 28:0 29:0 30:0 31:0 32:0 33:0 34:0 35:0 36:0 37:0.81739599 38:0.66439003 39:0.858154 40:0.71589398 41:0.5 42:0.080459997 43:0 44:0.000279 45:0.00055300002 46:0 #docid = GX256-15-15169361 inc = 1 prob = 0.319505
0.14656088282255886 1:1 2:0 3:0 4:0 5:1 6:0 7:0 8:0 9:0 10:0 11:0 12:0 13:0 14:0 15:0 16:0.713458 17:0.222222 18:0 19:0.555556 20:0.713489 21:0.0085659996 22:0.707883 23:0.83920199 24:0.68990201 25:0 26:0 27:0 28:0 29:0 30:0 31:0 32:0 33:0 34:0 35:0 36:0 37:0 38:0.70398301 39:0.83409202 40:0.68633199 41:0.66666698 42:0.61627901 43:0 44:0.028215 45:0 46:0 #docid = GX261-94-14886511 inc = 1 prob = 0.133443
-0.14656088282255886 1:0.060235001 2:1 3:0 4:0 5:0.060755 6:0 7:0 8:0 9:0 10:0 11:0.48913801 12:1 13:0 14:0 15:0.50318599 16:0.035870999 17:1 18:0 19:0.444444 20:0.035794001 21:0.58826399 22:1 23:1 24:1 25:0.599244 26:0.75300002 27:1 28:0.79900497 29:0 30:0 31:0 32:0 33:0 34:0 35:0 36:0 37:0.64611501 38:1 39:1 40:1 41:0.66666698 42:0.244186 43:0 44:0.211842 45:0.026316 46:0 #docid = GX265-29-16090747 inc = 1 prob = 0.223094
-0.043553669574432297 1:0.96934098 2:0.40000001 3:0.40000001 4:0.5 5:0.97077399 6:0 7:0 8:0 9:0 10:0 11:1 12:0.423208 13:0.367796 14:0.5 15:1 16:0.92729098 17:0.4375 18:0.36363599 19:0.1 20:0.92758501 21:0.94683701 22:1 23:1 24:0.96615398 25:0.41955799 26:0.41606101 27:0.490439 28:0.34129 29:0.43041301 30:0.41565299 31:0.441286 32:0.35913 33:0.89859498 34:1 35:0.637245 36:1 37:0.955773 38:1 39:1 40:0.97077101 41:0.166667 42:0.15151501 43:0 44:0.108566 45:0.047619 46:0 #docid = GX005-24-3205753 inc = 1 prob = 0.286982
0.043553669574432297 1:0.0042980001 2:0 3:0 4:0 5:0.0042980001 6:0 7:0 8:0 9:0 10:0 11:0.155736 12:0 13:0 14:0 15:0.158373 16:0.0048389998 17:0.25 18:0 19:0 20:0.0044499999 21:0.89990598 22:0.855362 23:0.66856599 24:0.92362499 25:0 26:0 27:0 28:0 29:0 30:0 31:0 32:0 33:0 34:0 35:0 36:0 37:0.89547998 38:0.84694302 39:0.66637301 40:0.92080897 41:0 42:0 43:0 44:0.00025300001 45:0.023809999 46:0 #docid = GX237-17-8524852 inc = 1 prob = 0.159168
-0.17617042255637169 1:0.012195 2:1 3:0 4:0 5:0.020324999 6:0 7:0 8:0 9:0 10:0 11:0.015141 12:1 13:0 14:0 15:0.024984 16:0.001806 17:0.25 18:0.36363599 19:0.57142901 20:0.0022750001 21:0.84939599 22:0.89830297 23:0.55105299 24:0.77707601 25:0.69583303 26:0.80233401 27:1 28:0.52697301 29:0 30:0 31:0 32:0 33:0 34:0 35:0 36:0 37:0.87186402 38:0.86285502 39:0.587372 40:0.765966 41:0.5 42:0.47916701 43:0 44:0.0020649999 45:0.014706 46:0 #docid = GX027-44-0900273 inc = 0.0601074630924765 prob = 0.117813
-0.18111401615605538 1:0.044714998 2:0.5 3:0.5 4:1 5:0.056910999 6:0 7:0 8:0 9:0 10:0 11:0.060029 12:0.5 13:1 14:1 15:0.074422002 16:0.010992 17:0.041666999 18:0.090908997 19:0.57142901 20:0.010827 21:0.87385702 22:0.62139601 23:0.62198699 24:0.45130599 25:1 26:0.988765 27:0.83422202 28:0.65067703 29:1 30:1 31:1 32:0.727705 33:1 34:1 35:1 36:1 37:0.860116 38:0.64209598 39:0.63842601 40:0.48690501 41:0.83333302 42:0.6875 43:0 44:0.01129 45:0.0073529999 46:0.0028250001 #docid = GX042-44-14974288 inc = 1 prob = 0.101649
0.18111401615605538 1:0.90650398 2:1 3:0 4:0 5:0.91463399 6:0 7:0 8:0 9:0 10:0 11:1 12:1 13:0 14:0 15:1 16:1 17:0.375 18:0.54545498 19:0.285714 20:1 21:0.90261501 22:0.88058698 23:0.88031799 24:0.77834702 25:0.53904402 26:0.67598897 27:0.99891299 28:0.48131701 29:0 30:0 31:0 32:0 33:0 34:0 35:0 36:0 37:0.88414401 38:0.88134301 39:0.88165599 40:0.800053 41:0.33333299 42:0.70833302 43:0 44:0.0048830002 45:0.014706 46:0.053672001 #docid = GX045-99-8971156 inc = 1 prob = 0.537135
0.17617042255637169 1:0.01626 2:0 3:1 4:0 5:0.024390001 6:0 7:0 8:0 9:0 10:0 11:0.011578 12:0 13:0.958278 14:0 15:0.014954 16:0.037370998 17:0.125 18:0.18181799 19:0.85714298 20:0.037579998 21:0.67410702 22:0.84425801 23:0.71473402 24:0.85107201 25:0 26:0 27:0 28:0 29:0.80147702 30:0.82446402 31:0.017433999 32:1 33:0 34:0 35:0 36:0 37:0.72284198 38:0.91972703 39:0.75530398 40:0.911964 41:1 42:0.60416698 43:0 44:0.0099029997 45:0.0073529999 46:0 #docid = GX076-06-4065935 inc = 0.102182208243261 prob = 0.380539
0.46725315256052014 1:0.19459499 2:0 3:0 4:0 5:0.193626 6:0 7:0 8:0 9:0 10:0 11:0.153938 12:0 13:0 14:0 15:0.14838 16:0.18113001 17:0.111111 18:0.111111 19:0.125 20:0.18122099 21:0.251885 22:0.45445099 23:0.54637498 24:0.50577003 25:0 26:0 27:0 28:0 29:0 30:0 31:0 32:0 33:0 34:0 35:0 36:0 37:0.25067401 38:0.45472601 39:0.54793102 40:0.50426501 41:0 42:0.076922998 43:0 44:0.25702399 45:0.073683999 46:0 #docid = GX001-39-4370345 inc = 1 prob = 0.0897452
-0.46725315256052014 1:0.032432001 2:1 3:0.5 4:0 5:0.034274999 6:0 7:0 8:0 9:0 10:0 11:0.036189999 12:1 13:0.5 14:0 15:0.040892001 16:0.016231 17:0.555556 18:0.222222 19:0 20:0.016563 21:0.96635401 22:1 23:0.96675903 24:1 25:0.84256601 26:1 27:1 28:1 29:0.60440803 30:0.82781601 31:0.826998 32:0.85377699 33:0 34:0 35:0 36:0 37:0.97551799 38:1 39:0.98126698 40:1 41:0 42:0.153846 43:0 44:0.76100802 45:0.021052999 46:0.028571 #docid = GX226-92-12220539 inc = 0.122387563047553 prob = 0.261798
-0.20372030171057443 1:0.0085840002 2:0 3:0 4:0 5:0.0042739999 6:0 7:0 8:0 9:0 10:0 11:0.0073509999 12:0 13:0 14:0 15:0.0035079999 16:0.040001001 17:0.5 18:0 19:0 20:0.039921999 21:0 22:0 23:0.024436001 24:0 25:0 26:0 27:0 28:0 29:0 30:0 31:0 32:0 33:0 34:0 35:0 36:0 37:0 38:0 39:0 40:0 41:0 42:0 43:0 44:0.0068279998 45:0.33333299 46:0.083333001 #docid = GX002-47-10155626 inc = 1 prob = 0.0309289
0.20372030171057443 1:1 2:0 3:1 4:1 5:1 6:0 7:0 8:0 9:0 10:0 11:1 12:0 13:0.90106797 14:1 15:1 16:1 17:0 18:0.18181799 19:0.33333299 20:1 21:1 22:1 23:1 24:1 25:0 26:0 27:0 28:0 29:1 30:1 31:0 32:1 33:1 34:1 35:1 36:1 37:0.85439801 38:0.86878401 39:1 40:0.77009201 41:0.25 42:0.34883699 43:0 44:0 45:0 46:0 #docid = GX067-96-15698597 inc = 1 prob = 0.821693
0.14030864672814441 1:0.47422701 2:0 3:0.33333299 4:1 5:0.485149 6:0 7:0 8:0 9:0 10:0 11:0.448201 12:0 13:0.31891599 14:1 15:0.456294 16:0.33918801 17:0 18:0.125 19:0.2 20:0.33551899 21:0.99845302 22:1 23:0.87938899 24:1 25:0 26:0 27:0 28:0 29:0.65810901 30:0 31:0 32:0 33:1 34:1 35:1 36:1 37:1 38:1 39:0.87773103 40:1 41:0 42:0.23076899 43:0 44:0 45:0 46:0.105263 #docid = GX012-82-0455049 inc = 0.0205845606595284 prob = 0.393951
-0.15881017626874849 1:0 2:0 3:0 4:0 5:0 6:0 7:0 8:0 9:0 10:0 11:0.0045440001 12:0 13:0 14:0 15:0 16:0.024149001 17:0.142857 18:0.5 19:1 20:0.030601 21:0.121859 22:0 23:0.121639 24:0 25:0 26:0 27:0 28:0 29:0 30:0 31:0 32:0 33:0 34:0 35:0 36:0 37:0.042272002 38:0 39:0.050887 40:0 41:1 42:0.338462 43:0 44:0.011557 45:0.5 46:0 #docid = GX046-41-3028059 inc = 1 prob = 0.0142539
0.23763714489500387 1:1 2:1 3:0.66666698 4:0 5:1 6:0 7:0 8:0 9:0 10:0 11:1 12:1 13:0.72247398 14:0 15:1 16:1 17:0.285714 18:0.5 19:0.40000001 20:1 21:1 22:0.92558002 23:1 24:0.93282002 25:1 26:1 27:1 28:1 29:1 30:0.67096001 31:0.80046302 32:0.607333 33:0 34:0 35:0 36:0 37:0.99966103 38:0.92817599 39:1 40:0.93409097 41:0 42:0.69230801 43:0 44:0.398581 45:0.5 46:0.52631599 #docid = GX076-51-12448365 inc = 0.00964494003166737 prob = 0.337544
-0.052502399515956644 1:0.123711 2:0.5 3:1 4:0.5 5:0.16831701 6:0 7:0 8:0 9:0 10:0 11:0.12672099 12:0.40739101 13:1 14:0.34581801 15:0.163408 16:0.107574 17:0.285714 18:1 19:1 20:0.119126 21:0.90760601 22:0.935377 23:0.608567 24:0.97329903 25:0.40739101 26:0 27:0 28:0 29:0.96186602 30:1 31:1 32:1 33:0.29455599 34:0 35:0 36:0 37:0.94343799 38:0.97752398 39:0.65424699 40:0.99528301 41:1 42:1 43:0 44:0.41274601 45:1 46:0.210526 #docid = GX165-12-1278431 inc = 0.00346616882639126 prob = 0.0987093
-0.16663321583844315 1:0 2:0 3:0.33333299 4:0.5 5:0.019802 6:0 7:0 8:0 9:0 10:0 11:0 12:0 13:0.31891599 14:0.40808499 15:0.012338 16:0 17:0 18:0 19:0.80000001 20:0 21:0 22:0.113919 23:0 24:0.089276001 25:0 26:0 27:0 28:0 29:0.786861 30:0.068163 31:0.00045200001 32:0.042693 33:0.360971 34:0.100131 35:0.122574 36:0.068627 37:0 38:0.099128999 39:0 40:0.026152 41:1 42:0.169231 43:0 44:0 45:0 46:0 #docid = GX245-76-13660955 inc = 1 prob = 0.0811413
1 1:0.019045001 2:0 3:0 4:0 5:0.018772 6:0 7:0 8:0 9:0 10:0 11:0.51501799 12:0 13:0 14:0 15:0.54522997 16:0.019158 17:0 18:0.35294101 19:0.2 20:0.019033 21:0.38326901 22:0.45708001 23:0.403465 24:0.58778697 25:0 26:0 27:0 28:0 29:0 30:0 31:0 32:0 33:0 34:0 35:0 36:0 37:0.391287 38:0.38576999 39:0.375467 40:0.58524603 41:0.2 42:0.131148 43:0 44:0.039829001 45:0.18181799 46:0.254237 #docid = GX000-13-6867881 inc = 1 prob = 0.0897452
1 1:0.002414 2:0 3:0.5 4:0 5:0.002414 6:0 7:0 8:0 9:0 10:0 11:0.52469099 12:0 13:0.54547298 14:0 15:0.55568999 16:0.017278999 17:0.079999998 18:0.58823502 19:0.5 20:0.017346 21:0.58681202 22:0.110214 23:0.14681099 24:0.191394 25:0 26:0 27:0 28:0 29:0.43194699 30:0.49676299 31:0.67398101 32:0.37829 33:0 34:0 35:0 36:0 37:0.60149401 38:0.101372 39:0.122307 40:0.27663001 41:0.60000002 42:0.52459002 43:0 44:1 45:0.27272701 46:1 #docid = GX004-13-14511663 inc = 0.00480917080614176 prob = 0.0900554
-2 1:0.021190999 2:1 3:0.5 4:1 5:0.024403 6:0 7:0 8:0 9:0 10:0 11:0.52970397 12:1 13:0.45741799 14:1 15:0.56496203 16:0.012132 17:1 18:0.117647 19:1 20:0.012625 21:0.80179101 22:1 23:0.75053698 24:1 25:1 26:1 27:1 28:1 29:0.83637202 30:0.556768 31:0.33195901 32:0.421262 33:1 34:1 35:1 36:1 37:0.91252702 38:1 39:0.85844499 40:0.96928298 41:1 42:0.83606601 43:0 44:0.32051799 45:0.54545498 46:0.050847001 #docid = GX246-96-15982635 inc = 1 prob = 0.206849
0.036193089417631288 1:0.115108 2:0 3:0 4:0 5:0.107914 6:0 7:0 8:0 9:0 10:0 11:0.061347 12:0 13:0 14:0 15:0.056444999 16:0.099710003 17:0.444444 18:0.80000001 19:0.25 20:0.100733 21:1 22:1 23:0.91916102 24:1 25:0 26:0 27:0 28:0 29:0 30:0 31:0 32:0 33:0 34:0 35:0 36:0 37:1 38:1 39:0.910065 40:1 41:0.5 42:0.70588201 43:0 44:0.0053059999 45:0.001667 46:1 #docid = GX002-09-10237544 inc = 1 prob = 0.385783
-0.036193089417631288 1:1 2:1 3:0 4:0 5:1 6:0 7:0 8:0 9:0 10:0 11:1 12:1 13:0 14:0 15:1 16:1 17:0.33333299 18:0.30000001 19:1 20:1 21:0.70795101 22:0.179675 23:0.599491 24:0.513565 25:1 26:1 27:1 28:1 29:0 30:0 31:0 32:0 33:0 34:0 35:0 36:0 37:0.674079 38:0.176103 39:0.56651998 40:0.51335502 41:0.5 42:1 43:0 44:0.022460001 45:0.000833 46:0.185185 #docid = GX255-50-7550514 inc = 1 prob = 0.211884
-0.087189716042433751 1:0.32258099 2:0 3:0 4:0 5:0.32258099 6:0 7:0 8:0 9:0 10:0 11:0.355281 12:0 13:0 14:0 15:0.35545701 16:1 17:1 18:0.54545498 19:0.2 20:1 21:0.241478 22:0.52298999 23:0.69878602 24:0.54564399 25:0 26:0 27:0 28:0 29:0 30:0 31:0 32:0 33:0 34:0 35:0 36:0 37:0.245894 38:0.52595598 39:0.67934501 40:0.54979497 41:0.5 42:0.28260899 43:0 44:0.32349801 45:0.021857999 46:0.021276999 #docid = GX003-50-5275306 inc = 0.0277379814664566 prob = 0.117337
-0.38724543706891601 1:0.016129 2:0 3:0 4:0 5:0.016129 6:0 7:0 8:0 9:0 10:0 11:0.028750001 12:0 13:0 14:0 15:0.028798999 16:0.17459001 17:0.058823999 18:0.36363599 19:0.133333 20:0.17432401 21:0.066937 22:0.116629 23:0.15289 24:0.090002 25:0 26:0 27:0 28:0 29:0 30:0 31:0 32:0 33:0 34:0 35:0 36:0 37:0.069541998 38:0.118822 39:0.150015 40:0.092496 41:0 42:0.141304 43:0 44:0.0037420001 45:0.0054640002 46:0.29787201 #docid = GX012-62-10983707 inc = 1 prob = 0.0708914
0.29080252990239508 1:0.387097 2:0.5 3:1 4:0.25 5:0.5 6:0 7:0 8:0 9:0 10:0 11:0.398678 12:0.5 13:1 14:0.25427601 15:0.51349801 16:0.023932001 17:0.17647099 18:0.27272701 19:0.26666701 20:0.024652001 21:0.99516797 22:0.93252897 23:0.94467098 24:0.93252999 25:1 26:0.95004803 27:0.816302 28:1 29:1 30:1 31:1 32:1 33:0.46111 34:0.0060780002 35:0.00020900001 36:0.0065779998 37:0.99950498 38:0.952645 39:0.95295 40:0.95204699 41:0.5 42:0.33695701 43:0 44:0.034485999 45:0.0054640002 46:0.234043 #docid = GX016-59-14019031 inc = 0.187211303699825 prob = 0.966026
0.20344491825808797 1:0.48387101 2:0.83333302 3:1 4:0 5:0.612903 6:0 7:0 8:0 9:0 10:0 11:0.48574999 12:0.832748 13:1 14:0 15:0.618541 16:0.15804701 17:0.470588 18:0.27272701 19:0 20:0.158476 21:0.700643 22:0.72311801 23:0.87268901 24:0.73691702 25:0.78058499 26:0.94959998 27:0.93805498 28:0.94250798 29:1 30:1 31:1 32:1 33:0 34:0 35:0 36:0 37:0.80366701 38:0.77156502 39:0.90623099 40:0.77941298 41:0 42:0 43:0 44:0.523036 45:1 46:0.085106 #docid = GX025-30-0437814 inc = 0.097335346817456 prob = 0.910112
0.16435937640608134 1:0.64516097 2:1 3:1 4:0 5:0.79032302 6:0 7:0 8:0 9:0 10:0 11:0.67275798 12:1 13:1 14:0 15:0.82129401 16:0.067138001 17:0.52941197 18:0.63636398 19:0.2 20:0.069153003 21:0.98545003 22:0.881652 23:1 24:0.88052899 25:0.83947802 26:1 27:1 28:0.95506102 29:0.64001 30:0.890158 31:0.99948198 32:0.91303599 33:0 34:0 35:0 36:0 37:0.989003 38:0.90117902 39:1 40:0.90026897 41:0.33333299 42:0.16304301 43:0 44:0.31296 45:0.049180001 46:0.085106 #docid = GX031-08-5595461 inc = 1 prob = 0.981921
0.054807462958919473 1:0.387097 2:0.5 3:1 4:0.25 5:0.5 6:0 7:0 8:0 9:0 10:0 11:0.398678 12:0.5 13:1 14:0.25427601 15:0.51349801 16:0.023932001 17:0.17647099 18:0.27272701 19:0.26666701 20:0.024652001 21:0.99516797 22:0.93252897 23:0.94467098 24:0.93252999 25:1 26:0.95004803 27:0.816302 28:1 29:1 30:1 31:1 32:1 33:0.46111 34:0.0060780002 35:0.00020900001 36:0.0065779998 37:0.99950498 38:0.952645 39:0.95295 40:0.95204699 41:0.5 42:0.402174 43:0 44:0.71371698 45:0.185792 46:0.234043 #docid = GX047-03-3696298 inc = 1 prob = 0.967835
-0.2389791344141341 1:0 2:0 3:0 4:0 5:0 6:0 7:0 8:0 9:0 10:0 11:0 12:0 13:0 14:0 15:0 16:0.061836999 17:0.58823502 18:0.18181799 19:0.26666701 20:0.063390002 21:0 22:0 23:0 24:0 25:0 26:0 27:0 28:0 29:0 30:0 31:0 32:0 33:0 34:0 35:0 36:0 37:0 38:0 39:0 40:0 41:0.166667 42:0.326087 43:0 44:1 45:0.027322 46:0.021276999 #docid = GX244-38-5234732 inc = 0.0087643106623801 prob = 0.0654033
-0.3894363340277569 1:0.0064309998 2:0 3:0 4:0 5:0.0064309998 6:0 7:0 8:0 9:0 10:0 11:0.0075389999 12:0 13:0 14:0 15:0.0075389999 16:0 17:0 18:0 19:0 20:0 21:0.70048302 22:0.93669099 23:0.54301 24:1 25:0 26:0 27:0 28:0 29:0 30:0 31:0 32:0 33:0 34:0 35:0 36:0 37:0.69234198 38:0.89902598 39:0.54310203 40:1 41:0 42:0 43:0 44:0 45:0 46:0 #docid = GX000-21-13986398 inc = 1 prob = 0.109785
-0.01671000790529753 1:0.003215 2:0 3:0 4:0 5:0.003215 6:0 7:0 8:0 9:0 10:0 11:0.003082 12:0 13:0 14:0 15:0.003082 16:0.16130701 17:0.1875 18:1 19:0.40000001 20:0.161808 21:0 22:0.021783 23:0 24:0 25:0 26:0 27:0 28:0 29:0 30:0 31:0 32:0 33:0 34:0 35:0 36:0 37:0 38:0.021020001 39:0 40:0 41:0.66666698 42:0.367816 43:0 44:0.0050090002 45:0.25 46:0.085106 #docid = GX015-11-9544828 inc = 0.00408668945204501 prob = 0.0897452
1.5081050982798403 1:0.115756 2:1 3:1 4:0.75 5:0.144695 6:0 7:0 8:0 9:0 10:0 11:0.121177 12:1 13:1 14:0.72346503 15:0.15304001 16:0.034185 17:0.1875 18:0.66666698 19:0.33333299 20:0.034587 21:0.77623099 22:0.78625798 23:0.79925102 24:0.73860598 25:1 26:1 27:1 28:1 29:1 30:1 31:1 32:1 33:1 34:1 35:1 36:1 37:0.830495 38:0.81288898 39:0.83165097 40:0.79149801 41:0.33333299 42:0.471264 43:0 44:0.022848001 45:0.25 46:1 #docid = GX021-47-0077302 inc = 1 prob = 0.249405
-0.049408827507619435 1:0.337621 2:0 3:0 4:0 5:0.337621 6:0 7:0 8:0 9:0 10:0 11:0.367598 12:0 13:0 14:0 15:0.367598 16:0.05906 17:0.0625 18:0.41666701 19:0.33333299 20:0.059328999 21:0.90597701 22:0.85133702 23:0.915277 24:0.79677099 25:0 26:0 27:0 28:0 29:0 30:0 31:0 32:0 33:0 34:0 35:0 36:0 37:0.90544498 38:0.85166597 39:0.91533202 40:0.82712197 41:0.5 42:0.50574702 43:0 44:0.03571 45:0.25 46:0 #docid = GX024-45-1178217 inc = 0.0319183356232346 prob = 0.281252
-0.12851409577330841 1:0.0064309998 2:0 3:0 4:0 5:0.0064309998 6:0 7:0 8:0 9:0 10:0 11:0.0075389999 12:0 13:0 14:0 15:0.0075389999 16:0.00061500003 17:0.0625 18:0.166667 19:0.533333 20:0.00089700002 21:0.67132998 22:0.79965198 23:0.54140198 24:0.86745799 25:0 26:0 27:0 28:0 29:0 30:0 31:0 32:0 33:0 34:0 35:0 36:0 37:0.652596 38:0.76097202 39:0.54076701 40:0.86154199 41:1 42:0.66666698 43:0 44:1 45:0.25 46:0.021276999 #docid = GX047-63-3141151 inc = 1 prob = 0.0196529
-0.13643067220061766 1:0.057877999 2:0 3:0 4:0 5:0.057877999 6:0 7:0 8:0 9:0 10:0 11:0.063723996 12:0 13:0 14:0 15:0.063723996 16:0.010386 17:0 18:0.75 19:0.33333299 20:0.010743 21:0.859029 22:0.841793 23:0.76264602 24:0.79746097 25:0 26:0 27:0 28:0 29:0 30:0 31:0 32:0 33:0 34:0 35:0 36:0 37:0.85383803 38:0.83828503 39:0.76209402 40:0.82401401 41:0.5 42:0.321839 43:0 44:0.182561 45:0.75 46:0.255319 #docid = GX180-17-9232212 inc = 1 prob = 0.1776
-0.026813414667103075 1:0 2:0 3:0 4:0 5:0 6:0 7:0 8:0 9:0 10:0 11:0 12:0 13:0 14:0 15:0 16:0.000872 17:0.125 18:0 19:0.2 20:0.001 21:0.167235 22:0.26035401 23:0.15954401 24:0.145741 25:0 26:0 27:0 28:0 29:0 30:0 31:0 32:0 33:0 34:0 35:0 36:0 37:0.163311 38:0.25028801 39:0.159437 40:0.14486 41:0.33333299 42:0.195402 43:0 44:0.011767 45:0.25 46:0 #docid = GX237-38-0928616 inc = 1 prob = 0.102373
-0.32324736783502317 1:0.92282999 2:0 3:0 4:0 5:0.92282999 6:0 7:0 8:0 9:0 10:0 11:1 12:0 13:0 14:0 15:1 16:0.108068 17:1 18:0 19:0.40000001 20:0.108607 21:0.960311 22:0.89391798 23:1 24:0.83664298 25:0 26:0 27:0 28:0 29:0 30:0 31:0 32:0 33:0 34:0 35:0 36:0 37:0.95865202 38:0.89437699 39:1 40:0.86858797 41:1 42:0.55172402 43:0 44:0.10534 45:1 46:0 #docid = GX250-21-3118811 inc = 0.0610348160338103 prob = 0.533502
-3.637978807091713e-012 1:1 2:0 3:0 4:0 5:1 6:0 7:0 8:0 9:0 10:0 11:0.95844501 12:0 13:0 14:0 15:0.95841497 16:1 17:0.125 18:0 19:0.466667 20:1 21:0.21013699 22:0 23:0.010585 24:0.109458 25:0 26:0 27:0 28:0 29:0 30:0 31:0 32:0 33:0 34:0 35:0 36:0 37:0.210453 38:0 39:0.010948 40:0.113861 41:0.66666698 42:0.59770101 43:0 44:0.00060500001 45:0.25 46:0 #docid = GX262-87-9576006 inc = 1 prob = 0.122457
-0.25707025215002943 1:0.11254 2:0 3:0 4:0 5:0.11254 6:0 7:0 8:0 9:0 10:0 11:0.107864 12:0 13:0 14:0 15:0.10786 16:0.136508 17:0.0625 18:0 19:0.466667 20:0.136682 21:0.19744 22:0.12713701 23:0.146267 24:0.103694 25:0 26:0 27:0 28:0 29:0 30:0 31:0 32:0 33:0 34:0 35:0 36:0 37:0.197824 38:0.127377 39:0.146516 40:0.107804 41:0.66666698 42:0.67816103 43:0 44:0.00045299999 45:0.25 46:0 #docid = GX267-74-1389013 inc = 0.00420391322362861 prob = 0.133752
-0.18047412620944669 1:0.96141499 2:0 3:0 4:0 5:0.96141499 6:0 7:0 8:0 9:0 10:0 11:0.92146301 12:0 13:0 14:0 15:0.921435 16:0.99971801 17:0.0625 18:0 19:0.466667 20:0.99969202 21:0.207756 22:0.011646 23:0.0088510001 24:0.108134 25:0 26:0 27:0 28:0 29:0 30:0 31:0 32:0 33:0 34:0 35:0 36:0 37:0.208124 38:0.011631 39:0.0092160003 40:0.112487 41:0.66666698 42:0.70114899 43:0 44:0.00045299999 45:0.25 46:0 #docid = GX269-83-8334356 inc = 0.00461799030663725 prob = 0.0906259
0.44484941982599846 1:0.018743001 2:1 3:1 4:0 5:0.026784001 6:0 7:0 8:0 9:0 10:0 11:0.88547802 12:1 13:1 14:0 15:0.92298102 16:0.010267 17:1 18:0.57142901 19:0 20:0.011782 21:1 22:1 23:0.96629101 24:1 25:1 26:1 27:1 28:1 29:1 30:1 31:1 32:1 33:0 34:0 35:0 36:0 37:1 38:1 39:1 40:1 41:0 42:0.050000001 43:0 44:0.56923503 45:1 46:0.33333299 #docid = GX002-44-4180072 inc = 1 prob = 0.68512
-0.079641961728470712 1:1 2:0 3:0.66666698 4:0 5:1 6:0 7:0 8:0 9:0 10:0 11:0 12:0 13:0.57654399 14:0 15:0 16:1 17:0 18:1 19:0.42857099 20:1 21:0.54353601 22:0.60179698 23:1 24:0.60394901 25:0 26:0 27:0 28:0 29:0.38554499 30:0.225401 31:0.550569 32:0.350447 33:0 34:0 35:0 36:0 37:0.53318298 38:0.57154101 39:0.90298003 40:0.63387603 41:0.60000002 42:0.94999999 43:0 44:0 45:0 46:0 #docid = GX009-52-9331840 inc = 1 prob = 0.211763
-0.10417649186492284 1:0.0042699999 2:0 3:0 4:0 5:0.0042659999 6:0 7:0 8:0 9:0 10:0 11:0.82072699 12:0 13:0 14:0 15:0.82559001 16:0.0036160001 17:0.076922998 18:0.142857 19:1 20:0.0038350001 21:0.33239099 22:0.44548601 23:0.28487301 24:0.35406399 25:0 26:0 27:0 28:0 29:0 30:0 31:0 32:0 33:0 34:0 35:0 36:0 37:0.313952 38:0.39076599 39:0.25478199 40:0.399046 41:1 42:1 43:0 44:0.0076549998 45:0.285714 46:0.33333299 #docid = GX030-85-4885400 inc = 0.0105998194346482 prob = 0.0389795
-0.063279217732713278 1:0.079714999 2:0 3:0 4:0 5:0.079640001 6:0 7:0 8:0 9:0 10:0 11:1 12:0 13:0 14:0 15:1 16:0.054400999 17:0.057691999 18:0.64285702 19:0 20:0.054575998 21:0.62894398 22:0.591043 23:0.90374899 24:0.55239701 25:0 26:0 27:0 28:0 29:0 30:0 31:0 32:0 33:0 34:0 35:0 36:0 37:0.60821497 38:0.55595303 39:0.80758601 40:0.58689702 41:0.2 42:0.050000001 43:0 44:0.000107 45:0.285714 46:0 #docid = GX037-51-12168660 inc = 0.0251425934278004 prob = 0.104563
-0.12923927320523454 1:0.049348 2:0 3:0 4:0 5:0.049300998 6:0 7:0 8:0 9:0 10:0 11:0.80902302 12:0 13:0 14:0 15:0.813097 16:0.068807997 17:0 18:0.214286 19:0.57142901 20:0.068841003 21:0.453042 22:0.27942401 23:0.51630002 24:0.345754 25:0 26:0 27:0 28:0 29:0 30:0 31:0 32:0 33:0 34:0 35:0 36:0 37:0.44129401 38:0.26392001 39:0.46559799 40:0.41565901 41:0.60000002 42:0.92500001 43:0 44:0 45:0 46:0.083333001 #docid = GX245-29-10586072 inc = 1 prob = 0.269593
-0.068512475294657094 1:0 2:0 3:0 4:0 5:0 6:0 7:0 8:0 9:0 10:0 11:0.82291299 12:0 13:0 14:0 15:0.82781303 16:0 17:0.057691999 18:0 19:0.285714 20:0 21:0.371108 22:0.37904501 23:0.00049200002 24:0 25:0 26:0 27:0 28:0 29:0 30:0 31:0 32:0 33:0 34:0 35:0 36:0 37:0.35246801 38:0.16707499 39:0 40:0 41:0.2 42:0.44999999 43:0 44:0.0070560002 45:0.142857 46:0 #docid = GX269-15-4603017 inc = 1 prob = 0.0821168
-0.23111626594298298 1:0.25638601 2:1 3:0 4:0 5:0.25827801 6:0 7:0 8:0 9:0 10:0 11:0.475234 12:1 13:0 14:0 15:0.47878399 16:0.237932 17:0.27272701 18:0 19:0.1 20:0.23803601 21:0.400139 22:0.50285399 23:0.57516003 24:0.57809502 25:0.69583303 26:0.675565 27:1 28:0.74900502 29:0 30:0 31:0 32:0 33:0 34:0 35:0 36:0 37:0.401391 38:0.503268 39:0.57548302 40:0.58076501 41:0.2 42:0.115385 43:0 44:0.003053 45:0.033333 46:0 #docid = GX002-19-15946572 inc = 1 prob = 0.660839
-0.058625126813425799 1:0.002838 2:0 3:1 4:0 5:0.0047300002 6:0 7:0 8:0 9:0 10:0 11:0.006151 12:0 13:1 14:0 15:0.0096789999 16:0 17:0 18:0.166667 19:0.1 20:0 21:0.572487 22:0.74673599 23:0.409563 24:0.70873499 25:0 26:0 27:0 28:0 29:1 30:1 31:1 32:1 33:0 34:0 35:0 36:0 37:0.60873401 38:0.71708298 39:0.44449401 40:0.64512098 41:0.2 42:0.153846 43:0 44:0 45:0 46:0 #docid = GX005-46-1216166 inc = 1 prob = 0.159475
0.058625126813425799 1:0.00094599999 2:0.5 3:0 4:0.5 5:0.002838 6:0 7:0 8:0 9:0 10:0 11:0.0026179999 12:0.5 13:0 14:0.5 15:0.006147 16:0.00041499999 17:0.045455001 18:0.25 19:0.050000001 20:0.00044100001 21:0.45372099 22:0.56899899 23:0.34468499 24:0.548347 25:1 26:1 27:0.73526001 28:1 29:0 30:0 31:0 32:0 33:0.82575202 34:0.80536199 35:0.76183897 36:0.93256301 37:0.52122903 38:0.59546602 39:0.39298099 40:0.55487299 41:0.2 42:0.115385 43:0 44:0.012233 45:0.066666998 46:0 #docid = GX033-55-2770609 inc = 0.054711603038379 prob = 0.135327
0.063946300399171152 1:0.114475 2:0 3:1 4:0.5 5:0.117313 6:0 7:0 8:0 9:0 10:0 11:0.18715601 12:0 13:1 14:0.5 15:0.192386 16:0.035269 17:0 18:0.41666701 19:0.050000001 20:0.035321001 21:1 22:1 23:1 24:1 25:0 26:0 27:0 28:0 29:0.67074299 30:0.86421299 31:0.99904799 32:0.88920599 33:0.82575202 34:0.80536199 35:0.76183897 36:0.93256301 37:1 38:1 39:1 40:1 41:0.40000001 42:0 43:0 44:0 45:0 46:0 #docid = GX127-45-2858600 inc = 1 prob = 0.561001
0.16716996554381183 1:0.068117 2:0 3:1 4:0 5:0.070009001 6:0 7:0 8:0 9:0 10:0 11:0.109645 12:0 13:1 14:0 15:0.113139 16:0.028209999 17:0.227273 18:0.166667 19:0.15000001 20:0.028365999 21:0.89833897 22:0.91435701 23:0.88838702 24:0.932814 25:0 26:0 27:0 28:0 29:1 30:1 31:1 32:1 33:0 34:0 35:0 36:0 37:0.89976901 38:0.91437602 39:0.88942701 40:0.93310201 41:0.40000001 42:0.28846201 43:0 44:0.033723999 45:0.033333 46:0.26315799 #docid = GX237-82-7356249 inc = 1 prob = 0.948232
-0.1321112758745504 1:0.85289598 2:0 3:0 4:0 5:0.85289598 6:0 7:0 8:0 9:0 10:0 11:0 12:0 13:0 14:0 15:0 16:0.89058298 17:0.146341 18:0.15000001 19:1 20:0.89089799 21:0.225058 22:0.57690698 23:0.619317 24:0.69051301 25:0 26:0 27:0 28:0 29:0 30:0 31:0 32:0 33:0 34:0 35:0 36:0 37:0.22743499 38:0.59508699 39:0.62189299 40:0.69779003 41:0.60000002 42:1 43:0 44:0.0041840002 45:0.0026740001 46:0.23636401 #docid = GX133-78-4953069 inc = 1 prob = 0.102533
0.1321112758745504 1:0.022631001 2:0.45454499 3:0 4:0 5:0.02359 6:0 7:0 8:0 9:0 10:0 11:0.93755603 12:0.81891298 13:0 14:0 15:0.94198501 16:0.013648 17:0.219512 18:0.050000001 19:0.142857 20:0.013834 21:0.75175202 22:0.76852202 23:0.64762402 24:0.83629698 25:0.92938298 26:0.78313398 27:0.76514 28:0.76227099 29:0 30:0 31:0 32:0 33:0 34:0 35:0 36:0 37:0.765127 38:0.79076898 39:0.66522402 40:0.84707803 41:0 42:0.071428999 43:0 44:0.032246001 45:0.080214001 46:0.563636 #docid = GX227-38-13848507 inc = 1 prob = 0.191693
-0.27077704589136276 1:0.013049 2:1 3:0 4:1 5:0.017844999 6:0 7:0 8:0 9:0 10:0 11:0.057234999 12:0.77537698 13:0 14:1 15:0.063628003 16:0.0066829999 17:0.54545498 18:0.5 19:1 20:0.0084600002 21:1 22:1 23:0.78893101 24:1 25:0.86565799 26:0 27:0 28:0 29:0 30:0 31:0 32:0 33:1 34:1 35:1 36:1 37:1 38:1 39:0.83283401 40:1 41:1 42:1 43:0 44:0.740381 45:0.30769199 46:0.25 #docid = GX191-37-5793686 inc = 1 prob = 0.198413
0.0059460648101838931 1:1 2:0 3:0 4:0.25 5:1 6:0 7:0 8:0 9:0 10:0 11:1 12:0 13:0 14:0.130007 15:1 16:1 17:0 18:0 19:0.33333299 20:1 21:0.798513 22:0.77819097 23:1 24:0.87866002 25:0 26:0 27:0 28:0 29:0 30:0 31:0 32:0 33:0.223102 34:0 35:0 36:0 37:0.801498 38:0.78298801 39:1 40:0.873833 41:0.66666698 42:0.377193 43:0 44:0.006488 45:0.038462002 46:0 #docid = GX262-86-12563493 inc = 0.0380773197472546 prob = 0.870592
0.26483098108117886 1:0.408654 2:0 3:0 4:0 5:0.408373 6:0 7:0 8:0 9:0 10:0 11:0.21730401 12:0 13:0 14:0 15:0.215775 16:0.83739799 17:0 18:0 19:0.066666998 20:0.83713698 21:0.48474699 22:0.55695599 23:0.72333997 24:0.68946499 25:0 26:0 27:0 28:0 29:0 30:0 31:0 32:0 33:0 34:0 35:0 36:0 37:0.49277699 38:0.57262498 39:0.72477502 40:0.69181001 41:1 42:0 43:0 44:0 45:0 46:0 #docid = GX266-40-5772543 inc = 1 prob = 0.315192
-0.030449493220555457 1:0.94366199 2:0 3:1 4:0 5:0.96244103 6:0 7:0 8:0 9:0 10:0 11:0.94891798 12:0 13:1 14:0 15:0.96815902 16:0.79034299 17:1 18:1 19:0.058823999 20:0.79995698 21:0.60299301 22:0.79744202 23:0.84666198 24:0.79604298 25:0 26:0 27:0 28:0 29:0.054040998 30:0.084568001 31:1 32:0.048436001 33:0 34:0 35:0 36:0 37:0.607705 38:0.798581 39:0.847507 40:0.79710799 41:0.5 42:0.163265 43:0 44:0.56118703 45:0.75 46:0.121212 #docid = GX027-80-5095264 inc = 1 prob = 0.295881
-0.20364070670343182 1:0.046948001 2:0 3:0 4:0 5:0.046948001 6:0 7:0 8:0 9:0 10:0 11:0.048140999 12:0 13:0 14:0 15:0.048138 16:0.187438 17:0.41666701 18:0 19:0.35294101 20:0.187757 21:0.20263401 22:0.508681 23:0.58843303 24:0.59676999 25:0 26:0 27:0 28:0 29:0 30:0 31:0 32:0 33:0 34:0 35:0 36:0 37:0.206213 38:0.50988501 39:0.58945698 40:0.59772998 41:0.33333299 42:0.60204101 43:0 44:0.435505 45:0.166667 46:0 #docid = GX235-50-5755034 inc = 0.0979247768713904 prob = 0.143274
0.66725554120355968 1:0.018779 2:1 3:0 4:1 5:0.028169001 6:0 7:0 8:0 9:0 10:0 11:0.019257 12:1 13:0 14:1 15:0.028883001 16:0.016207 17:0.020833001 18:0 19:0.17647099 20:0.016013 21:0.66510701 22:0.78756601 23:0.72878802 24:0.883228 25:1 26:1 27:1 28:1 29:0 30:0 31:0 32:0 33:0.959975 34:0.820382 35:0.85689598 36:0.82038099 37:0.74403203 38:0.82093602 39:0.763201 40:0.91127801 41:0.33333299 42:0.285714 43:0 44:0.001162 45:0.027778 46:0 #docid = GX263-49-2995784 inc = 0.271352541842966 prob = 0.484895
-0.13245211273797963 1:0.36150199 2:0 3:0 4:0 5:0.36150199 6:0 7:0 8:0 9:0 10:0 11:0.35731399 12:0 13:0 14:0 15:0.357326 16:1 17:0.25 18:0 19:0.235294 20:1 21:0.285124 22:0.66406399 23:0.69753802 24:0.66544998 25:0 26:0 27:0 28:0 29:0 30:0 31:0 32:0 33:0 34:0 35:0 36:0 37:0.29069301 38:0.66561502 39:0.69883901 40:0.66688401 41:0.5 42:0.38775501 43:0 44:0.038571998 45:0.027778 46:0 #docid = GX265-36-11270447 inc = 1 prob = 0.12278
-0.30071322854159277 1:1 2:0 3:0 4:0 5:1 6:0 7:0 8:0 9:0 10:0 11:1 12:0 13:0 14:0 15:1 16:0.96054101 17:0 18:0 19:0.058823999 20:0.96018398 21:0.57882899 22:0.793549 23:0.84286898 24:0.79129201 25:0 26:0 27:0 28:0 29:0 30:0 31:0 32:0 33:0 34:0 35:0 36:0 37:0.58364701 38:0.79497498 39:0.84393197 40:0.792647 41:0.33333299 42:0.030611999 43:0 44:0 45:0 46:0 #docid = GX272-42-10015049 inc = 0.271352541842966 prob = 0.318289
-0.14349607701052886 1:0.031557001 2:0 3:0.5 4:1 5:0.032575 6:0 7:0 8:0 9:0 10:0 11:0.95385599 12:0 13:0.099638999 14:0.58378202 15:0.94316101 16:0.01739 17:0 18:0.81818199 19:1 20:0.017512999 21:0.68631101 22:0.872096 23:0.98587698 24:0.71938503 25:0 26:0 27:0 28:0 29:0.046443 30:0 31:0 32:0 33:0.490318 34:0 35:0 36:0 37:0.67046899 38:0.84844398 39:0.92572898 40:0.73868603 41:1 42:1 43:0 44:0.020478999 45:0 46:0 #docid = GX012-95-8828108 inc = 0.0133276447396679 prob = 0.541192
0.18222837898842803 1:0.0067250002 2:1 3:0 4:1 5:0.0082729999 6:0 7:0 8:0 9:0 10:0 11:0.97744 12:1 13:0 14:1 15:0.97329098 16:0.0031089999 17:0.66666698 18:0.090908997 19:0 20:0.0030360001 21:0.89700699 22:1 23:0.94068599 24:0.84574598 25:0.86821997 26:0.96331799 27:0.99928999 28:0.97078001 29:0 30:0 31:0 32:0 33:1 34:1 35:1 36:1 37:0.91310197 38:1 39:0.93882698 40:0.88628799 41:0 42:0 43:0 44:0.013073 45:0 46:0 #docid = GX019-77-4986540 inc = 0.0205498156448798 prob = 0.583695
-0.77263840492442215 1:0.020176001 2:0 3:0 4:0 5:0.020165 6:0 7:0 8:0 9:0 10:0 11:0.94503301 12:0 13:0 14:0 15:0.93489897 16:0.023681 17:1 18:0.27272701 19:0.75 20:0.023778999 21:0.366281 22:0.50718099 23:0.72433197 24:0.66312498 25:0 26:0 27:0 28:0 29:0 30:0 31:0 32:0 33:0 34:0 35:0 36:0 37:0.35891899 38:0.49143001 39:0.67505801 40:0.67705101 41:0.66666698 42:0.567568 43:0 44:0.59443903 45:0 46:0.02 #docid = GX027-83-2085048 inc = 0.00578690730386789 prob = 0.0295697
0.086929368372103938 1:0.018624 2:0 3:0 4:0 5:0.018614 6:0 7:0 8:0 9:0 10:0 11:0.94533998 12:0 13:0 14:0 15:0.935224 16:0.019285001 17:1 18:0.72727299 19:1 20:0.019529 21:0.15900999 22:0 23:0 24:0 25:0 26:0 27:0 28:0 29:0 30:0 31:0 32:0 33:0 34:0 35:0 36:0 37:0.15114801 38:0 39:0 40:0 41:1 42:0.97297299 43:0 44:0.124459 45:0.031746 46:0.31999999 #docid = GX029-57-2064246 inc = 0.00129662057570864 prob = 0.0843946
-0.93071018510965131 1:0 2:0 3:0 4:0 5:0 6:0 7:0 8:0 9:0 10:0 11:0.96920401 12:0 13:0 14:0 15:0.95874101 16:0.0043959999 17:0.166667 18:1 19:0.5 20:0.0045420001 21:0.83279198 22:0.953282 23:0.88979298 24:1 25:0 26:0 27:0 28:0 29:0 30:0 31:0 32:0 33:0 34:0 35:0 36:0 37:0.802876 38:0.89563602 39:0.82343102 40:1 41:0.33333299 42:0.216216 43:0 44:1 45:1 46:1 #docid = GX128-56-12631196 inc = 1 prob = 0.417228
1.6710424721830768 1:0 2:1 3:1 4:1 5:0.0025849999 6:0 7:0 8:0 9:0 10:0 11:1 12:1 13:1 14:1 15:1 16:0 17:0.5 18:0.18181799 19:0.75 20:0 21:1 22:0.94088501 23:1 24:0.62377101 25:1 26:1 27:1 28:1 29:1 30:1 31:1 32:1 33:0.874919 34:0.91349101 35:0.99721998 36:0.913634 37:1 38:0.93011701 39:1 40:0.65088099 41:0 42:0.48648599 43:0 44:0.33563599 45:0 46:0.039999999 #docid = GX239-77-15941753 inc = 1 prob = 0.102233
-0.0933555524990064 1:1 2:0.5 3:0 4:0 5:1 6:0 7:0 8:0 9:0 10:0 11:0 12:0.236137 13:0 14:0 15:0 16:1 17:0.83333302 18:0 19:0.25 20:1 21:0 22:0.113823 23:0.230729 24:0.24434701 25:0.18114799 26:0 27:0 28:0 29:0 30:0 31:0 32:0 33:0 34:0 35:0 36:0 37:0 38:0.122394 39:0.22838201 40:0.25709501 41:0 42:0 43:0 44:0 45:0 46:0 #docid = GX269-83-13975094 inc = 1 prob = 0.121447
-0.13904998120466505 1:0.001221 2:0.33333299 3:0.33333299 4:1 5:0.002443 6:0 7:0 8:0 9:0 10:0 11:0.087903999 12:0.42882401 13:0.69137597 14:1 15:0.091914997 16:0.000158 17:0.142857 18:0.076922998 19:0.285714 20:0.000204 21:0.226099 22:0.33171901 23:0.247987 24:0.17911699 25:0.77386099 26:0.52120203 27:0.37658599 28:0.44221199 29:0.74133098 30:0.68840897 31:0.35659599 32:0.70928001 33:1 34:1 35:1 36:1 37:0.26666901 38:0.32905501 39:0.28200901 40:0.205764 41:0.142857 42:0.40625 43:0 44:0.00085700001 45:0.0028250001 46:0 #docid = GX227-31-15804435 inc = 1 prob = 0.0877395
0.5028850335747217 1:0.64631701 2:0 3:0 4:0 5:0.646173 6:0 7:0 8:0 9:0 10:0 11:0.109388 12:0 13:0 14:0 15:0.108673 16:0.93519801 17:0.214286 18:0 19:0.285714 20:0.93498498 21:0.199048 22:0.64911801 23:0.67367101 24:0.71960503 25:0 26:0 27:0 28:0 29:0 30:0 31:0 32:0 33:0 34:0 35:0 36:0 37:0.200186 38:0.65034801 39:0.67605102 40:0.73672998 41:0.142857 42:0.328125 43:0 44:0.023642 45:0.0056500002 46:0 #docid = GX230-79-5780721 inc = 1 prob = 0.130149
-0.36383505237005664 1:0.0044769999 2:0.66666698 3:0.166667 4:1 5:0.0057000001 6:0 7:0 8:0 9:0 10:0 11:0.089539997 12:0.85764903 13:0.58768803 14:1 15:0.094457 16:0.002444 17:0.57142901 18:0.019231001 19:0.42857099 20:0.0025800001 21:0.231214 22:0.367073 23:0.27458099 24:0.160964 25:0.57670802 26:0.37231299 27:0.43896201 28:0.38003901 29:1 30:0.67913902 31:0.35615301 32:0.55158401 33:0.95830601 34:0.98061299 35:0.99923098 36:0.97900099 37:0.25251901 38:0.364757 39:0.29437599 40:0.21599001 41:0 42:0.359375 43:0 44:0.099358 45:0.0056500002 46:0.045455001 #docid = GX240-35-12706455 inc = 0.0352225889214708 prob = 0.0863634
0.012028647218971678 1:0.078431003 2:1 3:1 4:0 5:0.088054001 6:0 7:0 8:0 9:0 10:0 11:0.96521503 12:1 13:1 14:0 15:0.991032 16:0.023622001 17:1 18:0.77777803 19:0 20:0.025163 21:0.77535999 22:0.85719198 23:0.90308499 24:0.85614502 25:0.34057501 26:1 27:1 28:1 29:0.56155801 30:0.73809499 31:0.72843403 32:1 33:0 34:0 35:0 36:0 37:0.83386701 38:0.87754399 39:0.97881597 40:0.87850702 41:0 42:0 43:0 44:1 45:1 46:0.045455001 #docid = GX002-25-0748924 inc = 0.0421026760264969 prob = 0.986247
-0.15713733149310338 1:0 2:0 3:0.66666698 4:0 5:0 6:0 7:0 8:0 9:0 10:0 11:0.90938199 12:0 13:0.53479898 14:0 15:0.91403198 16:0 17:0 18:0.555556 19:0.36363599 20:0 21:0 22:0 23:0 24:0 25:0 26:0 27:0 28:0 29:0.36624199 30:0 31:0 32:0 33:0 34:0 35:0 36:0 37:0 38:0 39:0 40:0 41:0.40000001 42:0.50943398 43:0 44:0 45:0 46:0 #docid = GX003-46-6001946 inc = 0.00405496361839872 prob = 0.0445757
0.40550774123318345 1:0.027450999 2:0.125 3:0.66666698 4:1 5:0.029163999 6:0 7:0 8:0 9:0 10:0 11:0.97030801 12:0.17171299 13:0.97944099 14:1 15:0.98481399 16:0.010235 17:0.028169001 18:0.222222 19:0.36363599 20:0.010213 21:1 22:1 23:0.89605802 24:1 25:1 26:0 27:0 28:0 29:1 30:1 31:1 32:0.99535203 33:1 34:1 35:1 36:1 37:0.98180097 38:0.98657298 39:0.93252802 40:1 41:0.60000002 42:0.43396199 43:0 44:0.035211999 45:0.142857 46:1 #docid = GX013-31-7327082 inc = 0.0421026760264969 prob = 0.912312
-0.12589890456041486 1:0.17198899 2:0 3:0 4:0 5:0.17106 6:0 7:0 8:0 9:0 10:0 11:0.99570501 12:0 13:0 14:0 15:0.99380702 16:0.067423999 17:0.042254001 18:1 19:0.27272701 20:0.067555003 21:0.72532803 22:0.887164 23:1 24:0.88409698 25:0 26:0 27:0 28:0 29:0 30:0 31:0 32:0 33:0 34:0 35:0 36:0 37:0.67468798 38:0.843207 39:0.99454898 40:0.86536199 41:0.2 42:0.45282999 43:0 44:0.044105999 45:0.071428999 46:0.090908997 #docid = GX023-78-14348596 inc = 1 prob = 0.964871
-0.13450015239863689 1:1 2:0 3:0 4:0 5:1 6:0 7:0 8:0 9:0 10:0 11:0 12:0 13:0 14:0 15:0 16:1 17:0 18:0 19:1 20:1 21:0.2131 22:0.485517 23:0.60213298 24:0.57550198 25:0 26:0 27:0 28:0 29:0 30:0 31:0 32:0 33:0 34:0 35:0 36:0 37:0.192885 38:0.45347399 39:0.59371197 40:0.56173199 41:1 42:1 43:0 44:0 45:0 46:0 #docid = GX257-78-11880597 inc = 1 prob = 0.246604
1.2358883747098925 1:0.379953 2:0 3:0 4:0 5:0.379769 6:0 7:0 8:0 9:0 10:0 11:0.38558501 12:0 13:0 14:0 15:0.38924599 16:0.96096802 17:0.466667 18:0.88888901 19:0.105263 20:0.96114701 21:0.30755699 22:0.63960803 23:0.70161802 24:0.80375499 25:0 26:0 27:0 28:0 29:0 30:0 31:0 32:0 33:0 34:0 35:0 36:0 37:0.31621501 38:0.65711302 39:0.69726902 40:0.81954402 41:0.75 42:0.232143 43:0 44:0.109693 45:0.019231001 46:0.052632 #docid = GX012-19-13993455 inc = 0.128550438823012 prob = 0.111636
-0.32143960425835516 1:0.010645 2:1 3:1 4:1 5:0.011831 6:0 7:0 8:0 9:0 10:0 11:0.47097301 12:1 13:1 14:1 15:0.48681399 16:0.011596 17:0.40000001 18:1 19:0.052632 20:0.011963 21:0.53922099 22:0.50062901 23:0.439509 24:0.51872998 25:0.650693 26:0.92336398 27:0.99765301 28:0.92967498 29:0.54238403 30:0.881908 31:0.996575 32:0.89977598 33:1 34:1 35:1 36:1 37:0.55347103 38:0.518049 39:0.44389299 40:0.54616702 41:0.5 42:0.0625 43:0 44:0.001955 45:0.0048079998 46:0.36842099 #docid = GX073-75-11391754 inc = 1 prob = 0.106944
-0.91444877045153727 1:0.026316 2:1 3:1 4:0 5:0.027210999 6:0 7:0 8:0 9:0 10:0 11:0.51331401 12:1 13:1 14:0 15:0.52704901 16:0.017778 17:0.2 18:0.33333299 19:0 20:0.017859999 21:0.57454801 22:0.57903898 23:0.54128802 24:0.61675698 25:1 26:1 27:1 28:1 29:1 30:1 31:1 32:1 33:0 34:0 35:0 36:0 37:0.58026499 38:0.60042799 39:0.53851002 40:0.63998401 41:0 42:0.0625 43:0 44:0.0046850001 45:0.0048079998 46:0.052632 #docid = GX243-23-6169642 inc = 0.0394552736171464 prob = 0.107987
-0.13468944295323948 1:0 2:0 3:0 4:0 5:0 6:0 7:0 8:0 9:0 10:0 11:0 12:0 13:0 14:0 15:0 16:0.015457 17:0 18:0.107143 19:0 20:0.015237 21:0 22:0 23:0 24:0 25:0 26:0 27:0 28:0 29:0 30:0 31:0 32:0 33:0 34:0 35:0 36:0 37:0 38:0 39:0 40:0 41:0 42:0 43:0 44:0 45:0 46:0.319444 #docid = GX000-00-14439911 inc = 1 prob = 0.0897452
-0.065174075297117939 1:0.100865 2:0 3:0 4:0 5:0.100719 6:0 7:0 8:0 9:0 10:0 11:0.100865 12:0 13:0 14:0 15:0.100719 16:0.015504 17:0.60869598 18:0.178571 19:0.80000001 20:0.015849 21:1 22:0.98193401 23:0.92671198 24:0.97668201 25:0 26:0 27:0 28:0 29:0 30:0 31:0 32:0 33:0 34:0 35:0 36:0 37:0.99988103 38:0.97940999 39:0.924698 40:0.971614 41:0.66666698 42:0.79661 43:0 44:0.850851 45:0.1417 46:1 #docid = GX000-38-10424237 inc = 0.237887105451392 prob = 0.841412
0.37792385724627842 1:0.0028820001 2:1 3:1 4:1 5:0.0071939998 6:0 7:0 8:0 9:0 10:0 11:0.0028820001 12:1 13:1 14:1 15:0.0071939998 16:0 17:0.217391 18:0.071428999 19:0.5 20:0 21:0.802697 22:0.84634602 23:0.220837 24:0.89940703 25:0.60466099 26:0 27:0 28:0 29:1 30:1 31:1 32:1 33:1 34:0 35:0 36:0 37:0.92002302 38:0.97765899 39:0.417402 40:1 41:0.5 42:0.79661 43:0 44:0.117545 45:0.012146 46:0.0069439998 #docid = GX011-48-12226186 inc = 1 prob = 0.321439
-0.178060338995921 1:1 2:1 3:0 4:0 5:1 6:0 7:0 8:0 9:0 10:0 11:1 12:1 13:0 14:0 15:1 16:0.77613097 17:0.086957 18:0 19:0.5 20:0.77559298 21:0.91781199 22:0.70821202 23:0.86794102 24:0.63471699 25:1 26:1 27:1 28:1 29:0 30:0 31:0 32:0 33:0 34:0 35:0 36:0 37:0.92160302 38:0.71337199 39:0.86876899 40:0.63906598 41:0.66666698 42:0.576271 43:0 44:0.0022219999 45:0.0080970004 46:0 #docid = GX254-67-0302897 inc = 1 prob = 0.712917
0.23480697195275502 1:0.021526 2:1 3:0 4:0 5:0.02159 6:0 7:0 8:0 9:0 10:0 11:0.016797001 12:1 13:0 14:0 15:0.016829999 16:0.014512 17:0.222222 18:0.090908997 19:0.142857 20:0.014325 21:0.623133 22:0.47444701 23:0.66623998 24:0.40248799 25:1 26:1 27:1 28:1 29:0 30:0 31:0 32:0 33:0 34:0 35:0 36:0 37:0.66865301 38:0.52023703 39:0.61355603 40:0.47720399 41:0.40000001 42:0.32692301 43:0 44:0 45:0 46:0 #docid = GX011-57-11264933 inc = 1 prob = 0.79154
-0.14963597068527057 1:0 2:0 3:1 4:0 5:0 6:0 7:0 8:0 9:0 10:0 11:0 12:0 13:1 14:0 15:0 16:0 17:0.111111 18:0.72727299 19:0.42857099 20:0 21:0.044992 22:0.77164298 23:0 24:1 25:0 26:0 27:0 28:0 29:0.987625 30:1 31:1 32:1 33:0 34:0 35:0 36:0 37:0.476917 38:0.96990198 39:0 40:1 41:0.60000002 42:0.82692301 43:0 44:0.00092199998 45:0.0048540002 46:0 #docid = GX042-49-9403959 inc = 0.013946765557485 prob = 0.135174
-0.30394573810679049 1:0.073385999 2:0 3:1 4:0 5:0.073601998 6:0 7:0 8:0 9:0 10:0 11:0.048982002 12:0 13:1 14:0 15:0.049073 16:0.041030001 17:0.555556 18:0.909091 19:1 20:0.041280001 21:0.73992902 22:0.58551103 23:1 24:0.471827 25:0 26:0 27:0 28:0 29:0.84764898 30:0.92629701 31:0.99928302 32:0.95394301 33:0 34:0 35:0 36:0 37:0.74150002 38:0.58691102 39:1 40:0.51842701 41:1 42:1 43:0 44:0.0026489999 45:0.0048540002 46:0 #docid = GX119-67-16183898 inc = 0.0388265186231777 prob = 0.958053
0.21877473683930604 1:1 2:0 3:0 4:0 5:1 6:0 7:0 8:0 9:0 10:0 11:1 12:0 13:0 14:0 15:1 16:1 17:0 18:0 19:0.142857 20:1 21:0 22:0 23:0.6243 24:0 25:0 26:0 27:0 28:0 29:0 30:0 31:0 32:0 33:0 34:0 35:0 36:0 37:0 38:0 39:0.49893299 40:0 41:0.2 42:0.26923099 43:0 44:0.00051699998 45:0 46:0 #docid = GX265-12-0968246 inc = 1 prob = 0.122647
0.26555875757946978 1:0.00057199999 2:0 3:0 4:0 5:0.00057099998 6:0 7:0 8:0 9:0 10:0 11:0.00057199999 12:0 13:0 14:0 15:0.00057099998 16:2.4999999e-005 17:0.64285702 18:0.222222 19:0.555556 20:0.000124 21:0.79305702 22:0.852754 23:0.342219 24:0.901025 25:0 26:0 27:0 28:0 29:0 30:0 31:0 32:0 33:0 34:0 35:0 36:0 37:0.77433002 38:0.716941 39:0.33992499 40:0.76188701 41:0.60000002 42:0.33333299 43:0 44:0.059796002 45:1 46:0 #docid = GX049-46-2104686 inc = 1 prob = 0.0917213
-0.26555875757946978 1:1 2:0 3:1 4:1 5:1 6:0 7:0 8:0 9:0 10:0 11:1 12:0 13:1 14:1 15:1 16:0.38851801 17:0 18:1 19:0.555556 20:0.38863501 21:0.98906499 22:0.833655 23:1 24:0.82780403 25:0 26:0 27:0 28:0 29:0.77104199 30:0.92562997 31:0.99923098 32:0.460841 33:0.97167701 34:0.943977 35:0.99926198 36:0.88846898 37:0.99020702 38:0.84413499 39:1 40:0.838552 41:1 42:0.45161301 43:0 44:0 45:0 46:0 #docid = GX049-73-13771862 inc = 1 prob = 0.135269
-0.58504155049318052 1:1 2:1 3:1 4:1 5:1 6:0 7:0 8:0 9:0 10:0 11:1 12:1 13:0.86969203 14:1 15:1 16:0.26717201 17:0.66666698 18:0.66666698 19:0.125 20:0.271786 21:0.30703601 22:0.414435 23:0.41985399 24:0.37494901 25:1 26:1 27:1 28:1 29:0.70747399 30:1 31:1 32:1 33:1 34:0.89226502 35:0.30279601 36:1 37:0.293962 38:0.45055199 39:0.41996101 40:0.37508899 41:0.25 42:0.097345002 43:0 44:0.232108 45:1 46:0.093023002 #docid = GX022-38-1617178 inc = 0.0331703246235716 prob = 0.19634
0.056524035767740566 1:0.15873 2:0 3:0 4:0.5 5:0.13513499 6:0 7:0 8:0 9:0 10:0 11:0.181564 12:0 13:0 14:0.97986501 15:0.20834699 16:0.23636401 17:0.111111 18:0 19:0.1875 20:0.23667599 21:0.38249001 22:0.84310901 23:0.94511598 24:1 25:0 26:0 27:0 28:0 29:0 30:0 31:0 32:0 33:0.93901098 34:1 35:1 36:0.76937401 37:0.60675699 38:0.97004098 39:0.99710202 40:1 41:0.75 42:0.221239 43:0 44:0.059994999 45:0.285714 46:0 #docid = GX229-71-6029514 inc = 1 prob = 0.510236
0.52851751472543995 1:0.206349 2:0 3:0 4:0 5:0.16216201 6:0 7:0 8:0 9:0 10:0 11:0.216582 12:0 13:0 14:0 15:0.173186 16:0.82196999 17:0.166667 18:0.25 19:0.0625 20:0.82293499 21:0.057213999 22:0.63019598 23:0.83143097 24:0.78019297 25:0 26:0 27:0 28:0 29:0 30:0 31:0 32:0 33:0 34:0 35:0 36:0 37:0.027899999 38:0.65468901 39:0.82413101 40:0.74735999 41:0 42:0.017698999 43:0 44:0.034125999 45:0.142857 46:0.60465097 #docid = GX250-83-7691868 inc = 1 prob = 0.414775
0.047299920077862795 1:1 2:0 3:1 4:0 5:1 6:0 7:0 8:0 9:0 10:0 11:1 12:0 13:1 14:0 15:1 16:0.62717402 17:0.078947 18:0.75 19:0.125 20:0.627406 21:1 22:1 23:1 24:1 25:0 26:0 27:0 28:0 29:0.94770199 30:1 31:1 32:1 33:0 34:0 35:0 36:0 37:1 38:1 39:1 40:1 41:0 42:0.2 43:0 44:0.032047998 45:0.27586201 46:0 #docid = GX004-99-11499450 inc = 1 prob = 0.262911
-2.972676829693377e-007 1:0.0021520001 2:0.25 3:0.33333299 4:1 5:0.003582 6:0 7:0 8:0 9:0 10:0 11:0.0020290001 12:0.25 13:0.33476201 14:1 15:0.0049180002 16:0.001775 17:0.052632 18:0.125 19:0.25 20:0.0017190001 21:0.47653201 22:0.51357502 23:0.21305799 24:0.54056197 25:1 26:1 27:0 28:1 29:0.83637202 30:0.132007 31:0.0027590001 32:0.086156003 33:1 34:0 35:0 36:0 37:0.55527401 38:0.59275299 39:0.275942 40:0.58669698 41:0 42:0.246154 43:0 44:1 45:0.65517199 46:0.2 #docid = GX242-51-8029981 inc = 0.00193541193048049 prob = 0.0960528
-0.047299622810179826 1:0.00071699999 2:0 3:0 4:0 5:0 6:0 7:0 8:0 9:0 10:0 11:5.6000001e-005 12:0 13:0 14:0 15:0 16:0.0015219999 17:0.105263 18:0.25 19:1 20:0.001917 21:0 22:0 23:0 24:0 25:0 26:0 27:0 28:0 29:0 30:0 31:0 32:0 33:0 34:0 35:0 36:0 37:0 38:0 39:0 40:0 41:0.66666698 42:1 43:0 44:0.035309002 45:0.034483001 46:0.028571 #docid = GX253-63-14147416 inc = 0.000987544963679237 prob = 0.0897085
0.62111154077355679 1:0.118483 2:0 3:0 4:0 5:0.079208001 6:0 7:0 8:0 9:0 10:0 11:0.31394801 12:0 13:0 14:0 15:0.322465 16:0.01184 17:0.18181799 18:0.88888901 19:0 20:0.0112 21:0.43329099 22:0.61920297 23:0.83260697 24:0.31082499 25:0 26:0 27:0 28:0 29:0 30:0 31:0 32:0 33:0 34:0 35:0 36:0 37:0.38153499 38:0.575091 39:0.78447002 40:0.28121999 41:0 42:0.172414 43:0 44:1 45:1 46:0.45454499 #docid = GX006-02-8824071 inc = 1 prob = 0.208082
0.58219079827538467 1:1 2:0 3:0 4:0 5:1 6:0 7:0 8:0 9:0 10:0 11:1 12:0 13:0 14:0 15:1 16:0.124994 17:0 18:0 19:0.33333299 20:0.124 21:0.75202298 22:0.32584101 23:0.888322 24:0.39422801 25:0 26:0 27:0 28:0 29:0 30:0 31:0 32:0 33:0 34:0 35:0 36:0 37:0.68031198 38:0.31307101 39:0.84394598 40:0.37650201 41:0 42:0 43:0 44:0 45:0 46:1 #docid = GX197-57-10950096 inc = 0.00902496221577373 prob = 0.235137
1 1:0.89573503 2:0 3:0 4:0 5:0.89108902 6:0 7:0 8:0 9:0 10:0 11:0 12:0 13:0 14:0 15:0 16:1 17:0.36363599 18:0 19:0.66666698 20:1 21:0 22:0 23:0 24:0 25:0 26:0 27:0 28:0 29:0 30:0 31:0 32:0 33:0 34:0 35:0 36:0 37:0 38:0 39:0 40:0 41:1 42:0.137931 43:0 44:0.023936 45:0.093023002 46:0 #docid = GX232-77-15132767 inc = 0.00268188420819908 prob = 0.251552
-2.2033023390489417 1:0.085308 2:0.60000002 3:1 4:1 5:0.099009998 6:0 7:0 8:0 9:0 10:0 11:0.481197 12:0.53258198 13:1 14:1 15:0.53564602 16:0.00069900003 17:0.36363599 18:0.77777803 19:0.66666698 20:0.00019999999 21:0.73944902 22:0.90541297 23:1 24:0.67798501 25:1 26:0 27:0 28:0 29:1 30:1 31:1 32:1 33:1 34:0 35:0 36:0 37:0.67624497 38:0.84015298 39:1 40:0.66155601 41:0 42:1 43:0 44:0.00163 45:0.023256 46:0.18181799 #docid = GX233-52-16228627 inc = 1 prob = 0.16352
-0.3271593119043521 1:0.193277 2:1 3:1 4:0 5:0.201681 6:0 7:0 8:0 9:0 10:0 11:0.548998 12:0.94570702 13:1 14:0 15:0.594549 16:0.133976 17:0.75 18:0.75 19:0 20:0.134184 21:0.75319701 22:0.80251098 23:0.91580498 24:0.87388301 25:1 26:1 27:1 28:1 29:1 30:1 31:1 32:1 33:0 34:0 35:0 36:0 37:0.76475197 38:0.812244 39:0.92286497 40:0.88323897 41:0.25 42:0 43:0 44:0.059843 45:0.02 46:0.027778 #docid = GX032-48-4613711 inc = 0.0439893001982234 prob = 0.990425
0.17978521312980966 1:0.491597 2:0.33333299 3:0.33333299 4:0 5:0.494398 6:0 7:0 8:0 9:0 10:0 11:0.51024902 12:0.128442 13:0.077105001 14:0 15:0.50592899 16:0.70082998 17:1 18:1 19:0 20:0.70190197 21:0.46598399 22:0.73282701 23:0.888919 24:0.76748002 25:0.110162 26:0 27:0 28:0 29:0.064373001 30:0 31:0 32:0 33:0 34:0 35:0 36:0 37:0.47903901 38:0.737885 39:0.88933998 40:0.77388799 41:0.25 42:0.088889003 43:0 44:0.001046 45:0.02 46:0.083333001 #docid = GX048-32-7764271 inc = 0.022661561833295 prob = 0.88285
0.14737409877454244 1:0.054621998 2:0 3:0 4:0 5:0.054621998 6:0 7:0 8:0 9:0 10:0 11:0.041225001 12:0 13:0 14:0 15:0.041053001 16:0.068236999 17:0.125 18:0 19:0.5 20:0.067583002 21:0.58070302 22:0.80300301 23:0.79334098 24:0.84378099 25:0 26:0 27:0 28:0 29:0 30:0 31:0 32:0 33:0 34:0 35:0 36:0 37:0.58760202 38:0.80535197 39:0.79261702 40:0.84715402 41:0 42:0.97777802 43:0 44:0.000344 45:0.02 46:0 #docid = GX269-46-4971183 inc = 0.022661561833295 prob = 0.876782
1.0423631200268453 1:0.05618 2:1 3:1 4:1 5:0.090908997 6:0 7:0 8:0 9:0 10:0 11:0.052801002 12:1 13:1 14:1 15:0.083884999 16:0.0056210002 17:0.2 18:1 19:0 20:0.005622 21:1 22:1 23:0.93556798 24:1 25:1 26:1 27:1 28:1 29:1 30:0 31:0 32:0 33:1 34:1 35:1 36:1 37:1 38:1 39:1 40:1 41:0 42:0 43:0 44:0.055188999 45:0.5 46:1 #docid = GX004-73-9141129 inc = 1 prob = 0.976166
-0.11851485572395062 1:0.39325801 2:1 3:0 4:0 5:0.39772701 6:0 7:0 8:0 9:0 10:0 11:0.36961001 12:1 13:0 14:0 15:0.373757 16:0.193951 17:0.40000001 18:0.25 19:0.111111 20:0.19383 21:0.48122701 22:0.68849498 23:1 24:0.67317098 25:0.78206003 26:0.808411 27:0.99959701 28:0.80841798 29:0 30:0 31:0 32:0 33:0 34:0 35:0 36:0 37:0.37329799 38:0.57264501 39:0.95770103 40:0.61136299 41:0.40000001 42:0.262712 43:0 44:0.0074979998 45:0.166667 46:0.083333001 #docid = GX024-94-9198651 inc = 0.0401223045566336 prob = 0.754582
0.11851485572395062 1:0.011236 2:0 3:0 4:0 5:0 6:0 7:0 8:0 9:0 10:0 11:0.011321 12:0 13:0 14:0 15:0 16:0.003338 17:1 18:0.58333302 19:1 20:0.003824 21:0.58399802 22:0.69006997 23:0.70917702 24:0.888354 25:0 26:0 27:0 28:0 29:0 30:0 31:0 32:0 33:0 34:0 35:0 36:0 37:0.402491 38:0.52211201 39:0.63445401 40:0.77693301 41:0.80000001 42:1 43:0 44:0.11992 45:0.166667 46:0.83333302 #docid = GX172-90-0840400 inc = 0.0265760893749149 prob = 0.908098
-1 1:1 2:0 3:0 4:0 5:1 6:0 7:0 8:0 9:0 10:0 11:1 12:0 13:0 14:0 15:1 16:1 17:0.80000001 18:0 19:0 20:1 21:0.104421 22:0.34801999 23:0.69203401 24:0.382882 25:0 26:0 27:0 28:0 29:0 30:0 31:0 32:0 33:0 34:0 35:0 36:0 37:0 38:0.22026099 39:0.62000602 40:0.32508001 41:0.2 42:0.20339 43:0 44:0.151228 45:0.166667 46:0 #docid = GX243-51-8236617 inc = 1 prob = 0.289098
-0.04236312002684528 1:0 2:1 3:0 4:1 5:0.011364 6:0 7:0 8:0 9:0 10:0 11:0 12:0.77774101 13:0 14:0.72605598 15:0.003725 16:0 17:0.60000002 18:0.166667 19:0.444444 20:0 21:0 22:0 23:0 24:0 25:0.499401 26:0 27:0 28:0 29:0 30:0 31:0 32:0 33:0.52565801 34:0 35:0 36:0 37:0.041439999 38:0 39:0 40:0 41:1 42:0.33050799 43:0 44:1 45:0.5 46:0.083333001 #docid = GX247-72-10888191 inc = 0.00495260737867622 prob = 0.0287028
1.2304651305132595 1:0.022497 2:0 3:0 4:0 5:0.022026001 6:0 7:0 8:0 9:0 10:0 11:0.35793099 12:0 13:0 14:0 15:0.36722499 16:0.017312 17:0.117647 18:0.133333 19:0.076922998 20:0.017263001 21:0.62084502 22:0.57807398 23:0.606148 24:0.513605 25:0 26:0 27:0 28:0 29:0 30:0 31:0 32:0 33:0 34:0 35:0 36:0 37:0.62190503 38:0.54296798 39:0.60301101 40:0.53764999 41:0.125 42:0.089654997 43:0 44:0.61589301 45:0.001041 46:0.45153701 #docid = GX000-12-12356259 inc = 1 prob = 0.190018
1.0836439330514835 1:0.068813004 2:0 3:0 4:0 5:0.068282001 6:0 7:0 8:0 9:0 10:0 11:0.38657901 12:0 13:0 14:0 15:0.39485499 16:0.016855 17:0.235294 18:0.2 19:0.23076899 20:0.016948 21:0.70158398 22:0.717094 23:0.79360998 24:0.59121799 25:0 26:0 27:0 28:0 29:0 30:0 31:0 32:0 33:0 34:0 35:0 36:0 37:0.69900101 38:0.676956 39:0.79352403 40:0.60778302 41:0.5 42:0.25517201 43:0 44:0.0027670001 45:0.00085700001 46:0.059101999 #docid = GX009-68-12506568 inc = 0.0659529543788109 prob = 0.134776
-2.7771214061378764 1:0.056903001 2:0.53846198 3:0.80000001 4:1 5:0.062114999 6:0 7:0 8:0 9:0 10:0 11:0.36845699 12:0.44873899 13:0.76323003 14:1 15:0.38728499 16:0.014133 17:0.32352901 18:0.60000002 19:0.26923099 20:0.014383 21:0.81709898 22:0.91519302 23:0.86538798 24:0.88076299 25:1 26:1 27:0.62512302 28:0.836303 29:0.69211203 30:0.797732 31:0.77345198 32:0.74411899 33:1 34:1 35:1 36:1 37:0.82864898 38:0.87719601 39:0.88843799 40:0.86536902 41:0.375 42:0.27586201 43:0 44:0.00077699998 45:0.000245 46:0.030733 #docid = GX010-45-14185301 inc = 0.0550082300845064 prob = 0.204074
-1.9695939278408243 1:0.015439 2:0.384615 3:1 4:1 5:0.020264 6:0 7:0 8:0 9:0 10:0 11:0.34746301 12:0.312498 13:1 14:0.69708598 15:0.36207101 16:0.0033209999 17:0.441176 18:0.86666697 19:0.23076899 20:0.0036820001 21:0.826446 22:1 23:0.68621403 24:1 25:0.60918498 26:0.97145498 27:0.49016199 28:1 29:0.71006602 30:1 31:1 32:1 33:0.72614998 34:0.450977 35:0.182882 36:0.56429702 37:0.85928899 38:1 39:0.76239198 40:1 41:0.375 42:0.30344799 43:0 44:5.7000001e-005 45:0.000245 46:0.035461001 #docid = GX024-03-0289693 inc = 1 prob = 0.176863
1.7969070332883756 1:0.002206 2:0 3:0 4:0 5:0.001762 6:0 7:0 8:0 9:0 10:0 11:0.33050999 12:0 13:0 14:0 15:0.34032699 16:0.00067699997 17:0 18:0.26666701 19:0.30769199 20:0.00069199997 21:0.360697 22:0.56394398 23:0.30092299 24:0.54613602 25:0 26:0 27:0 28:0 29:0 30:0 31:0 32:0 33:0 34:0 35:0 36:0 37:0.34269801 38:0.47646099 39:0.29758701 40:0.51200098 41:0.5 42:0.27586201 43:0 44:0 45:0 46:0 #docid = GX047-53-10667775 inc = 0.150936956552634 prob = 0.0294654
0.77098084552054047 1:0.015439 2:0 3:0 4:0 5:0.014978 6:0 7:0 8:0 9:0 10:0 11:0.32273701 12:0 13:0 14:0 15:0.332371 16:0.010607 17:0.235294 18:0.40000001 19:0.19230799 20:0.010732 21:0.32462901 22:0.44533101 23:0.40162501 24:0.25368199 25:0 26:0 27:0 28:0 29:0 30:0 31:0 32:0 33:0 34:0 35:0 36:0 37:0.322016 38:0.414992 39:0.39885801 40:0.31983599 41:0.5 42:0.24137899 43:0 44:0.0024900001 45:0.000306 46:0.042553 #docid = GX048-03-14823351 inc = 0.00966211040345566 prob = 0.111408
-0.1352816083949584 1:0.244817 2:0 3:0 4:0 5:0.24405301 6:0 7:0 8:0 9:0 10:0 11:1 12:0 13:0 14:0 15:1 16:1 17:0.17647099 18:0 19:0.384615 20:1 21:0.39270601 22:0 23:0 24:0.022212001 25:0 26:0 27:0 28:0 29:0 30:0 31:0 32:0 33:0 34:0 35:0 36:0 37:0.39957699 38:0 39:0 40:0.129418 41:0.5 42:0.50344801 43:0 44:0.00032799999 45:6.0999999e-005 46:0 #docid = GX269-89-4073616 inc = 1 prob = 0.107799
0.077285372793931995 1:0.047049001 2:1 3:1 4:0 5:0.050469998 6:0 7:0 8:0 9:0 10:0 11:0.048652001 12:1 13:1 14:0 15:0.050643999 16:0.011778 17:0.142857 18:0.45454499 19:0 20:0.011653 21:0.999542 22:1 23:0.84731603 24:1 25:1 26:1 27:1 28:1 29:1 30:1 31:1 32:1 33:0 34:0 35:0 36:0 37:1 38:1 39:0.860789 40:1 41:0 42:0 43:0 44:0.099982999 45:0 46:1 #docid = GX006-79-8950490 inc = 0.0154412576898148 prob = 0.561822
-0.043271714954078444 1:1 2:0 3:0 4:0 5:1 6:0 7:0 8:0 9:0 10:0 11:1 12:0 13:0 14:0 15:1 16:1 17:1 18:0 19:0.75 20:1 21:0.50689 22:0.54907501 23:0.55962002 24:0.498927 25:0 26:0 27:0 28:0 29:0 30:0 31:0 32:0 33:0 34:0 35:0 36:0 37:0.49993801 38:0.543419 39:0.55914903 40:0.49380901 41:1 42:0.73913002 43:0 44:0.138035 45:0.33333299 46:0 #docid = GX230-15-10192515 inc = 1 prob = 0.122143
