SVM-light Version V6.20
0 # kernel type
3 # kernel parameter -d 
1 # kernel parameter -g 
1 # kernel parameter -s 
1 # kernel parameter -r 
empty# kernel parameter -u 
47 # highest feature index 
69 # number of training documents 
2 # number of support vectors plus 1 
0 # threshold b, each following line is a SV (starting with alpha*y)
1 1:-0.06808617 2:0.011392446 3:0.12465006 4:-0.2268689 5:-1.0284626 11:0.36503151 12:0.18693143 13:0.54689175 14:0.19357356 15:-0.66663671 16:0.6139096 17:0.25975052 18:-0.48427382 19:-0.078003697 20:0.49249604 21:-0.0054599917 22:-0.99018884 23:2.405071 24:-0.012452028 25:0.066355117 26:-0.063544132 27:0.095308803 28:0.095614761 29:-0.15090273 30:-0.33183268 31:-0.13235039 32:0.31784558 33:0.44113538 34:0.24830863 35:-0.21432601 36:-0.11687162 37:0.40382546 38:-0.50551146 39:0.63400489 40:1.0860697 41:-0.26147646 42:-0.29696625 43:-0.30452397 44:0.093500197 45:-0.63440132 #
