SVM-light Version V6.02
0 # kernel type
3 # kernel parameter -d 
1 # kernel parameter -g 
1 # kernel parameter -s 
1 # kernel parameter -r 
empty# kernel parameter -u 
46 # highest feature index 
42158 # number of training documents 
7817 # number of support vectors plus 1 
0 # threshold b, each following line is a SV (starting with alpha*y)
-0.20000000000000001 1:0 2:0 3:0 4:0 5:0 6:0 7:0 8:0 9:0 10:0 11:0 12:0 13:0 14:0 15:0 16:0.001348 17:0 18:0.222222 19:0 20:0.001282 21:0 22:0 23:0 24:0 25:0 26:0 27:0 28:0 29:0 30:0 31:0 32:0 33:0 34:0 35:0 36:0 37:0 38:0 39:0 40:0 41:0 42:0 43:0.017240999 44:0 45:0 46:0 #docid = GX000-00-0000000 inc = 1 prob = 0.0246906
0.24771690589433853 1:0.03131 2:0.66666698 3:0.5 4:0.166667 5:0.033206001 6:0 7:0 8:0 9:0 10:0 11:0.023327 12:0.64115697 13:0.49895099 14:0.32315299 15:0.026674001 16:0.029246001 17:0.5 18:0.222222 19:0.111111 20:0.029398 21:0.68912798 22:0.63622802 23:0.86976397 24:0.71640003 25:0.72518599 26:0.55496103 27:0.69598502 28:0.50405997 29:0.60294598 30:0.67953402 31:0.730286 32:0.68741399 33:0.529688 34:0.43699601 35:0.64373899 36:0.37233701 37:0.64688998 38:0.68610698 39:0.82390797 40:0.75009203 41:0.38542601 42:0.92307699 43:0.086207002 44:0.33333299 45:0.44827601 46:0 #docid = GX000-24-12369390 inc = 0.600318836372593 prob = 0.416367
0.10000000000000001 1:0.078681998 2:0.166667 3:0.5 4:0.33333299 5:0.080022 6:0 7:0 8:0 9:0 10:0 11:0.108216 12:0.17463499 13:0.50104898 14:0.351114 15:0.112102 16:0.118642 17:0.5625 18:0.944444 19:0.33333299 20:0.119184 21:0.69696701 22:0.48638701 23:0.93876803 24:0.57708198 25:0.20989101 26:0.160965 27:0.18526 28:0.128353 29:0.20590401 30:0.213219 31:0.256479 32:0.156858 33:0.35202199 34:0.131372 35:0.079659998 36:0.068824999 37:0.64982402 38:0.57858098 39:0.86855698 40:0.64138502 41:0.010462 42:0.076922998 43:0.074712999 44:0.83333302 45:0.67816103 46:0 #docid = GX000-62-7863450 inc = 1 prob = 0.56895
0.20000000000000001 1:0.019058 2:1 3:1 4:0.5 5:0.022591 6:0 7:0 8:0 9:0 10:0 11:0.021256 12:1 13:1 14:0.67426699 15:0.028989 16:0.020426 17:0.875 18:0.77777803 19:0.38888901 20:0.021043001 21:0.94914597 22:0.86762798 23:1 24:0.83812499 25:0.77613097 26:1 27:1 28:1 29:0.50556397 30:0.92200398 31:1 32:1 33:0.76981699 34:0.89027703 35:0.896671 36:0.94050002 37:0.91840303 38:0.86845702 39:1 40:0.86346 41:0.016642001 42:0.153846 43:0.040229999 44:0.83333302 45:0.89655203 46:0 #docid = GX016-48-5543459 inc = 1 prob = 0.775913
-0.10000000000000001 1:0.039476998 2:0 3:0.75 4:0.166667 5:0.040555 6:0 7:0 8:0 9:0 10:0 11:0.036178 12:0 13:0.75157303 14:0.175557 15:0.039085999 16:0.053319 17:0.1875 18:1 19:0.111111 20:0.053668 21:0.60590702 22:0.469614 23:0.82718098 24:0.58266097 25:0 26:0 27:0 28:0 29:0.26698399 30:0.20412301 31:0.32337701 32:0.17645 33:0.28775999 34:0.074987002 35:0.0023729999 36:0.052280001 37:0.56587499 38:0.56944001 39:0.76984501 40:0.64656699 41:0.073711 42:0.076922998 43:0.034483001 44:0.33333299 45:0.218391 46:0 #docid = GX037-87-3082362 inc = 0.588907390055858 prob = 0.3348
-0.10000000000000001 1:0.0035389999 2:0.66666698 3:0.5 4:1 5:0.0068049999 6:0 7:0 8:0 9:0 10:0 11:0.0073150001 12:0.55636501 13:0.425787 14:1 15:0.011953 16:0.0021220001 17:0.5 18:0.166667 19:0.555556 20:0.0024309999 21:1 22:0.82121301 23:0.61856902 24:0.76079398 25:0.629282 26:0.49673 27:0.32245299 28:0.42913499 29:0.58688498 30:0.57473999 31:0.203756 32:0.61102599 33:0.69147003 34:0.55813003 35:0.32014599 36:0.62123299 37:0.92714202 38:0.87184298 39:0.67217398 40:0.82963699 41:0.64706999 42:0.384615 43:0.028736001 44:1 45:0.827586 46:0 #docid = GX058-98-1548149 inc = 1 prob = 0.431154
-0.047716905894338524 1:0.016334999 2:0 3:0 4:0 5:0.016331 6:0 7:0 8:0 9:0 10:0 11:0.010301 12:0 13:0 14:0 15:0.01027 16:0.021044999 17:1 18:0.38888901 19:0.5 20:0.021594999 21:0.79024798 22:0.688227 23:0.82058001 24:0.72177899 25:0 26:0 27:0 28:0 29:0 30:0 31:0 32:0 33:0 34:0 35:0 36:0 37:0.729931 38:0.69388002 39:0.74993402 40:0.73435998 41:0.39286 42:0.30769199 43:0.022988999 44:1 45:0.74712598 46:0 #docid = GX197-89-11306652 inc = 0.600318836372593 prob = 0.18531
0.01263331064633455 1:0.0049009998 2:0 3:0.5 4:0.33333299 5:0.005988 6:0 7:0 8:0 9:0 10:0 11:0.005785 12:0 13:0.62348402 14:0.351114 15:0.0088959998 16:0.003758 17:0 18:0.111111 19:0.33333299 20:0.0037799999 21:0.76187903 22:0.72661501 23:0.535326 24:0.87209398 25:0 26:0 27:0 28:0 29:1 30:1 31:0.89489597 32:0.93333298 33:0.35202199 34:0.131372 35:0.079659998 36:0.068824999 37:0.82658899 38:0.864528 39:0.62593001 40:0.90076399 41:0.022267001 42:0.076922998 43:0 44:0.83333302 45:0.54022998 46:0 #docid = GX235-84-0891544 inc = 1 prob = 0.567746
-0.10000000000000001 1:0 2:0 3:0 4:0 5:0 6:0 7:0 8:0 9:0 10:0 11:0 12:0 13:0 14:0 15:0 16:0 17:0.125 18:0 19:0.277778 20:0 21:0 22:0 23:0 24:0 25:0 26:0 27:0 28:0 29:0 30:0 31:0 32:0 33:0 34:0 35:0 36:0 37:0 38:0 39:0 40:0 41:0.01482 42:0.076922998 43:0 44:0.5 45:0.27586201 46:0 #docid = GX244-34-9828671 inc = 1 prob = 0.107432
-0.01263331064633455 1:1 2:0 3:0 4:0.166667 5:1 6:0 7:0 8:0 9:0 10:0 11:1 12:0 13:0 14:0.175557 15:1 16:1 17:0.0625 18:0 19:0.555556 20:1 21:0.45156801 22:0.35715801 23:0.902004 24:0.496039 25:0 26:0 27:0 28:0 29:0 30:0 31:0 32:0 33:0.208336 34:0 35:0 36:0 37:0.41702899 38:0.49605301 39:0.83493 40:0.58319497 41:0.005597 42:0.076922998 43:0 44:1 45:0.68965501 46:0 #docid = GX271-51-4471771 inc = 1 prob = 0.251998
0.20000000000000001 1:0.17275301 2:0 3:0 4:0.33333299 5:0.172951 6:0 7:0 8:0 9:0 10:0 11:0.57445198 12:0 13:0 14:0.086167 15:0.57909298 16:0.1314 17:0.652174 18:0.3125 19:0.285714 20:0.131919 21:0.17682 22:0.36968401 23:0.36579999 24:0.271512 25:0 26:0 27:0 28:0 29:0 30:0 31:0 32:0 33:0.10413 34:0.004187 35:0.00040700001 36:0.00392 37:0.179065 38:0.37101501 39:0.30909801 40:0.28022701 41:0.013175 42:0.225806 43:0.190476 44:0.80000001 45:0.076086998 46:0 #docid = GX000-63-11995977 inc = 1 prob = 0.0317545
-0.20000000000000001 1:0.027493 2:1 3:1 4:0.33333299 5:0.031148 6:0 7:0 8:0 9:0 10:0 11:0.67992198 12:1 13:0.86489397 14:0.086167 15:0.688232 16:0.011489 17:0.26087001 18:0.375 19:0.142857 20:0.011783 21:0.36171499 22:0.65327299 23:0.40359899 24:0.53117502 25:0.92097598 26:1 27:1 28:1 29:1 30:1 31:0.850263 32:1 33:0.113603 34:0.014324 35:0.00122 36:0.013116 37:0.38573799 38:0.70771903 39:0.41100299 40:0.57573497 41:0.30303299 42:1 43:0.285714 44:0.80000001 45:0 46:0 #docid = GX002-50-7293787 inc = 1 prob = 0.0717811
0.10000000000000001 1:0.17152201 2:0 3:0 4:0.33333299 5:0.171721 6:0 7:0 8:0 9:0 10:0 11:0.57512099 12:0 13:0 14:0.086167 15:0.57981098 16:0.130509 17:0.130435 18:0.3125 19:0.285714 20:0.130731 21:0.178697 22:0.369306 23:0.36497301 24:0.270973 25:0 26:0 27:0 28:0 29:0 30:0 31:0 32:0 33:0.10413 34:0.004187 35:0.00040700001 36:0.00392 37:0.182036 38:0.37181801 39:0.30936101 40:0.28092301 41:0.0093900003 42:0.032258 43:0.142857 44:0.80000001 45:0.097825997 46:0 #docid = GX004-95-1230642 inc = 1 prob = 0.0330054
0.20000000000000001 1:0.051293001 2:0.5 3:0.25 4:0 5:0.052459002 6:0 7:0 8:0 9:0 10:0 11:0.64101201 12:0.33409601 13:0.124412 14:0 15:0.64541101 16:0.042835001 17:1 18:0.625 19:0.142857 20:0.043643001 21:0 22:0 23:0.092752002 24:0 25:0.096749 26:0 27:0 28:0 29:0.103072 30:0.045593001 31:0.0058189998 32:0.019138999 33:0 34:0 35:0 36:0 37:0 38:0 39:0.010815 40:0.022763001 41:0.0062899999 42:0.064516 43:0.047619 44:0.40000001 45:0.184783 46:0 #docid = GX006-96-11572725 inc = 1 prob = 0.0336455
-0.10000000000000001 1:0.033238001 2:0.5 3:0.5 4:0 5:0.034836002 6:0 7:0 8:0 9:0 10:0 11:0.72252703 12:0.61580002 13:0.62756401 14:0 15:0.73263103 16:0.017232999 17:0.30434799 18:0.625 19:0.214286 20:0.017674999 21:0.81037998 22:0.671637 23:0.597561 24:0.67973799 25:0.50798899 26:0.634754 27:0.857041 28:0.50028998 29:0.51991898 30:0.68646801 31:0.977328 32:0.55856198 33:0 34:0 35:0 36:0 37:0.82940203 38:0.67127699 39:0.57122999 40:0.65368003 41:0.099349998 42:0.93548399 43:0.619048 44:0.40000001 45:0.173913 46:0 #docid = GX007-87-13144162 inc = 0.643589520753051 prob = 0.211851
1.7000000000000004 1:0.99794799 2:0 3:0.25 4:0 5:0.99713099 6:0 7:0 8:0 9:0 10:0 11:0 12:0 13:0.124412 14:0 15:0 16:0.921363 17:0 18:1 19:0.285714 20:0.92162597 21:0.00152 22:0.18926699 23:0.226142 24:0.069651999 25:0 26:0 27:0 28:0 29:0.072322004 30:0 31:0 32:0 33:0 34:0 35:0 36:0 37:0.001702 38:0.192128 39:0.157553 40:0.093970999 41:0 42:0 43:0 44:0.60000002 45:0.41304299 46:0 #docid = GX009-26-3264567 inc = 1 prob = 0.0342955
-0.10000000000000001 1:0.056627002 2:0.75 3:0.75 4:0.33333299 5:0.059425998 6:0 7:0 8:0 9:0 10:0 11:0.68132699 12:0.83295202 13:0.74048197 14:0.37133199 15:0.69104803 16:0.019164 17:0.26087001 18:0.375 19:0.35714301 20:0.019532001 21:0.400433 22:0.58564901 23:0.53670198 24:0.51888603 25:0.767129 26:0.86043602 27:0.97566998 28:0.78035599 29:0.85615301 30:0.86701798 31:0.83548301 32:0.795587 33:0.43078199 34:0.34757099 35:0.44056201 36:0.266247 37:0.401546 38:0.60315901 39:0.51815498 40:0.52500403 41:0.00094200001 42:0.032258 43:0 44:0.60000002 45:0.29347801 46:0 #docid = GX011-63-1510863 inc = 0.651833215810893 prob = 0.115862
-0.10000000000000001 1:0.028724 2:0.5 3:0 4:0 5:0.029508 6:0 7:0 8:0 9:0 10:0 11:0.70541102 12:0.61580002 13:0 14:0 15:0.71283603 16:0.01342 17:0.217391 18:0.125 19:0.285714 20:0.01364 21:0.87874597 22:0.93925798 23:0.65142202 24:0.96649098 25:0.64187402 26:0.67731202 27:0.85974997 28:0.52916902 29:0 30:0 31:0 32:0 33:0 34:0 35:0 36:0 37:0.889898 38:0.93319702 39:0.62641102 40:0.91642302 41:0.00072200003 42:0.16129 43:0 44:0.60000002 45:0.33695701 46:0 #docid = GX012-83-6461625 inc = 1 prob = 0.503165
-0.10000000000000001 1:0.095609002 2:0.5 3:0.25 4:0 5:0.096721001 6:0 7:0 8:0 9:0 10:0 11:0.76525998 12:0.46649399 13:0.29569399 14:0 15:0.76540399 16:0.018347001 17:0.43478301 18:0.25 19:0.071428999 20:0.018665001 21:0.71253002 22:0.920151 23:0.87111503 24:0.87699902 25:0.29311401 26:0.39043501 27:0.22864901 28:0.331799 29:0.42618099 30:0.34569401 31:0.38357201 32:0.217511 33:0 34:0 35:0 36:0 37:0.73471701 38:0.92298502 39:0.86341602 40:0.84178102 41:0.144271 42:0.16129 43:0.285714 44:0.2 45:0.097825997 46:0 #docid = GX012-93-9423586 inc = 0.304856668933296 prob = 0.0757876
-0.30000000000000004 1:0.0045139999 2:1 3:1 4:0 5:0.0077869999 6:0 7:0 8:0 9:0 10:0 11:0.68029702 12:1 13:0.86489397 14:0 15:0.68894702 16:0.001188 17:0.26087001 18:0.375 19:0 20:0.001436 21:0.31902999 22:0.83962798 23:0.18878201 24:0.861525 25:0.92097598 26:1 27:1 28:1 29:1 30:1 31:0.850263 32:1 33:0 34:0 35:0 36:0 37:0.39207101 38:0.91729701 39:0.24204899 40:0.88254702 41:0.003489 42:0.064516 43:0 44:0 45:0.065217003 46:0 #docid = GX020-55-3179021 inc = 1 prob = 0.145224
-0.10000000000000001 1:0.036109999 2:0.5 3:0.5 4:0.33333299 5:0.038114998 6:0 7:0 8:0 9:0 10:0 11:0.69160002 12:0.61580002 13:0.62756401 14:0.086167 15:0.70187497 16:0.021863 17:0.47826099 18:0.6875 19:0.142857 20:0.022403 21:0.75422603 22:0.74766201 23:0.57201701 24:0.73157299 25:0.35845301 26:0.577865 27:0.851632 28:0.46150601 29:0.48551399 30:0.67404801 31:0.97635698 32:0.55068302 33:0.113603 34:0.014324 35:0.00122 36:0.013116 37:0.78953201 38:0.76839501 39:0.56479102 40:0.72713298 41:8.6e-005 42:0.032258 43:0.047619 44:0.40000001 45:0.19565199 46:0 #docid = GX021-29-0120817 inc = 1 prob = 0.62504
-0.10000000000000001 1:0.035700001 2:0 3:0.75 4:0.33333299 5:0.037294999 6:0 7:0 8:0 9:0 10:0 11:0.69209498 12:0 13:0.78173 14:0.086167 15:0.69972497 16:0.021219 17:0.043478001 18:1 19:0.285714 20:0.021685001 21:0.75073302 22:0.76032603 23:0.574444 24:0.748842 25:0 26:0 27:0 28:0 29:0.45442599 30:0.741386 31:1 32:0.71169198 33:0.10413 34:0.004187 35:0.00040700001 36:0.00392 37:0.76892197 38:0.77367699 39:0.55648899 40:0.73604202 41:0.048135001 42:0.032258 43:0.095238 44:0.60000002 45:0.31521699 46:0 #docid = GX023-10-5254089 inc = 0.651833215810893 prob = 0.486196
-0.10000000000000001 1:0.035700001 2:0 3:0 4:0 5:0.035656001 6:0 7:0 8:0 9:0 10:0 11:0.78325599 12:0 13:0 14:0 15:0.78716499 16:0.010374 17:0.30434799 18:0.3125 19:0.142857 20:0.010669 21:1 22:0.86276001 23:0.77824003 24:0.79741901 25:0 26:0 27:0 28:0 29:0 30:0 31:0 32:0 33:0 34:0 35:0 36:0 37:1 38:0.84112 39:0.74454701 40:0.74202698 41:0.139543 42:0.16129 43:0.285714 44:0.40000001 45:0.23913001 46:0 #docid = GX027-44-7302986 inc = 1 prob = 0.187674
-0.10000000000000001 1:0.052933998 2:0.5 3:0.5 4:0.33333299 5:0.054917999 6:0 7:0 8:0 9:0 10:0 11:0.691185 12:0.61580002 13:0.62756401 14:0.086167 15:0.70028597 16:0.022333 17:0.39130399 18:0.5625 19:0.214286 20:0.022799 21:0.74240202 22:0.87606001 23:0.71263099 24:0.89909703 25:0.42031699 26:0.60307503 27:0.85433501 28:0.47872299 29:0.55957299 30:0.700203 31:0.97829998 32:0.56727201 33:0.10866 34:0.0089180004 35:0.00081300002 36:0.0082590003 37:0.79571301 38:0.90055102 39:0.72244298 40:0.88519001 41:0.00042200001 42:0.064516 43:0.142857 44:0.60000002 45:0.22826099 46:0 #docid = GX042-66-7833344 inc = 0.634692310480556 prob = 0.248788
-0.10000000000000001 1:0.039393 2:0.5 3:0.5 4:0.33333299 5:0.041393001 6:0 7:0 8:0 9:0 10:0 11:0.69499701 12:0.61580002 13:0.62756401 14:0.086167 15:0.70516402 16:0.025725 17:0.52173901 18:0.75 19:0.142857 20:0.026314 21:0.76380599 22:0.75663 23:0.59958202 24:0.73621303 25:0.333882 26:0.56696099 27:0.850281 28:0.454041 29:0.45537901 30:0.66271299 31:0.97538602 32:0.54348999 33:0.113603 34:0.014324 35:0.00122 36:0.013116 37:0.792319 38:0.77172703 39:0.588709 40:0.72626197 41:0.239121 42:0.032258 43:0.047619 44:0.40000001 45:0.217391 46:0 #docid = GX042-73-2489904 inc = 0.61325404131809 prob = 0.540925
-0.10000000000000001 1:0.036931001 2:0.5 3:0.5 4:0.33333299 5:0.038934 6:0 7:0 8:0 9:0 10:0 11:0.69144702 12:0.61580002 13:0.62756401 14:0.086167 15:0.70162803 16:0.021911999 17:0.39130399 18:0.5625 19:0.214286 20:0.022377999 21:0.74822098 22:0.77042001 23:0.58063602 24:0.75929999 25:0.42031699 26:0.60307503 27:0.85433501 28:0.47872299 29:0.55957299 30:0.700203 31:0.97829998 32:0.56727201 33:0.10866 34:0.0089180004 35:0.00081300002 36:0.0082590003 37:0.78247398 38:0.78946102 39:0.57333601 40:0.75136501 41:0.00042200001 42:0.064516 43:0.142857 44:0.60000002 45:0.22826099 46:0 #docid = GX043-61-5803349 inc = 0.651833215810893 prob = 0.693151
-0.10000000000000001 1:0.034878999 2:0.5 3:0.5 4:0.33333299 5:0.036885001 6:0 7:0 8:0 9:0 10:0 11:0.69182599 12:0.61580002 13:0.62756401 14:0.086167 15:0.70216203 16:0.020922 17:0.47826099 18:0.6875 19:0.142857 20:0.021462999 21:0.75287801 22:0.75302899 23:0.564713 24:0.73979199 25:0.35845301 26:0.577865 27:0.851632 28:0.46150601 29:0.48551399 30:0.67404801 31:0.97635698 32:0.55068302 33:0.113603 34:0.014324 35:0.00122 36:0.013116 37:0.788378 38:0.77527398 39:0.55793601 40:0.73616099 41:0.000226 42:0.032258 43:0.047619 44:0.40000001 45:0.217391 46:0 #docid = GX061-79-15306315 inc = 0.651833215810893 prob = 0.638929
-0.20000000000000001 1:0.089864999 2:0 3:0.25 4:0 5:0.090163998 6:0 7:0 8:0 9:0 10:0 11:0.7931 12:0 13:0.29569399 14:0 15:0.79308498 16:0.015178 17:0.30434799 18:0.375 19:0.071428999 20:0.015472 21:0.90650702 22:1 23:1 24:0.97037899 25:0 26:0 27:0 28:0 29:0.34188399 30:0.31924 31:0.381625 32:0.20075101 33:0 34:0 35:0 36:0 37:0.92969102 38:1 39:1 40:0.92438501 41:0.083237998 42:0.16129 43:0.380952 44:0.2 45:0.141304 46:0 #docid = GX061-81-15594716 inc = 1 prob = 0.0887747
0.061905541352034188 1:0.0049239998 2:0 3:0.25 4:0.33333299 5:0.0057379999 6:0 7:0 8:0 9:0 10:0 11:0.68062103 12:0 13:0.33186999 14:0.086167 15:0.68754399 16:0.0021790001 17:0.130435 18:0.375 19:0.35714301 20:0.002475 21:0.61950302 22:0.67292202 23:0.243359 24:0.743949 25:0 26:0 27:0 28:0 29:0.38371101 30:0.37441 31:0.594522 32:0.23569 33:0.099962004 34:0 35:0 36:0 37:0.65561903 38:0.73249799 39:0.219818 40:0.72064698 41:0.026626 42:0.032258 43:0 44:1 45:0.16304301 46:0 #docid = GX062-51-8529627 inc = 0.36026303371604 prob = 0.0747134
-0.10000000000000001 1:0.0032830001 2:0 3:0.25 4:0.33333299 5:0.004098 6:0 7:0 8:0 9:0 10:0 11:0.68231302 12:0 13:0.33186999 14:0.37133199 15:0.69048601 16:0.002204 17:0.043478001 18:0.5625 19:0.142857 20:0.002451 21:0.58389598 22:0.57729203 23:0.22905301 24:0.65544403 25:0 26:0 27:0 28:0 29:0.29591501 30:0.34793299 31:0.59160399 32:0.21892899 33:0.48956701 34:0.36560401 35:0.44178301 36:0.27952501 37:0.61330003 38:0.549604 39:0.20374 40:0.601116 41:0.00025300001 42:0.032258 43:0.047619 44:0.40000001 45:0.22826099 46:0 #docid = GX062-79-1857382 inc = 0.0361239826579487 prob = 0.0768562
-0.2619055413520342 1:1 2:0 3:0 4:1 5:1 6:0 7:0 8:0 9:0 10:0 11:0.30677199 12:0 13:0 14:1 15:0.30263001 16:1 17:0.043478001 18:0 19:0.64285702 20:1 21:0.311517 22:0.39721799 23:0.48444799 24:0.30832401 25:0 26:0 27:0 28:0 29:0 30:0 31:0 32:0 33:1 34:1 35:1 36:1 37:0.32084 38:0.39921299 39:0.43783501 40:0.315009 41:0.0032579999 42:0.064516 43:0 44:0.2 45:0.576087 46:0 #docid = GX233-72-4348496 inc = 1 prob = 0.175291
-0.10000000000000001 1:0.354534 2:0.5 3:0 4:0.33333299 5:0.35532799 6:0 7:0 8:0 9:0 10:0 11:0.99930799 12:0.61580002 13:0 14:0.086167 15:0.99927002 16:0.194984 17:0.47826099 18:0 19:0.071428999 20:0.19519299 21:0.87838203 22:0.81499302 23:0.94357902 24:0.796947 25:0.35845301 26:0.577865 27:0.851632 28:0.46150601 29:0 30:0 31:0 32:0 33:0.119017 34:0.020594001 35:0.0016280001 36:0.018629 37:0.88584101 38:0.81184399 39:0.93179297 40:0.76380497 41:0.011536 42:0.032258 43:0 44:0.2 45:0.152174 46:0 #docid = GX262-15-13688903 inc = 1 prob = 0.750755
-0.10000000000000001 1:0.0081540002 2:0.5 3:1 4:1 5:0.013343 6:0 7:0 8:0 9:0 10:0 11:0.0096500004 12:0.626984 13:1 14:1 15:0.017787 16:0 17:0.03125 18:0.68421102 19:0.33333299 20:0 21:0.86888897 22:1 23:0.60921597 24:0.99176401 25:1 26:0.969145 27:0.93628198 28:0.804726 29:1 30:1 31:1 32:1 33:1 34:1 35:1 36:1 37:0.94522101 38:1 39:0.68088198 40:0.995547 41:0.00089800003 42:0.050000001 43:0 44:0.42857099 45:0.27118599 46:0 #docid = GX069-37-2051206 inc = 1 prob = 0.0676306
0.10000000000000001 1:0.26241699 2:1 3:0 4:0 5:0.26538199 6:0 7:0 8:0 9:0 10:0 11:0.263693 12:1 13:0 14:0 15:0.26635399 16:0.117228 17:0.265625 18:0 19:0.222222 20:0.117302 21:0.81676602 22:0.77166599 23:0.83147901 24:0.74200201 25:0.34335399 26:0.44655001 27:0.39786801 28:0.43779901 29:0 30:0 31:0 32:0 33:0 34:0 35:0 36:0 37:0.81863803 38:0.76238 39:0.83200097 40:0.74352098 41:0.10942 42:0.40000001 43:0 44:0.285714 45:0.254237 46:0 #docid = GX257-02-15371060 inc = 1 prob = 0.291317
0.10000000000000001 1:0.024282999 2:0 3:0 4:0 5:0.024123 6:0 7:0 8:0 9:0 10:0 11:0.019388 12:0 13:0 14:0 15:0.019261001 16:0.028542001 17:0.133333 18:0.227273 19:0.33333299 20:0.027908999 21:1 22:1 23:0.896676 24:1 25:0 26:0 27:0 28:0 29:0 30:0 31:0 32:0 33:0 34:0 35:0 36:0 37:1 38:1 39:0.89549202 40:1 41:0.036291 42:0.625 43:1 44:0.5 45:0.35087699 46:0 #docid = GX044-72-15499141 inc = 0.790667364575714 prob = 0.515055
0.10000000000000001 1:0.019867999 2:0 3:0 4:0 5:0.019737 6:0 7:0 8:0 9:0 10:0 11:0.016197 12:0 13:0 14:0 15:0.01609 16:0.026241999 17:0.5 18:0.31818199 19:0.33333299 20:0.026098 21:0.96258003 22:0.96803403 23:0.84813899 24:0.96955001 25:0 26:0 27:0 28:0 29:0 30:0 31:0 32:0 33:0 34:0 35:0 36:0 37:0.95858097 38:0.96455902 39:0.845474 40:0.96544802 41:0.191798 42:0.4375 43:0.65048498 44:0.5 45:0.35087699 46:0 #docid = GX046-82-9869680 inc = 0.779343668428208 prob = 0.314069
0.10000000000000001 1:0.057395 2:0 3:1 4:0 5:0.059211001 6:0 7:0 8:0 9:0 10:0 11:0.053723998 12:0 13:1 14:0 15:0.055564001 16:0.108966 17:0 18:0.45454499 19:0.33333299 20:0.108391 21:0.868922 22:0.84311402 23:0.86607099 24:0.81172198 25:0 26:0 27:0 28:0 29:1 30:0 31:0 32:0 33:0 34:0 35:0 36:0 37:0.88160598 38:0.85009003 39:0.87205499 40:0.81966001 41:0 42:0 43:0.019416999 44:1 45:0.68421102 46:0 #docid = GX243-21-15307115 inc = 0.790588936005771 prob = 0.396921
-0.59999999999999998 1:1 2:1 3:1 4:1 5:1 6:0 7:0 8:0 9:0 10:0 11:1 12:1 13:1 14:1 15:1 16:1 17:0.33333299 18:0.45454499 19:0.166667 20:1 21:0.86561799 22:0.46486801 23:0.58417499 24:0.47498101 25:1 26:0 27:0 28:0 29:1 30:0 31:0 32:0 33:1 34:0 35:0 36:0 37:0.866602 38:0.46661299 39:0.58510202 40:0.47748801 41:0.00064099999 42:0.0625 43:0.029126 44:0 45:0.157895 46:0 #docid = GX243-81-9212950 inc = 0.701173100950635 prob = 0.235614
0.10000000000000001 1:0.057395 2:0 3:0 4:0 5:0.057018001 6:0 7:0 8:0 9:0 10:0 11:0.041487999 12:0 13:0 14:0 15:0.041216001 16:0.25631601 17:0.2 18:0 19:0.33333299 20:0.255629 21:0.58833301 22:0.75336403 23:0.79538202 24:0.69058502 25:0 26:0 27:0 28:0 29:0 30:0 31:0 32:0 33:0 34:0 35:0 36:0 37:0.59700602 38:0.75619799 39:0.79570299 40:0.69362098 41:0.001038 42:0.125 43:0 44:0.25 45:0.26315799 46:0 #docid = GX252-10-13261185 inc = 0.790667364575714 prob = 0.437974
0.10000000000000001 1:0.066225 2:0 3:0 4:0 5:0.065788999 6:0 7:0 8:0 9:0 10:0 11:0.034410998 12:0 13:0 14:0 15:0.034187 16:0.063193001 17:0 18:0 19:0.66666698 20:0.062304001 21:0.838126 22:0.995875 23:1 24:0.98698503 25:0 26:0 27:0 28:0 29:0 30:0 31:0 32:0 33:0 34:0 35:0 36:0 37:0.84285301 38:0.998743 39:1 40:0.99032801 41:0 42:0 43:0 44:0.5 45:0.28070199 46:0 #docid = GX259-10-13451864 inc = 0.790667364575714 prob = 0.508232
0.10000000000000001 1:0.011038 2:0 3:0 4:0 5:0.010965 6:0 7:0 8:0 9:0 10:0 11:0.011038 12:0 13:0 14:0 15:0.010965 16:0.02217 17:0 18:0 19:0.166667 20:0.021158 21:0.80504203 22:0.71202803 23:0.63429302 24:0.79841202 25:0 26:0 27:0 28:0 29:0 30:0 31:0 32:0 33:0 34:0 35:0 36:0 37:0.80735499 38:0.71270698 39:0.63350701 40:0.79963601 41:0 42:0 43:0 44:0 45:0.105263 46:0 #docid = GX267-92-3291990 inc = 0.259524407133938 prob = 0.190419
-0.10000000000000001 1:0.020408001 2:0.25 3:0.5 4:1 5:0.023956999 6:0 7:0 8:0 9:0 10:0 11:0.087742999 12:0.304865 13:0.76034802 14:1 15:0.118724 16:0.0045929998 17:0.037037 18:0.88888901 19:0.090908997 20:0.0047780001 21:0.701828 22:0.49909401 23:0.40795901 24:0.356417 25:1 26:1 27:0.48706999 28:0.62572497 29:0.25415501 30:0 31:0 32:0 33:1 34:1 35:1 36:1 37:0.71825498 38:0.50392699 39:0.43020499 40:0.35312399 41:0.014618 42:0.046512 43:0 44:0.142857 45:0.084071003 46:0 #docid = GX000-25-5242073 inc = 1 prob = 0.317996
0.40000000000000002 1:0.306122 2:0 3:0.5 4:1 5:0.307897 6:0 7:0 8:0 9:0 10:0 11:1 12:0 13:0.76034802 14:1 15:1 16:0.20774999 17:0 18:0.5 19:0.21212099 20:0.207844 21:0.66830498 22:0.232912 23:0.36736399 24:0.198045 25:0 26:0 27:0 28:0 29:0.38984501 30:0.162889 31:0.0083060004 32:0.088368997 33:0.846062 34:0.84706599 35:0.86580998 36:0.73977703 37:0.67519498 38:0.236789 39:0.36613399 40:0.187052 41:0 42:0 43:0.016393 44:0.85714298 45:0.30088499 46:0 #docid = GX006-96-0399103 inc = 1 prob = 0.309796
-0.20000000000000001 1:0.023956999 2:0.25 3:0.5 4:0 5:0.026619 6:0 7:0 8:0 9:0 10:0 11:0.130512 12:0.304865 13:0.76034802 14:0 15:0.154799 16:0.015301 17:0.074074 18:0.33333299 19:0.15151501 20:0.015374 21:0.92273498 22:0.87736303 23:0.99083501 24:0.87734598 25:0.709135 26:0.410871 27:0.48464301 28:0.42776901 29:0.50550997 30:0.27768001 31:0.011875 32:0.150644 33:0 34:0 35:0 36:0 37:0.93987501 38:0.89693499 39:1 40:0.89317501 41:0.38195199 42:0.116279 43:1 44:0.57142901 45:0.150442 46:0 #docid = GX013-71-7825050 inc = 1 prob = 0.61404
-0.03763233372879049 1:0.010648 2:0 3:0 4:0 5:0.010648 6:0 7:0 8:0 9:0 10:0 11:0.090870999 12:0 13:0 14:0 15:0.098347999 16:0.031525001 17:0.049383 18:0.222222 19:0.090908997 20:0.031463001 21:0.73798102 22:0.58037901 23:0.83515602 24:0.55571002 25:0 26:0 27:0 28:0 29:0 30:0 31:0 32:0 33:0 34:0 35:0 36:0 37:0.74867398 38:0.58651298 39:0.82938099 40:0.55309701 41:0.030206 42:0.046512 43:0.049180001 44:0.285714 45:0.092919998 46:0 #docid = GX021-89-2592884 inc = 1 prob = 0.547106
-0.036046257062198134 1:0.019521 2:0 3:0.5 4:0 5:0.020408001 6:0 7:0 8:0 9:0 10:0 11:0.100504 12:0 13:0.76034802 14:0 15:0.113609 16:0.011954 17:0 18:0.38888901 19:0.18181799 20:0.011934 21:0.94173002 22:0.90510601 23:0.97448301 24:0.90637702 25:0 26:0 27:0 28:0 29:0.460015 30:0.23403899 31:0.010684 32:0.126968 33:0 34:0 35:0 36:0 37:0.95353103 38:0.91738802 39:0.97580099 40:0.91660798 41:0 42:0 43:0.016393 44:0.71428603 45:0.176991 46:0 #docid = GX022-33-10542365 inc = 1 prob = 0.740572
-0.16395374293780188 1:0.018634001 2:1 3:0.5 4:0 5:0.026619 6:0 7:0 8:0 9:0 10:0 11:0.068267003 12:1 13:0.83925402 14:0 15:0.115774 16:0.022847001 17:1 18:0.444444 19:0.15151501 20:0.024699001 21:0.551377 22:0.224388 23:0.303527 24:0.122759 25:0.26232299 26:0.29862699 27:1 28:1 29:0.46583 30:0.54691398 31:0.99404699 32:0.29670301 33:0 34:0 35:0 36:0 37:0.62205899 38:0.267481 39:0.355634 40:0.15001699 41:1 42:1 43:0.98360699 44:0.57142901 45:0.150442 46:0 #docid = GX048-49-0077427 inc = 1 prob = 0.0345919
-0.40000000000000002 1:0.014197 2:0 3:0 4:0 5:0.014197 6:0 7:0 8:0 9:0 10:0 11:0.064494997 12:0 13:0 14:0 15:0.072417997 16:0.0062770001 17:0.037037 18:0.277778 19:0.18181799 20:0.0062790001 21:1 22:1 23:0.94223201 24:1 25:0 26:0 27:0 28:0 29:0 30:0 31:0 32:0 33:0 34:0 35:0 36:0 37:1 38:1 39:0.93567401 40:1 41:0.149185 42:0.023256 43:0.049180001 44:0.57142901 45:0.18584099 46:0 #docid = GX052-44-0579818 inc = 1 prob = 0.688852
0.2376323337287905 1:1 2:0 3:0 4:0 5:1 6:0 7:0 8:0 9:0 10:0 11:0 12:0 13:0 14:0 15:0 16:0.929012 17:0.037037 18:0 19:0.090908997 20:0.92904103 21:0.22072101 22:0 23:0 24:0.017165 25:0 26:0 27:0 28:0 29:0 30:0 31:0 32:0 33:0 34:0 35:0 36:0 37:0.227153 38:0 39:0 40:0 41:0.16159 42:0.023256 43:0 44:0.42857099 45:0.097345002 46:0 #docid = GX238-82-7628779 inc = 1 prob = 0.172545
0.10000000000000001 1:0.306122 2:0 3:0.5 4:1 5:0.307897 6:0 7:0 8:0 9:0 10:0 11:1 12:0 13:0.76034802 14:1 15:1 16:0.207588 17:0 18:0.5 19:0.18181799 20:0.20765901 21:0.66836703 22:0.232942 23:0.367562 24:0.198157 25:0 26:0 27:0 28:0 29:0.38984501 30:0.162889 31:0.0083060004 32:0.088368997 33:0.87992501 34:0.87988502 35:0.89932299 36:0.79562002 37:0.675264 38:0.236792 39:0.366359 40:0.18718401 41:0 42:0 43:0.032786999 44:0.85714298 45:0.28318599 46:0 #docid = GX246-09-14772875 inc = 1 prob = 0.316213
0.20000000000000001 1:0.306122 2:0 3:0.5 4:1 5:0.307897 6:0 7:0 8:0 9:0 10:0 11:1 12:0 13:0.76034802 14:1 15:1 16:0.20770299 17:0 18:0.5 19:0.21212099 20:0.207798 21:0.66832298 22:0.232805 23:0.36741999 24:0.19807699 25:0 26:0 27:0 28:0 29:0.38984501 30:0.162889 31:0.0083060004 32:0.088368997 33:0.846062 34:0.84706599 35:0.86580998 36:0.73977703 37:0.67521203 38:0.236735 39:0.366191 40:0.187085 41:0 42:0 43:0.032786999 44:0.85714298 45:0.31415901 46:0 #docid = GX250-04-14272584 inc = 1 prob = 0.332125
-0.10000000000000001 1:0.000252 2:0.80000001 3:0 4:1 5:0.0012619999 6:0 7:0 8:0 9:0 10:0 11:0.00023999999 12:0.79274499 13:0 14:1 15:0.0011840001 16:0.003487 17:0.29411799 18:0.058823999 19:0.33333299 20:0.003486 21:0.28282201 22:0.38919199 23:0.27175701 24:0.24538501 25:0.956572 26:0.89891601 27:0.92016703 28:0.93405098 29:0 30:0 31:0 32:0 33:1 34:1 35:1 36:1 37:0.451433 38:0.54824001 39:0.40647799 40:0.39941701 41:0.152888 42:0.136364 43:0.061223999 44:0.5 45:0.366667 46:0 #docid = GX005-33-9670959 inc = 0.141456665861222 prob = 0.0782917
0.10000000000000001 1:0.002018 2:0.2 3:0.66666698 4:0 5:0.0025229999 6:0 7:0 8:0 9:0 10:0 11:0.001885 12:0.20725501 13:0.763794 14:0 15:0.002445 16:0.0087789996 17:0.117647 18:0.470588 19:0.555556 20:0.0090229996 21:0.84387201 22:0.81914997 23:0.75521201 24:0.73163402 25:0.54795003 26:0 27:0 28:0 29:0.79840499 30:1 31:1 32:1 33:0 34:0 35:0 36:0 37:0.86965901 38:0.83121997 39:0.79883999 40:0.76998401 41:0.65530598 42:0.18181799 43:0.020408001 44:0.83333302 45:0.69999999 46:0 #docid = GX038-08-13787048 inc = 0.74426714788238 prob = 0.128398
0.10000000000000001 1:0.0088499999 2:0 3:0 4:0 5:0.0088499999 6:0 7:0 8:0 9:0 10:0 11:0.011824 12:0 13:0 14:0 15:0.011895 16:0.0022 17:0.34999999 18:0.083333001 19:0.444444 20:0.002422 21:0.808981 22:0.71350199 23:0.51069099 24:0.66107202 25:0 26:0 27:0 28:0 29:0 30:0 31:0 32:0 33:0 34:0 35:0 36:0 37:0.79844302 38:0.69509202 39:0.50634801 40:0.64697802 41:0.32567999 42:0.029412 43:0.42857099 44:0.33333299 45:0.39344299 46:0 #docid = GX001-79-0242439 inc = 0.0808227163408753 prob = 0.107349
0.20000000000000001 1:0.013827 2:0 3:0 4:0 5:0.013827 6:0 7:0 8:0 9:0 10:0 11:0.01335 12:0 13:0 14:0 15:0.013433 16:0.005684 17:0.1 18:0.166667 19:0.33333299 20:0.005808 21:0.95546103 22:0.97134 23:0.67400301 24:0.93543297 25:0 26:0 27:0 28:0 29:0 30:0 31:0 32:0 33:0 34:0 35:0 36:0 37:0.94807798 38:0.96494102 39:0.67212701 40:0.93423802 41:0.0058300002 42:0.0036760001 43:0.734694 44:0.33333299 45:0.245902 46:0 #docid = GX004-06-5006695 inc = 0.665764593782474 prob = 0.0782419
0.30000000000000004 1:0.018252 2:1 3:0.166667 4:0 5:0.021570999 6:0 7:0 8:0 9:0 10:0 11:0.025214 12:1 13:0.159027 14:0 15:0.028677 16:0.014804 17:1 18:0.125 19:0.33333299 20:0.015347 21:0.79753703 22:0.63196099 23:0.59148699 24:0.54148799 25:0.54556203 26:0.89160901 27:1 28:0.89280999 29:0.59204698 30:0.101337 31:0.002603 32:0.077486001 33:0 34:0 35:0 36:0 37:0.87028599 38:0.725339 39:0.66051698 40:0.73447698 41:0.141583 42:0.19485299 43:0.40816301 44:0.33333299 45:0.21311501 46:0 #docid = GX004-22-5412838 inc = 1 prob = 0.0417697
0.40000000000000002 1:0.016039999 2:0 3:0 4:0 5:0.016039999 6:0 7:0 8:0 9:0 10:0 11:0.020311 12:0 13:0 14:0 15:0.020434 16:0.003608 17:0.050000001 18:0.166667 19:0.444444 20:0.003732 21:0.90070403 22:0.85250401 23:0.65526998 24:0.75217497 25:0 26:0 27:0 28:0 29:0 30:0 31:0 32:0 33:0 34:0 35:0 36:0 37:0.89294899 38:0.84373802 39:0.65199202 40:0.74729198 41:1 42:1 43:0.75510198 44:0.33333299 45:0.39344299 46:0 #docid = GX005-42-14098967 inc = 1 prob = 0.085558
0.053336393196520504 1:0.016039999 2:0.2 3:0.166667 4:0.33333299 5:0.017698999 6:0 7:0 8:0 9:0 10:0 11:0.021011 12:0.184247 13:0.159027 14:0.205406 15:0.022710999 16:0.003732 17:0.15000001 18:0.125 19:0.555556 20:0.0039049999 21:0.82615501 22:0.72186297 23:0.591407 24:0.6753 25:0.41720501 26:0.12973 27:0.001274 28:0.021901 29:0.59204698 30:0.101337 31:0.002603 32:0.077486001 33:0.196842 34:0.014831 35:0.00074400002 36:0.011146 37:0.82150197 38:0.72277403 39:0.60186601 40:0.68038499 41:0.70002002 42:0.216912 43:0.285714 44:0.33333299 45:0.50819701 46:0 #docid = GX008-18-3776957 inc = 0.665763757037822 prob = 0.083586
0.10000000000000001 1:0.014934 2:0 3:0 4:0 5:0.014934 6:0 7:0 8:0 9:0 10:0 11:0.018844999 12:0 13:0 14:0 15:0.018997001 16:0.0062279999 17:0.050000001 18:0.166667 19:0.33333299 20:0.006327 21:0.93302399 22:0.85030502 23:0.65016502 24:0.86214203 25:0 26:0 27:0 28:0 29:0 30:0 31:0 32:0 33:0 34:0 35:0 36:0 37:0.92659003 38:0.84501302 39:0.64785099 40:0.86167502 41:0.0083560003 42:0.0036760001 43:0.51020402 44:0.33333299 45:0.245902 46:0 #docid = GX011-12-4307208 inc = 0.664018832471933 prob = 0.0729924
0.10000000000000001 1:0.0077430001 2:0.40000001 3:0.166667 4:0 5:0.0094029997 6:0 7:0 8:0 9:0 10:0 11:0.0103 12:0.36849299 13:0.159027 14:0 15:0.011968 16:0.0021250001 17:0.30000001 18:0.166667 19:0.33333299 20:0.002348 21:0.82939798 22:0.76872498 23:0.50941902 24:0.67411 25:0.45210499 26:0.14388201 27:0.105023 28:0.021901 29:0.51905799 30:0.080248997 31:0.002082 32:0.064447001 33:0 34:0 35:0 36:0 37:0.83841401 38:0.78509402 39:0.54140902 40:0.69209099 41:0.002972 42:0.0036760001 43:0.122449 44:0.33333299 45:0.295082 46:0 #docid = GX017-98-13460000 inc = 0.447139894341355 prob = 0.0840547
-0.10000000000000001 1:0.019358 2:0 3:0.5 4:1 5:0.022677001 6:0 7:0 8:0 9:0 10:0 11:0.024677999 12:0 13:0.53394997 14:0.85026598 15:0.028726 16:0.001878 17:0 18:0.5 19:0.555556 20:0.002199 21:0.72573602 22:0.63537699 23:0.572514 24:0.481938 25:0 26:0 27:0 28:0 29:0.80143201 30:0.55000699 31:0.63559997 32:0.46455401 33:0.70462 34:0.62732297 35:0.67060798 36:0.57091498 37:0.72271299 38:0.62387002 39:0.58877099 40:0.48508 41:0.0012910001 42:0.0036760001 43:0.061223999 44:0.33333299 45:0.68852502 46:0 #docid = GX026-77-1531637 inc = 0.665764593782474 prob = 0.171455
-0.45333639319652053 1:0.28152701 2:0 3:1 4:0 5:0.28484499 6:0 7:0 8:0 9:0 10:0 11:0.282224 12:0 13:1 14:0 15:0.28601399 16:0.40524399 17:0.050000001 18:0.95833302 19:0.88888901 20:0.40591601 21:0.80406898 22:0.708588 23:0.848777 24:0.65597898 25:0 26:0 27:0 28:0 29:0.89817899 30:1 31:1 32:1 33:0 34:0 35:0 36:0 37:0.80872798 38:0.714836 39:0.85271198 40:0.66547 41:0.00079399999 42:0.0073529999 43:0.24489801 44:1 45:0.68852502 46:0 #docid = GX031-86-6875436 inc = 1 prob = 0.0524953
0.10000000000000001 1:0.013274 2:0 3:0 4:0 5:0.013274 6:0 7:0 8:0 9:0 10:0 11:0.016208 12:0 13:0 14:0 15:0.016323 16:0.0033120001 17:0 18:0.166667 19:0.444444 20:0.0034099999 21:0.96649301 22:0.94248497 23:0.64992797 24:0.95758802 25:0 26:0 27:0 28:0 29:0 30:0 31:0 32:0 33:0 34:0 35:0 36:0 37:0.95807499 38:0.93247497 39:0.64746398 40:0.95259702 41:0.00046499999 42:0.033087999 43:0.061223999 44:0.5 45:0.377049 46:0 #docid = GX076-62-13561465 inc = 1 prob = 0.061497
-0.59999999999999998 1:0.022124 2:0.40000001 3:0.5 4:1 5:0.026549 6:0 7:0 8:0 9:0 10:0 11:0.028263001 12:0.44162199 13:0.53937697 14:1 15:0.033725999 16:0.002966 17:0.15000001 18:0.45833299 19:0.444444 20:0.0033120001 21:0.87515301 22:0.87268901 23:0.66891903 24:0.775639 25:1 26:0.60366601 27:0.56566399 28:0.47267801 29:0.94499099 30:0.79691899 31:0.728311 32:0.780788 33:1 34:1 35:1 36:1 37:0.90788698 38:0.92145699 39:0.72656101 40:0.81892997 41:0.088409998 42:0.014706 43:0.081633002 44:0.33333299 45:0.72131097 46:0 #docid = GX086-43-16107713 inc = 1 prob = 0.0833762
-0.20000000000000001 1:0.11781 2:0 3:1 4:0 5:0.121128 6:0 7:0 8:0 9:0 10:0 11:0.12508599 12:0 13:1 14:0 15:0.128757 16:0.15839601 17:0.050000001 18:1 19:0.88888901 20:0.159104 21:0.85629702 22:0.74571401 23:0.85496199 24:0.69279802 25:0 26:0 27:0 28:0 29:0.868478 30:0.98746502 31:0.999484 32:0.99229097 33:0 34:0 35:0 36:0 37:0.862064 38:0.75477302 39:0.86220902 40:0.705199 41:0.0014609999 42:0.0073529999 43:0.22449 44:1 45:0.754098 46:0 #docid = GX104-50-7842922 inc = 1 prob = 0.0359525
0.0006886532506474724 1:0.15821899 2:0.166667 3:1 4:0 5:0.160739 6:0 7:0 8:0 9:0 10:0 11:0.18069801 12:0.166667 13:1 14:0 15:0.184135 16:0.148173 17:0.619048 18:1 19:0.222222 20:0.1487 21:0.40775999 22:0.240503 23:0.26831099 24:0.25149 25:0.34444901 26:0.76388901 27:0.498485 28:0.80255997 29:0.39264801 30:0.75381601 31:0.99301898 32:0.79732901 33:0 34:0 35:0 36:0 37:0.41148901 38:0.243241 39:0.26910701 40:0.25522 41:0.000367 42:0.045455001 43:0.016484 44:0.5 45:0.31034499 46:0 #docid = GX004-35-2224726 inc = 0.639606646597901 prob = 0.132126
-0.0006886532506474724 1:0.23835599 2:0 3:0 4:0 5:0.23803 6:0 7:0 8:0 9:0 10:0 11:0.24583399 12:0 13:0 14:0 15:0.245509 16:0.100289 17:0.095238 18:0.142857 19:0.33333299 20:0.100301 21:0.98820901 22:0.92460102 23:1 24:0.90979099 25:0 26:0 27:0 28:0 29:0 30:0 31:0 32:0 33:0 34:0 35:0 36:0 37:0.99158001 38:0.931503 39:1 40:0.91653299 41:0.0011230001 42:0.045455001 43:0.010989 44:0.25 45:0.55172402 46:0 #docid = GX245-16-10635349 inc = 0.641188936562879 prob = 0.228746
0.79999999999999993 1:0 2:0 3:0 4:0 5:0 6:0 7:0 8:0 9:0 10:0 11:0 12:0 13:0 14:0 15:0 16:0.128538 17:0 18:0 19:0.66666698 20:0.128071 21:0 22:0 23:0 24:0 25:0 26:0 27:0 28:0 29:0 30:0 31:0 32:0 33:0 34:0 35:0 36:0 37:0 38:0 39:0 40:0 41:0 42:0 43:0 44:0.60000002 45:0.53424698 46:0 #docid = GX006-56-7584409 inc = 0.601392509298934 prob = 0.5779
-0.10000000000000001 1:0.044199001 2:0 3:1 4:0 5:0.046409 6:0 7:0 8:0 9:0 10:0 11:0.097255997 12:0 13:0.83993399 14:0 15:0.102812 16:0.045995001 17:0.034483001 18:0.5 19:0.555556 20:0.045752998 21:0.82939798 22:0.79836798 23:0.83335602 24:0.770576 25:0 26:0 27:0 28:0 29:0.67379802 30:0.61613899 31:0.242598 32:0.71514899 33:0 34:0 35:0 36:0 37:0.87294602 38:0.80804801 39:0.87422597 40:0.79855502 41:0.000436 42:0.003704 43:0.246988 44:0.2 45:0.30136999 46:0 #docid = GX008-45-16600703 inc = 0.704347293354781 prob = 0.589926
-0.10000000000000001 1:0.017680001 2:0.285714 3:0 4:0 5:0.019889999 6:0 7:0 8:0 9:0 10:0 11:0.033691999 12:0.243192 13:0 14:0 15:0.038341999 16:0.0065520001 17:0.103448 18:0.5 19:0.444444 20:0.0063319998 21:0.87139899 22:0.94910002 23:0.625799 24:1 25:1 26:0.79698402 27:0.099468 28:0.94180799 29:0 30:0 31:0 32:0 33:0 34:0 35:0 36:0 37:0.87221301 38:0.921826 39:0.65325099 40:1 41:0.15513299 42:0.044443998 43:0.048193 44:0.60000002 45:0.205479 46:0 #docid = GX012-08-9996236 inc = 1 prob = 0.042927
-0.10000000000000001 1:0.0066300002 2:0.142857 3:1 4:0 5:0.0099449996 6:0 7:0 8:0 9:0 10:0 11:0.019416999 12:0.143612 13:1 14:0 15:0.030269001 16:0.006641 17:0.034483001 18:0.33333299 19:0.66666698 20:0.0063319998 21:0.85949898 22:0.74471498 23:0.477588 24:0.82434797 25:0.91965902 26:0.27507001 27:0.002379 28:0.216133 29:1 30:1 31:1 32:1 33:0 34:0 35:0 36:0 37:0.94147998 38:0.80599201 39:0.58771503 40:0.88409698 41:0.001421 42:0.003704 43:0.054217 44:0.60000002 45:0.45205501 46:0 #docid = GX044-72-0557462 inc = 1 prob = 0.287998
-0.10000000000000001 1:0.029834 2:0 3:1 4:0 5:0.032044001 6:0 7:0 8:0 9:0 10:0 11:0.063934997 12:0 13:0.83761698 14:0 15:0.068793997 16:0.012078 17:0 18:0.41666701 19:0.444444 20:0.011683 21:0.85124803 22:0.89992702 23:0.73337799 24:0.94474 25:0 26:0 27:0 28:0 29:0.74568701 30:0.65014797 31:0.20217299 32:0.74052298 33:0 34:0 35:0 36:0 37:0.85158402 38:0.87860101 39:0.75014001 40:0.95059001 41:0 42:0 43:0 44:0.80000001 45:0.56164402 46:0 #docid = GX049-22-7401744 inc = 1 prob = 0.643052
-0.10000000000000001 1:0.036463998 2:0 3:1 4:0 5:0.038674001 6:0 7:0 8:0 9:0 10:0 11:0.074937001 12:0 13:0.83761698 14:0 15:0.079846002 16:0.014619 17:0.034483001 18:0.41666701 19:0.444444 20:0.01427 21:0.83773798 22:0.889431 23:0.76986998 24:0.93276203 25:0 26:0 27:0 28:0 29:0.74568701 30:0.65014797 31:0.20217299 32:0.74052298 33:0 34:0 35:0 36:0 37:0.83793402 38:0.86713898 39:0.78399199 40:0.93755299 41:0.002541 42:0.0074069998 43:0.096386001 44:0.80000001 45:0.50684899 46:0 #docid = GX063-82-9879008 inc = 1 prob = 0.835202
-0.10000000000000001 1:0.037569001 2:0.285714 3:0.5 4:0 5:0.040883999 6:0 7:0 8:0 9:0 10:0 11:0.099722996 12:0.28722399 13:0.498842 14:0 15:0.110664 16:0.01912 17:0.137931 18:0.25 19:0.33333299 20:0.018774001 21:0.90157002 22:0.90953499 23:0.804793 24:0.894171 25:0.79386902 26:0.20951 27:0.14578301 28:0.144088 29:0.56898803 30:0.19243801 31:0.008014 32:0.12639099 33:0 34:0 35:0 36:0 37:0.90330499 38:0.88823801 39:0.81879598 40:0.90046 41:0.013362 42:0.0074069998 43:0.012048 44:0.40000001 45:0.21917801 46:0 #docid = GX146-79-16411777 inc = 0.704347293354781 prob = 0.302809
-0.10000000000000001 1:0.0055249999 2:1 3:1 4:0 5:0.01547 6:0 7:0 8:0 9:0 10:0 11:0.017878 12:1 13:1 14:0 15:0.050634999 16:0.0043230001 17:1 18:0.66666698 19:0.66666698 20:0.00544 21:0.805305 22:0.67453802 23:0.44077501 24:0.57595199 25:0.63813198 26:1 27:1 28:1 29:0.66973299 30:0.812482 31:0.996436 32:0.87360698 33:0 34:0 35:0 36:0 37:0.93922102 38:0.77758098 39:0.67502201 40:0.68035799 41:0.60832101 42:0.185185 43:0.072288997 44:0.40000001 45:0.39726001 46:0 #docid = GX230-35-1227235 inc = 1 prob = 0.0145975
-0.10000000000000001 1:0.103867 2:0 3:0 4:0 5:0.103867 6:0 7:0 8:0 9:0 10:0 11:0.31915501 12:0 13:0 14:0 15:0.32160601 16:0.039175998 17:0.172414 18:0.58333302 19:0.555556 20:0.039152998 21:1 22:0.88726199 23:1 24:0.86217999 25:0 26:0 27:0 28:0 29:0 30:0 31:0 32:0 33:0 34:0 35:0 36:0 37:1 38:0.85938501 39:1 40:0.86134499 41:0.60809702 42:0.17037 43:0.51807201 44:0.40000001 45:0.31506801 46:0 #docid = GX231-43-12964720 inc = 1 prob = 0.608586
0.30000000000000004 1:0.42168701 2:0.25 3:1 4:0 5:0.44578299 6:0 7:0 8:0 9:0 10:0 11:0.50234097 12:0.25 13:1 14:0 15:0.53102601 16:0.063649997 17:0.15000001 18:0.15000001 19:0 20:0.062454 21:1 22:0.99947703 23:0.97141802 24:1 25:0.82105899 26:0.93432701 27:0.64924002 28:0.947312 29:1 30:1 31:1 32:1 33:0 34:0 35:0 36:0 37:1 38:0.99782503 39:0.96848202 40:1 41:0.014484 42:0.041666999 43:0.045455001 44:0 45:0.0082639996 46:0 #docid = GX002-02-12768185 inc = 0.834571275324302 prob = 0.480513
-0.20000000000000001 1:0.120482 2:0 3:0 4:1 5:0.126506 6:0 7:0 8:0 9:0 10:0 11:0.16877 12:0 13:0 14:1 15:0.17752101 16:0.125291 17:0.15000001 18:0.40000001 19:0.166667 20:0.12501299 21:0.444121 22:0 23:0.010723 24:0 25:0 26:0 27:0 28:0 29:0 30:0 31:0 32:0 33:0.95830601 34:0.979204 35:0.99961501 36:0.97850001 37:0.44289699 38:0 39:0.0082719997 40:0 41:0.0095490003 42:0.027778 43:0.045455001 44:0 45:0.198347 46:0 #docid = GX005-13-15194028 inc = 0.833968714700507 prob = 0.199253
-0.20000000000000001 1:0.060240999 2:0 3:0 4:0 5:0.060240999 6:0 7:0 8:0 9:0 10:0 11:0.062274002 12:0 13:0 14:0 15:0.062270001 16:0.073905997 17:0.44999999 18:0.2 19:0.222222 20:0.073886 21:0.598077 22:0.58814698 23:0.54472101 24:0.67471701 25:0 26:0 27:0 28:0 29:0 30:0 31:0 32:0 33:0 34:0 35:0 36:0 37:0.59105098 38:0.57643598 39:0.53318697 40:0.66513598 41:0.0048560002 42:0.027778 43:0.121212 44:0.40000001 45:0.140496 46:0 #docid = GX007-72-9630563 inc = 0.829981481279137 prob = 0.245214
0.20000000000000001 1:0.463855 2:0.5 3:1 4:0 5:0.5 6:0 7:0 8:0 9:0 10:0 11:0.52163798 12:0.5 13:1 14:0 15:0.56453103 16:0.126771 17:1 18:0.40000001 19:0.111111 20:0.128189 21:0.98097402 22:1 23:1 24:0.93171799 25:0.37742999 26:0.83565098 27:0.82014 28:0.79086202 29:0.58716702 30:0.83804297 31:0.99864101 32:0.87263 33:0 34:0 35:0 36:0 37:0.98585302 38:1 39:1 40:0.933483 41:0.063346997 42:0.055555999 43:0 44:0.2 45:0.041322 46:0 #docid = GX008-06-7391946 inc = 0.834571275324302 prob = 0.259919
0.10000000000000001 1:0.26506001 2:0 3:0 4:0 5:0.26506001 6:0 7:0 8:0 9:0 10:0 11:0.30977401 12:0 13:0 14:0 15:0.30984399 16:0.047789998 17:0.050000001 18:0.30000001 19:0.111111 20:0.046893001 21:0.77795398 22:0.36494899 23:0.341378 24:0.29961601 25:0 26:0 27:0 28:0 29:0 30:0 31:0 32:0 33:0 34:0 35:0 36:0 37:0.76890397 38:0.35505301 39:0.329317 40:0.29230201 41:0.023708001 42:0.027778 43:0.030303 44:0.60000002 45:0.024793001 46:0 #docid = GX015-53-10413875 inc = 0.834571275324302 prob = 0.797544
-0.30000000000000004 1:0.078313001 2:0 3:0 4:1 5:0.084337004 6:0 7:0 8:0 9:0 10:0 11:0.11129 12:0 13:0 14:1 15:0.120008 16:0.067984998 17:0.30000001 18:0 19:0.111111 20:0.067005001 21:0.471627 22:0.033608999 23:0 24:0.029291 25:0 26:0 27:0 28:0 29:0 30:0 31:0 32:0 33:1 34:1 35:1 36:1 37:0.471214 38:0.035489 39:0 40:0.030169999 41:0.0094079999 42:0.013889 43:0 44:0 45:0.099174 46:0 #docid = GX016-52-2125765 inc = 0.834571275324302 prob = 0.185277
0.39999999999999913 1:0.078313001 2:0.125 3:0.5 4:1 5:0.096386001 6:0 7:0 8:0 9:0 10:0 11:0.093175001 12:0.14324 13:0.56937498 14:1 15:0.119142 16:0 17:0.1 18:0.60000002 19:0.222222 20:0 21:0.741943 22:0.414511 23:0.169098 24:0.30403399 25:0.57296097 26:0.350097 27:0.372807 28:0.280902 29:0.25131601 30:0.18053301 31:0.49389401 32:0.169294 33:0.91995001 34:0.96039301 35:0.99923003 36:0.95905101 37:0.74827701 38:0.41143799 39:0.18959001 40:0.30790699 41:0.001163 42:0.013889 43:0.060605999 44:0.60000002 45:0.140496 46:0 #docid = GX022-29-5906135 inc = 0.834571275324302 prob = 0.618473
-0.10000000000000001 1:0.93975902 2:0 3:0 4:0 5:0.93975902 6:0 7:0 8:0 9:0 10:0 11:1 12:0 13:0 14:0 15:1 16:0.30207199 17:0.25 18:0.1 19:0.222222 20:0.30168301 21:0.71735698 22:0.22218201 23:0.36806801 24:0.226459 25:0 26:0 27:0 28:0 29:0 30:0 31:0 32:0 33:0 34:0 35:0 36:0 37:0.71131301 38:0.218007 39:0.35653999 40:0.22252201 41:0.025424 42:0.013889 43:0.030303 44:0.40000001 45:0.247934 46:0 #docid = GX027-71-5941625 inc = 0.834571275324302 prob = 0.824267
-0.10000000000000001 1:0.180723 2:0 3:0 4:0 5:0.180723 6:0 7:0 8:0 9:0 10:0 11:0.169774 12:0 13:0 14:0 15:0.16971999 16:0.17561901 17:0.2 18:0.15000001 19:0.055555999 20:0.17476401 21:0.40448001 22:0.58199 23:0.60186601 24:0.60693097 25:0 26:0 27:0 28:0 29:0 30:0 31:0 32:0 33:0 34:0 35:0 36:0 37:0.40301499 38:0.575701 39:0.59119701 40:0.60226703 41:0.001228 42:0.013889 43:0 44:0 45:0 46:0 #docid = GX028-20-9416916 inc = 0.834571275324302 prob = 0.243271
0.10000000000000001 1:0.31927699 2:0 3:0 4:1 5:0.32530099 6:0 7:0 8:0 9:0 10:0 11:0.29929599 12:0 13:0 14:0.71990198 15:0.30483299 16:0.27236199 17:0.15000001 18:0.44999999 19:0.166667 20:0.27236199 21:0.363787 22:0.58046699 23:0.65110201 24:0.59466797 25:0 26:0 27:0 28:0 29:0 30:0 31:0 32:0 33:0.68988699 34:0.21368299 35:0.0057560001 36:0.186977 37:0.36268401 38:0.57625598 39:0.641886 40:0.591784 41:0.17918999 42:0.041666999 43:0.060605999 44:0 45:0.132231 46:0 #docid = GX032-87-14243199 inc = 0.834571275324302 prob = 0.725411
-0.30000000000000004 1:0.150602 2:0 3:0 4:0 5:0.150602 6:0 7:0 8:0 9:0 10:0 11:0.142722 12:0 13:0 14:0 15:0.14268699 16:0.123282 17:0.55000001 18:0.25 19:0.166667 20:0.123531 21:0.57516801 22:0.714917 23:0.675713 24:0.70317203 25:0 26:0 27:0 28:0 29:0 30:0 31:0 32:0 33:0 34:0 35:0 36:0 37:0.57115799 38:0.70398998 39:0.66272402 40:0.69514298 41:0.58741701 42:1 43:0.98484802 44:0.40000001 45:0.14876001 46:0 #docid = GX034-83-16544809 inc = 0.834571275324302 prob = 0.7152
-0.56084711284660216 1:0.222892 2:1 3:1 4:0 5:0.283133 6:0 7:0 8:0 9:0 10:0 11:0.243237 12:1 13:1 14:0 15:0.31459999 16:0.080990002 17:0.64999998 18:0.30000001 19:0.166667 20:0.081506997 21:0.68603098 22:0.26564601 23:0.25124601 24:0.199743 25:0.883865 26:0.98973298 27:1 28:0.93690997 29:0.70330602 30:0.88554198 31:0.99918401 32:0.90998799 33:0 34:0 35:0 36:0 37:0.72068697 38:0.304656 39:0.294476 40:0.232079 41:1 42:0.347222 43:1 44:0.40000001 45:0.14876001 46:0 #docid = GX050-32-14161099 inc = 0.834571275324302 prob = 0.363348
-0.10000000000000001 1:0.150602 2:0 3:0 4:0 5:0.150602 6:0 7:0 8:0 9:0 10:0 11:0.142722 12:0 13:0 14:0 15:0.14268699 16:0.110277 17:0 18:0.30000001 19:0.222222 20:0.109559 21:0.61298001 22:0.74378198 23:0.68934399 24:0.727162 25:0 26:0 27:0 28:0 29:0 30:0 31:0 32:0 33:0 34:0 35:0 36:0 37:0.61125702 38:0.734173 39:0.67707098 40:0.720321 41:0 42:0 43:0.015152 44:0.60000002 45:0.198347 46:0 #docid = GX051-49-13020681 inc = 0.834571275324302 prob = 0.784615
0.20000000000000001 1:0.20481899 2:0 3:1 4:0 5:0.216867 6:0 7:0 8:0 9:0 10:0 11:0.22334699 12:0 13:1 14:0 15:0.237627 16:0.066399001 17:0 18:0.34999999 19:0.222222 20:0.065734997 21:0.69534898 22:0.274995 23:0.250862 24:0.212566 25:0 26:0 27:0 28:0 29:0.64001 30:0.86009002 31:0.99891299 32:0.88997 33:0 34:0 35:0 36:0 37:0.697743 38:0.276362 39:0.25294301 40:0.215654 41:0 42:0 43:0.015152 44:0.60000002 45:0.198347 46:0 #docid = GX062-59-7644859 inc = 0.834571275324302 prob = 0.723798
-0.10000000000000001 1:0.156627 2:0 3:0 4:0 5:0.156627 6:0 7:0 8:0 9:0 10:0 11:0.145327 12:0 13:0 14:0 15:0.145281 16:0.235145 17:0.2 18:0.30000001 19:0.111111 20:0.23478401 21:0.274876 22:0.48440599 23:0.534513 24:0.52616102 25:0 26:0 27:0 28:0 29:0 30:0 31:0 32:0 33:0 34:0 35:0 36:0 37:0.27247399 38:0.47917899 39:0.52456599 40:0.522084 41:0.014635 42:0.013889 43:0.075758003 44:0.40000001 45:0.099174 46:0 #docid = GX065-42-5815627 inc = 0.834571275324302 prob = 0.551585
0.10000000000000001 1:0.72891599 2:0.25 3:1 4:0 5:0.753012 6:0 7:0 8:0 9:0 10:0 11:0.82430798 12:0.25 13:1 14:0 15:0.85297698 16:0.207443 17:0.15000001 18:0.30000001 19:0.111111 20:0.206944 21:0.76314503 22:0.305428 23:0.403438 24:0.260575 25:0.82105899 26:0.93432701 27:0.64924002 28:0.947312 29:0.70330602 30:0.88554198 31:0.99918401 32:0.90998799 33:0 34:0 35:0 36:0 37:0.76064003 38:0.306348 39:0.39909601 40:0.26170099 41:0.0047019999 42:0.013889 43:0.121212 44:0.40000001 45:0.099174 46:0 #docid = GX065-61-4847040 inc = 0.834571275324302 prob = 0.522402
-0.10000000000000001 1:0.162651 2:0 3:0 4:0 5:0.162651 6:0 7:0 8:0 9:0 10:0 11:0.14793099 12:0 13:0 14:0 15:0.14787599 16:0.099597998 17:0.30000001 18:0.40000001 19:0.111111 20:0.099501997 21:0.435056 22:0.56770301 23:0.58288801 24:0.66399902 25:0 26:0 27:0 28:0 29:0 30:0 31:0 32:0 33:0 34:0 35:0 36:0 37:0.428514 38:0.558029 39:0.57123798 40:0.65600502 41:0.0062810001 42:0.013889 43:0.121212 44:0.40000001 45:0.099174 46:0 #docid = GX065-68-1104663 inc = 0.834571275324302 prob = 0.499015
-0.10000000000000001 1:0.192771 2:0 3:0 4:0 5:0.192771 6:0 7:0 8:0 9:0 10:0 11:0.205174 12:0 13:0 14:0 15:0.205181 16:0.41520399 17:0.60000002 18:0.60000002 19:0.111111 20:0.41653401 21:0.34999099 22:0.46917501 23:0.56667602 24:0.49587801 25:0 26:0 27:0 28:0 29:0 30:0 31:0 32:0 33:0 34:0 35:0 36:0 37:0.34944999 38:0.464026 39:0.555906 40:0.491941 41:0.000302 42:0.013889 43:0.090908997 44:0.40000001 45:0.107438 46:0 #docid = GX120-93-13422677 inc = 0.834571275324302 prob = 0.368401
0.060847112846602158 1:0.31927699 2:0 3:0 4:1 5:0.32530099 6:0 7:0 8:0 9:0 10:0 11:0.29929599 12:0 13:0 14:0.71990198 15:0.30483299 16:0.27236199 17:0.15000001 18:0.44999999 19:0.222222 20:0.27246699 21:0.363787 22:0.58046699 23:0.65110201 24:0.59466797 25:0 26:0 27:0 28:0 29:0 30:0 31:0 32:0 33:0.662274 34:0.194878 35:0.0053710002 36:0.167528 37:0.362555 38:0.57614499 39:0.64181 40:0.59169102 41:0.21486101 42:0.041666999 43:0.060605999 44:0 45:0.173554 46:0 #docid = GX246-04-1918015 inc = 0.834571275324302 prob = 0.716737
-0.10000000000000001 1:0 2:0 3:0 4:0 5:0 6:0 7:0 8:0 9:0 10:0 11:0 12:0 13:0 14:0 15:0 16:0.013322 17:0.050000001 18:0 19:0.38888901 20:0.012279 21:0.62021399 22:0.60000598 23:0.36544001 24:0.72658801 25:0 26:0 27:0 28:0 29:0 30:0 31:0 32:0 33:0 34:0 35:0 36:0 37:0.60847098 38:0.58407402 39:0.35681301 40:0.71321303 41:0.001083 42:0.013889 43:0 44:0.40000001 45:0.48760301 46:0 #docid = GX254-45-15925388 inc = 0.834571275324302 prob = 0.171502
-0.09999999999999909 1:0.72289199 2:0 3:0 4:0 5:0.72289199 6:0 7:0 8:0 9:0 10:0 11:0.709288 12:0 13:0 14:0 15:0.709153 16:1 17:0.2 18:0 19:0.166667 20:1 21:0.28736901 22:0.50489497 23:0.64453399 24:0.497895 25:0 26:0 27:0 28:0 29:0 30:0 31:0 32:0 33:0 34:0 35:0 36:0 37:0.28774801 38:0.50141603 39:0.63430202 40:0.49564201 41:0.00083799998 42:0.013889 43:0 44:0.2 45:0.190083 46:0 #docid = GX259-58-6502122 inc = 0.834571275324302 prob = 0.684073
1.0526783276261096 1:0.108434 2:0.25 3:0 4:1 5:0.126506 6:0 7:0 8:0 9:0 10:0 11:0.13034999 12:0.25 13:0 14:1 15:0.153304 16:0.015648 17:0.1 18:0 19:0.166667 20:0.01429 21:0.73505998 22:0.347693 23:0.202874 24:0.26648101 25:1 26:1 27:0.64943802 28:1 29:0 30:0 31:0 32:0 33:0.95830601 34:0.979204 35:0.99961501 36:0.97850001 37:0.74320197 38:0.364034 39:0.221112 40:0.27858901 41:0.011676 42:0.013889 43:0 44:0.40000001 45:0.115702 46:0 #docid = GX265-91-8323157 inc = 0.834571275324302 prob = 0.453974
-0.10000000000000001 1:0.39156601 2:0 3:0 4:0 5:0.39156601 6:0 7:0 8:0 9:0 10:0 11:0.38080901 12:0 13:0 14:0 15:0.38073099 16:0.50983298 17:0.050000001 18:0 19:0.277778 20:0.50915599 21:0.339367 22:0.54952401 23:0.65465099 24:0.54355401 25:0 26:0 27:0 28:0 29:0 30:0 31:0 32:0 33:0 34:0 35:0 36:0 37:0.340229 38:0.545228 39:0.64404899 40:0.54069799 41:0.001805 42:0.013889 43:0 44:0.40000001 45:0.26446301 46:0 #docid = GX266-58-3519024 inc = 0.834571275324302 prob = 0.579552
0.10000000000000001 1:0.060240999 2:0 3:0 4:0 5:0.060240999 6:0 7:0 8:0 9:0 10:0 11:0.062274002 12:0 13:0 14:0 15:0.062270001 16:0.010996 17:0.44999999 18:0 19:0.277778 20:0.010585 21:0.91630399 22:0.89608699 23:0.628371 24:0.93077803 25:0 26:0 27:0 28:0 29:0 30:0 31:0 32:0 33:0 34:0 35:0 36:0 37:0.901492 38:0.87144202 39:0.61548001 40:0.91133702 41:0.016318001 42:0.013889 43:0 44:0.60000002 45:0.27272701 46:0 #docid = GX267-90-11012924 inc = 0.834571275324302 prob = 0.835756
-0.10000000000000001 1:0.114458 2:0 3:0 4:1 5:0.120482 6:0 7:0 8:0 9:0 10:0 11:0.106848 12:0 13:0 14:0.71990198 15:0.112431 16:0.144639 17:0.2 18:0 19:1 20:0.14523099 21:0.34970999 22:0.43552601 23:0.49698499 24:0.55462599 25:0 26:0 27:0 28:0 29:0 30:0 31:0 32:0 33:0.42444 34:0 35:0 36:0 37:0.34786099 38:0.43272001 39:0.49180701 40:0.55181903 41:0.00047699999 42:0.013889 43:0 44:1 45:1 46:0 #docid = GX272-70-6476709 inc = 0.834571275324302 prob = 0.265085
-0.052678327626109578 1:0 2:0 3:0 4:0 5:0 6:0 7:0 8:0 9:0 10:0 11:0 12:0 13:0 14:0 15:0 16:0.013322 17:0.050000001 18:0 19:0.444444 20:0.012385 21:0.62021399 22:0.60000598 23:0.36544001 24:0.72658801 25:0 26:0 27:0 28:0 29:0 30:0 31:0 32:0 33:0 34:0 35:0 36:0 37:0.60758501 38:0.58329701 39:0.35666001 40:0.71256202 41:0.001019 42:0.013889 43:0 44:0.40000001 45:0.520661 46:0 #docid = GX272-71-9500550 inc = 0.834571275324302 prob = 0.179997
-0.10000000000000001 1:0.047858998 2:1 3:0 4:1 5:0.049538001 6:0 7:0 8:0 9:0 10:0 11:0.094463997 12:1 13:0 14:1 15:0.102974 16:0.010412 17:0.1 18:0 19:0.052632 20:0.010205 21:0.62879097 22:0.48854199 23:0.31632599 24:0.37264499 25:1 26:1 27:1 28:1 29:0 30:0 31:0 32:0 33:0.95451301 34:0.97236598 35:0.99936098 36:0.97812599 37:0.80403697 38:0.78231198 39:0.480225 40:0.90621799 41:0.0049450002 42:0.012821 43:0 44:0 45:0.025210001 46:0 #docid = GX008-55-14357928 inc = 0.692572800090389 prob = 0.107122
0.20000000000000001 1:0.026029 2:0 3:1 4:0 5:0.026868001 6:0 7:0 8:0 9:0 10:0 11:0.01935 12:0 13:0.79259598 14:0 15:0.019416001 16:0.025079999 17:0 18:0.418605 19:0.157895 20:0.025316 21:0.442269 22:0.81061298 23:0.464295 24:0.75926399 25:0 26:0 27:0 28:0 29:0.509826 30:0.54702997 31:0.0046040001 32:0.74873501 33:0 34:0 35:0 36:0 37:0.48629099 38:0.86853701 39:0.52084398 40:0.79522699 41:0.037889998 42:0.012821 43:0.043478001 44:0.33333299 45:0.21008401 46:0 #docid = GX017-79-13896734 inc = 0.719531935422559 prob = 0.12368
-0.14833364650210515 1:0.034425002 2:0 3:1 4:0 5:0.035264 6:0 7:0 8:0 9:0 10:0 11:0.044831999 12:0 13:0.824157 14:0 15:0.047786999 16:0.025079999 17:0.1 18:0.20930199 19:0.42105299 20:0.025246 21:0.998842 22:0.99831897 23:0.76915199 24:0.99821401 25:0 26:0 27:0 28:0 29:0.89401799 30:1 31:1 32:1 33:0 34:0 35:0 36:0 37:0.99914402 38:0.99863601 39:0.77181798 40:0.97632301 41:0.00030700001 42:0.012821 43:0.152174 44:1 45:0.51260501 46:0 #docid = GX048-84-10250762 inc = 0.725650225988823 prob = 0.342191
-0.10000000000000001 1:0.031066 2:1 3:0.5 4:0.5 5:0.032745998 6:0 7:0 8:0 9:0 10:0 11:0.050623 12:1 13:0.5 14:0.28785199 15:0.057015002 16:0.065523997 17:0.1 18:0.162791 19:0.157895 20:0.065534003 21:0.42548099 22:0.149828 23:0.16568699 24:0 25:1 26:1 27:1 28:1 29:0.64001 30:0.104741 31:0.002414 32:0.017262001 33:0.25184801 34:0.13183001 35:0.010163 36:0.077927001 37:0.508439 38:0.234487 39:0.32998401 40:0.33645901 41:0.137879 42:0.012821 43:0.043478001 44:0.444444 45:0.21008401 46:0 #docid = GX061-64-14452827 inc = 0.725650225988823 prob = 0.134059
-0.10000000000000001 1:0.034425002 2:0 3:1 4:0 5:0.035264 6:0 7:0 8:0 9:0 10:0 11:0.044831999 12:0 13:0.824157 14:0 15:0.047786999 16:0.024987999 17:0.2 18:0.20930199 19:0.42105299 20:0.025177 21:1 22:1 23:0.77001798 24:1 25:0 26:0 27:0 28:0 29:0.89401799 30:0.953623 31:1 32:1 33:0 34:0 35:0 36:0 37:1 38:1 39:0.77248502 40:0.97763401 41:0.029803 42:0.012821 43:0.173913 44:1 45:0.50420201 46:0 #docid = GX146-90-16642520 inc = 0.725650225988823 prob = 0.336627
-0.10000000000000001 1:0.034425002 2:0 3:1 4:0 5:0.035264 6:0 7:0 8:0 9:0 10:0 11:0.044831999 12:0 13:0.824157 14:0 15:0.047786999 16:0.025103999 17:0.1 18:0.20930199 19:0.42105299 20:0.02527 21:0.99855202 22:0.99784201 23:0.76893598 24:0.997769 25:0 26:0 27:0 28:0 29:0.89401799 30:1 31:1 32:1 33:0 34:0 35:0 36:0 37:0.99885899 38:0.99816102 39:0.771595 40:0.975887 41:0.000416 42:0.012821 43:0 44:1 45:0.55462199 46:0 #docid = GX200-00-7493505 inc = 0.725650225988823 prob = 0.334797
0.048333646502105143 1:0.149454 2:0 3:0 4:0.5 5:0.149454 6:0 7:0 8:0 9:0 10:0 11:0.254792 12:0 13:0 14:0.28785199 15:0.26730701 16:0.37194899 17:0.60000002 18:0 19:0.157895 20:0.37196299 21:0.35236701 22:0.34055501 23:0.35893801 24:0.214663 25:0 26:0 27:0 28:0 29:0 30:0 31:0 32:0 33:0.25184801 34:0.13183001 35:0.010163 36:0.077927001 37:0.35877901 38:0.24365 39:0.34447101 40:0.199535 41:0.017959001 42:0.012821 43:0 44:0.222222 45:0.26050401 46:0 #docid = GX234-97-8244985 inc = 0.725650225988823 prob = 0.193591
0.30000000000000004 1:0.269521 2:0 3:0 4:1 5:0.27036101 6:0 7:0 8:0 9:0 10:0 11:0.41231599 12:0 13:0 14:1 15:0.43798399 16:0.35883 17:0.30000001 18:0 19:0.157895 20:0.35877299 21:0.58119899 22:0.39306399 23:0.470173 24:0.30733499 25:0 26:0 27:0 28:0 29:0 30:0 31:0 32:0 33:0.874919 34:0.92640501 35:0.99808502 36:0.94158202 37:0.61548901 38:0.387097 39:0.51807302 40:0.34038699 41:0.091546997 42:0.012821 43:0 44:0.222222 45:0.117647 46:0 #docid = GX261-81-4896686 inc = 0.725650225988823 prob = 0.330437
-0.20000000000000001 1:0.039062999 2:0 3:0.66666698 4:0 5:0.039896 6:0 7:0 8:0 9:0 10:0 11:0.394126 12:0 13:0.699283 14:0 15:0.401862 16:0.017527999 17:0 18:0.25 19:0.111111 20:0.017294999 21:0.90362501 22:1 23:0.97806501 24:1 25:0 26:0 27:0 28:0 29:0.699283 30:0.62343198 31:0.58419502 32:0.52684599 33:0 34:0 35:0 36:0 37:0.910088 38:1 39:0.987782 40:1 41:0 42:0 43:0.083333001 44:0.60000002 45:0.049180001 46:0 #docid = GX004-30-4192660 inc = 1 prob = 0.262624
0.24176972370737798 1:0.049913 2:0 3:0 4:0 5:0.049869999 6:0 7:0 8:0 9:0 10:0 11:0.36737299 12:0 13:0 14:0 15:0.372614 16:0.058240999 17:0.41666701 18:0.25 19:0.555556 20:0.058897998 21:0.90090197 22:0.84312898 23:0.96566099 24:0.887972 25:0 26:0 27:0 28:0 29:0 30:0 31:0 32:0 33:0 34:0 35:0 36:0 37:0.90644401 38:0.83433598 39:0.96039701 40:0.87961602 41:0.90653002 42:0.52173901 43:0.5 44:1 45:0.42623001 46:0 #docid = GX027-55-9691561 inc = 1 prob = 0.314672
0.20000000000000001 1:0.028212 2:0.166667 3:0 4:0 5:0.029054999 6:0 7:0 8:0 9:0 10:0 11:0.389072 12:0.166667 13:0 14:0 15:0.39692599 16:0.024445999 17:0.222222 18:0.33333299 19:0.555556 20:0.024821 21:0.93530798 22:0.88013798 23:0.898139 24:0.83865303 25:0.36394101 26:0.217659 27:0.18336 28:0.248154 29:0 30:0 31:0 32:0 33:0 34:0 35:0 36:0 37:0.94196397 38:0.87623203 39:0.90691 40:0.83493698 41:0.011384 42:0.043478001 43:0 44:0.80000001 45:0.655738 46:0 #docid = GX028-28-13812238 inc = 1 prob = 0.37177
-0.40000000000000002 1:0.082465 2:0.58333302 3:1 4:1 5:0.088031001 6:0 7:0 8:0 9:0 10:0 11:0.41141799 12:0.48154101 13:1 14:1 15:0.42730999 16:0.091241002 17:0.277778 18:0.25 19:0.77777803 20:0.091759004 21:0.63833803 22:0.51440299 23:0.67268997 24:0.52210999 25:0.81213099 26:1 27:0.70740801 28:1 29:1 30:1 31:0.74532402 32:1 33:0.92303097 34:0.95965499 35:0.99855399 36:0.97212601 37:0.65786803 38:0.53267801 39:0.70485997 40:0.54078901 41:0.016914999 42:0.130435 43:0.70833302 44:0.80000001 45:1 46:0 #docid = GX031-55-16245423 inc = 0.706037059122157 prob = 0.242883
-0.10000000000000001 1:0.052517001 2:0 3:0 4:0 5:0.052471999 6:0 7:0 8:0 9:0 10:0 11:0.438241 12:0 13:0 14:0 15:0.44329399 16:0.048751999 17:0.027778 18:0.25 19:0.33333299 20:0.048661001 21:0.80068499 22:0.78418797 23:0.96713501 24:0.753905 25:0 26:0 27:0 28:0 29:0 30:0 31:0 32:0 33:0 34:0 35:0 36:0 37:0.80590701 38:0.78048402 39:0.96547002 40:0.75073701 41:1 42:0.60869598 43:1 44:0.40000001 45:0.344262 46:0 #docid = GX032-05-5392509 inc = 1 prob = 0.371034
-0.40000000000000002 1:0.105469 2:0.25 3:1 4:1 5:0.10928 6:0 7:0 8:0 9:0 10:0 11:0.482418 12:0.241699 13:1 14:1 15:0.496409 16:0.078573003 17:0.138889 18:0.33333299 19:0.555556 20:0.078810997 21:0.65154701 22:0.51225001 23:0.70511299 24:0.44003099 25:0.73644102 26:0.719639 27:0.40153801 28:0.64895099 29:0.87671697 30:0.94308197 31:0.744533 32:0.95326698 33:1 34:1 35:1 36:1 37:0.65874702 38:0.51901603 39:0.72029197 40:0.44818601 41:0.0075389999 42:0.043478001 43:0.58333302 44:0.2 45:0.459016 46:0 #docid = GX062-22-11864991 inc = 0.706037059122157 prob = 0.472986
0.20000000000000001 1:0.080294997 2:0.25 3:0 4:0 5:0.081525996 6:0 7:0 8:0 9:0 10:0 11:0.38972101 12:0.241699 13:0 14:0 15:0.39788201 16:0.114004 17:0.277778 18:0 19:1 20:0.114477 21:0.52121502 22:0.308718 23:0.396038 24:0.231987 25:0.44393399 26:0.55240798 27:0.39658099 28:0.55889702 29:0 30:0 31:0 32:0 33:0 34:0 35:0 36:0 37:0.53245002 38:0.31395599 39:0.40518299 40:0.23772 41:0.0043029999 42:0.043478001 43:0.208333 44:1 45:0.90163898 46:0 #docid = GX127-56-9003488 inc = 1 prob = 0.165272
0.5 1:0.135417 2:0 3:0 4:0 5:0.135299 6:0 7:0 8:0 9:0 10:0 11:0.32365 12:0 13:0 14:0 15:0.32822499 16:0.236001 17:0.055555999 18:0 19:0.77777803 20:0.236012 21:0.25662699 22:0.025673 23:0.015444 24:0 25:0 26:0 27:0 28:0 29:0 30:0 31:0 32:0 33:0 34:0 35:0 36:0 37:0.260593 38:0.025178 39:0.013495 40:0 41:0.0098839998 42:0.043478001 43:0 44:1 45:0.57376999 46:0 #docid = GX238-64-9825998 inc = 1 prob = 0.161891
-0.10000000000000001 1:0.017361 2:0.25 3:1 4:0.33333299 5:0.020382 6:0 7:0 8:0 9:0 10:0 11:0.380097 12:0.241699 13:1 14:0.32361901 15:0.39326 16:0.012807 17:0.138889 18:0.33333299 19:0.555556 20:0.013042 21:0.78350198 22:0.74948299 23:0.56580299 24:0.73913801 25:0.73644102 26:0.719639 27:0.40153801 28:0.64895099 29:0.87671697 30:0.94308197 31:0.744533 32:0.95326698 33:0.32361901 34:0.024897 35:0.060006998 36:0.017206 37:0.810956 38:0.77864802 39:0.627639 40:0.76346397 41:0.049973998 42:0.043478001 43:0 44:0.60000002 45:0.96721298 46:0 #docid = GX240-98-3754639 inc = 1 prob = 0.226399
0.40000000000000002 1:1 2:0.166667 3:0 4:0 5:1 6:0 7:0 8:0 9:0 10:0 11:0.62310499 12:0.166667 13:0 14:0 15:0.61960399 16:0.96368098 17:0.111111 18:0 19:0.33333299 20:0.963633 21:0.502985 22:0.217253 23:0.29948601 24:0.26837501 25:0.58489901 26:0.32936099 27:0.187328 28:0.30819499 29:0 30:0 31:0 32:0 33:0 34:0 35:0 36:0 37:0.507976 38:0.217785 39:0.301788 40:0.26952401 41:0.065812998 42:0.043478001 43:0 44:0.60000002 45:0.180328 46:0 #docid = GX250-22-8542052 inc = 1 prob = 0.164131
-0.30000000000000004 1:0.025173999 2:0 3:1 4:0.33333299 5:0.026885999 6:0 7:0 8:0 9:0 10:0 11:0.38868201 12:0 13:0.65184897 14:0.351073 15:0.39602199 16:0.014957 17:0 18:0.41666701 19:0.66666698 20:0.015052 21:1 22:0.94471103 23:0.89753598 24:0.949076 25:0 26:0 27:0 28:0 29:0.50876498 30:0.461943 31:0.390755 32:0.545735 33:0.33702099 34:0.058674999 35:0.162892 36:0.040534999 37:1 38:0.941989 39:0.90365797 40:0.94561398 41:0 42:0 43:0.083333001 44:0.80000001 45:0.655738 46:0 #docid = GX252-62-8137077 inc = 1 prob = 0.145549
-0.04176972370737797 1:0.881944 2:0.166667 3:0 4:0 5:0.882047 6:0 7:0 8:0 9:0 10:0 11:0 12:0.166667 13:0 14:0 15:0 16:1 17:0.111111 18:0 19:0.444444 20:1 21:0.36111501 22:0.076251999 23:0.092522003 24:0.14674599 25:0.58489901 26:0.32936099 27:0.187328 28:0.30819499 29:0 30:0 31:0 32:0 33:0 34:0 35:0 36:0 37:0.368745 38:0.077408001 39:0.095008001 40:0.148522 41:0.21335299 42:0.043478001 43:0 44:0.40000001 45:0.295082 46:0 #docid = GX256-98-4701172 inc = 1 prob = 0.160793
0.10000000000000001 1:0.68518502 2:0 3:0 4:0 5:0.66071397 6:0 7:0 8:0 9:0 10:0 11:0.68518502 12:0 13:0 14:0 15:0.66071397 16:0.44171199 17:0.81818199 18:0.470588 19:0.26666701 20:0.44190699 21:0.58268201 22:0.31773001 23:0.304885 24:0.239002 25:0 26:0 27:0 28:0 29:0 30:0 31:0 32:0 33:0 34:0 35:0 36:0 37:0.58881003 38:0.31819001 39:0.30303499 40:0.239491 41:0.018492 42:0.1 43:0.029851001 44:0.42857099 45:0.22314 46:0 #docid = GX005-56-13344819 inc = 1 prob = 0.259842
-0.10000000000000001 1:0.222222 2:0 3:0 4:0 5:0.214286 6:0 7:0 8:0 9:0 10:0 11:0.204209 12:0 13:0 14:0 15:0.196914 16:0.32002401 17:0.45454499 18:0.29411799 19:0.26666701 20:0.319904 21:0.46032399 22:0.82510698 23:0.84275401 24:0.75264698 25:0 26:0 27:0 28:0 29:0 30:0 31:0 32:0 33:0 34:0 35:0 36:0 37:0.47023401 38:0.82890499 39:0.84043002 40:0.75620902 41:0.002757 42:0.15000001 43:0.47761199 44:0.57142901 45:0.44628099 46:0 #docid = GX006-80-15185265 inc = 1 prob = 0.46698
-0.099992066019282788 1:0.148148 2:0 3:0 4:0 5:0.142857 6:0 7:0 8:0 9:0 10:0 11:0.144546 12:0 13:0 14:0 15:0.139383 16:0.22972301 17:0 18:0.41176501 19:0.26666701 20:0.229489 21:0.407592 22:0.66891402 23:0.73874903 24:0.681099 25:0 26:0 27:0 28:0 29:0 30:0 31:0 32:0 33:0 34:0 35:0 36:0 37:0.415418 38:0.67218202 39:0.73698002 40:0.68440998 41:0 42:0 43:0.029851001 44:0.85714298 45:0.34710699 46:0 #docid = GX007-77-0080418 inc = 1 prob = 0.453804
-0.40000000000000002 1:0.074074 2:0 3:0 4:0 5:0.071428999 6:0 7:0 8:0 9:0 10:0 11:0.070471004 12:0 13:0 14:0 15:0.067953996 16:0.31066701 17:1 18:0.76470602 19:0.133333 20:0.311205 21:0.19528399 22:0.54318303 23:0.62180501 24:0.571697 25:0 26:0 27:0 28:0 29:0 30:0 31:0 32:0 33:0 34:0 35:0 36:0 37:0.200009 38:0.54584002 39:0.62043703 40:0.57450598 41:0.000826 42:0.050000001 43:0.044776 44:0.42857099 45:0.190083 46:0 #docid = GX007-98-7197468 inc = 1 prob = 0.252469
0.20000000000000001 1:0.96296299 2:0 3:1 4:1 5:0.96428603 6:0 7:0 8:0 9:0 10:0 11:0.95936 12:0 13:1 14:1 15:0.96081102 16:0.111244 17:0 18:0.41176501 19:0.26666701 20:0.111075 21:0.93864399 22:0.94401997 23:0.99968302 24:0.939996 25:0 26:0 27:0 28:0 29:0.64001 30:0.46151799 31:0.71356797 32:0.51153201 33:1 34:0 35:0 36:0 37:0.94528902 38:0.950495 39:0.999686 40:0.94621998 41:0 42:0 43:0.029851001 44:0.85714298 45:0.35537201 46:0 #docid = GX009-29-7948495 inc = 1 prob = 0.436122
-0.10000000000000001 1:0.111111 2:0 3:0 4:0 5:0.107143 6:0 7:0 8:0 9:0 10:0 11:0.107508 12:0 13:0 14:0 15:0.103668 16:0.12925 17:0 18:0.52941197 19:0.26666701 20:0.12918 21:0.489683 22:0.72848898 23:0.77231199 24:0.74212599 25:0 26:0 27:0 28:0 29:0 30:0 31:0 32:0 33:0 34:0 35:0 36:0 37:0.49718401 38:0.73133999 39:0.77007198 40:0.74501503 41:0 42:0 43:0.029851001 44:0.85714298 45:0.33057901 46:0 #docid = GX009-73-14237047 inc = 1 prob = 0.453752
0.20000435426220955 1:0.72222197 2:0 3:1 4:1 5:0.73214298 6:0 7:0 8:0 9:0 10:0 11:0.72222197 12:0 13:1 14:1 15:0.73214298 16:0.116358 17:0 18:0.41176501 19:0.26666701 20:0.116186 21:0.80042398 22:0.47120801 23:0.473353 24:0.343344 25:0 26:0 27:0 28:0 29:0.64001 30:0.46151799 31:0.71356797 32:0.51153201 33:1 34:0 35:0 36:0 37:0.80753499 38:0.47573999 39:0.47487101 40:0.34754199 41:0 42:0 43:0.014925 44:0.85714298 45:0.44628099 46:0 #docid = GX010-25-4439662 inc = 1 prob = 0.519793
-0.20000000000000001 1:0.055555999 2:0.5 3:1 4:1 5:0.107143 6:0 7:0 8:0 9:0 10:0 11:0.055555999 12:0.5 13:1 14:1 15:0.107143 16:0.0046239998 17:0.090908997 18:0.17647099 19:0.26666701 20:0.0043489998 21:0.739371 22:0.55304301 23:0.3633 24:0.38219801 25:1 26:1 27:0.010052 28:1 29:1 30:1 31:1 32:1 33:1 34:0 35:0 36:0 37:0.81863701 38:0.60396099 39:0.42365599 40:0.426384 41:0.005992 42:0.050000001 43:0.25373101 44:0.42857099 45:0.32231399 46:0 #docid = GX011-21-5360059 inc = 1 prob = 0.152934
-0.10000000000000001 1:0.222222 2:0 3:0 4:0 5:0.214286 6:0 7:0 8:0 9:0 10:0 11:0.204209 12:0 13:0 14:0 15:0.196914 16:0.309688 17:0 18:0.29411799 19:0.26666701 20:0.309302 21:0.47092 22:0.830226 23:0.84722102 24:0.75759202 25:0 26:0 27:0 28:0 29:0 30:0 31:0 32:0 33:0 34:0 35:0 36:0 37:0.48120299 38:0.834158 39:0.84497899 40:0.76128203 41:0 42:0 43:0.014925 44:0.57142901 45:0.48760301 46:0 #docid = GX015-27-11861683 inc = 1 prob = 0.473782
0.39999564573779051 1:0.166667 2:0 3:0 4:0 5:0.160714 6:0 7:0 8:0 9:0 10:0 11:0.163064 12:0 13:0 14:0 15:0.15724 16:0.036120001 17:0.45454499 18:0.29411799 19:0.33333299 20:0.036208998 21:0.94882202 22:0.96674597 23:0.90608001 24:0.96785402 25:0 26:0 27:0 28:0 29:0 30:0 31:0 32:0 33:0 34:0 35:0 36:0 37:0.94932801 38:0.96688801 39:0.90246803 40:0.96800297 41:0.016372001 42:0.30000001 43:0.985075 44:0.57142901 45:0.280992 46:0 #docid = GX015-46-0914114 inc = 1 prob = 0.667306
-0.14227433301294815 1:0.87036997 2:0.5 3:1 4:0 5:0.875 6:0 7:0 8:0 9:0 10:0 11:0.87036997 12:0.5 13:1 14:0 15:0.875 16:1 17:0.63636398 18:0.41176501 19:0.60000002 20:1 21:0.45477101 22:0.25635001 23:0.198512 24:0.19543999 25:0.374246 26:0.147422 27:0.001434 28:0.064214997 29:0.64001 30:0.54440498 31:0.71356797 32:0.51153201 33:0 34:0 35:0 36:0 37:0.47167799 38:0.26018101 39:0.201285 40:0.199108 41:0.00029900001 42:0.050000001 43:0.029851001 44:1 45:0.47107399 46:0 #docid = GX020-07-6517472 inc = 1 prob = 0.0353764
0.10000000000000001 1:0.166667 2:0 3:0 4:0 5:0.160714 6:0 7:0 8:0 9:0 10:0 11:0.163064 12:0 13:0 14:0 15:0.15724 16:0.029049 17:0 18:0.35294101 19:0.40000001 20:0.028977999 21:1 22:1 23:0.91520798 24:1 25:0 26:0 27:0 28:0 29:0 30:0 31:0 32:0 33:0 34:0 35:0 36:0 37:1 38:1 39:0.91168803 40:1 41:0 42:0 43:0.014925 44:0.71428603 45:0.33057901 46:0 #docid = GX023-76-1357473 inc = 1 prob = 0.757698
0.10000000000000001 1:0.277778 2:0 3:1 4:0 5:0.285714 6:0 7:0 8:0 9:0 10:0 11:0.277778 12:0 13:1 14:0 15:0.285714 16:0.024697 17:0 18:0.35294101 19:0.40000001 20:0.024629001 21:0.83090299 22:0.55524498 23:0.48118401 24:0.38643301 25:0 26:0 27:0 28:0 29:0.70330602 30:0.62729299 31:0.78513998 32:0.60039997 33:0 34:0 35:0 36:0 37:0.83533299 38:0.55629402 39:0.48343101 40:0.38969001 41:0 42:0 43:0.014925 44:0.71428603 45:0.33057901 46:0 #docid = GX047-94-13471312 inc = 1 prob = 0.54631
0.04227433301294814 1:0.203704 2:0.5 3:0 4:0 5:0.214286 6:0 7:0 8:0 9:0 10:0 11:0.203704 12:0.5 13:0 14:0 15:0.214286 16:0.048795 17:0.63636398 18:0.29411799 19:0.33333299 20:0.048985999 21:0.73381799 22:0.46111599 23:0.42245501 24:0.312718 25:0.374246 26:0 27:0.001434 28:0.064214997 29:0 30:0 31:0 32:0 33:0 34:0 35:0 36:0 37:0.74730003 38:0.467531 39:0.42696401 40:0.31839901 41:0.12996 42:0.5 43:0.94029897 44:0.57142901 45:0.280992 46:0 #docid = GX048-60-15106328 inc = 1 prob = 0.233238
-0.10000000000000001 1:1 2:0.5 3:1 4:0 5:1 6:0 7:0 8:0 9:0 10:0 11:1 12:0.5 13:1 14:0 15:1 16:0.156666 17:0.72727299 18:0.58823502 19:0.26666701 20:0.15707099 21:0.805848 22:0.480001 23:0.47308299 24:0.34558299 25:0.33890101 26:0.088917002 27:0 28:0 29:0.50394797 30:0.35262001 31:0.49913901 32:0.30590799 33:0 34:0 35:0 36:0 37:0.811176 38:0.48305699 39:0.47305599 40:0.34861001 41:0.00086600002 42:0.050000001 43:0.119403 44:0.57142901 45:0.231405 46:0 #docid = GX065-57-6966995 inc = 1 prob = 0.673183
0.39999206601928283 1:0.33333299 2:0.5 3:1 4:0 5:0.35714301 6:0 7:0 8:0 9:0 10:0 11:0.33333299 12:0.5 13:1 14:0 15:0.35714301 16:0.036556002 17:0.54545498 18:0.29411799 19:0.33333299 20:0.036699001 21:0.82163697 22:0.532754 23:0.48237801 24:0.37132499 25:0.41782099 26:0.135079 27:0.002869 28:0.138346 29:0.78049499 30:0.72532701 31:0.85671198 32:0.70550799 33:0 34:0 35:0 36:0 37:0.83045799 38:0.54002601 39:0.48817301 40:0.37805399 41:0.065706 42:0.60000002 43:0.86567199 44:0.57142901 45:0.280992 46:0 #docid = GX081-90-10451271 inc = 1 prob = 0.364487
0.078321253631347787 1:0.296296 2:0 3:1 4:0 5:0.30357099 6:0 7:0 8:0 9:0 10:0 11:0.296296 12:0 13:1 14:0 15:0.30357099 16:0.030517001 17:0 18:0.35294101 19:0.40000001 20:0.030446 21:0.82326502 22:0.53054899 23:0.47931701 24:0.37575901 25:0 26:0 27:0 28:0 29:0.70330602 30:0.62729299 31:0.78513998 32:0.60039997 33:0 34:0 35:0 36:0 37:0.82817 38:0.53222001 39:0.48126999 40:0.37919 41:0 42:0 43:0.014925 44:0.71428603 45:0.33057901 46:0 #docid = GX110-51-6807791 inc = 1 prob = 0.537647
0.10000000000000001 1:0.96296299 2:0 3:1 4:1 5:0.96428603 6:0 7:0 8:0 9:0 10:0 11:0.95936 12:0 13:1 14:1 15:0.96081102 16:0.110863 17:0 18:0.41176501 19:0.26666701 20:0.110694 21:0.93919998 22:0.94454998 23:1 24:0.94050997 25:0 26:0 27:0 28:0 29:0.64001 30:0.46151799 31:0.71356797 32:0.51153201 33:1 34:0 35:0 36:0 37:0.94583201 38:0.95102298 39:1 40:0.94673097 41:0 42:0 43:0.044776 44:0.85714298 45:0.38016501 46:0 #docid = GX246-83-4292859 inc = 1 prob = 0.516365
-0.47832125363134781 1:0.074074 2:0 3:0 4:0 5:0.071428999 6:0 7:0 8:0 9:0 10:0 11:0.070471004 12:0 13:0 14:0 15:0.067953996 16:0.310287 17:1 18:0.76470602 19:0.133333 20:0.31082499 21:0.195484 22:0.54337299 23:0.62197101 24:0.57188201 25:0 26:0 27:0 28:0 29:0 30:0 31:0 32:0 33:0 34:0 35:0 36:0 37:0.200211 38:0.54602998 39:0.62060201 40:0.57468998 41:0.000216 42:0.050000001 43:0.089552 44:0.42857099 45:0.214876 46:0 #docid = GX250-05-0880157 inc = 1 prob = 0.256632
0.10000000000000001 1:0.010283 2:0 3:0 4:0 5:0.010283 6:0 7:0 8:0 9:0 10:0 11:0.013775 12:0 13:0 14:0 15:0.013817 16:0.022715 17:0.5 18:0.25 19:0.066666998 20:0.021989999 21:0.73074001 22:0.50950098 23:0.078137003 24:0.160119 25:0 26:0 27:0 28:0 29:0 30:0 31:0 32:0 33:0 34:0 35:0 36:0 37:0.70298302 38:0.49650899 39:0.078685999 40:0.153521 41:1 42:0.90476203 43:0.01323 44:0.2 45:0.074074 46:0 #docid = GX006-24-7307980 inc = 0.768417317429678 prob = 0.33199
0.10000000000000001 1:0.069408998 2:1 3:1 4:0 5:0.082262002 6:0 7:0 8:0 9:0 10:0 11:0.081317 12:1 13:1 14:0 15:0.097034 16:0.061549 17:0.125 18:0.5625 19:0 20:0.060718 21:0.90287501 22:0.68591702 23:0.56519097 24:0.310963 25:1 26:1 27:1 28:1 29:0.98809999 30:1 31:1 32:0.991988 33:0 34:0 35:0 36:0 37:0.91122401 38:0.72889298 39:0.64122403 40:0.35616499 41:0.021342 42:0.047619 43:0.0077180001 44:0 45:0.098765001 46:0 #docid = GX020-55-10252835 inc = 0.768417317429678 prob = 0.63609
0.10000000000000001 1:0.007712 2:0 3:0 4:0 5:0.007712 6:0 7:0 8:0 9:0 10:0 11:0.0092949998 12:0 13:0 14:0 15:0.009323 16:0 17:0.5625 18:0.6875 19:0.2 20:0 21:0.834216 22:0.77028 23:0.076373003 24:0.40956399 25:0 26:0 27:0 28:0 29:0 30:0 31:0 32:0 33:0 34:0 35:0 36:0 37:0.78732002 38:0.70428199 39:0.073031001 40:0.36576301 41:0.87898999 42:0.57142901 43:0.0099229999 44:0.40000001 45:0.34567899 46:0 #docid = GX024-81-6055162 inc = 0.768417317429678 prob = 0.403494
0.10000000000000001 1:0.010283 2:0 3:0 4:0 5:0.010283 6:0 7:0 8:0 9:0 10:0 11:0.013775 12:0 13:0 14:0 15:0.013817 16:0.024814 17:0.5 18:0.1875 19:0.133333 20:0.024092 21:0.71733302 22:0.48501799 23:0.070449002 24:0.14435001 25:0 26:0 27:0 28:0 29:0 30:0 31:0 32:0 33:0 34:0 35:0 36:0 37:0.69042999 38:0.47369301 39:0.071070999 40:0.13821 41:0.92116201 42:0.809524 43:0.012128 44:0.2 45:0.135802 46:0 #docid = GX217-62-5898809 inc = 0.768417317429678 prob = 0.321007
0.20000000000000001 1:0.041131001 2:0 3:0 4:0 5:0.041131001 6:0 7:0 8:0 9:0 10:0 11:0.045889001 12:0 13:0 14:0 15:0.046002999 16:0.0020989999 17:0 18:0.3125 19:1 20:0.001876 21:0.95784301 22:1 23:0.46838301 24:0.588144 25:0 26:0 27:0 28:0 29:0 30:0 31:0 32:0 33:0 34:0 35:0 36:0 37:0.91620702 38:0.95073301 39:0.46550599 40:0.559304 41:0 42:0 43:0 44:0.60000002 45:1 46:0 #docid = GX224-91-3695063 inc = 0.768417317429678 prob = 0.527663
-0.10000000000000001 1:0.053985 2:0 3:0 4:0 5:0.053985 6:0 7:0 8:0 9:0 10:0 11:0.055695999 12:0 13:0 14:0 15:0.055757999 16:0.740385 17:0.0625 18:0 19:0.2 20:0.739793 21:0.152431 22:0.243845 23:0.29900101 24:0.172095 25:0 26:0 27:0 28:0 29:0 30:0 31:0 32:0 33:0 34:0 35:0 36:0 37:0.150419 38:0.24403 39:0.30062699 40:0.174775 41:0.003358 42:0.047619 43:0 44:0.2 45:0.197531 46:0 #docid = GX231-36-9687566 inc = 0.768417317429678 prob = 0.16239
-0.5 1:1 2:0 3:0 4:0 5:1 6:0 7:0 8:0 9:0 10:0 11:1 12:0 13:0 14:0 15:1 16:0.66699201 17:0.1875 18:0.3125 19:0.33333299 20:0.66699201 21:0.439711 22:0.75475597 23:1 24:0.57464498 25:0 26:0 27:0 28:0 29:0 30:0 31:0 32:0 33:0 34:0 35:0 36:0 37:0.42509699 38:0.75344902 39:1 40:0.582609 41:0.0046350001 42:0.047619 43:0 44:0.2 45:0.197531 46:0 #docid = GX246-46-12808106 inc = 0.768417317429678 prob = 0.19188
-0.10000000000000001 1:0 2:0 3:0 4:0 5:0 6:0 7:0 8:0 9:0 10:0 11:0.046438001 12:0 13:0 14:0 15:0.030173 16:0.110507 17:0 18:0 19:0.45454499 20:0.110524 21:0.114867 22:0 23:0.020338001 24:0 25:0 26:0 27:0 28:0 29:0 30:0 31:0 32:0 33:0 34:0 35:0 36:0 37:0.115357 38:0 39:0 40:0 41:0 42:0 43:0 44:0.60000002 45:0.62295097 46:0 #docid = GX006-56-11728691 inc = 1 prob = 0.238212
-0.10000000000000001 1:0.034219 2:0 3:0.80000001 4:0 5:0.035799999 6:0 7:0 8:0 9:0 10:0 11:0.059969001 12:0 13:0.61919302 14:0 15:0.049208999 16:0.026892999 17:0 18:1 19:0.45454499 20:0.02767 21:0.487041 22:0.80039501 23:0.73884201 24:0.79456699 25:0 26:0 27:0 28:0 29:0.36279199 30:0.52221698 31:0.229417 32:0.71411699 33:0 34:0 35:0 36:0 37:0.49650899 38:0.79764098 39:0.75367498 40:0.79234999 41:0 42:0 43:0.3125 44:1 45:0.54098397 46:0 #docid = GX047-30-3028588 inc = 0.56389229294478 prob = 0.115274
0.10000000000000001 1:0.014895 2:0.66666698 3:0.2 4:1 5:0.016492 6:0 7:0 8:0 9:0 10:0 11:0.095858999 12:0.84030402 13:0.292099 14:1 15:0.100463 16:0.010961 17:0.46153799 18:0.105263 19:0.36363599 20:0.011272 21:0.68584502 22:0.917512 23:0.87647402 24:0.90033603 25:0.69798303 26:0.56848502 27:0.76428503 28:0.46103299 29:0.64721102 30:0.28048101 31:0.448194 32:0.166252 33:1 34:1 35:1 36:1 37:0.71382397 38:0.91828603 39:0.90955198 40:0.90124702 41:0.21924999 42:0.37272701 43:1 44:0.60000002 45:0.377049 46:0 #docid = GX096-34-3581751 inc = 1 prob = 0.211232
0.10000000000000001 1:0.012077 2:0.66666698 3:0.40000001 4:1 5:0.014079 6:0 7:0 8:0 9:0 10:0 11:0.078128003 12:0.76784497 13:0.525168 14:1 15:0.086553 16:0.014719 17:0.69230801 18:0.157895 19:0.45454499 20:0.015224 21:0.61645597 22:0.84071302 23:0.814381 24:0.82048202 25:0.56765801 26:1 27:1 28:1 29:1 30:0.85786998 31:0.95154703 32:0.64856398 33:0.95830601 34:0.98522502 35:0.99935597 36:0.984779 37:0.68647403 38:0.86125302 39:0.87557602 40:0.841093 41:0.0081249997 42:0.036364 43:0.34375 44:0.80000001 45:0.39344299 46:0 #docid = GX122-86-2114231 inc = 1 prob = 0.102012
-0.10000000000000001 1:0.025974 2:0.30000001 3:0.75 4:0.5 5:0.030518999 6:0 7:0 8:0 9:0 10:0 11:0.90902603 12:0.29056799 13:0.88885897 14:0.5 15:0.91575301 16:0.016278001 17:0.222222 18:0.222222 19:0.117647 20:0.016752999 21:0.69174802 22:0.71091098 23:0.54302597 24:0.668109 25:0.99678397 26:1 27:0.632415 28:1 29:0.74229699 30:1 31:0.99073702 32:1 33:0.74631798 34:0.39685899 35:0.007216 36:0.289507 37:0.71205097 38:0.72527498 39:0.56806898 40:0.71505898 41:0.416877 42:0.038462002 43:0.027027 44:0.5 45:0.18181799 46:0 #docid = GX013-73-9677139 inc = 1 prob = 0.119041
0.10000000000000001 1:0.031168999 2:0.30000001 3:0.25 4:0 5:0.033766001 6:0 7:0 8:0 9:0 10:0 11:0.88672602 12:0.27637801 13:0.17502099 14:0 15:0.88489801 16:0.030737 17:0.37037 18:0.222222 19:0.117647 20:0.031399999 21:0.78898001 22:0.71838301 23:0.57530099 24:0.77599603 25:0.646842 26:0.82880098 27:0.62363899 28:0.87434101 29:0.146163 30:0 31:0 32:0 33:0 34:0 35:0 36:0 37:0.82053298 38:0.71414101 39:0.57758999 40:0.80663198 41:0.0028580001 42:0.038462002 43:0.40540501 44:0.5 45:0.16883101 46:0 #docid = GX062-58-7537071 inc = 1 prob = 0.106661
0.69999999999999996 1:0.66688299 2:0 3:0 4:0 5:0.66688299 6:0 7:0 8:0 9:0 10:0 11:0.166742 12:0 13:0 14:0 15:0.16692699 16:0.65471298 17:0.111111 18:0.185185 19:0.17647099 20:0.65489203 21:0.161614 22:0.129659 23:0.091992997 24:0.25744101 25:0 26:0 27:0 28:0 29:0 30:0 31:0 32:0 33:0 34:0 35:0 36:0 37:0.16746899 38:0 39:0 40:0.27559999 41:0.064658001 42:0.038462002 43:0 44:0.5 45:0.376623 46:0 #docid = GX063-31-10567784 inc = 1 prob = 0.182274
-0.10000000000000001 1:0.001299 2:0 3:0.25 4:0.5 5:0.002597 6:0 7:0 8:0 9:0 10:0 11:0.87176502 12:0 13:0.17502099 14:0.5 15:0.86932099 16:0 17:0 18:0.148148 19:0 20:0 21:0.53540897 22:0.50583798 23:0.066327997 24:0.34719899 25:0 26:0 27:0 28:0 29:0.182201 30:0.029913999 31:0.001326 32:0.021373 33:0.81744897 34:0.56824398 35:0.014439 36:0.65207702 37:0.64024299 38:0.51282698 39:0.084484003 40:0.36114001 41:0 42:0 43:0 44:0 45:0.103896 46:0 #docid = GX064-61-10783195 inc = 1 prob = 0.0840731
-0.10000000000000001 1:0.0051950002 2:0.30000001 3:0.5 4:0.5 5:0.0090910001 6:0 7:0 8:0 9:0 10:0 11:0.88632298 12:0.34745601 13:0.60992903 14:0.5 15:0.89663303 16:0.003734 17:0.296296 18:0.222222 19:0.235294 20:0.004404 21:0.81389701 22:0.62975198 23:0.329712 24:0.65279102 25:0.85922498 26:0.74326599 27:0.68991202 28:0.65520799 29:0.509359 30:0.62466198 31:0.82566398 32:0.58479202 33:0.68657601 34:0 35:0 36:0 37:0.86351198 38:0.64624798 39:0.38448599 40:0.70161498 41:0.92395502 42:1 43:0 44:0.75 45:0.285714 46:0 #docid = GX064-92-3078389 inc = 1 prob = 0.082314
-0.10000000000000001 1:0.0051950002 2:0.2 3:0.5 4:0.5 5:0.0084419996 6:0 7:0 8:0 9:0 10:0 11:0.88632298 12:0.209516 13:0.60992903 14:0.5 15:0.89233398 16:0.003543 17:0.222222 18:0.222222 19:0.235294 20:0.0041160001 21:0.81623501 22:0.64552897 23:0.33091101 24:0.66443199 25:0.71873701 26:0.70787603 27:0.57021397 28:0.64938098 29:0.509359 30:0.62466198 31:0.82566398 32:0.58479202 33:0.68657601 34:0 35:0 36:0 37:0.85697699 38:0.65264302 39:0.36815399 40:0.70606297 41:0.76329601 42:0.80769199 43:0 44:1 45:0.36363599 46:0 #docid = GX071-00-2175421 inc = 1 prob = 0.0867979
-0.10000000000000001 1:0.0051950002 2:0.30000001 3:0.5 4:0.5 5:0.0090910001 6:0 7:0 8:0 9:0 10:0 11:0.88632298 12:0.34745601 13:0.60992903 14:0.5 15:0.89663303 16:0.003543 17:0.296296 18:0.222222 19:0.235294 20:0.0042119999 21:0.81623501 22:0.64047903 23:0.33091101 24:0.66443199 25:0.85922498 26:0.74326599 27:0.68991202 28:0.65520799 29:0.509359 30:0.62466198 31:0.82566398 32:0.58479202 33:0.68657601 34:0.26001301 35:0 36:0 37:0.86508697 38:0.660182 39:0.38578901 40:0.71042001 41:0.550475 42:0.53846198 43:0 44:0.75 45:0.31168801 46:0 #docid = GX072-61-7620195 inc = 0.72866848729678 prob = 0.0885962
-0.10000000000000001 1:0.0051950002 2:0.30000001 3:0.5 4:0.5 5:0.0090910001 6:0 7:0 8:0 9:0 10:0 11:0.88632298 12:0.34745601 13:0.60992903 14:0.5 15:0.89663303 16:0.0038300001 17:0.296296 18:0.222222 19:0.235294 20:0.004499 21:0.81273502 22:0.62093598 23:0.32911301 24:0.64717901 25:0.85922498 26:0.74326599 27:0.68991202 28:0.65520799 29:0.509359 30:0.62466198 31:0.82566398 32:0.58479202 33:0.68657601 34:0 35:0 36:0 37:0.86272901 38:0.63824201 39:0.38383499 40:0.69733602 41:0.011994 42:0.076922998 43:0 44:0.75 45:0.285714 46:0 #docid = GX081-26-7991833 inc = 0.72866848729678 prob = 0.0895086
0.10000000000000001 1:0.33311701 2:0.2 3:0 4:0 5:0.334416 6:0 7:0 8:0 9:0 10:0 11:0.99269903 12:0.22362199 13:0 14:0 15:0.986691 16:0.182841 17:0.148148 18:0.148148 19:0.117647 20:0.183084 21:0.91224599 22:0.74162197 23:0.94422603 24:0.76609302 25:1 26:0.83406699 27:0.61663598 28:0.73757201 29:0 30:0 31:0 32:0 33:0 34:0 35:0 36:0 37:0.91796899 38:0.71263099 39:0.93886298 40:0.778346 41:0.013612 42:0.038462002 43:0 44:0 45:0.16883101 46:0 #docid = GX120-58-4097298 inc = 1 prob = 0.836402
-0.40000000000000002 1:0.020129999 2:0.1 3:0.5 4:1 5:0.023376999 6:0 7:0 8:0 9:0 10:0 11:0.94213998 12:0.071575999 13:0.60992903 14:1 15:0.94697899 16:0.01781 17:0.222222 18:0.148148 19:0.235294 20:0.018285001 21:0.68094999 22:0.430608 23:0.434542 24:0.48485801 25:0.245537 26:0.0262 27:0.028427999 28:0.109759 29:0.63494998 30:0.68614697 31:0.82699102 32:0.62759501 33:1 34:1 35:1 36:1 37:0.68871099 38:0.37810799 39:0.41677299 40:0.51830202 41:1 42:0.076922998 43:1 44:0 45:0.18181799 46:0 #docid = GX236-93-12190527 inc = 0.72866848729678 prob = 0.127315
0.10000000000000001 1:1 2:0 3:0 4:0 5:1 6:0 7:0 8:0 9:0 10:0 11:0 12:0 13:0 14:0 15:0 16:1 17:0.222222 18:0 19:0.17647099 20:1 21:0.162641 22:0.328013 23:0.40532401 24:0.42280599 25:0 26:0 27:0 28:0 29:0 30:0 31:0 32:0 33:0 34:0 35:0 36:0 37:0.16698401 38:0.229973 39:0.34310901 40:0.43842399 41:0.0057279998 42:0.115385 43:0 44:0.75 45:0.350649 46:0 #docid = GX261-63-9958597 inc = 1 prob = 0.244256
0.10000000000000001 1:0.25 2:0 3:1 4:0 5:0.26470599 6:0 7:0 8:0 9:0 10:0 11:0.308658 12:0 13:1 14:0 15:0.32811499 16:0.86963302 17:0 18:0.60000002 19:0.625 20:0.872841 21:0.84742498 22:0.896604 23:0.96369803 24:0.90890902 25:0 26:0 27:0 28:0 29:0.70330602 30:0 31:0 32:0 33:0 34:0 35:0 36:0 37:0.85705501 38:0.901559 39:0.96537 40:0.914388 41:0 42:0 43:0.021978 44:0.71428603 45:1 46:0 #docid = GX027-69-3441710 inc = 0.890102967721928 prob = 0.213339
0.10000000000000001 1:0.33823499 2:0 3:1 4:0 5:0.35294101 6:0 7:0 8:0 9:0 10:0 11:0.42035699 12:0 13:1 14:0 15:0.44012901 16:0.854801 17:0.076922998 18:0.40000001 19:0.25 20:0.85478801 21:0.88693798 22:0.92442298 23:0.99822497 24:0.93595999 25:0 26:0 27:0 28:0 29:0.87671697 30:0.58496201 31:0.66655499 32:0.58496201 33:0 34:0 35:0 36:0 37:0.893507 38:0.928617 39:0.99811101 40:0.94058502 41:0.053194001 42:0.024931001 43:0.41758201 44:0.42857099 45:0.62222201 46:0 #docid = GX050-25-13474943 inc = 0.890102967721928 prob = 0.217137
0.10000000000000001 1:0.32352901 2:0 3:1 4:0 5:0.33823499 6:0 7:0 8:0 9:0 10:0 11:0.401741 12:0 13:1 14:0 15:0.42146 16:0.77439499 17:0 18:0.5 19:0.375 20:0.77472502 21:0.901447 22:0.934497 23:1 24:0.94625098 25:0 26:0 27:0 28:0 29:0.78049499 30:0.263035 31:0.33311099 32:0.263035 33:0 34:0 35:0 36:0 37:0.90757197 38:0.93861198 39:1 40:0.95071501 41:0 42:0 43:0.021978 44:0.57142901 45:0.75555599 46:0 #docid = GX062-72-11602202 inc = 0.890102967721928 prob = 0.267116
-0.30000000000000004 1:0.13235299 2:1 3:0 4:1 5:0.16176499 6:0 7:0 8:0 9:0 10:0 11:0.167548 12:1 13:0 14:1 15:0.205359 16:0.40437201 17:0.23076899 18:0 19:0.375 20:0.401099 21:0.63499498 22:0.36600301 23:0.318795 24:0.25393301 25:0.64211798 26:0 27:0 28:0 29:0 30:0 31:0 32:0 33:1 34:0 35:0 36:0 37:0.65613103 38:0.37830201 39:0.338231 40:0.26958999 41:0.00021899999 42:0.0027699999 43:0 44:0.285714 45:0.35555601 46:0 #docid = GX264-65-1415449 inc = 0.858215237277567 prob = 0.210926
0.10000000000000001 1:0.027233001 2:0.25 3:1 4:0 5:0.028233999 6:0 7:0 8:0 9:0 10:0 11:0.027048999 12:0.185478 13:0.78579098 14:0 15:0.027725 16:0.025059 17:0.166667 18:0.83333302 19:0.166667 20:0.025184 21:0.607292 22:0.49405801 23:0.37874201 24:0.45903799 25:0.37095699 26:0.131144 27:0.029545 28:0 29:0.67437899 30:0.92145401 31:0.13054 32:1 33:0 34:0 35:0 36:0 37:0.602745 38:0.49247301 39:0.35180101 40:0.49223301 41:0.001854 42:0.0053190002 43:0.098901004 44:0.40000001 45:0.22973 46:0 #docid = GX000-66-4194368 inc = 1 prob = 0.187964
0.10000000000000001 1:0.00039999999 2:0 3:0.5 4:0 5:0.00080099999 6:0 7:0 8:0 9:0 10:0 11:0.001003 12:0 13:0.61296499 14:0 15:0.0020270001 16:0 17:0 18:0.58333302 19:0.33333299 20:0 21:0.46291399 22:0.31520301 23:0 24:0 25:0 26:0 27:0 28:0 29:0.66808897 30:0.88423997 31:0.78436399 32:0.61005598 33:0 34:0 35:0 36:0 37:0.54827899 38:0.183376 39:0 40:0 41:0 42:0 43:0 44:0.80000001 45:0.27026999 46:0 #docid = GX001-52-3070857 inc = 1 prob = 0.0889549
-0.088889848247718006 1:0.034040999 2:1 3:0.5 4:0 5:0.035241999 6:0 7:0 8:0 9:0 10:0 11:0.057817001 12:1 13:0.61296499 14:0 15:0.061259001 16:0.088000998 17:0.91666698 18:1 19:0.66666698 20:0.088768996 21:0.82827598 22:0.40741599 23:0.37789199 24:0.44377801 25:0.500754 26:0.54355901 27:1 28:0.80858898 29:0.46075499 30:0.681409 31:0.778575 32:0.54136199 33:0 34:0 35:0 36:0 37:0.83156103 38:0.40669301 39:0.350088 40:0.477319 41:0.040364999 42:0.031915002 43:0.010989 44:0.60000002 45:0.62162203 46:0 #docid = GX002-23-11010400 inc = 0.592493204927946 prob = 0.155775
0.59999999999999998 1:0.0044049998 2:0 3:0.75 4:1 5:0.0056070001 6:0 7:0 8:0 9:0 10:0 11:0.0078539997 12:0 13:1 14:1 15:0.011397 16:0.012799 17:0 18:0.5 19:0.25 20:0.012751 21:0.727548 22:0.31961799 23:0.183982 24:0.39608699 25:0 26:0 27:0 28:0 29:1 30:1 31:1 32:0.673913 33:1 34:0.93873799 35:0.90425998 36:0.94539398 37:0.76740199 38:0.36098099 39:0.182172 40:0.46501899 41:0 42:0 43:0.52747297 44:1 45:0.378378 46:0 #docid = GX005-09-12740168 inc = 1 prob = 0.0867215
-0.10000000000000001 1:0.053064 2:0.5 3:0.5 4:0.66666698 5:0.054265 6:0 7:0 8:0 9:0 10:0 11:0.064764 12:0.487524 13:0.60916901 14:0.64448202 15:0.067984998 16:0.247583 17:0.25 18:0.5 19:0.166667 20:0.24768101 21:0.56259 22:0.115536 23:0.18769599 24:0.25440499 25:0.74798697 26:0.86312997 27:0.64533198 28:0.88700998 29:0.72961402 30:0.91786402 31:0.76862198 32:0.62611997 33:0.880117 34:1 35:1 36:1 37:0.57167101 38:0.117519 39:0.152839 40:0.300872 41:0.023353999 42:0.047871999 43:0.0082419999 44:0.40000001 45:0.25675699 46:0 #docid = GX006-47-13400213 inc = 1 prob = 0.274479
-0.10000000000000001 1:0.121346 2:0 3:0 4:0 5:0.121346 6:0 7:0 8:0 9:0 10:0 11:0.093970001 12:0 13:0 14:0 15:0.093180999 16:0.16410901 17:0 18:0 19:0.41666701 20:0.16397899 21:0.60189402 22:0.472141 23:0.48754501 24:0.54498202 25:0 26:0 27:0 28:0 29:0 30:0 31:0 32:0 33:0 34:0 35:0 36:0 37:0.59806502 38:0.469762 39:0.461382 40:0.569906 41:0 42:0 43:0 44:1 45:0.5 46:0 #docid = GX008-49-4879178 inc = 1 prob = 0.200865
-0.20000000000000001 1:0.033440001 2:0.25 3:0 4:0 5:0.033640001 6:0 7:0 8:0 9:0 10:0 11:0.081301004 12:0.314522 13:0 14:0 15:0.082966 16:0.158554 17:0.083333001 18:0.41666701 19:0.33333299 20:0.15857001 21:0.63382798 22:0.055899002 23:0.17722499 24:0.25724199 25:0.90323001 26:0.61540502 27:0.68446898 28:0.39832699 29:0 30:0 31:0 32:0 33:0 34:0 35:0 36:0 37:0.63664901 38:0.052106 39:0.136317 40:0.2994 41:0.065695003 42:0.260638 43:0.12912101 44:0.60000002 45:0.48648599 46:0 #docid = GX012-27-2559761 inc = 0.592493204927946 prob = 0.230662
-0.10000000000000001 1:0.025630999 2:0.25 3:0 4:0 5:0.025831001 6:0 7:0 8:0 9:0 10:0 11:0.058485001 12:0.233832 13:0 14:0 15:0.059597999 16:0.049555998 17:0.166667 18:0.166667 19:0.25 20:0.049511999 21:0.91193998 22:0.494697 23:0.47401699 24:0.556229 25:0.46766299 26:0.28156099 27:0.171123 28:0.124416 29:0 30:0 31:0 32:0 33:0 34:0 35:0 36:0 37:0.94820499 38:0.559928 39:0.47224799 40:0.61386901 41:8.5e-005 42:0.0053190002 43:0 44:0.60000002 45:0.48648599 46:0 #docid = GX012-73-14189530 inc = 0.592493204927946 prob = 0.376017
0.79999999999999993 1:0.0048059998 2:0 3:0.75 4:1 5:0.0060069999 6:0 7:0 8:0 9:0 10:0 11:0.0076430002 12:0 13:1 14:1 15:0.011173 16:0.010107 17:0.041666999 18:0.66666698 19:0.41666701 20:0.010181 21:0.65040499 22:0.40674901 23:0.17829099 24:0.29995599 25:0 26:0 27:0 28:0 29:0.857095 30:0.95611697 31:0.99768198 32:0.63723999 33:0.93331701 34:0.90570498 35:0.90257198 36:0.90884602 37:0.67993301 38:0.434515 39:0.172639 40:0.366676 41:0.011786 42:1 43:0.010989 44:1 45:0.52702701 46:0 #docid = GX012-81-6228480 inc = 1 prob = 0.158274
-0.10000000000000001 1:0.006207 2:0.25 3:0.25 4:0.33333299 5:0.0068080002 6:0 7:0 8:0 9:0 10:0 11:0.014492 12:0.185478 13:0.225931 14:0.218117 15:0.015508 16:0.0080019999 17:0.083333001 18:0.33333299 19:0.33333299 20:0.007979 21:0.61773199 22:0.240648 23:0.20565 24:0.136364 25:0.53264898 26:0.21021201 27:0.031789999 28:0.065586999 29:0.33732301 30:0 31:0 32:0 33:0.27194601 34:0 35:0 36:0 37:0.616786 38:0.2368 39:0.17286301 40:0.187535 41:1 42:0.56383002 43:0.23351599 44:0.40000001 45:0.297297 46:0 #docid = GX026-82-0366779 inc = 1 prob = 0.108975
-0.20000000000000001 1:0.038846999 2:0.25 3:0 4:0 5:0.039046999 6:0 7:0 8:0 9:0 10:0 11:0.073058002 12:0.314522 13:0 14:0 15:0.074455 16:0.114872 17:0.083333001 18:0 19:0.166667 20:0.114712 21:0.73887998 22:0.38218099 23:0.40397799 24:0.52219498 25:0.90323001 26:0.61540502 27:0.68446898 28:0.39832699 29:0 30:0 31:0 32:0 33:0 34:0 35:0 36:0 37:0.74090803 38:0.380375 39:0.37489101 40:0.54969102 41:0.00033899999 42:0.0053190002 43:0 44:0.40000001 45:0.22973 46:0 #docid = GX238-15-3632500 inc = 0.592493204927946 prob = 0.34384
-0.20000000000000001 1:0.15859 2:0.25 3:0 4:0 5:0.15879101 6:0 7:0 8:0 9:0 10:0 11:0.152106 12:0.302046 13:0 14:0 15:0.152843 16:0.37305099 17:0.208333 18:0 19:0.166667 20:0.37299001 21:0.84718603 22:0.569543 23:0.583413 24:0.63916802 25:0.52448499 26:0.465334 27:0.573412 28:0.27531999 29:0 30:0 31:0 32:0 33:0 34:0 35:0 36:0 37:0.85289901 38:0.568672 39:0.56364298 40:0.66009802 41:0.035983 42:0.0053190002 43:0 44:0.40000001 45:0.25675699 46:0 #docid = GX238-90-15680540 inc = 1 prob = 0.429515
-0.30000000000000004 1:0.156588 2:0.25 3:0 4:0 5:0.15678801 6:0 7:0 8:0 9:0 10:0 11:0.150766 12:0.302046 13:0 14:0 15:0.15151601 16:0.37158301 17:1 18:0 19:0.166667 20:0.37198699 21:0.84610999 22:0.56675601 23:0.58065301 24:0.63668698 25:0.14969 26:0.0031280001 27:0.552212 28:0.126818 29:0 30:0 31:0 32:0 33:0 34:0 35:0 36:0 37:0.85148603 38:0.56532198 39:0.56025499 40:0.65732503 41:0.023536 42:0.031915002 43:0 44:0.40000001 45:0.216216 46:0 #docid = GX262-77-13785702 inc = 1 prob = 0.492698
0.388889848247718 1:1 2:0 3:0 4:0 5:1 6:0 7:0 8:0 9:0 10:0 11:1 12:0 13:0 14:0 15:1 16:1 17:0.041666999 18:0 19:0.5 20:1 21:1 22:1 23:1 24:1 25:0 26:0 27:0 28:0 29:0 30:0 31:0 32:0 33:0 34:0 35:0 36:0 37:1 38:1 39:1 40:1 41:0.00053999998 42:0.010638 43:0 44:0.80000001 45:0.39189199 46:0 #docid = GX265-48-10802283 inc = 1 prob = 0.383336
-0.20000000000000001 1:0.37605101 2:0 3:0 4:0 5:0.37605101 6:0 7:0 8:0 9:0 10:0 11:0.30445299 12:0 13:0 14:0 15:0.302771 16:0.779899 17:0.041666999 18:0 19:0.5 20:0.77987701 21:0.78848797 22:0.65177298 23:0.66540802 24:0.69813901 25:0 26:0 27:0 28:0 29:0 30:0 31:0 32:0 33:0 34:0 35:0 36:0 37:0.790447 38:0.65092897 39:0.64948201 40:0.71552098 41:0.00061599998 42:0.015957 43:0 44:0.80000001 45:0.39189199 46:0 #docid = GX266-23-8868145 inc = 1 prob = 0.188829
-0.30000000000000004 1:0.0032039999 2:0.5 3:0 4:0 5:0.003604 6:0 7:0 8:0 9:0 10:0 11:0.0046049999 12:0.5 13:0 14:0 15:0.0056389999 16:0.00832 17:0.166667 18:0 19:0.25 20:0.008223 21:0.59465301 22:0.19490699 23:0.13039801 24:0.249043 25:1 26:1 27:0.75526601 28:1 29:0 30:0 31:0 32:0 33:0 34:0 35:0 36:0 37:0.71988201 38:0.297979 39:0.13053 40:0.472137 41:0.014751 42:0.0053190002 43:0 44:0.40000001 45:0.216216 46:0 #docid = GX266-62-4259911 inc = 1 prob = 0.0446868
-0.10000000000000001 1:0.0082099997 2:0 3:0 4:0 5:0.0082099997 6:0 7:0 8:0 9:0 10:0 11:0.004123 12:0 13:0 14:0 15:0.00403 16:0.012628 17:0.25 18:0 19:1 20:0.0128 21:0.45996401 22:0.21648499 23:0.11344 24:0.270293 25:0 26:0 27:0 28:0 29:0 30:0 31:0 32:0 33:0 34:0 35:0 36:0 37:0.45097199 38:0.21155401 39:0.063152999 40:0.29916 41:0.00098899996 42:0.0053190002 43:0 44:1 45:1 46:0 #docid = GX268-25-10358314 inc = 1 prob = 0.104563
-0.099858644533127094 1:0.34081301 2:0 3:1 4:0 5:0.34036601 6:0 7:0 8:0 9:0 10:0 11:0.31827101 12:0 13:1 14:0 15:0.317812 16:0.29462299 17:0 18:1 19:0.60000002 20:0.29538399 21:0.84347898 22:0.682634 23:0.92493403 24:0.66580498 25:0 26:0 27:0 28:0 29:0.172979 30:0.412018 31:0.97944802 32:0.56596798 33:0 34:0 35:0 36:0 37:0.84399801 38:0.61910301 39:0.89903599 40:0.58305299 41:0.012431 42:0.066666998 43:0.444444 44:1 45:0.47619 46:0 #docid = GX090-55-2578333 inc = 1 prob = 0.295237
0.10000000000000001 1:1 2:0 3:0 4:0 5:1 6:0 7:0 8:0 9:0 10:0 11:1 12:0 13:0 14:0 15:1 16:0.90351897 17:0.052632 18:0 19:0.2 20:0.90330303 21:0.78533697 22:0.60653901 23:0.89308399 24:0.59067303 25:0 26:0 27:0 28:0 29:0 30:0 31:0 32:0 33:0 34:0 35:0 36:0 37:0.785905 38:0.54989898 39:0.859662 40:0.51707602 41:0.0054879999 42:0.066666998 43:0 44:0.25 45:0.126984 46:0 #docid = GX229-48-6099941 inc = 1 prob = 0.394302
0.10000000000000001 1:0.072229996 2:0 3:0 4:0 5:0.069619998 6:0 7:0 8:0 9:0 10:0 11:0.064007998 12:0 13:0 14:0 15:0.061657999 16:0.309003 17:0.052632 18:0 19:0.60000002 20:0.308945 21:0 22:0 23:0.32037899 24:0 25:0 26:0 27:0 28:0 29:0 30:0 31:0 32:0 33:0 34:0 35:0 36:0 37:0 38:0 39:0.160963 40:0 41:0.096660003 42:0.066666998 43:0 44:1 45:0.444444 46:0 #docid = GX230-87-1943884 inc = 1 prob = 0.210555
-0.30000000000000004 1:0.0035059999 2:0.5 3:1 4:0 5:0.003516 6:0 7:0 8:0 9:0 10:0 11:0.0032790001 12:0.5 13:1 14:0 15:0.0032879999 16:0.002135 17:0.63157898 18:0.27026999 19:0.5 20:0.002567 21:0.775922 22:0.87116498 23:0.209527 24:0.90871501 25:0.383073 26:0.61359298 27:0.54480702 28:0.75441402 29:0.50394797 30:0.71802402 31:0.99574 32:0.79198599 33:0 34:0 35:0 36:0 37:0.84578902 38:0.856749 39:0.16327 40:0.84430301 41:0.96871698 42:0.133333 43:0.037037 44:0.75 45:0.555556 46:0 #docid = GX237-07-15835654 inc = 1 prob = 0.0303412
-0.10000000000000001 1:0.524544 2:0 3:0 4:0 5:0.52320701 6:0 7:0 8:0 9:0 10:0 11:0.44466901 12:0 13:0 14:0 15:0.44326401 16:0.88981998 17:0.157895 18:0 19:0.60000002 20:0.88974202 21:0.519072 22:0.38347399 23:0.69316 24:0.37174901 25:0 26:0 27:0 28:0 29:0 30:0 31:0 32:0 33:0 34:0 35:0 36:0 37:0.52140099 38:0.34771901 39:0.61580902 40:0.32548699 41:0.035912 42:0.066666998 43:0 44:0.5 45:0.50793701 46:0 #docid = GX243-68-3962386 inc = 1 prob = 0.18651
0.10000000000000001 1:0.119215 2:1 3:1 4:0 5:0.120956 6:0 7:0 8:0 9:0 10:0 11:0.121114 12:1 13:1 14:0 15:0.122673 16:0.105795 17:0.78947401 18:0.189189 19:0.60000002 20:0.106238 21:0.76573998 22:0.59933299 23:0.771918 24:0.587524 25:0.57868999 26:0.887326 27:0.99778301 28:0.83767402 29:0.64001 30:0.80152202 31:0.99756402 32:0.85360801 33:0 34:0 35:0 36:0 37:0.782134 38:0.55991298 39:0.73240298 40:0.52976602 41:0.037338998 42:0.133333 43:0.555556 44:0.75 45:0.39682499 46:0 #docid = GX248-93-12235366 inc = 1 prob = 0.550226
0.099858644533127094 1:0.087658003 2:0.5 3:0 4:0.5 5:0.087200999 6:0 7:0 8:0 9:0 10:0 11:0.085589997 12:0.5 13:0 14:0.5 15:0.085327998 16:0.096616998 17:0.210526 18:0 19:0.2 20:0.096561 21:0.737257 22:0.55659199 23:0.72308099 24:0.54585499 25:0.84821898 26:0.85553998 27:0.547768 28:0.94903499 29:0 30:0 31:0 32:0 33:0.87684101 34:0.395484 35:0.0057939999 36:0.75740403 37:0.745772 38:0.51285601 39:0.66249299 40:0.48556101 41:0.030097 42:0.066666998 43:0 44:0.25 45:0.126984 46:0 #docid = GX254-19-12683085 inc = 1 prob = 0.71156
0.10000000000000001 1:0.463534 2:0.25 3:0 4:1 5:0.46413499 6:0 7:0 8:0 9:0 10:0 11:0.47211599 12:0.26795 13:0 14:1 15:0.47312599 16:0.32213399 17:0.157895 18:0 19:1 20:0.322211 21:0.84110802 22:0.69434398 23:0.93999398 24:0.67738098 25:0.53590101 26:0.16240899 27:0.003333 28:0.122798 29:0 30:0 31:0 32:0 33:1 34:1 35:1 36:0.87513202 37:0.84129798 38:0.630126 39:0.91773897 40:0.593575 41:0.035767 42:0.066666998 43:0 44:0.75 45:1 46:0 #docid = GX272-51-0084430 inc = 1 prob = 0.635862
-0.10000000000000001 1:0 2:0 3:0 4:0 5:0 6:0 7:0 8:0 9:0 10:0 11:0 12:0 13:0 14:0 15:0 16:0 17:0 18:0.285714 19:0 20:0 21:0 22:0 23:0 24:0 25:0 26:0 27:0 28:0 29:0 30:0 31:0 32:0 33:0 34:0 35:0 36:0 37:0 38:0 39:0 40:0 41:0 42:0 43:0.052632 44:0 45:0 46:0 #docid = GX000-00-0000000 inc = 1 prob = 0.0328951
0.5 1:0.65384603 2:1 3:1 4:0 5:0.79245299 6:0 7:0 8:0 9:0 10:0 11:0.81889302 12:1 13:1 14:0 15:0.90455198 16:0.029571 17:0.45161301 18:0.64285702 19:0.222222 20:0.031491 21:1 22:1 23:0.98297501 24:1 25:0.75886798 26:0.94051301 27:0.99927402 28:0.95753503 29:1 30:1 31:1 32:1 33:0 34:0 35:0 36:0 37:1 38:1 39:0.99371499 40:1 41:0.26274601 42:0.0091739995 43:0 44:0.57142901 45:0.26315799 46:0 #docid = GX005-29-14357655 inc = 1 prob = 0.816926
-0.10000000000000001 1:0.211538 2:0.5 3:0.25 4:0 5:0.26415101 6:0 7:0 8:0 9:0 10:0 11:0.341517 12:0.67126602 13:0.32539499 14:0 15:0.39951399 16:0.021183001 17:1 18:0.64285702 19:0.222222 20:0.024549 21:0.40144399 22:0.243433 23:0.296509 24:0.131529 25:0.239287 26:0.144848 27:0.48968399 28:0.115708 29:0.32539499 30:0.147726 31:0.32284501 32:0.110145 33:0 34:0 35:0 36:0 37:0.39494699 38:0.227869 39:0.292932 40:0.131378 41:0.032065999 42:0.012232 43:0 44:0.57142901 45:0.26315799 46:0 #docid = GX006-29-14932066 inc = 1 prob = 0.139456
-0.10000000000000001 1:0.076922998 2:0 3:0 4:0 5:0.075471997 6:0 7:0 8:0 9:0 10:0 11:0.082611002 12:0 13:0 14:0 15:0.075932004 16:0.027791999 17:0 18:0.214286 19:0.277778 20:0.028105 21:0.474489 22:0.54566199 23:0.58201098 24:0.71750301 25:0 26:0 27:0 28:0 29:0 30:0 31:0 32:0 33:0 34:0 35:0 36:0 37:0.45946601 38:0.524845 39:0.55978501 40:0.69513899 41:0 42:0 43:1 44:0.142857 45:0.30701801 46:0 #docid = GX024-67-9939900 inc = 1 prob = 0.472619
-0.10000000000000001 1:0.384615 2:0 3:0.75 4:0.25 5:0.45282999 6:0 7:0 8:0 9:0 10:0 11:0.26387799 12:0 13:0.60663402 14:0.213324 15:0.29141399 16:0.017031001 17:0 18:0.71428603 19:0.38888901 20:0.018115999 21:0.34060401 22:0.27656001 23:0.180494 24:0.205934 25:0 26:0 27:0 28:0 29:0.50404298 30:0.258634 31:0.1926 32:0.26196599 33:0.30362999 34:0.028646 35:0.063514002 36:0.035216 37:0.334158 38:0.27277201 39:0.18976299 40:0.20765901 41:0 42:0 43:0.035087999 44:1 45:0.42982501 46:0 #docid = GX050-94-7523645 inc = 1 prob = 0.0633271
-0.10000000000000001 1:0.32692301 2:0.5 3:0.5 4:0 5:0.39622599 6:0 7:0 8:0 9:0 10:0 11:0.224132 12:0.36327299 13:0.40943101 14:0 15:0.254444 16:0.010761 17:0.096773997 18:0.214286 19:0.277778 20:0.011343 21:0.34136799 22:0.29546401 23:0.171241 24:0.21839 25:0.81830299 26:0.26447999 27:0.078552 28:0.28435501 29:0.75487399 30:0.30169299 31:0.14827 32:0.309751 33:0 34:0 35:0 36:0 37:0.33628401 38:0.29613101 39:0.18506099 40:0.222415 41:0.45717701 42:0.006116 43:0.052632 44:0.42857099 45:0.184211 46:0 #docid = GX088-97-5764886 inc = 1 prob = 0.099694
-0.20000000000000001 1:0.115385 2:0 3:0 4:0 5:0.113208 6:0 7:0 8:0 9:0 10:0 11:0.113838 12:0 13:0 14:0 15:0.104629 16:0.77359802 17:0.032258 18:0 19:0.222222 20:0.77296197 21:0.05996 22:0.031652 23:0.0083640004 24:0.063698001 25:0 26:0 27:0 28:0 29:0 30:0 31:0 32:0 33:0 34:0 35:0 36:0 37:0.059774 38:0.030879 39:0.0088769998 40:0.062454998 41:0.039590999 42:0.003058 43:0 44:0.42857099 45:0.201754 46:0 #docid = GX253-08-9163063 inc = 1 prob = 0.158205
