SVM-light Version V6.20
0 # kernel type
3 # kernel parameter -d 
1 # kernel parameter -g 
1 # kernel parameter -s 
1 # kernel parameter -r 
empty# kernel parameter -u 
47 # highest feature index 
20 # number of training documents 
2 # number of support vectors plus 1 
0 # threshold b, each following line is a SV (starting with alpha*y)
1 1:0.02925596 2:-0.08416871 3:0.079680383 4:-0.11572827 5:0.030348072 11:-0.0066587422 12:-0.070119932 13:0.013964171 14:-0.039556991 15:-0.012231635 16:0.08475364 17:-0.11073815 18:-0.0094718337 19:-0.18395814 20:0.085056536 21:0.31683949 22:0.042764544 23:1.3619807 24:0.13773662 25:0.3446112 26:0.15903646 27:0.16667499 28:0.18456976 29:0.27875179 30:0.040901367 31:-0.0089995973 32:0.094448552 33:0.060653262 34:-0.0037209284 35:0.067304842 36:-0.093118273 37:0.27339 38:0.076864615 39:1.2005303 40:0.13323851 41:-0.089878127 42:-0.16531695 44:0.041363861 45:-0.27307069 46:-0.25476098 #
