SVM-light Version V6.20
0 # kernel type
3 # kernel parameter -d 
1 # kernel parameter -g 
1 # kernel parameter -s 
1 # kernel parameter -r 
empty# kernel parameter -u 
47 # highest feature index 
4 # number of training documents 
2 # number of support vectors plus 1 
0 # threshold b, each following line is a SV (starting with alpha*y)
1 1:0.023858171 2:0.032830078 3:0.066052958 4:0.0051330491 5:0.024409821 11:0.031992678 12:0.035807654 13:0.0710802 14:0.0061538182 15:0.032795489 16:0.0037041244 17:0.0025095681 18:-0.00011020415 19:-0.023061959 20:0.0036950996 21:0.14653334 22:0.13400713 23:0.16876446 24:0.13073358 25:0.079977795 26:0.083552256 27:0.070454277 28:0.079929881 29:0.073576912 30:0.079659157 31:0.084039062 32:0.078145243 33:0.011372077 34:0.0098876329 35:0.0083524054 36:0.0085151419 37:0.14326787 38:0.13584358 39:0.16737051 40:0.13080832 41:-0.017580109 42:-0.019128496 44:-0.0057257339 45:-0.012828977 46:-0.009473308 #
