SVM-light Version V6.02
0 # kernel type
3 # kernel parameter -d 
1 # kernel parameter -g 
1 # kernel parameter -s 
1 # kernel parameter -r 
empty# kernel parameter -u 
45 # highest feature index 
10187 # number of training documents 
5571 # number of support vectors plus 1 
0 # threshold b, each following line is a SV (starting with alpha*y)
-0.029999999999999999 1:0.83333302 2:0.89526099 3:0.45454499 4:0.47724101 5:0 6:0 7:0 8:0.54168701 9:0.82052797 10:0.78560799 11:0.73308802 12:0.907085 13:0.960944 14:0.84194303 15:0.84762299 16:0.40000001 17:0.73379999 18:0.45940599 19:0.46853399 20:0 21:0 22:0 23:0.52459502 24:0.426709 25:0.71653801 26:0.95185101 27:0.98555601 28:0.96591699 29:0.98158401 30:0.95458698 31:0.5 32:0.84755099 33:0.138836 34:0.15018401 35:0 36:0 37:0 38:0.18802901 39:0.52490902 40:0.37835601 41:1 42:1 43:1 44:0.79627103 45:0.903557 #docid = 156516
0.53000000000000025 1:0.83333302 2:0.89526099 3:1 4:1 5:0 6:0 7:0 8:1 9:0.82052797 10:1 11:1 12:1 13:1 14:1 15:1 16:0 17:0 18:0 19:0 20:0 21:0 22:0 23:0 24:0 25:0 26:0 27:0 28:0 29:0 30:0 31:0.125 32:0.327878 33:1 34:1 35:0 36:0 37:0 38:1 39:0.131263 40:1 41:0.94606102 42:0.97713101 43:0.85857099 44:1 45:1 #docid = 180253
-0.050000000000000003 1:0.83333302 2:0.820948 3:0.33333299 4:0.34968901 5:0 6:0 7:0 8:0.38884401 9:0.79833001 10:0.57615602 11:0.54180199 12:0.81660098 13:0.74689001 14:0.61063898 15:0.63479602 16:0.5 17:0.75506502 18:0.96666598 19:0.96682298 20:0 21:0 22:0 23:0.98711997 24:0.51069599 25:1 26:1 27:1 28:0.92544198 29:0.99044698 30:0.95719999 31:0.59375 32:0.80390298 33:0.25547099 34:0.27090201 35:0 36:0 37:0 38:0.307284 39:0.59636402 40:0.464809 41:0.92070597 42:0.96598297 43:0.91133702 44:0.75019997 45:0.82924402 #docid = 248630
-0.02 1:0.83333302 2:0.89526099 3:0.555556 4:0.57788301 5:0 6:0 7:0 8:0.63841897 9:0.82052797 10:0.83923 11:0.804681 12:0.93496901 13:0.97351903 14:0.88207 15:0.88630801 16:0.43333301 17:0.72151202 18:0.57121003 19:0.57944602 20:0 21:0 22:0 23:0.62911999 24:0.45643899 25:0.72727901 26:0.90336603 27:0.97025299 28:0.84811401 29:0.86919999 30:0.86293501 31:0.53125 32:0.80390298 33:0.173133 34:0.186113 35:0 36:0 37:0 38:0.224501 39:0.54935801 40:0.38167199 41:0.90011603 42:0.95673198 43:0.86573899 44:0.69377899 45:0.78666598 #docid = 102259
-0.070000000000000007 1:0.66666698 2:0.71620899 3:0.66666698 4:0.67639101 5:0 6:0 7:0 8:0.68732202 9:0.641056 10:0.73370099 11:0.72582197 12:0.90410399 13:0.76109499 14:0.72934002 15:0.739066 16:0.80000001 17:1 18:0.66285801 19:0.67182702 20:0 21:0 22:0 23:0.70613003 24:0.81289101 25:0.79127699 26:0.96510398 27:0.98960298 28:0.88944399 29:0.90376598 30:0.90656799 31:0.84375 32:1 33:0.179441 34:0.192761 35:0 36:0 37:0 38:0.22554301 39:0.84118003 40:0.37640199 41:0.89555401 42:0.95465797 43:0.874331 44:0.69147003 45:0.78830898 #docid = 264166
-0.01 1:0.66666698 2:0.64189601 3:0.210526 4:0.222321 5:0 6:0 7:0 8:0.23990799 9:0.59683001 10:0.38745999 11:0.37425199 12:0.70588601 13:0.50921798 14:0.397387 15:0.42809099 16:0.33333299 17:0.66048402 18:0.411347 19:0.42022699 20:0 21:0 22:0 23:0.467002 24:0.35071301 25:0.644032 26:0.89656699 27:0.96804202 28:0.941526 29:0.95705497 30:0.91877401 31:0.40625 32:0.730093 33:0.110518 34:0.119754 35:0 36:0 37:0 38:0.149121 39:0.420075 40:0.30376399 41:0.884206 42:0.94945699 43:0.94211799 44:0.73798102 45:0.82300901 #docid = 215804
0.01 1:0.66666698 2:0.71620899 3:0.80000001 4:0.80000001 5:0 6:0 7:0 8:0.78612602 9:0.641056 10:0.77376598 11:0.769867 12:0.92173398 13:0.767892 14:0.75862199 15:0.76729602 16:0.30000001 17:0.59337801 18:0.621427 19:0.63098502 20:0 21:0 22:0 23:0.66799301 24:0.305502 25:0.77442098 26:0.89917201 27:0.96889102 28:0.84762698 29:0.89751399 30:0.87101001 31:0.375 32:0.65575498 33:0.20110101 34:0.21560401 35:0 36:0 37:0 38:0.25107801 39:0.37741899 40:0.41002399 41:0.876755 42:0.94601101 43:0.862481 44:0.71226001 45:0.78925598 #docid = 197041
-0.01 1:0.33333299 2:0.35810399 3:0.5 4:0.48956001 5:0 6:0 7:0 8:0.421078 9:0.28183201 10:0.343261 11:0.38370299 12:0.71334898 13:0.308236 14:0.292198 15:0.31763399 16:0.56666702 17:0.88319898 18:0.47980601 19:0.48878899 20:0 21:0 22:0 23:0.52837998 24:0.58352602 25:0.67244601 26:0.94711 27:0.98409402 28:0.98443902 29:0.980869 30:0.97632003 31:0.5625 32:0.84999001 33:0.121542 34:0.131254 35:0 36:0 37:0 38:0.158259 39:0.567249 40:0.29686999 41:0.87409401 42:0.94477397 43:0.95696902 44:0.73968798 45:0.83865601 #docid = 277438
-0.080000000000000002 1:0.166667 2:0.179052 3:0.1 4:0.104552 5:0 6:0 7:0 8:0.093259998 9:0.124558 10:0.097948 11:0.121934 12:0.370287 13:0.079107001 14:0.033859 15:0.068579003 16:0.69999999 17:0.96880299 18:0.51719701 19:0.52507502 20:0 21:0 22:0 23:0.55142301 24:0.70160902 25:0.68580002 26:0.966739 27:0.99009901 28:1 29:0.99131501 30:1 31:0.65625 32:0.91159898 33:0.118481 34:0.127661 35:0 36:0 37:0 38:0.149058 39:0.63842601 40:0.28252301 41:0.86588401 42:0.94093603 43:0.95788902 44:0.73198801 45:0.844172 #docid = 93542
-0.029999999999999999 1:0.33333299 2:0.35810399 3:0.222222 4:0.231153 5:0 6:0 7:0 8:0.225658 9:0.28183201 10:0.25749999 11:0.290023 12:0.62958503 13:0.27483401 14:0.227413 15:0.25517699 16:0.466667 17:0.82217097 18:0.38944599 19:0.398395 20:0 21:0 22:0 23:0.44495901 24:0.49144599 25:0.670982 26:0.90563899 27:0.97098899 28:0.96099901 29:0.951509 30:0.95003098 31:0.46875 32:0.81969398 33:0.094490997 34:0.102708 35:0 36:0 37:0 38:0.13049699 39:0.48825899 40:0.29895601 41:0.86339498 42:0.939767 43:0.94363898 44:0.72446001 45:0.82814699 #docid = 10773
0.050000000000000003 1:0.33333299 2:0.35810399 3:0.40000001 4:0.40000001 5:0 6:0 7:0 8:0.35814101 9:0.28183201 10:0.31911901 11:0.36041901 12:0.69461602 13:0.30131501 14:0.27431399 15:0.30039299 16:0.33333299 17:0.64674699 18:0.50877202 19:0.51782203 20:0 21:0 22:0 23:0.56146097 24:0.34522501 25:0.71482599 26:0.93816602 27:0.98131698 28:0.95965701 29:1 30:0.94274199 31:0.34375 32:0.626562 33:0.135142 34:0.14555 35:0 36:0 37:0 38:0.17448001 39:0.34964401 40:0.31868699 41:0.86336303 42:0.93975198 43:0.935785 44:0.75501001 45:0.810278 #docid = 139246
0.14999999999999999 1:0.166667 2:0.179052 3:0.2 4:0.2 5:0 6:0 7:0 8:0.194582 9:0.15727399 10:0.186692 11:0.20149 12:0.52059001 13:0.170008 14:0.101603 15:0.133889 16:0.40000001 17:0.665245 18:0.90980202 19:0.91143101 20:0 21:0 22:0 23:0.93522 24:0.40940201 25:0.89824301 26:0.96538901 27:0.98969001 28:0.88202101 29:0.948677 30:0.91180903 31:0.375 32:0.61410302 33:0.22042 34:0.234239 35:0 36:0 37:0 38:0.268929 39:0.38135999 40:0.39063901 41:0.85479897 42:0.93570602 43:0.84745097 44:0.70234501 45:0.769566 #docid = 72488
-0.02 1:0.66666698 2:0.64189601 3:0.26666701 4:0.27889201 5:0 6:0 7:0 8:0.318795 9:0.67394203 10:0.467455 11:0.465729 12:0.77132499 13:0.57769603 14:0.45445299 15:0.46334201 16:0.56666702 17:0.832623 18:0.57159299 19:0.57997203 20:0 21:0 22:0 23:0.62341398 24:0.58831197 25:0.78471798 26:0.92098099 27:0.97590601 28:0.878869 29:0.89639997 30:0.896276 31:0.625 32:0.83991897 33:0.148737 34:0.159842 35:0 36:0 37:0 38:0.194493 39:0.648839 40:0.36841601 41:0.852018 42:0.93438399 43:0.85936803 44:0.67897803 45:0.77136201 #docid = 139796
-0.02 1:0.83333302 2:0.89526099 3:0.5 4:0.52275902 5:0 6:0 7:0 8:0.58603001 9:0.82052797 10:0.81098002 11:0.76721799 12:0.92070299 13:0.967179 14:0.860991 15:0.865987 16:0.56666702 17:0.74608898 18:0.61433101 19:0.61710101 20:0 21:0 22:0 23:0.615381 24:0.55172902 25:0.614012 26:0.82010001 27:0.941948 28:0.81695002 29:0.82136703 30:0.78829098 31:0.65625 32:0.83726197 33:0.17563701 34:0.18747599 35:0 36:0 37:0 38:0.21077199 39:0.63206601 40:0.329119 41:0.84244502 42:0.92980701 43:0.84583801 44:0.66781199 45:0.748317 #docid = 309023
-0.089999999999999997 1:0.83333302 2:0.89526099 3:0.625 4:0.64601803 5:0 6:0 7:0 8:0.70130903 9:0.82052797 10:0.871041 11:0.84599102 12:0.94995099 13:0.979967 14:0.90565902 15:0.90904999 16:0.73333299 17:0.92151302 18:0.48888901 19:0.49638501 20:0 21:0 22:0 23:0.53939599 24:0.76968402 25:0.62371898 26:0.85996598 27:0.95584202 28:0.82243598 29:0.81605703 30:0.832304 31:0.8125 32:0.97148103 33:0.13534901 34:0.145816 35:0 36:0 37:0 38:0.178267 39:0.83943099 40:0.31344101 41:0.84170902 42:0.929452 43:0.82908201 44:0.643493 45:0.74717999 #docid = 213169
0.050000000000000003 1:0.33333299 2:0.35810399 3:0.153846 4:0.162587 5:0 6:0 7:0 8:0.16522899 9:0.28183201 10:0.220925 11:0.242632 12:0.57619399 13:0.25009 14:0.198296 15:0.227106 16:0.5 17:0.869461 18:0.35151401 19:0.36007699 20:0 21:0 22:0 23:0.402706 24:0.52483797 25:0.59692299 26:0.89635402 27:0.96797198 28:0.95764601 29:0.93575698 30:0.951626 31:0.5 32:0.85237902 33:0.081697002 34:0.088887997 35:0 36:0 37:0 38:0.113115 39:0.51728898 40:0.25490701 41:0.83017099 42:0.92387098 43:0.929479 44:0.70110899 45:0.81590497 #docid = 342482
-0.01 1:0.66666698 2:0.71620899 3:0.5 4:0.51681399 5:0 6:0 7:0 8:0.55733299 9:0.65174299 10:0.68901002 11:0.70623499 12:0.89591801 13:0.76727498 14:0.69591999 15:0.70684803 16:0.60000002 17:0.78533202 18:0.58487499 19:0.59203202 20:0 21:0 22:0 23:0.64505702 24:0.63577402 25:0.72044402 26:0.88108301 27:0.962942 28:0.72646999 29:0.74050301 30:0.73696899 31:0.65625 32:0.79627103 33:0.160605 34:0.172267 35:0 36:0 37:0 38:0.21083499 39:0.68852198 40:0.350416 41:0.82285899 42:0.92029899 43:0.715083 44:0.56670302 45:0.63791603 #docid = 78553
-0.01 1:0.66666698 2:0.71620899 3:0.25 4:0.266011 5:0 6:0 7:0 8:0.30825201 9:0.641056 10:0.52628499 11:0.46168801 12:0.76871699 13:0.69911999 14:0.572689 15:0.58283198 16:0.366667 17:0.67422199 18:0.42112201 19:0.429948 20:0 21:0 22:0 23:0.46787801 24:0.378333 25:0.602139 26:0.82858402 27:0.94496101 28:0.81107402 29:0.816369 30:0.82506299 31:0.4375 32:0.73772502 33:0.114895 34:0.124475 35:0 36:0 37:0 38:0.152234 39:0.445517 40:0.29489899 41:0.80544502 42:0.911681 43:0.81417602 44:0.63639599 45:0.735403 #docid = 231193
-0.02 1:0.33333299 2:0.35810399 3:0.33333299 4:0.338195 5:0 6:0 7:0 8:0.31198001 9:0.28183201 10:0.29966599 11:0.33979899 12:0.67698598 13:0.29451799 14:0.25973001 15:0.28633299 16:0.166667 17:0.404217 18:0.62365401 19:0.63369203 20:0 21:0 22:0 23:0.676413 24:0.170959 25:0.79117 26:0.84766901 27:0.951626 28:0.80831099 29:0.90564501 30:0.827447 31:0.1875 32:0.423776 33:0.17681 34:0.189946 35:0 36:0 37:0 38:0.223309 39:0.191741 40:0.368348 41:0.80178601 42:0.90985 43:0.80886298 44:0.694098 45:0.74110901 #docid = 277432
0.01 1:0.83333302 2:0.89526099 3:0.25 4:0.26760501 5:0 6:0 7:0 8:0.323033 9:0.82052797 10:0.63130802 11:0.52349699 12:0.80631602 13:0.909033 14:0.72302598 15:0.732979 16:0.23333301 17:0.48506001 18:0.41010201 19:0.41756901 20:0 21:0 22:0 23:0.455818 24:0.243789 25:0.57271397 26:0.75059497 27:0.916026 28:0.77063501 29:0.78862399 30:0.74549598 31:0.34375 32:0.62803102 33:0.126398 34:0.136555 35:0 36:0 37:0 38:0.167569 39:0.35648799 40:0.31332499 41:0.800138 42:0.90902299 43:0.81114101 44:0.64380699 45:0.72988898 #docid = 122434
-0.029999999999999999 1:0.166667 2:0.179052 3:0.1 4:0.104552 5:0 6:0 7:0 8:0.113451 9:0.15727399 10:0.148891 11:0.154586 12:0.441293 13:0.137187 14:0.073794998 15:0.10708 16:0.466667 17:0.759826 18:0.52051097 19:0.52943099 20:0 21:0 22:0 23:0.56132001 24:0.473086 25:0.66209501 26:0.88195199 27:0.96323103 28:0.84109002 29:0.852597 30:0.85846603 31:0.4375 32:0.72245997 33:0.11832 34:0.12797999 35:0 36:0 37:0 38:0.154907 39:0.44283101 40:0.28489 41:0.79645097 42:0.90716797 43:0.80964899 44:0.63246399 45:0.72821403 #docid = 295371
-0.17000000000000001 1:0.66666698 2:0.71620899 3:0.57142901 4:0.58591598 5:0 6:0 7:0 8:0.61856502 9:0.65174299 10:0.717915 11:0.74445301 12:0.91168898 13:0.773835 14:0.71732002 15:0.72747898 16:0 17:0 18:0 19:0 20:0 21:0 22:0 23:0 24:0 25:0 26:0 27:0 28:0 29:0 30:0 31:0.09375 32:0.24590801 33:0.56488597 34:0.57899803 35:0 36:0 37:0 38:0.631194 39:0.10561 40:0.70148998 41:0.79587001 42:0.90687501 43:0.72036302 44:0.73903298 45:0.761042 #docid = 6755
0.040000000000000001 1:0.33333299 2:0.35810399 3:0.2 4:0.209103 5:0 6:0 7:0 8:0.20671099 9:0.28183201 10:0.246838 11:0.27652001 12:0.615318 13:0.26849401 14:0.21904901 15:0.247114 16:0.30000001 17:0.61319399 18:0.40465 19:0.41325301 20:0 21:0 22:0 23:0.459115 24:0.31605601 25:0.62898499 26:0.873097 27:0.96027702 28:0.929425 29:0.94998902 30:0.89871001 31:0.3125 32:0.60017401 33:0.101065 34:0.10937 35:0 36:0 37:0 38:0.13547701 39:0.32377899 40:0.269187 41:0.793621 42:0.90573901 43:0.90270901 44:0.70947403 45:0.76703 #docid = 28879
-0.080000000000000002 1:0.33333299 2:0.35810399 3:0.285714 4:0.29295799 5:0 6:0 7:0 8:0.27656701 9:0.28183201 10:0.28344101 11:0.32141101 12:0.66033697 13:0.28784201 14:0.24742199 15:0.274468 16:1 17:0.995758 18:1 19:1 20:0 21:0 22:0 23:1 24:1 25:0.93848401 26:0.90014499 27:0.96920699 28:0.78982502 29:0.81995702 30:0.81694603 31:0.96875 32:0.95590901 33:0.24886701 34:0.26433799 35:0 36:0 37:0 38:0.29535201 39:0.95001 40:0.42550901 41:0.79321098 42:0.90553099 43:0.76028502 44:0.61159098 45:0.69252902 #docid = 264169
-0.13999999999999999 1:0.83333302 2:0.820948 3:0.71428603 4:0.71512002 5:0 6:0 7:0 8:0.70962602 9:0.79833001 10:0.73856199 11:0.75002998 12:0.91392201 13:0.79642999 14:0.73248202 15:0.74567503 16:0.93333298 17:0.96499801 18:0.83927399 19:0.84313297 20:0 21:0 22:0 23:0.86473602 24:0.95095098 25:0.84631002 26:0.87443298 27:0.96072501 28:0.76316702 29:0.787687 30:0.78601497 31:1 32:0.96354097 33:0.231084 34:0.245738 35:0 36:0 37:0 38:0.27954501 39:1 40:0.40652099 41:0.78492701 42:0.90132099 43:0.74726999 44:0.59979099 45:0.67767602 #docid = 300256
0.10999999999999999 1:0.66666698 2:0.71620899 3:0.444444 4:0.46230599 5:0 6:0 7:0 8:0.507321 9:0.65174299 10:0.66371799 11:0.67175001 12:0.88093603 13:0.760827 14:0.67706603 15:0.68867099 16:0 17:0 18:0 19:0 20:0 21:0 22:0 23:0 24:0 25:0 26:0 27:0 28:0 29:0 30:0 31:0.09375 32:0.24590801 33:0.43596199 34:0.45332199 35:0 36:0 37:0 38:0.51142001 39:0.10561 40:0.62072098 41:0.78017402 42:0.89888799 43:0.71303099 44:0.70329797 45:0.72832102 #docid = 161373
0.02 1:0.83333302 2:0.89526099 3:0.5 4:0.52275902 5:0 6:0 7:0 8:0.58603001 9:0.82052797 10:0.81098002 11:0.76721799 12:0.92070299 13:0.967179 14:0.860991 15:0.865987 16:0.33333299 17:0.55032998 18:0.40701601 19:0.41168401 20:0 21:0 22:0 23:0.446381 24:0.353035 25:0.52695602 26:0.69708502 27:0.89437801 28:0.74773401 29:0.740444 30:0.70386702 31:0.4375 32:0.683613 33:0.12977 34:0.13944601 35:0 36:0 37:0 38:0.17078 39:0.45863599 40:0.30707201 41:0.77911299 42:0.89834201 43:0.803105 44:0.628793 45:0.716461 #docid = 254405
-0.02 1:0.5 2:0.537157 3:0.5 4:0.50729299 5:0 6:0 7:0 8:0.54534 9:0.51649803 10:0.61065 11:0.57598501 12:0.83490998 13:0.62978798 14:0.56388599 15:0.57955801 16:0.466667 17:0.767353 18:0.370774 19:0.37891099 20:0 21:0 22:0 23:0.41399801 24:0.48209101 25:0.53424603 26:0.799869 27:0.93463701 28:0.79417998 29:0.78364402 30:0.799097 31:0.5 32:0.790501 33:0.098282002 34:0.106626 35:0 36:0 37:0 38:0.132801 39:0.51418 40:0.26567 41:0.77440202 42:0.89591599 43:0.79400098 44:0.61091101 45:0.71157098 #docid = 287875
-0.02 1:0.66666698 2:0.71620899 3:0.66666698 4:0.67639101 5:0 6:0 7:0 8:0.69540399 9:0.65174299 10:0.75155801 11:0.78704298 12:0.92833698 13:0.78051198 14:0.74205399 15:0.75132298 16:0.133333 17:0.28981999 18:0.44190499 19:0.44674599 20:0 21:0 22:0 23:0.514907 24:0.15058599 25:0.64122498 26:0.625871 27:0.86283499 28:0.581756 29:0.57438898 30:0.55745 31:0.21875 32:0.423776 33:0.182833 34:0.19516499 35:0 36:0 37:0 38:0.244487 39:0.245269 40:0.397946 41:0.77425897 42:0.89584202 43:0.70804203 44:0.57707 45:0.63483602 #docid = 5468
-0.02 1:0.5 2:0.537157 3:0.5 4:0.50729299 5:0 6:0 7:0 8:0.49954301 9:0.46130401 10:0.515598 11:0.55676699 12:0.82475501 13:0.52662599 14:0.49375901 15:0.51195198 16:0.5 17:0.805668 18:0.35365701 19:0.36138999 20:0 21:0 22:0 23:0.39899501 24:0.52181399 25:0.529149 26:0.82262403 27:0.94284803 28:0.91608697 29:0.88470501 30:0.871494 31:0.53125 32:0.79960197 33:0.092230998 34:0.099904001 35:0 36:0 37:0 38:0.124393 39:0.54631799 40:0.24208 41:0.77061599 42:0.89395601 43:0.89779902 44:0.67229903 45:0.75403303 #docid = 304710
-0.02 1:0.5 2:0.537157 3:0.375 4:0.387611 5:0 6:0 7:0 8:0.414451 9:0.48378301 10:0.51037401 11:0.48084199 12:0.78088099 13:0.55847198 14:0.48909 15:0.507451 16:0.63333303 17:0.89972901 18:0.38871199 19:0.39696199 20:0 21:0 22:0 23:0.42551199 24:0.64102 25:0.59807801 26:0.82147098 27:0.94243699 28:0.82872403 29:0.82247299 30:0.84667099 31:0.65625 32:0.89885902 33:0.098112002 34:0.106345 35:0 36:0 37:0 38:0.128519 39:0.652623 40:0.280826 41:0.77022398 42:0.89375299 43:0.81809402 44:0.63162798 45:0.73956698 #docid = 45719
0.02 1:0.83333302 2:0.89526099 3:0.41666701 4:0.43902001 5:0 6:0 7:0 8:0.503649 9:0.82052797 10:0.76260799 11:0.70186597 12:0.89406002 13:0.95481098 14:0.82457101 15:0.83087498 16:0.366667 17:0.68651003 18:0.25317401 19:0.25949201 20:0 21:0 22:0 23:0.29228801 24:0.387128 25:0.435563 26:0.71209502 27:0.90061402 28:0.86375499 29:0.81880802 30:0.80617499 31:0.46875 32:0.79960197 33:0.074979 34:0.081546001 35:0 36:0 37:0 38:0.10443 39:0.48796299 40:0.23455299 41:0.76692897 42:0.89204001 43:0.901088 44:0.67283797 45:0.77566803 #docid = 62524
-0.01 1:0.66666698 2:0.71620899 3:0.80000001 4:0.80000001 5:0 6:0 7:0 8:0.78612602 9:0.641056 10:0.77376598 11:0.769867 12:0.92173398 13:0.767892 14:0.75862199 15:0.76729602 16:0.2 17:0.451507 18:0.32222101 19:0.329622 20:0 21:0 22:0 23:0.35666701 24:0.203293 25:0.51362503 26:0.70007002 27:0.89562899 28:0.766783 29:0.77797198 30:0.73103499 31:0.28125 32:0.55369401 33:0.116585 34:0.12610701 35:0 36:0 37:0 38:0.15128399 39:0.28310299 40:0.30288699 41:0.75824499 42:0.88749599 43:0.81104702 44:0.64833701 45:0.722718 #docid = 313379
0.089999999999999997 1:0.66666698 2:0.71620899 3:0.57142901 4:0.58591598 5:0 6:0 7:0 8:0.65278298 9:0.69597 10:0.79209399 11:0.75004202 12:0.91392702 13:0.85522002 14:0.77309501 15:0.78125 16:0 17:0 18:0 19:0 20:0 21:0 22:0 23:0 24:0 25:0 26:0 27:0 28:0 29:0 30:0 31:0.09375 32:0.24590801 33:0.56488597 34:0.57899803 35:0 36:0 37:0 38:0.63178498 39:0.105399 40:0.75737798 41:0.74564898 42:0.88082498 43:0.74784303 44:0.76776701 45:0.78735399 #docid = 257673
-0.01 1:0.66666698 2:0.71620899 3:0.66666698 4:0.67639101 5:0 6:0 7:0 8:0.68732202 9:0.641056 10:0.73370099 11:0.72582197 12:0.90410399 13:0.76109499 14:0.72934002 15:0.739066 16:0.166667 17:0.337111 18:0.33333299 19:0.338907 20:0 21:0 22:0 23:0.36949301 24:0.174266 25:0.43182099 26:0.559183 27:0.82985699 28:0.51647502 29:0.48903599 30:0.479761 31:0.25 32:0.49181601 33:0.12750401 34:0.13734899 35:0 36:0 37:0 38:0.164353 39:0.25511599 40:0.30265501 41:0.74242198 42:0.87910199 43:0.79967701 44:0.64638102 45:0.69378197 #docid = 258730
0.029999999999999999 1:0.66666698 2:0.71620899 3:0.40000001 4:0.41820699 5:0 6:0 7:0 8:0.45964399 9:0.641056 10:0.62364602 11:0.59065598 12:0.84243602 13:0.735071 14:0.64752603 15:0.66019303 16:0.33333299 17:0.59192902 18:0.39455801 19:0.401649 20:0 21:0 22:0 23:0.423715 24:0.334813 25:0.489602 26:0.73380101 27:0.90940303 28:0.76671797 29:0.76191801 30:0.74373603 31:0.40625 32:0.66205198 33:0.116342 34:0.125535 35:0 36:0 37:0 38:0.147614 39:0.40116099 40:0.25910199 41:0.73295802 42:0.874008 43:0.78683102 44:0.61129397 45:0.69543397 #docid = 270494
0.029999999999999999 1:0.5 2:0.537157 3:0.23076899 4:0.243881 5:0 6:0 7:0 8:0.272181 9:0.47227201 10:0.41334701 11:0.40706 12:0.73103201 13:0.50397497 14:0.41543999 15:0.43644801 16:0.466667 17:0.69879901 18:0.398038 19:0.405633 20:0 21:0 22:0 23:0.45991701 24:0.50601298 25:0.59197402 26:0.79367298 27:0.93236101 28:0.67408198 29:0.67697299 30:0.69064897 31:0.5 32:0.70090002 33:0.100568 34:0.108741 35:0 36:0 37:0 38:0.14008699 39:0.53697902 40:0.273325 41:0.73125798 42:0.87308699 43:0.65622801 44:0.51046699 45:0.58979398 #docid = 117112
-0.029999999999999999 1:0.33333299 2:0.35810399 3:0.5 4:0.48956001 5:0 6:0 7:0 8:0.44247299 9:0.30403 10:0.38303 11:0.414197 12:0.73623401 13:0.35095799 14:0.32059801 15:0.34501401 16:0.366667 17:0.63922 18:0.429629 19:0.43736899 20:0 21:0 22:0 23:0.46625701 24:0.372284 25:0.61189401 26:0.79178798 27:0.931665 28:0.81335801 29:0.82000101 30:0.80142599 31:0.375 32:0.61410302 33:0.112873 34:0.121651 35:0 36:0 37:0 38:0.144959 39:0.37614799 40:0.28300801 41:0.721623 42:0.86783302 43:0.796377 44:0.62240702 45:0.690911 #docid = 52656
-0.029999999999999999 1:0.83333302 2:0.89526099 3:0.555556 4:0.57788301 5:0 6:0 7:0 8:0.63841897 9:0.82052797 10:0.83923 11:0.804681 12:0.93496901 13:0.97351903 14:0.88207 15:0.88630801 16:0.30000001 17:0.53235102 18:0.29491401 19:0.30041301 20:0 21:0 22:0 23:0.33150801 24:0.31661999 25:0.42891601 26:0.62910998 27:0.86434603 28:0.710109 29:0.68577099 30:0.65144002 31:0.40625 32:0.667822 33:0.096651003 34:0.104483 35:0 36:0 37:0 38:0.13054501 39:0.42458701 40:0.255849 41:0.71832103 42:0.86601901 43:0.76943803 44:0.59023303 45:0.67521101 #docid = 244581
0.01 1:0.5 2:0.537157 3:0.30000001 4:0.313656 5:0 6:0 7:0 8:0.33928001 9:0.47227201 10:0.45393601 11:0.46391299 12:0.77015603 13:0.52237898 14:0.44675401 15:0.466636 16:0.2 17:0.48506001 18:0.218869 19:0.224898 20:0 21:0 22:0 23:0.25473499 24:0.21054 25:0.42547601 26:0.66633898 27:0.88117403 28:0.83825898 29:0.81844598 30:0.75871497 31:0.25 32:0.55369401 33:0.063502997 34:0.069208004 35:0 36:0 37:0 38:0.090616003 39:0.26563501 40:0.22262099 41:0.71217102 42:0.86262202 43:0.86139101 44:0.65638202 45:0.722399 #docid = 66347
-0.029999999999999999 1:0.66666698 2:0.71620899 3:0.444444 4:0.46230599 5:0 6:0 7:0 8:0.507321 9:0.65174299 10:0.66371799 11:0.67175001 12:0.88093603 13:0.760827 14:0.67706603 15:0.68867099 16:0.533333 17:0.74608898 18:0.339926 19:0.34702301 20:0 21:0 22:0 23:0.39167601 24:0.57159799 25:0.52080798 26:0.75119501 27:0.91626 28:0.645123 29:0.64807802 30:0.669994 31:0.59375 32:0.76225102 33:0.091043003 34:0.098545 35:0 36:0 37:0 38:0.12675001 39:0.63094199 40:0.253032 41:0.71155298 42:0.862279 43:0.63763899 44:0.497628 45:0.58444899 #docid = 327037
0.029999999999999999 1:0.66666698 2:0.71620899 3:0.33333299 4:0.35121599 5:0 6:0 7:0 8:0.40017399 9:0.65174299 10:0.60286701 11:0.58591902 12:0.84002697 13:0.74211901 14:0.63111699 15:0.644373 16:0.466667 17:0.67846298 18:0.353811 19:0.360432 20:0 21:0 22:0 23:0.403826 24:0.49968201 25:0.51229602 26:0.73183203 27:0.90861601 28:0.64541298 29:0.64358401 30:0.65086699 31:0.53125 32:0.70853198 33:0.095489003 34:0.103157 35:0 36:0 37:0 38:0.131754 39:0.56523299 40:0.253223 41:0.70217597 42:0.85704702 43:0.641496 44:0.497866 45:0.572285 #docid = 41065
-0.029999999999999999 1:0.33333299 2:0.35810399 3:0.66666698 4:0.63115299 5:0 6:0 7:0 8:0.51269102 9:0.28183201 10:0.37483001 11:0.41020301 12:0.733334 13:0.31528699 14:0.315299 15:0.33990499 16:0.2 17:0.417954 18:0.52727401 19:0.53431702 20:0 21:0 22:0 23:0.58129501 24:0.210682 25:0.65661299 26:0.77272701 27:0.924532 28:0.69314802 29:0.71744502 30:0.69729 31:0.21875 32:0.40984699 33:0.157544 34:0.168272 35:0 36:0 37:0 38:0.198755 39:0.226566 40:0.311055 41:0.69955999 42:0.85557801 43:0.68339998 44:0.54679501 45:0.60395598 #docid = 119303
-0.029999999999999999 1:0.33333299 2:0.35810399 3:0.33333299 4:0.338195 5:0 6:0 7:0 8:0.31198001 9:0.28183201 10:0.29966599 11:0.33979899 12:0.67698598 13:0.29451799 14:0.25973001 15:0.28633299 16:0.533333 17:0.71201599 18:0.58920598 19:0.59298199 20:0 21:0 22:0 23:0.61845398 24:0.54901201 25:0.64715803 26:0.801871 27:0.935368 28:0.822532 29:0.82918203 30:0.79931802 31:0.53125 32:0.66968399 33:0.14937 34:0.15912201 35:0 36:0 37:0 38:0.182869 39:0.53164202 40:0.279587 41:0.69849002 42:0.85497499 43:0.79052901 44:0.61435997 45:0.67295802 #docid = 248646
0.01 1:0.83333302 2:0.89526099 3:0.26315799 4:0.28133401 5:0 6:0 7:0 8:0.338157 9:0.82052797 10:0.64416599 11:0.54067302 12:0.81597698 13:0.91446 14:0.73318201 15:0.73803103 16:0.26666701 17:0.417954 18:0.21043099 19:0.214531 20:0 21:0 22:0 23:0.25255001 24:0.299413 25:0.380272 26:0.493251 27:0.79313499 28:0.46014699 29:0.45601699 30:0.44418901 31:0.375 32:0.65389299 33:0.064241 34:0.069701001 35:0 36:0 37:0 38:0.093667001 39:0.410016 40:0.224426 41:0.67974102 42:0.84428799 43:0.84482998 44:0.62332797 45:0.69632798 #docid = 155108
0.02 1:0.83333302 2:0.89526099 3:0.45454499 4:0.47724101 5:0 6:0 7:0 8:0.54168701 9:0.82052797 10:0.78560799 11:0.73308802 12:0.907085 13:0.960944 14:0.84194303 15:0.84762299 16:0.133333 17:0.323374 18:0.173783 19:0.17841201 20:0 21:0 22:0 23:0.19333801 24:0.134543 25:0.27950799 26:0.454487 27:0.76917702 28:0.54661101 29:0.51447701 30:0.49065301 31:0.25 32:0.519674 33:0.076105997 34:0.082731999 35:0 36:0 37:0 38:0.102205 39:0.25434101 40:0.216134 41:0.65083301 42:0.82731998 43:0.74162602 44:0.56885099 45:0.64286298 #docid = 71008
0.01 1:0.66666698 2:0.71620899 3:0.30769199 4:0.32517499 5:0 6:0 7:0 8:0.36888701 9:0.641056 10:0.568744 11:0.518269 12:0.80331302 13:0.716667 14:0.60568601 15:0.619856 16:0.366667 17:0.605667 18:0.43401301 19:0.44136399 20:0 21:0 22:0 23:0.46056899 24:0.36559799 25:0.52726901 26:0.699898 27:0.89555699 28:0.667934 29:0.665775 30:0.66966498 31:0.4375 32:0.64812303 33:0.121931 34:0.1314 35:0 36:0 37:0 38:0.152968 39:0.429712 40:0.26249301 41:0.650787 42:0.82729298 43:0.66588497 44:0.51623702 45:0.591667 #docid = 10744
-0.029999999999999999 1:0.33333299 2:0.35810399 3:0.285714 4:0.29295799 5:0 6:0 7:0 8:0.27656701 9:0.28183201 10:0.28344101 11:0.32141101 12:0.66033697 13:0.28784201 14:0.24742199 15:0.274468 16:0.60000002 17:0.741328 18:0.52727401 19:0.531542 20:0 21:0 22:0 23:0.55278301 24:0.61318803 25:0.54379499 26:0.74926001 27:0.91550499 28:0.77700198 29:0.76504397 30:0.74873602 31:0.59375 32:0.69607198 33:0.130814 34:0.139658 35:0 36:0 37:0 38:0.16039801 39:0.58922201 40:0.231887 41:0.64424002 42:0.82336301 43:0.74530101 44:0.56435001 45:0.62923402 #docid = 254911
-0.01 1:0.66666698 2:0.71620899 3:0.5 4:0.51681399 5:0 6:0 7:0 8:0.55043 9:0.641056 10:0.67127001 11:0.65130001 12:0.87168503 13:0.747859 14:0.68321699 15:0.694601 16:0.30000001 17:0.59337801 18:0.241666 19:0.24787501 20:0 21:0 22:0 23:0.27031001 24:0.305502 25:0.385447 26:0.636365 27:0.86770302 28:0.71952701 29:0.69128001 30:0.70268202 31:0.375 32:0.65575498 33:0.071563996 34:0.077797003 35:0 36:0 37:0 38:0.095902003 39:0.37741899 40:0.203647 41:0.640266 42:0.82096201 43:0.735183 44:0.552661 45:0.642865 #docid = 128177
-0.01 1:0.33333299 2:0.35810399 3:0.33333299 4:0.338195 5:0 6:0 7:0 8:0.31198001 9:0.28183201 10:0.29966599 11:0.33979899 12:0.67698598 13:0.29451799 14:0.25973001 15:0.28633299 16:0.466667 17:0.69127101 18:0.45490101 19:0.462466 20:0 21:0 22:0 23:0.478724 24:0.461826 25:0.56531602 26:0.71103001 27:0.90017599 28:0.67430198 29:0.67501998 30:0.68025702 31:0.46875 32:0.67451102 33:0.114687 34:0.123746 35:0 36:0 37:0 38:0.143957 39:0.45769799 40:0.257375 41:0.640131 42:0.82088 43:0.658319 44:0.50973099 45:0.58790803 #docid = 166644
-0.050000000000000003 1:0.33333299 2:0.35810399 3:1 4:0.88955998 5:0 6:0 7:0 8:0.661075 9:0.28183201 10:0.41997701 11:0.440635 12:0.75475001 13:0.32247201 14:0.34792 15:0.37135401 16:0.30000001 17:0.62693101 18:0.214816 19:0.220642 20:0 21:0 22:0 23:0.24844199 24:0.314298 25:0.388937 26:0.669819 27:0.88269901 28:0.84532303 29:0.79777098 30:0.78441203 31:0.3125 32:0.62173498 33:0.052829001 34:0.057585001 35:0 36:0 37:0 38:0.074339002 39:0.32321501 40:0.17460699 41:0.63988799 42:0.82073301 43:0.83554798 44:0.61232001 45:0.68834603 #docid = 254977
-0.029999999999999999 1:0.33333299 2:0.35810399 3:0.33333299 4:0.338195 5:0 6:0 7:0 8:0.31198001 9:0.28183201 10:0.29966599 11:0.33979899 12:0.67698598 13:0.29451799 14:0.25973001 15:0.28633299 16:0.69999999 17:0.84491098 18:0.42513201 19:0.43263 20:0 21:0 22:0 23:0.459167 24:0.71103299 25:0.53501999 26:0.72689998 27:0.90663701 28:0.65731102 29:0.66461998 30:0.68716598 31:0.6875 32:0.80443001 33:0.103266 34:0.111467 35:0 36:0 37:0 38:0.132347 39:0.682495 40:0.23231 41:0.63131702 42:0.81550801 43:0.63146698 44:0.49207801 45:0.57940298 #docid = 48270
-0.029999999999999999 1:0.33333299 2:0.35810399 3:0.222222 4:0.231153 5:0 6:0 7:0 8:0.225658 9:0.28183201 10:0.25749999 11:0.290023 12:0.62958503 13:0.27483401 14:0.227413 15:0.25517699 16:0.83333302 17:0.82033402 18:0.67598897 19:0.67553502 20:0 21:0 22:0 23:0.692258 24:0.864012 25:0.63033003 26:0.74506003 27:0.91386002 28:0.68758899 29:0.69469899 30:0.66561502 31:0.8125 32:0.77041 33:0.165076 34:0.174871 35:0 36:0 37:0 38:0.19826201 39:0.816706 40:0.26971099 41:0.62953103 42:0.81441301 43:0.65401 44:0.50849998 45:0.55047899 #docid = 309028
0.01 1:0.33333299 2:0.35810399 3:0.33333299 4:0.338195 5:0 6:0 7:0 8:0.365859 9:0.34771299 10:0.41257501 11:0.420239 12:0.74056703 13:0.417097 14:0.34257099 15:0.36619601 16:0.33333299 17:0.61319399 18:0.232932 19:0.238758 20:0 21:0 22:0 23:0.270908 24:0.35394701 25:0.45743999 26:0.63279003 27:0.86605299 28:0.761352 29:0.74040902 30:0.729662 31:0.34375 32:0.62173498 33:0.055565 34:0.060506001 35:0 36:0 37:0 38:0.082243003 39:0.37371999 40:0.225307 41:0.62876302 42:0.813941 43:0.76424903 44:0.57962698 45:0.65940398 #docid = 81213
-0.01 1:0.33333299 2:0.35810399 3:0.2 4:0.209103 5:0 6:0 7:0 8:0.239838 9:0.33674499 10:0.336225 11:0.33114901 12:0.66926903 13:0.369295 14:0.28725901 15:0.31287301 16:0.33333299 17:0.59192902 18:0.311827 19:0.31836101 20:0 21:0 22:0 23:0.346122 24:0.34381801 25:0.421076 26:0.67466402 27:0.88480902 28:0.73250699 29:0.711025 30:0.68851602 31:0.34375 32:0.58771402 33:0.075652003 34:0.081950001 35:0 36:0 37:0 38:0.102405 39:0.35549501 40:0.19217899 41:0.62587899 42:0.812163 43:0.72017002 44:0.53994602 45:0.60407799 #docid = 114491
-0.01 1:0.5 2:0.462843 3:0.27272701 4:0.27869999 5:0 6:0 7:0 8:0.26736099 9:0.439105 10:0.27490601 11:0.32861099 12:0.66696697 13:0.30427 14:0.23928501 15:0.26737201 16:0.40000001 17:0.61795503 18:0.386666 19:0.393489 20:0 21:0 22:0 23:0.42403901 24:0.412494 25:0.54273802 26:0.65709603 27:0.87708598 28:0.63953799 29:0.63301897 30:0.63262397 31:0.4375 32:0.64049101 33:0.100985 34:0.109056 35:0 36:0 37:0 38:0.133481 39:0.449332 40:0.25328901 41:0.61537498 42:0.80563402 43:0.63728797 44:0.489957 45:0.56343198 #docid = 204227
-0.01 1:0.66666698 2:0.71620899 3:0.57142901 4:0.58591598 5:0 6:0 7:0 8:0.61111897 9:0.641056 10:0.70011699 11:0.68654501 12:0.88745499 13:0.75441903 14:0.70461202 15:0.71522701 16:0.40000001 17:0.66048402 18:0.214816 19:0.220083 20:0 21:0 22:0 23:0.24908499 24:0.42565301 25:0.33555001 26:0.59243703 27:0.846766 28:0.67479801 29:0.63237298 30:0.64037901 31:0.46875 32:0.73586202 33:0.057576999 34:0.062627003 35:0 36:0 37:0 38:0.080752 39:0.48675799 40:0.172315 41:0.608392 42:0.80124301 43:0.70557201 44:0.52040201 45:0.61790103 #docid = 28864
0.02 1:0.66666698 2:0.71620899 3:0.5 4:0.51681399 5:0 6:0 7:0 8:0.58879799 9:0.69597 10:0.76236397 11:0.71153802 12:0.89815599 13:0.84865999 14:0.75160903 15:0.760535 16:0.1 17:0.24253 18:0.120833 19:0.124101 20:0 21:0 22:0 23:0.151958 24:0.11417 25:0.27057901 26:0.394463 27:0.72771698 28:0.44289699 29:0.410604 30:0.394297 31:0.1875 32:0.423776 33:0.053068001 34:0.057799 35:0 36:0 37:0 38:0.080251001 39:0.211008 40:0.214004 41:0.60421097 42:0.798594 43:0.75050002 44:0.57618701 45:0.62442797 #docid = 46085
0.01 1:0.83333302 2:0.89526099 3:0.3125 4:0.332515 5:0 6:0 7:0 8:0.39347899 9:0.82052797 10:0.68780899 11:0.59969902 12:0.84698403 13:0.93122798 14:0.76727998 15:0.77564299 16:0.2 17:0.404217 18:0.141462 19:0.14516699 20:0 21:0 22:0 23:0.16797 24:0.21617 25:0.26142099 26:0.450497 27:0.76659602 28:0.509368 29:0.47812501 30:0.469255 31:0.3125 32:0.61410302 33:0.046776 34:0.050988998 35:0 36:0 37:0 38:0.067899004 39:0.33083501 40:0.16889399 41:0.60317397 42:0.79793501 43:0.81634802 44:0.59002697 45:0.66473401 #docid = 10400
-0.01 1:0.33333299 2:0.35810399 3:0.5 4:0.48956001 5:0 6:0 7:0 8:0.421078 9:0.28183201 10:0.343261 11:0.38370299 12:0.71334898 13:0.308236 14:0.292198 15:0.31763399 16:0.533333 17:0.77304399 18:0.29601201 19:0.302457 20:0 21:0 22:0 23:0.32723799 24:0.54570401 25:0.40540799 26:0.672638 27:0.88392901 28:0.72876197 29:0.69800103 30:0.723068 31:0.53125 32:0.73586202 33:0.070529997 34:0.076408997 35:0 36:0 37:0 38:0.092993997 39:0.53086603 40:0.17279699 41:0.59076601 42:0.78997302 43:0.70463902 44:0.51949602 45:0.61438501 #docid = 277430
-0.01 1:0.166667 2:0.179052 3:0.2 4:0.2 5:0 6:0 7:0 8:0.194582 9:0.15727399 10:0.186692 11:0.20149 12:0.52059001 13:0.170008 14:0.101603 15:0.133889 16:0.33333299 17:0.55032998 18:0.39057201 19:0.39536899 20:0 21:0 22:0 23:0.43837199 24:0.361828 25:0.50734103 26:0.69277298 27:0.89256197 28:0.74193799 29:0.73148501 30:0.69846398 31:0.3125 32:0.49181601 33:0.092115998 34:0.098632 35:0 36:0 37:0 38:0.123994 39:0.338945 40:0.216214 41:0.58949202 42:0.78914702 43:0.70800501 44:0.535097 45:0.580329 #docid = 285275
-0.01 1:0.166667 2:0.179052 3:0.111111 4:0.115577 5:0 6:0 7:0 8:0.13753 9:0.179472 10:0.193195 11:0.185184 12:0.49533701 13:0.186248 14:0.106307 15:0.115456 16:0.466667 17:0.603046 18:0.48768699 19:0.487555 20:0 21:0 22:0 23:0.51628101 24:0.498696 25:0.54721701 26:0.68143201 27:0.88773102 28:0.74355698 29:0.72968298 30:0.688577 31:0.4375 32:0.539765 33:0.111641 34:0.118132 35:0 36:0 37:0 38:0.143424 39:0.471755 40:0.236506 41:0.57064003 42:0.77676302 43:0.70308203 44:0.52701199 45:0.56367397 #docid = 299471
-0.01 1:0.33333299 2:0.35810399 3:0.33333299 4:0.338195 5:0 6:0 7:0 8:0.31198001 9:0.28183201 10:0.29966599 11:0.33979899 12:0.67698598 13:0.29451799 14:0.25973001 15:0.28633299 16:0.466667 17:0.61559898 18:0.54133302 19:0.54465199 20:0 21:0 22:0 23:0.55760503 24:0.471257 25:0.52801198 26:0.671552 27:0.88345498 28:0.655195 29:0.65003502 30:0.641523 31:0.46875 32:0.57378602 33:0.13798 34:0.146879 35:0 36:0 37:0 38:0.16531301 39:0.46008101 40:0.227911 41:0.56143099 42:0.77059299 43:0.62702203 44:0.47740799 45:0.53456998 #docid = 87989
-0.01 1:0.166667 2:0.179052 3:0.5 4:0.44477999 5:0 6:0 7:0 8:0.30765501 9:0.124558 10:0.181743 11:0.19430099 12:0.50972003 13:0.133086 14:0.098011002 15:0.130426 16:0.26666701 17:0.451507 18:0.65815598 19:0.65569901 20:0 21:0 22:0 23:0.624524 24:0.251219 25:0.59068799 26:0.66952902 27:0.882572 28:0.67839599 29:0.69557202 30:0.66873801 31:0.25 32:0.39405599 33:0.17121001 34:0.179718 35:0 36:0 37:0 38:0.184477 39:0.22653501 40:0.25367099 41:0.55431098 42:0.76576698 43:0.64994699 44:0.51158398 45:0.557163 #docid = 344336
0.02 1:0 2:0 3:0 4:0 5:0 6:0 7:0 8:0 9:0 10:0 11:0 12:0 13:0 14:0 15:0 16:0.40000001 17:0.61795503 18:0.30326599 19:0.309571 20:0 21:0 22:0 23:0.34022701 24:0.416439 25:0.42124099 26:0.66418099 27:0.880225 28:0.61682397 29:0.607575 30:0.61285698 31:0.34375 32:0.54459298 33:0.061356999 34:0.066552997 35:0 36:0 37:0 38:0.084155999 39:0.35457799 40:0.16644999 41:0.55370998 42:0.76535702 43:0.57890499 44:0.43468401 45:0.50129402 #docid = 140525
-0.01 1:0.66666698 2:0.71620899 3:0.26666701 4:0.28318501 5:0 6:0 7:0 8:0.33583301 9:0.66325498 10:0.57678699 11:0.49695101 12:0.79074299 13:0.74760002 14:0.611103 15:0.62507898 16:0.166667 17:0.370664 18:0.24786501 19:0.25362799 20:0 21:0 22:0 23:0.26289999 24:0.161954 25:0.34453201 26:0.52026898 27:0.80874401 28:0.58985502 29:0.56920999 30:0.54579997 31:0.25 32:0.47172499 33:0.082984 34:0.089892 35:0 36:0 37:0 38:0.105836 39:0.24502701 40:0.211832 41:0.55269498 42:0.76466399 43:0.62718701 44:0.477265 45:0.54423201 #docid = 206547
0.12999999999999998 1:0.5 2:0.537157 3:0.33333299 4:0.34672999 5:0 6:0 7:0 8:0.369791 9:0.47227201 10:0.470523 11:0.48656601 12:0.78442299 13:0.52871901 14:0.45936301 15:0.47879201 16:0 17:0 18:0 19:0 20:0 21:0 22:0 23:0 24:0 25:0 26:0 27:0 28:0 29:0 30:0 31:0.0625 32:0.163939 33:0.32315499 34:0.33581501 35:0 36:0 37:0 38:0.37500799 39:0.071561001 40:0.44769701 41:0.54286498 42:0.75790203 43:0.56753099 44:0.49600601 45:0.53851199 #docid = 68880
-0.02 1:0.66666698 2:0.71620899 3:0.40000001 4:0.41820699 5:0 6:0 7:0 8:0.472579 9:0.66325498 10:0.66209 11:0.61263198 12:0.85336798 13:0.77779198 14:0.67580098 15:0.68745202 16:0.30000001 17:0.51108599 18:0.24680901 19:0.252139 20:0 21:0 22:0 23:0.267001 24:0.30036801 25:0.332571 26:0.52655703 27:0.81225997 28:0.56762999 29:0.54477 30:0.54901803 31:0.375 32:0.580082 33:0.072140001 34:0.078134 35:0 36:0 37:0 38:0.094056003 39:0.37303901 40:0.18787999 41:0.531865 42:0.75021797 43:0.59711999 44:0.451745 45:0.53179699 #docid = 117118
-0.01 1:0.83333302 2:0.74663401 3:0.3125 4:0.32491001 5:0 6:0 7:0 8:0.33371699 9:0.74313599 10:0.431097 11:0.465168 12:0.77096403 13:0.54621899 14:0.43137199 15:0.467262 16:0.26666701 17:0.44398001 18:0.28909501 19:0.294361 20:0 21:0 22:0 23:0.32326001 24:0.28034601 25:0.35552499 26:0.54738897 27:0.82361698 28:0.46413499 29:0.44254601 30:0.47334501 31:0.375 32:0.51057303 33:0.092037 34:0.099115998 35:0 36:0 37:0 38:0.120894 39:0.38629401 40:0.188023 41:0.52243698 42:0.74352998 43:0.47161299 44:0.35341901 45:0.42406499 #docid = 138897
-0.070000000000000007 1:0 2:0 3:0 4:0 5:0 6:0 7:0 8:0 9:0 10:0 11:0 12:0 13:0 14:0 15:0 16:0.76666701 17:0.71201599 18:0.53574097 19:0.53503102 20:0 21:0 22:0 23:0.55822998 24:0.814821 25:0.49233299 26:0.62409598 27:0.86200398 28:0.61022002 29:0.60241503 30:0.59745902 31:0.6875 32:0.63996398 33:0.123728 34:0.13104901 35:0 36:0 37:0 38:0.15272599 39:0.71112603 40:0.20446201 41:0.506863 42:0.73227 43:0.577411 44:0.43513599 45:0.492044 #docid = 277436
-0.050000000000000003 1:0.5 2:0.537157 3:0.75 4:0.73434103 5:0 6:0 7:0 8:0.670389 9:0.46130401 10:0.58215302 11:0.62870401 12:0.86111802 13:0.540344 14:0.54257399 15:0.55901301 16:0.23333301 17:0.417954 18:0.28794301 19:0.29349899 20:0 21:0 22:0 23:0.32171699 24:0.243931 25:0.35425299 26:0.55018902 27:0.82511097 28:0.47233701 29:0.446758 30:0.47927499 31:0.28125 32:0.43623501 33:0.088330999 34:0.095168002 35:0 36:0 37:0 38:0.116567 39:0.29176599 40:0.183487 41:0.50676602 42:0.732198 43:0.47675899 44:0.34935001 45:0.42597699 #docid = 277433
0.02 1:0.66666698 2:0.71620899 3:0.444444 4:0.46230599 5:0 6:0 7:0 8:0.507321 9:0.65174299 10:0.66371799 11:0.67175001 12:0.88093603 13:0.760827 14:0.67706603 15:0.68867099 16:0.1 17:0.24253 18:0.106422 19:0.109367 20:0 21:0 22:0 23:0.12582099 24:0.106924 25:0.201656 26:0.34575999 27:0.68914402 28:0.386641 29:0.34728399 30:0.343274 31:0.1875 32:0.38975501 33:0.04496 34:0.048937999 35:0 36:0 37:0 38:0.065751001 39:0.203035 40:0.15626501 41:0.50418299 42:0.730304 43:0.56273502 44:0.41439101 45:0.47594801 #docid = 54906
0.01 1:0.66666698 2:0.71620899 3:0.25 4:0.266011 5:0 6:0 7:0 8:0.30825201 9:0.641056 10:0.52628499 11:0.46168801 12:0.76871699 13:0.69911999 14:0.572689 15:0.588045 16:0.166667 17:0.370664 18:0.111754 19:0.114908 20:0 21:0 22:0 23:0.12845799 24:0.172508 25:0.19771001 26:0.394678 27:0.72787702 28:0.48586601 29:0.449303 30:0.43786201 31:0.25 32:0.539765 33:0.033078 34:0.036138002 35:0 36:0 37:0 38:0.04713 39:0.25455201 40:0.124001 41:0.501095 42:0.72803003 43:0.77354002 44:0.545515 45:0.60888201 #docid = 114706
-0.01 1:0.33333299 2:0.35810399 3:0.2 4:0.209103 5:0 6:0 7:0 8:0.20671099 9:0.28183201 10:0.246838 11:0.27652001 12:0.615318 13:0.26849401 14:0.21904901 15:0.247114 16:0.56666702 17:0.66048402 18:0.42684099 19:0.43129301 20:0 21:0 22:0 23:0.44925699 24:0.57677299 25:0.43691301 26:0.61418599 27:0.857319 28:0.60557002 29:0.59421599 30:0.57018501 31:0.5625 32:0.61410302 33:0.102355 34:0.109555 35:0 36:0 37:0 38:0.12629201 39:0.55517298 40:0.181141 41:0.50093001 42:0.72790802 43:0.57338899 44:0.43032899 45:0.46606001 #docid = 223148
0.029999999999999999 1:0.66666698 2:0.71620899 3:0.33333299 4:0.35121599 5:0 6:0 7:0 8:0.39483199 9:0.641056 10:0.58535498 11:0.54034299 12:0.81579399 13:0.72270298 14:0.61843503 15:0.63214701 16:0.2 17:0.417954 18:0.106913 19:0.109954 20:0 21:0 22:0 23:0.130962 24:0.221094 25:0.22741 26:0.40628701 27:0.73636198 28:0.47255999 29:0.443831 30:0.44290999 31:0.28125 32:0.58771402 33:0.029067 34:0.031784002 35:0 36:0 37:0 38:0.044516001 39:0.300248 40:0.129481 41:0.497899 42:0.72566402 43:0.76524699 44:0.5316 45:0.60792202 #docid = 335805
-0.01 1:0.166667 2:0.179052 3:0.1 4:0.104552 5:0 6:0 7:0 8:0.132569 9:0.19044 10:0.20709801 11:0.18739299 12:0.49888599 13:0.20168599 14:0.11631 15:0.148067 16:0.26666701 17:0.49879801 18:0.19578101 19:0.200699 20:0 21:0 22:0 23:0.222509 24:0.27626601 25:0.30560899 26:0.54870301 27:0.82431901 28:0.56307298 29:0.54148602 30:0.53779298 31:0.25 32:0.47172499 33:0.039120998 34:0.042629 35:0 36:0 37:0 38:0.056701001 39:0.26294801 40:0.137529 41:0.49022201 42:0.71993202 43:0.54564703 44:0.403175 45:0.463911 #docid = 329003
-0.02 1:0.33333299 2:0.35810399 3:0.285714 4:0.29295799 5:0 6:0 7:0 8:0.27656701 9:0.28183201 10:0.28344101 11:0.32141101 12:0.66033697 13:0.28784201 14:0.24742199 15:0.274468 16:0.69999999 17:0.63922 18:0.64959902 19:0.64603502 20:0 21:0 22:0 23:0.64975399 24:0.71884698 25:0.50482702 26:0.60909802 27:0.85488403 28:0.50503403 29:0.502222 30:0.51125902 31:0.6875 32:0.58688998 33:0.161635 34:0.170197 35:0 36:0 37:0 38:0.18813901 39:0.68219203 40:0.215417 41:0.487248 42:0.71769202 43:0.47524601 44:0.36059299 45:0.419453 #docid = 45115
0.01 1:0.66666698 2:0.71620899 3:0.40000001 4:0.41820699 5:0 6:0 7:0 8:0.465666 9:0.65174299 10:0.641271 11:0.64047599 12:0.866669 13:0.75448698 14:0.66021901 15:0.67242998 16:0.2 17:0.404217 18:0.114851 19:0.11799 20:0 21:0 22:0 23:0.137041 24:0.21617 25:0.22042599 26:0.40097201 27:0.73250699 28:0.47472599 29:0.44324899 30:0.417182 31:0.28125 32:0.49811301 33:0.032623 34:0.035555001 35:0 36:0 37:0 38:0.049849998 39:0.30518201 40:0.13026001 41:0.45709601 42:0.694363 43:0.51693797 44:0.382202 45:0.437538 #docid = 9322
-0.01 1:0.33333299 2:0.35810399 3:0.25 4:0.258407 5:0 6:0 7:0 8:0.24849001 9:0.28183201 10:0.269573 11:0.30491099 12:0.644566 13:0.28128201 14:0.236781 15:0.243248 16:0.5 17:0.53235102 18:0.42335701 19:0.42380801 20:0 21:0 22:0 23:0.454974 24:0.54383397 25:0.39965999 26:0.53947902 27:0.81935698 28:0.45254201 29:0.44234699 30:0.458406 31:0.5 32:0.49364999 33:0.103763 34:0.109987 35:0 36:0 37:0 38:0.13102201 39:0.52700597 40:0.17013299 41:0.43322301 42:0.67503202 43:0.42841101 44:0.31891301 45:0.376084 #docid = 258016
-0.01 1:0.166667 2:0.179052 3:0.066666998 4:0.070796996 5:0 6:0 7:0 8:0.090102002 9:0.179472 10:0.165031 11:0.143223 12:0.41844499 13:0.149716 14:0.085784003 15:0.118638 16:0.33333299 17:0.53235102 18:0.25606999 19:0.26127201 20:0 21:0 22:0 23:0.277843 24:0.33678401 25:0.340038 26:0.52787 27:0.812989 28:0.56466901 29:0.542808 30:0.550583 31:0.3125 32:0.47602499 33:0.052009001 34:0.056265 35:0 36:0 37:0 38:0.069792002 39:0.31862399 40:0.140302 41:0.41707799 42:0.66149402 43:0.52965301 44:0.38757199 45:0.44571999 #docid = 274541
-0.02 1:0.166667 2:0.179052 3:0.1 4:0.104552 5:0 6:0 7:0 8:0.093259998 9:0.124558 10:0.097948 11:0.121934 12:0.370287 13:0.079107001 14:0.033859 15:0.068579003 16:0.2 17:0.417954 18:0.156758 19:0.16093101 20:0 21:0 22:0 23:0.180566 24:0.208923 25:0.26719299 26:0.484716 27:0.78802502 28:0.535276 29:0.50579399 30:0.508461 31:0.1875 32:0.37582701 33:0.029712999 34:0.032370999 35:0 36:0 37:0 38:0.04205 39:0.191388 40:0.101756 41:0.391996 42:0.63965601 43:0.507029 44:0.36377999 45:0.41936201 #docid = 45168
-0.01 1:0.66666698 2:0.71620899 3:0.25 4:0.266011 5:0 6:0 7:0 8:0.31752199 9:0.66325498 10:0.563492 11:0.47886601 12:0.77964902 13:0.74184102 14:0.60083902 15:0.61518401 16:0.1 17:0.208977 18:0.097479001 19:0.099937998 20:0 21:0 22:0 23:0.101607 24:0.094752997 25:0.107094 26:0.24538399 27:0.58876902 28:0.23063 29:0.19199701 30:0.21864 31:0.1875 32:0.37582701 33:0.037376001 34:0.040668 35:0 36:0 37:0 38:0.049045 39:0.182427 40:0.109881 41:0.37785101 42:0.62687701 43:0.52385902 44:0.37728101 45:0.43021399 #docid = 49906
0.01 1:0 2:0 3:0 4:0 5:0 6:0 7:0 8:0 9:0 10:0 11:0 12:0 13:0 14:0 15:0 16:0.1 17:0.24253 18:0.26976499 19:0.27531999 20:0 21:0 22:0 23:0.30962801 24:0.106924 25:0.40353 26:0.50745302 27:0.80144298 28:0.500305 29:0.467879 30:0.47195199 31:0.0625 32:0.163939 33:0.046891 34:0.050887 35:0 36:0 37:0 38:0.067025997 39:0.071561001 40:0.14797799 41:0.371912 42:0.62140602 43:0.45748699 44:0.31697401 45:0.35907999 #docid = 72895
-0.01 1:0.166667 2:0.179052 3:0.25 4:0.244781 5:0 6:0 7:0 8:0.227916 9:0.15727399 10:0.199123 11:0.214506 12:0.53932399 13:0.176929 14:0.110581 15:0.142544 16:0.133333 17:0.28981999 18:0.123733 19:0.126983 20:0 21:0 22:0 23:0.15352599 24:0.15058599 25:0.26472101 26:0.39728999 27:0.72980702 28:0.42870799 29:0.40636501 30:0.380925 31:0.125 32:0.259837 33:0.024084 34:0.026222 35:0 36:0 37:0 38:0.04067 39:0.148408 40:0.118457 41:0.34471101 42:0.59550101 43:0.42240599 44:0.30643699 45:0.33431199 #docid = 5396
0.040000000000000001 1:0.66666698 2:0.71620899 3:0.26666701 4:0.28318501 5:0 6:0 7:0 8:0.33067101 9:0.65174299 10:0.55672401 11:0.51953697 12:0.80404401 13:0.72429502 14:0.595599 15:0.61013103 16:0.40000001 17:0.29915601 18:0.184861 19:0.186427 20:0 21:0 22:0 23:0.206415 24:0.436984 25:0.223931 26:0.24836899 27:0.592309 28:0.062827997 29:0.13775399 30:0.106057 31:0.46875 32:0.47602499 33:0.045800999 34:0.049063999 35:0 36:0 37:0 38:0.065463997 39:0.51419997 40:0.133634 41:0.34279099 42:0.59361702 43:0.44657299 44:0.32589999 45:0.351051 #docid = 55847
0.02 1:0.5 2:0.537157 3:0.2 4:0.21239001 5:0 6:0 7:0 8:0.265266 9:0.52718502 10:0.47712699 11:0.42062801 12:0.74084401 13:0.59298801 14:0.46618101 15:0.485365 16:0.033333 17:0.080843002 18:0.0407 19:0.0418 20:0 21:0 22:0 23:0.049017001 24:0.036415 25:0.076357998 26:0.12640201 27:0.394602 28:0.130353 29:0.071161002 30:0.098208003 31:0.09375 32:0.211888 33:0.021652 34:0.023574 35:0 36:0 37:0 38:0.037218999 39:0.113795 40:0.115728 41:0.31976101 42:0.57041299 43:0.422057 44:0.29916 45:0.33430201 #docid = 327343
0.01 1:0 2:0 3:0 4:0 5:0 6:0 7:0 8:0 9:0 10:0 11:0 12:0 13:0 14:0 15:0 16:0.166667 17:0.323374 18:0.16959199 19:0.17342199 20:0 21:0 22:0 23:0.19445799 24:0.176589 25:0.239454 26:0.414103 27:0.74194002 28:0.39691201 29:0.36268601 30:0.37323001 31:0.125 32:0.24590801 33:0.027391 34:0.029726001 35:0 36:0 37:0 38:0.040810999 39:0.13676099 40:0.088275 41:0.29552299 42:0.54468799 43:0.36232901 44:0.244523 45:0.28768399 #docid = 149285
-0.01 1:0 2:0 3:0 4:0 5:0 6:0 7:0 8:0 9:0 10:0 11:0 12:0 13:0 14:0 15:0 16:0.166667 17:0.268556 18:0.086698003 19:0.088832997 20:0 21:0 22:0 23:0.106056 24:0.187493 25:0.191816 26:0.254585 27:0.59954399 28:0.17567299 29:0.199435 30:0.18985 31:0.125 32:0.190327 33:0.0068029999 34:0.0073600002 35:0 36:0 37:0 38:0.014916 39:0.147788 40:0.069845997 41:0.133826 42:0.32350001 43:0.14661799 44:0.122133 45:0.13121501 #docid = 276169
-0.01 1:0 2:0 3:0 4:0 5:0 6:0 7:0 8:0 9:0 10:0 11:0 12:0 13:0 14:0 15:0 16:0.066666998 17:0.161687 18:0.075079001 19:0.077140003 20:0 21:0 22:0 23:0.094428003 24:0.075995997 25:0.18802901 26:0.253425 27:0.59820801 28:0.287826 29:0.249345 30:0.261668 31:0.03125 32:0.081969 33:0.0020870001 34:0.0022750001 35:0 36:0 37:0 38:0.0089959996 39:0.045132 40:0.061069999 41:0.124119 42:0.30622599 43:0.24998599 44:0.158364 45:0.17903 #docid = 297838
0.029999999999999999 1:0 2:0 3:0 4:0 5:0 6:0 7:0 8:0 9:0 10:0 11:0 12:0 13:0 14:0 15:0 16:0.066666998 17:0.161687 18:0.064446002 19:0.066257998 20:0 21:0 22:0 23:0.083150998 24:0.077754997 25:0.16346 26:0.23914699 27:0.58123398 28:0.263394 29:0.23345099 30:0.25024399 31:0.03125 32:0.081969 33:0 34:0 35:0 36:0 37:0 38:0.0060609998 39:0.045696001 40:0.048919 41:0.108981 42:0.27795401 43:0.22373199 44:0.142851 45:0.171827 #docid = 116400
-0.01 1:0.166667 2:0.179052 3:0.041666999 4:0.044780001 5:0 6:0 7:0 8:0.042585999 9:0.124558 10:0.060584001 11:0.073818997 12:0.22010399 13:0 14:0 15:0 16:0.133333 17:0.25626701 18:0.065814003 19:0.067658998 20:0 21:0 22:0 23:0.071806997 24:0.13116799 25:0.087384999 26:0.214697 27:0.54966497 28:0.14408299 29:0.164424 30:0.153019 31:0.125 32:0.211888 33:0.0043319999 34:0.0047149998 35:0 36:0 37:0 38:0.0071060001 39:0.119827 40:0.023265 41:0.107705 42:0.275491 43:0.118682 44:0.103854 45:0.100022 #docid = 253546
-0.01 1:0 2:0 3:0 4:0 5:0 6:0 7:0 8:0 9:0 10:0 11:0 12:0 13:0 14:0 15:0 16:0.066666998 17:0.128134 18:0.095472001 19:0.097367004 20:0 21:0 22:0 23:0.120768 24:0.079162002 25:0.218449 26:0.20862301 27:0.54126501 28:0.197815 29:0.135895 30:0.180621 31:0.03125 32:0.047949001 33:0.008072 34:0.0086399997 35:0 36:0 37:0 38:0.018325999 39:0.04803 40:0.081563003 41:0.082657002 42:0.22433101 43:0.170982 44:0.076191999 45:0.119582 #docid = 65785
0.050000000000000003 1:0.33333299 2:0.35810399 3:0.090908997 4:0.097524002 5:0 6:0 7:0 8:0.103313 9:0.28183201 10:0.17228501 11:0.177407 12:0.48249799 13:0.19972201 14:0.15711699 15:0.180014 16:0.033333 17:0.080843002 18:0.021847 19:0.022491001 20:0 21:0 22:0 23:0.027857 24:0.038174 25:0.042371999 26:0.093068004 27:0.304995 28:0.033257 29:0.041908 30:0.023003999 31:0.0625 32:0.12991799 33:3.7999998e-005 34:3.6000001e-005 35:0 36:0 37:0 38:0.0034179999 39:0.069227003 40:0.017883999 41:0.079388998 42:0.217225 43:0.120099 44:0.080357999 45:0.082447 #docid = 253334
0.040000000000000001 1:0 2:0 3:0 4:0 5:0 6:0 7:0 8:0 9:0 10:0 11:0 12:0 13:0 14:0 15:0 16:0.033333 17:0.080843002 18:0.107408 19:0.109375 20:0 21:0 22:0 23:0.130427 24:0.038174 25:0.152344 26:0.19090199 27:0.51528102 28:0.238965 29:0.111034 30:0.161459 31:0 32:0 33:0.0063339998 34:0.0067719999 35:0 36:0 37:0 38:0.013792 39:0.0087489998 40:0.037062999 41:0.047738001 42:0.142203 43:0.193196 44:0.046434999 45:0.073774002 #docid = 10285
-0.19000000000000003 1:0 2:0 3:0 4:0 5:0 6:0 7:0 8:0 9:0 10:0 11:0 12:0 13:0 14:0 15:0 16:0.66666698 17:0.82948202 18:1 19:1 20:0 21:0 22:0 23:1 24:0.51130199 25:0.94309902 26:1 27:1 28:1 29:1 30:1 31:0.57142901 32:0.73059797 33:0.55555499 34:0.597103 35:0 36:0 37:0 38:0.43823999 39:0.46709901 40:0.72523397 41:1 42:1 43:1 44:1 45:1 #docid = 8726
-0.27000000000000007 1:1 2:1 3:0.75000101 4:0.775662 5:0 6:0 7:0 8:0.48247501 9:0.40658 10:0.311905 11:0.38080099 12:0.63383102 13:0 14:0.01698 15:0.01698 16:1 17:1 18:0.48912901 19:0.49325201 20:0 21:0 22:0 23:0.62618399 24:1 25:0.70678002 26:0.84815198 27:0.94547302 28:0.82030302 29:0.77463698 30:0.786924 31:1 32:1 33:0.36458501 34:0.39383101 35:0 36:0 37:0 38:0.34303501 39:1 40:0.60035998 41:0.93681502 42:0.97812802 43:0.86250198 44:0.83513898 45:0.86475003 #docid = 334142
-0.14999999999999999 1:1 2:1 3:0.33333299 4:0.36624101 5:0 6:0 7:0 8:0.51370198 9:1 10:0.88265097 11:0.70702201 12:0.86851197 13:0.896797 14:0.83357799 15:0.83357799 16:0.33333299 17:0.46275601 18:0.60000199 19:0.60284501 20:0 21:0 22:0 23:0.77959198 24:0.34595799 25:1 26:0.80151999 27:0.92675 28:0.839046 29:0.75552303 30:0.79072303 31:0.42857099 32:0.526802 33:0.44117501 34:0.47249401 35:0 36:0 37:0 38:0.49078399 39:0.55550802 40:0.87099397 41:0.92932802 42:0.97543901 43:0.85428202 44:0.78213501 45:0.79695702 #docid = 22813
0.080000000000000002 1:1 2:1 3:1 4:1 5:0 6:0 7:0 8:1 9:1 10:1 11:1 12:1 13:1 14:1 15:1 16:0.5 17:0.46275601 18:0.450001 19:0.447817 20:0 21:0 22:0 23:0.80513698 24:0.78499401 25:0.99213701 26:0.75158602 27:0.90545303 28:0.66379398 29:0.54948801 30:0.57854903 31:0.57142901 32:0.473198 33:0.37735999 34:0.39906901 35:0 36:0 37:0 38:0.50428498 39:0.96123099 40:0.863796 41:0.82055598 42:0.933725 43:0.68491697 44:0.58296698 45:0.61035901 #docid = 171462
0.02 1:0 2:0 3:0 4:0 5:0 6:0 7:0 8:0 9:0 10:0 11:0 12:0 13:0 14:0 15:0 16:0.5 17:0.598104 18:0.38135299 19:0.385373 20:0 21:0 22:0 23:0.58734399 24:0.60762203 25:0.93530703 26:0.79547 27:0.92424101 28:0.76454902 29:0.69332898 30:0.68529898 31:0.42857099 32:0.526802 33:0.22059 34:0.239061 35:0 36:0 37:0 38:0.268154 39:0.55550802 40:0.75493801 41:0.79752302 42:0.92418402 43:0.75497597 44:0.69442701 45:0.69044799 #docid = 16139
-0.070000000000000007 1:0 2:0 3:0 4:0 5:0 6:0 7:0 8:0 9:0 10:0 11:0 12:0 13:0 14:0 15:0 16:0.66666698 17:0.82948202 18:0.33708099 19:0.34253499 20:0 21:0 22:0 23:0.39883199 24:0.57431799 25:0.85186899 26:0.77572602 27:0.91592002 28:0.88758999 29:0.86005402 30:0.85854697 31:0.57142901 32:0.73059797 33:0.206185 34:0.22444899 35:0 36:0 37:0 38:0.189959 39:0.524279 40:0.67735398 41:0.79267502 42:0.92214 43:0.88310099 44:0.86423701 45:0.86407602 #docid = 322600
-0.21000000000000005 1:1 2:1 3:0.60000098 4:0.633762 5:0 6:0 7:0 8:0.75198299 9:1 10:0.94543302 11:0.878636 12:0.95092899 13:0.96435499 14:0.92261797 15:0.92261797 16:0 17:0 18:0 19:0 20:0 21:0 22:0 23:0 24:0 25:0 26:0 27:0 28:0 29:0 30:0 31:0.142857 32:0.203795 33:1 34:1 35:0 36:0 37:0 38:1 39:0.240308 40:1 41:0.74379802 42:0.90081298 43:0.80072999 44:0.64625299 45:0.71374601 #docid = 20241
0.13999999999999999 1:1 2:1 3:0.60000098 4:0.633762 5:0 6:0 7:0 8:0.75198299 9:1 10:0.94543302 11:0.878636 12:0.95092899 13:0.96435499 14:0.92261797 15:0.92261797 16:0 17:0 18:0 19:0 20:0 21:0 22:0 23:0 24:0 25:0 26:0 27:0 28:0 29:0 30:0 31:0.142857 32:0.203795 33:1 34:1 35:0 36:0 37:0 38:1 39:0.240308 40:1 41:0.74379802 42:0.90081298 43:0.80072999 44:0.64625299 45:0.71374601 #docid = 206276
0.089999999999999997 1:1 2:1 3:0.60000098 4:0.633762 5:0 6:0 7:0 8:0.75198299 9:1 10:0.94543302 11:0.878636 12:0.95092899 13:0.96435499 14:0.92261797 15:0.92261797 16:0 17:0 18:0 19:0 20:0 21:0 22:0 23:0 24:0 25:0 26:0 27:0 28:0 29:0 30:0 31:0.142857 32:0.203795 33:1 34:1 35:0 36:0 37:0 38:1 39:0.240308 40:1 41:0.74379802 42:0.90081298 43:0.80072999 44:0.64625299 45:0.71374601 #docid = 223934
0.18000000000000002 1:1 2:1 3:0.60000098 4:0.633762 5:0 6:0 7:0 8:0.75198299 9:1 10:0.94543302 11:0.878636 12:0.95092899 13:0.96435499 14:0.92261797 15:0.92261797 16:0 17:0 18:0 19:0 20:0 21:0 22:0 23:0 24:0 25:0 26:0 27:0 28:0 29:0 30:0 31:0.142857 32:0.203795 33:1 34:1 35:0 36:0 37:0 38:1 39:0.240308 40:1 41:0.74379802 42:0.90081298 43:0.80072999 44:0.64625299 45:0.71374601 #docid = 51481
0.080000000000000002 1:1 2:1 3:0.60000098 4:0.633762 5:0 6:0 7:0 8:0.75198299 9:1 10:0.94543302 11:0.878636 12:0.95092899 13:0.96435499 14:0.92261797 15:0.92261797 16:0 17:0 18:0 19:0 20:0 21:0 22:0 23:0 24:0 25:0 26:0 27:0 28:0 29:0 30:0 31:0.142857 32:0.203795 33:1 34:1 35:0 36:0 37:0 38:1 39:0.240308 40:1 41:0.74379802 42:0.90081298 43:0.80072999 44:0.64625299 45:0.71374601 #docid = 161957
0.040000000000000001 1:1 2:1 3:0.50000203 4:0.53583801 5:0 6:0 7:0 8:0.67227799 9:1 10:0.92595899 11:0.82836902 12:0.92858601 13:0.947016 14:0.89499903 15:0.89499903 16:0 17:0 18:0 19:0 20:0 21:0 22:0 23:0 24:0 25:0 26:0 27:0 28:0 29:0 30:0 31:0.142857 32:0.203795 33:0.83333498 34:0.84548801 35:0 36:0 37:0 38:0.89022398 39:0.240308 40:0.97450697 41:0.73736399 42:0.89790201 43:0.79546499 44:0.634413 45:0.70407301 #docid = 348151
-0.010000000000000004 1:1 2:1 3:0.50000203 4:0.53583801 5:0 6:0 7:0 8:0.67227799 9:1 10:0.92595899 11:0.82836902 12:0.92858601 13:0.947016 14:0.89499903 15:0.89499903 16:0.166667 17:0.231378 18:0.19230799 19:0.19457699 20:0 21:0 22:0 23:0.38821301 24:0.261664 25:0.85531002 26:0.54643899 27:0.79991698 28:0.64460099 29:0.49612001 30:0.54399598 31:0.285714 32:0.32300699 33:0.22222 34:0.238507 35:0 36:0 37:0 38:0.32758999 39:0.480616 40:0.78989601 41:0.71358597 42:0.886917 43:0.67478698 44:0.54858202 45:0.58878702 #docid = 161988
0.089999999999999997 1:0 2:0 3:0 4:0 5:0 6:0 7:0 8:0 9:0 10:0 11:0 12:0 13:0 14:0 15:0 16:0.33333299 17:0.36672601 18:0.319148 19:0.32027099 20:0 21:0 22:0 23:0.60534602 24:0.52332902 25:0.93679303 26:0.67931199 27:0.871979 28:0.65309101 29:0.52791899 30:0.54292297 31:0.285714 32:0.32300699 33:0.19608 34:0.210978 35:0 36:0 37:0 38:0.294346 39:0.480616 40:0.77244598 41:0.696105 42:0.87860602 43:0.65689301 44:0.54045498 45:0.54894203 #docid = 300401
-0.050000000000000003 1:0 2:0 3:0 4:0 5:0 6:0 7:0 8:0 9:0 10:0 11:0 12:0 13:0 14:0 15:0 16:0.5 17:0.46275601 18:0.216346 19:0.218555 20:0 21:0 22:0 23:0.43140101 24:0.78499401 25:0.87424099 26:0.63664699 27:0.85050398 28:0.53928399 29:0.50351298 30:0.506262 31:0.42857099 32:0.40759 33:0.136365 34:0.14758 35:0 36:0 37:0 38:0.21382 39:0.72092301 40:0.72186399 41:0.65871799 42:0.86010599 43:0.54221398 44:0.51687098 45:0.51141399 #docid = 73101
-0.060000000000000005 1:0 2:0 3:0 4:0 5:0 6:0 7:0 8:0 9:0 10:0 11:0 12:0 13:0 14:0 15:0 16:0.33333299 17:0.46275601 18:0.405406 19:0.40990499 20:0 21:0 22:0 23:0.46081701 24:0.284675 25:0.60252899 26:0.601013 27:0.83143401 28:0.70139998 29:0.58314699 30:0.63862902 31:0.285714 32:0.40759 33:0.25 34:0.27086699 35:0 36:0 37:0 38:0.222828 39:0.26131099 40:0.494176 41:0.61651897 42:0.83792001 43:0.71111703 44:0.597408 45:0.65124899 #docid = 225875
-0.070000000000000007 1:0 2:0 3:0 4:0 5:0 6:0 7:0 8:0 9:0 10:0 11:0 12:0 13:0 14:0 15:0 16:0.166667 17:0.231378 18:0.267856 19:0.26968601 20:0 21:0 22:0 23:0.520634 24:0.261664 25:0.90859199 26:0.59409398 27:0.82760102 28:0.68264401 29:0.51691997 30:0.58678102 31:0.142857 32:0.203795 33:0.15625 34:0.168778 35:0 36:0 37:0 38:0.24139 39:0.240308 40:0.74081302 41:0.60198402 42:0.829925 43:0.68403298 44:0.525711 45:0.57983398 #docid = 161788
0.01 1:0 2:0 3:0 4:0 5:0 6:0 7:0 8:0 9:0 10:0 11:0 12:0 13:0 14:0 15:0 16:0.33333299 17:0.36672601 18:0.176468 19:0.178738 20:0 21:0 22:0 23:0.35918999 24:0.52332902 25:0.84150398 26:0.57949698 27:0.81936502 28:0.557769 29:0.49072501 30:0.522829 31:0.285714 32:0.32300699 33:0.11111 34:0.12055 35:0 36:0 37:0 38:0.177634 39:0.480616 40:0.69338697 41:0.60048997 42:0.82909203 43:0.56148601 44:0.503573 45:0.53640097 #docid = 228938
0.050000000000000003 1:0 2:0 3:0 4:0 5:0 6:0 7:0 8:0 9:0 10:0 11:0 12:0 13:0 14:0 15:0 16:0.5 17:0.69413501 18:0.133928 19:0.13683 20:0 21:0 22:0 23:0.19492 24:0.518179 25:0.74018699 26:0.55730098 27:0.80643398 28:0.822133 29:0.82516599 30:0.76926601 31:0.42857099 32:0.61138499 33:0.08721 34:0.095385998 35:0 36:0 37:0 38:0.099073 39:0.475743 40:0.59594101 41:0.59882402 42:0.828161 43:0.82896 44:0.841398 45:0.78813797 #docid = 74288
-0.060000000000000005 1:0 2:0 3:0 4:0 5:0 6:0 7:0 8:0 9:0 10:0 11:0 12:0 13:0 14:0 15:0 16:0.166667 17:0.231378 18:0.28846601 19:0.29004401 20:0 21:0 22:0 23:0.55513901 24:0.261664 25:0.92051899 26:0.60366601 27:0.832892 28:0.69013399 29:0.52157301 30:0.55711401 31:0.142857 32:0.203795 33:0.15151501 34:0.163738 35:0 36:0 37:0 38:0.234896 39:0.240308 40:0.73652798 41:0.597763 42:0.82756698 43:0.68049097 44:0.52371299 45:0.53997302 #docid = 120130
-0.080000000000000002 1:1 2:1 3:0.42857099 4:0.46416199 5:0 6:0 7:0 8:0.60887599 9:1 10:0.90949303 11:0.78354198 12:0.90748602 13:0.92998302 14:0.871647 15:0.871647 16:0.33333299 17:0.36672601 18:0.099997997 19:0.101792 20:0 21:0 22:0 23:0.212148 24:0.52332902 25:0.750453 26:0.46310401 27:0.74513298 28:0.44442999 29:0.455071 30:0.42692599 31:0.42857099 32:0.40759 33:0.095540002 34:0.103816 35:0 36:0 37:0 38:0.15462799 39:0.72092301 40:0.67241901 41:0.58758599 42:0.82181299 43:0.46696201 44:0.49377 45:0.46268401 #docid = 626
-0.060000000000000005 1:0 2:0 3:0 4:0 5:0 6:0 7:0 8:0 9:0 10:0 11:0 12:0 13:0 14:0 15:0 16:0.166667 17:0.231378 18:0.258623 19:0.260548 20:0 21:0 22:0 23:0.50495201 24:0.261664 25:0.902946 26:0.58942097 27:0.82498598 28:0.67897099 29:0.514718 30:0.54584098 31:0.142857 32:0.203795 33:0.13513499 34:0.14626899 35:0 36:0 37:0 38:0.21209 39:0.240308 40:0.72060502 41:0.58145398 42:0.81829703 43:0.66673899 44:0.51628399 45:0.51395601 #docid = 102780
0.02 1:0 2:0 3:0 4:0 5:0 6:0 7:0 8:0 9:0 10:0 11:0 12:0 13:0 14:0 15:0 16:0.33333299 17:0.46275601 18:0.13158 19:0.13424 20:0 21:0 22:0 23:0.20579199 24:0.37584499 25:0.732813 26:0.50695902 27:0.77508903 28:0.66192198 29:0.63132298 30:0.613657 31:0.285714 32:0.40759 33:0.083334997 34:0.091036998 35:0 36:0 37:0 38:0.101804 39:0.34484699 40:0.59255201 41:0.53221899 42:0.78864801 43:0.66380101 44:0.64184397 45:0.62060302 #docid = 233143
-0.050000000000000003 1:0 2:0 3:0 4:0 5:0 6:0 7:0 8:0 9:0 10:0 11:0 12:0 13:0 14:0 15:0 16:0.166667 17:0.231378 18:0.16304301 19:0.165281 20:0 21:0 22:0 23:0.334216 24:0.261664 25:0.82879698 26:0.51990002 27:0.78343397 28:0.622769 29:0.48575699 30:0.54120898 31:0.142857 32:0.203795 33:0.09804 34:0.106504 35:0 36:0 37:0 38:0.158356 39:0.240308 40:0.67600203 41:0.53077102 42:0.78773499 43:0.62313998 44:0.495446 45:0.551364 #docid = 219289
-0.01 1:1 2:1 3:0.33333299 4:0.36624101 5:0 6:0 7:0 8:0.292377 9:0.47409499 10:0.30052599 11:0.33627501 12:0.58667099 13:0.019956 14:0 15:0 16:0.33333299 17:0.36672601 18:0.075758003 19:0.077238001 20:0 21:0 22:0 23:0.16294301 24:0.52332902 25:0.70611298 26:0.40328699 27:0.69934398 28:0.38240001 29:0.43764499 30:0.41082999 31:0.42857099 32:0.526802 33:0.072465003 34:0.079172999 35:0 36:0 37:0 38:0.097254001 39:0.57191497 40:0.59146798 41:0.52674198 42:0.78518099 43:0.55351198 44:0.58926898 45:0.563003 #docid = 272973
-0.040000000000000001 1:0 2:0 3:0 4:0 5:0 6:0 7:0 8:0 9:0 10:0 11:0 12:0 13:0 14:0 15:0 16:0.166667 17:0.231378 18:0.14706001 19:0.149234 20:0 21:0 22:0 23:0.30403101 24:0.261664 25:0.81223702 26:0.50247002 27:0.77214402 28:0.60812801 29:0.47927999 30:0.50318301 31:0.142857 32:0.203795 33:0.084744997 34:0.092183001 35:0 36:0 37:0 38:0.138348 39:0.240308 40:0.65578502 41:0.505588 42:0.77144498 43:0.60086697 44:0.48598501 45:0.48624301 #docid = 27496
-0.01 1:0 2:0 3:0 4:0 5:0 6:0 7:0 8:0 9:0 10:0 11:0 12:0 13:0 14:0 15:0 16:0.166667 17:0.231378 18:0.111938 19:0.113858 20:0 21:0 22:0 23:0.23590399 24:0.261664 25:0.76850301 26:0.45378399 27:0.73840302 28:0.565723 29:0.46215099 30:0.471306 31:0.142857 32:0.203795 33:0.071429998 34:0.077802002 35:0 36:0 37:0 38:0.117879 39:0.240308 40:0.632101 41:0.47462401 42:0.75026703 43:0.57277501 44:0.47488499 45:0.47910801 #docid = 24801
-0.040000000000000001 1:0 2:0 3:0 4:0 5:0 6:0 7:0 8:0 9:0 10:0 11:0 12:0 13:0 14:0 15:0 16:0.33333299 17:0.36672601 18:0.072818004 19:0.074256003 20:0 21:0 22:0 23:0.15687899 24:0.52332902 25:0.699799 26:0.394788 27:0.69229198 28:0.373245 29:0.43515801 30:0.42631099 31:0.285714 32:0.32300699 33:0.046950001 34:0.051261 35:0 36:0 37:0 38:0.079080001 39:0.480616 40:0.57416701 41:0.41898301 42:0.70848203 43:0.37725699 44:0.44763801 45:0.437875 #docid = 302000
-0.040000000000000001 1:0 2:0 3:0 4:0 5:0 6:0 7:0 8:0 9:0 10:0 11:0 12:0 13:0 14:0 15:0 16:0.33333299 17:0.36672601 18:0.072113 19:0.073541 20:0 21:0 22:0 23:0.155433 24:0.52332902 25:0.698259 26:0.392719 27:0.690552 28:0.37100101 29:0.43455201 30:0.40014499 31:0.285714 32:0.32300699 33:0.046950001 34:0.051261 35:0 36:0 37:0 38:0.079080001 39:0.480616 40:0.57416701 41:0.41898301 42:0.70848203 43:0.37725699 44:0.44763801 45:0.41175899 #docid = 161172
0.029999999999999999 1:0 2:0 3:0 4:0 5:0 6:0 7:0 8:0 9:0 10:0 11:0 12:0 13:0 14:0 15:0 16:0.166667 17:0.231378 18:0.080647998 19:0.082194999 20:0 21:0 22:0 23:0.172971 24:0.261664 25:0.71608597 26:0.39205599 27:0.68999201 28:0.50785702 29:0.441569 30:0.418109 31:0.142857 32:0.203795 33:0.05102 34:0.055682 35:0 36:0 37:0 38:0.085643001 39:0.240308 40:0.58562303 41:0.410613 42:0.70171899 43:0.51149702 44:0.45303801 45:0.42126301 #docid = 59975
0.040000000000000001 1:0 2:0 3:0 4:0 5:0 6:0 7:0 8:0 9:0 10:0 11:0 12:0 13:0 14:0 15:0 16:0.166667 17:0.231378 18:0.048705 19:0.049747001 20:0 21:0 22:0 23:0.106408 24:0.261664 25:0.63589001 26:0.297203 27:0.59828699 28:0.40540901 29:0.409913 30:0.410739 31:0.142857 32:0.203795 33:0.030865001 34:0.033753 35:0 36:0 37:0 38:0.052710999 39:0.240308 40:0.51666701 41:0.31386 42:0.61167502 43:0.40649101 44:0.420407 45:0.41669101 #docid = 189022
0.019999999999999997 1:0 2:0 3:0 4:0 5:0 6:0 7:0 8:0 9:0 10:0 11:0 12:0 13:0 14:0 15:0 16:0.33333299 17:0.46275601 18:0.102038 19:0.104205 20:0 21:0 22:0 23:0.092928 24:0.214559 25:0.064095996 26:0.249521 27:0.54039001 28:0.33349499 29:0.243642 30:0.27232799 31:0.285714 32:0.40759 33:0.064934999 34:0.071001001 35:0 36:0 37:0 38:0.045892999 39:0.195839 40:0.045508999 41:0.26208401 42:0.55125999 43:0.33340099 44:0.24473301 45:0.27319601 #docid = 152707
-0.01 1:0 2:0 3:0 4:0 5:0 6:0 7:0 8:0 9:0 10:0 11:0 12:0 13:0 14:0 15:0 16:0.5 17:0.46275601 18:0.182925 19:0.185201 20:0 21:0 22:0 23:0.127984 24:0.25288001 25:0.048402 26:0.191548 27:0.45285001 28:0.204124 29:0.100521 30:0.113873 31:0.42857099 32:0.40759 33:0.113635 34:0.12326 35:0 36:0 37:0 38:0.060245 39:0.224676 40:0.033495001 41:0.190404 42:0.444188 43:0.199738 44:0.100438 45:0.121087 #docid = 5002
-0.01 1:0 2:0 3:0 4:0 5:0 6:0 7:0 8:0 9:0 10:0 11:0 12:0 13:0 14:0 15:0 16:0.33333299 17:0.46275601 18:0.072465003 19:0.074078999 20:0 21:0 22:0 23:0.057080999 24:0.184673 25:0.028752999 26:0.171455 27:0.416161 28:0.208342 29:0.146217 30:0.149175 31:0.285714 32:0.40759 33:0.046294998 34:0.050669 35:0 36:0 37:0 38:0.027896 39:0.166191 40:0.020338999 41:0.17864799 42:0.42283201 43:0.2066 44:0.145293 45:0.14864901 #docid = 346765
0.02 1:0 2:0 3:0 4:0 5:0 6:0 7:0 8:0 9:0 10:0 11:0 12:0 13:0 14:0 15:0 16:0.166667 17:0.231378 18:0.19736999 19:0.199626 20:0 21:0 22:0 23:0.137715 24:0.084293 25:0.051670998 26:0.17452601 27:0.422039 28:0.347835 29:0.105105 30:0.20768601 31:0.142857 32:0.203795 33:0.12195 34:0.132173 35:0 36:0 37:0 38:0.064508997 39:0.074891999 40:0.035657998 41:0.172878 42:0.41182899 43:0.35050201 44:0.104818 45:0.205117 #docid = 140549
-0.02 1:0 2:0 3:0 4:0 5:0 6:0 7:0 8:0 9:0 10:0 11:0 12:0 13:0 14:0 15:0 16:0.166667 17:0.231378 18:0.030734999 19:0.031433001 20:0 21:0 22:0 23:0.022143999 24:0.084293 25:0.0092160003 26:0.069443002 27:0.116926 28:0 29:0 30:0 31:0.142857 32:0.203795 33:0.01984 34:0.02172 35:0 36:0 37:0 38:0.010794 39:0.074891999 40:0.0064559998 41:0.072003998 42:0.11832 43:0 44:0 45:0 #docid = 155151
0.050000000000000003 1:0 2:0 3:0 4:0 5:0 6:0 7:0 8:0 9:0 10:0 11:0 12:0 13:0 14:0 15:0 16:0 17:0 18:0 19:0 20:0 21:0 22:0 23:0 24:0 25:0 26:0 27:0 28:0 29:0 30:0 31:0 32:0 33:0 34:0 35:0 36:0 37:0 38:0 39:0 40:0 41:0 42:0 43:0 44:0 45:0 #docid = 77678
0.040000000000000001 1:0 2:0 3:0 4:0 5:0 6:0 7:0 8:0 9:0 10:0 11:0 12:0 13:0 14:0 15:0 16:0 17:0 18:0 19:0 20:0 21:0 22:0 23:0 24:0 25:0 26:0 27:0 28:0 29:0 30:0 31:0 32:0 33:0 34:0 35:0 36:0 37:0 38:0 39:0 40:0 41:0 42:0 43:0 44:0 45:0 #docid = 78819
0.040000000000000001 1:0 2:0 3:0 4:0 5:0 6:0 7:0 8:0 9:0 10:0 11:0 12:0 13:0 14:0 15:0 16:0 17:0 18:0 19:0 20:0 21:0 22:0 23:0 24:0 25:0 26:0 27:0 28:0 29:0 30:0 31:0 32:0 33:0 34:0 35:0 36:0 37:0 38:0 39:0 40:0 41:0 42:0 43:0 44:0 45:0 #docid = 272492
-0.02 1:0 2:0 3:0 4:0 5:0 6:0 7:0 8:0 9:0 10:0 11:0 12:0 13:0 14:0 15:0 16:0 17:0 18:0 19:0 20:0 21:0 22:0 23:0 24:0 25:0 26:0 27:0 28:0 29:0 30:0 31:0 32:0 33:0 34:0 35:0 36:0 37:0 38:0 39:0 40:0 41:0 42:0 43:0 44:0 45:0 #docid = 144466
-0.01 1:0 2:0 3:0 4:0 5:0 6:0 7:0 8:0 9:0 10:0 11:0 12:0 13:0 14:0 15:0 16:0 17:0 18:0 19:0 20:0 21:0 22:0 23:0 24:0 25:0 26:0 27:0 28:0 29:0 30:0 31:0 32:0 33:0 34:0 35:0 36:0 37:0 38:0 39:0 40:0 41:0 42:0 43:0 44:0 45:0 #docid = 145118
0.099999999999999992 1:0 2:0 3:0 4:0 5:0 6:0 7:0 8:0 9:0 10:0 11:0 12:0 13:0 14:0 15:0 16:0 17:0 18:0 19:0 20:0 21:0 22:0 23:0 24:0 25:0 26:0 27:0 28:0 29:0 30:0 31:0 32:0 33:0 34:0 35:0 36:0 37:0 38:0 39:0 40:0 41:0 42:0 43:0 44:0 45:0 #docid = 247192
0.099999999999999992 1:0 2:0 3:0 4:0 5:0 6:0 7:0 8:0 9:0 10:0 11:0 12:0 13:0 14:0 15:0 16:0 17:0 18:0 19:0 20:0 21:0 22:0 23:0 24:0 25:0 26:0 27:0 28:0 29:0 30:0 31:0 32:0 33:0 34:0 35:0 36:0 37:0 38:0 39:0 40:0 41:0 42:0 43:0 44:0 45:0 #docid = 279743
-0.01 1:0 2:0 3:0 4:0 5:0 6:0 7:0 8:0 9:0 10:0 11:0 12:0 13:0 14:0 15:0 16:0 17:0 18:0 19:0 20:0 21:0 22:0 23:0 24:0 25:0 26:0 27:0 28:0 29:0 30:0 31:0 32:0 33:0 34:0 35:0 36:0 37:0 38:0 39:0 40:0 41:0 42:0 43:0 44:0 45:0 #docid = 125867
-0.01 1:0 2:0 3:0 4:0 5:0 6:0 7:0 8:0 9:0 10:0 11:0 12:0 13:0 14:0 15:0 16:0 17:0 18:0 19:0 20:0 21:0 22:0 23:0 24:0 25:0 26:0 27:0 28:0 29:0 30:0 31:0 32:0 33:0 34:0 35:0 36:0 37:0 38:0 39:0 40:0 41:0 42:0 43:0 44:0 45:0 #docid = 344408
0.040000000000000001 1:0 2:0 3:0 4:0 5:0 6:0 7:0 8:0 9:0 10:0 11:0 12:0 13:0 14:0 15:0 16:0 17:0 18:0 19:0 20:0 21:0 22:0 23:0 24:0 25:0 26:0 27:0 28:0 29:0 30:0 31:0 32:0 33:0 34:0 35:0 36:0 37:0 38:0 39:0 40:0 41:0 42:0 43:0 44:0 45:0 #docid = 199156
0.040000000000000001 1:0 2:0 3:0 4:0 5:0 6:0 7:0 8:0 9:0 10:0 11:0 12:0 13:0 14:0 15:0 16:0 17:0 18:0 19:0 20:0 21:0 22:0 23:0 24:0 25:0 26:0 27:0 28:0 29:0 30:0 31:0 32:0 33:0 34:0 35:0 36:0 37:0 38:0 39:0 40:0 41:0 42:0 43:0 44:0 45:0 #docid = 54566
0.099999999999999992 1:0 2:0 3:0 4:0 5:0 6:0 7:0 8:0 9:0 10:0 11:0 12:0 13:0 14:0 15:0 16:0 17:0 18:0 19:0 20:0 21:0 22:0 23:0 24:0 25:0 26:0 27:0 28:0 29:0 30:0 31:0 32:0 33:0 34:0 35:0 36:0 37:0 38:0 39:0 40:0 41:0 42:0 43:0 44:0 45:0 #docid = 302722
-0.01 1:0 2:0 3:0 4:0 5:0 6:0 7:0 8:0 9:0 10:0 11:0 12:0 13:0 14:0 15:0 16:0 17:0 18:0 19:0 20:0 21:0 22:0 23:0 24:0 25:0 26:0 27:0 28:0 29:0 30:0 31:0 32:0 33:0 34:0 35:0 36:0 37:0 38:0 39:0 40:0 41:0 42:0 43:0 44:0 45:0 #docid = 4163
-0.01 1:0 2:0 3:0 4:0 5:0 6:0 7:0 8:0 9:0 10:0 11:0 12:0 13:0 14:0 15:0 16:0 17:0 18:0 19:0 20:0 21:0 22:0 23:0 24:0 25:0 26:0 27:0 28:0 29:0 30:0 31:0 32:0 33:0 34:0 35:0 36:0 37:0 38:0 39:0 40:0 41:0 42:0 43:0 44:0 45:0 #docid = 49464
0.040000000000000001 1:0 2:0 3:0 4:0 5:0 6:0 7:0 8:0 9:0 10:0 11:0 12:0 13:0 14:0 15:0 16:0 17:0 18:0 19:0 20:0 21:0 22:0 23:0 24:0 25:0 26:0 27:0 28:0 29:0 30:0 31:0 32:0 33:0 34:0 35:0 36:0 37:0 38:0 39:0 40:0 41:0 42:0 43:0 44:0 45:0 #docid = 210014
0.040000000000000001 1:0 2:0 3:0 4:0 5:0 6:0 7:0 8:0 9:0 10:0 11:0 12:0 13:0 14:0 15:0 16:0 17:0 18:0 19:0 20:0 21:0 22:0 23:0 24:0 25:0 26:0 27:0 28:0 29:0 30:0 31:0 32:0 33:0 34:0 35:0 36:0 37:0 38:0 39:0 40:0 41:0 42:0 43:0 44:0 45:0 #docid = 74596
0.040000000000000001 1:0 2:0 3:0 4:0 5:0 6:0 7:0 8:0 9:0 10:0 11:0 12:0 13:0 14:0 15:0 16:0 17:0 18:0 19:0 20:0 21:0 22:0 23:0 24:0 25:0 26:0 27:0 28:0 29:0 30:0 31:0 32:0 33:0 34:0 35:0 36:0 37:0 38:0 39:0 40:0 41:0 42:0 43:0 44:0 45:0 #docid = 61975
0.040000000000000001 1:0 2:0 3:0 4:0 5:0 6:0 7:0 8:0 9:0 10:0 11:0 12:0 13:0 14:0 15:0 16:0 17:0 18:0 19:0 20:0 21:0 22:0 23:0 24:0 25:0 26:0 27:0 28:0 29:0 30:0 31:0 32:0 33:0 34:0 35:0 36:0 37:0 38:0 39:0 40:0 41:0 42:0 43:0 44:0 45:0 #docid = 72479
-0.050000000000000003 1:0.5 2:0.5 3:1 4:0.93312103 5:0 6:0 7:0 8:1 9:1 10:1 11:1 12:1 13:1 14:1 15:1 16:0 17:0 18:0 19:0 20:0 21:0 22:0 23:0 24:0 25:0 26:0 27:0 28:0 29:0 30:0 31:0.0625 32:0.15773199 33:1 34:1 35:0 36:0 37:0 38:1 39:0.240484 40:1 41:1 42:1 43:1 44:1 45:1 #docid = 336983
-0.040000000000000001 1:0.5 2:0.5 3:0.60000098 4:0.59137702 5:0 6:0 7:0 8:0.75864398 9:1 10:0.951648 11:0.878636 12:0.95272797 13:0.981727 14:0.942945 15:0.942945 16:0 17:0 18:0 19:0 20:0 21:0 22:0 23:0 24:0 25:0 26:0 27:0 28:0 29:0 30:0 31:0.0625 32:0.15773199 33:0.60000098 34:0.633762 35:0 36:0 37:0 38:0.75327897 39:0.240484 40:0.94670302 41:0.98255002 42:0.99384898 43:0.988841 44:0.95668799 45:0.96200597 #docid = 206871
0.18000000000000002 1:0.5 2:0.5 3:0.1875 4:0.196642 5:0 6:0 7:0 8:0.34505701 9:1 10:0.84155601 11:0.52691698 12:0.76591003 13:0.89178699 14:0.81303102 15:0.81303102 16:0 17:0 18:0 19:0 20:0 21:0 22:0 23:0 24:0 25:0 26:0 27:0 28:0 29:0 30:0 31:0.0625 32:0.15773199 33:0.1875 34:0.21073601 35:0 36:0 37:0 38:0.33701 39:0.240484 40:0.82536 41:0.89650702 42:0.96182698 43:0.93391502 44:0.85806501 45:0.87549299 #docid = 246182
-0.040000000000000001 1:0 2:0 3:0 4:0 5:0 6:0 7:0 8:0 9:0 10:0 11:0 12:0 13:0 14:0 15:0 16:0.071428999 17:0.166667 18:0.30462301 19:0.307421 20:0 21:0 22:0 23:1 24:0.27199399 25:1 26:1 27:1 28:1 29:1 30:0.99783403 31:0.0625 32:0.15773199 33:0.081081003 34:0.092699997 35:0 36:0 37:0 38:0.167145 39:0.240484 40:0.73793501 41:0.76809502 42:0.90781099 43:0.85069102 44:0.78698498 45:0.75094998 #docid = 238208
-0.02 1:0 2:0 3:0 4:0 5:0 6:0 7:0 8:0 9:0 10:0 11:0 12:0 13:0 14:0 15:0 16:0.071428999 17:0.166667 18:0.230156 19:0.23309 20:0 21:0 22:0 23:0.78047198 24:0.27199399 25:0.96326602 26:0.92314798 27:0.96961403 28:0.95724201 29:0.970779 30:1 31:0.0625 32:0.15773199 33:0.058823999 34:0.067497998 35:0 36:0 37:0 38:0.125319 39:0.240484 40:0.70448297 41:0.70114303 42:0.87594497 43:0.80573899 44:0.759776 45:0.74594897 #docid = 303884
-0.01 1:0 2:0 3:0 4:0 5:0 6:0 7:0 8:0 9:0 10:0 11:0 12:0 13:0 14:0 15:0 16:0.071428999 17:0.166667 18:0.199178 19:0.202006 20:0 21:0 22:0 23:0.68494397 24:0.27199399 25:0.94432098 26:0.88010597 27:0.95147002 28:0.93253899 29:0.95570701 30:0.945297 31:0.0625 32:0.15773199 33:0.051723 34:0.059420001 35:0 36:0 37:0 38:0.111399 39:0.240484 40:0.69107997 41:0.67186099 42:0.86103898 43:0.78555101 44:0.74887103 45:0.70230699 #docid = 145688
-0.050000000000000003 1:1 2:1 3:0.75000101 4:0.76407802 5:0 6:0 7:0 8:0.486397 9:0.64934403 10:0.35519099 11:0.485434 12:0.73595101 13:0.256441 14:0.432064 15:0.432064 16:0.57142901 17:0.88698798 18:0.73324198 19:0.74022698 20:0 21:0 22:0 23:0.73877698 24:0.604927 25:0.107891 26:0.80182397 27:0.91607302 28:0.75107402 29:0.69342601 30:0.81632602 31:0.625 32:0.93170798 33:0.247935 34:0.28241301 35:0 36:0 37:0 38:0.150684 39:0.656192 40:0.080069996 41:0.646882 42:0.84780002 43:0.67839903 44:0.58092302 45:0.667979 #docid = 22741
-0.01 1:0.5 2:0.5 3:0.33333299 4:0.34174699 5:0 6:0 7:0 8:0.25370601 9:0.382476 10:0.22005001 11:0.27331999 12:0.526088 13:0.062725998 14:0.069706999 15:0.069706999 16:0.42857099 17:0.76415998 18:0.50115001 19:0.508389 20:0 21:0 22:0 23:0.52182901 24:0.46206999 25:0.082732998 26:0.70549899 27:0.86743999 28:0.67058301 29:0.60061598 30:0.73406601 31:0.4375 32:0.77397603 33:0.157896 34:0.180922 35:0 36:0 37:0 38:0.102902 39:0.48562399 40:0.060610998 41:0.56901699 42:0.80298799 43:0.59211802 44:0.489326 45:0.58477497 #docid = 13357
-0.01 1:0 2:0 3:0 4:0 5:0 6:0 7:0 8:0 9:0 10:0 11:0 12:0 13:0 14:0 15:0 16:0.071428999 17:0.166667 18:0.121851 19:0.124038 20:0 21:0 22:0 23:0.434582 24:0.27199399 25:0.87994701 26:0.72151297 27:0.87597001 28:0.835145 29:0.90447998 30:0.89446801 31:0.0625 32:0.15773199 33:0.033707999 34:0.038837999 35:0 36:0 37:0 38:0.074695997 39:0.240484 40:0.646474 41:0.56699502 42:0.80174297 43:0.70953101 44:0.712565 45:0.691064 #docid = 336134
-0.050000000000000003 1:1 2:1 3:0.85714298 4:0.86624098 5:0 6:0 7:0 8:0.542557 9:0.64934403 10:0.37621301 11:0.51170301 12:0.75520599 13:0.265021 14:0.46111301 15:0.46111301 16:0.42857099 17:0.76415998 18:0.37662601 19:0.38294101 20:0 21:0 22:0 23:0.39517799 24:0.46206999 25:0.064170003 26:0.62127203 27:0.81913 28:0.597067 29:0.51993197 30:0.63306999 31:0.5 32:0.839441 33:0.13953599 34:0.16017 35:0 36:0 37:0 38:0.087768003 39:0.531192 40:0.050487 41:0.53763002 42:0.783162 43:0.56247401 44:0.458561 45:0.54790801 #docid = 211691
-0.060000000000000005 1:1 2:1 3:0.85714298 4:0.86624098 5:0 6:0 7:0 8:0.542557 9:0.64934403 10:0.37621301 11:0.51170301 12:0.75520599 13:0.265021 14:0.46111301 15:0.46111301 16:1 17:1 18:1 19:1 20:0 21:0 22:0 23:0.92872202 24:1 25:0.107425 26:0.68633002 27:0.85697299 28:0.48973799 29:0.482003 30:0.59613502 31:1 32:1 33:0.31578901 34:0.356599 35:0 36:0 37:0 38:0.178958 39:1 40:0.078570001 41:0.53578401 42:0.78196001 43:0.442817 44:0.40389401 45:0.48352799 #docid = 87924
-0.01 1:0 2:0 3:0 4:0 5:0 6:0 7:0 8:0 9:0 10:0 11:0 12:0 13:0 14:0 15:0 16:0.57142901 17:0.76415998 18:0.53456199 19:0.540003 20:0 21:0 22:0 23:0.54117501 24:0.608383 25:0.070276998 26:0.57593799 27:0.79033899 28:0.37221599 29:0.354583 30:0.484184 31:0.5 32:0.72319698 33:0.140352 34:0.16063599 35:0 36:0 37:0 38:0.087697998 39:0.53386301 40:0.043726001 41:0.433429 42:0.70788503 43:0.309273 44:0.27170801 45:0.35932401 #docid = 186037
-0.01 1:0.5 2:0.5 3:0.42857099 4:0.433119 5:0 6:0 7:0 8:0.31072 9:0.382476 10:0.241758 11:0.302901 12:0.56363302 13:0.079737999 14:0.097442001 15:0.097442001 16:0.214286 17:0.43082699 18:0.21136799 19:0.21521001 20:0 21:0 22:0 23:0.25649899 24:0.26626101 25:0.050921999 26:0.44426501 27:0.69170201 28:0.36427301 29:0.33657601 30:0.34152299 31:0.25 32:0.47319701 33:0.077922001 34:0.089564003 35:0 36:0 37:0 38:0.058237001 39:0.31505501 40:0.040718 41:0.393215 42:0.67386198 43:0.345754 44:0.29855001 45:0.30179301 #docid = 263315
-0.01 1:1 2:1 3:0.75000101 4:0.76407802 5:0 6:0 7:0 8:0.486397 9:0.64934403 10:0.35519099 11:0.485434 12:0.73595101 13:0.256441 14:0.432064 15:0.432064 16:0.142857 17:0.26416001 18:0.195418 19:0.198231 20:0 21:0 22:0 23:0.23703 24:0.179811 25:0.037462 26:0.312911 27:0.55851501 28:0.12695 29:0.094212003 30:0.100596 31:0.25 32:0.47319701 33:0.105264 34:0.120651 35:0 36:0 37:0 38:0.070109002 39:0.28386301 40:0.037181001 41:0.37294 42:0.65536398 43:0.28600299 44:0.216979 45:0.246093 #docid = 304752
-0.01 1:0.5 2:0.5 3:0.60000098 4:0.59137702 5:0 6:0 7:0 8:0.40191299 9:0.382476 10:0.27148101 11:0.33966199 12:0.60548401 13:0.097358003 14:0.134688 15:0.134688 16:0.214286 17:0.43082699 18:0.24857099 19:0.25284699 20:0 21:0 22:0 23:0.262714 24:0.23276301 25:0.037296001 26:0.40279299 27:0.65446299 28:0.26139599 29:0.21070801 30:0.30745301 31:0.25 32:0.47319701 33:0.092307001 34:0.105943 35:0 36:0 37:0 38:0.061765 39:0.28386301 40:0.033151001 41:0.35586199 42:0.63898599 43:0.25795901 44:0.19835 45:0.274753 #docid = 236634
0.040000000000000001 1:0 2:0 3:0 4:0 5:0 6:0 7:0 8:0 9:0 10:0 11:0 12:0 13:0 14:0 15:0 16:0.214286 17:0.43082699 18:0.341443 19:0.346459 20:0 21:0 22:0 23:0.35773101 24:0.23276301 25:0.049387999 26:0.460177 27:0.705073 28:0.336456 29:0.26722899 30:0.36103901 31:0.1875 32:0.40773201 33:0.094737001 34:0.108818 35:0 36:0 37:0 38:0.061110999 39:0.204432 40:0.031948 41:0.35429299 42:0.63744301 43:0.29312199 44:0.210201 45:0.280644 #docid = 107233
-0.01 1:1 2:1 3:0.50000203 4:0.51924902 5:0 6:0 7:0 8:0.344542 9:0.64934403 10:0.29436001 11:0.40273401 12:0.667714 13:0.223542 14:0.34457701 15:0.34457701 16:0.142857 17:0.33333299 18:0.172622 19:0.176024 20:0 21:0 22:0 23:0.169866 24:0.142857 25:0.022958999 26:0.31286499 27:0.55845797 28:0.213026 29:0.150465 30:0.139608 31:0.25 32:0.5 33:0.090908997 34:0.104546 35:0 36:0 37:0 38:0.054226 39:0.25 40:0.026678 41:0.35007399 42:0.63325602 43:0.27121001 44:0.208018 45:0.240263 #docid = 95429
-0.01 1:0 2:0 3:0 4:0 5:0 6:0 7:0 8:0 9:0 10:0 11:0 12:0 13:0 14:0 15:0 16:0.214286 17:0.43082699 18:0.31705201 19:0.32191899 20:0 21:0 22:0 23:0.332939 24:0.23276301 25:0.046293002 26:0.447032 27:0.69406098 28:0.319621 29:0.253824 30:0.320274 31:0.1875 32:0.40773201 33:0.083333999 34:0.095821001 35:0 36:0 37:0 38:0.053945001 39:0.204432 40:0.028477 41:0.337412 42:0.62038398 43:0.26725501 44:0.19170401 45:0.232558 #docid = 95573
-0.01 1:0 2:0 3:0 4:0 5:0 6:0 7:0 8:0 9:0 10:0 11:0 12:0 13:0 14:0 15:0 16:0.285714 17:0.52832103 18:0.25572699 19:0.26025 20:0 21:0 22:0 23:0.250126 24:0.285714 25:0.033146001 26:0.40668699 27:0.65811902 28:0.248924 29:0.219639 30:0.33579901 31:0.25 32:0.5 33:0.070587002 34:0.081312001 35:0 36:0 37:0 38:0.042309999 39:0.25 40:0.021087 41:0.313521 42:0.594724 43:0.214085 44:0.170825 45:0.25787699 #docid = 292056
-0.01 1:0 2:0 3:0 4:0 5:0 6:0 7:0 8:0 9:0 10:0 11:0 12:0 13:0 14:0 15:0 16:0.142857 17:0.33333299 18:0.205092 19:0.208974 20:0 21:0 22:0 23:0.201342 24:0.142857 25:0.027000001 26:0.34271601 27:0.59308797 28:0.25420699 29:0.18030301 30:0.25872499 31:0.125 32:0.315465 33:0.054053999 34:0.062350001 35:0 36:0 37:0 38:0.032529999 39:0.125 40:0.016391 41:0.25859699 42:0.52743 43:0.211042 44:0.133008 45:0.189178 #docid = 166734
-0.060000000000000005 1:1 2:1 3:1 4:1 5:0 6:0 7:0 8:0.61369699 9:0.64934403 10:0.40101299 11:0.54097801 12:0.77553201 13:0.273752 14:0.49476299 15:0.49476299 16:0 17:0 18:0 19:0 20:0 21:0 22:0 23:0 24:0 25:0 26:0 27:0 28:0 29:0 30:0 31:0.125 32:0.315465 33:0.039473999 34:0.045589 35:0 36:0 37:0 38:0.023840001 39:0.125 40:0.012133 41:0.21807 42:0.46787 43:0.14269701 44:0.090666004 45:0.091507003 #docid = 293421
-0.01 1:0 2:0 3:0 4:0 5:0 6:0 7:0 8:0 9:0 10:0 11:0 12:0 13:0 14:0 15:0 16:0.071428999 17:0.166667 18:0.073981002 19:0.075476997 20:0 21:0 22:0 23:0.091618001 24:0.089906 25:0.015466 26:0.183713 27:0.35615301 28:0 29:0 30:0 31:0.0625 32:0.15773199 33:0.020001 34:0.023097999 35:0 36:0 37:0 38:0.015321 39:0.079432003 40:0.0096100001 41:0.142874 42:0.32012099 43:0 44:0 45:0 #docid = 306118
0.070000000000000007 1:0 2:0 3:0 4:0 5:0 6:0 7:0 8:0 9:0 10:0 11:0 12:0 13:0 14:0 15:0 16:0 17:0 18:0 19:0 20:0 21:0 22:0 23:0 24:0 25:0 26:0 27:0 28:0 29:0 30:0 31:0 32:0 33:0 34:0 35:0 36:0 37:0 38:0 39:0 40:0 41:0 42:0 43:0 44:0 45:0 #docid = 147686
0.060000000000000005 1:0 2:0 3:0 4:0 5:0 6:0 7:0 8:0 9:0 10:0 11:0 12:0 13:0 14:0 15:0 16:0 17:0 18:0 19:0 20:0 21:0 22:0 23:0 24:0 25:0 26:0 27:0 28:0 29:0 30:0 31:0 32:0 33:0 34:0 35:0 36:0 37:0 38:0 39:0 40:0 41:0 42:0 43:0 44:0 45:0 #docid = 192523
0.070000000000000007 1:0 2:0 3:0 4:0 5:0 6:0 7:0 8:0 9:0 10:0 11:0 12:0 13:0 14:0 15:0 16:0 17:0 18:0 19:0 20:0 21:0 22:0 23:0 24:0 25:0 26:0 27:0 28:0 29:0 30:0 31:0 32:0 33:0 34:0 35:0 36:0 37:0 38:0 39:0 40:0 41:0 42:0 43:0 44:0 45:0 #docid = 122141
0.070000000000000007 1:0 2:0 3:0 4:0 5:0 6:0 7:0 8:0 9:0 10:0 11:0 12:0 13:0 14:0 15:0 16:0 17:0 18:0 19:0 20:0 21:0 22:0 23:0 24:0 25:0 26:0 27:0 28:0 29:0 30:0 31:0 32:0 33:0 34:0 35:0 36:0 37:0 38:0 39:0 40:0 41:0 42:0 43:0 44:0 45:0 #docid = 318610
0.10999999999999999 1:1 2:1 3:0.66666597 4:0.68349099 5:0 6:0 7:0 8:0.754219 9:0.954202 10:0.92828202 11:0.85351098 12:0.95033097 13:0.937612 14:0.93308097 15:0.93308097 16:0.83333302 17:0.88685298 18:0.57831198 19:0.58416998 20:0 21:0 22:0 23:0.50296801 24:0.74808502 25:1 26:0.89018798 27:0.966003 28:1 29:1 30:1 31:1 32:1 33:0.217393 34:0.235606 35:0 36:0 37:0 38:0.25722799 39:0.95185697 40:0.88422197 41:1 42:1 43:1 44:1 45:1 #docid = 43192
0.050000000000000003 1:1 2:1 3:0.75 4:0.76407701 5:0 6:0 7:0 8:0.85919702 9:1 10:1 11:0.94582897 12:0.98253602 13:1 14:1 15:1 16:0 17:0 18:0 19:0 20:0 21:0 22:0 23:0 24:0 25:0 26:0 27:0 28:0 29:0 30:0 31:0.375 32:0.48622999 33:0.9375 34:0.96902698 35:0 36:0 37:0 38:0.88990599 39:0.387407 40:1 41:0.951949 42:0.985982 43:0.89405799 44:0.93999398 45:0.92909402 #docid = 100318
-0.089999999999999997 1:0 2:0 3:0 4:0 5:0 6:0 7:0 8:0 9:0 10:0 11:0 12:0 13:0 14:0 15:0 16:1 17:1 18:0.92902702 19:0.93384701 20:0 21:0 22:0 23:0.83429497 24:1 25:0.94783098 26:1 27:1 28:0.90509701 29:0.892501 30:0.90731102 31:0.75 32:0.837924 33:0.234375 34:0.253815 35:0 36:0 37:0 38:0.284172 39:0.76091999 40:0.77161998 41:0.90516299 42:0.97163498 43:0.866135 44:0.847444 45:0.84062803 #docid = 278052
-0.060000000000000005 1:0.33333299 2:0.33333299 3:0.166666 4:0.17308401 5:0 6:0 7:0 8:0.107714 9:0.144288 10:0.074766003 11:0.123966 12:0.34533399 13:0.033927999 14:0.017208001 15:0.017208001 16:0.83333302 17:0.80657399 18:1 19:1 20:0 21:0 22:0 23:0.98080099 24:0.94711399 25:0.98019099 26:0.98366803 27:0.99518698 28:0.85084701 29:0.83222598 30:0.86927998 31:0.75 32:0.77065599 33:0.25 34:0.269768 35:0 36:0 37:0 38:0.30488101 39:0.77259898 40:0.78236401 41:0.878896 42:0.96325201 43:0.80939102 44:0.78971303 45:0.80143303 #docid = 332937
0.029999999999999999 1:0.66666698 2:0.66666597 3:0.5 4:0.50938499 5:0 6:0 7:0 8:0.66833901 9:0.80991399 10:0.85399401 11:0.74790502 12:0.90891302 13:0.84100097 14:0.78546202 15:0.78546202 16:0.66666698 17:0.61314702 18:0.91428202 19:0.90981102 20:0 21:0 22:0 23:1 24:0.87387502 25:0.97680402 26:0.88545299 27:0.96444398 28:0.75904697 29:0.72106999 30:0.74328798 31:0.75 32:0.64830601 33:0.30000001 34:0.31959501 35:0 36:0 37:0 38:0.425093 39:1 40:0.836725 41:0.86692399 42:0.95934802 43:0.73965102 44:0.70695299 45:0.695324 #docid = 312426
-0.089999999999999997 1:0.66666698 2:0.66666597 3:0.80000001 4:0.788499 5:0 6:0 7:0 8:0.90350503 9:0.80991399 10:0.90294701 11:0.884058 12:0.961357 13:0.86050802 14:0.82728797 15:0.82728797 16:0 17:0 18:0 19:0 20:0 21:0 22:0 23:0 24:0 25:0 26:0 27:0 28:0 29:0 30:0 31:0.25 32:0.32415301 33:1 34:1 35:0 36:0 37:0 38:1 39:0.33333299 40:0.99340802 41:0.82761598 42:0.94613802 43:0.80410999 44:0.79450601 45:0.801238 #docid = 272164
0.099999999999999992 1:0.66666698 2:0.66666597 3:0.66666597 4:0.66666597 5:0 6:0 7:0 8:0.80730802 9:0.80991399 10:0.88395703 11:0.83348101 12:0.94288403 13:0.85388899 14:0.81106299 15:0.81106299 16:0 17:0 18:0 19:0 20:0 21:0 22:0 23:0 24:0 25:0 26:0 27:0 28:0 29:0 30:0 31:0.25 32:0.32415301 33:0.833332 34:0.845487 35:0 36:0 37:0 38:0.89187998 39:0.33333299 40:0.96967101 41:0.82045799 42:0.94366503 43:0.80001998 44:0.78124797 45:0.78958601 #docid = 295536
-0.060000000000000005 1:0.66666698 2:0.66666597 3:0.571428 4:0.57749301 5:0 6:0 7:0 8:0.73084098 9:0.80991399 10:0.86790103 11:0.788378 12:0.92543799 13:0.84738803 14:0.79734498 15:0.79734498 16:0 17:0 18:0 19:0 20:0 21:0 22:0 23:0 24:0 25:0 26:0 27:0 28:0 29:0 30:0 31:0.25 32:0.32415301 33:0.71428502 34:0.73239601 35:0 36:0 37:0 38:0.80614102 39:0.33333299 40:0.94960397 41:0.81342202 42:0.94121301 43:0.79600197 44:0.77003801 45:0.77973503 #docid = 64693
0.029999999999999999 1:0.66666698 2:0.66666597 3:0.5 4:0.50938499 5:0 6:0 7:0 8:0.66833901 9:0.80991399 10:0.85399401 11:0.74790502 12:0.90891302 13:0.84100097 14:0.78546202 15:0.78546202 16:0 17:0 18:0 19:0 20:0 21:0 22:0 23:0 24:0 25:0 26:0 27:0 28:0 29:0 30:0 31:0.25 32:0.32415301 33:0.625 34:0.64601803 35:0 36:0 37:0 38:0.73620898 39:0.33333299 40:0.93222302 41:0.80650598 42:0.93878299 43:0.792054 44:0.76032698 45:0.77120203 #docid = 52635
0.070000000000000007 1:1 2:1 3:1 4:1 5:0 6:0 7:0 8:1 9:0.954202 10:0.98822701 11:1 12:1 13:0.956779 14:0.98677897 15:0.98677897 16:0.5 17:0.58027899 18:0.359999 19:0.36443299 20:0 21:0 22:0 23:0.354817 24:0.510176 25:0.79488403 26:0.636132 27:0.86779302 28:0.73952103 29:0.72461402 30:0.698484 31:0.75 32:0.77065599 33:0.174417 34:0.18914101 35:0 36:0 37:0 38:0.220524 39:0.77259898 40:0.72972202 41:0.79726303 42:0.93550098 43:0.76122802 44:0.75094098 45:0.734155 #docid = 44667
-0.060000000000000005 1:0 2:0 3:0 4:0 5:0 6:0 7:0 8:0 9:0 10:0 11:0 12:0 13:0 14:0 15:0 16:0.66666698 17:0.61314702 18:0.73845798 19:0.73810703 20:0 21:0 22:0 23:0.83541101 24:0.87387502 25:0.94537199 26:0.84620798 27:0.95119399 28:0.73514599 29:0.70518303 30:0.71228099 31:0.5 32:0.513771 33:0.181817 34:0.195907 35:0 36:0 37:0 38:0.27994201 39:0.66666698 40:0.771631 41:0.76210302 42:0.92266202 43:0.70227998 44:0.67053699 45:0.65486997 #docid = 256703
0.060000000000000005 1:0 2:0 3:0 4:0 5:0 6:0 7:0 8:0 9:0 10:0 11:0 12:0 13:0 14:0 15:0 16:0.83333302 17:0.80657399 18:0.466021 19:0.47060001 20:0 21:0 22:0 23:0.49480399 24:0.94418103 25:0.85588801 26:0.77522999 27:0.92558998 28:0.74579197 29:0.74663001 30:0.75406802 31:0.625 32:0.67584699 33:0.11468 34:0.124771 35:0 36:0 37:0 38:0.164931 39:0.72074097 40:0.69108403 41:0.70449799 42:0.90028799 43:0.71009201 44:0.70863497 45:0.69769698 #docid = 19024
0.029999999999999999 1:0.66666698 2:0.66666597 3:0.30769199 4:0.32049999 5:0 6:0 7:0 8:0.471214 9:0.80991399 10:0.803433 11:0.59514302 12:0.83726799 13:0.810628 14:0.742257 15:0.742257 16:0.5 17:0.58027899 18:0.246153 19:0.24967 20:0 21:0 22:0 23:0.24660601 24:0.510176 25:0.73486501 26:0.52672601 27:0.812635 28:0.68150502 29:0.68326098 30:0.692397 31:0.625 32:0.67584699 33:0.096155003 34:0.104755 35:0 36:0 37:0 38:0.139707 39:0.71963298 40:0.66584098 41:0.65548801 42:0.87976098 43:0.67597198 44:0.683824 45:0.688703 #docid = 293777
-0.02 1:0.66666698 2:0.66666597 3:0.571428 4:0.57749301 5:0 6:0 7:0 8:0.73084098 9:0.80991399 10:0.86790103 11:0.788378 12:0.92543799 13:0.84738803 14:0.79734498 15:0.79734498 16:0.5 17:0.58027899 18:0.246153 19:0.24967 20:0 21:0 22:0 23:0.236641 24:0.489824 25:0.72994298 26:0.50193697 27:0.79854602 28:0.66025198 29:0.66104299 30:0.64948601 31:0.625 32:0.67584699 33:0.100807 34:0.109787 35:0 36:0 37:0 38:0.143546 39:0.70795399 40:0.67064899 41:0.65115303 42:0.87787199 43:0.67410302 44:0.678922 45:0.66936398 #docid = 305104
0.13999999999999999 1:0 2:0 3:0 4:0 5:0 6:0 7:0 8:0 9:0 10:0 11:0 12:0 13:0 14:0 15:0 16:1 17:0.83597499 18:0.58181602 19:0.58388698 20:0 21:0 22:0 23:0.40980601 24:0.729891 25:0.78860003 26:0.65285403 27:0.875377 28:0.75278598 29:0.750754 30:0.76446903 31:0.75 32:0.70048302 33:0.14706001 34:0.15900201 35:0 36:0 37:0 38:0.13700899 39:0.54519802 40:0.62708098 41:0.59232998 42:0.85092002 43:0.71307099 44:0.70646203 45:0.70193702 #docid = 194376
-0.029999999999999999 1:0.66666698 2:0.66666597 3:0.30769199 4:0.32049999 5:0 6:0 7:0 8:0.471214 9:0.80991399 10:0.803433 11:0.59514302 12:0.83726799 13:0.810628 14:0.742257 15:0.742257 16:0.33333299 17:0.38685301 18:0.16271 19:0.16504499 20:0 21:0 22:0 23:0.20866799 24:0.43693799 25:0.72328299 26:0.44167501 27:0.76116502 28:0.57368797 29:0.59267098 30:0.568874 31:0.5 32:0.513771 33:0.076334998 34:0.083106004 35:0 36:0 37:0 38:0.12793501 39:0.66666698 40:0.65906203 41:0.58384901 42:0.84681398 43:0.57867002 44:0.60742903 45:0.58394998 #docid = 263092
-0.029999999999999999 1:0 2:0 3:0 4:0 5:0 6:0 7:0 8:0 9:0 10:0 11:0 12:0 13:0 14:0 15:0 16:0.33333299 17:0.38685301 18:0.40850699 19:0.41175199 20:0 21:0 22:0 23:0.49501601 24:0.43693799 25:0.85830402 26:0.65774602 27:0.87755901 28:0.70091599 29:0.661143 30:0.67948502 31:0.25 32:0.32415301 33:0.094339997 34:0.102522 35:0 36:0 37:0 38:0.15570299 39:0.33333299 40:0.68648797 41:0.58331901 42:0.84655601 43:0.66169202 44:0.62282699 45:0.61695802 #docid = 89604
-0.040000000000000001 1:0 2:0 3:0 4:0 5:0 6:0 7:0 8:0 9:0 10:0 11:0 12:0 13:0 14:0 15:0 16:0.5 17:0.58027899 18:0.351215 19:0.355593 20:0 21:0 22:0 23:0.34659299 24:0.510176 25:0.79093802 26:0.62906897 27:0.86453003 28:0.73598403 29:0.72191697 30:0.71475798 31:0.375 32:0.48622999 33:0.083333001 34:0.090911001 35:0 36:0 37:0 38:0.110413 39:0.3863 40:0.62618101 41:0.55902702 42:0.83444601 43:0.68806702 44:0.67211503 45:0.64088702 #docid = 39895
0.040000000000000001 1:0.66666698 2:0.66666597 3:0.444444 4:0.45565999 5:0 6:0 7:0 8:0.61615199 9:0.80991399 10:0.84172702 11:0.71138501 12:0.89321399 13:0.83472198 14:0.77498102 15:0.77498102 16:0.33333299 17:0.38685301 18:0.123868 19:0.125774 20:0 21:0 22:0 23:0.160366 24:0.43693799 25:0.68342501 26:0.37711599 27:0.71498102 28:0.52758098 29:0.57238501 30:0.51115501 31:0.5 32:0.513771 33:0.060975 34:0.066483997 35:0 36:0 37:0 38:0.103569 39:0.66666698 40:0.630005 41:0.53002 42:0.819278 43:0.54065299 44:0.59109199 45:0.53764099 #docid = 45938
0.040000000000000001 1:0 2:0 3:0 4:0 5:0 6:0 7:0 8:0 9:0 10:0 11:0 12:0 13:0 14:0 15:0 16:0.66666698 17:0.69342601 18:0.299999 19:0.30380499 20:0 21:0 22:0 23:0.25587499 24:0.57754803 25:0.72839099 26:0.53555501 27:0.81749398 28:0.68708998 29:0.69541103 30:0.698695 31:0.5 32:0.581038 33:0.072993003 34:0.079636998 35:0 36:0 37:0 38:0.084169999 39:0.44148099 40:0.57646 41:0.48801199 42:0.79577202 43:0.65008998 44:0.65727299 45:0.638825 #docid = 128315
-0.029999999999999999 1:0 2:0 3:0 4:0 5:0 6:0 7:0 8:0 9:0 10:0 11:0 12:0 13:0 14:0 15:0 16:0.83333302 17:0.64254898 18:0.60759199 19:0.60600603 20:0 21:0 22:0 23:0.46824199 24:0.73191798 25:0.315878 26:0.50294399 27:0.79913199 28:0.37035301 29:0.32605299 30:0.36014801 31:0.625 32:0.53840703 33:0.150603 34:0.16192301 35:0 36:0 37:0 38:0.157373 39:0.55813301 40:0.258948 41:0.45054501 42:0.773031 43:0.35433099 44:0.31186399 45:0.33122399 #docid = 253599
-0.01 1:0 2:0 3:0 4:0 5:0 6:0 7:0 8:0 9:0 10:0 11:0 12:0 13:0 14:0 15:0 16:0.33333299 17:0.38685301 18:0.161347 19:0.163656 20:0 21:0 22:0 23:0.206982 24:0.43693799 25:0.722049 26:0.439641 27:0.75981599 28:0.57231301 29:0.59204298 30:0.57949299 31:0.25 32:0.32415301 33:0.039682999 34:0.043357 35:0 36:0 37:0 38:0.068699002 39:0.33333299 40:0.57460302 41:0.40258899 42:0.74099398 43:0.54007602 44:0.55985802 45:0.52833098 #docid = 78051
-0.01 1:0 2:0 3:0 4:0 5:0 6:0 7:0 8:0 9:0 10:0 11:0 12:0 13:0 14:0 15:0 16:0.33333299 17:0.38685301 18:0.15360001 19:0.15583301 20:0 21:0 22:0 23:0.197418 24:0.43693799 25:0.714854 26:0.42781901 27:0.75185001 28:0.56423199 29:0.58838499 30:0.53689402 31:0.25 32:0.32415301 33:0.038462002 34:0.042029999 35:0 36:0 37:0 38:0.066659003 39:0.33333299 40:0.57058197 41:0.395868 42:0.73620099 43:0.53497499 44:0.55758601 45:0.49412301 #docid = 109017
0.029999999999999999 1:0.33333299 2:0.33333299 3:0.333334 4:0.333334 5:0 6:0 7:0 8:0.35848701 9:0.33718801 10:0.35244599 11:0.391583 12:0.70600498 13:0.32097 14:0.26475501 15:0.26475501 16:0.5 17:0.5 18:0.319996 19:0.322981 20:0 21:0 22:0 23:0.232713 24:0.38222599 25:0.248886 26:0.374396 27:0.712865 28:0.30721301 29:0.26804501 30:0.28262401 31:0.5 32:0.48622999 33:0.104168 34:0.112806 35:0 36:0 37:0 38:0.10723 39:0.42016301 40:0.228368 41:0.38659 42:0.72944999 43:0.31426999 44:0.28113601 45:0.28144199 #docid = 40272
-0.029999999999999999 1:0.66666698 2:0.66666597 3:0.80000001 4:0.788499 5:0 6:0 7:0 8:0.62568802 9:0.48147601 10:0.47451401 11:0.59196901 12:0.83559197 13:0.43047699 14:0.456552 15:0.456552 16:0.5 17:0.38685301 18:0.216537 19:0.218124 20:0 21:0 22:0 23:0.093492001 24:0.219715 25:0.024659 26:0.140187 27:0.425762 28:0.035457999 29:0.038295001 30:0.086359002 31:0.625 32:0.53840703 33:0.090580001 34:0.098162003 35:0 36:0 37:0 38:0.063671 39:0.338157 40:0.153712 41:0.29731899 42:0.65470701 43:0.27450201 44:0.27314201 45:0.30223799 #docid = 11785
-0.02 1:0 2:0 3:0 4:0 5:0 6:0 7:0 8:0 9:0 10:0 11:0 12:0 13:0 14:0 15:0 16:1 17:0.755696 18:0.25263301 19:0.25546899 20:0 21:0 22:0 23:0.108991 24:0.43356401 25:0.029872 26:0.214422 27:0.54996502 28:0.074803002 29:0.118171 30:0.107565 31:0.75 32:0.63321501 33:0.061475001 34:0.066981003 35:0 36:0 37:0 38:0.034627002 39:0.32001299 40:0.019151 41:0.188473 42:0.524939 43:0.061066002 44:0.110121 45:0.093569003 #docid = 280600
-0.029999999999999999 1:0.66666698 2:0.66666597 3:0.30769199 4:0.32049999 5:0 6:0 7:0 8:0.22802 9:0.33437401 10:0.19427299 11:0.27639899 12:0.59676999 13:0.187051 14:0.206944 15:0.206944 16:0.166667 17:0.193426 18:0.073285997 19:0.074367002 20:0 21:0 22:0 23:0.032403 24:0.073238 25:0.0092989998 26:0.077926002 27:0.25413901 28:0.0025460001 29:0.00050800003 30:0.068099998 31:0.375 32:0.418962 33:0.052081998 34:0.056806002 35:0 36:0 37:0 38:0.029428 39:0.160006 40:0.016410001 41:0.166486 42:0.489627 43:0.111618 44:0.099114001 45:0.162421 #docid = 265169
-0.02 1:0.33333299 2:0.33333299 3:0.40000001 4:0.39425099 5:0 6:0 7:0 8:0.222243 9:0.144288 10:0.112581 11:0.176624 12:0.45634401 13:0.077931002 14:0.055171002 15:0.055171002 16:0.33333299 17:0.38685301 18:0.122294 19:0.12417 20:0 21:0 22:0 23:0.046712998 24:0.12612499 25:0.01191 26:0.119068 27:0.37803999 28:0.056635998 29:0.053298999 30:0.036773 31:0.375 32:0.418962 33:0.046296999 34:0.050526001 35:0 36:0 37:0 38:0.024117 39:0.14722 40:0.012507 41:0.14086001 42:0.442045 43:0.075952999 44:0.075902 45:0.070891 #docid = 29502
-0.01 1:0.33333299 2:0.33333299 3:0.222222 4:0.22783101 5:0 6:0 7:0 8:0.13806701 9:0.144288 10:0.086554997 11:0.14212599 12:0.388201 13:0.052145001 14:0.029587001 15:0.029587001 16:0.166667 17:0.193426 18:0.095049001 19:0.096340001 20:0 21:0 22:0 23:0.041873999 24:0.073238 25:0.011849 26:0.089666001 27:0.29515201 28:0.044521999 29:0.009331 30:0.076096997 31:0.25 32:0.25688499 33:0.045455001 34:0.049415 35:0 36:0 37:0 38:0.025256 39:0.105932 40:0.01293 41:0.110116 42:0.37195 43:0.053353999 44:0.029537 45:0.091614999 #docid = 39538
-0.01 1:0 2:0 3:0 4:0 5:0 6:0 7:0 8:0 9:0 10:0 11:0 12:0 13:0 14:0 15:0 16:0.166667 17:0.193426 18:0.075005002 19:0.076098002 20:0 21:0 22:0 23:0.033151999 24:0.073238 25:0.0095030004 26:0.078960001 27:0.25799 28:0.0064170002 29:0.001285 30:0 31:0.125 32:0.162076 33:0.018657999 34:0.02039 35:0 36:0 37:0 38:0.010533 39:0.052965999 40:0.0056210002 41:0.068690002 42:0.23760501 43:0 44:0 45:0 #docid = 228086
-0.02 1:0 2:0 3:0 4:0 5:0 6:0 7:0 8:0 9:0 10:0 11:0 12:0 13:0 14:0 15:0 16:0 17:0 18:0 19:0 20:0 21:0 22:0 23:0 24:0 25:0 26:0 27:0 28:0 29:0 30:0 31:0 32:0 33:0 34:0 35:0 36:0 37:0 38:0 39:0 40:0 41:0 42:0 43:0 44:0 45:0 #docid = 264270
-0.01 1:0 2:0 3:0 4:0 5:0 6:0 7:0 8:0 9:0 10:0 11:0 12:0 13:0 14:0 15:0 16:0 17:0 18:0 19:0 20:0 21:0 22:0 23:0 24:0 25:0 26:0 27:0 28:0 29:0 30:0 31:0 32:0 33:0 34:0 35:0 36:0 37:0 38:0 39:0 40:0 41:0 42:0 43:0 44:0 45:0 #docid = 255708
0.040000000000000001 1:0 2:0 3:0 4:0 5:0 6:0 7:0 8:0 9:0 10:0 11:0 12:0 13:0 14:0 15:0 16:0 17:0 18:0 19:0 20:0 21:0 22:0 23:0 24:0 25:0 26:0 27:0 28:0 29:0 30:0 31:0 32:0 33:0 34:0 35:0 36:0 37:0 38:0 39:0 40:0 41:0 42:0 43:0 44:0 45:0 #docid = 78639
-0.01 1:0 2:0 3:0 4:0 5:0 6:0 7:0 8:0 9:0 10:0 11:0 12:0 13:0 14:0 15:0 16:0 17:0 18:0 19:0 20:0 21:0 22:0 23:0 24:0 25:0 26:0 27:0 28:0 29:0 30:0 31:0 32:0 33:0 34:0 35:0 36:0 37:0 38:0 39:0 40:0 41:0 42:0 43:0 44:0 45:0 #docid = 284915
-0.01 1:0 2:0 3:0 4:0 5:0 6:0 7:0 8:0 9:0 10:0 11:0 12:0 13:0 14:0 15:0 16:0 17:0 18:0 19:0 20:0 21:0 22:0 23:0 24:0 25:0 26:0 27:0 28:0 29:0 30:0 31:0 32:0 33:0 34:0 35:0 36:0 37:0 38:0 39:0 40:0 41:0 42:0 43:0 44:0 45:0 #docid = 289136
-0.01 1:0 2:0 3:0 4:0 5:0 6:0 7:0 8:0 9:0 10:0 11:0 12:0 13:0 14:0 15:0 16:0 17:0 18:0 19:0 20:0 21:0 22:0 23:0 24:0 25:0 26:0 27:0 28:0 29:0 30:0 31:0 32:0 33:0 34:0 35:0 36:0 37:0 38:0 39:0 40:0 41:0 42:0 43:0 44:0 45:0 #docid = 108322
-0.01 1:0 2:0 3:0 4:0 5:0 6:0 7:0 8:0 9:0 10:0 11:0 12:0 13:0 14:0 15:0 16:0 17:0 18:0 19:0 20:0 21:0 22:0 23:0 24:0 25:0 26:0 27:0 28:0 29:0 30:0 31:0 32:0 33:0 34:0 35:0 36:0 37:0 38:0 39:0 40:0 41:0 42:0 43:0 44:0 45:0 #docid = 230850
-0.01 1:0 2:0 3:0 4:0 5:0 6:0 7:0 8:0 9:0 10:0 11:0 12:0 13:0 14:0 15:0 16:0 17:0 18:0 19:0 20:0 21:0 22:0 23:0 24:0 25:0 26:0 27:0 28:0 29:0 30:0 31:0 32:0 33:0 34:0 35:0 36:0 37:0 38:0 39:0 40:0 41:0 42:0 43:0 44:0 45:0 #docid = 114442
-0.01 1:0 2:0 3:0 4:0 5:0 6:0 7:0 8:0 9:0 10:0 11:0 12:0 13:0 14:0 15:0 16:0 17:0 18:0 19:0 20:0 21:0 22:0 23:0 24:0 25:0 26:0 27:0 28:0 29:0 30:0 31:0 32:0 33:0 34:0 35:0 36:0 37:0 38:0 39:0 40:0 41:0 42:0 43:0 44:0 45:0 #docid = 114511
-0.01 1:0 2:0 3:0 4:0 5:0 6:0 7:0 8:0 9:0 10:0 11:0 12:0 13:0 14:0 15:0 16:0 17:0 18:0 19:0 20:0 21:0 22:0 23:0 24:0 25:0 26:0 27:0 28:0 29:0 30:0 31:0 32:0 33:0 34:0 35:0 36:0 37:0 38:0 39:0 40:0 41:0 42:0 43:0 44:0 45:0 #docid = 48390
-0.01 1:0 2:0 3:0 4:0 5:0 6:0 7:0 8:0 9:0 10:0 11:0 12:0 13:0 14:0 15:0 16:0 17:0 18:0 19:0 20:0 21:0 22:0 23:0 24:0 25:0 26:0 27:0 28:0 29:0 30:0 31:0 32:0 33:0 34:0 35:0 36:0 37:0 38:0 39:0 40:0 41:0 42:0 43:0 44:0 45:0 #docid = 58610
-0.01 1:0 2:0 3:0 4:0 5:0 6:0 7:0 8:0 9:0 10:0 11:0 12:0 13:0 14:0 15:0 16:0 17:0 18:0 19:0 20:0 21:0 22:0 23:0 24:0 25:0 26:0 27:0 28:0 29:0 30:0 31:0 32:0 33:0 34:0 35:0 36:0 37:0 38:0 39:0 40:0 41:0 42:0 43:0 44:0 45:0 #docid = 220896
0.31000000000000011 1:1 2:1 3:0.40000001 4:0.42712501 5:0 6:0 7:0 8:0.53128499 9:1 10:0.852552 11:0.720662 12:0.90097302 13:0.96643603 14:0.87021399 15:0.87293899 16:1 17:1 18:1 19:1 20:0 21:0 22:0 23:1 24:1 25:1 26:1 27:1 28:0.90156001 29:0.88722801 30:0.93172598 31:1 32:1 33:0.30303001 34:0.32273 35:0 36:0 37:0 38:0.40535399 39:1 40:0.77988398 41:1 42:1 43:0.854716 44:0.85319299 45:0.86686403 #docid = 318764
-0.070000000000000007 1:1 2:1 3:0.33333299 4:0.35870501 5:0 6:0 7:0 8:0.46141699 9:1 10:0.82402098 11:0.659275 12:0.87405998 13:0.95599002 14:0.84450901 15:0.84777403 16:0.190476 17:0.444444 18:0.54042 19:0.54941601 20:0 21:0 22:0 23:0.56200898 24:0.177481 25:0.93875599 26:0.84660298 27:0.95336699 28:1 29:1 30:1 31:0.29166701 32:0.60515499 33:0.21212199 34:0.22885001 35:0 36:0 37:0 38:0.29527301 39:0.28068 40:0.77532297 41:0.99066699 42:0.99736798 43:1 44:0.99972898 45:1 #docid = 168512
-0.040000000000000001 1:1 2:1 3:0.571428 4:0.59841001 5:0 6:0 7:0 8:0.690229 9:1 10:0.90923601 11:0.83765697 12:0.94645 13:0.98277599 14:0.92063397 15:0.92230099 16:0.285714 17:0.52832103 18:0.91729599 19:0.91937798 20:0 21:0 22:0 23:0.929676 24:0.285714 25:0.98161602 26:0.90871102 27:0.97319198 28:0.88614601 29:0.87645501 30:0.924573 31:0.375 32:0.63093001 33:0.33333299 34:0.353982 35:0 36:0 37:0 38:0.43878499 39:0.375 40:0.79650301 41:0.96501303 42:0.990004 43:0.86696398 44:0.864887 45:0.88491702 #docid = 237715
0.16 1:1 2:1 3:1 4:1 5:0 6:0 7:0 8:1 9:1 10:1 11:1 12:1 13:1 14:1 15:1 16:0.285714 17:0.52832103 18:0.85017198 19:0.85368103 20:0 21:0 22:0 23:0.87128103 24:0.285714 25:0.96557099 26:0.89600903 27:0.96925002 28:0.87956601 29:0.86697602 30:0.901546 31:0.375 32:0.63093001 33:0.33333299 34:0.353982 35:0 36:0 37:0 38:0.43878499 39:0.375 40:0.79650301 41:0.96501303 42:0.990004 43:0.86696398 44:0.864887 45:0.87337899 #docid = 260466
