SVM-light Version V6.02
0 # kernel type
3 # kernel parameter -d 
1 # kernel parameter -g 
1 # kernel parameter -s 
1 # kernel parameter -r 
empty# kernel parameter -u 
45 # highest feature index 
10494 # number of training documents 
5118 # number of support vectors plus 1 
0 # threshold b, each following line is a SV (starting with alpha*y)
-0.20000000000000001 1:0.40000001 2:0.47962499 3:0.42857099 4:0.46416399 5:0 6:0 7:0 8:0.558586 9:0.42034799 10:0.70725203 11:0.62418002 12:0.83958602 13:0.62348598 14:0.60704798 15:0.60824901 16:0.2 17:0.69271398 18:0.482759 19:0.50739598 20:0 21:0 22:0 23:0.479776 24:0.165288 25:0.67049903 26:0.98545903 27:0.99512202 28:1 29:1 30:1 31:0.227273 32:0.73747498 33:0.23076899 34:0.26179799 35:0 36:0 37:0 38:0.29066101 39:0.196605 40:0.52079999 41:1 42:1 43:1 44:0.95651603 45:0.98680401 #docid = 224544
0.40627350185394084 1:1 2:1 3:0.83333403 4:0.88066298 5:0 6:0 7:0 8:0.95204198 9:1 10:1 11:1 12:1 13:1 14:0.97584403 15:1 16:0.075000003 17:0.33681801 18:0.291666 19:0.30818799 20:0 21:0 22:0 23:0.30050299 24:0.063295998 25:0.49281299 26:0.678343 27:0.87074399 28:0.66759503 29:0.66553497 30:0.64859998 31:0.18181799 32:0.63212103 33:0.26666701 34:0.30074 35:0 36:0 37:0 38:0.34369701 39:0.166418 40:0.578233 41:0.998142 42:0.99938601 43:0.99086303 44:0.98301399 45:1 #docid = 197539
0.10000000000000001 1:0.60000002 2:0.719437 3:0.75 4:0.803756 5:0 6:0 7:0 8:0.88132101 9:0.57965201 10:0.98124599 11:0.90935898 12:0.96766102 13:0.88794702 14:0.96311402 15:0.96501899 16:0.1 17:0.402493 18:0.378378 19:0.39735901 20:0 21:0 22:0 23:0.382617 24:0.084473997 25:0.55458498 26:0.73762101 27:0.89864498 28:0.71520197 29:0.71647102 30:0.71230698 31:0.159091 32:0.588395 33:0.244186 34:0.27614301 35:0 36:0 37:0 38:0.30638799 39:0.138835 40:0.529248 41:0.96452498 42:0.98807502 43:0.96558303 44:0.964764 45:0.97510099 #docid = 324035
-0.20000000000000001 1:0.40000001 2:0.47962499 3:0.375 4:0.409421 5:0 6:0 7:0 8:0.50435698 9:0.42034799 10:0.682383 11:0.59213603 12:0.82164901 13:0.614591 14:0.587529 15:0.58868998 16:0.5 17:0.91725898 18:0.68627399 19:0.70566303 20:0 21:0 22:0 23:0.72331798 24:0.47791699 25:0.86424297 26:1 27:1 28:0.90932399 29:0.91445702 30:0.89898801 31:0.5 32:0.89079797 33:0.30000001 34:0.33329001 35:0 36:0 37:0 38:0.39182499 39:0.483239 40:0.622688 41:0.96145803 42:0.98702401 43:0.86015999 44:0.85166699 45:0.84882802 #docid = 249190
-0.10000000000000001 1:0.40000001 2:0.47962499 3:0.49999899 4:0.53583598 5:0 6:0 7:0 8:0.62637299 9:0.42034799 10:0.73609501 11:0.65988898 12:0.85852098 13:0.63253701 14:0.62959599 15:0.63084102 16:0.32499999 17:0.92387098 18:0.35826701 19:0.37866101 20:0 21:0 22:0 23:0.37558699 24:0.27993301 25:0.58249301 26:0.96279103 27:0.98737103 28:0.96373498 29:0.91391999 30:0.97892201 31:0.340909 32:0.92235798 33:0.169173 34:0.192993 35:0 36:0 37:0 38:0.221048 39:0.30098099 40:0.43847999 41:0.961119 42:0.98690701 43:0.94173002 44:0.868384 45:0.95059502 #docid = 111090
0.10000000000000001 1:0.80000001 2:0.95924997 3:0.46153799 4:0.51520801 5:0 6:0 7:0 8:0.58123797 9:0.70097798 10:0.87636799 11:0.78376698 12:0.91707498 13:0.99273598 14:1 15:0.995525 16:0.2 17:0.52137798 18:0.40000099 19:0.416706 20:0 21:0 22:0 23:0.46990401 24:0.205396 25:0.67901999 26:0.75654203 27:0.90708101 28:0.59549898 29:0.59149599 30:0.57015598 31:0.27272701 32:0.75537699 33:0.216867 34:0.244967 35:0 36:0 37:0 38:0.29310501 39:0.26031399 40:0.52754301 41:0.957802 42:0.98576599 43:0.93432999 44:0.88173401 45:0.87649 #docid = 340087
0.10000000000000001 1:0.40000001 2:0.47962499 3:0.60000002 4:0.63376099 5:0 6:0 7:0 8:0.713799 9:0.42034799 10:0.77036798 11:0.69993198 12:0.87857199 13:0.641752 14:0.65628099 15:0.65757799 16:0.375 17:1 18:0.37769899 19:0.398994 20:0 21:0 22:0 23:0.354467 24:0.28560299 25:0.521182 26:0.94311798 27:0.98049599 28:0.98355597 29:0.92902899 30:0.99278599 31:0.38636401 32:1 33:0.177084 34:0.202105 35:0 36:0 37:0 38:0.2097 39:0.30483201 40:0.40039101 41:0.955706 42:0.98504299 43:0.971834 44:0.890064 45:0.97442299 #docid = 193689
0.10000000000000001 1:0.60000002 2:0.719437 3:0.75 4:0.803756 5:0 6:0 7:0 8:0.88132101 9:0.57965201 10:0.98124599 11:0.90935898 12:0.96766102 13:0.88794702 14:0.96311402 15:0.96501899 16:0.22499999 17:0.63365102 18:0.49218801 19:0.512739 20:0 21:0 22:0 23:0.55534601 24:0.222277 25:0.75566101 26:0.9174 27:0.97128701 28:0.848041 29:0.84257799 30:0.83344102 31:0.27272701 32:0.71165103 33:0.25714299 34:0.28878599 35:0 36:0 37:0 38:0.347036 39:0.26493001 40:0.59109497 41:0.95123798 42:0.98349601 43:0.86845702 44:0.85112 45:0.86964899 #docid = 188516
-0.10000000000000001 1:0.40000001 2:0.47962499 3:0.375 4:0.409421 5:0 6:0 7:0 8:0.50435698 9:0.42034799 10:0.682383 11:0.59213603 12:0.82164901 13:0.614591 14:0.587529 15:0.58868998 16:0.27500001 17:0.69271398 18:0.75490201 19:0.77413398 20:0 21:0 22:0 23:0.80731797 24:0.273626 25:0.92519498 26:0.98943502 27:0.99646199 28:0.92896599 29:0.93661797 30:0.90789998 31:0.29545501 32:0.69688302 33:0.33050799 34:0.365868 35:0 36:0 37:0 38:0.436717 39:0.296785 40:0.66707402 41:0.94907302 42:0.98274302 43:0.883497 44:0.86737901 45:0.84786701 #docid = 32488
0.10000000000000001 1:0.40000001 2:0.47962499 3:0.42857099 4:0.46416399 5:0 6:0 7:0 8:0.558586 9:0.42034799 10:0.70725203 11:0.62418002 12:0.83958602 13:0.62348598 14:0.60704798 15:0.60824901 16:0.2 17:0.69271398 18:0.36842099 19:0.388953 20:0 21:0 22:0 23:0.38028499 24:0.169585 25:0.57493103 26:0.92297399 27:0.97330499 28:0.940754 29:0.913746 30:0.93543297 31:0.227273 32:0.72766501 33:0.180723 34:0.205715 35:0 36:0 37:0 38:0.23518699 39:0.200877 40:0.45235199 41:0.94094598 42:0.979904 43:0.92884201 44:0.87546903 45:0.91815102 #docid = 181499
-0.20000000000000001 1:0.80000001 2:0.719437 3:0.49999899 4:0.52694601 5:0 6:0 7:0 8:0.58130401 9:0.78578198 10:0.70787001 11:0.64323002 12:0.84981799 13:0.68953001 14:0.60842401 15:0.60678703 16:0.52499998 17:0.96385598 18:0.5 19:0.52073199 20:0 21:0 22:0 23:0.54400402 24:0.494798 25:0.73690999 26:0.96140301 27:0.98689097 28:0.83996803 29:0.85606903 30:0.84965301 31:0.56818199 32:0.95627397 33:0.23584899 34:0.264474 35:0 36:0 37:0 38:0.31247601 39:0.53706503 40:0.54172301 41:0.93570501 42:0.97806001 43:0.79352599 44:0.80861801 45:0.80463803 #docid = 331899
0.10000000000000001 1:0.40000001 2:0.47962499 3:0.49999899 4:0.53583598 5:0 6:0 7:0 8:0.62637299 9:0.42034799 10:0.73609501 11:0.65988898 12:0.85852098 13:0.63253701 14:0.62959599 15:0.63084102 16:0.30000001 17:0.804986 18:0.40776801 19:0.42790899 20:0 21:0 22:0 23:0.45580199 24:0.28557301 25:0.66714001 26:0.94331902 27:0.98056602 28:0.92390198 29:0.88327599 30:0.87906802 31:0.31818199 32:0.80223602 33:0.19266 34:0.218006 35:0 36:0 37:0 38:0.26539701 39:0.30726299 40:0.49785399 41:0.927315 42:0.97508597 43:0.88941401 44:0.83176899 45:0.84067702 #docid = 380
0.10000000000000001 1:0.40000001 2:0.47962499 3:0.42857099 4:0.46416399 5:0 6:0 7:0 8:0.558586 9:0.42034799 10:0.70725203 11:0.62418002 12:0.83958602 13:0.62348598 14:0.60704798 15:0.60824901 16:0.125 17:0.51476598 18:0.37234101 19:0.393058 20:0 21:0 22:0 23:0.338974 24:0.092124 25:0.50085598 26:0.82915699 27:0.93760502 28:0.90206301 29:0.915021 30:0.88464898 31:0.159091 32:0.60629803 33:0.194445 34:0.221515 35:0 36:0 37:0 38:0.23560999 39:0.12994701 40:0.44271901 41:0.91965801 42:0.97234899 43:0.93689698 44:0.91354197 45:0.94323403 #docid = 4447
-0.40000000000000002 1:0.40000001 2:0.47962499 3:0.166666 4:0.18794 5:0 6:0 7:0 8:0.25775799 9:0.42034799 10:0.534576 11:0.39127201 12:0.68062901 13:0.53324401 14:0.46933499 15:0.45755801 16:0.22499999 17:0.73931098 18:0.34999999 19:0.369719 20:0 21:0 22:0 23:0.37666601 24:0.199756 25:0.59005398 26:0.93068498 27:0.97607601 28:0.93132901 29:0.89451402 30:0.90410399 31:0.25 32:0.761581 33:0.152778 34:0.174326 35:0 36:0 37:0 38:0.20651101 39:0.22846 40:0.42427799 41:0.90997303 42:0.96885401 43:0.88015503 44:0.82138598 45:0.85095698 #docid = 137370
0.30000000000000004 1:0.2 2:0.239812 3:0.166666 4:0.183121 5:0 6:0 7:0 8:0.20606799 9:0.182717 10:0.26052901 11:0.244656 12:0.52081698 13:0.14568 14:0.114733 15:0.114959 16:0.34999999 17:0.88772702 18:0.404957 19:0.42513099 20:0 21:0 22:0 23:0.42618999 24:0.30970401 25:0.61576802 26:0.93551201 27:0.977799 28:0.93772298 29:0.88941801 30:0.92196703 31:0.340909 32:0.85092098 33:0.173077 34:0.196319 35:0 36:0 37:0 38:0.22329199 39:0.30130801 40:0.42347601 41:0.89401901 42:0.96301401 43:0.87930399 44:0.814309 45:0.858114 #docid = 309349
0.10000000000000001 1:0.40000001 2:0.47962499 3:0.49999899 4:0.53583598 5:0 6:0 7:0 8:0.62637299 9:0.42034799 10:0.73609501 11:0.65988898 12:0.85852098 13:0.63253701 14:0.62959599 15:0.63084102 16:0.125 17:0.46816799 18:0.416668 19:0.437069 20:0 21:0 22:0 23:0.469008 24:0.119579 25:0.68846798 26:0.86484802 27:0.95164102 28:0.82461601 29:0.830724 30:0.83218002 31:0.159091 32:0.52676803 33:0.218749 34:0.246573 35:0 36:0 37:0 38:0.30198601 39:0.155939 40:0.54405302 41:0.882864 42:0.95886898 43:0.81165397 44:0.80633098 45:0.81632298 #docid = 42122
0.10000000000000001 1:0.40000001 2:0.47962499 3:0.42857099 4:0.46416399 5:0 6:0 7:0 8:0.558586 9:0.42034799 10:0.70725203 11:0.62418002 12:0.83958602 13:0.62348598 14:0.60704798 15:0.60824901 16:0.125 17:0.46816799 18:0.67307901 19:0.69721901 20:0 21:0 22:0 23:0.68964899 24:0.114645 25:0.81927902 26:0.87950402 27:0.95723802 28:0.820548 29:0.86168402 30:0.848463 31:0.159091 32:0.52676803 33:0.31818101 34:0.354343 35:0 36:0 37:0 38:0.40592399 39:0.151324 40:0.62341303 41:0.87420398 42:0.95561498 43:0.79814303 44:0.81285602 45:0.79864901 #docid = 333525
-0.10000000000000001 1:0.60000002 2:0.61990601 3:0.89999998 4:0.90167999 5:0 6:0 7:0 8:0.904773 9:0.60306501 10:0.835374 11:0.79181999 12:0.92055398 13:0.71016699 14:0.70699197 15:0.68886697 16:0.30000001 17:0.69271398 18:0.66666698 19:0.68168902 20:0 21:0 22:0 23:0.66232997 24:0.27188301 25:0.77529001 26:0.87992698 27:0.957398 28:0.80466098 29:0.79682201 30:0.79987299 31:0.340909 32:0.71443999 33:0.33088201 34:0.363175 35:0 36:0 37:0 38:0.402293 39:0.31446701 40:0.60101902 41:0.86917299 42:0.95370901 43:0.77465701 44:0.76699102 45:0.77279502 #docid = 98063
0.10000000000000001 1:0.40000001 2:0.47962499 3:0.30000001 4:0.331303 5:0 6:0 7:0 8:0.422802 9:0.42034799 10:0.64110202 11:0.53700101 12:0.78838402 13:0.59725398 14:0.55493897 15:0.556036 16:0.27500001 17:0.688151 18:0.63114899 19:0.65086597 20:0 21:0 22:0 23:0.66156501 24:0.25969899 25:0.80039299 26:0.90179402 27:0.96557301 28:0.81162798 29:0.80467099 30:0.78170198 31:0.29545501 32:0.69374901 33:0.27464801 34:0.30601299 35:0 36:0 37:0 38:0.35880101 39:0.283952 40:0.580293 41:0.86896002 42:0.953628 43:0.75279802 44:0.74703401 45:0.71640599 #docid = 71711
0.40000000000000002 1:0.40000001 2:0.47962499 3:0.375 4:0.409421 5:0 6:0 7:0 8:0.480683 9:0.39693499 10:0.63110602 11:0.55877697 12:0.80191302 13:0.55929798 14:0.545591 15:0.54666901 16:0.075000003 17:0.33681801 18:0.283784 19:0.29996899 20:0 21:0 22:0 23:0.29279801 24:0.063295998 25:0.484828 26:0.67332298 27:0.86826998 28:0.66313797 29:0.65887702 30:0.63441902 31:0.113636 32:0.483042 33:0.166666 34:0.19017901 35:0 36:0 37:0 38:0.216364 39:0.100103 40:0.435756 41:0.864739 42:0.952021 43:0.86548901 44:0.86612499 45:0.84979498 #docid = 223848
-0.88078802801555744 1:0.60000002 2:0.719437 3:0.75 4:0.803756 5:0 6:0 7:0 8:0.88132101 9:0.57965201 10:0.98124599 11:0.90935898 12:0.96766102 13:0.88794702 14:0.96311402 15:0.96501899 16:0.1 17:0.33681801 18:0.34146401 19:0.355122 20:0 21:0 22:0 23:0.372336 24:0.093704998 25:0.54715902 26:0.63316399 27:0.84778899 28:0.57362401 29:0.54029399 30:0.53161901 31:0.159091 32:0.516958 33:0.22340401 34:0.25097901 35:0 36:0 37:0 38:0.293504 39:0.147723 40:0.51694202 41:0.86084503 42:0.95053101 43:0.80583203 44:0.801754 45:0.79083401 #docid = 310643
0.10000000000000001 1:1 2:1 3:0.39473701 4:0.43704501 5:0 6:0 7:0 8:0.49170899 9:0.90063 10:0.715514 11:0.66376197 12:0.86051297 13:0.821293 14:0.73971301 15:0.78290999 16:0.30000001 17:0.775455 18:0.378378 19:0.397921 20:0 21:0 22:0 23:0.39557901 24:0.26241499 25:0.58747602 26:0.84001601 27:0.94193798 28:0.73180002 29:0.72553998 30:0.73828799 31:0.38636401 32:0.863864 33:0.196153 34:0.222435 35:0 36:0 37:0 38:0.246242 39:0.33408099 40:0.456736 41:0.856722 42:0.94894499 43:0.713157 44:0.72373497 45:0.73730099 #docid = 264831
0.10000000000000001 1:0.60000002 2:0.61990601 3:0.40909001 4:0.44157299 5:0 6:0 7:0 8:0.518785 9:0.60306501 10:0.68648601 11:0.61027801 12:0.83192003 13:0.657215 14:0.591524 15:0.60131198 16:0.25 17:0.69271398 18:0.289258 19:0.30510899 20:0 21:0 22:0 23:0.34340301 24:0.248152 25:0.57973701 26:0.83460599 27:0.93978602 28:0.73850298 29:0.73523098 30:0.73933399 31:0.29545501 32:0.73508102 33:0.147727 34:0.168014 35:0 36:0 37:0 38:0.21288601 39:0.29251301 40:0.44350901 41:0.8527 42:0.94739199 43:0.70727301 44:0.71867901 45:0.72254503 #docid = 173408
-3.3323453931447782 1:0.80000001 2:0.719437 3:0.60000002 4:0.62164801 5:0 6:0 7:0 8:0.66273898 9:0.78578198 10:0.74221599 11:0.68777299 12:0.87260699 13:0.70629901 14:0.63511699 15:0.624542 16:1 17:0.982934 18:1 19:1 20:0 21:0 22:0 23:1 24:1 25:1 26:0.88836497 27:0.960576 28:0.66411 29:0.74403602 30:0.613168 31:1 32:0.94847798 33:0.43999901 34:0.47479001 35:0 36:0 37:0 38:0.54101902 39:1 40:0.72852898 41:0.84948498 42:0.946145 43:0.59318799 44:0.70193601 45:0.56329602 #docid = 161873
0.10000000000000001 1:0.40000001 2:0.47962499 3:0.23076899 4:0.257604 5:0 6:0 7:0 8:0.34071201 9:0.42034799 10:0.59310102 11:0.47119001 12:0.74388701 13:0.57230198 14:0.51667798 15:0.51770002 16:0.47499999 17:0.953403 18:0.4375 19:0.45837599 20:0 21:0 22:0 23:0.438373 24:0.401191 25:0.607961 26:0.86950701 27:0.95343 28:0.74445498 29:0.75575697 30:0.75612003 31:0.47727299 32:0.93256301 33:0.190909 34:0.216232 35:0 36:0 37:0 38:0.239117 39:0.41154501 40:0.439832 41:0.84694803 42:0.94515699 43:0.68091899 44:0.709005 45:0.70942599 #docid = 259246
0.30000000000000004 1:0.40000001 2:0.47962499 3:0.375 4:0.409421 5:0 6:0 7:0 8:0.50435698 9:0.42034799 10:0.682383 11:0.59213603 12:0.82164901 13:0.614591 14:0.587529 15:0.58868998 16:0.2 17:0.69271398 18:0.20588399 19:0.21875 20:0 21:0 22:0 23:0.228981 24:0.178371 25:0.43952101 26:0.79188198 27:0.92228597 28:0.85508102 29:0.80119699 30:0.81479102 31:0.227273 32:0.72766501 33:0.104166 34:0.119458 35:0 36:0 37:0 38:0.146156 39:0.210278 40:0.355892 41:0.84618002 42:0.94485801 43:0.85026401 44:0.79013097 45:0.81647998 #docid = 93135
-0.10000000000000001 1:0.40000001 2:0.47962499 3:0.42857099 4:0.46416399 5:0 6:0 7:0 8:0.558586 9:0.42034799 10:0.70725203 11:0.62418002 12:0.83958602 13:0.62348598 14:0.60704798 15:0.60824901 16:0.40000001 17:0.80042303 18:0.47058901 19:0.489162 20:0 21:0 22:0 23:0.54090899 24:0.41055501 25:0.731484 26:0.86672401 27:0.95236301 28:0.71203703 29:0.71600997 30:0.70404297 31:0.409091 32:0.78587699 33:0.214285 34:0.240448 35:0 36:0 37:0 38:0.30267099 39:0.42186499 40:0.53714001 41:0.84199399 42:0.94322002 43:0.65263999 44:0.677167 45:0.66081297 #docid = 133756
-0.10000000000000001 1:0.2 2:0.239812 3:0.1875 4:0.20471001 5:0 6:0 7:0 8:0.27782899 9:0.23762999 10:0.411212 11:0.334921 12:0.62770098 13:0.30388701 14:0.23293599 15:0.23339599 16:0.30000001 17:0.775455 18:0.428572 19:0.44962499 20:0 21:0 22:0 23:0.443867 24:0.26241499 25:0.62930501 26:0.86536902 27:0.95184201 28:0.76425701 29:0.75598502 30:0.79596001 31:0.29545501 32:0.75537699 33:0.183963 34:0.208722 35:0 36:0 37:0 38:0.23991901 39:0.266177 40:0.45528701 41:0.84026301 42:0.942541 43:0.70149601 44:0.70512903 45:0.74320698 #docid = 171718
-0.10000000000000001 1:0.80000001 2:0.76018798 3:0.66666597 4:0.69754303 5:0 6:0 7:0 8:0.76790202 9:0.84069502 10:0.79024303 11:0.78707498 12:0.91850901 13:0.74458998 14:0.67170799 15:0.67703301 16:0.55000001 17:0.80385798 18:0.855555 19:0.86432099 20:0 21:0 22:0 23:0.88922101 24:0.55584598 25:0.94447201 26:0.86811697 27:0.95289701 28:0.69089401 29:0.71892101 30:0.64635998 31:0.590909 32:0.80145901 33:0.39393899 34:0.428734 35:0 36:0 37:0 38:0.50206798 39:0.60211402 40:0.70335698 41:0.83810103 42:0.94169003 43:0.63125002 44:0.68674099 45:0.60463399 #docid = 322473
0.79999999999999993 1:0 2:0 3:0 4:0 5:0 6:0 7:0 8:0 9:0 10:0 11:0 12:0 13:0 14:0 15:0 16:0.15000001 17:0.56136298 18:0.44681001 19:0.46880701 20:0 21:0 22:0 23:0.41120699 24:0.113939 25:0.569341 26:0.87197298 27:0.95437402 28:0.93611401 29:0.95228201 30:0.90868801 31:0.136364 32:0.52676803 33:0.18000001 34:0.20452601 35:0 36:0 37:0 38:0.202821 39:0.102708 40:0.374145 41:0.82361901 42:0.93593597 43:0.87536103 44:0.86414301 45:0.837677 #docid = 22242
-0.10000000000000001 1:0.60000002 2:0.719437 3:0.375 4:0.41734999 5:0 6:0 7:0 8:0.47793701 9:0.541673 10:0.71708 11:0.631428 12:0.84351599 13:0.74550802 14:0.739546 15:0.741009 16:0.34999999 17:0.83656698 18:0.35251701 19:0.37119201 20:0 21:0 22:0 23:0.35924199 24:0.29553899 25:0.54215002 26:0.81988299 27:0.93385899 28:0.705181 29:0.70778 30:0.73395002 31:0.38636401 32:0.86072999 33:0.168874 34:0.19199701 35:0 36:0 37:0 38:0.20992599 39:0.325865 40:0.40508699 41:0.82058799 42:0.93471903 43:0.66391402 44:0.687123 45:0.70836401 #docid = 262353
-0.10000000000000001 1:0.60000002 2:0.719437 3:0.642856 4:0.696244 5:0 6:0 7:0 8:0.73953801 9:0.541673 10:0.85477197 11:0.802275 12:0.92501903 13:0.78850901 14:0.85608399 15:0.857777 16:0 17:0 18:0 19:0 20:0 21:0 22:0 23:0 24:0 25:0 26:0 27:0 28:0 29:0 30:0 31:0.068181999 32:0.31606099 33:0.642856 34:0.696244 35:0 36:0 37:0 38:0.67891198 39:0.057427 40:0.81431401 41:0.81588501 42:0.93282098 43:0.77359498 44:1 45:0.95181501 #docid = 338708
-0.10000000000000001 1:0.2 2:0.239812 3:0.30000001 4:0.316881 5:0 6:0 7:0 8:0.38982299 9:0.23762999 10:0.45605001 11:0.39589199 12:0.68462402 13:0.33104801 14:0.26739699 15:0.26792601 16:0.375 17:0.98882502 18:0.23542801 19:0.24985801 20:0 21:0 22:0 23:0.237711 24:0.30406499 25:0.39541 26:0.80043298 27:0.92586303 28:0.83496201 29:0.77315003 30:0.84379297 31:0.36363599 32:0.96180201 33:0.105262 34:0.120812 35:0 36:0 37:0 38:0.133873 39:0.303242 40:0.29653901 41:0.81473702 42:0.932356 43:0.79308301 44:0.73253298 45:0.81151599 #docid = 90667
-0.30000000000000004 1:0.80000001 2:0.85971898 3:0.49999899 4:0.546152 5:0 6:0 7:0 8:0.62939 9:0.76236999 10:0.85582298 11:0.77373099 12:0.91268897 13:0.90430897 14:0.86220002 15:0.88061398 16:0.125 17:0.44909099 18:0.201149 19:0.21281099 20:0 21:0 22:0 23:0.209364 24:0.105652 25:0.35142699 26:0.59960198 27:0.82964998 28:0.57094902 29:0.54562098 30:0.51867098 31:0.20454501 32:0.65002298 33:0.136363 34:0.155331 35:0 36:0 37:0 38:0.175889 39:0.17756701 40:0.35143301 41:0.81130999 42:0.93096501 43:0.80859798 44:0.75871497 45:0.75562799 #docid = 76681
-0.10000000000000001 1:0.60000002 2:0.61990601 3:0.44999999 4:0.48253301 5:0 6:0 7:0 8:0.55773598 9:0.60306501 10:0.70433903 11:0.63434899 12:0.84508699 13:0.66566801 14:0.60546702 15:0.61307698 16:0.27500001 17:0.64611602 18:0.52739799 19:0.54224998 20:0 21:0 22:0 23:0.51976198 24:0.241712 25:0.64283401 26:0.80287403 27:0.92687702 28:0.74077803 29:0.72741097 30:0.706873 31:0.31818199 32:0.68052399 33:0.253012 34:0.28024301 35:0 36:0 37:0 38:0.31075701 39:0.28688499 40:0.50069898 41:0.81080401 42:0.93075901 43:0.69955498 44:0.70038903 45:0.67269498 #docid = 323672
0.20000000000000001 1:0.40000001 2:0.47962499 3:0.1875 4:0.21073399 5:0 6:0 7:0 8:0.28552699 9:0.42034799 10:0.55561101 11:0.41974899 12:0.70454001 13:0.54851103 14:0.48645401 15:0.48741499 16:0.22499999 17:0.63365102 18:0.38888901 19:0.40746 20:0 21:0 22:0 23:0.438517 24:0.217343 25:0.645127 26:0.82733399 27:0.93687201 28:0.71673298 29:0.70320898 30:0.69419497 31:0.25 32:0.65002298 33:0.170103 34:0.19253901 35:0 36:0 37:0 38:0.238492 39:0.245221 40:0.464084 41:0.803662 42:0.92783701 43:0.641904 44:0.65247297 45:0.64973903 #docid = 108264
-0.20000000000000001 1:0.40000001 2:0.47962499 3:0.75 4:0.77565998 5:0 6:0 7:0 8:0.83146 9:0.42034799 10:0.81251299 11:0.74515003 12:0.89987803 13:0.65113598 14:0.68896002 15:0.69032198 16:0.52499998 17:0.76428002 18:0.72772402 19:0.73554498 20:0 21:0 22:0 23:0.73296797 24:0.498694 25:0.830024 26:0.823798 27:0.93544501 28:0.639534 29:0.675035 30:0.64204502 31:0.52272701 32:0.74668902 33:0.32857201 34:0.35867599 35:0 36:0 37:0 38:0.41045499 39:0.50293303 40:0.61504 41:0.80152601 42:0.92695898 43:0.58012098 44:0.64547902 45:0.60316598 #docid = 18477
-0.5 1:0.40000001 2:0.47962499 3:0.75 4:0.77565998 5:0 6:0 7:0 8:0.83146 9:0.42034799 10:0.81251299 11:0.74515003 12:0.89987803 13:0.65113598 14:0.68896002 15:0.69032198 16:0.30000001 17:0.63037801 18:0.60000199 19:0.61668199 20:0 21:0 22:0 23:0.66904902 24:0.30809399 25:0.81881303 26:0.82077903 27:0.934223 28:0.657754 29:0.65978497 30:0.64450598 31:0.31818199 32:0.63212103 33:0.28378299 34:0.31417999 35:0 36:0 37:0 38:0.38644499 39:0.328639 40:0.61364597 41:0.80031598 42:0.92646003 43:0.604895 44:0.63565999 45:0.60684299 #docid = 74037
0.10000000000000003 1:0 2:0 3:0 4:0 5:0 6:0 7:0 8:0 9:0 10:0 11:0 12:0 13:0 14:0 15:0 16:0.32499999 17:0.85158402 18:0.29738501 19:0.313658 20:0 21:0 22:0 23:0.310736 24:0.279533 25:0.48571 26:0.82941198 27:0.93770802 28:0.84944499 29:0.79189801 30:0.83228898 31:0.29545501 32:0.79910201 33:0.123417 34:0.140864 35:0 36:0 37:0 38:0.15892901 39:0.25435901 40:0.327526 41:0.79823101 42:0.92559898 43:0.782368 44:0.72508597 45:0.77180898 #docid = 78707
-0.20000000000000001 1:0.40000001 2:0.47962499 3:0.27272701 4:0.302457 5:0 6:0 7:0 8:0.39131001 9:0.42034799 10:0.62359101 11:0.51311201 12:0.77289599 13:0.58880001 14:0.54103202 15:0.54210103 16:0.40000001 17:0.849033 18:0.32558101 19:0.342363 20:0 21:0 22:0 23:0.36315799 24:0.37434399 25:0.56922102 26:0.80924398 27:0.92950898 28:0.64580399 29:0.66480702 30:0.67097503 31:0.409091 32:0.83301902 33:0.147541 34:0.167576 35:0 36:0 37:0 38:0.204009 39:0.388327 40:0.41587299 41:0.795084 42:0.92429501 43:0.57722801 44:0.62885398 45:0.62568498 #docid = 338702
-0.10000000000000001 1:0.40000001 2:0.47962499 3:0.75 4:0.77565998 5:0 6:0 7:0 8:0.83146 9:0.42034799 10:0.81251299 11:0.74515003 12:0.89987803 13:0.65113598 14:0.68896002 15:0.69032198 16:0.30000001 17:0.63037801 18:0.53164703 19:0.548935 20:0 21:0 22:0 23:0.603185 24:0.30809399 25:0.77581102 26:0.807459 27:0.928774 28:0.62987399 29:0.63939703 30:0.60096198 31:0.31818199 32:0.63212103 33:0.253012 34:0.28145301 35:0 36:0 37:0 38:0.35057601 39:0.328639 40:0.58223301 41:0.79000401 42:0.92217898 43:0.57518202 44:0.61762899 45:0.56512302 #docid = 89689
0.30000000000000004 1:0.40000001 2:0.47962499 3:0.60000002 4:0.63376099 5:0 6:0 7:0 8:0.713799 9:0.42034799 10:0.77036798 11:0.69993198 12:0.87857199 13:0.641752 14:0.65628099 15:0.65757799 16:0.22499999 17:0.55090898 18:0.59433901 19:0.610811 20:0 21:0 22:0 23:0.65468502 24:0.226574 25:0.80608499 26:0.80417001 27:0.927414 28:0.67145503 29:0.657076 30:0.67340797 31:0.25 32:0.56809998 33:0.284482 34:0.31481299 35:0 36:0 37:0 38:0.38315201 39:0.25410801 40:0.60860699 41:0.78977901 42:0.92208499 43:0.621975 44:0.63534898 45:0.64216602 #docid = 78046
0.59999999999999998 1:0.40000001 2:0.47962499 3:0.375 4:0.409421 5:0 6:0 7:0 8:0.50435698 9:0.42034799 10:0.682383 11:0.59213603 12:0.82164901 13:0.614591 14:0.587529 15:0.58868998 16:0.175 17:0.48523399 18:0.700001 19:0.71407598 20:0 21:0 22:0 23:0.74860901 24:0.175225 25:0.86311799 26:0.80537897 27:0.92791498 28:0.70629299 29:0.68397802 30:0.67682302 31:0.20454501 32:0.516958 33:0.31395301 34:0.34577799 35:0 36:0 37:0 38:0.415126 39:0.20716 40:0.63492602 41:0.78865099 42:0.92161202 43:0.65113002 44:0.65051401 45:0.63450903 #docid = 116546
-0.20000000000000001 1:0.40000001 2:0.47962499 3:0.75 4:0.77565998 5:0 6:0 7:0 8:0.83146 9:0.42034799 10:0.81251299 11:0.74515003 12:0.89987803 13:0.65113598 14:0.68896002 15:0.69032198 16:0.30000001 17:0.627038 18:0.54545498 19:0.56212503 20:0 21:0 22:0 23:0.603158 24:0.299101 25:0.76897901 26:0.80257797 27:0.926754 28:0.63367301 29:0.64124203 30:0.621126 31:0.31818199 32:0.62972701 33:0.25926 34:0.287898 35:0 36:0 37:0 38:0.35150501 39:0.32042301 40:0.57867497 41:0.78702903 42:0.92093301 43:0.579813 44:0.61976397 45:0.58573502 #docid = 323670
-0.10000000000000001 1:0.40000001 2:0.47962499 3:0.25 4:0.27823299 5:0 6:0 7:0 8:0.36423999 9:0.42034799 10:0.60767603 11:0.49125901 12:0.75808299 13:0.58048499 14:0.52834302 15:0.52938801 16:0.34999999 17:0.67363602 18:0.51578897 19:0.533131 20:0 21:0 22:0 23:0.58759302 24:0.35944301 25:0.76521403 26:0.808635 27:0.92925799 28:0.60849297 29:0.634296 30:0.60029697 31:0.36363599 32:0.667925 33:0.224299 34:0.25063601 35:0 36:0 37:0 38:0.31601301 39:0.375588 40:0.55010998 41:0.78165197 42:0.91867 43:0.52741402 44:0.59871697 45:0.55405003 #docid = 235912
-0.20000000000000001 1:0.40000001 2:0.47962499 3:0.42857099 4:0.46416399 5:0 6:0 7:0 8:0.558586 9:0.42034799 10:0.70725203 11:0.62418002 12:0.83958602 13:0.62348598 14:0.60704798 15:0.60824901 16:0.25 17:0.580441 18:0.52239001 19:0.53971201 20:0 21:0 22:0 23:0.59409499 24:0.25674501 25:0.76965499 26:0.798917 27:0.92523199 28:0.63950801 29:0.63643801 30:0.62202901 31:0.27272701 32:0.59152901 33:0.24324299 34:0.27099901 35:0 36:0 37:0 38:0.33893901 39:0.28169101 40:0.57163602 41:0.78155702 42:0.91863 43:0.57883602 44:0.61144602 45:0.58719301 #docid = 125744
1.0999999999999999 1:0.2 2:0.239812 3:0.1875 4:0.20471001 5:0 6:0 7:0 8:0.161755 9:0.121326 10:0.137578 11:0.168953 12:0.39480701 13:0.008742 14:0.0082980003 15:0.0083140004 16:0.125 17:0.51476598 18:0.324076 19:0.342749 20:0 21:0 22:0 23:0.31105101 24:0.097057998 25:0.48207599 26:0.81059802 27:0.93006599 28:0.87863499 29:0.87391698 30:0.844109 31:0.136364 32:0.54466999 33:0.145161 34:0.165978 35:0 36:0 37:0 38:0.159317 39:0.098093003 40:0.30854401 41:0.781371 42:0.91855103 43:0.84625697 44:0.81660599 45:0.82118702 #docid = 8504
-0.30000000000000004 1:0.60000002 2:0.719437 3:0.44999999 4:0.496957 5:0 6:0 7:0 8:0.55630797 9:0.541673 10:0.76277798 11:0.69022202 12:0.87381703 13:0.76227701 14:0.77883601 15:0.78037602 16:0.27500001 17:0.597507 18:0.47530699 19:0.487048 20:0 21:0 22:0 23:0.446843 24:0.23271801 25:0.51225001 26:0.68930602 27:0.87608302 28:0.67229402 29:0.65432698 30:0.63735998 31:0.31818199 32:0.69842601 33:0.23076899 34:0.256778 35:0 36:0 37:0 38:0.270666 39:0.26978001 40:0.42858699 41:0.77808899 42:0.91716099 43:0.69305998 44:0.69348103 45:0.71100801 #docid = 331900
-0.10000000000000001 1:0.60000002 2:0.61990601 3:0.49999899 4:0.53189099 5:0 6:0 7:0 8:0.60324502 9:0.60306501 10:0.72412902 11:0.66046101 12:0.85881603 13:0.67426401 14:0.62088698 15:0.62579697 16:0.32499999 17:0.627038 18:0.48924801 19:0.499349 20:0 21:0 22:0 23:0.46382001 24:0.28000799 25:0.52281803 26:0.71324801 27:0.88745397 28:0.73164201 29:0.71842498 30:0.676642 31:0.36363599 32:0.67345297 33:0.235294 34:0.25919899 35:0 36:0 37:0 38:0.28101999 39:0.322016 40:0.43696401 41:0.77573597 42:0.916161 43:0.71476299 44:0.71577603 45:0.69117701 #docid = 181500
0.10000000000000001 1:0.60000002 2:0.61990601 3:0.34615299 4:0.377516 5:0 6:0 7:0 8:0.45550999 9:0.60306501 10:0.65532303 11:0.56734997 12:0.80709499 13:0.64071703 14:0.56709802 15:0.58018303 16:0.125 17:0.44909099 18:0.25362399 19:0.26746899 20:0 21:0 22:0 23:0.27342999 24:0.110586 25:0.44044101 26:0.69702899 27:0.879794 28:0.70297301 29:0.682962 30:0.68608499 31:0.18181799 32:0.54466999 33:0.146341 34:0.165822 35:0 36:0 37:0 38:0.196582 39:0.167089 40:0.38900399 41:0.772789 42:0.91490501 43:0.693946 44:0.69086498 45:0.70818001 #docid = 322477
-0.10000000000000001 1:0.60000002 2:0.719437 3:0.642856 4:0.696244 5:0 6:0 7:0 8:0.73953801 9:0.541673 10:0.85477197 11:0.802275 12:0.92501903 13:0.78850901 14:0.85608399 15:0.857777 16:0.22499999 17:0.60540998 18:0.35795599 19:0.373925 20:0 21:0 22:0 23:0.340316 24:0.181132 25:0.43913999 26:0.68781102 27:0.87536001 28:0.669222 29:0.64991999 30:0.63718301 31:0.27272701 32:0.69374901 33:0.189474 34:0.21381401 35:0 36:0 37:0 38:0.22327401 39:0.222161 40:0.385472 41:0.771703 42:0.91443998 43:0.68329799 44:0.68424398 45:0.69045597 #docid = 190806
-0.30000000000000004 1:0.60000002 2:0.61990601 3:0.49999899 4:0.53189099 5:0 6:0 7:0 8:0.60324502 9:0.60306501 10:0.72412902 11:0.66046101 12:0.85881603 13:0.67426401 14:0.62088698 15:0.62579697 16:0.125 17:0.402493 18:0.56451601 19:0.58075601 20:0 21:0 22:0 23:0.61806399 24:0.123876 25:0.777089 26:0.75818402 27:0.907803 28:0.671736 29:0.64595097 30:0.63309002 31:0.18181799 32:0.483042 33:0.30000001 34:0.33040601 35:0 36:0 37:0 38:0.39118299 39:0.17957699 40:0.60867 41:0.77043498 42:0.91389799 43:0.640679 44:0.639211 45:0.58763802 #docid = 323333
0.27620794262453902 1:0.40000001 2:0.47962499 3:0.49999899 4:0.53583598 5:0 6:0 7:0 8:0.62637299 9:0.42034799 10:0.73609501 11:0.65988898 12:0.85852098 13:0.63253701 14:0.62959599 15:0.63084102 16:0.1 17:0.402493 18:0.20289899 19:0.215031 20:0 21:0 22:0 23:0.244131 24:0.098401003 25:0.47213599 26:0.69058502 27:0.876701 28:0.67334598 29:0.65106702 30:0.61365497 31:0.136364 32:0.483042 33:0.12 34:0.13692699 35:0 36:0 37:0 38:0.176945 39:0.136574 40:0.398635 41:0.77014899 42:0.91377503 43:0.67460102 44:0.67220402 45:0.65444499 #docid = 299071
-0.10000000000000001 1:0 2:0 3:0 4:0 5:0 6:0 7:0 8:0 9:0 10:0 11:0 12:0 13:0 14:0 15:0 16:0.32499999 17:0.78335798 18:0.484043 19:0.50524402 20:0 21:0 22:0 23:0.42460001 24:0.237913 25:0.54373902 26:0.81124699 27:0.93033302 28:0.773013 29:0.762591 30:0.78565502 31:0.29545501 32:0.73508102 33:0.193069 34:0.218357 35:0 36:0 37:0 38:0.207991 39:0.214863 40:0.35819799 41:0.76534301 42:0.911708 43:0.69430602 44:0.69475198 45:0.72165698 #docid = 148173
-0.20000000000000001 1:0.60000002 2:0.719437 3:0.5625 4:0.61413097 5:0 6:0 7:0 8:0.66611201 9:0.541673 10:0.81996101 11:0.76108903 12:0.90708202 13:0.77961498 14:0.82711202 15:0.82874697 16:0.175 17:0.46816799 18:0.27840799 19:0.291462 20:0 21:0 22:0 23:0.31396601 24:0.16623101 25:0.50166601 26:0.65029299 27:0.85667902 28:0.50534499 29:0.51315099 30:0.50348002 31:0.227273 32:0.61182499 33:0.15625 34:0.17686 35:0 36:0 37:0 38:0.208765 39:0.20942099 40:0.40782499 41:0.76147902 42:0.91003698 43:0.616898 44:0.62871599 45:0.617746 #docid = 133723
-0.12357273155156037 1:1 2:1 3:0.53571397 4:0.58407497 5:0 6:0 7:0 8:0.61038297 9:0.845716 10:0.78907698 11:0.739968 12:0.89750302 13:0.85785103 14:0.80530399 15:0.84255201 16:0.40000001 17:0.79089302 18:0.44094399 19:0.45836899 20:0 21:0 22:0 23:0.387611 24:0.30168399 25:0.42728299 26:0.689583 27:0.87621701 28:0.67972302 29:0.67342103 30:0.64916402 31:0.47727299 32:0.87289602 33:0.22340401 34:0.25064999 35:0 36:0 37:0 38:0.24138901 39:0.36090299 40:0.36517999 41:0.75819701 42:0.908611 43:0.681279 44:0.697514 45:0.69509399 #docid = 90952
-0.5 1:0.40000001 2:0.47962499 3:0.75 4:0.77565998 5:0 6:0 7:0 8:0.83146 9:0.42034799 10:0.81251299 11:0.74515003 12:0.89987803 13:0.65113598 14:0.68896002 15:0.69032198 16:0.32499999 17:0.63365102 18:0.464286 19:0.479422 20:0 21:0 22:0 23:0.50319201 24:0.31128499 25:0.67646003 26:0.761159 27:0.90910703 28:0.576783 29:0.60284299 30:0.59552801 31:0.340909 32:0.63679802 33:0.220588 34:0.245726 35:0 36:0 37:0 38:0.295618 39:0.331572 40:0.51308 41:0.756836 42:0.90801799 43:0.52016002 44:0.58666301 45:0.565121 #docid = 27831
2.7235727315515614 1:0 2:0 3:0 4:0 5:0 6:0 7:0 8:0 9:0 10:0 11:0 12:0 13:0 14:0 15:0 16:0.25 17:0.758389 18:0.30434999 19:0.321325 20:0 21:0 22:0 23:0.28896901 24:0.193716 25:0.39539599 26:0.78498399 27:0.91937202 28:0.87067401 29:0.814821 30:0.82176501 31:0.227273 32:0.71165103 33:0.127119 34:0.145218 35:0 36:0 37:0 38:0.14804 39:0.175556 40:0.262622 41:0.75497699 42:0.907206 43:0.808281 44:0.74740398 45:0.76289302 #docid = 91185
-0.10000000000000001 1:0.40000001 2:0.47962499 3:0.375 4:0.409421 5:0 6:0 7:0 8:0.50435698 9:0.42034799 10:0.682383 11:0.59213603 12:0.82164901 13:0.614591 14:0.587529 15:0.58868998 16:0.22499999 17:0.55090898 18:0.398734 19:0.415288 20:0 21:0 22:0 23:0.47454301 24:0.235567 25:0.68557799 26:0.76277697 27:0.909814 28:0.58480299 29:0.590029 30:0.62093699 31:0.25 32:0.56809998 33:0.18965501 34:0.213034 35:0 36:0 37:0 38:0.27560401 39:0.26232499 40:0.51190603 41:0.754098 42:0.90682203 43:0.52120101 44:0.57182503 45:0.58007199 #docid = 85806
-0.30000000000000004 1:0.2 2:0.239812 3:0.166666 4:0.183121 5:0 6:0 7:0 8:0.14626899 9:0.121326 10:0.129069 11:0.160703 12:0.37776899 13:0 14:0 15:0 16:0.25 17:0.69932598 18:0.27343801 19:0.28888199 20:0 21:0 22:0 23:0.303736 24:0.22928999 25:0.51260698 26:0.768049 27:0.912108 28:0.64664298 29:0.64282203 30:0.64071399 31:0.25 32:0.69995397 33:0.120438 34:0.137685 35:0 36:0 37:0 38:0.158014 39:0.219228 40:0.34768501 41:0.74904197 42:0.90460098 43:0.586968 44:0.61241001 45:0.60941797 #docid = 129800
2.7755575615628914e-017 1:0 2:0 3:0 4:0 5:0 6:0 7:0 8:0 9:0 10:0 11:0 12:0 13:0 14:0 15:0 16:0.175 17:0.627038 18:0.322368 19:0.34057099 20:0 21:0 22:0 23:0.307105 24:0.13511699 25:0.45307401 26:0.81533599 27:0.93200701 28:0.887339 29:0.85507399 30:0.85077202 31:0.159091 32:0.588395 33:0.117978 34:0.135083 35:0 36:0 37:0 38:0.138153 39:0.122074 40:0.272764 41:0.74830502 42:0.904275 43:0.79292798 44:0.746198 45:0.74601901 #docid = 80664
0.5 1:0.60000002 2:0.719437 3:0.75 4:0.803756 5:0 6:0 7:0 8:0.83177298 9:0.541673 10:0.89545298 11:0.84817398 12:0.94395399 13:0.79756099 14:0.889597 15:0.89135498 16:0.22499999 17:0.63365102 18:0.30882299 19:0.32503 20:0 21:0 22:0 23:0.273352 24:0.16267 25:0.36967501 26:0.66066098 27:0.861947 28:0.65157002 29:0.63318598 30:0.65133703 31:0.27272701 32:0.71165103 33:0.166666 34:0.18920501 35:0 36:0 37:0 38:0.18609101 39:0.204385 40:0.33668 41:0.74648899 42:0.90347302 43:0.66007698 44:0.66577101 45:0.70192403 #docid = 46233
-0.10000000000000001 1:0.40000001 2:0.47962499 3:0.49999899 4:0.53583598 5:0 6:0 7:0 8:0.62637299 9:0.42034799 10:0.73609501 11:0.65988898 12:0.85852098 13:0.63253701 14:0.62959599 15:0.63084102 16:0.22499999 17:0.55090898 18:0.35795599 19:0.37386501 20:0 21:0 22:0 23:0.43103501 24:0.235567 25:0.65105999 26:0.74768502 27:0.90315902 28:0.55880302 29:0.57190299 30:0.51982099 31:0.25 32:0.56809998 33:0.175531 34:0.197614 35:0 36:0 37:0 38:0.25737801 39:0.26232499 40:0.49277699 41:0.74512601 42:0.90287 43:0.50006902 44:0.55970198 45:0.48570201 #docid = 51085
-0.10000000000000001 1:0.60000002 2:0.61990601 3:0.44999999 4:0.48253301 5:0 6:0 7:0 8:0.57886499 9:0.657978 10:0.70713103 11:0.66375899 12:0.860511 13:0.66758001 14:0.60575199 15:0.613419 16:0.32499999 17:0.63365102 18:0.35271299 19:0.367356 20:0 21:0 22:0 23:0.435453 24:0.35625201 25:0.655586 26:0.74654299 27:0.90265 28:0.503802 29:0.55748898 30:0.50957203 31:0.36363599 32:0.65002298 33:0.172662 34:0.193792 35:0 36:0 37:0 38:0.25959 39:0.40023801 40:0.496757 41:0.744331 42:0.90251702 43:0.43612 44:0.546296 45:0.476033 #docid = 163424
-0.10000000000000001 1:0.40000001 2:0.47962499 3:0.60000002 4:0.63376099 5:0 6:0 7:0 8:0.713799 9:0.42034799 10:0.77036798 11:0.69993198 12:0.87857199 13:0.641752 14:0.65628099 15:0.65757799 16:0.25 17:0.57587802 18:0.336539 19:0.35180399 20:0 21:0 22:0 23:0.41156501 24:0.26573899 25:0.63654798 26:0.74134302 27:0.90032202 28:0.53055698 29:0.559286 30:0.55579901 31:0.27272701 32:0.588395 33:0.16513801 34:0.186131 35:0 36:0 37:0 38:0.24566901 39:0.28990799 40:0.48142001 41:0.74004698 42:0.900612 43:0.471109 44:0.54867399 45:0.53261799 #docid = 90951
0.59999999999999998 1:0.80000001 2:0.76018798 3:0.42857099 4:0.46416399 5:0 6:0 7:0 8:0.558586 9:0.84069502 10:0.70725203 11:0.672373 12:0.86489999 13:0.70298898 14:0.60704798 15:0.61438102 16:0.1 17:0.355896 18:0.27450901 19:0.28845099 20:0 21:0 22:0 23:0.33403 24:0.102698 25:0.56111002 26:0.66451597 27:0.86388499 28:0.55586803 29:0.52826899 30:0.48875999 31:0.18181799 32:0.48924699 33:0.184615 34:0.207587 35:0 36:0 37:0 38:0.26637 39:0.187794 40:0.50010699 41:0.73750699 42:0.89947701 43:0.54232198 44:0.56817698 45:0.486918 #docid = 181496
-0.10000000000000001 1:0.60000002 2:0.61990601 3:0.44999999 4:0.48253301 5:0 6:0 7:0 8:0.55773598 9:0.60306501 10:0.70433903 11:0.63434899 12:0.84508699 13:0.66566801 14:0.60546702 15:0.61307698 16:0.2 17:0.53973401 18:0.34999999 19:0.36431199 20:0 21:0 22:0 23:0.34542799 24:0.169185 25:0.45536399 26:0.66990101 27:0.86657298 28:0.64414299 29:0.623182 30:0.58836502 31:0.25 32:0.60629803 33:0.18333299 34:0.205413 35:0 36:0 37:0 38:0.22854599 39:0.220571 40:0.398433 41:0.73694599 42:0.899225 43:0.62465501 44:0.633349 45:0.60450298 #docid = 173411
-0.10000000000000001 1:0.40000001 2:0.47962499 3:0.1875 4:0.21073399 5:0 6:0 7:0 8:0.28552699 9:0.42034799 10:0.55561101 11:0.41974899 12:0.70454001 13:0.54851103 14:0.48645401 15:0.48741499 16:0.32499999 17:0.63365102 18:0.42523301 19:0.440413 20:0 21:0 22:0 23:0.465482 24:0.31128499 25:0.64634699 26:0.74864399 27:0.90358597 28:0.55402499 29:0.58803803 30:0.528364 31:0.340909 32:0.63679802 33:0.182926 34:0.205107 35:0 36:0 37:0 38:0.250489 39:0.331572 40:0.46447 41:0.73417801 42:0.89798301 43:0.46528101 44:0.55727202 45:0.476262 #docid = 332133
-1.9429972644580353 1:0 2:0 3:0 4:0 5:0 6:0 7:0 8:0 9:0 10:0 11:0 12:0 13:0 14:0 15:0 16:0.55000001 17:0.77409899 18:0.469511 19:0.48375201 20:0 21:0 22:0 23:0.50024402 24:0.51987201 25:0.66434097 26:0.76435602 27:0.91050297 28:0.51007199 29:0.59868097 30:0.49229401 31:0.5 32:0.72639298 33:0.19411799 34:0.216618 35:0 36:0 37:0 38:0.257254 39:0.47534999 40:0.45982701 41:0.73298401 42:0.89744598 43:0.418551 44:0.55760998 45:0.442377 #docid = 158706
-0.10000000000000001 1:0.40000001 2:0.47962499 3:0.17647 4:0.198686 5:0 6:0 7:0 8:0.27092701 9:0.42034799 10:0.54476202 11:0.40501001 12:0.692375 13:0.54082102 14:0.47764 15:0.47858399 16:0.22499999 17:0.55090898 18:0.362068 19:0.378057 20:0 21:0 22:0 23:0.435469 24:0.235567 25:0.65467203 26:0.74933201 27:0.90389198 28:0.561607 29:0.57382202 30:0.53276998 31:0.25 32:0.56809998 33:0.15865301 34:0.179097 35:0 36:0 37:0 38:0.23518001 39:0.26232499 40:0.468375 41:0.73267299 42:0.89730603 43:0.47159699 44:0.54387599 45:0.49029699 #docid = 283271
-0.20000000000000001 1:0.60000002 2:0.719437 3:0.22499999 4:0.25439501 5:0 6:0 7:0 8:0.30635899 9:0.541673 10:0.594787 11:0.47095999 12:0.74372101 13:0.68344301 14:0.63044298 15:0.62371898 16:0.125 17:0.44909099 18:0.213416 19:0.225619 20:0 21:0 22:0 23:0.25373599 24:0.123638 25:0.47704199 26:0.65934098 27:0.86128098 28:0.58684802 29:0.56225199 30:0.54471499 31:0.18181799 32:0.57858598 33:0.117646 34:0.134353 35:0 36:0 37:0 38:0.162314 39:0.170018 40:0.36702201 41:0.72899503 42:0.89564401 43:0.58464301 44:0.59763902 45:0.60023803 #docid = 341219
-0.10000000000000001 1:0.40000001 2:0.47962499 3:0.42857099 4:0.46416399 5:0 6:0 7:0 8:0.558586 9:0.42034799 10:0.70725203 11:0.62418002 12:0.83958602 13:0.62348598 14:0.60704798 15:0.60824901 16:0.175 17:0.48523399 18:0.34027699 19:0.355775 20:0 21:0 22:0 23:0.39811599 24:0.175225 25:0.61199701 26:0.72006297 27:0.89062202 28:0.56698102 29:0.56244099 30:0.55423898 31:0.20454501 32:0.516958 33:0.170886 34:0.192508 35:0 36:0 37:0 38:0.244899 39:0.20716 40:0.47244799 41:0.72867602 42:0.89549899 43:0.51236999 44:0.55500197 45:0.52056098 #docid = 129799
-0.10000000000000001 1:0.40000001 2:0.47962499 3:0.166666 4:0.18794 5:0 6:0 7:0 8:0.25775799 9:0.42034799 10:0.534576 11:0.39127201 12:0.68062901 13:0.53324401 14:0.46933499 15:0.470263 16:0.1 17:0.355896 18:0.482759 19:0.500103 20:0 21:0 22:0 23:0.554717 24:0.102698 25:0.74229199 26:0.73666698 27:0.89821398 28:0.65057701 29:0.62314802 30:0.63853198 31:0.136364 32:0.42141399 33:0.19148999 34:0.215083 35:0 36:0 37:0 38:0.275132 39:0.140845 40:0.50931001 41:0.72713602 42:0.89480102 43:0.56601799 44:0.57390797 45:0.58097798 #docid = 264535
-0.10000000000000001 1:0.40000001 2:0.47962499 3:0.30000001 4:0.331303 5:0 6:0 7:0 8:0.422802 9:0.42034799 10:0.64110202 11:0.53700101 12:0.78838402 13:0.59725398 14:0.55493897 15:0.556036 16:0.1 17:0.402493 18:0.152173 19:0.16170301 20:0 21:0 22:0 23:0.17846701 24:0.093800999 25:0.365421 26:0.62429601 27:0.84309101 28:0.66745001 29:0.646716 30:0.634547 31:0.136364 32:0.483042 33:0.088235997 34:0.101087 35:0 36:0 37:0 38:0.13030601 39:0.133057 40:0.32978499 41:0.72603703 42:0.89430201 43:0.67134702 44:0.67361701 45:0.68436402 #docid = 101609
0.10000000000000001 1:0.40000001 2:0.47962499 3:0.33333299 4:0.36623901 5:0 6:0 7:0 8:0.45991999 9:0.42034799 10:0.66054702 11:0.563223 12:0.80461001 13:0.60584903 14:0.57032198 15:0.57144898 16:0.1 17:0.355896 18:0.35897401 19:0.375016 20:0 21:0 22:0 23:0.42649001 24:0.102698 25:0.643902 26:0.70201999 27:0.88217002 28:0.60462898 29:0.57330102 30:0.54853803 31:0.136364 32:0.42141399 33:0.1875 34:0.21073399 35:0 36:0 37:0 38:0.27005601 39:0.140845 40:0.50399899 41:0.72490698 42:0.89378798 43:0.56166899 44:0.57060701 45:0.50448102 #docid = 184753
0.10000000000000001 1:0.60000002 2:0.719437 3:0.26470599 4:0.29802901 5:0 6:0 7:0 8:0.35390899 9:0.541673 10:0.632698 11:0.52057099 12:0.77780801 13:0.70584399 14:0.66497201 15:0.66628599 16:0.22499999 17:0.66318202 18:0.242309 19:0.25640899 20:0 21:0 22:0 23:0.229579 24:0.171664 25:0.38054299 26:0.67622298 27:0.86970103 28:0.61767602 29:0.60831499 30:0.64595997 31:0.27272701 32:0.72766501 33:0.122449 34:0.139908 35:0 36:0 37:0 38:0.144491 39:0.212602 40:0.30437499 41:0.719217 42:0.891186 43:0.58206302 44:0.60986799 45:0.63907599 #docid = 299074
0.5 1:0.60000002 2:0.61990601 3:0.5625 4:0.59254098 5:0 6:0 7:0 8:0.67861998 9:0.657978 10:0.74858099 11:0.71812201 12:0.88730299 13:0.68491697 14:0.638358 15:0.605775 16:0.075000003 17:0.29021999 18:0.244185 19:0.256652 20:0 21:0 22:0 23:0.28349301 24:0.072526999 25:0.48216599 26:0.59468502 27:0.82690698 28:0.534446 29:0.49837199 30:0.508524 31:0.136364 32:0.42141399 33:0.17647 34:0.198686 35:0 36:0 37:0 38:0.255896 39:0.140845 40:0.48886999 41:0.71830201 42:0.89076501 43:0.54888201 44:0.56110501 45:0.578996 #docid = 144382
-0.59999999999999998 1:0.80000001 2:0.719437 3:0.46153799 4:0.489685 5:0 6:0 7:0 8:0.54792601 9:0.78578198 10:0.69284201 11:0.623209 12:0.83905602 13:0.68134803 14:0.59671098 15:0.57734299 16:0.34999999 17:0.64908803 18:0.345072 19:0.35931399 20:0 21:0 22:0 23:0.38211301 24:0.332463 25:0.567967 26:0.71044499 27:0.88614303 28:0.48453301 29:0.549236 30:0.51429701 31:0.409091 32:0.67345297 33:0.17419299 34:0.19516 35:0 36:0 37:0 38:0.234138 39:0.38967001 40:0.43442199 41:0.71571499 42:0.88957399 43:0.41548699 44:0.54151398 45:0.47763601 #docid = 319404
-0.10000000000000001 1:0.40000001 2:0.47962499 3:0.33333299 4:0.36623901 5:0 6:0 7:0 8:0.45991999 9:0.42034799 10:0.66054702 11:0.563223 12:0.80461001 13:0.60584903 14:0.57032198 15:0.57144898 16:0.25 17:0.580441 18:0.28 19:0.29410499 20:0 21:0 22:0 23:0.34017199 24:0.25674501 25:0.56700802 26:0.71066898 27:0.88624799 28:0.48429599 29:0.53158998 30:0.50221097 31:0.27272701 32:0.59152901 33:0.13432799 34:0.15226001 35:0 36:0 37:0 38:0.20003501 39:0.28169101 40:0.423839 41:0.71106201 42:0.88742101 43:0.411477 44:0.51839399 45:0.46592 #docid = 189922
-0.10000000000000001 1:0.60000002 2:0.61990601 3:0.22499999 4:0.25044999 5:0 6:0 7:0 8:0.32013401 9:0.60306501 10:0.57590097 11:0.45584401 12:0.73261702 13:0.58683401 14:0.50420803 15:0.52342802 16:0.42500001 17:0.72885698 18:0.40753299 19:0.41992599 20:0 21:0 22:0 23:0.40014401 24:0.36877799 25:0.49880201 26:0.69252598 27:0.877635 28:0.60415298 29:0.61338198 30:0.56361598 31:0.45454499 32:0.74668902 33:0.180723 34:0.2015 35:0 36:0 37:0 38:0.223584 39:0.40307999 40:0.37823901 41:0.70927501 42:0.88659 43:0.53365499 44:0.58906502 45:0.52011198 #docid = 323332
-0.10000000000000001 1:0.40000001 2:0.47962499 3:0.33333299 4:0.36623901 5:0 6:0 7:0 8:0.45991999 9:0.42034799 10:0.66054702 11:0.563223 12:0.80461001 13:0.60584903 14:0.57032198 15:0.57144898 16:0.30000001 17:0.71179199 18:0.26415199 19:0.27779099 20:0 21:0 22:0 23:0.269474 24:0.25365901 25:0.40533701 26:0.67507797 27:0.86913699 28:0.58450103 29:0.59071702 30:0.61207199 31:0.31818199 32:0.72766501 33:0.124999 34:0.142032 35:0 36:0 37:0 38:0.16117699 39:0.27799699 40:0.322157 41:0.70853198 42:0.886244 43:0.533683 44:0.58089602 45:0.5966 #docid = 212546
-0.69999999999999996 1:0.40000001 2:0.47962499 3:0.60000002 4:0.63376099 5:0 6:0 7:0 8:0.713799 9:0.42034799 10:0.77036798 11:0.69993198 12:0.87857199 13:0.641752 14:0.65628099 15:0.65757799 16:0.075000003 17:0.33681801 18:0.181034 19:0.192279 20:0 21:0 22:0 23:0.190345 24:0.063295998 25:0.36599699 26:0.58276099 27:0.82016098 28:0.57978201 29:0.55087799 30:0.524625 31:0.113636 32:0.439316 33:0.119047 34:0.136006 35:0 36:0 37:0 38:0.162643 39:0.104375 40:0.36047 41:0.708139 42:0.88606101 43:0.59913701 44:0.60385501 45:0.60877699 #docid = 202875
-0.5 1:0.40000001 2:0.47962499 3:0.49999899 4:0.53583598 5:0 6:0 7:0 8:0.62637299 9:0.42034799 10:0.73609501 11:0.65988898 12:0.85852098 13:0.63253701 14:0.62959599 15:0.63084102 16:0.22499999 17:0.51476598 18:0.37951899 19:0.39286 20:0 21:0 22:0 23:0.403909 24:0.20858701 25:0.56513101 26:0.68125701 27:0.87217098 28:0.54535401 29:0.55119199 30:0.55091 31:0.25 32:0.54466999 33:0.185394 34:0.20722 35:0 36:0 37:0 38:0.246961 39:0.237675 40:0.448156 41:0.70788997 42:0.88594502 43:0.49597299 44:0.55039299 45:0.53765601 #docid = 299072
0.5 1:0.40000001 2:0.47962499 3:0.60000002 4:0.63376099 5:0 6:0 7:0 8:0.713799 9:0.42034799 10:0.77036798 11:0.69993198 12:0.87857199 13:0.641752 14:0.65628099 15:0.65757799 16:0.15000001 17:0.402493 18:0.30434999 19:0.31624901 20:0 21:0 22:0 23:0.38787499 24:0.172034 25:0.61066198 26:0.65204799 27:0.85757703 28:0.51110101 29:0.498467 30:0.47833401 31:0.18181799 32:0.46274599 33:0.16216201 34:0.18185 35:0 36:0 37:0 38:0.247308 39:0.204227 40:0.48259699 41:0.70219702 42:0.88327903 43:0.486725 44:0.52618402 45:0.50665897 #docid = 53685
3.2000000000000015 1:0.40000001 2:0.47962499 3:1 4:1 5:0 6:0 7:0 8:1 9:0.42034799 10:0.86710602 11:0.79661298 12:0.92260802 13:0.66069502 14:0.73111701 15:0.73256302 16:0 17:0 18:0 19:0 20:0 21:0 22:0 23:0 24:0 25:0 26:0 27:0 28:0 29:0 30:0 31:0.045455001 32:0.21070699 33:1 34:1 35:0 36:0 37:0 38:1 39:0.046948001 40:1 41:0.70003802 42:0.882263 43:0.63842499 44:0.83398497 45:0.79892403 #docid = 107767
0.10000000000000001 1:0.40000001 2:0.47962499 3:0.375 4:0.409421 5:0 6:0 7:0 8:0.50435698 9:0.42034799 10:0.682383 11:0.59213603 12:0.82164901 13:0.614591 14:0.587529 15:0.58868998 16:0.69999999 17:0.752276 18:0.52406597 19:0.53013599 20:0 21:0 22:0 23:0.49851701 24:0.61995798 25:0.56921703 26:0.668145 27:0.86569899 28:0.45168999 29:0.55567902 30:0.493552 31:0.68181801 32:0.74556702 33:0.23076899 34:0.252828 35:0 36:0 37:0 38:0.27620301 39:0.61384398 40:0.42825499 41:0.682284 42:0.87378103 43:0.37966201 44:0.54227501 45:0.46702999 #docid = 64778
-0.40000000000000002 1:0.60000002 2:0.61990601 3:0.34615299 4:0.377516 5:0 6:0 7:0 8:0.45550999 9:0.60306501 10:0.65532303 11:0.56734997 12:0.80709499 13:0.64071703 14:0.56709802 15:0.58018303 16:0.22499999 17:0.46816799 18:0.463236 19:0.471762 20:0 21:0 22:0 23:0.45004499 24:0.19959299 25:0.53440899 26:0.61794901 27:0.839688 28:0.54849702 29:0.53759199 30:0.46998 31:0.27272701 32:0.53144503 33:0.222222 34:0.244718 35:0 36:0 37:0 38:0.273361 39:0.248824 40:0.44247901 41:0.679021 42:0.872199 43:0.50565201 44:0.55079299 45:0.47046101 #docid = 319405
0.59999999999999998 1:0.60000002 2:0.719437 3:0.75 4:0.803756 5:0 6:0 7:0 8:0.83177298 9:0.541673 10:0.89545298 11:0.84817398 12:0.94395399 13:0.79756099 14:0.889597 15:0.89135498 16:0.125 17:0.46816799 18:0.162036 19:0.172153 20:0 21:0 22:0 23:0.156946 24:0.096421003 25:0.280889 26:0.54726499 27:0.79923201 28:0.53327399 29:0.50964099 30:0.51648498 31:0.18181799 32:0.588395 33:0.105262 34:0.12052 35:0 36:0 37:0 38:0.12736499 39:0.144697 40:0.27907199 41:0.67412102 42:0.86980802 43:0.55983102 44:0.57719398 45:0.60069698 #docid = 98453
0.10000000000000001 1:0.40000001 2:0.47962499 3:0.42857099 4:0.46416399 5:0 6:0 7:0 8:0.558586 9:0.42034799 10:0.70725203 11:0.62418002 12:0.83958602 13:0.62348598 14:0.60704798 15:0.60824901 16:0.075000003 17:0.33681801 18:0.122094 19:0.130036 20:0 21:0 22:0 23:0.13987499 24:0.068230003 25:0.30326399 26:0.53666598 27:0.79271799 28:0.56863397 29:0.53921002 30:0.50514501 31:0.113636 32:0.439316 33:0.080643997 34:0.092550002 35:0 36:0 37:0 38:0.117391 39:0.108991 40:0.29708299 41:0.67236698 42:0.86894798 43:0.58324802 44:0.59142601 45:0.58784401 #docid = 171218
-0.10766472860565959 1:0 2:0 3:0 4:0 5:0 6:0 7:0 8:0 9:0 10:0 11:0 12:0 13:0 14:0 15:0 16:0.1 17:0.44909099 18:0.222222 19:0.236184 20:0 21:0 22:0 23:0.223 24:0.080177002 25:0.39409101 26:0.71477902 27:0.88816899 28:0.795102 29:0.768565 30:0.70809001 31:0.090908997 32:0.42141399 33:0.085713997 34:0.098614 35:0 36:0 37:0 38:0.105434 39:0.072521001 40:0.24802899 41:0.66831797 42:0.86695302 43:0.70788801 44:0.68131101 45:0.61967599 #docid = 9798
-0.3395295246515081 1:0 2:0 3:0 4:0 5:0 6:0 7:0 8:0 9:0 10:0 11:0 12:0 13:0 14:0 15:0 16:0.175 17:0.580441 18:0.185605 19:0.197026 20:0 21:0 22:0 23:0.208028 24:0.157638 25:0.39089799 26:0.68740898 27:0.87516499 28:0.64394599 29:0.63654101 30:0.65816402 31:0.159091 32:0.54466999 33:0.077206001 34:0.088669002 35:0 36:0 37:0 38:0.106527 39:0.14345101 40:0.26042399 41:0.66702902 42:0.86631602 43:0.56215 44:0.58627498 45:0.602144 #docid = 88903
-0.96607613844219598 1:0.80000001 2:0.76018798 3:0.60000002 4:0.63376099 5:0 6:0 7:0 8:0.713799 9:0.84069502 10:0.77036798 11:0.76110703 12:0.90709001 13:0.73599499 14:0.65628099 15:0.66777802 16:0.125 17:0.402493 18:0.152173 19:0.161201 20:0 21:0 22:0 23:0.185849 24:0.123876 25:0.37777999 26:0.55734903 27:0.80531299 28:0.39744601 29:0.42592201 30:0.39266801 31:0.20454501 32:0.516958 33:0.108 34:0.122912 35:0 36:0 37:0 38:0.160933 39:0.20716 40:0.366355 41:0.66421199 42:0.86491901 43:0.38304099 44:0.48321399 45:0.42213801 #docid = 227813
-0.060470475348491953 1:0.40000001 2:0.47962499 3:0.42857099 4:0.46416399 5:0 6:0 7:0 8:0.558586 9:0.42034799 10:0.70725203 11:0.62418002 12:0.83958602 13:0.62348598 14:0.60704798 15:0.60824901 16:0.25 17:0.580441 18:0.19663 19:0.207734 20:0 21:0 22:0 23:0.24481399 24:0.25674501 25:0.46698999 26:0.645513 27:0.854222 28:0.382305 29:0.47244 30:0.46179399 31:0.27272701 32:0.59152901 33:0.097296998 34:0.110947 35:0 36:0 37:0 38:0.148467 39:0.28169101 40:0.35370299 41:0.66042697 42:0.86303198 43:0.30772901 44:0.46805999 45:0.433357 #docid = 206049
0.63657519904187365 1:0 2:0 3:0 4:0 5:0 6:0 7:0 8:0 9:0 10:0 11:0 12:0 13:0 14:0 15:0 16:0.25 17:0.580441 18:0.23972601 19:0.25250599 20:0 21:0 22:0 23:0.29467601 24:0.25674501 25:0.52168298 26:0.68334001 27:0.87318802 28:0.44060701 29:0.50557202 30:0.46612999 31:0.227273 32:0.54466999 33:0.096773997 34:0.11036 35:0 36:0 37:0 38:0.14772099 39:0.234742 40:0.35259399 41:0.65488702 42:0.86025101 43:0.33484399 44:0.46722001 45:0.409017 #docid = 189316
0.066789321833495618 1:0.60000002 2:0.61990601 3:0.44999999 4:0.48253301 5:0 6:0 7:0 8:0.55773598 9:0.60306501 10:0.70433903 11:0.63434899 12:0.84508699 13:0.66566801 14:0.60546702 15:0.61307698 16:0.30000001 17:0.566347 18:0.30215901 19:0.31404001 20:0 21:0 22:0 23:0.31923401 24:0.27212 25:0.457239 26:0.61593503 27:0.83860099 28:0.43726599 29:0.494423 30:0.45568699 31:0.340909 32:0.60056102 33:0.151006 34:0.16926999 35:0 36:0 37:0 38:0.198164 39:0.315139 40:0.36751899 41:0.65383101 42:0.85971802 43:0.37806001 44:0.50131202 45:0.440559 #docid = 227657
0.26607613844219608 1:0 2:0 3:0 4:0 5:0 6:0 7:0 8:0 9:0 10:0 11:0 12:0 13:0 14:0 15:0 16:0.15000001 17:0.51476598 18:0.221053 19:0.233946 20:0 21:0 22:0 23:0.232245 24:0.12746701 25:0.37988701 26:0.67513001 27:0.86916298 28:0.67832798 29:0.65941399 30:0.65829802 31:0.136364 32:0.483042 33:0.090908997 34:0.104115 35:0 36:0 37:0 38:0.117551 39:0.115868 40:0.24922401 41:0.65021098 42:0.857885 43:0.59767598 44:0.60480899 45:0.59862798 #docid = 26100
0.20000000000000001 1:0.40000001 2:0.47962499 3:0.375 4:0.409421 5:0 6:0 7:0 8:0.50435698 9:0.42034799 10:0.682383 11:0.59213603 12:0.82164901 13:0.614591 14:0.587529 15:0.58868998 16:0.1 17:0.402493 18:0.152173 19:0.16170301 20:0 21:0 22:0 23:0.144205 24:0.075243004 25:0.27807 26:0.51568103 27:0.77943301 28:0.52237099 29:0.491956 30:0.48726001 31:0.136364 32:0.50094402 33:0.090000004 34:0.103253 35:0 36:0 37:0 38:0.115413 39:0.114853 40:0.27669501 41:0.64738101 42:0.85644501 43:0.5316 44:0.54756498 45:0.57073897 #docid = 21109
-0.20000000000000001 1:0 2:0 3:0 4:0 5:0 6:0 7:0 8:0 9:0 10:0 11:0 12:0 13:0 14:0 15:0 16:0.2 17:0.52137798 18:0.231406 19:0.243882 20:0 21:0 22:0 23:0.28514501 24:0.205396 25:0.51167297 26:0.66995299 27:0.86659902 28:0.45896199 29:0.499659 30:0.50828201 31:0.18181799 32:0.48924699 33:0.096000001 34:0.109491 35:0 36:0 37:0 38:0.146616 39:0.187794 40:0.35094601 41:0.64674902 42:0.85612202 43:0.36427599 44:0.465969 45:0.45604599 #docid = 71381
-0.30000000000000004 1:0 2:0 3:0 4:0 5:0 6:0 7:0 8:0 9:0 10:0 11:0 12:0 13:0 14:0 15:0 16:0.25 17:0.57587802 18:0.26315799 19:0.27654299 20:0 21:0 22:0 23:0.311465 24:0.247752 25:0.52534997 26:0.68668097 27:0.87481201 28:0.46384299 29:0.51752198 30:0.495992 31:0.227273 32:0.54038799 33:0.097401999 34:0.110998 35:0 36:0 37:0 38:0.14399099 39:0.22652601 40:0.335812 41:0.643264 42:0.854339 43:0.33337301 44:0.46477601 45:0.427737 #docid = 338747
0.10000000000000001 1:0.40000001 2:0.47962499 3:0.42857099 4:0.46416399 5:0 6:0 7:0 8:0.558586 9:0.42034799 10:0.70725203 11:0.62418002 12:0.83958602 13:0.62348598 14:0.60704798 15:0.60824901 16:0.075000003 17:0.29021999 18:0.161539 19:0.17087001 20:0 21:0 22:0 23:0.212484 24:0.081519999 25:0.44267401 26:0.55644703 27:0.80477297 28:0.45376 29:0.43089101 30:0.45330599 31:0.113636 32:0.37768799 33:0.104166 34:0.11857 35:0 36:0 37:0 38:0.162312 39:0.12148 40:0.380389 41:0.64139003 42:0.85337597 43:0.43491799 44:0.47584599 45:0.48753899 #docid = 189211
0.14421282897368384 1:0 2:0 3:0 4:0 5:0 6:0 7:0 8:0 9:0 10:0 11:0 12:0 13:0 14:0 15:0 16:0.175 17:0.627038 18:0.211208 19:0.22419401 20:0 21:0 22:0 23:0.190137 24:0.125249 25:0.30179599 26:0.66446799 27:0.86386102 28:0.77639598 29:0.71239299 30:0.717641 31:0.159091 32:0.588395 33:0.085366003 34:0.098061003 35:0 36:0 37:0 38:0.093695998 39:0.112843 40:0.19298799 41:0.63304198 42:0.84904999 43:0.69476998 44:0.64259303 45:0.64717901 #docid = 184755
-0.20000000000000001 1:0 2:0 3:0 4:0 5:0 6:0 7:0 8:0 9:0 10:0 11:0 12:0 13:0 14:0 15:0 16:0.125 17:0.46816799 18:0.194446 19:0.206246 20:0 21:0 22:0 23:0.219804 24:0.114645 25:0.41892099 26:0.653148 27:0.85813802 28:0.58503503 29:0.56257999 30:0.543419 31:0.113636 32:0.439316 33:0.078124002 34:0.089684002 35:0 36:0 37:0 38:0.108965 39:0.104375 40:0.277163 41:0.623128 42:0.84383899 43:0.490484 44:0.51202297 45:0.47629401 #docid = 88864
0.79999999999999993 1:0.40000001 2:0.47962499 3:0.42857099 4:0.46416399 5:0 6:0 7:0 8:0.558586 9:0.42034799 10:0.70725203 11:0.62418002 12:0.83958602 13:0.62348598 14:0.60704798 15:0.60824901 16:0.22499999 17:0.46816799 18:0.283784 19:0.294559 20:0 21:0 22:0 23:0.29202801 24:0.19959299 25:0.39173499 26:0.54295099 27:0.79659599 28:0.428711 29:0.45528701 30:0.37403101 31:0.25 32:0.516958 33:0.13982999 34:0.15696201 35:0 36:0 37:0 38:0.18306901 39:0.229458 40:0.34105799 41:0.620938 42:0.842677 43:0.391258 44:0.48355299 45:0.39612699 #docid = 102140
0.10000000000000001 1:0.40000001 2:0.47962499 3:0.375 4:0.409421 5:0 6:0 7:0 8:0.50435698 9:0.42034799 10:0.682383 11:0.59213603 12:0.82164901 13:0.614591 14:0.587529 15:0.58868998 16:0.1 17:0.33681801 18:0.175 19:0.184604 20:0 21:0 22:0 23:0.200179 24:0.093704998 25:0.359238 26:0.52640599 27:0.78628999 28:0.436122 29:0.42818499 30:0.4206 31:0.136364 32:0.411605 33:0.102273 34:0.116318 35:0 36:0 37:0 38:0.147074 39:0.13262901 40:0.330015 41:0.61703098 42:0.84059298 43:0.40634599 44:0.46623901 45:0.44593501 #docid = 63036
0.20000000000000001 1:0 2:0 3:0 4:0 5:0 6:0 7:0 8:0 9:0 10:0 11:0 12:0 13:0 14:0 15:0 16:0.1 17:0.44909099 18:0.172841 19:0.184019 20:0 21:0 22:0 23:0.174593 24:0.080177002 25:0.329815 26:0.64295501 27:0.85290003 28:0.73812002 29:0.68994302 30:0.64713401 31:0.090908997 32:0.42141399 33:0.070588 34:0.081312001 35:0 36:0 37:0 38:0.087228 39:0.072521001 40:0.214616 41:0.61680597 42:0.84047198 43:0.65793997 44:0.62531298 45:0.579238 #docid = 17963
0.30000000000000004 1:0.60000002 2:0.61990601 3:0.34615299 4:0.377516 5:0 6:0 7:0 8:0.45550999 9:0.60306501 10:0.65532303 11:0.56734997 12:0.80709499 13:0.64071703 14:0.56709802 15:0.58018303 16:0.125 17:0.372962 18:0.188171 19:0.197993 20:0 21:0 22:0 23:0.20953199 24:0.114882 25:0.35209301 26:0.52383399 27:0.78465801 28:0.42132601 29:0.426954 30:0.38308501 31:0.18181799 32:0.46274599 33:0.113208 34:0.12818301 35:0 36:0 37:0 38:0.156064 39:0.171361 40:0.32521799 41:0.61470699 42:0.839347 43:0.388475 44:0.468692 45:0.41814199 #docid = 59484
-0.10000000000000001 1:0.40000001 2:0.47962499 3:0.375 4:0.409421 5:0 6:0 7:0 8:0.50435698 9:0.42034799 10:0.682383 11:0.59213603 12:0.82164901 13:0.614591 14:0.587529 15:0.58868998 16:0.1 17:0.33681801 18:0.157304 19:0.16619501 20:0 21:0 22:0 23:0.18089999 24:0.093704998 25:0.33374301 26:0.50709498 27:0.77384198 28:0.41031599 29:0.410386 30:0.40291601 31:0.136364 32:0.411605 33:0.092784002 34:0.105704 35:0 36:0 37:0 38:0.13423499 39:0.13262901 40:0.31011799 41:0.60120797 42:0.83201599 43:0.379554 44:0.451042 45:0.44111899 #docid = 324859
0.10000000000000001 1:0 2:0 3:0 4:0 5:0 6:0 7:0 8:0 9:0 10:0 11:0 12:0 13:0 14:0 15:0 16:0.125 17:0.51476598 18:0.157658 19:0.16783699 20:0 21:0 22:0 23:0.161019 24:0.101355 25:0.293973 26:0.61961102 27:0.84058303 28:0.71068901 29:0.64908999 30:0.62384301 31:0.113636 32:0.483042 33:0.063024998 34:0.072600998 35:0 36:0 37:0 38:0.078955002 39:0.091885999 40:0.18680599 41:0.59042102 42:0.82603902 43:0.61989802 44:0.58193398 45:0.550551 #docid = 56841
0.03234539314477658 1:0 2:0 3:0 4:0 5:0 6:0 7:0 8:0 9:0 10:0 11:0 12:0 13:0 14:0 15:0 16:0.15000001 17:0.56136298 18:0.154413 19:0.164211 20:0 21:0 22:0 23:0.158307 24:0.122533 25:0.276005 26:0.599886 27:0.829808 28:0.68584001 29:0.620893 30:0.60635501 31:0.136364 32:0.52676803 33:0.0625 34:0.071920998 35:0 36:0 37:0 38:0.078712001 39:0.111252 40:0.176727 41:0.57575297 42:0.81773299 43:0.59525198 44:0.55973899 45:0.538315 #docid = 79863
-0.10000000000000001 1:0.40000001 2:0.47962499 3:0.42857099 4:0.46416399 5:0 6:0 7:0 8:0.558586 9:0.42034799 10:0.70725203 11:0.62418002 12:0.83958602 13:0.62348598 14:0.60704798 15:0.60824901 16:0 17:0 18:0 19:0 20:0 21:0 22:0 23:0 24:0 25:0 26:0 27:0 28:0 29:0 30:0 31:0.045455001 32:0.21070699 33:0.09375 34:0.106964 35:0 36:0 37:0 38:0.143397 39:0.046948001 40:0.34610701 41:0.55668002 42:0.80661201 43:0.45335099 44:0.46227601 45:0.434944 #docid = 310642
0.10000000000000001 1:0 2:0 3:0 4:0 5:0 6:0 7:0 8:0 9:0 10:0 11:0 12:0 13:0 14:0 15:0 16:0.125 17:0.51476598 18:0.112179 19:0.119635 20:0 21:0 22:0 23:0.105241 24:0.092124 25:0.20680401 26:0.48808801 27:0.76111901 28:0.611709 29:0.53673297 30:0.52635503 31:0.113636 32:0.483042 33:0.047169998 34:0.054416001 35:0 36:0 37:0 38:0.053867001 39:0.082998998 40:0.134941 41:0.47858801 42:0.75670898 43:0.52517599 44:0.49164501 45:0.46790299 #docid = 66437
-0.092335271394340418 1:0.40000001 2:0.47962499 3:0.49999899 4:0.53583598 5:0 6:0 7:0 8:0.538055 9:0.342022 10:0.54261702 11:0.536116 12:0.78782302 13:0.42777899 14:0.47780299 15:0.47874701 16:0.125 17:0.29021999 18:0.163552 19:0.171234 20:0 21:0 22:0 23:0.164728 24:0.105889 25:0.15307701 26:0.30252999 27:0.60181701 28:0 29:0.043905001 30:0 31:0.159091 32:0.40111801 33:0.092919998 34:0.105231 35:0 36:0 37:0 38:0.112043 39:0.13128901 40:0.135727 41:0.413596 42:0.70852399 43:0.12761299 44:0.237987 45:0.158728 #docid = 91189
-0.0062735018539408216 1:0 2:0 3:0 4:0 5:0 6:0 7:0 8:0 9:0 10:0 11:0 12:0 13:0 14:0 15:0 16:0.025 17:0.112273 18:0.134617 19:0.14150099 20:0 21:0 22:0 23:0.111021 24:0.016881 25:0.101769 26:0.194842 27:0.45527899 28:0.13312601 29:0 30:0.082978003 31:0.022727 32:0.105353 33:0.049998999 34:0.056990001 35:0 36:0 37:0 38:0.050244 39:0.015094 40:0.060421001 41:0.178322 42:0.43077099 43:0 44:0 45:0 #docid = 258026
-0.10000000000000001 1:0 2:0 3:0 4:0 5:0 6:0 7:0 8:0 9:0 10:0 11:0 12:0 13:0 14:0 15:0 16:0 17:0 18:0 19:0 20:0 21:0 22:0 23:0 24:0 25:0 26:0 27:0 28:0 29:0 30:0 31:0 32:0 33:0 34:0 35:0 36:0 37:0 38:0 39:0 40:0 41:0 42:0 43:0 44:0 45:0 #docid = 326290
-0.30000000000000004 1:1 2:1 3:0.34615299 4:0.386406 5:0 6:0 7:0 8:0.46637201 9:0.84316498 10:0.73888099 11:0.67727202 12:0.87164098 13:0.807338 14:0.76915401 15:0.77390897 16:0.31818199 17:0.62555403 18:0.406975 19:0.42245799 20:0 21:0 22:0 23:0.433907 24:0.293464 25:0.77647603 26:0.94809002 27:0.98375899 28:1 29:0.98907697 30:1 31:0.41666701 32:0.79910201 33:0.20202 34:0.246154 35:0 36:0 37:0 38:0.288082 39:0.37493101 40:0.57142103 41:1 42:1 43:1 44:1 45:1 #docid = 16796
-0.10000000000000001 1:0.66666698 2:0.66666597 3:0.375 4:0.409421 5:0 6:0 7:0 8:0.52156901 9:0.65896499 10:0.69675303 11:0.66590399 12:0.86606598 13:0.66823298 14:0.62232202 15:0.63010103 16:0.36363599 17:0.64207602 18:0.75471503 19:0.772138 20:0 21:0 22:0 23:0.72625601 24:0.32986099 25:0.90526098 26:1 27:1 28:0.98011303 29:1 30:0.99821299 31:0.41666701 32:0.71165103 33:0.32786801 34:0.39353099 35:0 36:0 37:0 38:0.44525301 39:0.388329 40:0.67156702 41:0.97056001 42:0.99113798 43:0.86718702 44:0.91340399 45:0.914231 #docid = 72806
-0.2097147234388807 1:0.66666698 2:0.66666597 3:0.60000002 4:0.63376099 5:0 6:0 7:0 8:0.72674501 9:0.65896499 10:0.76358998 11:0.78712898 12:0.92115599 13:0.68938702 14:0.67866498 15:0.68528402 16:1 17:1 18:0.585105 19:0.59891897 20:0 21:0 22:0 23:0.61951798 24:1 25:0.83687502 26:0.959674 27:0.987459 28:0.92251098 29:0.89752001 30:0.89538503 31:1 32:1 33:0.248704 34:0.298751 35:0 36:0 37:0 38:0.36311299 39:1 40:0.59227502 41:0.89123398 42:0.96585202 43:0.79398102 44:0.804667 45:0.79764599 #docid = 22395
-1.8843025343384825 1:1 2:1 3:0.642856 4:0.696244 5:0 6:0 7:0 8:0.83032399 9:0.93883097 10:1 11:1 12:1 13:1 14:1 15:1 16:0 17:0 18:0 19:0 20:0 21:0 22:0 23:0 24:0 25:0 26:0 27:0 28:0 29:0 30:0 31:0.125 32:0.31606099 33:0.85714197 34:0.98798698 35:0 36:0 37:0 38:1 39:0.116188 40:1 41:0.87066102 42:0.95892602 43:0.75923502 44:0.97373301 45:0.91319901 #docid = 322525
0.30000000000000004 1:0.66666698 2:0.66666597 3:0.33333299 4:0.36623901 5:0 6:0 7:0 8:0.47733799 9:0.65896499 10:0.68003899 11:0.63338798 12:0.849576 13:0.66142398 14:0.60820597 15:0.61627603 16:0.72727299 17:0.77936703 18:0.59259498 19:0.605928 20:0 21:0 22:0 23:0.646617 24:0.74683201 25:0.87848502 26:0.914819 27:0.97287601 28:0.78918803 29:0.81648201 30:0.76942903 31:0.75 32:0.78929299 33:0.25 34:0.299932 35:0 36:0 37:0 38:0.37599501 39:0.77089798 40:0.61685199 41:0.843032 42:0.94936198 43:0.67691803 44:0.730313 45:0.68760097 #docid = 287424
-1.2 1:0 2:0 3:0 4:0 5:0 6:0 7:0 8:0 9:0 10:0 11:0 12:0 13:0 14:0 15:0 16:0.54545498 17:0.69484198 18:0.90908998 19:0.91844499 20:0 21:0 22:0 23:0.907058 24:0.54708999 25:0.96490598 26:0.93656802 27:0.98003399 28:0.78770697 29:0.80401599 30:0.78668702 31:0.5 32:0.67345297 33:0.347826 34:0.41367099 35:0 36:0 37:0 38:0.48476201 39:0.50000501 40:0.661865 41:0.84037 42:0.94842499 43:0.66891998 44:0.709203 45:0.69439697 #docid = 52867
0.20000000000000001 1:0.66666698 2:0.66666597 3:0.30000001 4:0.331303 5:0 6:0 7:0 8:0.44018099 9:0.65896499 10:0.66510201 11:0.60390002 12:0.83387202 13:0.65473002 14:0.595581 15:0.60391003 16:0.27272701 17:0.49838299 18:0.68181998 19:0.69710898 20:0 21:0 22:0 23:0.68992001 24:0.261664 25:0.85749298 26:0.86264801 27:0.95498598 28:0.75578302 29:0.77909303 30:0.76156199 31:0.33333299 32:0.56068403 33:0.296296 34:0.35484001 35:0 36:0 37:0 38:0.417041 39:0.32583901 40:0.61910099 41:0.80885601 42:0.93708998 43:0.65699399 44:0.69834799 45:0.67549098 #docid = 292852
0.35547163170304441 1:0.33333299 2:0.33333299 3:0.30000001 4:0.316881 5:0 6:0 7:0 8:0.37187901 9:0.341034 10:0.39872801 11:0.407361 12:0.70418698 13:0.30136001 14:0.248762 15:0.26423499 16:0.409091 17:0.67066801 18:0.473685 19:0.488249 20:0 21:0 22:0 23:0.47652999 24:0.37394699 25:0.70935798 26:0.86760801 27:0.95673198 28:0.90726399 29:0.89150798 30:0.885144 31:0.41666701 32:0.67345297 33:0.2 34:0.241629 35:0 36:0 37:0 38:0.278492 39:0.386141 40:0.48935899 41:0.79865301 42:0.93332601 43:0.77539498 44:0.79121399 45:0.78197998 #docid = 42589
0.30000000000000004 1:0.66666698 2:0.66666597 3:0.33333299 4:0.36623901 5:0 6:0 7:0 8:0.47733799 9:0.65896499 10:0.68003899 11:0.63338798 12:0.849576 13:0.66142398 14:0.60820597 15:0.61627603 16:0.136364 17:0.32609901 18:0.65217501 19:0.66980898 20:0 21:0 22:0 23:0.61214 24:0.116408 25:0.80737299 26:0.76937503 27:0.92012298 28:0.725721 29:0.78629398 30:0.74009299 31:0.208333 32:0.439316 33:0.3125 34:0.37492999 35:0 36:0 37:0 38:0.42284599 39:0.193075 40:0.62224901 41:0.78771502 42:0.92923599 43:0.66149199 44:0.72157699 45:0.69964403 #docid = 219910
-0.65138482120338848 1:0.66666698 2:0.66666597 3:1 4:1 5:0 6:0 7:0 8:1 9:0.65896499 10:0.83640802 11:0.895854 12:0.96377403 13:0.70414102 14:0.73992097 15:0.745278 16:0.54545498 17:0.61031598 18:1 19:1 20:0 21:0 22:0 23:1 24:0.57085001 25:1 26:0.85706902 27:0.95300901 28:0.66441 29:0.68843102 30:0.66140002 31:0.58333302 32:0.63212103 33:0.444444 34:0.51970202 35:0 36:0 37:0 38:0.60408002 39:0.60957998 40:0.72362202 41:0.78586501 42:0.92853802 43:0.58066797 44:0.625346 45:0.60712302 #docid = 145260
1.22238826222029 1:1 2:1 3:0.40909001 4:0.45368499 5:0 6:0 7:0 8:0.534693 9:0.84316498 10:0.772084 11:0.73752898 12:0.89971697 13:0.82018697 14:0.79888397 15:0.80302602 16:0 17:0 18:0 19:0 20:0 21:0 22:0 23:0 24:0 25:0 26:0 27:0 28:0 29:0 30:0 31:0.125 32:0.31606099 33:0.54545403 34:0.64378899 35:0 36:0 37:0 38:0.64048702 39:0.105992 40:0.74116403 41:0.76470202 42:0.920443 43:0.66625702 44:0.81652099 45:0.77615899 #docid = 149479
0.20000000000000001 1:0.66666698 2:0.66666597 3:0.49999899 4:0.53583598 5:0 6:0 7:0 8:0.64171702 9:0.65896499 10:0.73764002 11:0.74209702 12:0.90175098 13:0.68221003 14:0.65680599 15:0.66387498 16:0.68181801 17:0.66624999 18:0.74257499 19:0.75054002 20:0 21:0 22:0 23:0.78546703 24:0.72119498 25:0.90616602 26:0.82841003 27:0.94264698 28:0.59676498 29:0.65113801 30:0.62018299 31:0.70833302 32:0.68052399 33:0.31775799 34:0.37664199 35:0 36:0 37:0 38:0.46123001 39:0.74662298 40:0.64669102 41:0.76051098 42:0.91881299 43:0.51714998 44:0.58793598 45:0.57224101 #docid = 132466
-0.10000000000000001 1:0.66666698 2:0.66666597 3:0.42857099 4:0.46416399 5:0 6:0 7:0 8:0.575194 9:0.65896499 10:0.71572101 11:0.70193899 12:0.883425 13:0.67515999 14:0.638327 15:0.64577699 16:0.81818199 17:0.707394 18:0.76270998 19:0.76826698 20:0 21:0 22:0 23:0.79871899 24:0.87154001 25:0.90416098 26:0.82807201 27:0.942523 28:0.58265799 29:0.64977199 30:0.60352999 31:0.83333302 32:0.717179 33:0.31999999 34:0.3784 35:0 36:0 37:0 38:0.461833 39:0.88366598 40:0.642416 41:0.759112 42:0.91826701 43:0.50331998 44:0.585356 45:0.55291498 #docid = 215927
-0.40000000000000002 1:0.33333299 2:0.33333299 3:0.1875 4:0.20471001 5:0 6:0 7:0 8:0.16515 9:0.18419901 10:0.139548 11:0.185211 12:0.44455901 13:0.026564 14:0.023713 15:0.043821 16:0.27272701 17:0.51685399 18:0.625 19:0.642461 20:0 21:0 22:0 23:0.589068 24:0.232816 25:0.79336298 26:0.84105003 27:0.94726098 28:0.758178 29:0.77890003 30:0.78404599 31:0.29166701 32:0.54466999 33:0.25 34:0.301797 35:0 36:0 37:0 38:0.30683899 39:0.230894 40:0.519894 41:0.75369501 42:0.916143 43:0.64969897 44:0.689583 45:0.69234502 #docid = 340262
0.5 1:1 2:0.86165398 3:0.75 4:0.767919 5:0 6:0 7:0 8:0.82322502 9:1 10:0.78707403 11:0.86835301 12:0.95350403 13:0.73723602 14:0.69836903 15:0.69625199 16:0.63636398 17:0.649728 18:0.625 19:0.63571 20:0 21:0 22:0 23:0.67368001 24:0.66090399 25:0.85620397 26:0.80368298 27:0.933415 28:0.56982499 29:0.63209701 30:0.56568903 31:0.70833302 32:0.68393999 33:0.28813601 34:0.343063 35:0 36:0 37:0 38:0.423857 39:0.73806399 40:0.62717497 41:0.752168 42:0.91554201 43:0.50183499 44:0.579009 45:0.53354698 #docid = 250633
-0.10000000000000001 1:0.66666698 2:0.66666597 3:0.33333299 4:0.36623901 5:0 6:0 7:0 8:0.47733799 9:0.65896499 10:0.68003899 11:0.63338798 12:0.849576 13:0.66142398 14:0.60820597 15:0.61627603 16:0.36363599 17:0.504785 18:0.78431499 19:0.79223102 20:0 21:0 22:0 23:0.82119 24:0.38056701 25:0.92711598 26:0.81474203 27:0.93757898 28:0.64239597 29:0.65993601 30:0.64362901 31:0.41666701 32:0.54466999 33:0.333334 34:0.39481801 35:0 36:0 37:0 38:0.47946399 39:0.43541399 40:0.659729 41:0.75140399 42:0.91523999 43:0.55413198 44:0.59470999 45:0.57733202 #docid = 172228
-0.10000000000000001 1:0.66666698 2:0.66666597 3:0.27272701 4:0.302457 5:0 6:0 7:0 8:0.40849799 9:0.65896499 10:0.651604 11:0.57703501 12:0.818883 13:0.64814597 14:0.58416098 15:0.59272599 16:0.68181801 17:0.66624999 18:0.72115499 19:0.72965097 20:0 21:0 22:0 23:0.757074 24:0.70593101 25:0.89539897 26:0.82144499 27:0.94007403 28:0.59111297 29:0.64769298 30:0.59610099 31:0.70833302 32:0.68052399 33:0.295652 34:0.35137701 35:0 36:0 37:0 38:0.430107 39:0.73378497 40:0.62942201 41:0.75113797 42:0.91513503 43:0.50488901 44:0.58024901 45:0.54704201 #docid = 206656
-0.10000000000000001 1:0.66666698 2:0.66666597 3:0.33333299 4:0.36623901 5:0 6:0 7:0 8:0.47733799 9:0.65896499 10:0.68003899 11:0.63338798 12:0.849576 13:0.66142398 14:0.60820597 15:0.61627603 16:0.72727299 17:0.68119699 18:0.70175499 19:0.71018797 20:0 21:0 22:0 23:0.73662299 24:0.75095803 25:0.88372803 26:0.81621403 27:0.93812799 28:0.57910401 29:0.64310402 30:0.59764498 31:0.75 32:0.69374901 33:0.29268199 34:0.34776399 35:0 36:0 37:0 38:0.424907 39:0.77518702 40:0.62507701 41:0.74905401 42:0.91431099 43:0.49791101 44:0.57816201 45:0.54655498 #docid = 163403
-0.10000000000000001 1:0.66666698 2:0.66666597 3:0.75 4:0.77565998 5:0 6:0 7:0 8:0.83995402 9:0.65896499 10:0.79538101 11:0.83797997 12:0.94177598 13:0.69669598 14:0.70542097 15:0.71148902 16:0.63636398 17:0.652197 18:0.61403501 19:0.62524402 20:0 21:0 22:0 23:0.66834098 24:0.66599202 25:0.85466802 26:0.80522901 27:0.93400002 28:0.56748801 29:0.631235 30:0.59995002 31:0.66666698 32:0.667925 33:0.27118599 34:0.323567 35:0 36:0 37:0 38:0.40358201 39:0.69666302 40:0.61458802 41:0.74513501 42:0.91275603 43:0.49602801 44:0.57274097 45:0.558837 #docid = 286800
-0.10000000000000001 1:0.66666698 2:0.66666597 3:0.33333299 4:0.36623901 5:0 6:0 7:0 8:0.47733799 9:0.65896499 10:0.68003899 11:0.63338798 12:0.849576 13:0.66142398 14:0.60820597 15:0.61627603 16:0.18181799 17:0.344569 18:0.76923001 19:0.777547 20:0 21:0 22:0 23:0.80809301 24:0.190283 25:0.92132998 26:0.766487 27:0.91897702 28:0.644539 29:0.65765899 30:0.63778502 31:0.25 32:0.42141399 33:0.34285799 34:0.40564799 35:0 36:0 37:0 38:0.49067399 39:0.26124799 40:0.66593999 41:0.729532 42:0.90648001 43:0.56737399 44:0.597709 45:0.57432401 #docid = 222311
0.10000000000000001 1:0.33333299 2:0.33333299 3:0.30000001 4:0.316881 5:0 6:0 7:0 8:0.37187901 9:0.341034 10:0.39872801 11:0.407361 12:0.70418698 13:0.30136001 14:0.248762 15:0.26423499 16:0.27272701 17:0.434798 18:0.73170501 19:0.740924 20:0 21:0 22:0 23:0.77515101 24:0.28542501 25:0.90645599 26:0.79111898 27:0.92861402 28:0.63932598 29:0.65179402 30:0.657906 31:0.29166701 32:0.45533001 33:0.30434799 34:0.36146399 35:0 36:0 37:0 38:0.44528401 39:0.30693001 40:0.63825297 41:0.72628999 42:0.905159 43:0.55154002 44:0.58393103 45:0.59646201 #docid = 2081
0.30000000000000004 1:1 2:0.86165398 3:0.49999899 4:0.53189099 5:0 6:0 7:0 8:0.630656 9:1 10:0.72939199 11:0.76367003 12:0.91118997 13:0.71645099 14:0.64976001 15:0.660016 16:0.45454499 17:0.54349798 18:0.50505 19:0.51501399 20:0 21:0 22:0 23:0.56302798 24:0.48588499 25:0.77807599 26:0.74596602 27:0.91070902 28:0.54643297 29:0.59814602 30:0.57437098 31:0.54166698 32:0.59460002 33:0.24074 34:0.28710201 35:0 36:0 37:0 38:0.36277899 39:0.57673699 40:0.57551003 41:0.71095997 42:0.89883298 43:0.482811 44:0.55157202 45:0.53821498 #docid = 317467
0.30000000000000004 1:0.66666698 2:0.66666597 3:0.49999899 4:0.53583598 5:0 6:0 7:0 8:0.64171702 9:0.65896499 10:0.73764002 11:0.74209702 12:0.90175098 13:0.68221003 14:0.65680599 15:0.66387498 16:0.090908997 17:0.217399 18:0.66666502 19:0.67714298 20:0 21:0 22:0 23:0.71679097 24:0.095141999 25:0.878887 26:0.67622203 27:0.88080299 28:0.610035 29:0.64087802 30:0.61242801 31:0.166667 32:0.33396301 33:0.380952 34:0.44872901 35:0 36:0 37:0 38:0.53448403 39:0.17416599 40:0.68926102 41:0.70883203 42:0.89794397 43:0.57182097 44:0.60892898 45:0.603392 #docid = 318375
-0.10000000000000001 1:0.66666698 2:0.66666597 3:0.33333299 4:0.36623901 5:0 6:0 7:0 8:0.47733799 9:0.65896499 10:0.68003899 11:0.63338798 12:0.849576 13:0.66142398 14:0.60820597 15:0.61627603 16:0.77272701 17:0.64207602 18:0.664065 19:0.666058 20:0 21:0 22:0 23:0.66162598 24:0.78072101 25:0.80001497 26:0.74035197 27:0.90840799 28:0.53514302 29:0.60863 30:0.563995 31:0.79166698 32:0.66603702 33:0.277372 34:0.327227 35:0 36:0 37:0 38:0.38681301 39:0.80375099 40:0.57599002 41:0.70060599 42:0.89448202 43:0.466423 44:0.55341798 45:0.52838302 #docid = 308102
0.20000000000000001 1:0.66666698 2:0.66666597 3:0.33333299 4:0.36623901 5:0 6:0 7:0 8:0.47733799 9:0.65896499 10:0.68003899 11:0.63338798 12:0.849576 13:0.66142398 14:0.60820597 15:0.61627603 16:0.409091 17:0.53337699 18:0.44999999 19:0.46170899 20:0 21:0 22:0 23:0.50697702 24:0.425594 25:0.76198101 26:0.74162799 27:0.90893197 28:0.541695 29:0.59406799 30:0.549218 31:0.45833299 32:0.56809998 33:0.20183399 34:0.242771 35:0 36:0 37:0 38:0.31152499 39:0.476816 40:0.549887 41:0.69883299 42:0.893731 43:0.47225401 44:0.54085797 45:0.51261002 #docid = 276308
-0.20000000000000001 1:1 2:0.86165398 3:0.44999999 4:0.48253301 5:0 6:0 7:0 8:0.58597201 9:1 10:0.71442801 11:0.73433 12:0.89828497 13:0.70975602 14:0.63713199 15:0.64983702 16:0 17:0 18:0 19:0 20:0 21:0 22:0 23:0 24:0 25:0 26:0 27:0 28:0 29:0 30:0 31:0.125 32:0.27233499 33:0.60000002 34:0.68472499 35:0 36:0 37:0 38:0.749125 39:0.132764 40:0.77924401 41:0.69467098 42:0.89195901 43:0.57926297 44:0.65104699 45:0.63606 #docid = 235670
0.12214010607666562 1:0.66666698 2:0.66666597 3:0.75 4:0.77565998 5:0 6:0 7:0 8:0.83995402 9:0.65896499 10:0.79538101 11:0.83797997 12:0.94177598 13:0.69669598 14:0.70542097 15:0.71148902 16:0.227273 17:0.38968399 18:0.39682499 19:0.40799999 20:0 21:0 22:0 23:0.457481 24:0.240398 25:0.725218 26:0.69336998 27:0.88843298 28:0.55396402 29:0.57768798 30:0.56478202 31:0.29166701 32:0.45533001 33:0.208956 34:0.25104499 35:0 36:0 37:0 38:0.32321301 39:0.30693001 40:0.55742103 41:0.68678403 42:0.88857299 43:0.50275099 44:0.54390299 45:0.550143 #docid = 144595
-0.5 1:0 2:0 3:0 4:0 5:0 6:0 7:0 8:0 9:0 10:0 11:0 12:0 13:0 14:0 15:0 16:0.409091 17:0.53337699 18:0.53571498 19:0.54737198 20:0 21:0 22:0 23:0.59098703 24:0.425594 25:0.812383 26:0.76845902 27:0.91975999 28:0.574063 29:0.61450499 30:0.608383 31:0.375 32:0.516958 33:0.19354799 34:0.233014 35:0 36:0 37:0 38:0.299898 39:0.38973299 40:0.54050201 41:0.68625301 42:0.88834298 43:0.47842601 44:0.53617698 45:0.54340702 #docid = 61175
-0.40000000000000002 1:0 2:0 3:0 4:0 5:0 6:0 7:0 8:0 9:0 10:0 11:0 12:0 13:0 14:0 15:0 16:0.63636398 17:0.652197 18:0.45454499 19:0.46639401 20:0 21:0 22:0 23:0.51425302 24:0.66599202 25:0.767335 26:0.75954598 27:0.916206 28:0.50485897 29:0.59597802 30:0.502074 31:0.58333302 32:0.63212103 33:0.17178001 34:0.207406 35:0 36:0 37:0 38:0.27108401 39:0.60957998 40:0.51736099 41:0.68492001 42:0.88776702 43:0.42433 44:0.52414602 45:0.45685801 #docid = 320002
0.48430253433848203 1:0.66666698 2:0.66666597 3:0.42857099 4:0.46416399 5:0 6:0 7:0 8:0.575194 9:0.65896499 10:0.71572101 11:0.70193899 12:0.883425 13:0.67515999 14:0.638327 15:0.64577699 16:0.45454499 17:0.54349798 18:0.40650499 19:0.416787 20:0 21:0 22:0 23:0.46601501 24:0.48588499 25:0.71739203 26:0.71039099 27:0.89582199 28:0.50357801 29:0.57271802 30:0.54681098 31:0.5 32:0.57858598 33:0.184616 34:0.222029 35:0 36:0 37:0 38:0.28926599 39:0.53105497 40:0.52381802 41:0.67932898 42:0.88533598 43:0.44485199 44:0.525576 45:0.52004701 #docid = 328360
0.5 1:0.66666698 2:0.66666597 3:0.27272701 4:0.302457 5:0 6:0 7:0 8:0.40849799 9:0.65896499 10:0.651604 11:0.57703501 12:0.818883 13:0.64814597 14:0.58416098 15:0.59272599 16:0.54545498 17:0.57849097 18:0.41095999 19:0.42051199 20:0 21:0 22:0 23:0.468503 24:0.58611399 25:0.707946 26:0.70258701 27:0.892456 28:0.482178 29:0.56738102 30:0.49507001 31:0.58333302 32:0.60908699 33:0.178344 34:0.214339 35:0 36:0 37:0 38:0.27963799 39:0.62241799 40:0.509956 41:0.66848999 42:0.880566 43:0.421386 44:0.51738697 45:0.46996301 #docid = 292455
-0.44558510519829186 1:0.66666698 2:0.66666597 3:0.60000002 4:0.63376099 5:0 6:0 7:0 8:0.72674501 9:0.65896499 10:0.76358998 11:0.78712898 12:0.92115599 13:0.68938702 14:0.67866498 15:0.68528402 16:0 17:0 18:0 19:0 20:0 21:0 22:0 23:0 24:0 25:0 26:0 27:0 28:0 29:0 30:0 31:0.083333001 32:0.21070699 33:0.80000001 34:0.89932102 35:0 36:0 37:0 38:0.93252301 39:0.087082997 40:0.85669702 41:0.66462702 42:0.87884802 43:0.566598 44:0.687958 45:0.664092 #docid = 7075
-0.30000000000000004 1:0.66666698 2:0.66666597 3:0.60000002 4:0.63376099 5:0 6:0 7:0 8:0.72674501 9:0.65896499 10:0.76358998 11:0.78712898 12:0.92115599 13:0.68938702 14:0.67866498 15:0.68528402 16:0 17:0 18:0 19:0 20:0 21:0 22:0 23:0 24:0 25:0 26:0 27:0 28:0 29:0 30:0 31:0.083333001 32:0.21070699 33:0.80000001 34:0.89932102 35:0 36:0 37:0 38:0.93252301 39:0.087082997 40:0.85669702 41:0.66462702 42:0.87884802 43:0.566598 44:0.687958 45:0.664092 #docid = 309699
-0.10000000000000001 1:0 2:0 3:0 4:0 5:0 6:0 7:0 8:0 9:0 10:0 11:0 12:0 13:0 14:0 15:0 16:0.45454499 17:0.64207602 18:0.30487999 19:0.31585899 20:0 21:0 22:0 23:0.34085199 24:0.44685999 25:0.63222301 26:0.71451199 27:0.89758402 28:0.58872098 29:0.627976 30:0.60406899 31:0.41666701 32:0.62231201 33:0.118344 34:0.144153 35:0 36:0 37:0 38:0.183392 39:0.40864301 40:0.42407599 41:0.652336 42:0.873312 43:0.49850199 44:0.55218601 45:0.548603 #docid = 332391
0.35138482120338854 1:0.33333299 2:0.33333299 3:0.124999 4:0.139117 5:0 6:0 7:0 8:0.11702 9:0.18419901 10:0.115452 11:0.153658 12:0.38304001 13:0 14:0 15:0 16:0.227273 17:0.49838299 18:0.20660999 19:0.215534 20:0 21:0 22:0 23:0.203796 24:0.188034 25:0.450766 26:0.62045401 27:0.854581 28:0.76948202 29:0.74627501 30:0.72094601 31:0.25 32:0.54466999 33:0.090226002 34:0.110572 35:0 36:0 37:0 38:0.113815 39:0.19057 40:0.28322801 41:0.58757299 42:0.84230399 43:0.67192602 44:0.67325503 45:0.673599 #docid = 179454
-0.10000000000000001 1:0 2:0 3:0 4:0 5:0 6:0 7:0 8:0 9:0 10:0 11:0 12:0 13:0 14:0 15:0 16:0.090908997 17:0.217399 18:0.52631497 19:0.53817499 20:0 21:0 22:0 23:0.58500397 24:0.095141999 25:0.80964601 26:0.65312999 27:0.87021703 28:0.59289902 29:0.61316198 30:0.577088 31:0.083333001 32:0.21070699 33:0.133334 34:0.16174001 35:0 36:0 37:0 38:0.215581 39:0.087082997 40:0.465433 41:0.545614 42:0.82033199 43:0.474188 44:0.497197 45:0.43408301 #docid = 100899
0.59999999999999998 1:0 2:0 3:0 4:0 5:0 6:0 7:0 8:0 9:0 10:0 11:0 12:0 13:0 14:0 15:0 16:0.136364 17:0.32609901 18:0.26315999 19:0.27371201 20:0 21:0 22:0 23:0.262898 24:0.116408 25:0.532929 26:0.60075301 27:0.84474999 28:0.61599803 29:0.62979198 30:0.55800599 31:0.125 32:0.31606099 33:0.089552 34:0.109615 35:0 36:0 37:0 38:0.123969 39:0.105992 40:0.32719001 41:0.52223098 42:0.80734301 43:0.505629 44:0.53292298 45:0.48583701 #docid = 6472
-0.20000000000000001 1:0.66666698 2:0.66666597 3:0.42857099 4:0.46416399 5:0 6:0 7:0 8:0.575194 9:0.65896499 10:0.71572101 11:0.70193899 12:0.883425 13:0.67515999 14:0.638327 15:0.64577699 16:0 17:0 18:0 19:0 20:0 21:0 22:0 23:0 24:0 25:0 26:0 27:0 28:0 29:0 30:0 31:0.083333001 32:0.21070699 33:0.097560003 34:0.118864 35:0 36:0 37:0 38:0.161488 39:0.087082997 40:0.403956 41:0.50576502 42:0.79784101 43:0.442415 44:0.463992 45:0.45453101 #docid = 224643
0.24558510519829185 1:0 2:0 3:0 4:0 5:0 6:0 7:0 8:0 9:0 10:0 11:0 12:0 13:0 14:0 15:0 16:0.227273 17:0.434798 18:0.1506 19:0.156977 20:0 21:0 22:0 23:0.169618 24:0.21675 25:0.42212099 26:0.50990999 27:0.79479897 28:0.562747 29:0.59536803 30:0.50557899 31:0.208333 32:0.42141399 33:0.058479998 34:0.071656004 35:0 36:0 37:0 38:0.091481999 39:0.198992 40:0.274883 41:0.474583 42:0.77897 43:0.47906399 44:0.52501303 45:0.466066 #docid = 28898
-0.10000000000000001 1:0.66666698 2:0.66666597 3:0.42857099 4:0.46416399 5:0 6:0 7:0 8:0.43227601 9:0.45382199 10:0.415986 11:0.48235199 12:0.75984597 13:0.340354 14:0.37948099 15:0.392261 16:0.090908997 17:0.217399 18:0.227275 19:0.235788 20:0 21:0 22:0 23:0.167605 24:0.057078999 25:0.158115 26:0.31971699 27:0.65258098 28:0.243269 29:0.247409 30:0.20474499 31:0.166667 32:0.33396301 33:0.15686201 34:0.18974 35:0 36:0 37:0 38:0.154108 39:0.103487 40:0.15275 41:0.36519501 42:0.70126998 43:0.26126 44:0.27292699 45:0.29407299 #docid = 231198
0.10000000000000001 1:0 2:0 3:0 4:0 5:0 6:0 7:0 8:0 9:0 10:0 11:0 12:0 13:0 14:0 15:0 16:0.136364 17:0.28098401 18:0.15306 19:0.159244 20:0 21:0 22:0 23:0.158417 24:0.121496 25:0.32648301 26:0.381861 27:0.70669597 28:0.25033 29:0.29858199 30:0.26131499 31:0.125 32:0.27233499 33:0.054053999 34:0.066160999 35:0 36:0 37:0 38:0.077243 39:0.110272 40:0.207504 41:0.334905 42:0.67559302 43:0.196449 44:0.249201 45:0.25621599 #docid = 103606
0.1097147234388807 1:0 2:0 3:0 4:0 5:0 6:0 7:0 8:0 9:0 10:0 11:0 12:0 13:0 14:0 15:0 16:0.090908997 17:0.17228501 18:0.2439 19:0.24985801 20:0 21:0 22:0 23:0.28654999 24:0.10023 25:0.436694 26:0.375559 27:0.701626 28:0.240899 29:0.23271599 30:0.212433 31:0.083333001 32:0.166981 33:0.085106 34:0.102778 35:0 36:0 37:0 38:0.140349 39:0.091362 40:0.287523 41:0.331745 42:0.67278099 43:0.196218 44:0.197246 45:0.21070001 #docid = 27691
0.69999999999999996 1:0.33333299 2:0.33333299 3:0.75 4:0.70471001 5:0 6:0 7:0 8:0.61354399 9:0.317931 10:0.43016201 11:0.46429101 12:0.74727601 13:0.286044 14:0.275186 15:0.290115 16:0 17:0 18:0 19:0 20:0 21:0 22:0 23:0 24:0 25:0 26:0 27:0 28:0 29:0 30:0 31:0.041666999 32:0.105353 33:1 34:1 35:0 36:0 37:0 38:0.79822499 39:0.041402001 40:0.50084198 41:0.324435 42:0.66617298 43:0.287752 44:0.29800999 45:0.32417801 #docid = 345885
0.20000000000000001 1:0 2:0 3:0 4:0 5:0 6:0 7:0 8:0 9:0 10:0 11:0 12:0 13:0 14:0 15:0 16:0.045455001 17:0.108699 18:0.04425 19:0.046223 20:0 21:0 22:0 23:0.052400999 24:0.045026999 25:0.144344 26:0.171464 27:0.46275401 28:0 29:0.098246999 30:0 31:0.041666999 32:0.105353 33:0.017093999 34:0.020990999 35:0 36:0 37:0 38:0.028148999 39:0.041402001 40:0.092469998 41:0.15979201 42:0.456148 43:0 44:0.081756003 45:0.050368 #docid = 8079
0.20000000000000001 1:0.33333299 2:0.33333299 3:0.166666 4:0.183121 5:0 6:0 7:0 8:0.149716 9:0.18419901 10:0.13238101 11:0.176167 12:0.428069 13:0.019755 14:0.016799999 15:0.037051 16:0.045455001 17:0.108699 18:0.14706001 19:0.152072 20:0 21:0 22:0 23:0.081119001 24:0.021266 25:0.03754 26:0.12634 27:0.369708 28:0.026929 29:0 30:0.0042969999 31:0.083333001 32:0.166981 33:0.093024001 34:0.112123 35:0 36:0 37:0 38:0.067639999 39:0.037819002 40:0.035884999 41:0.13555101 42:0.40735799 43:0.037198 44:0.018668 45:0.065762997 #docid = 169875
0.20000000000000001 1:0 2:0 3:0 4:0 5:0 6:0 7:0 8:0 9:0 10:0 11:0 12:0 13:0 14:0 15:0 16:0.045455001 17:0.108699 18:0.227275 19:0.233197 20:0 21:0 22:0 23:0.122849 24:0.021266 25:0.054784998 26:0.13896 27:0.398716 28:0.071162999 29:0.024463 30:0.0061039999 31:0.041666999 32:0.105353 33:0.064516 34:0.078303002 35:0 36:0 37:0 38:0.04772 39:0.01891 40:0.026005 41:0.114201 42:0.35653001 43:0.039067999 44:0 45:0 #docid = 278962
0.18303116783539367 1:1 2:0.88422799 3:0.592592 4:0.59952599 5:0 6:0 7:0 8:0.52636802 9:0.85558099 10:0.462484 11:0.55031502 12:0.804901 13:0.51008397 14:0.45570701 15:0.46578699 16:0.555556 17:0.968346 18:0.78125203 19:0.79510099 20:0 21:0 22:0 23:0.83195901 24:0.54307598 25:0.94402099 26:1 27:1 28:0.954853 29:0.96636897 30:0.970406 31:0.66666698 32:1 33:0.200717 34:0.21985801 35:0 36:0 37:0 38:0.254372 39:0.65432 40:0.51313901 41:1 42:1 43:0.98645502 44:0.81653202 45:0.88998801 #docid = 310894
0.44536966375572851 1:1 2:1 3:0.592592 4:0.61453998 5:0 6:0 7:0 8:0.65508801 9:1 10:0.868204 11:0.82150102 12:0.93577302 13:1 14:0.89522898 15:0.90636498 16:0.72222197 17:0.98623103 18:0.90758002 19:0.91633302 20:0 21:0 22:0 23:0.949525 24:0.70726103 25:1 26:0.97488302 27:0.991997 28:0.88583601 29:0.90881598 30:0.89059699 31:0.809524 32:0.988603 33:0.220065 34:0.239462 35:0 36:0 37:0 38:0.28448501 39:0.829579 40:0.54520202 41:0.97871602 42:0.99332201 43:0.91047901 44:0.76591003 45:0.81489098 #docid = 70465
-3.534197346579548 1:0.75 2:0.83682901 3:1 4:1 5:0 6:0 7:0 8:1 9:0.82001698 10:1 11:1 12:1 13:0.98395002 14:1 15:1 16:0 17:0 18:0 19:0 20:0 21:0 22:0 23:0 24:0 25:0 26:0 27:0 28:0 29:0 30:0 31:0.142857 32:0.367201 33:1 34:1 35:0 36:0 37:0 38:1 39:0.157268 40:1 41:0.94631898 42:0.98287398 43:0.92031699 44:1 45:1 #docid = 210400
1.5000000000000002 1:0.75 2:0.83682901 3:0.80000001 4:0.81705999 5:0 6:0 7:0 8:0.85952002 9:0.82001698 10:0.95020097 11:0.939318 12:0.97955102 13:0.97589099 14:0.95978397 15:0.96031302 16:0 17:0 18:0 19:0 20:0 21:0 22:0 23:0 24:0 25:0 26:0 27:0 28:0 29:0 30:0 31:0.142857 32:0.367201 33:0.80000001 34:0.81705999 35:0 36:0 37:0 38:0.85512102 39:0.157268 40:0.93029797 41:0.93806201 42:0.98015302 43:0.91579801 44:0.96639401 45:0.9702 #docid = 235767
0.5 1:0.25 2:0.278943 3:0.190476 4:0.199469 5:0 6:0 7:0 8:0.212199 9:0.24780799 10:0.248438 11:0.25336701 12:0.55153298 13:0.232388 14:0.168458 15:0.179406 16:0.61111099 17:1 18:0.494432 19:0.50573999 20:0 21:0 22:0 23:0.53051502 24:0.57880998 25:0.78312099 26:0.89080799 27:0.96362001 28:1 29:1 30:1 31:0.57142901 32:0.91700399 33:0.104575 34:0.115721 35:0 36:0 37:0 38:0.14175899 39:0.57328099 40:0.391969 41:0.87345099 42:0.95800197 43:1 44:0.814897 45:0.88675201 #docid = 104237
-0.87139407444177608 1:0.75 2:0.83682901 3:0.66666698 4:0.69081402 5:0 6:0 7:0 8:0.75510198 9:0.82001698 10:0.90987003 11:0.88557899 12:0.960307 13:0.96797597 14:0.92696601 15:0.92792702 16:0.38888901 17:0.69167602 18:0.42932501 19:0.43863299 20:0 21:0 22:0 23:0.545102 24:0.44792399 25:0.790299 26:0.791363 27:0.92637497 28:0.76417398 29:0.76494002 30:0.774333 31:0.47619 32:0.76240802 33:0.117995 34:0.130136 35:0 36:0 37:0 38:0.18256301 39:0.56712699 40:0.452631 41:0.86479801 42:0.95491099 43:0.816787 44:0.673733 45:0.75257802 #docid = 252367
0.30000000000000004 1:0.75 2:0.83682901 3:0.40000001 4:0.42712501 5:0 6:0 7:0 8:0.51156801 9:0.82001698 10:0.79905802 11:0.720662 12:0.89299297 13:0.93767202 14:0.83528298 15:0.83745199 16:0.166667 17:0.41500601 18:0.38603199 19:0.39551401 20:0 21:0 22:0 23:0.45184901 24:0.172858 25:0.69905901 26:0.68844998 27:0.88254201 28:0.76503301 29:0.76328099 30:0.73078799 31:0.285714 32:0.581999 33:0.131148 34:0.144575 35:0 36:0 37:0 38:0.189042 39:0.31453699 40:0.45308 41:0.843476 42:0.94716197 43:0.84333402 44:0.69545901 45:0.75394303 #docid = 283250
0.20000000000000001 1:0.75 2:0.83682901 3:0.40000001 4:0.42712501 5:0 6:0 7:0 8:0.51156801 9:0.82001698 10:0.79905802 11:0.720662 12:0.89299297 13:0.93767202 14:0.83528298 15:0.83745199 16:0.166667 17:0.41500601 18:0.38603199 19:0.39551401 20:0 21:0 22:0 23:0.45184901 24:0.172858 25:0.69905901 26:0.68844998 27:0.88254201 28:0.76503301 29:0.76328099 30:0.73311502 31:0.285714 32:0.581999 33:0.131148 34:0.144575 35:0 36:0 37:0 38:0.189042 39:0.31453699 40:0.45308 41:0.843476 42:0.94716197 43:0.84333402 44:0.69545901 45:0.75990099 #docid = 58155
0.10000000000000001 1:0.5 2:0.557886 3:0.33333299 4:0.35189 5:0 6:0 7:0 8:0.338875 9:0.427791 10:0.38041699 11:0.41401601 12:0.711941 13:0.40338501 14:0.386971 15:0.395042 16:0.38888901 17:0.77259701 18:0.45036501 19:0.46112701 20:0 21:0 22:0 23:0.48750699 24:0.370628 25:0.74622798 26:0.83260798 27:0.942361 28:0.980896 29:0.98593599 30:0.95717198 31:0.42857099 32:0.77380502 33:0.109091 34:0.120587 35:0 36:0 37:0 38:0.142777 39:0.416013 40:0.37927601 41:0.83786303 42:0.94509 43:0.99966401 44:0.82021999 45:0.87067097 #docid = 294908
-0.94891697590834045 1:0 2:0 3:0 4:0 5:0 6:0 7:0 8:0 9:0 10:0 11:0 12:0 13:0 14:0 15:0 16:0.38888901 17:0.67879599 18:0.91874999 19:0.92325902 20:0 21:0 22:0 23:0.91071898 24:0.36154601 25:0.94936299 26:0.88265502 27:0.96072698 28:0.86802202 29:0.89046597 30:0.88674599 31:0.33333299 32:0.600604 33:0.169697 34:0.18514401 35:0 36:0 37:0 38:0.214757 39:0.32679999 40:0.45918399 41:0.829283 42:0.94189501 43:0.85658997 44:0.71036601 45:0.771676 #docid = 35859
0.20000000000000001 1:0.75 2:0.83682901 3:0.40000001 4:0.42712501 5:0 6:0 7:0 8:0.51156801 9:0.82001698 10:0.79905802 11:0.720662 12:0.89299297 13:0.93767202 14:0.83528298 15:0.83745199 16:0.444444 17:0.77259701 18:0.364586 19:0.373638 20:0 21:0 22:0 23:0.44591001 24:0.483248 25:0.70466202 26:0.75586498 27:0.91193599 28:0.74485803 29:0.75099301 30:0.75071597 31:0.52381003 32:0.813209 33:0.095238999 34:0.10543 35:0 36:0 37:0 38:0.14469101 39:0.59810102 40:0.398633 41:0.81578702 42:0.93680203 43:0.78096998 44:0.64725101 45:0.70352399 #docid = 215846
-0.20000000000000001 1:0.5 2:0.557886 3:0.33333299 4:0.35189 5:0 6:0 7:0 8:0.461606 9:0.64003497 10:0.70512599 11:0.62099802 12:0.844374 13:0.77392602 14:0.64874297 15:0.65336698 16:0.38888901 17:0.52669102 18:0.76562703 19:0.75932699 20:0 21:0 22:0 23:1 24:0.55110401 25:0.96280301 26:0.75878298 27:0.91314799 28:0.68709201 29:0.67485303 30:0.638053 31:0.42857099 32:0.56120002 33:0.17647099 34:0.189666 35:0 36:0 37:0 38:0.290337 39:0.63564998 40:0.54256499 41:0.79882598 42:0.93028003 43:0.71997702 44:0.583606 45:0.61170602 #docid = 346330
0.10000000000000001 1:0.5 2:0.557886 3:0.296296 4:0.314776 5:0 6:0 7:0 8:0.30788699 9:0.427791 10:0.364124 11:0.39379999 12:0.69558799 13:0.39587599 14:0.372962 15:0.381217 16:0.277778 17:0.57684702 18:0.643381 19:0.654172 20:0 21:0 22:0 23:0.67366397 24:0.26300099 25:0.83431298 26:0.80576098 27:0.93204898 28:0.831806 29:0.84537601 30:0.83460701 31:0.33333299 32:0.612001 33:0.15555599 34:0.170458 35:0 36:0 37:0 38:0.194769 39:0.318582 40:0.42778799 41:0.797131 42:0.92962098 43:0.85076803 44:0.70311099 45:0.75176197 #docid = 67074
0.5 1:0.25 2:0.278943 3:0.444444 4:0.429741 5:0 6:0 7:0 8:0.38456199 9:0.24780799 10:0.31237301 11:0.32336101 12:0.63121301 13:0.264346 14:0.219464 15:0.22973999 16:0.88888901 17:0.98623103 18:1 19:1 20:0 21:0 22:0 23:0.92203301 24:0.788032 25:0.86544198 26:0.82087702 27:0.93789601 28:0.85342902 29:0.87123799 30:0.85355598 31:0.809524 32:0.88945597 33:0.209876 34:0.226815 35:0 36:0 37:0 38:0.24357399 39:0.75928402 40:0.430172 41:0.78621602 42:0.92534101 43:0.85433501 44:0.70966601 45:0.75871199 #docid = 66671
-0.10000000000000001 1:0.5 2:0.557886 3:0.533333 4:0.54470599 5:0 6:0 7:0 8:0.48739201 9:0.427791 10:0.44719201 11:0.48938599 12:0.766572 13:0.42671299 14:0.44308901 15:0.45042101 16:0.444444 17:0.73620999 18:0.61764902 19:0.627123 20:0 21:0 22:0 23:0.62441301 24:0.40796301 25:0.76037002 26:0.774055 27:0.91941798 28:0.81384403 29:0.819251 30:0.82139498 31:0.47619 32:0.72300398 33:0.148148 34:0.16223 35:0 36:0 37:0 38:0.182144 39:0.44892099 40:0.391489 41:0.76498598 42:0.91684401 43:0.83034301 44:0.68226701 45:0.74353302 #docid = 328385
-0.10000000000000001 1:0.5 2:0.557886 3:0.222223 4:0.239136 5:0 6:0 7:0 8:0.241843 9:0.427791 10:0.32525101 11:0.343483 12:0.65093303 13:0.37409201 14:0.33886701 15:0.33179 16:0.555556 17:0.86166501 18:0.43173999 19:0.44147101 20:0 21:0 22:0 23:0.46244201 24:0.52600199 25:0.67618197 26:0.75071597 27:0.90978497 28:0.76256597 29:0.773817 30:0.76253498 31:0.57142901 32:0.82679898 33:0.097561002 34:0.107832 35:0 36:0 37:0 38:0.128217 39:0.55650699 40:0.341277 41:0.74334699 42:0.907938 43:0.77075702 44:0.63864398 45:0.68429399 #docid = 274337
-0.546912166844847 1:0.5 2:0.557886 3:0.33333299 4:0.35189 5:0 6:0 7:0 8:0.461606 9:0.64003497 10:0.70512599 11:0.62099802 12:0.844374 13:0.77392602 14:0.64874297 15:0.65336698 16:0 17:0 18:0 19:0 20:0 21:0 22:0 23:0 24:0 25:0 26:0 27:0 28:0 29:0 30:0 31:0.095238 32:0.2448 33:0.33333299 34:0.35189 35:0 36:0 37:0 38:0.46830699 39:0.126295 40:0.69195902 41:0.73687601 42:0.90522301 43:0.76534498 44:0.66580898 45:0.703655 #docid = 185550
-0.40000000000000002 1:0 2:0 3:0 4:0 5:0 6:0 7:0 8:0 9:0 10:0 11:0 12:0 13:0 14:0 15:0 16:0.555556 17:0.80336201 18:0.69078797 19:0.69799799 20:0 21:0 22:0 23:0.69269401 24:0.51760101 25:0.78238899 26:0.77917898 27:0.92149299 28:0.81617099 29:0.82376897 30:0.81146801 31:0.47619 32:0.71082097 33:0.13071901 34:0.143259 35:0 36:0 37:0 38:0.166778 39:0.46763101 40:0.371196 41:0.73579597 42:0.90476799 43:0.80513501 44:0.65880799 45:0.70568198 #docid = 118430
-0.10000000000000001 1:0.25 2:0.278943 3:0.121212 4:0.129978 5:0 6:0 7:0 8:0.213376 9:0.39222699 10:0.44195601 11:0.32984 12:0.63769299 13:0.46157101 14:0.321105 15:0.33004299 16:0.72222197 17:0.77259701 18:0.53655601 19:0.53930801 20:0 21:0 22:0 23:0.73157299 24:1 25:0.82021999 26:0.74350703 27:0.90674901 28:0.70388001 29:0.70976502 30:0.69326699 31:0.66666698 32:0.69773501 33:0.109804 34:0.119412 35:0 36:0 37:0 38:0.193266 39:1 40:0.43185601 41:0.71936202 42:0.89775699 43:0.69665802 44:0.57124197 45:0.60624599 #docid = 108391
-0.10000000000000001 1:0.5 2:0.557886 3:0.296296 4:0.314776 5:0 6:0 7:0 8:0.30788699 9:0.427791 10:0.364124 11:0.39379999 12:0.69558799 13:0.39587599 14:0.372962 15:0.381217 16:0.555556 17:0.80336201 18:0.52083302 19:0.52928001 20:0 21:0 22:0 23:0.53414601 24:0.51760101 25:0.67067099 26:0.71124703 27:0.89279199 28:0.76838797 29:0.77317798 30:0.75657201 31:0.57142901 32:0.77380502 33:0.118519 34:0.13015801 35:0 36:0 37:0 38:0.149139 39:0.54828799 40:0.33496299 41:0.70030701 42:0.88942403 43:0.77822399 44:0.63880301 45:0.68063498 #docid = 102809
0.30000000000000004 1:0.25 2:0.278943 3:0.26666701 4:0.27235401 5:0 6:0 7:0 8:0.27246001 9:0.24780799 10:0.27364501 11:0.28411701 12:0.58894902 13:0.24807701 14:0.188694 15:0.199376 16:0.277778 17:0.55334097 18:0.25436199 19:0.26094601 20:0 21:0 22:0 23:0.34643 24:0.33828601 25:0.61602902 26:0.62617397 27:0.85271001 28:0.67802799 29:0.66689497 30:0.636751 31:0.285714 32:0.56120002 33:0.059700999 34:0.066312 35:0 36:0 37:0 38:0.101087 39:0.360176 40:0.338218 41:0.67613202 42:0.878519 43:0.70619297 44:0.56889802 45:0.605654 #docid = 35373
0.10000000000000001 1:0.5 2:0.557886 3:0.533333 4:0.54470599 5:0 6:0 7:0 8:0.48739201 9:0.427791 10:0.44719201 11:0.48938599 12:0.766572 13:0.42671299 14:0.44308901 15:0.45042101 16:0.222222 17:0.49592701 18:0.495285 19:0.50531298 20:0 21:0 22:0 23:0.492383 24:0.19777 25:0.504058 26:0.63302302 27:0.85613298 28:0.71201402 29:0.69718099 30:0.68990999 31:0.285714 32:0.56120002 33:0.137931 34:0.151512 35:0 36:0 37:0 38:0.16398899 39:0.258744 40:0.27244601 41:0.66451001 42:0.87313801 43:0.75161803 44:0.60242498 45:0.66052502 #docid = 69535
-0.20000000000000001 1:0.5 2:0.557886 3:0.380952 4:0.39894 5:0 6:0 7:0 8:0.37694901 9:0.427791 10:0.39911899 11:0.43641999 12:0.72915602 13:0.411024 14:0.40288201 15:0.410743 16:0.77777803 17:0.941697 18:0.73500001 19:0.74236 20:0 21:0 22:0 23:0.662745 24:0.64848697 25:0.53504097 26:0.68576503 27:0.88131303 28:0.729038 29:0.724334 30:0.73298699 31:0.76190501 32:0.87760001 33:0.161616 34:0.176359 35:0 36:0 37:0 38:0.180856 39:0.662027 40:0.25921899 41:0.65813702 42:0.87014598 43:0.73182702 44:0.59072 45:0.650047 #docid = 274359
-0.10000000000000001 1:0.5 2:0.557886 3:0.66666698 4:0.66666597 5:0 6:0 7:0 8:0.57244903 9:0.427791 10:0.47969499 11:0.52100098 12:0.78702098 13:0.43477201 14:0.46982601 15:0.47680601 16:0.555556 17:0.77259701 18:0.61331803 19:0.619138 20:0 21:0 22:0 23:0.59666997 24:0.50718898 25:0.516518 26:0.64800501 27:0.86349303 28:0.70251501 29:0.68785697 30:0.70784998 31:0.57142901 32:0.75520003 33:0.144144 34:0.15719301 35:0 36:0 37:0 38:0.17208 39:0.53813398 40:0.25966901 41:0.64495897 42:0.863868 43:0.72088999 44:0.575149 45:0.64774799 #docid = 237319
0.30000000000000004 1:0.5 2:0.557886 3:0.296296 4:0.314776 5:0 6:0 7:0 8:0.42228201 9:0.64003497 10:0.68731397 11:0.590675 12:0.82802099 13:0.76641798 14:0.63455898 15:0.63937002 16:0.222222 17:0.55334097 18:0.183566 19:0.189256 20:0 21:0 22:0 23:0.190376 24:0.19736101 25:0.39730099 26:0.482687 27:0.77082199 28:0.70451403 29:0.65445799 30:0.63633502 31:0.285714 32:0.63279998 33:0.052632 34:0.058644999 35:0 36:0 37:0 38:0.077237003 39:0.30476499 40:0.279239 41:0.63216501 42:0.85764802 43:0.75967997 44:0.58594799 45:0.64762002 #docid = 187252
-0.20000000000000001 1:0 2:0 3:0 4:0 5:0 6:0 7:0 8:0 9:0 10:0 11:0 12:0 13:0 14:0 15:0 16:0.277778 17:0.57684702 18:0.356659 19:0.36542901 20:0 21:0 22:0 23:0.38519001 24:0.26300099 25:0.60719597 26:0.66112399 27:0.86979902 28:0.74777901 29:0.73970598 30:0.72427201 31:0.238095 32:0.5104 33:0.067340001 34:0.074767999 35:0 36:0 37:0 38:0.092234001 39:0.23792499 40:0.286872 41:0.627047 42:0.85512602 43:0.73671001 44:0.58906102 45:0.627976 #docid = 84411
0.20000000000000001 1:0.25 2:0.278943 3:0.222223 4:0.230272 5:0 6:0 7:0 8:0.238464 9:0.24780799 10:0.25995001 11:0.26786199 12:0.56970501 13:0.240162 14:0.177725 15:0.18855099 16:0.222222 17:0.438512 18:0.26515099 19:0.27158499 20:0 21:0 22:0 23:0.36762899 24:0.27506599 25:0.65848398 26:0.60114002 27:0.839872 28:0.59199202 29:0.58942598 30:0.60455698 31:0.238095 32:0.43880001 33:0.063492 34:0.070266999 35:0 36:0 37:0 38:0.107644 39:0.30227399 40:0.35010901 41:0.618572 42:0.85090101 43:0.61096603 44:0.49733299 45:0.55333102 #docid = 67038
0.20000000000000001 1:0.25 2:0.278943 3:0.102564 4:0.110703 5:0 6:0 7:0 8:0.12842999 9:0.24780799 10:0.20305499 11:0.191266 12:0.45968601 13:0.188427 14:0.13133299 15:0.14276899 16:0.166667 17:0.41500601 18:0.26249999 19:0.269786 20:0 21:0 22:0 23:0.31220999 24:0.172858 25:0.57001299 26:0.59301603 27:0.83559102 28:0.71245402 29:0.69499099 30:0.66608202 31:0.190476 32:0.43880001 33:0.060607001 34:0.067328997 35:0 36:0 37:0 38:0.089929998 39:0.20695201 40:0.295921 41:0.613316 42:0.84825301 43:0.722992 44:0.57419199 45:0.62015998 #docid = 294915
0.24891697590834055 1:0.5 2:0.557886 3:0.380952 4:0.39894 5:0 6:0 7:0 8:0.37694901 9:0.427791 10:0.39911899 11:0.43641999 12:0.72915602 13:0.411024 14:0.40288201 15:0.410743 16:0.166667 17:0.41500601 18:0.19687501 19:0.202672 20:0 21:0 22:0 23:0.236202 24:0.172858 25:0.48434901 26:0.51819003 27:0.79315299 28:0.66748899 29:0.64457202 30:0.63041401 31:0.238095 32:0.5104 33:0.062305 34:0.069223002 35:0 36:0 37:0 38:0.08557 39:0.23792499 40:0.273646 41:0.607768 42:0.84543198 43:0.723827 44:0.577649 45:0.64043599 #docid = 130138
0.20000000000000001 1:0.5 2:0.557886 3:0.296296 4:0.314776 5:0 6:0 7:0 8:0.30788699 9:0.427791 10:0.364124 11:0.39379999 12:0.69558799 13:0.39587599 14:0.372962 15:0.381217 16:0.5 17:0.77259701 18:0.31085199 19:0.31836501 20:0 21:0 22:0 23:0.327344 24:0.462782 25:0.49991399 26:0.58925301 27:0.833588 28:0.68292302 29:0.68909699 30:0.68224299 31:0.52381003 32:0.75022501 33:0.073701002 34:0.081589997 35:0 36:0 37:0 38:0.095058002 39:0.49860501 40:0.25155801 41:0.59880298 42:0.840819 43:0.697465 44:0.57378298 45:0.61963099 #docid = 331230
0.89999999999999991 1:0 2:0 3:0 4:0 5:0 6:0 7:0 8:0 9:0 10:0 11:0 12:0 13:0 14:0 15:0 16:0.222222 17:0.49592701 18:0.324076 19:0.33222201 20:0 21:0 22:0 23:0.347783 24:0.20818201 25:0.57463801 26:0.62025797 27:0.84972298 28:0.73376399 29:0.72094703 30:0.69635898 31:0.190476 32:0.43880001 33:0.062744997 34:0.069684997 35:0 36:0 37:0 38:0.085253999 39:0.188242 40:0.278061 41:0.594809 42:0.83874202 43:0.72722203 44:0.57724798 45:0.60741597 #docid = 34388
-0.20000000000000001 1:0.5 2:0.557886 3:0.166667 4:0.181122 5:0 6:0 7:0 8:0.188243 9:0.427791 10:0.287898 11:0.293484 12:0.59954602 13:0.34663001 14:0.30498701 15:0.302378 16:0.61111099 17:0.91907901 18:0.64452899 19:0.65597099 20:0 21:0 22:0 23:0.50008702 24:0.42326099 25:0.35271999 26:0.59687799 27:0.83763403 28:0.61914498 29:0.588211 30:0.64405203 31:0.619048 32:0.884808 33:0.135417 34:0.149174 35:0 36:0 37:0 38:0.13362899 39:0.45711401 40:0.169872 41:0.57586402 42:0.828695 43:0.619111 44:0.47739601 45:0.566603 #docid = 177767
