SVM-light Version V6.20
0 # kernel type
3 # kernel parameter -d 
1 # kernel parameter -g 
1 # kernel parameter -s 
1 # kernel parameter -r 
empty# kernel parameter -u 
47 # highest feature index 
98 # number of training documents 
2 # number of support vectors plus 1 
0 # threshold b, each following line is a SV (starting with alpha*y)
1 1:-0.25440162 2:-0.064194582 3:-0.095828839 4:-0.14711428 5:-0.93991941 11:0.50526512 12:0.069632486 13:0.48998994 14:0.31931299 15:-0.54731703 16:1.0815643 17:0.46716821 18:-0.39102879 19:-0.35473859 20:-0.015927741 21:-0.26438755 22:-0.85505652 23:3.1782081 24:-0.7926926 25:0.32198751 26:0.54589641 27:-0.1591862 28:-0.42755273 29:-0.094858319 30:0.45488968 31:-0.2050321 32:-0.11669811 33:0.015163122 34:0.35647941 35:-0.048328683 36:-0.22767451 37:0.76762176 38:-1.2085208 39:0.058422871 40:2.1875827 41:-0.2270271 42:-0.20117772 43:-0.44435409 44:0.17700453 45:-0.45431715 #
