SVM-light Version V6.20
0 # kernel type
3 # kernel parameter -d 
1 # kernel parameter -g 
1 # kernel parameter -s 
1 # kernel parameter -r 
empty# kernel parameter -u 
47 # highest feature index 
22 # number of training documents 
2 # number of support vectors plus 1 
0 # threshold b, each following line is a SV (starting with alpha*y)
1 1:0.06765794 2:-0.12193298 3:0.029342169 4:-0.096672475 5:0.060651951 11:-0.024665454 12:-0.087970659 13:0.066781908 14:-0.082440257 15:-0.040352874 16:0.048698988 17:-0.049821652 18:-0.073747285 19:-0.24018502 20:0.048704792 21:0.46476096 22:-0.031810164 23:1.255897 24:0.081172444 25:0.20516281 26:0.048390955 27:0.22261038 28:0.24080504 29:0.12994196 30:0.035177499 31:0.024743382 32:0.13927786 33:0.10480534 34:0.016160337 35:-0.020684261 36:0.041782591 37:0.46845531 38:0.03253445 39:1.1541146 40:0.12739207 41:0.0034224656 42:-0.20073096 44:0.023464421 45:-0.21081863 46:-0.010179605 #
