SVM-light Version V6.02
0 # kernel type
3 # kernel parameter -d 
1 # kernel parameter -g 
1 # kernel parameter -s 
1 # kernel parameter -r 
empty# kernel parameter -u 
46 # highest feature index 
9442 # number of training documents 
1860 # number of support vectors plus 1 
0 # threshold b, each following line is a SV (starting with alpha*y)
-0.22944619076064546 1:0 2:0 3:0 4:0 5:0 6:0 7:0 8:0 9:0 10:0 11:0 12:0 13:0 14:0 15:0 16:0.0041769999 17:0.23076899 18:0.185185 19:0.40000001 20:0.0042420002 21:0 22:0 23:0 24:0 25:0 26:0 27:0 28:0 29:0 30:0 31:0 32:0 33:0 34:0 35:0 36:0 37:0 38:0 39:0 40:0 41:0.5 42:0.25 43:0 44:0.013136 45:0.25 46:0.46153799 #docid = GX024-71-0000000 inc = 1 prob = 0.0894792
-0.1678309828250806 1:0.007067 2:0 3:0.66666698 4:0 5:0.014134 6:0 7:0 8:0 9:0 10:0 11:0.0073480001 12:0 13:0.591833 14:0 15:0.014699 16:0 17:0.076922998 18:0.074074 19:1 20:0 21:0.69322199 22:1 23:0 24:1 25:0 26:0 27:0 28:0 29:1 30:1 31:0.222801 32:1 33:0 34:0 35:0 36:0 37:0.82000899 38:0.96016097 39:0 40:1 41:0.25 42:1 43:0 44:0.054745998 45:0.25 46:0 #docid = GX029-17-16711721 inc = 1 prob = 0.0825829
0.47358884104772953 1:0.056536999 2:0 3:0.66666698 4:1 5:0.067138001 6:0 7:0 8:0 9:0 10:0 11:0.058781002 12:0 13:0.591833 14:1 15:0.066747002 16:0.00398 17:0 18:0.296296 19:0.2 20:0.0040119998 21:0.94616997 22:0.732324 23:0.52096701 24:0.56238902 25:0 26:0 27:0 28:0 29:0.50459999 30:0.61648798 31:0.215857 32:0.72304899 33:1 34:0 35:0 36:0 37:0.95388502 38:0.91003299 39:0.49003401 40:0.84338403 41:0 42:0.125 43:0 44:0 45:0 46:0.076922998 #docid = GX029-35-5894638 inc = 0.0119881192468859 prob = 0.139842
-0.076311667462003463 1:1 2:0 3:0 4:0 5:1 6:0 7:0 8:0 9:0 10:0 11:1 12:0 13:0 14:0 15:1 16:1 17:1 18:0 19:0.40000001 20:1 21:0.65627199 22:0 23:0.50968897 24:0 25:0 26:0 27:0 28:0 29:0 30:0 31:0 32:0 33:0 34:0 35:0 36:0 37:0.66474098 38:0 39:0.416567 40:0 41:0 42:0.40625 43:0 44:0.187052 45:0.75 46:0 #docid = GX266-75-11189217 inc = 0.00240162628819282 prob = 0.0911017
-0.09584912136185153 1:0.17956699 2:0 3:0 4:0 5:0.174455 6:0 7:0 8:0 9:0 10:0 11:0.0027999999 12:0 13:0 14:0 15:0.002287 16:0.084187999 17:1 18:0.57142901 19:0 20:0.084560998 21:0.017313 22:0.22022501 23:0.30669001 24:0.295506 25:0 26:0 27:0 28:0 29:0 30:0 31:0 32:0 33:0 34:0 35:0 36:0 37:0.018289 38:0.22082999 39:0.306274 40:0.29700199 41:0 42:0 43:0 44:0.264231 45:0.47368401 46:0.172414 #docid = GX000-03-7721182 inc = 1 prob = 0.0897452
-0.20996143376737209 1:0.01548 2:0 3:0 4:0 5:0.0093459999 6:0 7:0 8:0 9:0 10:0 11:0.04366 12:0 13:0 14:0 15:0.044096 16:0.005016 17:0.29166701 18:0.57142901 19:0.1 20:0.0051350002 21:0.27255499 22:0.166655 23:0.080058999 24:0.077839002 25:0 26:0 27:0 28:0 29:0 30:0 31:0 32:0 33:0 34:0 35:0 36:0 37:0.26966399 38:0.157425 39:0.074902996 40:0.069358997 41:0.5 42:0.133929 43:0 44:0.001745 45:0.052632 46:0 #docid = GX002-91-6093726 inc = 1 prob = 0.0465332
1.4036782881682477 1:0.133127 2:0.88888901 3:1 4:0 5:0.161994 6:0 7:0 8:0 9:0 10:0 11:0.24618 12:0.809717 13:1 14:0 15:0.323971 16:0.01154 17:0.54166698 18:0.42857099 19:0.15000001 20:0.011761 21:0.83835697 22:0.897991 23:0.90007597 24:0.89761502 25:0.813411 26:1 27:0.91856003 28:0.91512698 29:1 30:1 31:1 32:1 33:0 34:0 35:0 36:0 37:0.900711 38:0.95680797 39:0.97184902 40:0.95478398 41:1 42:0.241071 43:0 44:0.17242 45:1 46:1 #docid = GX012-07-6597432 inc = 1 prob = 0.983119
-0.13030710681384505 1:0.160991 2:0 3:0 4:0 5:0.155763 6:0 7:0 8:0 9:0 10:0 11:0.43129599 12:0 13:0 14:0 15:0.43169099 16:0.0080319997 17:0 18:0.71428603 19:0.55000001 20:0.0082019996 21:0.94785899 22:1 23:1 24:1 25:0 26:0 27:0 28:0 29:0 30:0 31:0 32:0 33:0 34:0 35:0 36:0 37:0.95144701 38:1 39:1 40:1 41:1 42:0.60714298 43:0 44:0 45:0 46:0 #docid = GX207-04-13100446 inc = 1 prob = 0.779311
0.2142844594649489 1:0.56656301 2:0.33333299 3:0 4:0.66666698 5:0.57943898 6:0 7:0 8:0 9:0 10:0 11:0.67577499 12:0.29136199 13:0 14:0.69032001 15:0.714257 16:0.072732002 17:0.125 18:0 19:0.2 20:0.072748996 21:0.68404901 22:0.77893102 23:0.95683002 24:0.77118099 25:1 26:0.93449998 27:0.60095602 28:1 29:0 30:0 31:0 32:0 33:1 34:1 35:0.83944499 36:1 37:0.71866 38:0.79906499 39:0.97877598 40:0.79132301 41:1 42:0.375 43:0 44:0.0024890001 45:0.052632 46:0 #docid = GX242-43-14427255 inc = 0.0971783377719955 prob = 0.967445
-0.40997097779236924 1:0.089782998 2:0 3:0 4:0 5:0.084112003 6:0 7:0 8:0 9:0 10:0 11:0 12:0 13:0 14:0 15:0 16:0.021215999 17:0.125 18:0 19:0.25 20:0.02125 21:0 22:0 23:0 24:0 25:0 26:0 27:0 28:0 29:0 30:0 31:0 32:0 33:0 34:0 35:0 36:0 37:0 38:0 39:0 40:0 41:0.75 42:0.32142901 43:0 44:0.002687 45:0.052632 46:0 #docid = GX266-48-5655204 inc = 0.00398214840461786 prob = 0.0615237
-0.77187410789775868 1:0.616099 2:0 3:0 4:0 5:0.61370701 6:0 7:0 8:0 9:0 10:0 11:0.241368 12:0 13:0 14:0 15:0.238894 16:1 17:0.125 18:0 19:0.15000001 20:1 21:0.013401 22:0.177246 23:0.179941 24:0.177743 25:0 26:0 27:0 28:0 29:0 30:0 31:0 32:0 33:0 34:0 35:0 36:0 37:0.014779 38:0.178911 39:0.180967 40:0.17903399 41:0.5 42:0.125 43:0 44:0.01004 45:0.105263 46:0 #docid = GX267-77-11931487 inc = 0.00671748260221875 prob = 0.106378
-0.12590086293539571 1:0.02 2:0.25 3:1 4:1 5:0.025 6:0 7:0 8:0 9:0 10:0 11:0.029098 12:0.25 13:1 14:1 15:0.037843 16:0.0046979999 17:0.013333 18:0.228571 19:0.190476 20:0.0047160001 21:0.85990298 22:0.88289899 23:0.611413 24:0.88629401 25:0.810381 26:0.565602 27:0.56404799 28:0.444538 29:0.66973299 30:0.84375602 31:0.99702698 32:0.88360101 33:1 34:1 35:1 36:1 37:0.88609099 38:0.88020301 39:0.66211599 40:0.88410699 41:0.33333299 42:0.225806 43:0 44:0.00020900001 45:0.0017509999 46:0.102564 #docid = GX230-23-8834831 inc = 0.0853328252787582 prob = 0.0900715
-0.38914822371667412 1:0.032499999 2:1 3:0.5 4:1 5:0.039999999 6:0 7:0 8:0 9:0 10:0 11:0.022707 12:1 13:0.51392698 14:1 15:0.036582001 16:0.0091909999 17:0.079999998 18:0.085713997 19:0.238095 20:0.0092280004 21:0.61133301 22:0.63180202 23:0.50520098 24:0.76067698 25:0.84502202 26:0.50282001 27:1 28:0.41786 29:0.58619499 30:0.26630899 31:0.187369 32:0.19857 33:0.95649201 34:0.88063401 35:0.99700999 36:0.88064498 37:0.63772601 38:0.64794302 39:0.55435902 40:0.76861203 41:0.33333299 42:0.24731199 43:0 44:0.454629 45:1 46:0.615385 #docid = GX230-33-9386763 inc = 1 prob = 0.0920285
-0.71749225342428957 1:0.02 2:0.25 3:1 4:1 5:0.025 6:0 7:0 8:0 9:0 10:0 11:0.025451001 12:0.25 13:1 14:1 15:0.034185 16:0.0027300001 17:0.026667001 18:0.114286 19:0.238095 20:0.0027109999 21:0.80817598 22:0.98637098 23:0.56124198 24:0.99969399 25:0.63376701 26:0.50986099 27:0.56351203 28:0.39893201 29:1 30:1 31:1 32:1 33:0.95649201 34:0.88063401 35:0.99700999 36:0.88064498 37:0.85224497 38:1 39:0.628465 40:1 41:0.33333299 42:0.354839 43:0 44:0.029495999 45:0.0087569999 46:0.025641 #docid = GX231-41-0398694 inc = 1 prob = 0.0908513
-8.147410629199328 1:0.043749999 2:0.5 3:1 4:1 5:0.050000001 6:0 7:0 8:0 9:0 10:0 11:0.033769999 12:0.5 13:1 14:1 15:0.044759002 16:0.020722 17:0.039999999 18:0.142857 19:0.190476 20:0.020722 21:0.68939698 22:0.71180397 23:0.621198 24:0.73693299 25:0.79518002 26:0.52993298 27:0.77375001 28:0.41786 29:0.890248 30:0.94968599 31:0.99925601 32:0.96252698 33:1 34:1 35:1 36:1 37:0.76255703 38:0.74498701 39:0.68705499 40:0.76229799 41:0.166667 42:0.150538 43:0 44:1 45:0.96322203 46:0.30769199 #docid = GX231-83-7677319 inc = 1 prob = 0.0919167
9.3799519692756874 1:0.33250001 2:0 3:0 4:0 5:0.33250001 6:0 7:0 8:0 9:0 10:0 11:0.058044001 12:0 13:0 14:0 15:0.056837 16:0.161672 17:0.026667001 18:0 19:0.238095 20:0.161579 21:0.46272299 22:0.563851 23:0.64817798 24:0.61437303 25:0 26:0 27:0 28:0 29:0 30:0 31:0 32:0 33:0 34:0 35:0 36:0 37:0.469109 38:0.55067998 39:0.65286398 40:0.60356402 41:0.66666698 42:0.225806 43:0 44:0.0020010001 45:0.0017509999 46:0 #docid = GX253-97-12198295 inc = 0.0169930414271608 prob = 0.0897592
-0.098300342733284307 1:0.001657 2:1 3:0 4:0.5 5:0.0024860001 6:0 7:0 8:0 9:0 10:0 11:0 12:0.764162 13:0 14:0.5 15:0 16:0.0044479999 17:1 18:0 19:0 20:0.0045420001 21:0 22:0 23:0 24:0 25:0.764162 26:0 27:0 28:0 29:0 30:0 31:0 32:0 33:0.76807201 34:0 35:0 36:0 37:0 38:0 39:0 40:0 41:0 42:0.15000001 43:0 44:1 45:0.33333299 46:0.1875 #docid = GX000-58-1184657 inc = 1 prob = 0.0464543
0.098300342733284307 1:0.0041430001 2:0 3:1 4:0 5:0.0057999999 6:0 7:0 8:0 9:0 10:0 11:0.0047510001 12:0 13:1 14:0 15:0.007278 16:0.00054699997 17:0 18:1 19:0.40000001 20:0.00066600001 21:0.91681802 22:1 23:0.64715302 24:0.85180801 25:0 26:0 27:0 28:0 29:1 30:1 31:1 32:1 33:0 34:0 35:0 36:0 37:0.98870403 38:0.94450802 39:0.72578299 40:0.71398801 41:0 42:0.22499999 43:0 44:0.24854399 45:0 46:0.0625 #docid = GX005-32-6186157 inc = 0.00809297330659143 prob = 0.117205
0.47149333839865193 1:0.192212 2:0 3:0 4:0 5:0.191384 6:0 7:0 8:0 9:0 10:0 11:0.176054 12:0 13:0 14:0 15:0.175868 16:0.208307 17:0.40000001 18:1 19:0 20:0.208381 21:0.58510202 22:0.50829601 23:0.82325101 24:0.60104698 25:0 26:0 27:0 28:0 29:0 30:0 31:0 32:0 33:0 34:0 35:0 36:0 37:0.59368402 38:0.46351501 39:0.820584 40:0.50796503 41:0 42:0.125 43:0 44:0.33265999 45:1 46:0 #docid = GX019-30-15913834 inc = 1 prob = 0.297692
-0.47149333839865193 1:1 2:1 3:0 4:0 5:1 6:0 7:0 8:0 9:0 10:0 11:1 12:1 13:0 14:0 15:1 16:1 17:1 18:0 19:1 20:1 21:0.89656299 22:0.68873101 23:1 24:0.705257 25:1 26:1 27:1 28:1 29:0 30:0 31:0 32:0 33:0 34:0 35:0 36:0 37:0.90603697 38:0.63741601 39:1 40:0.599213 41:0.5 42:1 43:0 44:0.47241101 45:0.33333299 46:0 #docid = GX268-70-9577863 inc = 0.00874207930041198 prob = 0.116659
2.655460986388217 1:1 2:1 3:1 4:1 5:1 6:0 7:0 8:0 9:0 10:0 11:1 12:1 13:1 14:1 15:1 16:0.178147 17:1 18:1 19:0.40000001 20:0.180548 21:0.93693501 22:0.96320802 23:0.97792 24:0.809165 25:1 26:0 27:0 28:0 29:1 30:0 31:0 32:0 33:1 34:0 35:0 36:0 37:0.96633297 38:1 39:1 40:0.836887 41:0.25 42:0.40000001 43:0 44:1 45:1 46:1 #docid = GX003-74-12433332 inc = 1 prob = 0.403915
-0.68108390989799794 1:0.064677 2:0 3:0 4:0 5:0.058823999 6:0 7:0 8:0 9:0 10:0 11:0.178123 12:0 13:0 14:0 15:0.16507401 16:0.019989001 17:0.119048 18:0.444444 19:0.2 20:0.020283001 21:0.89302701 22:0.87288398 23:0.85550398 24:0.80498099 25:0 26:0 27:0 28:0 29:0 30:0 31:0 32:0 33:0 34:0 35:0 36:0 37:0.89819598 38:0.875687 39:0.84586602 40:0.80779701 41:0.5 42:0.2 43:0 44:0.041285001 45:0.058823999 46:0.166667 #docid = GX031-19-16095168 inc = 0.0392713519355783 prob = 0.523056
-1.4325668283639708 1:0.129353 2:0 3:0 4:0 5:0.117647 6:0 7:0 8:0 9:0 10:0 11:0.040525001 12:0 13:0 14:0 15:0.037510999 16:0.082711004 17:0.071428999 18:0 19:0 20:0.082635999 21:0 22:0 23:0 24:0 25:0 26:0 27:0 28:0 29:0 30:0 31:0 32:0 33:0 34:0 35:0 36:0 37:0 38:0 39:0 40:0 41:0.25 42:0.366667 43:0 44:0.281701 45:0.17647099 46:0.366667 #docid = GX034-07-4725670 inc = 0.0045068628621207 prob = 0.0598944
-0.54181024812624834 1:0.61194003 2:0 3:0 4:0 5:0.55656099 6:0 7:0 8:0 9:0 10:0 11:0.488837 12:0 13:0 14:0 15:0.451996 16:1 17:0.119048 18:0 19:1 20:1 21:0.045756999 22:0.50689298 23:0.53000402 24:0.48773101 25:0 26:0 27:0 28:0 29:0 30:0 31:0 32:0 33:0 34:0 35:0 36:0 37:0.052884001 38:0.51383603 39:0.52909702 40:0.49340099 41:1 42:1 43:0 44:0.053249002 45:0.058823999 46:0 #docid = GX230-04-2866017 inc = 0.00229862974285403 prob = 0.0952844
-2.4959256061487451 1:0.033238001 2:1 3:0.5 4:1 5:0.060380001 6:0 7:0 8:0 9:0 10:0 11:0.021810999 12:1 13:0.46853501 14:1 15:0.035700999 16:0.016818 17:1 18:0.53846198 19:0.33333299 20:0.018671 21:0.99466801 22:0.76080197 23:0.795614 24:0.67300999 25:0.80812699 26:1 27:1 28:1 29:0.75076097 30:0.35398099 31:0 32:0.41407299 33:0.90902698 34:0.584961 35:0.66633201 36:0.58496201 37:1 38:1 39:1 40:0.888264 41:0 42:0.297297 43:0 44:1 45:1 46:0.66666698 #docid = GX002-00-12974316 inc = 1 prob = 0.942575
-0.41472425497617049 1:0.004011 2:0.02 3:0.83333302 4:1 5:0.0040250001 6:0 7:0 8:0 9:0 10:0 11:0.001373 12:0.031780999 13:0.85903198 14:1 15:0.001377 16:0.001458 17:0 18:0.92307699 19:0 20:0.001458 21:0.85645801 22:1 23:0.283344 24:1 25:0.62228101 26:0.087777004 27:0.045802001 28:0.040132999 29:0.94930297 30:0.96199501 31:0.93010402 32:0.99099803 33:1 34:1 35:1 36:1 37:0.78604198 38:0.97993499 39:0.25975999 40:1 41:0 42:0 43:0 44:0.043517001 45:0 46:0.66666698 #docid = GX021-52-16527163 inc = 1 prob = 0.207164
-0.12475118219328429 1:0 2:0.1 3:0.166667 4:1 5:0 6:0 7:0 8:0 9:0 10:0 11:0 12:0.108002 13:0.249529 14:1 15:0 16:0 17:0.057971001 18:0.153846 19:1 20:0 21:0.28951401 22:0.710908 23:0 24:0.61364502 25:1 26:0.72656798 27:0.308945 28:0.86311001 29:0.72695601 30:0.05263 31:0.157152 32:0.033776999 33:0.76909298 34:0 35:0 36:0 37:0.40622899 38:0.74390399 39:0 40:0.62693399 41:1 42:1 43:0 44:0.010015 45:0 46:1 #docid = GX023-40-11281261 inc = 1 prob = 0.125521
0.60487706475596781 1:0.13409699 2:0.1 3:1 4:0 5:0.13686 6:0 7:0 8:0 9:0 10:0 11:0.136612 12:0.108002 13:1 14:0 15:0.13739499 16:0.132606 17:0.115942 18:1 19:0.5 20:0.132965 21:0.25103301 22:0.145135 23:0.75566202 24:0.135941 25:0.65482801 26:0.633268 27:0.308193 28:0.78984302 29:1 30:1 31:1 32:1 33:0 34:0 35:0 36:0 37:0.225477 38:0.168522 39:0.64115697 40:0.16185001 41:0 42:0.432432 43:0 44:0.036952998 45:0 46:0.33333299 #docid = GX233-26-11314023 inc = 0.014511144471929 prob = 0.750384
3.2742131009408197 1:0.18338101 2:0.079999998 3:0.166667 4:0 5:0.182864 6:0 7:0 8:0 9:0 10:0 11:0.172291 12:0.12712499 13:0.249529 14:0 15:0.17354199 16:0.147826 17:0.20289899 18:0.46153799 19:0.66666698 20:0.14818799 21:0.207707 22:0.096864998 23:0.75055099 24:0.112972 25:0.39235401 26:0 27:0.129995 28:0.0071740001 29:0.43937799 30:0 31:0.15537 32:0 33:0 34:0 35:0 36:0 37:0.146164 38:0.087566003 39:0.59546 40:0.108295 41:0 42:0.62162203 43:0 44:0.078045003 45:0.15000001 46:0 #docid = GX241-82-7773430 inc = 0.0135218742480478 prob = 0.541851
0.031220265977608186 1:0.096848004 2:0.079999998 3:0 4:0 5:0.095457003 6:0 7:0 8:0 9:0 10:0 11:0.082364999 12:0.076220997 13:0 14:0 15:0.079844996 16:0.065729 17:0.057971001 18:0.53846198 19:0.5 20:0.065796003 21:0.93880802 22:0.55607498 23:1 24:0.465592 25:0.70573503 26:0.41857901 27:0 28:0.53658003 29:0 30:0 31:0 32:0 33:0 34:0 35:0 36:0 37:0.65927303 38:0.51185101 39:0.86887699 40:0.45491201 41:0 42:0.54054099 43:0 44:9.9999997e-005 45:0 46:0 #docid = GX245-08-10870484 inc = 0.0353170005968985 prob = 0.890521
-0.9996605705494801 1:0.036102999 2:0 3:0 4:0 5:0.032202002 6:0 7:0 8:0 9:0 10:0 11:0.031468 12:0 13:0 14:0 15:0.027693 16:0.023432 17:0.028986 18:0 19:0.5 20:0.02324 21:1 22:0.62946099 23:0.77958101 24:0.55011803 25:0 26:0 27:0 28:0 29:0 30:0 31:0 32:0 33:0 34:0 35:0 36:0 37:0.67494899 38:0.555825 39:0.62078899 40:0.516976 41:0.5 42:0.54054099 43:0 44:0.025978999 45:0.050000001 46:0 #docid = GX256-01-5108816 inc = 0.0234328235445197 prob = 0.5887
0.12475118219328429 1:1 2:0.02 3:0 4:0 5:1 6:0 7:0 8:0 9:0 10:0 11:1 12:0.031780999 13:0 14:0 15:1 16:1 17:0.057971001 18:0 19:0.33333299 20:1 21:0 22:0 23:0.74348998 24:0 25:0.294265 26:0.038456 27:0.045047998 28:0 29:0 30:0 31:0 32:0 33:0 34:0 35:0 36:0 37:0 38:0 39:0.58660698 40:0 41:0.5 42:0.432432 43:0 44:0 45:0 46:0 #docid = GX264-55-16328787 inc = 1 prob = 0.0269951
0.16026746175481854 1:0.010646 2:0 3:0.5 4:0 5:0.01139 6:0 7:0 8:0 9:0 10:0 11:0.55797398 12:0 13:0.61040699 14:0 15:0.56967098 16:0.0061579999 17:0.54545498 18:0.25925899 19:0.444444 20:0.0065219998 21:0.782507 22:0.69227999 23:0.61620301 24:0.63749099 25:0 26:0 27:0 28:0 29:0.55001199 30:0.68855 31:0.55220503 32:0.56481099 33:0 34:0 35:0 36:0 37:0.79643101 38:0.68184698 39:0.59892601 40:0.65231901 41:0.444444 42:0.64516097 43:0 44:0.53388703 45:0.33333299 46:0.079365 #docid = GX012-97-12302597 inc = 1 prob = 0.145584
-0.090774208679889057 1:0.00076000002 2:1 3:0.5 4:1 5:0.0045560002 6:0 7:0 8:0 9:0 10:0 11:0.50748301 12:1 13:0.61040699 14:1 15:0.54509902 16:2.6e-005 17:0.18181799 18:0.074074 19:0.66666698 20:0.00020900001 21:0.43101999 22:0.68531901 23:0.198617 24:0.48055699 25:1 26:1 27:1 28:1 29:1 30:0.86221999 31:0.55412602 32:0.67584002 33:1 34:1 35:1 36:1 37:0.66011298 38:0.61211997 39:0.31490299 40:0.43179899 41:0.66666698 42:0.70967698 43:0 44:0.0050559998 45:0.111111 46:0 #docid = GX084-96-1421461 inc = 1 prob = 0.0876272
-0.069493253074929484 1:1 2:1 3:0 4:0.5 5:1 6:0 7:0 8:0 9:0 10:0 11:0.831424 12:1 13:0 14:0.49648499 15:0.82442701 16:1 17:0.27272701 18:0 19:0.66666698 20:1 21:0.31128901 22:0.14710601 23:0.293966 24:0.413288 25:0.82105899 26:0.92404699 27:0.999327 28:0.94089502 29:0 30:0 31:0 32:0 33:0.49648499 34:0.328556 35:0.46278301 36:0.29683399 37:0.31220201 38:0.150314 39:0.23235101 40:0.43937099 41:0.555556 42:0.5 43:0 44:0.015603 45:0.111111 46:0 #docid = GX233-75-15579208 inc = 0.0068041192361516 prob = 0.0941532
0.092701962144125849 1:0.026698999 2:0.66666698 3:0 4:0 5:0.029056 6:0 7:0 8:0 9:0 10:0 11:0.021793 12:0.62294197 13:0 14:0 15:0.02208 16:0.0059230002 17:0.34999999 18:0.071428999 19:0 20:0.0059949998 21:0.915645 22:0.82661498 23:0.51878202 24:0.83305502 25:0.55797398 26:0.21664301 27:0.0085549997 28:0.32332 29:0 30:0 31:0 32:0 33:0 34:0 35:0 36:0 37:0.914657 38:0.85266 39:0.55041498 40:0.861211 41:0.25 42:0.068701997 43:0 44:1 45:1 46:0.69999999 #docid = GX036-80-3831115 inc = 0.0177930585172513 prob = 0.263579
0.38074039353653433 1:0.043689001 2:0 3:0 4:0 5:0.041161999 6:0 7:0 8:0 9:0 10:0 11:0.047286 12:0 13:0 14:0 15:0.044275999 16:0.024553001 17:0.050000001 18:0.035714 19:0.045455001 20:0.024412001 21:0.70392901 22:0.53442103 23:0.485304 24:0.55527598 25:0 26:0 27:0 28:0 29:0 30:0 31:0 32:0 33:0 34:0 35:0 36:0 37:0.69307798 38:0.53860599 39:0.482687 40:0.56554103 41:0.5 42:0.17557301 43:0 44:0.0034620001 45:0.011364 46:0.5 #docid = GX063-52-10751704 inc = 0.00253079193727626 prob = 0.10681
-1.3837569983599067 1:0.033980999 2:1 3:0 4:1 5:0.043584 6:0 7:0 8:0 9:0 10:0 11:0.027969001 12:1 13:0 14:1 15:0.034398999 16:0.003123 17:0.30000001 18:0.214286 19:1 20:0.0040930002 21:1 22:1 23:0.585347 24:1 25:1 26:1 27:1 28:1 29:0 30:0 31:0 32:0 33:0.54529399 34:0 35:0 36:0 37:1 38:1 39:0.65098703 40:1 41:0.75 42:1 43:0 44:0.0031409999 45:0.005682 46:0 #docid = GX208-68-5999222 inc = 1 prob = 0.440306
-1.0601037594398199 1:1 2:0 3:1 4:0 5:1 6:0 7:0 8:0 9:0 10:0 11:1 12:0 13:1 14:0 15:1 16:0.98320103 17:0 18:0.42857099 19:0.045455001 20:0.983522 21:0.67086297 22:0.48101699 23:0.62857598 24:0.457468 25:0 26:0 27:0 28:0 29:0.67445499 30:1 31:1 32:1 33:0 34:0 35:0 36:0 37:0.66767299 38:0.48829299 39:0.62933898 40:0.469778 41:0.25 42:0.038167998 43:0 44:0 45:0 46:0 #docid = GX228-32-0863974 inc = 1 prob = 0.118663
0.73843411997510433 1:0.033980999 2:0 3:0 4:0 5:0.031477001 6:0 7:0 8:0 9:0 10:0 11:0.027969001 12:0 13:0 14:0 15:0.024985 16:0.0048099998 17:0.15000001 18:0.107143 19:0.090908997 20:0.0048469999 21:0.975003 22:0.91760099 23:0.57882202 24:0.91668999 25:0 26:0 27:0 28:0 29:0 30:0 31:0 32:0 33:0 34:0 35:0 36:0 37:0.95071101 38:0.90760702 39:0.57580501 40:0.91396099 41:0.25 42:0.114504 43:0 44:0.27243701 45:0.81818199 46:0.66666698 #docid = GX244-80-3169340 inc = 0.032870488368547 prob = 0.367488
1.2319842821439622 1:0.88835001 2:0 3:0 4:0 5:0.88377702 6:0 7:0 8:0 9:0 10:0 11:0.84392899 12:0 13:0 14:0 15:0.83893698 16:1 17:0.2 18:0 19:0 20:1 21:0.65848303 22:0.513547 23:0.67383897 24:0.485825 25:0 26:0 27:0 28:0 29:0 30:0 31:0 32:0 33:0 34:0 35:0 36:0 37:0.65483803 38:0.52051198 39:0.67351502 40:0.49796799 41:0.25 42:0.0076339999 43:0 44:0.001462 45:0.011364 46:0 #docid = GX271-83-0957978 inc = 0.0190059037722439 prob = 0.168997
0.80072985733058921 1:0.076389 2:0 3:1 4:0 5:0.074782997 6:0 7:0 8:0 9:0 10:0 11:0.076389 12:0 13:1 14:0 15:0.074782997 16:0.065543003 17:0.5 18:0.60000002 19:0.80000001 20:0.065656997 21:0.93075401 22:0.20279799 23:0.89718801 24:0.124936 25:0 26:0 27:0 28:0 29:0.71876198 30:0.31739101 31:0.49974999 32:0.31739399 33:0 34:0 35:0 36:0 37:0.56279302 38:0.115556 39:0.85601699 40:0.111985 41:1 42:0.31034499 43:0 44:0.042946 45:0.00495 46:0.0098040001 #docid = GX005-85-9352588 inc = 0.026055687804262 prob = 0.711807
-0.58318327076576004 1:0.0052080001 2:1 3:1 4:0 5:0.0052169999 6:0 7:0 8:0 9:0 10:0 11:0.0052080001 12:1 13:1 14:0 15:0.0052169999 16:0.00029299999 17:0.166667 18:0.40000001 19:0.60000002 20:0.00031800001 21:1 22:1 23:0.418423 24:1 25:1 26:1 27:1 28:1 29:0.83637202 30:0.56932098 31:0.74962401 32:0.569323 33:0 34:0 35:0 36:0 37:1 38:1 39:0.319792 40:1 41:0.66666698 42:0.62068999 43:0 44:0.00043499999 45:0.00495 46:0.0098040001 #docid = GX009-87-7259375 inc = 1 prob = 0.122349
-0.21754658656482917 1:0.0017359999 2:0 3:1 4:1 5:0.001739 6:0 7:0 8:0 9:0 10:0 11:0.0017359999 12:0 13:1 14:1 15:0.001739 16:0 17:0 18:1 19:0 20:0 21:0.623945 22:0.78860599 23:0.21056899 24:0.89369899 25:0 26:0 27:0 28:0 29:0.56099099 30:0 31:0 32:0 33:1 34:1 35:1 36:1 37:0.67320001 38:0.93991798 39:0.141616 40:0.97223902 41:0.33333299 42:0.44827601 43:0 44:0 45:0 46:0.02451 #docid = GX050-85-2746308 inc = 0.0356689444776503 prob = 0.0832342
-0.22256643758168337 1:0.064516 2:0.30000001 3:1 4:0 5:0.080986001 6:0 7:0 8:0 9:0 10:0 11:0.062770002 12:0.32896501 13:1 14:0 15:0.078968003 16:0.026735 17:0.20754699 18:0.73333299 19:0.105263 20:0.027845001 21:0.47384301 22:0.62986797 23:0.43973699 24:0.71297199 25:0.64717901 26:1 27:0.89962697 28:1 29:0.82787102 30:0.90845603 31:0.416722 32:1 33:0 34:0 35:0 36:0 37:0.47635999 38:0.67057502 39:0.47780499 40:0.75550997 41:0.2 42:0.25842699 43:0 44:1 45:1 46:0.125 #docid = GX011-26-2847155 inc = 1 prob = 0.191264
0.051107021693951538 1:0.70250899 2:1 3:0 4:0 5:0.72183102 6:0 7:0 8:0 9:0 10:0 11:0.659307 12:1 13:0 14:0 15:0.67718703 16:0.220743 17:0.45282999 18:0.466667 19:0.105263 20:0.22276001 21:0.434001 22:0.54648 23:0.62599802 24:0.65823299 25:0.79821002 26:0.68014401 27:1 28:0.59983999 29:0 30:0 31:0 32:0 33:0 34:0 35:0 36:0 37:0.41901699 38:0.55605501 39:0.622796 40:0.67461002 41:0.40000001 42:0.089887999 43:0 44:0.052855 45:0.74193501 46:0.22499999 #docid = GX020-38-3460971 inc = 1 prob = 0.180675
0.3851373227861643 1:1 2:0.60000002 3:0 4:0 5:1 6:0 7:0 8:0 9:0 10:0 11:1 12:0.60000002 13:0 14:0 15:1 16:0.31315601 17:0.18867899 18:0.466667 19:0.105263 20:0.313761 21:0.39466399 22:0.49276799 23:0.59176803 24:0.61314398 25:1 26:0.77155203 27:0.79958802 28:0.64240301 29:0 30:0 31:0 32:0 33:0 34:0 35:0 36:0 37:0.37951601 38:0.500498 39:0.58466399 40:0.62903798 41:0.40000001 42:0.101124 43:0 44:0.041538998 45:0.29032299 46:0.075000003 #docid = GX031-91-13841286 inc = 1 prob = 0.132397
-0.3851373227861643 1:0.039427001 2:0 3:0.66666698 4:0 5:0.042254001 6:0 7:0 8:0 9:0 10:0 11:0.098286003 12:0 13:0.96811599 14:0 15:0.112797 16:0.0080709998 17:0 18:0.533333 19:0 20:0.0075670001 21:1 22:1 23:0.93032902 24:1 25:0 26:0 27:0 28:0 29:1 30:1 31:1 32:0.92416501 33:0 34:0 35:0 36:0 37:1 38:1 39:0.94456702 40:1 41:0.40000001 42:0.134831 43:0 44:0 45:0 46:0.1 #docid = GX231-66-4189329 inc = 0.134394576633935 prob = 0.466902
-0.051107021693951538 1:0.035842001 2:0 3:0.66666698 4:0 5:0.038732 6:0 7:0 8:0 9:0 10:0 11:0.080499001 12:0 13:0.96811599 14:0 15:0.095260002 16:0.008374 17:0 18:0.533333 19:0 20:0.0078689996 21:0.96871901 22:0.973894 23:0.91384798 24:0.98214298 25:0 26:0 27:0 28:0 29:1 30:1 31:1 32:0.92416501 33:0 34:0 35:0 36:0 37:0.97722298 38:0.978172 39:0.93064803 40:0.98563898 41:0.40000001 42:0.134831 43:0 44:0 45:0 46:0.1 #docid = GX231-83-15831348 inc = 1 prob = 0.434913
0.22256643758168337 1:0.23297501 2:0 3:0 4:0 5:0.225352 6:0 7:0 8:0 9:0 10:0 11:0.25854799 12:0 13:0 14:0 15:0.251607 16:0.36733299 17:0.113208 18:0 19:0.157895 20:0.36692899 21:0.317038 22:0.284531 23:0.34571201 24:0.39583501 25:0 26:0 27:0 28:0 29:0 30:0 31:0 32:0 33:0 34:0 35:0 36:0 37:0.303433 38:0.287624 39:0.32915601 40:0.415685 41:0.2 42:0.235955 43:0 44:0.045309 45:0.096773997 46:0 #docid = GX263-48-6611263 inc = 1 prob = 0.0809539
-0.17906677815677208 1:0.045198001 2:1 3:1 4:0 5:0.05618 6:0 7:0 8:0 9:0 10:0 11:0.042679999 12:1 13:1 14:0 15:0.053686 16:0.181063 17:0.625 18:1 19:0 20:0.180594 21:0.098921001 22:0.330037 23:0.57048899 24:0.346145 25:0.60466099 26:0 27:0 28:0 29:0.69492197 30:0 31:0 32:0 33:0 34:0 35:0 36:0 37:0.21122301 38:0.35604599 39:0.62918502 40:0.37027401 41:0.25 42:0 43:0 44:0.55160499 45:0.060605999 46:1 #docid = GX002-80-3104818 inc = 0.0016598560684376 prob = 0.0897452
2.2047481695996138 1:0.039547998 2:1 3:0 4:1 5:0.050562002 6:0 7:0 8:0 9:0 10:0 11:0.036191002 12:1 13:0 14:1 15:0.047237001 16:0.0090969997 17:0.25 18:0.33333299 19:0 20:0.0076830001 21:1 22:1 23:0.82191402 24:1 25:1 26:1 27:1 28:1 29:0 30:0 31:0 32:0 33:1 34:1 35:1 36:1 37:1 38:1 39:0.89925498 40:1 41:0.25 42:0.012821 43:0 44:0.119949 45:0.015152 46:0.038462002 #docid = GX010-87-14702853 inc = 1 prob = 0.196285
-0.85952732639817953 1:0.0056500002 2:0 3:0 4:0 5:0.0056179999 6:0 7:0 8:0 9:0 10:0 11:0.0048099998 12:0 13:0 14:0 15:0.0047869999 16:0.034093 17:1 18:0.444444 19:0.055555999 20:0.033346999 21:0.044918001 22:0.152815 23:0.267629 24:0.39450899 25:0 26:0 27:0 28:0 29:0 30:0 31:0 32:0 33:0 34:0 35:0 36:0 37:0.071877003 38:0.14040899 39:0.27271199 40:0.37747899 41:0 42:0.051282 43:0 44:0.216842 45:0.030303 46:0.84615397 #docid = GX103-77-9540791 inc = 0.00650572284566316 prob = 0.0436714
-0.14724867064646485 1:0.022599 2:1 3:1 4:0 5:0.033707999 6:0 7:0 8:0 9:0 10:0 11:0.02176 12:1 13:1 14:0 15:0.032876998 16:0.011391 17:0.25 18:0.555556 19:0 20:0.010139 21:0.69222498 22:0.67387599 23:0.57267898 24:0.79410702 25:1 26:1 27:1 28:1 29:1 30:1 31:1 32:1 33:0 34:0 35:0 36:0 37:0.71720201 38:0.68643701 39:0.651802 40:0.80088001 41:0 42:0.179487 43:0 44:1 45:1 46:0 #docid = GX243-26-14691161 inc = 1 prob = 0.230292
-0.86427822149320832 1:0.27118599 2:0 3:0 4:0 5:0.26966301 6:0 7:0 8:0 9:0 10:0 11:0.235938 12:0 13:0 14:0 15:0.23475599 16:0.28437001 17:0.5 18:0 19:0.38888901 20:0.283802 21:0.50233901 22:0.57895797 23:1 24:0.559641 25:0 26:0 27:0 28:0 29:0 30:0 31:0 32:0 33:0 34:0 35:0 36:0 37:0.50777698 38:0.56182802 39:1 40:0.54761398 41:1 42:0.410256 43:0 44:0.0054159998 45:0.015152 46:0 #docid = GX264-54-5027968 inc = 1 prob = 0.372248
-0.15462717290498906 1:1 2:0 3:0 4:1 5:1 6:0 7:0 8:0 9:0 10:0 11:1 12:0 13:0 14:1 15:1 16:1 17:0 18:0 19:0.33333299 20:1 21:0.205198 22:0 23:0.215415 24:0 25:0 26:0 27:0 28:0 29:0 30:0 31:0 32:0 33:0.785595 34:0 35:0 36:0 37:0.22817799 38:0 39:0.21998601 40:0 41:0 42:0.53846198 43:0 44:0 45:0 46:0 #docid = GX271-90-9256971 inc = 0.00141779621079467 prob = 0.0905257
0.72802302670225205 1:0.64130402 2:0.2 3:0.5 4:1 5:0.64855099 6:0 7:0 8:0 9:0 10:0 11:1 12:0.272212 13:0.62635899 14:1 15:1 16:0.91423702 17:0.145455 18:0.285714 19:0 20:0.91120899 21:0.58320898 22:0.24605399 23:0.54590899 24:0.63723701 25:0.74523503 26:0.646375 27:0.73032802 28:0.34953001 29:0.63015097 30:0.73321497 31:0.82185602 32:0.494358 33:1 34:1 35:1 36:1 37:0.51258099 38:0.36370701 39:0.503564 40:0.65954298 41:0 42:0.033333 43:0 44:0.89999098 45:0.44999999 46:0.29411799 #docid = GX000-80-1441433 inc = 0.0130109548988191 prob = 0.401031
0.48754847612543983 1:0.64130402 2:1 3:0.5 4:0.5 5:0.673913 6:0 7:0 8:0 9:0 10:0 11:0.57888401 12:1 13:0.62635899 14:0.18207499 15:0.61997002 16:0.53016901 17:1 18:0.35714301 19:0 20:0.54490203 21:0.93689501 22:0.70342499 23:0.90940398 24:0.83988702 25:0.53628898 26:0.70507199 27:1 28:1 29:0.56099099 30:0.69615102 31:0.81946498 32:0.469666 33:0.18207499 34:0.038709 35:0.0047610002 36:0.033998001 37:0.94328701 38:0.76438999 39:0.919599 40:0.85570902 41:0 42:0 43:0 44:1 45:0.34999999 46:0.29411799 #docid = GX002-38-12949114 inc = 1 prob = 0.988764
-0.34602709645407859 1:0.14492799 2:0 3:0 4:0 5:0.134058 6:0 7:0 8:0 9:0 10:0 11:0.130637 12:0 13:0 14:0 15:0.046388 16:0.149831 17:0.036364 18:0.214286 19:0.1 20:0.148211 21:0.90936202 22:0.78201002 23:0.62544399 24:0.85419601 25:0 26:0 27:0 28:0 29:0 30:0 31:0 32:0 33:0 34:0 35:0 36:0 37:0.88515902 38:0.81619602 39:0.58359301 40:0.86101002 41:0.166667 42:0.111111 43:0 44:0.647304 45:1 46:1 #docid = GX006-84-7974023 inc = 0.00583194378666649 prob = 0.481047
-0.20624561134008967 1:0 2:0.1 3:0.5 4:0.5 5:0 6:0 7:0 8:0 9:0 10:0 11:0 12:0.136106 13:0.62635899 14:0.81792498 15:0 16:0 17:0.036364 18:0.071428999 19:0.34999999 20:0 21:0 22:0 23:0 24:0 25:1 26:0.81843501 27:0.571051 28:0.39446601 29:1 30:0.96356797 31:0.82903701 32:0.64776099 33:0.605748 34:0.686903 35:0.97690499 36:0.52383602 37:0 38:0 39:0 40:0 41:1 42:0.5 43:0 44:0.0026799999 45:0.050000001 46:0 #docid = GX032-77-4671304 inc = 1 prob = 0.0809401
-0.8695444063736133 1:0.061593998 2:0 3:0 4:0 5:0.050725002 6:0 7:0 8:0 9:0 10:0 11:0.203971 12:0 13:0 14:0 15:0.117289 16:0.028136 17:0 18:0 19:1 20:0.031397998 21:0.43853 22:0.195519 23:0.28468499 24:0.28477201 25:0 26:0 27:0 28:0 29:0 30:0 31:0 32:0 33:0 34:0 35:0 36:0 37:0.30537099 38:0.286024 39:0.189384 40:0.29143301 41:0.66666698 42:1 43:0 44:0 45:0 46:0.17647099 #docid = GX054-39-2464026 inc = 1 prob = 0.0899731
0.20624561134008967 1:1 2:0.1 3:0.5 4:0.5 5:1 6:0 7:0 8:0 9:0 10:0 11:0.23291001 12:0.065155998 13:0.34591901 14:0.18207499 15:0.101516 16:1 17:0.18181799 18:0.71428603 19:0.1 20:1 21:0.67123902 22:0.848943 23:1 24:0.93893498 25:0.17449 26:0 27:0 28:0 29:0.20004199 30:0 31:0 32:0 33:0.165511 34:0.010966 35:0.001586 36:0.0098620001 37:0.606148 38:0.88606697 39:1 40:0.94791901 41:0.33333299 42:0.244444 43:0 44:0.00099600002 45:0.050000001 46:0.058823999 #docid = GX092-00-16472315 inc = 0.00467449347769702 prob = 0.18737
-2.1788008832185994 1:0.014205 2:1 3:1 4:1 5:0.025605001 6:0 7:0 8:0 9:0 10:0 11:0.0086859995 12:1 13:1 14:1 15:0.021762 16:0.0038719999 17:0.29411799 18:0.33333299 19:1 20:0.0043660002 21:0.44580099 22:0.51248699 23:0.228861 24:0.50831002 25:1 26:1 27:1 28:1 29:1 30:1 31:1 32:1 33:1 34:0 35:0 36:0 37:0.54878002 38:0.69360501 39:0.31754801 40:0.61744499 41:0.66666698 42:1 43:0 44:0.062042002 45:0.2 46:0 #docid = GX006-00-5738776 inc = 0.00240057186838373 prob = 0.0940265
2.1788008832185994 1:0.13068201 2:0 3:0 4:0 5:0.129445 6:0 7:0 8:0 9:0 10:0 11:0.046394002 12:0 13:0 14:0 15:0.042567998 16:0.18631101 17:0.235294 18:0 19:0.33333299 20:0.186432 21:0.21571501 22:0.461128 23:0.59297699 24:0.65755397 25:0 26:0 27:0 28:0 29:0 30:0 31:0 32:0 33:0 34:0 35:0 36:0 37:0.206284 38:0.476327 39:0.57538903 40:0.659114 41:0.66666698 42:0.38888901 43:0 44:0.56708097 45:0 46:0 #docid = GX232-47-1836193 inc = 1 prob = 0.297692
-0.057041371052686696 1:0.011272 2:0 3:0 4:0 5:0.011254 6:0 7:0 8:0 9:0 10:0 11:0.011468 12:0 13:0 14:0 15:0.011244 16:0.012969 17:0 18:0.53846198 19:0 20:0.012874 21:0.783575 22:0.61130297 23:0.63730103 24:0.56874001 25:0 26:0 27:0 28:0 29:0 30:0 31:0 32:0 33:0 34:0 35:0 36:0 37:0.77631903 38:0.596425 39:0.61734903 40:0.61853802 41:0 42:0.054053999 43:0 44:0 45:0 46:0 #docid = GX000-01-10866095 inc = 1 prob = 0.0897452
0.37526711899478626 1:0.014493 2:1 3:0.5 4:0 5:0.024116 6:0 7:0 8:0 9:0 10:0 11:0.014715 12:1 13:0.5 14:0 15:0.024212999 16:0.0088799996 17:1 18:0.53846198 19:0.166667 20:0.0092639998 21:0.88394201 22:0.71940398 23:0.692321 24:0.64818299 25:0.64553702 26:0.99999499 27:1 28:0.88569599 29:0.73000801 30:0.84529102 31:0.74745399 32:0.91594797 33:0 34:0 35:0 36:0 37:0.945445 38:0.77672797 39:0.76933098 40:0.76389599 41:0.142857 42:0.094595 43:0 44:0.62222397 45:0.115819 46:0.44827601 #docid = GX000-04-3996743 inc = 0.0255843896427272 prob = 0.18163
-0.75480382061789353 1:0.05314 2:0 3:0.5 4:1 5:0.057877999 6:0 7:0 8:0 9:0 10:0 11:0.052834999 12:0 13:0.5 14:1 15:0.057312999 16:0.023734 17:0.23076899 18:0.46153799 19:0.33333299 20:0.023832001 21:0.95483798 22:0.76304901 23:0.89386201 24:0.66928297 25:0 26:0 27:0 28:0 29:0.80220401 30:0.87344199 31:0.747639 32:0.93910098 33:0.82596898 34:0.36072001 35:0.55498499 36:0.429122 37:0.95826 38:0.76098698 39:0.89975297 40:0.74308503 41:0.42857099 42:0.27026999 43:0 44:0.11121 45:0.032485999 46:0.68965501 #docid = GX003-60-14635656 inc = 0.0600276125547425 prob = 0.69949
0.15607917948700845 1:0.075684004 2:0 3:0 4:0 5:0.075562999 6:0 7:0 8:0 9:0 10:0 11:0.075351 12:0 13:0 14:0 15:0.075042002 16:0.058807999 17:0.30769199 18:0.53846198 19:1 20:0.059227999 21:0.88183898 22:0.66643602 23:0.89560598 24:0.59226698 25:0 26:0 27:0 28:0 29:0 30:0 31:0 32:0 33:0 34:0 35:0 36:0 37:0.87659901 38:0.65299201 39:0.88356203 40:0.64672798 41:0.85714298 42:1 43:0 44:0.037742 45:0.0028250001 46:0.79310298 #docid = GX013-61-1558170 inc = 0.0405128066692095 prob = 0.270755
-0.10720792584909233 1:0.0032210001 2:0 3:0 4:0 5:0.003215 6:0 7:0 8:0 9:0 10:0 11:0.003457 12:0 13:0 14:0 15:0.003242 16:0.144354 17:0.153846 18:0.92307699 19:0.166667 20:0.144555 21:0 22:0 23:0.252336 24:0.12777901 25:0 26:0 27:0 28:0 29:0 30:0 31:0 32:0 33:0 34:0 35:0 36:0 37:0 38:0 39:0.220231 40:0.13330001 41:0.285714 42:0.14864901 43:0 44:0.017608 45:0.001412 46:0.034483001 #docid = GX015-01-8226161 inc = 0.00786597692452781 prob = 0.0481174
-0.60498539671896601 1:0 2:0 3:0.5 4:1 5:0.0048230002 6:0 7:0 8:0 9:0 10:0 11:0.00021 12:0 13:0.5 14:1 15:0.0047590001 16:0 17:0 18:0.30769199 19:0.5 20:0 21:0.68473101 22:0.98273599 23:0.359662 24:1 25:0 26:0 27:0 28:0 29:1 30:0.94747603 31:0.74801099 32:1 33:0.75985098 34:0.199275 35:0.33281201 36:0.23422401 37:0.87389803 38:1 39:0.525249 40:1 41:0.57142901 42:0.47297299 43:0 44:0 45:0 46:0 #docid = GX025-98-7378997 inc = 1 prob = 0.117443
-0.1964471825025117 1:0.128824 2:0 3:0.5 4:1 5:0.133441 6:0 7:0 8:0 9:0 10:0 11:0.126715 12:0 13:0.5 14:1 15:0.131093 16:0.055358998 17:0 18:0.69230801 19:0.41666701 20:0.055489998 21:0.96014702 22:0.75996703 23:1 24:0.66365403 25:0 26:0 27:0 28:0 29:0.618653 30:0.799402 31:0.747082 32:0.87820202 33:0.79153198 34:0.37199399 35:0.44389901 36:0.326792 37:0.95927 38:0.75215298 39:1 40:0.73214501 41:0.42857099 42:0.47297299 43:0 44:0 45:0 46:0.37931001 #docid = GX027-81-6022098 inc = 1 prob = 0.956075
-0.031494976628603788 1:0 2:0 3:0.5 4:0 5:0.003215 6:0 7:0 8:0 9:0 10:0 11:0.00021 12:0 13:0.5 14:0 15:0.003242 16:6.4e-005 17:0.076922998 18:0.46153799 19:0.5 20:0.00016 21:0.68172997 22:0.91100401 23:0.35944799 24:0.94416797 25:0 26:0 27:0 28:0 29:0.80220401 30:0.87344199 31:0.747639 32:0.93910098 33:0 34:0 35:0 36:0 37:0.831891 38:0.90980399 39:0.48035499 40:0.93338001 41:0.71428603 42:0.71621603 43:0 44:0.021675 45:0.0098869996 46:0 #docid = GX027-95-4478226 inc = 0.0235567229065751 prob = 0.086406
-0.01891132310542698 1:0.0032210001 2:0.5 3:0.5 4:0 5:0.0096460003 6:0 7:0 8:0 9:0 10:0 11:0.003457 12:0.5 13:0.5 14:0 15:0.0097270003 16:0.0023960001 17:0.23076899 18:0.30769199 19:0.58333302 20:0.0025239999 21:0.78521198 22:0.71438998 23:0.497825 24:0.68467301 25:1 26:1 27:0.73164898 28:1 29:1 30:0.94747603 31:0.74801099 32:1 33:0 34:0 35:0 36:0 37:0.91195202 38:0.82717401 39:0.62462997 40:0.82440501 41:0.57142901 42:0.54054099 43:0 44:0.00030700001 45:0.001412 46:0 #docid = GX028-87-16106533 inc = 1 prob = 0.0180413
0.34982973129150152 1:0.0032210001 2:0 3:0.5 4:1 5:0.0080390004 6:0 7:0 8:0 9:0 10:0 11:0.003457 12:0 13:0.5 14:1 15:0.0080009997 16:0.00041499999 17:0 18:0.615385 19:0.58333302 20:0.00057500001 21:0.84705901 22:0.98616099 23:0.50432497 24:0.89620602 25:0 26:0 27:0 28:0 29:0.66973299 30:0.82091701 31:0.74726802 32:0.89589202 33:0.73060799 34:0.20681299 35:0.221838 36:0.149716 37:0.923913 38:0.96511 39:0.59946001 40:0.95115799 41:0.42857099 42:0.54054099 43:0 44:0 45:0 46:0 #docid = GX033-34-4501682 inc = 0.0223362964295929 prob = 0.127787
0.9903298064140128 1:0.045088999 2:0.5 3:0 4:0 5:0.048232 6:0 7:0 8:0 9:0 10:0 11:0.045033 12:0.5 13:0 14:0 15:0.048006002 16:0.047947999 17:0.30769199 18:0.69230801 19:0.5 20:0.048238002 21:0.81743699 22:0.61324 23:0.81146199 24:0.55351001 25:0.84821898 26:0.94567299 27:0.73144901 28:0.95747101 29:0 30:0 31:0 32:0 33:0 34:0 35:0 36:0 37:0.82870102 38:0.61284399 39:0.811616 40:0.61387599 41:0.57142901 42:0.44594601 43:0 44:0.504071 45:0.086158 46:0.55172402 #docid = GX036-45-4956594 inc = 1 prob = 0.248031
0.22948816959750573 1:0.024155 2:0.5 3:0.5 4:0 5:0.030547 6:0 7:0 8:0 9:0 10:0 11:0.024455 12:0.5 13:0.5 14:0 15:0.030698 16:0.016739 17:0.46153799 18:0.30769199 19:0.5 20:0.016930999 21:0.88832301 22:0.69493097 23:0.76396698 24:0.62209702 25:0.650693 26:0.86910701 27:0.73105001 28:0.89752901 29:1 30:0.94747603 31:0.74801099 32:1 33:0 34:0 35:0 36:0 37:0.91764998 38:0.71662903 39:0.79425901 40:0.70850003 41:0.71428603 42:0.5 43:0 44:1 45:1 46:0.413793 #docid = GX053-63-4429146 inc = 1 prob = 0.291928
-0.64223546692232403 1:0.00161 2:0 3:0.25 4:1 5:0.0048230002 6:0 7:0 8:0 9:0 10:0 11:0.001728 12:0 13:0.241998 14:1 15:0.0045480002 16:0.002012 17:0 18:0.46153799 19:0 20:0.001885 21:0.69151801 22:0.61392802 23:0.425686 24:0.65963697 25:0 26:0 27:0 28:0 29:0.388264 30:0.056253001 31:0.00074300001 32:0.038362 33:1 34:1 35:1 36:1 37:0.74167299 38:0.65854198 39:0.47466201 40:0.75343001 41:0 42:0 43:0 44:0 45:0 46:0.137931 #docid = GX225-76-16220036 inc = 1 prob = 0.0899728
0.31213345761269029 1:1 2:0 3:0 4:1 5:1 6:0 7:0 8:0 9:0 10:0 11:1 12:0 13:0 14:1 15:1 16:1 17:0.23076899 18:0 19:0.41666701 20:1 21:0.848176 22:0.62347299 23:0.98157698 24:0.55496198 25:0 26:0 27:0 28:0 29:0 30:0 31:0 32:0 33:0.79153198 34:0.276519 35:0.44389901 36:0.326792 37:0.84726298 38:0.61357498 39:0.97417003 40:0.60781801 41:0.57142901 42:0.44594601 43:0 44:0.0041669998 45:0.001412 46:0 #docid = GX251-15-4320099 inc = 1 prob = 0.537598
0.047429517573354119 1:0.0095600002 2:0.5 3:1 4:0.5 5:0.010547 6:0 7:0 8:0 9:0 10:0 11:0.006844 12:0.31884599 13:1 14:0.57200199 15:0.013093 16:0.000239 17:0.142857 18:0.125 19:0 20:0.00016700001 21:1 22:1 23:1 24:1 25:0.67426199 26:0 27:0 28:0 29:1 30:1 31:1 32:1 33:1 34:0.072062999 35:0.001982 36:0.028935 37:1 38:1 39:1 40:1 41:0.2 42:0 43:0 44:0.077258997 45:0.2 46:1 #docid = GX000-39-15289946 inc = 1 prob = 0.594175
-0.047429517573354119 1:0.018164 2:1 3:0 4:1 5:0.019175 6:0 7:0 8:0 9:0 10:0 11:0.041846 12:1 13:0 14:1 15:0.047789 16:0.0025810001 17:0.71428603 18:0.208333 19:1 20:0.003083 21:0.489813 22:0.33309799 23:0.47161099 24:0.192012 25:1 26:1 27:1 28:1 29:0 30:0 31:0 32:0 33:0.89739102 34:1 35:1 36:1 37:0.42202601 38:0.303606 39:0.43504399 40:0.17661899 41:0.80000001 42:1 43:0 44:0.107772 45:0.1 46:0 #docid = GX147-69-11012926 inc = 0.00389318960315293 prob = 0.0881806
-0.33985697762550793 1:0.104693 2:0.166667 3:0.166667 4:1 5:0.099265002 6:0 7:0 8:0 9:0 10:0 11:0.269793 12:0.195654 13:0.190357 14:1 15:0.296143 16:0.0043600001 17:0.096153997 18:0.076922998 19:0 20:0.0033869999 21:0.51738298 22:0.55172497 23:0.640935 24:0.28364801 25:0.39484599 26:0 27:0 28:0 29:0.60309303 30:0 31:0 32:0 33:1 34:0 35:0 36:0 37:0.528552 38:0.549932 39:0.645024 40:0.28257799 41:0.25 42:0 43:0 44:0.025150999 45:0.227273 46:0.52381003 #docid = GX001-57-10486467 inc = 0.00701490994864011 prob = 0.0826056
0.079862167415435711 1:0.46209401 2:1 3:0.5 4:0 5:0.48529401 6:0 7:0 8:0 9:0 10:0 11:0.94718599 12:1 13:0.49317199 14:0 15:1 16:0.055365998 17:1 18:0.179487 19:0.42857099 20:0.056090001 21:0.808384 22:0.78328699 23:0.94193 24:0.74873197 25:0.27193999 26:0.054715998 27:0.939762 28:0.71551597 29:1 30:1 31:0.48186901 32:1 33:0 34:0 35:0 36:0 37:0.83485198 38:0.80044699 39:0.966856 40:0.76499999 41:0.5 42:0.179104 43:0 44:1 45:1 46:0.35714301 #docid = GX005-21-3275422 inc = 1 prob = 0.442791
0.2599948102100722 1:0.111913 2:0 3:0 4:0 5:0.095587999 6:0 7:0 8:0 9:0 10:0 11:0.24944 12:0 13:0 14:0 15:0.24584 16:0.029177001 17:0.26923099 18:0 19:1 20:0.028625 21:0.90059102 22:0.869295 23:0.92347002 24:0.86802697 25:0 26:0 27:0 28:0 29:0 30:0 31:0 32:0 33:0 34:0 35:0 36:0 37:0.90396702 38:0.86854303 39:0.92162502 40:0.86629897 41:0.75 42:0.73134297 43:0 44:0.001278 45:0.045455001 46:0 #docid = GX270-71-7635728 inc = 1 prob = 0.933147
-0.12585751524116517 1:0.13880099 2:0 3:0 4:0 5:0.137931 6:0 7:0 8:0 9:0 10:0 11:0.11534 12:0 13:0 14:0 15:0.1144 16:0.106019 17:0.25 18:0.77777803 19:0.33333299 20:0.105281 21:0.81693298 22:0.782812 23:0.85050601 24:0.79095203 25:0 26:0 27:0 28:0 29:0 30:0 31:0 32:0 33:0 34:0 35:0 36:0 37:0.81408399 38:0.76769 39:0.83249801 40:0.77820498 41:0 42:0 43:0 44:0.031445 45:0.466667 46:0.125 #docid = GX000-11-7751005 inc = 1 prob = 0.558649
-0.70207531830559289 1:0 2:0 3:0 4:0 5:0 6:0 7:0 8:0 9:0 10:0 11:0 12:0 13:0 14:0 15:0 16:0.085395001 17:0 18:0 19:0 20:0.083765998 21:0.330663 22:0.45302799 23:0.46667299 24:0.50658202 25:0 26:0 27:0 28:0 29:0 30:0 31:0 32:0 33:0 34:0 35:0 36:0 37:0.335311 38:0.43953201 39:0.449965 40:0.49524799 41:0 42:0.12766001 43:0 44:0.035641 45:0.26666701 46:0.375 #docid = GX000-44-5527765 inc = 1 prob = 0.0689177
0.19283606886722282 1:0.072554998 2:0.66666698 3:1 4:0 5:0.084638998 6:0 7:0 8:0 9:0 10:0 11:0.066935003 12:0.611817 13:1 14:0 15:0.078677997 16:0.01685 17:0.375 18:0.33333299 19:0 20:0.015782 21:0.94103801 22:0.91850603 23:0.83871102 24:0.92162198 25:0.79141498 26:0.91906798 27:0.85720801 28:0.940512 29:0.93156803 30:1 31:1 32:1 33:0 34:0 35:0 36:0 37:0.950692 38:0.92266703 39:0.84805399 40:0.92615497 41:0 42:0.085106 43:0 44:0 45:0 46:0.1875 #docid = GX021-92-4384142 inc = 0.0165986542709038 prob = 0.883511
-2.0461214187756411 1:0.078864001 2:0.33333299 3:0 4:0.5 5:0.084638998 6:0 7:0 8:0 9:0 10:0 11:0.027000999 12:0.223635 13:0 14:0.407188 15:0.030151 16:0.014423 17:0.0625 18:0.111111 19:1 20:0.013287 21:0 22:0 23:0 24:0 25:0.60451299 26:0 27:0 28:0 29:0 30:0 31:0 32:0 33:0.34683001 34:0 35:0 36:0 37:0 38:0 39:0 40:0 41:1 42:1 43:0 44:0.10026 45:0 46:0 #docid = GX046-92-14795690 inc = 1 prob = 0.0132286
0.26899515731662815 1:1 2:0 3:0.5 4:0.5 5:1 6:0 7:0 8:0 9:0 10:0 11:1 12:0 13:0.67644101 14:0.592812 15:1 16:1 17:0.8125 18:0 19:0.33333299 20:1 21:0.82310802 22:0.74590302 23:0.93599498 24:0.75218099 25:0 26:0 27:0 28:0 29:1 30:0 31:0 32:0 33:0.59281099 34:0.37125501 35:0.65274698 36:0.26616001 37:0.82466698 38:0.73379898 39:0.92021698 40:0.74226499 41:0 42:0.12766001 43:0 44:0.012861 45:0.066666998 46:1 #docid = GX236-03-10194106 inc = 0.0210381295576281 prob = 0.638924
1.4570290621322783 1:0.056782 2:1 3:1 4:0 5:0.072099999 6:0 7:0 8:0 9:0 10:0 11:0.055996001 12:1 13:1 14:0 15:0.072414003 16:0 17:1 18:0.77777803 19:0.33333299 20:0 21:0.98076802 22:1 23:0.82505 24:1 25:0.59338498 26:0.88371903 27:1 28:0.844962 29:0.62390202 30:0.61147201 31:0.99193799 32:0.78960103 33:0 34:0 35:0 36:0 37:0.98766297 38:1 39:0.84446698 40:1 41:0.25 42:0.29787201 43:0 44:1 45:1 46:0 #docid = GX244-70-15324710 inc = 1 prob = 0.951999
0.95519396400626988 1:0.19873799 2:0.66666698 3:1 4:1 5:0.21630099 6:0 7:0 8:0 9:0 10:0 11:0.18829399 12:0.611817 13:1 14:1 15:0.20511 16:0.038754001 17:0.25 18:0.66666698 19:0.33333299 20:0.037904002 21:1 22:0.988895 23:1 24:0.98351997 25:1 26:1 27:0.85763001 28:1 29:0.68005198 30:0.68620598 31:0.99395198 32:0.83012998 33:1 34:1 35:1 36:1 37:1 38:0.98638701 39:1 40:0.982449 41:0 42:0.44680899 43:0 44:0.001758 45:0.066666998 46:0.125 #docid = GX252-64-15491683 inc = 0.0544143698869272 prob = 0.983919
-0.74840693546723358 1:0.022051999 2:0 3:0 4:0 5:0.022051999 6:0 7:0 8:0 9:0 10:0 11:0.34528801 12:0 13:0 14:0 15:0.34285 16:0.037781999 17:0.210526 18:0.117647 19:0 20:0.037703998 21:0.33381599 22:0.32636601 23:0.46309799 24:0.25751299 25:0 26:0 27:0 28:0 29:0 30:0 31:0 32:0 33:0 34:0 35:0 36:0 37:0.334894 38:0.32008401 39:0.45637101 40:0.255867 41:0 42:0.085713997 43:0 44:1 45:0.002291 46:1 #docid = GX000-12-12356259 inc = 1 prob = 0.0897452
-0.59453348476978807 1:0.037392002 2:0 3:0 4:0 5:0.037392002 6:0 7:0 8:0 9:0 10:0 11:0.35218301 12:0 13:0 14:0 15:0.34961501 16:0.023669999 17:0.26315799 18:0.17647099 19:0.133333 20:0.023732999 21:0.53276801 22:0.625799 23:0.627922 24:0.67724901 25:0 26:0 27:0 28:0 29:0 30:0 31:0 32:0 33:0 34:0 35:0 36:0 37:0.53164399 38:0.61981797 39:0.62290901 40:0.67290598 41:0.40000001 42:0.142857 43:0 44:0.82115698 45:1 46:0.115183 #docid = GX000-21-3305676 inc = 1 prob = 0.0897452
-0.34786634572087394 1:0.0095880004 2:0 3:0 4:0 5:0.0095880004 6:0 7:0 8:0 9:0 10:0 11:0.31888101 12:0 13:0 14:0 15:0.31683999 16:0.0080390004 17:0.052632 18:0 19:0.33333299 20:0.0079690004 21:0.22313599 22:0.19007599 23:0.25509799 24:0.122489 25:0 26:0 27:0 28:0 29:0 30:0 31:0 32:0 33:0 34:0 35:0 36:0 37:0.220448 38:0.186564 39:0.250597 40:0.120806 41:0.40000001 42:0.36190501 43:0 44:4e-006 45:0.00013499999 46:0 #docid = GX001-42-16521101 inc = 0.0363288982991963 prob = 0.021023
0.39843377382234291 1:0.0086289998 2:0.40000001 3:0.66666698 4:1 5:0.013423 6:0 7:0 8:0 9:0 10:0 11:0.33594999 12:0.43056399 13:0.84712601 14:0.729074 15:0.34611601 16:0.0062799999 17:0.31578901 18:0.117647 19:0.133333 20:0.0063470001 21:0.73446399 22:0.66712898 23:0.578511 24:0.49589401 25:0.452647 26:0.75699002 27:0.78153402 28:0.65316302 29:1 30:1 31:0.99515098 32:0.96127498 33:0.69590998 34:0 35:0 36:0 37:0.81231999 38:0.70577198 39:0.61519599 40:0.52571702 41:0.40000001 42:0.29523799 43:0 44:0.001136 45:0.00053899997 46:0.020942001 #docid = GX018-75-10633740 inc = 0.0204223902525837 prob = 0.0972959
-0.26761931899283953 1:0.57142901 2:0 3:0 4:0 5:0.57142901 6:0 7:0 8:0 9:0 10:0 11:0.33703601 12:0 13:0 14:0 15:0.333166 16:0.54447597 17:0 18:0.941176 19:0.60000002 20:0.54493099 21:0.331705 22:0.287191 23:0.33456299 24:0.39054599 25:0 26:0 27:0 28:0 29:0 30:0 31:0 32:0 33:0 34:0 35:0 36:0 37:0.33631 38:0.28649399 39:0.33377001 40:0.393143 41:0.60000002 42:0.69523799 43:0 44:4.6000001e-005 45:0.00013499999 46:0.052356001 #docid = GX031-37-4833560 inc = 0.00396267360784039 prob = 0.0878766
-0.21566596736826682 1:0.039310001 2:0 3:0 4:0 5:0.039310001 6:0 7:0 8:0 9:0 10:0 11:0.31257701 12:0 13:0 14:0 15:0.31056401 16:0.032019999 17:0.52631599 18:0.88235301 19:0.26666701 20:0.032737002 21:0.14516801 22:0.083632998 23:0.22608399 24:0 25:0 26:0 27:0 28:0 29:0 30:0 31:0 32:0 33:0 34:0 35:0 36:0 37:0.14398199 38:0.073408 39:0.219302 40:0 41:0.60000002 42:0.25714299 43:0 44:2.4999999e-005 45:0.00013499999 46:0.089005001 #docid = GX063-80-15051765 inc = 0.00822259549877422 prob = 0.0769266
3.9463403413765765 1:0.52444899 2:0.40000001 3:0.66666698 4:1 5:0.52924299 6:0 7:0 8:0 9:0 10:0 11:1 12:0.43056399 13:0.84712601 14:1 15:1 16:0.28586701 17:0.210526 18:0.235294 19:0.066666998 20:0.285833 21:0.93021703 22:1 23:1 24:1 25:0.59005302 26:0.79529399 27:0.78252 28:0.680695 29:0.753434 30:0.92831999 31:0.99406201 32:0.90213799 33:1 34:1 35:1 36:1 37:0.93533802 38:1 39:1 40:1 41:0.2 42:0.047619 43:0 44:0.00014400001 45:0.00013499999 46:0.089005001 #docid = GX225-75-12296992 inc = 1 prob = 0.894297
-0.94209326938950255 1:1 2:0 3:0 4:0 5:1 6:0 7:0 8:0 9:0 10:0 11:0 12:0 13:0 14:0 15:0 16:1 17:0.57894701 18:0 19:0.26666701 20:1 21:0.113637 22:0 23:0 24:0.14189 25:0 26:0 27:0 28:0 29:0 30:0 31:0 32:0 33:0 34:0 35:0 36:0 37:0.116883 38:0 39:0 40:0.146369 41:0.60000002 42:0.180952 43:0 44:0.005229 45:0.0010779999 46:0 #docid = GX233-00-12888560 inc = 0.0204223902525837 prob = 0.041014
-1.0984651781641546 1:0.94822598 2:0 3:0 4:0 5:0.94822598 6:0 7:0 8:0 9:0 10:0 11:0.36203101 12:0 13:0 14:0 15:0.35698 16:0.92132998 17:0 18:0 19:1 20:0.92134899 21:0.33394399 22:0.46625301 23:0.54110098 24:0.591398 25:0 26:0 27:0 28:0 29:0 30:0 31:0 32:0 33:0 34:0 35:0 36:0 37:0.339187 38:0.46534699 39:0.540573 40:0.592879 41:0.80000001 42:1 43:0 44:0 45:0 46:0 #docid = GX234-81-8002008 inc = 0.0114347898135111 prob = 0.101774
-0.13012361532626038 1:0 2:0 3:0 4:0 5:0 6:0 7:0 8:0 9:0 10:0 11:0.316502 12:0 13:0 14:0 15:0.314522 16:0 17:0.105263 18:0.117647 19:0.26666701 20:0 21:0 22:0 23:0 24:0 25:0 26:0 27:0 28:0 29:0 30:0 31:0 32:0 33:0 34:0 35:0 36:0 37:0 38:0 39:0 40:0 41:0.40000001 42:0.29523799 43:0 44:9.0000003e-006 45:0.00013499999 46:0 #docid = GX255-00-12753389 inc = 1 prob = 0.0823706
-0.015438570985443739 1:0.038017999 2:0 3:0 4:0.5 5:0.037930999 6:0 7:0 8:0 9:0 10:0 11:0.055082999 12:0 13:0 14:0.5 15:0.054694001 16:0.012564 17:0.77777803 18:1 19:0 20:0.012757 21:1 22:1 23:0.84690797 24:1 25:0 26:0 27:0 28:0 29:0 30:0 31:0 32:0 33:0.88893002 34:0.99509197 35:0.014481 36:1 37:1 38:1 39:0.847094 40:1 41:0 42:0 43:0 44:0.36973399 45:1 46:1 #docid = GX002-20-2186640 inc = 0.0520700091790288 prob = 0.972701
-0.18078390206463979 1:0.017281 2:0 3:0 4:0 5:0.016092001 6:0 7:0 8:0 9:0 10:0 11:0.011746 12:0 13:0 14:0 15:0.0093320003 16:0.030603001 17:1 18:0 19:0.5 20:0.030841 21:0 22:0 23:0 24:0 25:0 26:0 27:0 28:0 29:0 30:0 31:0 32:0 33:0 34:0 35:0 36:0 37:0 38:0 39:0 40:0 41:0.66666698 42:0.40000001 43:0 44:0.0044399998 45:0.058823999 46:0 #docid = GX257-51-10654735 inc = 0.00203666216672787 prob = 0.0868507
1.5256721143035787 1:1 2:1 3:0 4:1 5:1 6:0 7:0 8:0 9:0 10:0 11:1 12:1 13:0 14:1 15:1 16:1 17:0.444444 18:0 19:0.875 20:1 21:0.49001601 22:0.64504701 23:0.73746097 24:0.62073302 25:1 26:0 27:0 28:0 29:0 30:0 31:0 32:0 33:1 34:1 35:1 36:1 37:0.498366 38:0.64949298 39:0.738644 40:0.62469602 41:1 42:0.84444398 43:0 44:0.044709999 45:0.058823999 46:0 #docid = GX261-05-2600556 inc = 0.0104417580902444 prob = 0.121022
-1.3294496412534953 1:0.050691001 2:0 3:0 4:0 5:0.049424998 6:0 7:0 8:0 9:0 10:0 11:0.033927001 12:0 13:0 14:0 15:0.031677999 16:0.048618 17:0.222222 18:0 19:0.5 20:0.048682 21:0.205634 22:0.31998101 23:0.33850399 24:0.32278401 25:0 26:0 27:0 28:0 29:0 30:0 31:0 32:0 33:0 34:0 35:0 36:0 37:0.21201301 38:0.322887 39:0.34026599 40:0.32548499 41:0.33333299 42:0.77777803 43:0 44:0.035519 45:0.058823999 46:0 #docid = GX271-93-7599658 inc = 1 prob = 0.0139336
-0.065307568675337269 1:0.122334 2:0 3:1 4:0 5:0.122487 6:0 7:0 8:0 9:0 10:0 11:0.626109 12:0 13:1 14:0 15:0.63168401 16:0.065168999 17:0.235294 18:0.375 19:0.15000001 20:0.065334998 21:0.748034 22:0.75504303 23:0.72127402 24:0.72872502 25:0 26:0 27:0 28:0 29:1 30:1 31:1 32:1 33:0 34:0 35:0 36:0 37:0.76460099 38:0.76673299 39:0.73377401 40:0.761792 41:0.5 42:0.225225 43:0 44:0.52667999 45:0.0068970001 46:0.2 #docid = GX009-16-2717510 inc = 0.0271682968823835 prob = 0.111102
-0.17358893750018289 1:0.082183003 2:0 3:0.5 4:1 5:0.082286 6:0 7:0 8:0 9:0 10:0 11:0.71400797 12:0 13:0.62783301 14:1 15:0.72079802 16:0.032963 17:0.17647099 18:0.5 19:0.15000001 20:0.033137001 21:1 22:0.98098397 23:0.82802999 24:0.97868299 25:0 26:0 27:0 28:0 29:0.55043203 30:0.38860399 31:0.83542103 32:0.29498801 33:1 34:1 35:1 36:1 37:1 38:0.975541 39:0.82612503 40:0.982337 41:0.5 42:0.13513499 43:0 44:0.010413 45:0.0034479999 46:0 #docid = GX027-72-16532159 inc = 1 prob = 0.398164
0.17358893750018289 1:0.33877 2:1 3:0 4:0 5:0.339196 6:0 7:0 8:0 9:0 10:0 11:1 12:1 13:0 14:0 15:1 16:0.158731 17:0.235294 18:0 19:0.15000001 20:0.158783 21:0.92826599 22:1 23:1 24:0.99320799 25:0.75575799 26:1 27:1 28:1 29:0 30:0 31:0 32:0 33:0 34:0 35:0 36:0 37:0.92928499 38:1 39:1 40:1 41:0.5 42:0.144144 43:0 44:0.028217999 45:0.0034479999 46:0 #docid = GX263-30-0097223 inc = 1 prob = 0.650802
0.065307568675337269 1:0.288582 2:0.5 3:0 4:1 5:0.28894499 6:0 7:0 8:0 9:0 10:0 11:0.97860998 12:0.720676 13:0 14:1 15:0.98194098 16:0.16051701 17:0.058823999 18:0 19:0.15000001 20:0.160478 21:0.86822301 22:0.86173999 23:0.87468803 24:0.87502003 25:1 26:0.79253399 27:0.98055398 28:0.278523 29:0 30:0 31:0 32:0 33:1 34:0 35:1 36:1 37:0.86868602 38:0.86125201 39:0.87552702 40:0.88980597 41:0.25 42:0.13513499 43:0 44:0.014771 45:0.0034479999 46:0 #docid = GX264-87-0910866 inc = 1 prob = 0.581884
0.050063201351797204 1:0.017197 2:0 3:0 4:0 5:0.017197 6:0 7:0 8:0 9:0 10:0 11:0.021098999 12:0 13:0 14:0 15:0.017475 16:0.014391 17:0.88888901 18:0.52631599 19:0.117647 20:0.014557 21:0.67890698 22:0.64394897 23:0.52943999 24:0.74173301 25:0 26:0 27:0 28:0 29:0 30:0 31:0 32:0 33:0 34:0 35:0 36:0 37:0.61935598 38:0.62963003 39:0.52902597 40:0.72575498 41:0 42:0.086957 43:0 44:0.239079 45:0.82692301 46:0.57894701 #docid = GX000-10-0099463 inc = 1 prob = 0.154248
-13.826569281031812 1:0.011178 2:1 3:1 4:1 5:0.016337 6:0 7:0 8:0 9:0 10:0 11:0.028322 12:1 13:0.90050399 14:1 15:0.042481001 16:0 17:0.111111 18:0.31578901 19:0.470588 20:0 21:1 22:0.93929499 23:0.61229903 24:0.738563 25:1 26:1 27:1 28:1 29:1 30:1 31:0.88674003 32:1 33:1 34:1 35:1 36:1 37:1 38:0.99934101 39:0.73812699 40:0.77966797 41:0.75 42:0.68115902 43:0 44:0.034201 45:0 46:0 #docid = GX174-79-2969816 inc = 1 prob = 0.487808
0.30100473886368717 1:0.030095 2:0 3:0 4:0 5:0.030095 6:0 7:0 8:0 9:0 10:0 11:0.063206002 12:0 13:0 14:0 15:0.058961999 16:0.014488 17:0.444444 18:0 19:1 20:0.014686 21:0.89496398 22:0.85936099 23:0.77047199 24:0.93676299 25:0 26:0 27:0 28:0 29:0 30:0 31:0 32:0 33:0 34:0 35:0 36:0 37:0.80783898 38:0.84152597 39:0.76480699 40:0.91838902 41:0.75 42:1 43:0 44:0.00074699998 45:0 46:0 #docid = GX204-75-11857377 inc = 0.0697632415740369 prob = 0.773226
2.0459007616194427 1:0.062769003 2:0 3:0.5 4:0 5:0.063629001 6:0 7:0 8:0 9:0 10:0 11:0.124279 12:0 13:0.399966 14:0 15:0.118361 16:0.028782999 17:0.222222 18:0.157895 19:0.29411799 20:0.02863 21:0.95550501 22:0.99294102 23:0.996741 24:0.99217999 25:0 26:0 27:0 28:0 29:0.63152897 30:0.29071301 31:0 32:0.129939 33:0 34:0 35:0 36:0 37:0.86740202 38:0.99290299 39:0.99667102 40:0.992172 41:0.5 42:0.057971001 43:0 44:0.00049000001 45:0.019231001 46:0 #docid = GX212-68-15754718 inc = 0.0697632415740369 prob = 0.902
-0.11786606219225426 1:1 2:0 3:0 4:0 5:1 6:0 7:0 8:0 9:0 10:0 11:1 12:0 13:0 14:0 15:1 16:1 17:0 18:0 19:0.29411799 20:1 21:0.558079 22:0.38235801 23:0.551274 24:0.451832 25:0 26:0 27:0 28:0 29:0 30:0 31:0 32:0 33:0 34:0 35:0 36:0 37:0.53999603 38:0.391433 39:0.55715102 40:0.45972601 41:0.75 42:0.27536201 43:0 44:0 45:0 46:0 #docid = GX230-62-8533382 inc = 1 prob = 0.164281
-0.30100473886368717 1:0 2:1 3:0 4:1 5:0.0034390001 6:0 7:0 8:0 9:0 10:0 11:0 12:1 13:0 14:0.21519101 15:0.0054279999 16:0.0010329999 17:0.222222 18:0.157895 19:0.117647 20:0.00077500002 21:0.51650399 22:0.38942799 23:0.178205 24:0.31334999 25:0.82105899 26:0 27:0 28:0 29:0 30:0 31:0 32:0 33:0.35865101 34:0.030706 35:0.00063299999 36:0.065527 37:0.65112901 38:0.64342201 39:0.35785201 40:0.43798399 41:0 42:0 43:0 44:1 45:1 46:1 #docid = GX246-55-0736139 inc = 0.00900146745035508 prob = 0.111907
11.848471380252827 1:0.023216 2:0 3:0 4:1 5:0.024936 6:0 7:0 8:0 9:0 10:0 11:0.027078001 12:0 13:0 14:0.21519101 15:0.023398999 16:0.0088740001 17:1 18:0 19:0.117647 20:0.0087470002 21:0.70204002 22:0.79460299 23:0.59401399 24:0.76284897 25:0 26:0 27:0 28:0 29:0 30:0 31:0 32:0 33:0.35865101 34:0.030706 35:0.00063299999 36:0.065527 37:0.63773501 38:0.82671303 39:0.61687899 40:0.78283 41:0.25 42:0.14492799 43:0 44:0.061579999 45:0 46:0 #docid = GX267-64-5667315 inc = 0.0103274736942464 prob = 0.24352
-3.8015261851671482 1:0 2:0 3:0 4:0 5:0 6:0 7:0 8:0 9:0 10:0 11:0 12:0 13:0 14:0 15:0 16:0.0037209999 17:0 18:0.166667 19:0 20:0.003484 21:0 22:0 23:0 24:0 25:0 26:0 27:0 28:0 29:0 30:0 31:0 32:0 33:0 34:0 35:0 36:0 37:0 38:0 39:0 40:0 41:0 42:0 43:0 44:0 45:0 46:0.13953499 #docid = GX000-00-14857490 inc = 1 prob = 0.0897452
-3.7409351090272525 1:0.384505 2:1 3:0.66666698 4:0.5 5:0.39398301 6:0 7:0 8:0 9:0 10:0 11:0.50794899 12:1 13:0.785739 14:0.84633601 15:0.53220898 16:0.09945 17:0.38888901 18:0.222222 19:0.40000001 20:0.0995 21:1 22:0.87792498 23:1 24:0.86513102 25:0.91315299 26:1 27:1 28:0.97502202 29:0.87671697 30:0.94341201 31:0.97905201 32:0.95592803 33:0.80783898 34:0.82371098 35:0.99241602 36:0.65776801 37:0.99766803 38:0.86375999 39:1 40:0.859433 41:0.33333299 42:0.32835799 43:0 44:0.52984703 45:0.25 46:0.46511599 #docid = GX000-05-9058226 inc = 1 prob = 0.933056
37.534933346624371 1:0.0071740001 2:1 3:0.33333299 4:0 5:0.014327 6:0 7:0 8:0 9:0 10:0 11:0.001317 12:0.61067897 13:0.214261 14:0 15:0.001762 16:0.0093379999 17:1 18:0.38888901 19:0.89999998 20:0.0098360004 21:0.022778001 22:0.071335003 23:0.037117999 24:0.075657003 25:0.244872 26:0.025993001 27:0.041536 28:0.029728999 29:0.174523 30:0 31:0 32:0 33:0 34:0 35:0 36:0 37:0.018766999 38:0.113268 39:0.069918998 40:0.116797 41:0.66666698 42:0.70149302 43:0 44:1 45:1 46:1 #docid = GX005-82-8625041 inc = 1 prob = 0.0944942
-0.12358858690897989 1:0.014347 2:0 3:0 4:0 5:0.014327 6:0 7:0 8:0 9:0 10:0 11:0.015593 12:0 13:0 14:0 15:0.015683001 16:0.032067999 17:0.166667 18:1 19:0.5 20:0.032377001 21:0.52570403 22:0.48713499 23:0.45737901 24:0.532682 25:0 26:0 27:0 28:0 29:0 30:0 31:0 32:0 33:0 34:0 35:0 36:0 37:0.52811098 38:0.47557399 39:0.45491499 40:0.52589703 41:0.66666698 42:0.447761 43:0 44:0.023755001 45:0.0092590004 46:0.232558 #docid = GX062-16-1850941 inc = 0.00485551230966534 prob = 0.0714529
-3.8627581089409677 1:0.058823999 2:0 3:0.66666698 4:1 5:0.064470001 6:0 7:0 8:0 9:0 10:0 11:0.065874003 12:0 13:0.785739 14:1 15:0.074052997 16:0.008343 17:0 18:0.166667 19:0.5 20:0.0082250005 21:0.99867898 22:0.96337199 23:0.80699903 24:0.94593501 25:0 26:0 27:0 28:0 29:1 30:1 31:0.97932899 32:1 33:0.91298503 34:0.95874399 35:0.99964398 36:0.96458203 37:1 38:0.95508802 39:0.82246602 40:0.94560301 41:0.33333299 42:0.38806 43:0 44:0 45:0 46:0.32558101 #docid = GX230-21-1966084 inc = 1 prob = 0.908669
-7.8950787967068692 1:0.014347 2:0 3:0.66666698 4:1 5:0.020057 6:0 7:0 8:0 9:0 10:0 11:0.018832 12:0 13:0.785739 14:1 15:0.026829001 16:0.001209 17:0 18:0.555556 19:0.30000001 20:0.001209 21:0.94694197 22:0.97432798 23:0.58721799 24:0.97144598 25:0 26:0 27:0 28:0 29:0.50394797 30:0.76633698 31:0.97739398 32:0.81568301 33:1 34:1 35:1 36:1 37:0.97214001 38:0.98409998 39:0.64078999 40:0.98191297 41:0.5 42:0.164179 43:0 44:0 45:0 46:0.27906999 #docid = GX230-37-3526402 inc = 0.0157592226681781 prob = 0.153797
-0.70488300360786127 1:0.011478 2:0 3:1 4:0.5 5:0.017192001 6:0 7:0 8:0 9:0 10:0 11:0.015066 12:0 13:1 14:0.15366399 15:0.019516001 16:0.00054500002 17:0 18:0.5 19:0.60000002 20:0.00059299998 21:0.93204099 22:1 23:0.55472797 24:1 25:0 26:0 27:0 28:0 29:0.639139 30:0.92513603 31:1 32:0.88473701 33:0.134443 34:0.036802001 35:0.000711 36:0.023466 37:0.94696498 38:1 39:0.60485399 40:1 41:0.5 42:0.47761199 43:0 44:0 45:0 46:0 #docid = GX233-45-14829294 inc = 0.0176116109173682 prob = 0.158339
-1.135167119797984 1:0.002869 2:0.5 3:0.33333299 4:0.5 5:0.0085960003 6:0 7:0 8:0 9:0 10:0 11:0.0070059998 12:0.5 13:0.57147801 14:0.15366399 15:0.014978 16:0 17:0.166667 18:0.166667 19:0.69999999 20:0 21:0.81853902 22:0.77890199 23:0.42695299 24:0.89462 25:0.924362 26:0.88285798 27:0.79137301 28:1 29:0.72731203 30:0.66826701 31:0.95504302 32:0.51615101 33:0.129062 34:0.030135 35:0.00053299998 36:0.016806999 37:0.926844 38:0.94452399 39:0.533692 40:0.96559697 41:0.5 42:0.62686598 43:0 44:0.354103 45:0.0092590004 46:0.023256 #docid = GX245-21-6950310 inc = 1 prob = 0.0146213
-0.13349888980863422 1:0.024390001 2:0 3:0.33333299 4:0.5 5:0.027221 6:0 7:0 8:0 9:0 10:0 11:0.0077180001 12:0 13:0.214261 14:0.15366399 15:0.0068270001 16:0.00099500001 17:0 18:0.111111 19:0.89999998 20:0.000948 21:0.651366 22:0.85593098 23:0.48047501 24:0.94321799 25:0 26:0 27:0 28:0 29:0.317307 30:0.11983 31:0.0013839999 32:0.095830001 33:0.119497 34:0.018807 35:0.000178 36:0.0051580002 37:0.63070798 38:0.81851703 39:0.48595399 40:0.91448897 41:0.83333302 42:0.64179099 43:0 44:0 45:0 46:0.023256 #docid = GX248-04-3890109 inc = 0.0141264892672832 prob = 0.0296027
-13.027084230000574 1:0.037303001 2:0.25 3:0.66666698 4:1 5:0.044413 6:0 7:0 8:0 9:0 10:0 11:0.045724999 12:0.34733 13:0.785739 14:1 15:0.057666 16:0.011874 17:0.055555999 18:0.5 19:0.5 20:0.011922 21:0.93623197 22:0.82773602 23:0.70731801 24:0.82677501 25:1 26:0.66219902 27:0.76539898 28:0.57031602 29:0.54238403 30:0.78636599 31:0.97767001 32:0.83179498 33:0.91298503 34:0.95672798 35:0.99964398 36:0.96458203 37:0.95630902 38:0.83661097 39:0.73933399 40:0.84009302 41:0.33333299 42:0.268657 43:0 44:0.040188 45:0.0092590004 46:0 #docid = GX257-27-4959854 inc = 0.007952460397095 prob = 0.129284
-2.8466872621578663 1:1 2:0 3:0 4:0.5 5:1 6:0 7:0 8:0 9:0 10:0 11:1 12:0 13:0 14:0.15366399 15:1 16:1 17:0.166667 18:0 19:0.89999998 20:1 21:0.75205398 22:0.631639 23:0.75173599 24:0.64661902 25:0 26:0 27:0 28:0 29:0 30:0 31:0 32:0 33:0.119497 34:0 35:0.000178 36:0.0051580002 37:0.75536102 38:0.61963099 39:0.74704897 40:0.64122301 41:0.83333302 42:0.80597001 43:0 44:0.100174 45:0.018518999 46:0 #docid = GX263-60-10308013 inc = 1 prob = 0.119327
-0.26372605450023023 1:0.050214998 2:0 3:0 4:0.5 5:0.051576 6:0 7:0 8:0 9:0 10:0 11:0.083731003 12:0 13:0 14:0.15366399 15:0.086388998 16:0.014221 17:0.444444 18:0 19:0.60000002 20:0.014245 21:0.98754501 22:0.84424502 23:0.76258099 24:0.84060198 25:0 26:0 27:0 28:0 29:0 30:0 31:0 32:0 33:0.134443 34:0.036802001 35:0.000711 36:0.023466 37:0.98332298 38:0.82909203 39:0.76448703 40:0.83339101 41:0.5 42:0.552239 43:0 44:0.039845001 45:0.018518999 46:0 #docid = GX271-13-5343981 inc = 0.013574046634663 prob = 0.131415
3.0556376318678957 1:0.013541 2:1 3:0 4:0 5:0.013907 6:0 7:0 8:0 9:0 10:0 11:0.59657699 12:0.98520797 13:0 14:0 15:0.59840697 16:0.0070620002 17:1 18:0.30000001 19:0.1875 20:0.0072039999 21:0.38628599 22:0.629237 23:0.47255301 24:0.68430901 25:0.715074 26:0 27:0.30860099 28:0.79683298 29:0 30:0 31:0 32:0 33:0 34:0 35:0 36:0 37:0.37583101 38:0.63170803 39:0.47013 40:0.67170602 41:0.40000001 42:0.125 43:0 44:0.140304 45:1 46:1 #docid = GX018-16-6808900 inc = 1 prob = 0.271587
-3.0556376318678957 1:0.37950599 2:0 3:1 4:1 5:0.380238 6:0 7:0 8:0 9:0 10:0 11:1 12:0 13:1 14:1 15:1 16:0.28774399 17:0.166667 18:0.30000001 19:0.25 20:0.28771499 21:0.88262999 22:0.97049898 23:1 24:1 25:0 26:0 27:0 28:0 29:1 30:1 31:1 32:1 33:1 34:1 35:1 36:1 37:0.89281797 38:1 39:1 40:1 41:0.40000001 42:0.26923099 43:0 44:0.080140002 45:0.5 46:0 #docid = GX113-78-3816415 inc = 1 prob = 0.76928
-0.35758400880189356 1:0.036885001 2:0 3:0 4:0 5:0.036885001 6:0 7:0 8:0 9:0 10:0 11:0.036819 12:0 13:0 14:0 15:0.036821 16:0.127983 17:0 18:0.214286 19:0.055555999 20:0.127794 21:0.082521997 22:0.26469401 23:0.286401 24:0.28469899 25:0 26:0 27:0 28:0 29:0 30:0 31:0 32:0 33:0 34:0 35:0 36:0 37:0.085124001 38:0.264222 39:0.28524899 40:0.28413099 41:0 42:0 43:0 44:0 45:0 46:1 #docid = GX001-76-14401281 inc = 0.00153915239350022 prob = 0.0897402
-0.025028446813962546 1:0 2:0 3:0 4:0 5:0 6:0 7:0 8:0 9:0 10:0 11:0 12:0 13:0 14:0 15:0 16:0.020024 17:0.055555999 18:0.214286 19:0 20:0.019843001 21:0 22:0 23:0.001455 24:0 25:0 26:0 27:0 28:0 29:0 30:0 31:0 32:0 33:0 34:0 35:0 36:0 37:0 38:0 39:0.0014759999 40:0 41:0.142857 42:0.089286 43:0 44:0.0011089999 45:0.037037 46:0.23076899 #docid = GX001-95-6441278 inc = 0.00818468218587188 prob = 0.0742515
-0.33102109207271724 1:1 2:0 3:0 4:0 5:1 6:0 7:0 8:0 9:0 10:0 11:1 12:0 13:0 14:0 15:1 16:0.90792698 17:0.055555999 18:0.142857 19:0.166667 20:0.90791398 21:0.34303999 22:0.61935198 23:0.73787701 24:0.62478101 25:0 26:0 27:0 28:0 29:0 30:0 31:0 32:0 33:0 34:0 35:0 36:0 37:0.349592 38:0.61629498 39:0.73355001 40:0.62285501 41:0.285714 42:0.160714 43:0 44:0.0062549999 45:0.037037 46:0 #docid = GX007-52-0518383 inc = 1 prob = 0.108203
-1.3626685795607045 1:0.27458999 2:0 3:0 4:0 5:0.27458999 6:0 7:0 8:0 9:0 10:0 11:0.339252 12:0 13:0 14:0 15:0.33938 16:1 17:0.083333001 18:0.214286 19:0.055555999 20:1 21:0.098347001 22:0.217291 23:0.205009 24:0.270311 25:0 26:0 27:0 28:0 29:0 30:0 31:0 32:0 33:0 34:0 35:0 36:0 37:0.101539 38:0.217335 39:0.204698 40:0.269932 41:0.142857 42:0.1875 43:0 44:0.015099 45:0.074074 46:0.57692301 #docid = GX009-60-8564012 inc = 0.00959975133296597 prob = 0.101834
1.8212789865260035 1:0.061475001 2:1 3:1 4:0 5:0.13524599 6:0 7:0 8:0 9:0 10:0 11:0.062960997 12:1 13:1 14:0 15:0.14392699 16:0.041427001 17:1 18:0.214286 19:0.055555999 20:0.042054001 21:0.43115699 22:0.64533597 23:0.70200598 24:0.66929001 25:0.72414798 26:1 27:1 28:0.92828 29:1 30:1 31:1 32:1 33:0 34:0 35:0 36:0 37:0.68928599 38:0.748577 39:0.82300103 40:0.75651699 41:0.142857 42:0.0625 43:0 44:1 45:0.88888901 46:0.115385 #docid = GX039-02-11941220 inc = 1 prob = 0.305301
-0.3128255076190587 1:0.0081970003 2:0 3:0 4:0 5:0.0081970003 6:0 7:0 8:0 9:0 10:0 11:0.0074939998 12:0 13:0 14:0 15:0.0074939998 16:0.049679998 17:0.055555999 18:0.071428999 19:0.444444 20:0.049640998 21:0.022098999 22:0.027318999 23:0 24:0.007921 25:0 26:0 27:0 28:0 29:0 30:0 31:0 32:0 33:0 34:0 35:0 36:0 37:0.022681 38:0.028062999 39:0 40:0.0080420002 41:1 42:0.5 43:0 44:0.031273998 45:0.037037 46:0 #docid = GX067-30-3698580 inc = 0.0120114785571695 prob = 0.0678674
0.56784864834233306 1:0.045081999 2:0.2 3:1 4:0 5:0.069672003 6:0 7:0 8:0 9:0 10:0 11:0.048675999 12:0.2 13:1 14:0 15:0.075667001 16:0.0047590001 17:0.111111 18:0.285714 19:0.277778 20:0.0047590001 21:0.80440497 22:0.839872 23:0.75945699 24:0.85710698 25:1 26:0.92986101 27:0.60113001 28:1 29:0.87671697 30:0.813209 31:0.908831 32:0.813245 33:0 34:0 35:0 36:0 37:0.88015503 38:0.880063 39:0.81316 40:0.88972002 41:0.285714 42:0.473214 43:0 44:0.063418999 45:0.037037 46:0.73076898 #docid = GX106-54-1226487 inc = 1 prob = 0.297965
-0.53802759971357617 1:0.26262599 2:1 3:0.5 4:1 5:0.313131 6:0 7:0 8:0 9:0 10:0 11:0.26962301 12:1 13:0.60418099 14:1 15:0.338305 16:0.002658 17:1 18:0.27272701 19:0.166667 20:0.0048039998 21:0.78820699 22:0.77968699 23:0.78417099 24:0.73070598 25:0.648682 26:0.473326 27:1 28:0.34033701 29:1 30:0 31:0 32:0 33:1 34:1 35:1 36:1 37:0.78852099 38:0.77717203 39:0.80102599 40:0.73072898 41:0.66666698 42:0.235294 43:0 44:1 45:1 46:1 #docid = GX023-27-14379755 inc = 1 prob = 0.197814
-0.21419780829071655 1:0.39393899 2:1 3:1 4:0 5:0.43434301 6:0 7:0 8:0 9:0 10:0 11:0.404434 12:0.80059701 13:1 14:0 15:0.44748199 16:0.113024 17:0.5 18:1 19:0 20:0.114791 21:0.71511602 22:0.63837802 23:0.766608 24:0.61075598 25:1 26:1 27:0.99407399 28:1 29:0.77890402 30:1 31:1 32:1 33:0 34:0 35:0 36:0 37:0.71820801 38:0.64245802 39:0.77239603 40:0.61464 41:0.33333299 42:0.156863 43:0 44:0.032127 45:0.022472 46:0.27906999 #docid = GX045-39-5609138 inc = 1 prob = 0.0701303
-0.26972161824339247 1:0 2:0 3:0 4:0 5:0 6:0 7:0 8:0 9:0 10:0 11:0 12:0 13:0 14:0 15:0 16:0 17:0.277778 18:0 19:0 20:0 21:0 22:0 23:0 24:0 25:0 26:0 27:0 28:0 29:0 30:0 31:0 32:0 33:0 34:0 35:0 36:0 37:0 38:0 39:0 40:0 41:0.33333299 42:0.25490201 43:0 44:0.19676299 45:0.011236 46:0 #docid = GX233-07-3358139 inc = 0.00458506603551553 prob = 0.0597441
0.36636216989688575 1:0.616162 2:0 3:0 4:0 5:0.616162 6:0 7:0 8:0 9:0 10:0 11:0.53828502 12:0 13:0 14:0 15:0.53851998 16:0.50423998 17:0.055555999 18:0 19:0.83333302 20:0.503793 21:0.67073101 22:0.786529 23:1 24:0.79812098 25:0 26:0 27:0 28:0 29:0 30:0 31:0 32:0 33:0 34:0 35:0 36:0 37:0.67116499 38:0.781425 39:0.99142098 40:0.79357499 41:1 42:0.68627501 43:0 44:0.0046379999 45:0.011236 46:0 #docid = GX257-83-12888650 inc = 1 prob = 0.733586
0.65558485635079944 1:0.20202 2:0 3:0 4:1 5:0.222222 6:0 7:0 8:0 9:0 10:0 11:0.207012 12:0 13:0 14:1 15:0.228614 16:0.023668 17:0 18:0 19:1 20:0.023767 21:1 22:1 23:0.99216002 24:1 25:0 26:0 27:0 28:0 29:0 30:0 31:0 32:0 33:0.82749403 34:0 35:0 36:0 37:1 38:1 39:1 40:1 41:0.66666698 42:1 43:0 44:0 45:0 46:0 #docid = GX270-18-1731397 inc = 1 prob = 0.956338
0.14518886125747588 1:1 2:0 3:1 4:0 5:1 6:0 7:0 8:0 9:0 10:0 11:1 12:0 13:1 14:0 15:1 16:0.214708 17:0.125 18:0.72727299 19:0.625 20:0.21476001 21:0.91224802 22:0.87615699 23:1 24:0.77996999 25:0 26:0 27:0 28:0 29:0.91743302 30:0.46674299 31:0.5 32:0.46855599 33:0 34:0 35:0 36:0 37:0.91388601 38:0.877415 39:1 40:0.81348002 41:0.75 42:0.66037703 43:0 44:1 45:1 46:0.60000002 #docid = GX049-57-7392066 inc = 1 prob = 0.629698
-0.32731569106290404 1:0.010504 2:1 3:0 4:0 5:0.016666999 6:0 7:0 8:0 9:0 10:0 11:0.014545 12:1 13:0 14:0 15:0.019064 16:0 17:0.875 18:0.54545498 19:0.75 20:0.00021699999 21:0.76111901 22:0.98560101 23:0.383811 24:1 25:1 26:1 27:1 28:1 29:0 30:0 31:0 32:0 33:0 34:0 35:0 36:0 37:0.76537901 38:0.96676999 39:0.42491901 40:1 41:0.75 42:0.641509 43:0 44:0 45:0.030303 46:0 #docid = GX062-01-6480155 inc = 0.00339148809080379 prob = 0.0954596
0.18212682980542816 1:0.172269 2:0 3:1 4:0 5:0.179167 6:0 7:0 8:0 9:0 10:0 11:0.22795901 12:0 13:1 14:0 15:0.23545 16:0.023365 17:0 18:0.63636398 19:0.625 20:0.023389 21:1 22:1 23:0.87690598 24:0.883726 25:0 26:0 27:0 28:0 29:1 30:1 31:1 32:1 33:0 34:0 35:0 36:0 37:1 38:1 39:0.88698697 40:0.922988 41:0.75 42:0.66037703 43:0 44:0.0013830001 45:0 46:1 #docid = GX141-07-15494197 inc = 1 prob = 0.919077
1.0158579778482135 1:0.133333 2:0 3:1 4:0.5 5:0.18333299 6:0 7:0 8:0 9:0 10:0 11:0.12128 12:0 13:1 14:0.670075 15:0.16804001 16:0.001457 17:0.111111 18:1 19:0.66666698 20:0.0016 21:0.99091899 22:0.98587 23:0.94662303 24:0.98860401 25:0 26:0 27:0 28:0 29:0.94155997 30:0.976179 31:0.99955601 32:0.98422003 33:0.72371399 34:0.50907397 35:0.89088601 36:0.33283699 37:0.97161698 38:0.95866501 39:0.92815298 40:0.98917902 41:0.75 42:0.85714298 43:0 44:0.12925699 45:0.909091 46:0.75 #docid = GX003-73-11371433 inc = 0.0152870947037723 prob = 0.334369
-1.555113378282897 1:1 2:0 3:0 4:0 5:1 6:0 7:0 8:0 9:0 10:0 11:1 12:0 13:0 14:0 15:1 16:1 17:1 18:0.40000001 19:0.33333299 20:1 21:0.214527 22:0.117922 23:0.32972199 24:0.26819399 25:0 26:0 27:0 28:0 29:0 30:0 31:0 32:0 33:0 34:0 35:0 36:0 37:0.21575899 38:0.124381 39:0.315678 40:0.27494699 41:0.5 42:0.33333299 43:0 44:0.94406199 45:0.63636398 46:1 #docid = GX011-92-14993388 inc = 0.00111827990181441 prob = 0.0890912
-1.4565667759017904 1:0.166667 2:0 3:0.5 4:0 5:0.18333299 6:0 7:0 8:0 9:0 10:0 11:0.14236 12:0 13:0.5733 14:0 15:0.154376 16:0.054770999 17:0 18:0.80000001 19:0.66666698 20:0.054262001 21:0.847727 22:0.85624599 23:1 24:0.83730799 25:0 26:0 27:0 28:0 29:0.611238 30:0.234962 31:0.66347802 32:0.214295 33:0 34:0 35:0 36:0 37:0.81188798 38:0.82082403 39:0.92479098 40:0.83171099 41:1 42:0.76190501 43:0 44:0 45:0 46:0 #docid = GX024-57-10901927 inc = 0.00391966224043469 prob = 0.121326
1.4565667759017904 1:0.533333 2:0 3:1 4:0.5 5:0.58333302 6:0 7:0 8:0 9:0 10:0 11:0.33864599 12:0 13:0.70943499 14:0.329925 15:0.32346001 16:0.08405 17:0.055555999 18:0.30000001 19:0 20:0.082339004 21:0.45238599 22:0.502918 23:0.66506898 24:0.470094 25:0 26:0 27:0 28:0 29:0.88933098 30:0 31:0 32:0 33:0.42425901 34:0 35:0 36:0 37:0.39325699 38:0.47575399 39:0.59578401 40:0.46058899 41:0 42:0 43:0 44:0.0076390002 45:0.090908997 46:0.91666698 #docid = GX031-89-8129381 inc = 1 prob = 0.0690867
-1.1372343732221566 1:0 2:0 3:0 4:0 5:0 6:0 7:0 8:0 9:0 10:0 11:0 12:0 13:0 14:0 15:0 16:0.056081999 17:0.5 18:0.80000001 19:0.5 20:0.056736 21:0 22:0 23:0 24:0 25:0 26:0 27:0 28:0 29:0 30:0 31:0 32:0 33:0 34:0 35:0 36:0 37:0 38:0 39:0 40:0 41:0.5 42:1 43:0 44:0.0044430001 45:0.090908997 46:0.041666999 #docid = GX039-50-1599086 inc = 0.00143420310168884 prob = 0.0793824
1.67648977365684 1:0.15000001 2:0 3:1 4:1 5:0.216667 6:0 7:0 8:0 9:0 10:0 11:0.13798 12:0 13:1 14:1 15:0.193762 16:0.010779 17:0.277778 18:1 19:1 20:0.011638 21:0.94997603 22:0.92495298 23:0.95505601 24:0.93833601 25:0 26:0 27:0 28:0 29:0.94155997 30:0.976179 31:0.99955601 32:0.98422003 33:1 34:1 35:1 36:1 37:1 38:1 39:1 40:0.98002797 41:0.75 42:0.809524 43:0 44:1 45:1 46:0.70833302 #docid = GX104-99-5585325 inc = 1 prob = 0.749495
0.81262293199361579 1:0.052497 2:0 3:0 4:0 5:0.051215999 6:0 7:0 8:0 9:0 10:0 11:0.57292098 12:0 13:0 14:0 15:0.58605403 16:0.032451 17:0.125 18:0.2 19:0.33333299 20:0.032311 21:0.68389499 22:0.79213703 23:0.73589402 24:0.91614997 25:0 26:0 27:0 28:0 29:0 30:0 31:0 32:0 33:0 34:0 35:0 36:0 37:0.693362 38:0.794137 39:0.73426002 40:0.91683698 41:0 42:0.375 43:0 44:0.014737 45:0.0046950001 46:0.032258 #docid = GX027-26-15635878 inc = 0.00853489195727321 prob = 0.118486
-0.81262293199361579 1:0.011524 2:0.66666698 3:0.5 4:1 5:0.017926 6:0 7:0 8:0 9:0 10:0 11:0.588287 12:0.75700998 13:0.63526899 14:1 15:0.61903799 16:0.0052660001 17:0.375 18:0.33333299 19:0.166667 20:0.005231 21:0.70600802 22:0.66002899 23:0.57305098 24:0.592628 25:0.99241 26:0 27:0.46085501 28:0 29:0.42610201 30:0.467565 31:0.89010799 32:0.362625 33:1 34:1 35:1 36:1 37:0.74546802 38:0.73939198 39:0.62259299 40:0.655343 41:0 42:0.175 43:0 44:0.132526 45:0.159624 46:1 #docid = GX234-02-14744020 inc = 0.006236533972818 prob = 0.103084
0.020792549634894186 1:0.063658997 2:0 3:0.25 4:0 5:0.064159997 6:0 7:0 8:0 9:0 10:0 11:0.067157 12:0 13:0.20715199 14:0 15:0.067293003 16:0.073550001 17:0.125 18:0.91666698 19:0.142857 20:0.073716998 21:0.65444797 22:0.64867401 23:0.78437799 24:0.59295899 25:0 26:0 27:0 28:0 29:0.111194 30:0 31:0 32:0 33:0 34:0 35:0 36:0 37:0.64769799 38:0.65617901 39:0.784334 40:0.61205399 41:0.25 42:0.166667 43:0 44:0.066385001 45:0.0091739995 46:0.016806999 #docid = GX000-56-16358699 inc = 0.0702588267397885 prob = 0.677068
0.46048768898829451 1:0.021052999 2:1 3:0.25 4:0.5 5:0.027569 6:0 7:0 8:0 9:0 10:0 11:0.020302 12:1 13:0.20715199 14:0.50621003 15:0.026711 16:0.016248999 17:0.71875 18:0.5 19:0.42857099 20:0.016765 21:0.86858302 22:0.79852599 23:0.77612001 24:0.730483 25:0.88040698 26:1 27:1 28:0.97065997 29:0.166178 30:0.02359 31:0.001105 32:0.017455 33:0.525244 34:0.20826399 35:0.313104 36:0.157221 37:0.92914099 38:0.85512501 39:0.84291798 40:0.79555303 41:0.5 42:0.309524 43:0 44:0.225393 45:0.073394001 46:0.050420001 #docid = GX006-69-1949147 inc = 0.0882303023143164 prob = 0.783421
-0.081782955616524045 1:0.34486201 2:0 3:0 4:0 5:0.34486201 6:0 7:0 8:0 9:0 10:0 11:0.37633601 12:0 13:0 14:0 15:0.373265 16:0.76174498 17:0.21875 18:0.66666698 19:0.85714298 20:0.761976 21:0.465556 22:0.534199 23:0.72848898 24:0.480652 25:0 26:0 27:0 28:0 29:0 30:0 31:0 32:0 33:0 34:0 35:0 36:0 37:0.46738201 38:0.54603702 39:0.72859502 40:0.50002199 41:0.75 42:0.95238101 43:0 44:0.016511999 45:0.0091739995 46:0 #docid = GX013-63-2566331 inc = 1 prob = 0.117012
-0.24724810519788321 1:0 2:0 3:0.5 4:0 5:0.001003 6:0 7:0 8:0 9:0 10:0 11:0 12:0 13:0.452122 14:0 15:0.00086999999 16:0 17:0.03125 18:0.166667 19:0.71428603 20:0 21:0.053867999 22:0.412828 23:0.0081169996 24:0.31462801 25:0 26:0 27:0 28:0 29:0.60008198 30:0.39255199 31:0.27227199 32:0.37708101 33:0 34:0 35:0 36:0 37:0.147365 38:0.344715 39:0.078674003 40:0.204061 41:0.25 42:1 43:0 44:0.016974 45:0.0091739995 46:0 #docid = GX029-19-7473504 inc = 1 prob = 0.0820522
-0.11206188317770582 1:0.0020049999 2:0 3:1 4:0 5:0.0040099998 6:0 7:0 8:0 9:0 10:0 11:0.0019710001 12:0 13:1 14:0 15:0.003945 16:0.001961 17:0.125 18:0.75 19:0.142857 20:0.0020900001 21:0.62820899 22:0.68330801 23:0.40831801 24:0.75434798 25:0 26:0 27:0 28:0 29:0.618653 30:0.87346399 31:0.99889398 32:0.90658098 33:0 34:0 35:0 36:0 37:0.78793299 38:0.840729 39:0.52476603 40:0.83306599 41:0.5 42:0.238095 43:0 44:0.087278999 45:0.0091739995 46:0.0084030004 #docid = GX029-99-5289443 inc = 0.0240809488052136 prob = 0.136276
0.081782955616524045 1:0.0030080001 2:0 3:1 4:0 5:0.0050130002 6:0 7:0 8:0 9:0 10:0 11:0.0030789999 12:0 13:1 14:0 15:0.0050479998 16:0.001228 17:0 18:0.33333299 19:0 20:0.001142 21:0.81150597 22:0.91267997 23:0.487436 24:0.89352202 25:0 26:0 27:0 28:0 29:1 30:1 31:1 32:1 33:0 34:0 35:0 36:0 37:0.89243102 38:0.98413199 39:0.57434303 40:0.952245 41:0 42:0 43:0 44:0 45:0 46:0 #docid = GX057-41-12707296 inc = 1 prob = 0.181243
-0.28601951566289108 1:0.030075001 2:0.18181799 3:0.5 4:1 5:0.033082999 6:0 7:0 8:0 9:0 10:0 11:0.030317999 12:0.17112 13:0.452122 14:1 15:0.032793999 16:0.0087919999 17:0.0625 18:0.58333302 19:0.71428603 20:0.0089210002 21:0.69714803 22:0.62030798 23:0.59875798 24:0.51391602 25:0.94385201 26:0.417411 27:0.22409099 28:0.410566 29:0.33005199 30:0.29476699 31:0.27116501 32:0.304921 33:0.960697 34:1 35:1 36:1 37:0.68912101 38:0.63512403 39:0.614838 40:0.540456 41:1 42:1 43:0 44:0.109689 45:0.66055 46:1 #docid = GX102-60-12115532 inc = 1 prob = 0.0907337
0.16404926541529141 1:1 2:0 3:0 4:0 5:1 6:0 7:0 8:0 9:0 10:0 11:1 12:0 13:0 14:0 15:1 16:1 17:0.21875 18:0 19:0.57142901 20:1 21:0.87791198 22:0.76469499 23:1 24:0.68633503 25:0 26:0 27:0 28:0 29:0 30:0 31:0 32:0 33:0 34:0 35:0 36:0 37:0.86701602 38:0.76899701 39:1 40:0.70621502 41:0.25 42:0.380952 43:0 44:0.0081449999 45:0.0091739995 46:0 #docid = GX240-46-5003371 inc = 1 prob = 0.35965
-0.13133439817072101 1:0.41547701 2:1 3:0 4:0.5 5:0.41758201 6:0 7:0 8:0 9:0 10:0 11:0.90411502 12:1 13:0 14:0.83471203 15:0.917234 16:0.290279 17:0.86666697 18:0 19:0.33333299 20:0.29050499 21:0.748707 22:0.73009902 23:0.80907202 24:0.82262701 25:0.55865097 26:0.55094898 27:0.71261197 28:0.44539699 29:0 30:0 31:0 32:0 33:1 34:0.92231399 35:0.99747503 36:0.69859099 37:0.75175297 38:0.73455399 39:0.80831701 40:0.82354099 41:0.60000002 42:0.380952 43:0 44:0.00042699999 45:0.0036500001 46:0 #docid = GX234-95-6136788 inc = 0.162587222297528 prob = 0.295718
0.13133439817072101 1:0.034577001 2:0 3:0 4:0 5:0.033516001 6:0 7:0 8:0 9:0 10:0 11:0.116289 12:0 13:0 14:0 15:0.116358 16:0.012434 17:0 18:0 19:0.111111 20:0.012268 21:0.73335201 22:0.74741399 23:0.71059299 24:0.76968402 25:0 26:0 27:0 28:0 29:0 30:0 31:0 32:0 33:0 34:0 35:0 36:0 37:0.72740901 38:0.747926 39:0.70636302 40:0.76657301 41:0.2 42:0.031746 43:0 44:0 45:0 46:0 #docid = GX238-01-11108130 inc = 1 prob = 0.150047
2.6228061822194633 1:0.443461 2:0 3:0.083333001 4:0 5:0.44395301 6:0 7:0 8:0 9:0 10:0 11:0.351906 12:0 13:0.12645701 14:0 15:0.35290399 16:0.62418699 17:0.111111 18:0.217391 19:0.125 20:0.62449503 21:0.57947201 22:0.46320501 23:0.55769402 24:0.55596203 25:0 26:0 27:0 28:0 29:0.207736 30:0.224393 31:0.28797901 32:0.139502 33:0 34:0 35:0 36:0 37:0.57921702 38:0.46306601 39:0.55874401 40:0.55990899 41:0.5 42:0.097700998 43:0 44:0.000279 45:0.00055300002 46:0 #docid = GX060-06-4860134 inc = 0.0926411432936547 prob = 0.12112
-3.1163322643839848 1:0.020648999 2:0.46153799 3:0 4:1 5:0.028515 6:0 7:0 8:0 9:0 10:0 11:0.027965 12:0.32513201 13:0 14:1 15:0.034387 16:0.0045739999 17:0.125 18:0.108696 19:0.91666698 20:0.005316 21:0.98085499 22:0.81558198 23:0.76486897 24:0.78776997 25:1 26:1 27:0.94481498 28:0.95428401 29:0 30:0 31:0 32:0 33:1 34:1 35:1 36:1 37:0.97881299 38:0.82872403 39:0.817415 40:0.805466 41:0.66666698 42:0.70689702 43:0 44:0.018355001 45:0.0016589999 46:0.075471997 #docid = GX148-46-7978201 inc = 1 prob = 0.161103
0.49352608216452154 1:0.650442 2:0 3:0 4:0 5:0.650442 6:0 7:0 8:0 9:0 10:0 11:0.68213803 12:0 13:0 14:0 15:0.68265301 16:0.61109298 17:0 18:0 19:0.208333 20:0.611031 21:0.70967102 22:0.56562001 23:0.70431697 24:0.63397902 25:0 26:0 27:0 28:0 29:0 30:0 31:0 32:0 33:0 34:0 35:0 36:0 37:0.707304 38:0.565391 39:0.70498103 40:0.637775 41:0.33333299 42:0.18965501 43:0 44:0 45:0 46:0 #docid = GX256-02-4514826 inc = 1 prob = 0.193933
0.037714635413775288 1:0.030851999 2:0.5 3:1 4:0 5:0.031357002 6:0 7:0 8:0 9:0 10:0 11:0.46193099 12:0.333635 13:1 14:0 15:0.47059599 16:0.020612 17:0.66666698 18:1 19:0 20:0.020618999 21:0 22:0.65572298 23:0.78445202 24:0.63711703 25:0.28915799 26:0 27:0 28:0 29:1 30:0 31:0 32:0 33:0 34:0 35:0 36:0 37:0.001268 38:0.659024 39:0.78632998 40:0.64143097 41:0 42:0 43:0 44:0 45:0 46:0 #docid = GX008-99-0668995 inc = 0.00117786153043613 prob = 0.0897452
-0.037714635413775288 1:0 2:0.5 3:0 4:0 5:0 6:0 7:0 8:0 9:0 10:0 11:0.51902097 12:0.5 13:0 14:0 15:0.52914798 16:0 17:0.111111 18:0.63636398 19:1 20:0 21:1 22:0.77222699 23:0.86765301 24:0.48360899 25:0.82105899 26:0.91935199 27:0.82821798 28:0.919438 29:0 30:0 31:0 32:0 33:0 34:0 35:0 36:0 37:1 38:0.71613997 39:0.857337 40:0.45903701 41:1 42:1 43:0 44:1 45:1 46:0.208333 #docid = GX036-83-7579447 inc = 1 prob = 0.146726
0.32189511914361901 1:1 2:0 3:0 4:0 5:1 6:0 7:0 8:0 9:0 10:0 11:0 12:0 13:0 14:0 15:0 16:0.713458 17:0.222222 18:0 19:0.555556 20:0.713489 21:0.0085659996 22:0.707883 23:0.83920199 24:0.68990201 25:0 26:0 27:0 28:0 29:0 30:0 31:0 32:0 33:0 34:0 35:0 36:0 37:0 38:0.70398301 39:0.83409202 40:0.68633199 41:0.66666698 42:0.61627901 43:0 44:0.028215 45:0 46:0 #docid = GX261-94-14886511 inc = 1 prob = 0.133443
-0.32189511914361901 1:0.060235001 2:1 3:0 4:0 5:0.060755 6:0 7:0 8:0 9:0 10:0 11:0.48913801 12:1 13:0 14:0 15:0.50318599 16:0.035870999 17:1 18:0 19:0.444444 20:0.035794001 21:0.58826399 22:1 23:1 24:1 25:0.599244 26:0.75300002 27:1 28:0.79900497 29:0 30:0 31:0 32:0 33:0 34:0 35:0 36:0 37:0.64611501 38:1 39:1 40:1 41:0.66666698 42:0.244186 43:0 44:0.211842 45:0.026316 46:0 #docid = GX265-29-16090747 inc = 1 prob = 0.223094
-0.18479271626156901 1:0.25 2:0 3:0 4:0 5:0.25 6:0 7:0 8:0 9:0 10:0 11:0.25 12:0 13:0 14:0 15:0.25 16:0.018557001 17:0.142857 18:0 19:1 20:0.018790999 21:1 22:0.98622 23:1 24:0.95605701 25:0 26:0 27:0 28:0 29:0 30:0 31:0 32:0 33:0 34:0 35:0 36:0 37:1 38:0.992033 39:1 40:0.96244502 41:0.5 42:0.82258099 43:0 44:0.001177 45:0.039999999 46:0 #docid = GX229-06-5566510 inc = 1 prob = 0.495359
0.18479271626156901 1:0.125 2:0 3:0 4:0 5:0.125 6:0 7:0 8:0 9:0 10:0 11:0.125 12:0 13:0 14:0 15:0.125 16:1 17:0.42857099 18:0 19:0.41666701 20:1 21:0.046440002 22:0.32694799 23:0.278321 24:0.213304 25:0 26:0 27:0 28:0 29:0 30:0 31:0 32:0 33:0 34:0 35:0 36:0 37:0.047904 38:0.329891 39:0.27867499 40:0.21551199 41:0.375 42:0.41935501 43:0 44:0.0038139999 45:0.039999999 46:0 #docid = GX262-62-2824418 inc = 0.565552547476689 prob = 0.560499
-2.5002108544351387 1:0 2:1 3:1 4:1 5:0 6:0 7:0 8:0 9:0 10:0 11:0.086818002 12:1 13:1 14:1 15:0.093595996 16:0 17:1 18:1 19:1 20:0 21:0.94094402 22:0.81525397 23:0.58530098 24:0.84278899 25:1 26:1 27:1 28:1 29:0.71795702 30:0 31:1 32:1 33:1 34:1 35:1 36:1 37:0.97977 38:0.94858801 39:0.78971499 40:0.95691001 41:0.5 42:1 43:0 44:0.176383 45:0.227273 46:0.015385 #docid = GX011-52-4161768 inc = 1 prob = 0.216152
2.5002108544351387 1:0.0064710001 2:0.166667 3:0.66666698 4:0.66666698 5:0.003824 6:0 7:0 8:0 9:0 10:0 11:0.094942003 12:0.138437 13:0.891433 14:0.77202702 15:0.099546 16:0.001233 17:0.071428999 18:0.42857099 19:0.60000002 20:0.00073500001 21:1 22:1 23:0.83086002 24:1 25:0.70653301 26:0 27:0 28:0 29:1 30:1 31:0 32:0 33:0.95088398 34:0 35:0 36:0 37:1 38:1 39:0.89269698 40:1 41:0 42:0.5625 43:0 44:0.116506 45:1 46:0.053846002 #docid = GX030-20-9831597 inc = 0.0206663877632064 prob = 0.2752
0.10407927017467866 1:0.045272 2:0 3:1 4:0 5:0.046705 6:0 7:0 8:0 9:0 10:0 11:0.18264601 12:0 13:1 14:0 15:0.186782 16:0.034000002 17:0.25 18:0.86363602 19:0.050000001 20:0.034058001 21:0.88030303 22:0.93361402 23:0.83588099 24:0.91551101 25:0 26:0 27:0 28:0 29:0.61326402 30:1 31:1 32:1 33:0 34:0 35:0 36:0 37:0.896613 38:0.93692303 39:0.84037602 40:0.92275602 41:0.166667 42:0.161616 43:0 44:0.035131998 45:0.023809999 46:0.010204 #docid = GX002-79-9400387 inc = 1 prob = 0.42606
-1.31526032449404 1:0.061604999 2:0.80000001 3:0.60000002 4:0 5:0.063610002 6:0 7:0 8:0 9:0 10:0 11:0.215553 12:1 13:0.64285398 14:0 15:0.22061101 16:0.018920001 17:0.375 18:0.227273 19:0.050000001 20:0.018711001 21:0.97064602 22:0.94116902 23:0.841986 24:0.92219102 25:1 26:0.876396 27:1 28:0.80946499 29:1 30:0.806683 31:0.81281298 32:0.70871401 33:0 34:0 35:0 36:0 37:0.97395098 38:0.94000298 39:0.84248102 40:0.92606801 41:0 42:0.34343401 43:0 44:1 45:1 46:0.45918399 #docid = GX003-53-5782479 inc = 1 prob = 0.510119
-0.52560360579414489 1:0.96934098 2:0.40000001 3:0.40000001 4:0.5 5:0.97077399 6:0 7:0 8:0 9:0 10:0 11:1 12:0.423208 13:0.367796 14:0.5 15:1 16:0.92729098 17:0.4375 18:0.36363599 19:0.1 20:0.92758501 21:0.94683701 22:1 23:1 24:0.96615398 25:0.41955799 26:0.41606101 27:0.490439 28:0.34129 29:0.43041301 30:0.41565299 31:0.441286 32:0.35913 33:0.89859498 34:1 35:0.637245 36:1 37:0.955773 38:1 39:1 40:0.97077101 41:0.166667 42:0.15151501 43:0 44:0.108566 45:0.047619 46:0 #docid = GX005-24-3205753 inc = 1 prob = 0.286982
0.23078211659628778 1:0.120057 2:0 3:0 4:0 5:0.120057 6:0 7:0 8:0 9:0 10:0 11:0.189998 12:0 13:0 14:0 15:0.19216999 16:0.110267 17:0.0625 18:0.227273 19:0.15000001 20:0.110033 21:0.525832 22:0.85822999 23:0.84183598 24:0.88732898 25:0 26:0 27:0 28:0 29:0 30:0 31:0 32:0 33:0 34:0 35:0 36:0 37:0.53289598 38:0.85777903 39:0.84134698 40:0.891868 41:0.5 42:0.282828 43:0 44:0.000619 45:0.023809999 46:0.091836996 #docid = GX023-34-14617302 inc = 1 prob = 0.390038
-0.08712929511637979 1:0.000287 2:0.2 3:0.2 4:0 5:0.00085999997 6:0 7:0 8:0 9:0 10:0 11:0.14985999 12:0.26465899 13:0.2395 14:0 15:0.153203 16:0.0018880001 17:0.25 18:0.27272701 19:0.25 20:0.001737 21:0.092542 22:0.085382 23:0.139129 24:0.0051759998 25:0.38184899 26:0.19443899 27:0.250269 28:0.108377 29:0.335713 30:0.28400299 31:0.26494399 32:0.194985 33:0 34:0 35:0 36:0 37:0.107895 38:0.089432999 39:0.149326 40:0.020852 41:0.33333299 42:0.36363599 43:0 44:9.2000002e-005 45:0.023809999 46:0 #docid = GX028-95-7646185 inc = 0.0208313038733383 prob = 0.0660468
0.69571769391495764 1:0.80802298 2:0 3:0 4:0 5:0.80802298 6:0 7:0 8:0 9:0 10:0 11:0.58458602 12:0 13:0 14:0 15:0.58383697 16:0.74980497 17:0.0625 18:0 19:0 20:0.74967402 21:0.59528702 22:0.75308597 23:0.72873902 24:0.77226502 25:0 26:0 27:0 28:0 29:0 30:0 31:0 32:0 33:0 34:0 35:0 36:0 37:0.602494 38:0.75306499 39:0.728782 40:0.77768397 41:0 42:0 43:0 44:0.001312 45:0.023809999 46:0 #docid = GX230-52-3932503 inc = 0.0678717421950204 prob = 0.168719
0.39706370640605027 1:0.0042980001 2:0 3:0 4:0 5:0.0042980001 6:0 7:0 8:0 9:0 10:0 11:0.155736 12:0 13:0 14:0 15:0.158373 16:0.0048389998 17:0.25 18:0 19:0 20:0.0044499999 21:0.89990598 22:0.855362 23:0.66856599 24:0.92362499 25:0 26:0 27:0 28:0 29:0 30:0 31:0 32:0 33:0 34:0 35:0 36:0 37:0.89547998 38:0.84694302 39:0.66637301 40:0.92080897 41:0 42:0 43:0 44:0.00025300001 45:0.023809999 46:0 #docid = GX237-17-8524852 inc = 1 prob = 0.159168
0.5003504383125903 1:1 2:0 3:0 4:0 5:1 6:0 7:0 8:0 9:0 10:0 11:0.94624102 12:0 13:0 14:0 15:0.94470501 16:1 17:0.0625 18:0 19:0.050000001 20:1 21:0.716685 22:0.92284203 23:0.92071497 24:0.90618598 25:0 26:0 27:0 28:0 29:0 30:0 31:0 32:0 33:0 34:0 35:0 36:0 37:0.725824 38:0.92297202 39:0.92077303 40:0.911093 41:0 42:0.040403999 43:0 44:0.000619 45:0.023809999 46:0 #docid = GX243-27-1253221 inc = 1 prob = 0.704017
0.027327800615793763 1:0.01626 2:1 3:1 4:0 5:0.03252 6:0 7:0 8:0 9:0 10:0 11:0.011578 12:0.545995 13:0.958278 14:0 15:0.018449999 16:0.040826 17:0.083333001 18:0.18181799 19:0.71428603 20:0.040876001 21:0.64809197 22:0.82569402 23:0.71090502 24:0.83572102 25:0.854002 26:1 27:0 28:1 29:0.80147702 30:0.82446402 31:0.017433999 32:1 33:0 34:0 35:0 36:0 37:0.74502498 38:0.95464498 39:0.782305 40:0.93094403 41:0.83333302 42:0.4375 43:0 44:0.00088399998 45:0.014706 46:0.0028250001 #docid = GX003-15-8429223 inc = 0.102182208243261 prob = 0.510275
-0.34782340296457237 1:0.31300801 2:0 3:0 4:0 5:0.31300801 6:0 7:0 8:0 9:0 10:0 11:0.041255999 12:0 13:0 14:0 15:0.040773999 16:0.058490999 17:0.083333001 18:1 19:0.142857 20:0.05892 21:0.033092 22:0 23:0.138641 24:0 25:0 26:0 27:0 28:0 29:0 30:0 31:0 32:0 33:0 34:0 35:0 36:0 37:0.033489 38:0.0049930001 39:0.137903 40:0.031782001 41:0.166667 42:0.27083299 43:0 44:0.043729998 45:0.117647 46:0 #docid = GX006-16-15305255 inc = 1 prob = 0.0557465
-0.14566583144094158 1:0.01626 2:0 3:1 4:0 5:0.024390001 6:0 7:0 8:0 9:0 10:0 11:0.011578 12:0 13:0.958278 14:0 15:0.014954 16:0.037292998 17:0.125 18:0.18181799 19:0.85714298 20:0.037501998 21:0.674721 22:0.84474999 23:0.71482199 24:0.85143799 25:0 26:0 27:0 28:0 29:0.80147702 30:0.82446402 31:0.017433999 32:1 33:0 34:0 35:0 36:0 37:0.72340101 38:0.920196 39:0.755391 40:0.91231298 41:1 42:0.58333302 43:0 44:0.0099370005 45:0.0073529999 46:0 #docid = GX022-24-12656883 inc = 0.102182208243261 prob = 0.411672
0.69117610817353248 1:0.90650398 2:1 3:0 4:0 5:0.91463399 6:0 7:0 8:0 9:0 10:0 11:1 12:1 13:0 14:0 15:1 16:1 17:0.375 18:0.54545498 19:0.285714 20:1 21:0.90261501 22:0.88058698 23:0.88031799 24:0.77834702 25:0.53904402 26:0.67598897 27:0.99891299 28:0.48131701 29:0 30:0 31:0 32:0 33:0 34:0 35:0 36:0 37:0.88414401 38:0.88134301 39:0.88165599 40:0.800053 41:0.33333299 42:0.70833302 43:0 44:0.0048830002 45:0.014706 46:0.053672001 #docid = GX045-99-8971156 inc = 1 prob = 0.537135
-0.14421433862191338 1:0.028455 2:1 3:0 4:0 5:0.036584999 6:0 7:0 8:0 9:0 10:0 11:0.037790999 12:1 13:0 14:0 15:0.047407001 16:0.030384 17:0.41666701 18:0.54545498 19:0.285714 20:0.031146999 21:1 22:0.87361801 23:0.78370702 24:0.76813102 25:0.50138599 26:0.68395603 27:0.99855202 28:0.46945301 29:0 30:0 31:0 32:0 33:0 34:0 35:0 36:0 37:1 38:0.88429701 39:0.80141598 40:0.79815698 41:0.33333299 42:0.58333302 43:0 44:0.109977 45:0.279412 46:0.053672001 #docid = GX048-76-11311113 inc = 0.0601074630924765 prob = 0.22443
-0.26096426068175449 1:0.26016301 2:0 3:0.5 4:0 5:0.26422799 6:0 7:0 8:0 9:0 10:0 11:0.21761499 12:0 13:1 14:0 15:0.22041801 16:0.29143399 17:0.125 18:0.27272701 19:0.71428603 20:0.291464 21:0.94282001 22:1 23:0.93979299 24:0.87235099 25:0 26:0 27:0 28:0 29:0.71876198 30:0.798756 31:0.99909902 32:0.58127397 33:0 34:0 35:0 36:0 37:0.92741197 38:1 39:0.94186801 40:0.89291602 41:0.83333302 42:0.4375 43:0 44:0.0036480001 45:0.0073529999 46:0.008475 #docid = GX050-81-15278603 inc = 1 prob = 0.758318
0.30230660956723321 1:0.01626 2:0 3:1 4:0 5:0.024390001 6:0 7:0 8:0 9:0 10:0 11:0.011578 12:0 13:0.958278 14:0 15:0.014954 16:0.037370998 17:0.125 18:0.18181799 19:0.85714298 20:0.037579998 21:0.67410702 22:0.84425801 23:0.71473402 24:0.85107201 25:0 26:0 27:0 28:0 29:0.80147702 30:0.82446402 31:0.017433999 32:1 33:0 34:0 35:0 36:0 37:0.72284198 38:0.91972703 39:0.75530398 40:0.911964 41:1 42:0.60416698 43:0 44:0.0099029997 45:0.0073529999 46:0 #docid = GX076-06-4065935 inc = 0.102182208243261 prob = 0.380539
-0.12214268464737765 1:0.12601601 2:1 3:1 4:0 5:0.142276 6:0 7:0 8:0 9:0 10:0 11:0.035893001 12:0.545995 13:0.958278 14:0 15:0.042493001 16:0.17775001 17:0.083333001 18:0.72727299 19:0.57142901 20:0.178095 21:0.44079 22:0.804748 23:0.792606 24:0.78799301 25:0.854002 26:1 27:0 28:1 29:0.404425 30:0.339562 31:0.014736 32:0.63133299 33:0 34:0 35:0 36:0 37:0.478376 38:0.83475602 39:0.81826299 40:0.82893097 41:0.83333302 42:0.72916698 43:0 44:0.0067150001 45:0.0073529999 46:0.59039497 #docid = GX084-44-14885669 inc = 1 prob = 0.249308
0.058169744809499546 1:0.118421 2:0 3:1 4:0 5:0.122271 6:0 7:0 8:0 9:0 10:0 11:0.27018499 12:0 13:1 14:0 15:0.28014299 16:0.091807999 17:0.041666999 18:0.137931 19:0 20:0.091697998 21:0.81899101 22:0.696181 23:0.77901602 24:0.71774501 25:0 26:0 27:0 28:0 29:1 30:1 31:1 32:1 33:0 34:0 35:0 36:0 37:0.82318002 38:0.71913701 39:0.78106099 40:0.73195201 41:0.25 42:0.035714 43:0 44:0.052432999 45:0.013158 46:0.052632 #docid = GX024-05-2208217 inc = 1 prob = 0.206042
-0.058169744809499546 1:0.04386 2:1 3:0 4:0 5:0.048035 6:0 7:0 8:0 9:0 10:0 11:0.099285997 12:1 13:0 14:0 15:0.109678 16:0.017638 17:0.125 18:0 19:0.125 20:0.017480001 21:1 22:0.795349 23:0.755014 24:0.86046201 25:0.82105899 26:0.95713198 27:0.99978 28:0.95645201 29:0 30:0 31:0 32:0 33:0 34:0 35:0 36:0 37:1 38:0.81674403 39:0.76150101 40:0.87388998 41:0 42:0.196429 43:0 44:0.3274 45:0.013158 46:0.021052999 #docid = GX245-02-13180618 inc = 1 prob = 0.13688
0.5075528654607524 1:0.19459499 2:0 3:0 4:0 5:0.193626 6:0 7:0 8:0 9:0 10:0 11:0.153938 12:0 13:0 14:0 15:0.14838 16:0.18113001 17:0.111111 18:0.111111 19:0.125 20:0.18122099 21:0.251885 22:0.45445099 23:0.54637498 24:0.50577003 25:0 26:0 27:0 28:0 29:0 30:0 31:0 32:0 33:0 34:0 35:0 36:0 37:0.25067401 38:0.45472601 39:0.54793102 40:0.50426501 41:0 42:0.076922998 43:0 44:0.25702399 45:0.073683999 46:0 #docid = GX001-39-4370345 inc = 1 prob = 0.0897452
-0.5075528654607524 1:0.032432001 2:1 3:0.5 4:0 5:0.034274999 6:0 7:0 8:0 9:0 10:0 11:0.036189999 12:1 13:0.5 14:0 15:0.040892001 16:0.016231 17:0.555556 18:0.222222 19:0 20:0.016563 21:0.96635401 22:1 23:0.96675903 24:1 25:0.84256601 26:1 27:1 28:1 29:0.60440803 30:0.82781601 31:0.826998 32:0.85377699 33:0 34:0 35:0 36:0 37:0.97551799 38:1 39:0.98126698 40:1 41:0 42:0.153846 43:0 44:0.76100802 45:0.021052999 46:0.028571 #docid = GX226-92-12220539 inc = 0.122387563047553 prob = 0.261798
-0.80560697660232883 1:0.0085840002 2:0 3:0 4:0 5:0.0042739999 6:0 7:0 8:0 9:0 10:0 11:0.0073509999 12:0 13:0 14:0 15:0.0035079999 16:0.040001001 17:0.5 18:0 19:0 20:0.039921999 21:0 22:0 23:0.024436001 24:0 25:0 26:0 27:0 28:0 29:0 30:0 31:0 32:0 33:0 34:0 35:0 36:0 37:0 38:0 39:0 40:0 41:0 42:0 43:0 44:0.0068279998 45:0.33333299 46:0.083333001 #docid = GX002-47-10155626 inc = 1 prob = 0.0309289
-0.10139198872494415 1:0.0042920001 2:0 3:0 4:1 5:0.0042739999 6:0 7:0 8:0 9:0 10:0 11:0.0059739999 12:0 13:0 14:1 15:0.0063729999 16:0.0018279999 17:0 18:0.27272701 19:1 20:0.0022390001 21:0.53570199 22:0.44843701 23:0.227293 24:0.41479999 25:0 26:0 27:0 28:0 29:0 30:0 31:0 32:0 33:0.79299301 34:0 35:0 36:0 37:0.94392002 38:1 39:0.601219 40:1 41:0.75 42:1 43:0 44:0 45:0 46:0 #docid = GX019-46-0944869 inc = 0.00301697423894129 prob = 0.0953157
-1.1255436523595908 1:0.025751 2:0 3:0 4:0 5:0.021368001 6:0 7:0 8:0 9:0 10:0 11:0.026649 12:0 13:0 14:0 15:0.023272 16:0.044778001 17:0.75 18:0.27272701 19:0.77777803 20:0.045221001 21:0.68202198 22:0.85037798 23:0.70977098 24:0.91453499 25:0 26:0 27:0 28:0 29:0 30:0 31:0 32:0 33:0 34:0 35:0 36:0 37:0.58204001 38:0.73409498 39:0.70055902 40:0.70036399 41:1 42:0.95348799 43:0 44:0.0019739999 45:0.33333299 46:1 #docid = GX043-97-11104362 inc = 0.00360671188363965 prob = 0.0698436
2.0879965106044853 1:1 2:0 3:1 4:1 5:1 6:0 7:0 8:0 9:0 10:0 11:1 12:0 13:0.90106797 14:1 15:1 16:1 17:0 18:0.18181799 19:0.33333299 20:1 21:1 22:1 23:1 24:1 25:0 26:0 27:0 28:0 29:1 30:1 31:0 32:1 33:1 34:1 35:1 36:1 37:0.85439801 38:0.86878401 39:1 40:0.77009201 41:0.25 42:0.34883699 43:0 44:0 45:0 46:0 #docid = GX067-96-15698597 inc = 1 prob = 0.821693
-0.055453892917621594 1:0 2:0 3:0 4:1 5:0 6:0 7:0 8:0 9:0 10:0 11:0 12:0 13:0 14:1 15:0 16:0 17:0.25 18:0 19:0.33333299 20:0 21:0.192424 22:0.43716401 23:0 24:0.43985799 25:0 26:0 27:0 28:0 29:0 30:0 31:0 32:0 33:1 34:1 35:1 36:1 37:0.250752 38:0.40146101 39:0.050930999 40:0.30578899 41:0.5 42:0.395349 43:0 44:0.001082 45:0.33333299 46:0 #docid = GX256-05-6552697 inc = 0.00102035172439538 prob = 0.0894614
0.43960599207126583 1:0.47422701 2:0 3:0.33333299 4:1 5:0.485149 6:0 7:0 8:0 9:0 10:0 11:0.448201 12:0 13:0.31891599 14:1 15:0.456294 16:0.33918801 17:0 18:0.125 19:0.2 20:0.33551899 21:0.99845302 22:1 23:0.87938899 24:1 25:0 26:0 27:0 28:0 29:0.65810901 30:0 31:0 32:0 33:1 34:1 35:1 36:1 37:1 38:1 39:0.87773103 40:1 41:0 42:0.23076899 43:0 44:0 45:0 46:0.105263 #docid = GX012-82-0455049 inc = 0.0205845606595284 prob = 0.393951
-0.62560504993669852 1:0 2:0 3:0 4:0 5:0 6:0 7:0 8:0 9:0 10:0 11:0.0045440001 12:0 13:0 14:0 15:0 16:0.024149001 17:0.142857 18:0.5 19:1 20:0.030601 21:0.121859 22:0 23:0.121639 24:0 25:0 26:0 27:0 28:0 29:0 30:0 31:0 32:0 33:0 34:0 35:0 36:0 37:0.042272002 38:0 39:0.050887 40:0 41:1 42:0.338462 43:0 44:0.011557 45:0.5 46:0 #docid = GX046-41-3028059 inc = 1 prob = 0.0142539
1.5072659786690679 1:1 2:1 3:0.66666698 4:0 5:1 6:0 7:0 8:0 9:0 10:0 11:1 12:1 13:0.72247398 14:0 15:1 16:1 17:0.285714 18:0.5 19:0.40000001 20:1 21:1 22:0.92558002 23:1 24:0.93282002 25:1 26:1 27:1 28:1 29:1 30:0.67096001 31:0.80046302 32:0.607333 33:0 34:0 35:0 36:0 37:0.99966103 38:0.92817599 39:1 40:0.93409097 41:0 42:0.69230801 43:0 44:0.400271 45:0.5 46:0.42105299 #docid = GX054-13-1500615 inc = 0.00194839030882933 prob = 0.0897886
0.57050954615370131 1:1 2:1 3:0.66666698 4:0 5:1 6:0 7:0 8:0 9:0 10:0 11:1 12:1 13:0.72247398 14:0 15:1 16:1 17:0.285714 18:0.5 19:0.40000001 20:1 21:1 22:0.92558002 23:1 24:0.93282002 25:1 26:1 27:1 28:1 29:1 30:0.67096001 31:0.80046302 32:0.607333 33:0 34:0 35:0 36:0 37:0.99966103 38:0.92817599 39:1 40:0.93409097 41:0 42:0.69230801 43:0 44:0.398581 45:0.5 46:0.52631599 #docid = GX076-51-12448365 inc = 0.00964494003166737 prob = 0.337544
-0.21224550626132332 1:0.123711 2:0.5 3:1 4:0.5 5:0.16831701 6:0 7:0 8:0 9:0 10:0 11:0.12672099 12:0.40739101 13:1 14:0.34581801 15:0.163408 16:0.107574 17:0.285714 18:1 19:1 20:0.119126 21:0.90760601 22:0.935377 23:0.608567 24:0.97329903 25:0.40739101 26:0 27:0 28:0 29:0.96186602 30:1 31:1 32:1 33:0.29455599 34:0 35:0 36:0 37:0.94343799 38:0.97752398 39:0.65424699 40:0.99528301 41:1 42:1 43:0 44:0.41274601 45:1 46:0.210526 #docid = GX165-12-1278431 inc = 0.00346616882639126 prob = 0.0987093
-1.6795309606960132 1:0 2:0 3:0.33333299 4:0.5 5:0.019802 6:0 7:0 8:0 9:0 10:0 11:0 12:0 13:0.31891599 14:0.40808499 15:0.012338 16:0 17:0 18:0 19:0.80000001 20:0 21:0 22:0.113919 23:0 24:0.089276001 25:0 26:0 27:0 28:0 29:0.786861 30:0.068163 31:0.00045200001 32:0.042693 33:0.360971 34:0.100131 35:0.122574 36:0.068627 37:0 38:0.099128999 39:0 40:0.026152 41:1 42:0.169231 43:0 44:0 45:0 46:0 #docid = GX245-76-13660955 inc = 1 prob = 0.0811413
0.20775113458545036 1:0.019045001 2:0 3:0 4:0 5:0.018772 6:0 7:0 8:0 9:0 10:0 11:0.51501799 12:0 13:0 14:0 15:0.54522997 16:0.019158 17:0 18:0.35294101 19:0.2 20:0.019033 21:0.38326901 22:0.45708001 23:0.403465 24:0.58778697 25:0 26:0 27:0 28:0 29:0 30:0 31:0 32:0 33:0 34:0 35:0 36:0 37:0.391287 38:0.38576999 39:0.375467 40:0.58524603 41:0.2 42:0.131148 43:0 44:0.039829001 45:0.18181799 46:0.254237 #docid = GX000-13-6867881 inc = 1 prob = 0.0897452
27.175365227610897 1:0.002414 2:0 3:0.5 4:0 5:0.002414 6:0 7:0 8:0 9:0 10:0 11:0.52469099 12:0 13:0.54547298 14:0 15:0.55568999 16:0.017278999 17:0.079999998 18:0.58823502 19:0.5 20:0.017346 21:0.58681202 22:0.110214 23:0.14681099 24:0.191394 25:0 26:0 27:0 28:0 29:0.43194699 30:0.49676299 31:0.67398101 32:0.37829 33:0 34:0 35:0 36:0 37:0.60149401 38:0.101372 39:0.122307 40:0.27663001 41:0.60000002 42:0.52459002 43:0 44:1 45:0.27272701 46:1 #docid = GX004-13-14511663 inc = 0.00480917080614176 prob = 0.0900554
-27.383116362196347 1:0.021190999 2:1 3:0.5 4:1 5:0.024403 6:0 7:0 8:0 9:0 10:0 11:0.52970397 12:1 13:0.45741799 14:1 15:0.56496203 16:0.012132 17:1 18:0.117647 19:1 20:0.012625 21:0.80179101 22:1 23:0.75053698 24:1 25:1 26:1 27:1 28:1 29:0.83637202 30:0.556768 31:0.33195901 32:0.421262 33:1 34:1 35:1 36:1 37:0.91252702 38:1 39:0.85844499 40:0.96928298 41:1 42:0.83606601 43:0 44:0.32051799 45:0.54545498 46:0.050847001 #docid = GX246-96-15982635 inc = 1 prob = 0.206849
0.41804664711946948 1:0.115108 2:0 3:0 4:0 5:0.107914 6:0 7:0 8:0 9:0 10:0 11:0.061347 12:0 13:0 14:0 15:0.056444999 16:0.099710003 17:0.444444 18:0.80000001 19:0.25 20:0.100733 21:1 22:1 23:0.91916102 24:1 25:0 26:0 27:0 28:0 29:0 30:0 31:0 32:0 33:0 34:0 35:0 36:0 37:1 38:1 39:0.910065 40:1 41:0.5 42:0.70588201 43:0 44:0.0053059999 45:0.001667 46:1 #docid = GX002-09-10237544 inc = 1 prob = 0.385783
-0.41804664711946948 1:1 2:1 3:0 4:0 5:1 6:0 7:0 8:0 9:0 10:0 11:1 12:1 13:0 14:0 15:1 16:1 17:0.33333299 18:0.30000001 19:1 20:1 21:0.70795101 22:0.179675 23:0.599491 24:0.513565 25:1 26:1 27:1 28:1 29:0 30:0 31:0 32:0 33:0 34:0 35:0 36:0 37:0.674079 38:0.176103 39:0.56651998 40:0.51335502 41:0.5 42:1 43:0 44:0.022460001 45:0.000833 46:0.185185 #docid = GX255-50-7550514 inc = 1 prob = 0.211884
0.8422979632133174 1:0.32258099 2:0 3:0 4:0 5:0.32258099 6:0 7:0 8:0 9:0 10:0 11:0.355281 12:0 13:0 14:0 15:0.35545701 16:1 17:1 18:0.54545498 19:0.2 20:1 21:0.241478 22:0.52298999 23:0.69878602 24:0.54564399 25:0 26:0 27:0 28:0 29:0 30:0 31:0 32:0 33:0 34:0 35:0 36:0 37:0.245894 38:0.52595598 39:0.67934501 40:0.54979497 41:0.5 42:0.28260899 43:0 44:0.32349801 45:0.021857999 46:0.021276999 #docid = GX003-50-5275306 inc = 0.0277379814664566 prob = 0.117337
0.21493041562100146 1:0.80645198 2:0.5 3:0 4:0 5:0.85483903 6:0 7:0 8:0 9:0 10:0 11:0.82410401 12:0.5 13:0 14:0 15:0.87384999 16:0.24863499 17:0.17647099 18:0.45454499 19:0.066666998 20:0.248439 21:0.81674302 22:0.76171201 23:0.95950502 24:0.76555097 25:1 26:0.95004803 27:0.816302 28:1 29:0 30:0 31:0 32:0 33:0 34:0 35:0 36:0 37:0.82423902 38:0.77204198 39:0.94223702 40:0.77682 41:0.166667 42:0.141304 43:0 44:0.0055010002 45:0.021857999 46:1 #docid = GX010-33-12429697 inc = 0.187211303699825 prob = 0.972654
-0.087658707512503042 1:0.016129 2:0 3:0 4:0 5:0.016129 6:0 7:0 8:0 9:0 10:0 11:0.028750001 12:0 13:0 14:0 15:0.028798999 16:0.17459001 17:0.058823999 18:0.36363599 19:0.133333 20:0.17432401 21:0.066937 22:0.116629 23:0.15289 24:0.090002 25:0 26:0 27:0 28:0 29:0 30:0 31:0 32:0 33:0 34:0 35:0 36:0 37:0.069541998 38:0.118822 39:0.150015 40:0.092496 41:0 42:0.141304 43:0 44:0.0037420001 45:0.0054640002 46:0.29787201 #docid = GX012-62-10983707 inc = 1 prob = 0.0708914
