SVM-light Version V6.02
0 # kernel type
3 # kernel parameter -d 
1 # kernel parameter -g 
1 # kernel parameter -s 
1 # kernel parameter -r 
empty# kernel parameter -u 
45 # highest feature index 
9029 # number of training documents 
2039 # number of support vectors plus 1 
0 # threshold b, each following line is a SV (starting with alpha*y)
-0.54939268411215636 1:1 2:1 3:0.83333302 4:0.87126398 5:0 6:0 7:0 8:0.94184202 9:1 10:1 11:1 12:1 13:1 14:1 15:1 16:1 17:1 18:0.719697 19:0.72935098 20:0 21:0 22:0 23:0.81156498 24:1 25:0.97272998 26:1 27:1 28:0.92237401 29:0.94665402 30:0.93888801 31:1 32:1 33:0.71127599 34:0.722202 35:0 36:0 37:0 38:0.798002 39:1 40:1 41:1 42:1 43:0.95913398 44:0.96391898 45:0.971425 #docid = 244338
1.1464581676011907 1:0.60000002 2:0.60000002 3:1 4:1 5:0 6:0 7:0 8:1 9:0.624834 10:0.76730102 11:0.81609899 12:0.93480498 13:0.64968503 14:0.68022197 15:0.68676198 16:0.42105299 17:0.68090397 18:1 19:1 20:0 21:0 22:0 23:1 24:0.401391 25:0.93896598 26:0.94944602 27:0.98476899 28:0.955266 29:1 30:0.99778599 31:0.44185999 32:0.687033 33:1 34:1 35:0 36:0 37:0 38:1 39:0.42545 40:0.975968 41:0.92878503 42:0.97852403 43:0.97955298 44:1 45:1 #docid = 143821
-1 1:0.2 2:0.2 3:0.277778 4:0.28183001 5:0 6:0 7:0 8:0.33002701 9:0.244258 10:0.30317101 11:0.30116501 12:0.614995 13:0.255036 14:0.188541 15:0.205136 16:0.36842099 17:0.63773501 18:0.79545301 19:0.80272001 20:0 21:0 22:0 23:0.85156298 24:0.36424899 25:0.897048 26:0.91405201 27:0.97361499 28:0.923365 29:0.95407802 30:0.965119 31:0.34883699 32:0.60047001 33:0.71182102 34:0.71893799 35:0 36:0 37:0 38:0.77374601 39:0.35450599 40:0.87109798 41:0.86583501 42:0.95812303 43:0.91744101 44:0.91819102 45:0.935256 #docid = 201684
6 1:0 2:0 3:0 4:0 5:0 6:0 7:0 8:0 9:0 10:0 11:0 12:0 13:0 14:0 15:0 16:0.26315799 17:0.592453 18:0.32894701 19:0.34012601 20:0 21:0 22:0 23:0.393538 24:0.25845 25:0.65187502 26:0.885764 27:0.96438497 28:0.97654998 29:0.97065502 30:0.98468602 31:0.232558 32:0.54611498 33:0.29538101 34:0.30618599 35:0 36:0 37:0 38:0.355037 39:0.230125 40:0.61353099 41:0.86028999 42:0.95625502 43:0.97301501 44:0.93978399 45:0.96093398 #docid = 48192
-4.5071345514105587 1:0 2:0 3:0 4:0 5:0 6:0 7:0 8:0 9:0 10:0 11:0 12:0 13:0 14:0 15:0 16:0.28947401 17:0.58038199 18:0.46452799 19:0.47699001 20:0 21:0 22:0 23:0.51271999 24:0.26972499 25:0.71529698 26:0.85153198 27:0.95281303 28:0.870399 29:0.87423301 30:0.902592 31:0.25581399 32:0.53498697 33:0.413533 34:0.42583999 35:0 36:0 37:0 38:0.45861101 39:0.239823 40:0.682603 41:0.81732601 42:0.94136298 43:0.86179 44:0.84030902 45:0.87798297 #docid = 248063
11.32941677678285 1:0 2:0 3:0 4:0 5:0 6:0 7:0 8:0 9:0 10:0 11:0 12:0 13:0 14:0 15:0 16:0.42105299 17:0.73164302 18:0.420169 19:0.43159401 20:0 21:0 22:0 23:0.39206201 24:0.32152301 25:0.55505198 26:0.83481598 27:0.94699198 28:1 29:0.98001701 30:1 31:0.37209299 32:0.67441797 33:0.38277301 34:0.39415699 35:0 36:0 37:0 38:0.35465899 39:0.28289601 40:0.52201599 41:0.812199 42:0.939533 43:1 44:0.95280802 45:0.979267 #docid = 256570
-2 1:0.60000002 2:0.60000002 3:1 4:1 5:0 6:0 7:0 8:1 9:0.624834 10:0.76730102 11:0.81609899 12:0.93480498 13:0.64968503 14:0.68022197 15:0.68676198 16:0.65789503 17:0.77981299 18:0.57025599 19:0.57649201 20:0 21:0 22:0 23:0.59215701 24:0.62654603 25:0.63662797 26:0.76178497 27:0.92011398 28:0.81564999 29:0.79995602 30:0.83141702 31:0.65116298 32:0.77969402 33:0.57079202 34:0.57829702 35:0 36:0 37:0 38:0.59585702 39:0.62625599 40:0.67393601 41:0.77910799 42:0.92744201 43:0.84526902 44:0.81405503 45:0.85561901 #docid = 256564
9.3382569227637191 1:0 2:0 3:0 4:0 5:0 6:0 7:0 8:0 9:0 10:0 11:0 12:0 13:0 14:0 15:0 16:0.131579 17:0.32571 18:0.74404699 19:0.75192499 20:0 21:0 22:0 23:0.82882702 24:0.129149 25:1 26:0.84071797 27:0.94906098 28:0.84581798 29:0.91962498 30:0.88769102 31:0.116279 32:0.300235 33:0.53606099 34:0.54675299 35:0 36:0 37:0 38:0.61383402 39:0.114963 40:0.85637301 41:0.77635998 42:0.92641503 43:0.82085401 44:0.846313 45:0.82799399 #docid = 119284
-3 1:0.60000002 2:0.60000002 3:0.71428502 4:0.73239398 5:0 6:0 7:0 8:0.851529 9:0.69646001 10:0.81744802 11:0.81213599 12:0.93324298 13:0.74230701 14:0.715675 15:0.72149003 16:0.26315799 17:0.53221202 18:0.26709399 19:0.27573401 20:0 21:0 22:0 23:0.33290401 24:0.27354899 25:0.50866598 26:0.70468903 27:0.89723998 28:0.71848398 29:0.68920302 30:0.69451702 31:0.30232599 32:0.56216502 33:0.30348101 34:0.31312001 35:0 36:0 37:0 38:0.38345399 39:0.32382801 40:0.58040202 41:0.75256097 42:0.91736501 43:0.741871 44:0.70029002 45:0.71535403 #docid = 11852
-3 1:0.60000002 2:0.60000002 3:0.625 4:0.64601803 5:0 6:0 7:0 8:0.70331597 9:0.624834 10:0.67315203 11:0.69041198 12:0.88115001 13:0.625678 14:0.61554003 15:0.623402 16:0.42105299 17:0.62193698 18:0.74626899 19:0.749587 20:0 21:0 22:0 23:0.78953302 24:0.42131299 25:0.755117 26:0.76539803 27:0.92150301 28:0.73063201 29:0.72016001 30:0.76657403 31:0.44185999 32:0.62540698 33:0.73333102 34:0.73752999 35:0 36:0 37:0 38:0.77612901 39:0.44390899 40:0.78137398 41:0.746149 42:0.914877 43:0.73298502 44:0.70549202 45:0.75554299 #docid = 253186
3 1:0.60000002 2:0.60000002 3:1 4:1 5:0 6:0 7:0 8:0.98108602 9:0.60730499 10:0.73778301 11:0.79311299 12:0.92563897 13:0.62269098 14:0.66060197 15:0.66754299 16:0.157895 17:0.39674899 18:0.240384 19:0.24878301 20:0 21:0 22:0 23:0.27293801 24:0.146661 25:0.41779801 26:0.62951303 27:0.86411899 28:0.709701 29:0.67748302 30:0.66070002 31:0.20930199 32:0.46950501 33:0.313887 34:0.32424501 35:0 36:0 37:0 38:0.35054901 39:0.194933 40:0.50201797 41:0.71078598 42:0.90076298 43:0.76605701 44:0.72466397 45:0.741602 #docid = 271065
3 1:0.80000001 2:0.80000001 3:0.74074 4:0.77051002 5:0 6:0 7:0 8:0.87036902 9:0.85156298 10:0.89585 11:0.89525098 12:0.96450198 13:0.86618102 14:0.85535198 15:0.85830998 16:0.184211 17:0.39674899 18:0.155141 19:0.16071001 20:0 21:0 22:0 23:0.202112 24:0.196651 25:0.368323 26:0.51858401 27:0.80720598 28:0.53273898 29:0.51441902 30:0.50952202 31:0.25581399 32:0.54494101 33:0.21227901 34:0.220134 35:0 36:0 37:0 38:0.27130401 39:0.270659 40:0.47112 41:0.70945603 42:0.90021902 43:0.83916998 44:0.76837999 45:0.77120298 #docid = 335079
-3 1:1 2:0.91699302 3:0.64102501 4:0.66809601 5:0 6:0 7:0 8:0.69378901 9:0.97900498 10:0.68189901 11:0.744923 12:0.90552902 13:0.71315098 14:0.689758 15:0.70308602 16:0.39473701 17:0.63273501 18:0.284091 19:0.292362 20:0 21:0 22:0 23:0.33784401 24:0.39675701 25:0.466757 26:0.669752 27:0.88231099 28:0.69397002 29:0.667413 30:0.68378299 31:0.46511599 32:0.687033 33:0.325252 34:0.33465299 35:0 36:0 37:0 38:0.37565699 39:0.461153 40:0.50825602 41:0.70772398 42:0.899508 43:0.73002899 44:0.68817401 45:0.72820997 #docid = 276805
-3 1:0.60000002 2:0.60000002 3:1 4:1 5:0 6:0 7:0 8:1 9:0.624834 10:0.76730102 11:0.81609899 12:0.93480498 13:0.64968503 14:0.68022197 15:0.68676198 16:0.23684201 17:0.47985899 18:0.40760899 19:0.41841 20:0 21:0 22:0 23:0.426669 24:0.210226 25:0.51694298 26:0.65642297 27:0.87640899 28:0.64882201 29:0.619443 30:0.674775 31:0.27906999 32:0.51776302 33:0.46941599 34:0.48083499 35:0 36:0 37:0 38:0.49447799 39:0.25501001 40:0.59064603 41:0.681122 42:0.88837099 43:0.67264098 44:0.63161403 45:0.70011401 #docid = 44695
-3 1:0.60000002 2:0.60000002 3:0.45454499 4:0.47724101 5:0 6:0 7:0 8:0.62404299 9:0.73498398 10:0.79022402 11:0.704629 12:0.88768899 13:0.77251703 14:0.69726998 15:0.70346099 16:0.157895 17:0.32571 18:0.19132499 19:0.197359 20:0 21:0 22:0 23:0.284419 24:0.196619 25:0.545672 26:0.59046602 27:0.84531802 28:0.56013501 29:0.55029601 30:0.57067001 31:0.20930199 32:0.38679799 33:0.239015 34:0.24640299 35:0 36:0 37:0 38:0.35166201 39:0.26238301 40:0.64553797 41:0.67360699 42:0.88514602 43:0.58740199 44:0.57866001 45:0.61354798 #docid = 288736
-1 1:0.60000002 2:0.60000002 3:0.5 4:0.52275902 5:0 6:0 7:0 8:0.61743802 9:0.66461498 10:0.69636601 11:0.66612101 12:0.86965901 13:0.672409 14:0.62981498 15:0.63738501 16:0.184211 17:0.39674899 18:0.25143701 19:0.259262 20:0 21:0 22:0 23:0.215047 24:0.127754 25:0.26637301 26:0.471019 27:0.778961 28:0.54541397 29:0.49658301 30:0.494591 31:0.232558 32:0.496683 33:0.29842699 34:0.30837801 35:0 36:0 37:0 38:0.29365799 39:0.18791801 40:0.456936 41:0.672683 42:0.88474703 43:0.78187799 44:0.73720199 45:0.73913902 #docid = 247718
-3 1:0.80000001 2:0.80000001 3:0.74074 4:0.77051002 5:0 6:0 7:0 8:0.82719803 9:0.806373 10:0.83645201 11:0.84578198 12:0.946266 13:0.80726701 14:0.80538702 15:0.809367 16:0.131579 17:0.23598599 18:0.21115001 19:0.21549 20:0 21:0 22:0 23:0.297014 24:0.16281 25:0.42446801 26:0.43882099 27:0.75817198 28:0.383347 29:0.33028299 30:0.342513 31:0.20930199 32:0.40402201 33:0.313887 34:0.32175899 35:0 36:0 37:0 38:0.40235001 39:0.235275 40:0.57492101 41:0.65519798 42:0.87709099 43:0.643704 44:0.60189003 45:0.61804998 #docid = 253188
0.53199062694461574 1:0.2 2:0.2 3:0.111112 4:0.117995 5:0 6:0 7:0 8:0.16061699 9:0.244258 10:0.240106 11:0.19880299 12:0.48174801 13:0.187667 14:0.14633 15:0.16378801 16:0.52631599 17:0.64250302 18:0.395569 19:0.40316799 20:0 21:0 22:0 23:0.43652499 24:0.50907397 25:0.59596598 26:0.67406797 27:0.884197 28:0.663288 29:0.67178601 30:0.64875799 31:0.488372 32:0.60047001 33:0.351383 34:0.35903201 35:0 36:0 37:0 38:0.39500099 39:0.48390701 40:0.56961399 41:0.64587897 42:0.87292701 43:0.63452601 44:0.62799102 45:0.615713 #docid = 330225
-1 1:0.40000001 2:0.40000001 3:0.83333302 4:0.81593299 5:0 6:0 7:0 8:0.849024 9:0.46972999 10:0.631863 11:0.65392703 12:0.86373198 13:0.51851702 14:0.499726 15:0.50995702 16:0.131579 17:0.29622599 18:0.45955899 19:0.46741399 20:0 21:0 22:0 23:0.51188397 24:0.128185 25:0.58507299 26:0.59704101 27:0.84856999 28:0.60783899 29:0.56501698 30:0.59108597 31:0.162791 32:0.33853999 33:0.53324199 34:0.54072702 35:0 36:0 37:0 38:0.60642201 39:0.16759899 40:0.68910199 41:0.63347298 42:0.86728901 43:0.63126099 44:0.57597899 45:0.618168 #docid = 165384
-3.5319906269446157 1:0.60000002 2:0.60000002 3:1 4:1 5:0 6:0 7:0 8:1 9:0.624834 10:0.76730102 11:0.81609899 12:0.93480498 13:0.64968503 14:0.68022197 15:0.68676198 16:0.184211 17:0.34858 18:0.50872201 19:0.51338798 20:0 21:0 22:0 23:0.49763501 24:0.15611 25:0.54329997 26:0.579853 27:0.839993 28:0.60601801 29:0.56392199 30:0.60489702 31:0.232558 32:0.40402201 33:0.60306799 34:0.60724199 35:0 36:0 37:0 38:0.60303199 39:0.206304 40:0.66009098 41:0.63192099 42:0.86657602 43:0.63751203 44:0.58721399 45:0.64232701 #docid = 213099
2 1:0.80000001 2:0.80000001 3:0.44444501 4:0.471975 5:0 6:0 7:0 8:0.569552 9:0.85156298 10:0.76287299 11:0.69239402 12:0.88207 13:0.822402 14:0.76198 15:0.75731498 16:0.36842099 17:0.57749498 18:0.199772 19:0.206433 20:0 21:0 22:0 23:0.220744 24:0.331469 25:0.32438299 26:0.551341 27:0.82519001 28:0.56305498 29:0.57397997 30:0.58832699 31:0.418605 32:0.62155098 33:0.222672 34:0.230372 35:0 36:0 37:0 38:0.251257 39:0.38792101 40:0.38152501 41:0.627123 42:0.86436099 43:0.59077197 44:0.59937203 45:0.634543 #docid = 346319
-1.3294167767828498 1:0.60000002 2:0.60000002 3:0.5 4:0.52275902 5:0 6:0 7:0 8:0.57751298 9:0.61942399 10:0.63855201 11:0.61895502 12:0.84609902 13:0.61349499 14:0.58007801 15:0.58866602 16:0.28947401 17:0.490657 18:0.153459 19:0.158792 20:0 21:0 22:0 23:0.220553 24:0.34373099 25:0.45717901 26:0.55123198 27:0.825131 28:0.50826102 29:0.53195602 30:0.51997298 31:0.32558101 32:0.52237302 33:0.173189 34:0.17936701 35:0 36:0 37:0 38:0.24205901 39:0.38030499 40:0.49086601 41:0.59099799 42:0.84711403 43:0.52705002 44:0.53834099 45:0.54811001 #docid = 347488
-3 1:0.60000002 2:0.60000002 3:0.41666701 4:0.43901899 5:0 6:0 7:0 8:0.50622803 9:0.624834 10:0.59398699 11:0.57279199 12:0.82123297 13:0.59553099 14:0.55994999 15:0.56894898 16:0 17:0 18:0 19:0 20:0 21:0 22:0 23:0 24:0 25:0 26:0 27:0 28:0 29:0 30:0 31:0.069766998 32:0.196448 33:0.723683 34:0.72712302 35:0 36:0 37:0 38:0.77216399 39:0.068784997 40:0.79955798 41:0.57859403 42:0.84094799 43:0.63223302 44:0.62961298 45:0.65145898 #docid = 336048
-0.57827712115977192 1:0.60000002 2:0.60000002 3:0.55555499 4:0.57788301 5:0 6:0 7:0 8:0.59852201 9:0.58090001 10:0.59181303 11:0.608558 12:0.84066498 13:0.56022501 14:0.55026799 15:0.55946499 16:0.342105 17:0.490657 18:0.240384 19:0.24609201 20:0 21:0 22:0 23:0.30217701 24:0.375626 25:0.395224 26:0.51313901 27:0.80410701 28:0.460237 29:0.44544199 30:0.41034901 31:0.37209299 32:0.53789502 33:0.26020199 34:0.26700899 35:0 36:0 37:0 38:0.31988001 39:0.40093601 40:0.432327 41:0.56492001 42:0.83399498 43:0.48704699 44:0.463267 45:0.465826 #docid = 106259
1.5071345514105587 1:0.80000001 2:0.71699297 3:0.44444501 4:0.46482 5:0 6:0 7:0 8:0.53824002 9:0.86909199 10:0.59908497 11:0.60726601 12:0.83998299 13:0.61847597 14:0.56139702 15:0.56250399 16:0.184211 17:0.32571 18:0.208334 19:0.213569 20:0 21:0 22:0 23:0.147203 24:0.105761 25:0.15387399 26:0.30000299 27:0.64651501 28:0.32034299 29:0.26543799 30:0.289249 31:0.25581399 32:0.46950501 33:0.265351 34:0.27356401 35:0 36:0 37:0 38:0.23904701 39:0.190394 40:0.31323001 41:0.50811601 42:0.80318999 43:0.52978998 44:0.47653401 45:0.52002102 #docid = 345527
-1 1:0.80000001 2:0.80000001 3:0.30303001 4:0.32507899 5:0 6:0 7:0 8:0.35422301 9:0.73474699 10:0.51846802 11:0.470801 12:0.75832599 13:0.60848701 14:0.56488299 15:0.55992901 16:0.342105 17:0.56669599 18:0.14990599 19:0.155302 20:0 21:0 22:0 23:0.175291 24:0.32784501 25:0.277522 26:0.460971 27:0.77262998 28:0.39546701 29:0.40912801 30:0.42360201 31:0.395349 32:0.61042398 33:0.167952 34:0.174244 35:0 36:0 37:0 38:0.190254 39:0.369396 40:0.298118 41:0.50171202 42:0.79950303 43:0.40235901 44:0.41215 45:0.44251001 #docid = 298276
4 1:0.80000001 2:0.80000001 3:0.55555499 4:0.58535898 5:0 6:0 7:0 8:0.59169298 9:0.71721798 10:0.62366402 11:0.65518498 12:0.86434901 13:0.649086 14:0.65255302 15:0.65965801 16:0.078947 17:0.183633 18:0.106534 19:0.110154 20:0 21:0 22:0 23:0.106291 24:0.063846998 25:0.124499 26:0.24875 27:0.59151101 28:0.22809 29:0.16112199 30:0.164021 31:0.162791 32:0.36571801 33:0.202631 34:0.20973 35:0 36:0 37:0 38:0.197557 39:0.130097 40:0.247953 41:0.45725399 42:0.77253097 43:0.48293599 44:0.41566199 45:0.43733099 #docid = 12694
0.54939268411215636 1:0 2:0 3:0 4:0 5:0 6:0 7:0 8:0 9:0 10:0 11:0 12:0 13:0 14:0 15:0 16:0.26315799 17:0.47197199 18:0.169838 19:0.175652 20:0 21:0 22:0 23:0.17122801 24:0.216069 25:0.220203 26:0.417615 27:0.74362898 28:0.410586 29:0.391224 30:0.39524001 31:0.232558 32:0.43505701 33:0.151557 34:0.157144 35:0 36:0 37:0 38:0.15192001 39:0.190367 40:0.20253301 41:0.40152299 42:0.73474902 43:0.375539 44:0.34295899 45:0.364369 #docid = 149478
-0.040704188991412593 1:0 2:0 3:0 4:0 5:0 6:0 7:0 8:0 9:0 10:0 11:0 12:0 13:0 14:0 15:0 16:0.210526 17:0.41961801 18:0.112106 19:0.116296 20:0 21:0 22:0 23:0.124395 24:0.189365 25:0.18774 26:0.35912499 27:0.69932801 28:0.343986 29:0.33454499 30:0.35931301 31:0.186047 32:0.38679799 33:0.096490003 34:0.100362 35:0 36:0 37:0 38:0.1071 39:0.16779099 40:0.16992199 41:0.342365 42:0.688416 43:0.29870501 44:0.28208899 45:0.32391301 #docid = 264382
3 1:0.60000002 2:0.60000002 3:0.55555499 4:0.57788301 5:0 6:0 7:0 8:0.523485 9:0.49174601 10:0.44687399 11:0.51393801 12:0.78645098 13:0.424463 14:0.44909099 15:0.46035701 16:0.105263 17:0.164947 18:0.098425001 19:0.101145 20:0 21:0 22:0 23:0.129103 24:0.116516 25:0.184829 26:0.224195 27:0.560996 28:0.071731001 29:0.069462001 30:0.068710998 31:0.162791 32:0.300235 33:0.148995 34:0.153695 35:0 36:0 37:0 38:0.16703901 39:0.15443 40:0.213331 41:0.32454899 42:0.67288101 43:0.219374 44:0.17531 45:0.20157599 #docid = 297643
-0.10575397860977809 1:0 2:0 3:0 4:0 5:0 6:0 7:0 8:0 9:0 10:0 11:0 12:0 13:0 14:0 15:0 16:0.078947 17:0.21311601 18:0.061275002 19:0.063747004 20:0 21:0 22:0 23:0.086498998 24:0.089175999 25:0.188674 26:0.30856901 27:0.65478098 28:0.35486901 29:0.34585601 30:0.31498599 31:0.069766998 32:0.196448 33:0.053277999 34:0.055562001 35:0 36:0 37:0 38:0.075910002 39:0.079823002 40:0.16727801 41:0.301319 42:0.65129298 43:0.31381601 44:0.29499501 45:0.28575 #docid = 24956
-3 1:0.40000001 2:0.40000001 3:0.47619 4:0.48826301 5:0 6:0 7:0 8:0.50216699 9:0.399362 10:0.43783799 11:0.46487501 12:0.75426298 13:0.38649699 14:0.36720601 15:0.38014701 16:0.026316 17:0.071038999 18:0.031886999 19:0.033112999 20:0 21:0 22:0 23:0.050053 24:0.03342 25:0.115879 26:0.148241 27:0.43954101 28:0.085937001 29:0.034028001 30:0.050039999 31:0.069766998 32:0.16926999 33:0.082704999 34:0.085836999 35:0 36:0 37:0 38:0.107903 39:0.075043999 40:0.18736599 41:0.276914 42:0.62674099 43:0.18188199 44:0.124307 45:0.16170301 #docid = 318561
-2 1:0.2 2:0.2 3:0.277778 4:0.28183001 5:0 6:0 7:0 8:0.33002701 9:0.244258 10:0.30317101 11:0.30116501 12:0.614995 13:0.255036 14:0.188541 15:0.205136 16:0 17:0 18:0 19:0 20:0 21:0 22:0 23:0 24:0 25:0 26:0 27:0 28:0 29:0 30:0 31:0.023256 32:0.065482996 33:0.482456 34:0.46677899 35:0 36:0 37:0 38:0.56641102 39:0.030028 40:0.52078301 41:0.26763001 42:0.61682802 43:0.360116 44:0.140001 45:0.25675899 #docid = 337150
-0.44323991281026204 1:0.40000001 2:0.40000001 3:0.41666701 4:0.43067801 5:0 6:0 7:0 8:0.39072099 9:0.336642 10:0.33011699 11:0.36955601 12:0.68064702 13:0.29272801 14:0.28520501 15:0.29982299 16:0.105263 17:0.25467101 18:0.048450001 19:0.050423 20:0 21:0 22:0 23:0.045343 24:0.078257002 25:0.078663997 26:0.17665 27:0.49101701 28:0.13333599 29:0.163948 30:0.107174 31:0.13953499 32:0.300235 33:0.065293998 34:0.068003997 35:0 36:0 37:0 38:0.060924001 39:0.104389 40:0.102955 41:0.22891501 42:0.57140601 43:0.13773701 44:0.167023 45:0.146136 #docid = 342605
-0.31673988879368409 1:0.2 2:0.2 3:0.277778 4:0.28183001 5:0 6:0 7:0 8:0.311436 9:0.225472 10:0.27243999 11:0.27793899 12:0.58924699 13:0.226854 14:0.168062 15:0.185075 16:0 17:0 18:0 19:0 20:0 21:0 22:0 23:0 24:0 25:0 26:0 27:0 28:0 29:0 30:0 31:0.023256 32:0.065482996 33:0.482456 34:0.46677899 35:0 36:0 37:0 38:0.474071 39:0.023769001 40:0.42175201 41:0.211236 42:0.548042 43:0.33598199 44:0.110139 45:0.232686 #docid = 220424
-2 1:0 2:0 3:0 4:0 5:0 6:0 7:0 8:0 9:0 10:0 11:0 12:0 13:0 14:0 15:0 16:0 17:0 18:0 19:0 20:0 21:0 22:0 23:0 24:0 25:0 26:0 27:0 28:0 29:0 30:0 31:0 32:0 33:0 34:0 35:0 36:0 37:0 38:0 39:0 40:0 41:0 42:0 43:0 44:0 45:0 #docid = 303652
4.3882193562876672 1:0.75 2:0.75 3:1 4:1 5:0 6:0 7:0 8:1 9:0.74874997 10:1 11:1 12:1 13:0.92551303 14:0.98473102 15:0.98536497 16:1 17:1 18:0.68939602 19:0.691863 20:0 21:0 22:0 23:0.71512902 24:1 25:0.80409801 26:1 27:1 28:0.97347099 29:0.89520401 30:0.95658499 31:1 32:1 33:0.28641999 34:0.310231 35:0 36:0 37:0 38:0.38444799 39:1 40:0.72413599 41:0.94215202 42:0.98335302 43:0.97248602 44:0.87573397 45:0.90317202 #docid = 39435
0.4240809282911755 1:0.75 2:0.75 3:0.42857099 4:0.46416301 5:0 6:0 7:0 8:0.57400399 9:0.74874997 10:0.85338801 11:0.78354198 12:0.92645502 13:0.90220702 14:0.864429 15:0.87005597 16:0.26923099 17:0.50278199 18:0.53261 19:0.53592598 20:0 21:0 22:0 23:0.55322301 24:0.26506901 25:0.72325498 26:0.86663002 27:0.95914501 28:0.90762198 29:0.86805397 30:0.88524199 31:0.34482801 32:0.61184001 33:0.25157201 34:0.273256 35:0 36:0 37:0 38:0.33987299 39:0.34163699 40:0.70545501 41:0.902219 42:0.97125399 43:0.94491798 44:0.87893301 45:0.88935 #docid = 283785
0.17601975007465853 1:1 2:1 3:0.5 4:0.54589403 5:0 6:0 7:0 8:0.61561799 9:0.86671299 10:0.91300601 11:0.85901803 12:0.95418298 13:1 14:1 15:1 16:0.615385 17:0.75364298 18:0.329413 19:0.33576399 20:0 21:0 22:0 23:0.36959299 24:0.61881101 25:0.56432402 26:0.75570798 27:0.92005599 28:0.68421203 29:0.64782101 30:0.68934298 31:0.68965501 32:0.870875 33:0.149813 34:0.165034 35:0 36:0 37:0 38:0.210917 39:0.67071497 40:0.51739299 41:0.76762801 42:0.92612201 43:0.765544 44:0.68013698 45:0.70990998 #docid = 338257
-9.1669134314058027 1:0.75 2:0.75 3:0.75 4:0.77566099 5:0 6:0 7:0 8:0.83936501 9:0.74874997 10:0.95015502 11:0.93539798 12:0.97986501 13:0.91952598 14:0.94387901 15:0.946208 16:0 17:0 18:0 19:0 20:0 21:0 22:0 23:0 24:0 25:0 26:0 27:0 28:0 29:0 30:0 31:0.103448 32:0.271732 33:1 34:1 35:0 36:0 37:0 38:1 39:0.103999 40:1 41:0.75396901 42:0.92110598 43:0.75495899 44:0.86493301 45:0.84068203 #docid = 145433
-1.4499402546652504 1:0.75 2:0.75 3:0.60000002 4:0.63376099 5:0 6:0 7:0 8:0.72583503 9:0.74874997 10:0.91153401 11:0.878636 12:0.96099102 13:0.91364801 14:0.91219503 15:0.91583902 16:0 17:0 18:0 19:0 20:0 21:0 22:0 23:0 24:0 25:0 26:0 27:0 28:0 29:0 30:0 31:0.103448 32:0.271732 33:0.80000001 34:0.81705999 35:0 36:0 37:0 38:0.85787201 39:0.103999 40:0.94214398 41:0.74738997 42:0.91865802 43:0.75142902 44:0.83946103 45:0.81746298 #docid = 140188
-0.45096820398636339 1:0.75 2:0.75 3:0.60000002 4:0.63376099 5:0 6:0 7:0 8:0.72583503 9:0.74874997 10:0.91153401 11:0.878636 12:0.96099102 13:0.91364801 14:0.91219503 15:0.91583902 16:0 17:0 18:0 19:0 20:0 21:0 22:0 23:0 24:0 25:0 26:0 27:0 28:0 29:0 30:0 31:0.103448 32:0.271732 33:0.80000001 34:0.81705999 35:0 36:0 37:0 38:0.85787201 39:0.103999 40:0.94214398 41:0.74738997 42:0.91865802 43:0.75142902 44:0.83946103 45:0.81746298 #docid = 217788
-1 1:0.75 2:0.75 3:0.42857099 4:0.46416301 5:0 6:0 7:0 8:0.57400399 9:0.74874997 10:0.85338801 11:0.78354198 12:0.92645502 13:0.90220702 14:0.864429 15:0.87005597 16:0 17:0 18:0 19:0 20:0 21:0 22:0 23:0 24:0 25:0 26:0 27:0 28:0 29:0 30:0 31:0.103448 32:0.271732 33:0.571428 34:0.59841001 35:0 36:0 37:0 38:0.670578 39:0.103999 40:0.855645 41:0.73457199 42:0.91382498 43:0.74455899 44:0.80105698 45:0.78245503 #docid = 30085
-0.98689123607999818 1:0.75 2:0.75 3:0.142857 4:0.161706 5:0 6:0 7:0 8:0.23749 9:0.74874997 10:0.664895 11:0.445802 12:0.75642401 13:0.83185297 14:0.70861202 15:0.716259 16:0 17:0 18:0 19:0 20:0 21:0 22:0 23:0 24:0 25:0 26:0 27:0 28:0 29:0 30:0 31:0.103448 32:0.271732 33:0.190476 34:0.20847601 35:0 36:0 37:0 38:0.269196 39:0.103999 40:0.58382702 41:0.65583497 42:0.88215101 43:0.70231301 44:0.67573297 45:0.66482103 #docid = 103897
-1 1:0 2:0 3:0 4:0 5:0 6:0 7:0 8:0 9:0 10:0 11:0 12:0 13:0 14:0 15:0 16:0.42307699 17:0.622105 18:0.30078301 19:0.30674601 20:0 21:0 22:0 23:0.33810401 24:0.42478201 25:0.53614998 26:0.71431899 27:0.90398002 28:0.67864102 29:0.634027 30:0.66626197 31:0.37931001 32:0.596448 33:0.105516 34:0.116586 35:0 36:0 37:0 38:0.15600599 39:0.38073099 40:0.44333199 41:0.65394199 42:0.88134402 43:0.66010302 44:0.60497999 45:0.61744499 #docid = 135177
-0.89296147568560968 1:0.75 2:0.75 3:0.27272701 4:0.302457 5:0 6:0 7:0 8:0.40723601 9:0.74874997 10:0.77552098 11:0.64411801 12:0.867378 13:0.880481 14:0.80028999 15:0.80857903 16:0.346154 17:0.56684202 18:0.201922 19:0.20706899 20:0 21:0 22:0 23:0.233877 24:0.34836 25:0.45038801 26:0.62578601 27:0.86621398 28:0.63054597 29:0.59085703 30:0.62125897 31:0.413793 32:0.63094199 33:0.095807999 34:0.106074 35:0 36:0 37:0 38:0.143242 39:0.41599801 40:0.42884099 41:0.64702302 42:0.87837201 43:0.64706397 44:0.59745198 45:0.61040902 #docid = 52547
-3.5488400406358096 1:0 2:0 3:0 4:0 5:0 6:0 7:0 8:0 9:0 10:0 11:0 12:0 13:0 14:0 15:0 16:0.153846 17:0.377895 18:0.229509 19:0.23568401 20:0 21:0 22:0 23:0.26049501 24:0.150435 25:0.52628702 26:0.687841 27:0.89319998 28:0.825867 29:0.76972097 30:0.77461201 31:0.137931 32:0.36230901 33:0.080807999 34:0.089855 35:0 36:0 37:0 38:0.119993 39:0.13453799 40:0.426373 41:0.63089299 42:0.871319 43:0.80708802 44:0.73197299 45:0.71365899 #docid = 288879
-1 1:0 2:0 3:0 4:0 5:0 6:0 7:0 8:0 9:0 10:0 11:0 12:0 13:0 14:0 15:0 16:0.115385 17:0.28342101 18:0.40384799 19:0.41026399 20:0 21:0 22:0 23:0.44589299 24:0.11612 25:0.61584002 26:0.680749 27:0.89024103 28:0.69633502 29:0.67218202 30:0.68578899 31:0.103448 32:0.271732 33:0.142857 34:0.157259 35:0 36:0 37:0 38:0.20756 39:0.103999 40:0.517003 41:0.62247401 42:0.86756599 43:0.68422598 44:0.642946 45:0.63316798 #docid = 86409
1 1:0.75 2:0.75 3:0.60000002 4:0.63376099 5:0 6:0 7:0 8:0.72583503 9:0.74874997 10:0.91153401 11:0.878636 12:0.96099102 13:0.91364801 14:0.91219503 15:0.91583902 16:0.115385 17:0.28342101 18:0.136364 19:0.140268 20:0 21:0 22:0 23:0.160552 24:0.11612 25:0.36590299 26:0.48251 27:0.792005 28:0.59681702 29:0.54488599 30:0.550942 31:0.20689701 32:0.43068501 33:0.097561002 34:0.107992 35:0 36:0 37:0 38:0.145703 39:0.20799901 40:0.432706 41:0.620884 42:0.86685199 43:0.662799 44:0.59951502 45:0.62676901 #docid = 95259
-1.1767758511637822 1:0 2:0 3:0 4:0 5:0 6:0 7:0 8:0 9:0 10:0 11:0 12:0 13:0 14:0 15:0 16:0.153846 17:0.377895 18:0.36842099 19:0.37649599 20:0 21:0 22:0 23:0.35525501 24:0.130612 25:0.53417599 26:0.69353497 27:0.89555198 28:0.74587101 29:0.71598101 30:0.72313797 31:0.137931 32:0.36230901 33:0.118519 34:0.131329 35:0 36:0 37:0 38:0.149923 39:0.116352 40:0.42057899 41:0.61485499 42:0.86412501 43:0.72160798 44:0.66690099 45:0.65144098 #docid = 129154
-1.294701782441507 1:0 2:0 3:0 4:0 5:0 6:0 7:0 8:0 9:0 10:0 11:0 12:0 13:0 14:0 15:0 16:0.30769199 17:0.59894902 18:0.256879 19:0.26353899 20:0 21:0 22:0 23:0.25244001 24:0.261224 25:0.44777301 26:0.668127 27:0.88489902 28:0.73579299 29:0.66130501 30:0.72004402 31:0.27586201 32:0.574247 33:0.089635998 34:0.099588998 35:0 36:0 37:0 38:0.114848 39:0.232704 40:0.362086 41:0.607575 42:0.860798 43:0.71442598 44:0.626055 45:0.66139698 #docid = 277388
-2.6237026337825569 1:0 2:0 3:0 4:0 5:0 6:0 7:0 8:0 9:0 10:0 11:0 12:0 13:0 14:0 15:0 16:0.23076899 17:0.472368 18:0.21212099 19:0.217429 20:0 21:0 22:0 23:0.239758 24:0.226858 25:0.475777 26:0.65383202 27:0.87872702 28:0.81128103 29:0.73710799 30:0.75599802 31:0.20689701 32:0.452887 33:0.074767001 34:0.082993999 35:0 36:0 37:0 38:0.110823 39:0.203271 40:0.38440499 41:0.60122597 42:0.85786301 43:0.79102099 44:0.70052898 45:0.696329 #docid = 125675
2 1:0 2:0 3:0 4:0 5:0 6:0 7:0 8:0 9:0 10:0 11:0 12:0 13:0 14:0 15:0 16:0.153846 17:0.377895 18:0.31111199 19:0.31856999 20:0 21:0 22:0 23:0.30290499 24:0.130612 25:0.49285001 26:0.65961701 27:0.88124102 28:0.73103601 29:0.69027102 30:0.70020199 31:0.137931 32:0.36230901 33:0.108844 34:0.120716 35:0 36:0 37:0 38:0.138272 39:0.116352 40:0.402302 41:0.59934902 42:0.85698998 43:0.71367502 44:0.654405 45:0.642672 #docid = 21170
6.4509682039863634 1:0 2:0 3:0 4:0 5:0 6:0 7:0 8:0 9:0 10:0 11:0 12:0 13:0 14:0 15:0 16:0.23076899 17:0.48842201 18:0.192661 19:0.197956 20:0 21:0 22:0 23:0.221662 24:0.228313 25:0.46978399 26:0.65589601 27:0.87962598 28:0.809811 29:0.73333102 30:0.76193899 31:0.20689701 32:0.46827799 33:0.066666998 34:0.074175999 35:0 36:0 37:0 38:0.100497 39:0.20442 40:0.374598 41:0.598544 42:0.85661501 43:0.78675002 44:0.69408 45:0.69943202 #docid = 3797
-1 1:0 2:0 3:0 4:0 5:0 6:0 7:0 8:0 9:0 10:0 11:0 12:0 13:0 14:0 15:0 16:0.19230799 17:0.43315801 18:0.324076 19:0.331249 20:0 21:0 22:0 23:0.32232201 24:0.168823 25:0.50333899 26:0.68213999 27:0.89082402 28:0.74027997 29:0.68978798 30:0.71706802 31:0.172414 32:0.41529399 33:0.101011 34:0.111986 35:0 36:0 37:0 38:0.13231599 39:0.150719 40:0.38810399 41:0.59794098 42:0.85633302 43:0.70977199 44:0.63727403 45:0.64395499 #docid = 219275
1.7256158917995919 1:0.75 2:0.75 3:0.5 4:0.53583699 5:0 6:0 7:0 8:0.64062703 9:0.74874997 10:0.88001198 11:0.82836902 12:0.94322801 13:0.90787601 14:0.88631099 15:0.891029 16:0.115385 17:0.28342101 18:0.119319 19:0.122835 20:0 21:0 22:0 23:0.141093 24:0.11612 25:0.33906099 26:0.45399499 27:0.77461803 28:0.58071703 29:0.52926999 30:0.51181698 31:0.20689701 32:0.43068501 33:0.085106999 34:0.094348997 35:0 36:0 37:0 38:0.128097 39:0.20799901 40:0.40393701 41:0.595007 42:0.85495901 43:0.64606202 44:0.583974 45:0.589347 #docid = 140169
4.3333136892240987 1:0 2:0 3:0 4:0 5:0 6:0 7:0 8:0 9:0 10:0 11:0 12:0 13:0 14:0 15:0 16:0.384615 17:0.677369 18:0.241381 19:0.24768899 20:0 21:0 22:0 23:0.229055 24:0.31392801 25:0.41567999 26:0.64298999 27:0.873954 28:0.726704 29:0.64776802 30:0.70662302 31:0.34482801 32:0.64943302 33:0.085470997 34:0.094967 35:0 36:0 37:0 38:0.105556 39:0.279423 40:0.33687201 41:0.588323 42:0.851803 43:0.70652598 44:0.61498702 45:0.65096998 #docid = 250194
5.2628487482000779 1:0 2:0 3:0 4:0 5:0 6:0 7:0 8:0 9:0 10:0 11:0 12:0 13:0 14:0 15:0 16:0.115385 17:0.28342101 18:0.338709 19:0.34513 20:0 21:0 22:0 23:0.379639 24:0.11612 25:0.572245 26:0.65439099 27:0.87897098 28:0.68398499 29:0.65153199 30:0.65273201 31:0.103448 32:0.271732 33:0.105263 34:0.116406 35:0 36:0 37:0 38:0.156459 39:0.103999 40:0.44905701 41:0.58030403 42:0.847969 43:0.66102302 44:0.60816503 45:0.58534801 #docid = 190636
-0.16573355207245299 1:0 2:0 3:0 4:0 5:0 6:0 7:0 8:0 9:0 10:0 11:0 12:0 13:0 14:0 15:0 16:0.115385 17:0.28342101 18:0.299999 19:0.30623901 20:0 21:0 22:0 23:0.33932999 24:0.11612 25:0.54274499 26:0.63472903 27:0.87026399 28:0.67464298 29:0.63728797 30:0.64558202 31:0.103448 32:0.271732 33:0.1 34:0.110658 35:0 36:0 37:0 38:0.14912 39:0.103999 40:0.43799299 41:0.57254702 42:0.84420902 43:0.65670002 44:0.60232598 45:0.59395498 #docid = 160816
-0.49747445565080994 1:0 2:0 3:0 4:0 5:0 6:0 7:0 8:0 9:0 10:0 11:0 12:0 13:0 14:0 15:0 16:0.23076899 17:0.44921201 18:0.207921 19:0.213156 20:0 21:0 22:0 23:0.240468 24:0.23224001 25:0.45699099 26:0.615421 27:0.86144698 28:0.643664 29:0.59428698 30:0.62348002 31:0.20689701 32:0.43068501 33:0.074767001 34:0.082990997 35:0 36:0 37:0 38:0.113273 39:0.20799901 40:0.37743601 41:0.56930298 42:0.84262198 43:0.62943703 44:0.56924099 45:0.58163399 #docid = 262470
5 1:0 2:0 3:0 4:0 5:0 6:0 7:0 8:0 9:0 10:0 11:0 12:0 13:0 14:0 15:0 16:0.19230799 17:0.377895 18:0.282258 19:0.287182 20:0 21:0 22:0 23:0.31324199 24:0.192542 25:0.49694699 26:0.62219697 27:0.86457199 28:0.66365498 29:0.61319602 30:0.627518 31:0.172414 32:0.36230901 33:0.096619003 34:0.106564 35:0 36:0 37:0 38:0.1415 39:0.172732 40:0.40414399 41:0.56565398 42:0.84082502 43:0.64512402 44:0.58198899 45:0.579377 #docid = 148500
0.17763470325464681 1:0.75 2:0.75 3:0.375 4:0.409421 5:0 6:0 7:0 8:0.52032602 9:0.74874997 10:0.83034998 11:0.74331802 12:0.91056597 13:0.896635 14:0.84547698 15:0.85189003 16:0.115385 17:0.18894701 18:0.147889 19:0.14996099 20:0 21:0 22:0 23:0.15995701 24:0.114634 25:0.19999801 26:0.26059401 27:0.61617899 28:0.206513 29:0.177376 30:0.180934 31:0.20689701 32:0.391469 33:0.101265 34:0.111363 35:0 36:0 37:0 38:0.146198 39:0.20709901 40:0.39899901 41:0.560498 42:0.83826703 43:0.64065599 44:0.57753003 45:0.57154602 #docid = 92271
-2 1:0.75 2:0.75 3:0.33333299 4:0.36623999 5:0 6:0 7:0 8:0.47607201 9:0.74874997 10:0.81005102 11:0.70702201 12:0.89547199 13:0.89116001 14:0.82876199 15:0.83586901 16:0.23076899 17:0.44921201 18:0.119319 19:0.122835 20:0 21:0 22:0 23:0.141093 24:0.23224001 25:0.33906099 26:0.483401 27:0.79253101 28:0.56550503 29:0.52926999 30:0.56013697 31:0.31034499 32:0.543464 33:0.064865001 34:0.072088003 35:0 36:0 37:0 38:0.098895997 39:0.31199801 40:0.349318 41:0.55473697 42:0.83538097 43:0.59857303 44:0.55309302 45:0.57506198 #docid = 93707
-0.73484029454493793 1:0 2:0 3:0 4:0 5:0 6:0 7:0 8:0 9:0 10:0 11:0 12:0 13:0 14:0 15:0 16:0.23076899 17:0.44921201 18:0.189189 19:0.194125 20:0 21:0 22:0 23:0.219818 24:0.23224001 25:0.435837 26:0.59379798 27:0.85123801 28:0.631235 29:0.58322299 30:0.612391 31:0.20689701 32:0.43068501 33:0.069564998 34:0.077266999 35:0 36:0 37:0 38:0.105743 39:0.20799901 40:0.36303699 41:0.55456001 42:0.83529198 43:0.61987698 44:0.56104398 45:0.57212901 #docid = 99650
-3 1:0.75 2:0.75 3:0.30000001 4:0.33130401 5:0 6:0 7:0 8:0.43891099 9:0.74874997 10:0.79191202 11:0.674106 12:0.88109797 13:0.88577598 14:0.81381202 15:0.82154 16:0.153846 17:0.377895 18:0.105263 19:0.108573 20:0 21:0 22:0 23:0.106256 24:0.130612 25:0.266285 26:0.40847901 27:0.74446601 28:0.60396498 29:0.52942598 30:0.52756202 31:0.24137899 32:0.52126199 33:0.065268002 34:0.072653003 35:0 36:0 37:0 38:0.091040999 39:0.220351 40:0.32361099 41:0.54570198 42:0.83079398 43:0.665034 44:0.57967597 45:0.60013002 #docid = 19363
-0.85400798165519021 1:0 2:0 3:0 4:0 5:0 6:0 7:0 8:0 9:0 10:0 11:0 12:0 13:0 14:0 15:0 16:0.26923099 17:0.48842201 18:0.180149 19:0.184864 20:0 21:0 22:0 23:0.209095 24:0.27045101 25:0.42073199 26:0.58284903 27:0.84592599 28:0.618949 29:0.57525802 30:0.60515302 31:0.24137899 32:0.46827799 33:0.065728001 34:0.073016003 35:0 36:0 37:0 38:0.099886999 39:0.242365 40:0.34828401 41:0.543531 42:0.82968003 43:0.606296 44:0.55243701 45:0.56410098 #docid = 104721
2 1:0 2:0 3:0 4:0 5:0 6:0 7:0 8:0 9:0 10:0 11:0 12:0 13:0 14:0 15:0 16:0.153846 17:0.33868501 18:0.26415199 19:0.26968801 20:0 21:0 22:0 23:0.29843301 24:0.154331 25:0.49973401 26:0.620547 27:0.863814 28:0.66420102 29:0.61571902 30:0.63781399 31:0.137931 32:0.324716 33:0.079600997 34:0.088200003 35:0 36:0 37:0 38:0.119317 39:0.138366 40:0.37984201 41:0.54170698 42:0.82874101 43:0.63281399 44:0.56993902 45:0.57693797 #docid = 145190
-1 1:0 2:0 3:0 4:0 5:0 6:0 7:0 8:0 9:0 10:0 11:0 12:0 13:0 14:0 15:0 16:0.19230799 17:0.43315801 18:0.26923099 19:0.275783 20:0 21:0 22:0 23:0.23664901 24:0.14510401 25:0.41427901 26:0.60105997 27:0.85470802 28:0.718189 29:0.65858799 30:0.68154502 31:0.172414 32:0.41529399 33:0.091324002 34:0.101349 35:0 36:0 37:0 38:0.104271 39:0.12870499 40:0.32654899 41:0.53954202 42:0.827622 43:0.69577098 44:0.61893898 45:0.61996597 #docid = 321630
2 1:0 2:0 3:0 4:0 5:0 6:0 7:0 8:0 9:0 10:0 11:0 12:0 13:0 14:0 15:0 16:0.19230799 17:0.377895 18:0.227273 19:0.23201001 20:0 21:0 22:0 23:0.25633299 24:0.192542 25:0.447869 26:0.57953799 27:0.84430099 28:0.63929403 29:0.58780003 30:0.60647601 31:0.172414 32:0.36230901 33:0.082304001 34:0.090985 35:0 36:0 37:0 38:0.121874 39:0.172732 40:0.371952 41:0.53727001 42:0.82644302 43:0.62664402 44:0.563761 45:0.56404197 #docid = 146787
1.8000737525995572 1:0.25 2:0.25 3:0.071428999 4:0.079940997 5:0 6:0 7:0 8:0.058336999 9:0.117963 10:0.059820998 11:0.088454001 12:0.26878199 13:0.0049660001 14:0.0030479999 15:0.030758001 16:0.19230799 17:0.43315801 18:0.27343801 19:0.28004399 20:0 21:0 22:0 23:0.24020199 24:0.14510401 25:0.41779101 26:0.60460502 27:0.85638601 28:0.71988201 29:0.66095603 30:0.67759401 31:0.20689701 32:0.452887 33:0.102564 34:0.113465 35:0 36:0 37:0 38:0.10692 39:0.141057 40:0.31788599 41:0.53577298 42:0.82566398 43:0.70271802 44:0.62313902 45:0.62133002 #docid = 134783
-1 1:0 2:0 3:0 4:0 5:0 6:0 7:0 8:0 9:0 10:0 11:0 12:0 13:0 14:0 15:0 16:0.19230799 17:0.43315801 18:0.194446 19:0.19976 20:0 21:0 22:0 23:0.19848 24:0.168823 25:0.38721201 26:0.56499702 27:0.83704799 28:0.682666 29:0.61347699 30:0.63133001 31:0.172414 32:0.41529399 33:0.072463997 34:0.080573998 35:0 36:0 37:0 38:0.096354999 39:0.150719 40:0.32241201 41:0.52911198 42:0.82216901 43:0.67087197 44:0.589481 45:0.59019297 #docid = 146465
1 1:0 2:0 3:0 4:0 5:0 6:0 7:0 8:0 9:0 10:0 11:0 12:0 13:0 14:0 15:0 16:0.153846 17:0.377895 18:0.189189 19:0.194557 20:0 21:0 22:0 23:0.18812899 24:0.130612 25:0.37996501 26:0.54848802 27:0.82858402 28:0.67940098 29:0.61546397 30:0.62208003 31:0.137931 32:0.36230901 33:0.066666998 34:0.074226998 35:0 36:0 37:0 38:0.086309999 39:0.116352 40:0.304928 41:0.50136 42:0.807118 43:0.66127503 44:0.58325201 45:0.57191098 #docid = 146481
6.9928259968928081 1:0.75 2:0.75 3:0.375 4:0.409421 5:0 6:0 7:0 8:0.52032602 9:0.74874997 10:0.83034998 11:0.74331802 12:0.91056597 13:0.896635 14:0.84547698 15:0.85189003 16:0 17:0 18:0 19:0 20:0 21:0 22:0 23:0 24:0 25:0 26:0 27:0 28:0 29:0 30:0 31:0.103448 32:0.271732 33:0.063492 34:0.070574999 35:0 36:0 37:0 38:0.096887998 39:0.103999 40:0.34517401 41:0.49625701 42:0.80426002 43:0.61292499 44:0.55066198 45:0.54471499 #docid = 128901
1.7093177549155598 1:0 2:0 3:0 4:0 5:0 6:0 7:0 8:0 9:0 10:0 11:0 12:0 13:0 14:0 15:0 16:0.23076899 17:0.44921201 18:0.14 19:0.143986 20:0 21:0 22:0 23:0.164682 24:0.23224001 25:0.37131399 26:0.52223802 27:0.814587 28:0.58919299 29:0.54796499 30:0.58162701 31:0.20689701 32:0.43068501 33:0.050632998 34:0.056370001 35:0 36:0 37:0 38:0.077912003 39:0.20799901 40:0.30285701 41:0.48680201 42:0.798886 43:0.57533002 44:0.52496397 45:0.542925 #docid = 153577
-10.800073752599557 1:0.75 2:0.75 3:0.25 4:0.27823299 5:0 6:0 7:0 8:0.379897 9:0.74874997 10:0.76057303 11:0.61668402 12:0.85425502 13:0.87527198 14:0.787947 15:0.796749 16:0 17:0 18:0 19:0 20:0 21:0 22:0 23:0 24:0 25:0 26:0 27:0 28:0 29:0 30:0 31:0.103448 32:0.271732 33:0.059700999 34:0.066391997 35:0 36:0 37:0 38:0.091326997 39:0.103999 40:0.33338401 41:0.485017 42:0.79786003 43:0.60623401 44:0.54366899 45:0.52306199 #docid = 132257
1.4392890199690669 1:0 2:0 3:0 4:0 5:0 6:0 7:0 8:0 9:0 10:0 11:0 12:0 13:0 14:0 15:0 16:0.153846 17:0.33868501 18:0.155554 19:0.159723 20:0 21:0 22:0 23:0.180922 24:0.154331 25:0.38235301 26:0.51232398 27:0.80911601 28:0.60471499 29:0.55367702 30:0.56278002 31:0.137931 32:0.324716 33:0.056736998 34:0.063065 35:0 36:0 37:0 38:0.086419001 39:0.138366 40:0.31467101 41:0.47829899 42:0.79396302 43:0.59287399 44:0.53147203 45:0.52495301 #docid = 71341
-1.6633765473593556 1:0.75 2:0.75 3:0.25 4:0.27823299 5:0 6:0 7:0 8:0.379897 9:0.74874997 10:0.76057303 11:0.61668402 12:0.85425502 13:0.87527198 14:0.787947 15:0.788831 16:0.153846 17:0.33868501 18:0.073297001 19:0.075590998 20:0 21:0 22:0 23:0.087243997 24:0.154331 25:0.242378 26:0.34861499 27:0.69923502 28:0.499441 29:0.46584401 30:0.45164901 31:0.24137899 32:0.46827799 33:0.045977 34:0.051205002 35:0 36:0 37:0 38:0.070800997 39:0.242365 40:0.28249499 41:0.465442 42:0.78635103 43:0.55322701 44:0.511868 45:0.51295102 #docid = 345872
-1.1716781815586188 1:0.75 2:0.75 3:0.15000001 4:0.169597 5:0 6:0 7:0 8:0.24777199 9:0.74874997 10:0.67319798 11:0.45996299 12:0.76585299 13:0.83639699 14:0.71552497 15:0.71772999 16:0.153846 17:0.377895 18:0.076503001 19:0.078987002 20:0 21:0 22:0 23:0.077629 24:0.130612 25:0.21437 26:0.33583 27:0.68857199 28:0.55714703 29:0.48386499 30:0.47793701 31:0.24137899 32:0.52126199 33:0.045977 34:0.051275998 35:0 36:0 37:0 38:0.064797997 39:0.220351 40:0.261199 41:0.46169499 42:0.78409302 43:0.61296499 44:0.53139597 45:0.55002499 #docid = 224701
1 1:0 2:0 3:0 4:0 5:0 6:0 7:0 8:0 9:0 10:0 11:0 12:0 13:0 14:0 15:0 16:0.153846 17:0.377895 18:0.138614 19:0.142801 20:0 21:0 22:0 23:0.139083 24:0.130612 25:0.31681699 26:0.47411999 27:0.78699797 28:0.64121902 29:0.56947798 30:0.57046199 31:0.137931 32:0.36230901 33:0.048928998 34:0.054568999 35:0 36:0 37:0 38:0.063865997 39:0.116352 40:0.25103 41:0.434852 42:0.76735902 43:0.62254101 44:0.53918898 45:0.52521199 #docid = 33894
-0.40132812020766911 1:0 2:0 3:0 4:0 5:0 6:0 7:0 8:0 9:0 10:0 11:0 12:0 13:0 14:0 15:0 16:0.076922998 17:0.18894701 18:0.094595 19:0.097277999 20:0 21:0 22:0 23:0.076268002 24:0.052733999 25:0.129041 26:0.219238 27:0.56685901 28:0.242516 29:0.20409299 30:0.210097 31:0.068966001 32:0.181155 33:0.031372 34:0.034942999 35:0 36:0 37:0 38:0.032620002 39:0.046470001 40:0.098252997 41:0.192708 42:0.54000503 43:0.226335 44:0.19159099 45:0.19186801 #docid = 59972
1 1:0.75 2:0.83682901 3:0.5625 4:0.61413097 5:0 6:0 7:0 8:0.71720201 9:0.78148901 10:0.91121101 11:0.84599102 12:0.94753802 13:0.97492999 14:0.91956598 15:0.92396897 16:0.89473701 17:0.85024798 18:0.845662 19:0.85302502 20:0 21:0 22:0 23:0.89919698 24:0.991032 25:0.96745801 26:1 27:1 28:0.91719902 29:0.935893 30:0.90808702 31:1 32:0.90042198 33:0.28301799 34:0.317985 35:0 36:0 37:0 38:0.409619 39:1 40:0.71931398 41:1 42:1 43:0.923127 44:0.82725501 45:0.84843099 #docid = 344847
1.1596574743222305 1:0.75 2:0.83682901 3:0.5625 4:0.61413097 5:0 6:0 7:0 8:0.71720201 9:0.78148901 10:0.91121101 11:0.84599102 12:0.94753802 13:0.97492999 14:0.91956598 15:0.92396897 16:0.42105299 17:0.57912099 18:0.866669 19:0.87302899 20:0 21:0 22:0 23:0.89469302 24:0.44953001 25:0.96780699 26:0.94488603 27:0.98375797 28:0.93339503 29:0.937612 30:0.91347897 31:0.55000001 32:0.67923599 33:0.31132001 34:0.348611 35:0 36:0 37:0 38:0.43638799 39:0.53556401 40:0.73844302 41:0.97661602 42:0.99322999 43:0.954799 44:0.84049702 45:0.85739398 #docid = 342063
2 1:0.25 2:0.278943 3:0.375 4:0.387831 5:0 6:0 7:0 8:0.428229 9:0.30691901 10:0.425219 11:0.41807601 12:0.72644001 13:0.315898 14:0.248179 15:0.28933501 16:0.42105299 17:0.56946599 18:1 19:1 20:0 21:0 22:0 23:1 24:0.448906 25:1 26:0.95511001 27:0.98684102 28:0.94575697 29:0.95441502 30:0.93924302 31:0.44999999 32:0.60389298 33:0.31395301 34:0.35082299 35:0 36:0 37:0 38:0.44171599 39:0.44645199 40:0.735241 41:0.95907003 42:0.98804301 43:0.95110899 44:0.83724397 45:0.87066501 #docid = 119338
1 1:0.75 2:0.83682901 3:0.40909001 4:0.45368499 5:0 6:0 7:0 8:0.56155401 9:0.78148901 10:0.85133302 11:0.73308802 12:0.902605 13:0.95112503 14:0.86510003 15:0.87248498 16:0.73684198 17:0.82954401 18:0.48404399 19:0.493911 20:0 21:0 22:0 23:0.55205703 24:0.83597302 25:0.78350598 26:0.90539402 27:0.97152603 28:0.94030303 29:0.93577802 30:0.93028498 31:0.85000002 32:0.901079 33:0.16776299 34:0.19083899 35:0 36:0 37:0 38:0.260158 39:0.866368 40:0.58942097 41:0.94085503 42:0.98255599 43:0.95488799 44:0.83390403 45:0.88381302 #docid = 154611
6.0055716984362988 1:0.25 2:0.278943 3:0.15000001 4:0.16565201 5:0 6:0 7:0 8:0.14748999 9:0.175974 10:0.153927 11:0.172483 12:0.448717 13:0 14:0 15:0.054742999 16:0.63157898 17:0.81023401 18:0.56796199 19:0.5801 20:0 21:0 22:0 23:0.56887901 24:0.607889 25:0.80758202 26:0.93196398 27:0.97981203 28:1 29:1 30:1 31:0.64999998 32:0.84127498 33:0.172566 34:0.196952 35:0 36:0 37:0 38:0.231575 39:0.54676998 40:0.55790597 41:0.92070597 42:0.976363 43:1 44:0.87335801 45:0.929919 #docid = 329568
-35.909635249125252 1:0.75 2:0.83682901 3:0.89999998 4:0.95064199 5:0 6:0 7:0 8:1 9:0.78148901 10:1 11:1 12:1 13:1 14:1 15:1 16:0 17:0 18:0 19:0 20:0 21:0 22:0 23:0 24:0 25:0 26:0 27:0 28:0 29:0 30:0 31:0.15000001 32:0.30670601 33:0.89999998 34:0.95064199 35:0 36:0 37:0 38:1 39:0.149222 40:1 41:0.90729803 42:0.97216499 43:0.95023102 44:1 45:1 #docid = 54086
1 1:0.5 2:0.557886 3:0.49999899 4:0.53583598 5:0 6:0 7:0 8:0.55225599 9:0.47456899 10:0.56603998 11:0.57255 12:0.82507402 13:0.501122 14:0.49176899 15:0.51959097 16:0.31578901 17:0.49304801 18:0.59693903 19:0.60718697 20:0 21:0 22:0 23:0.66093498 24:0.34745899 25:0.86589003 26:0.86918497 27:0.95983201 28:0.88571399 29:0.880162 30:0.88393497 31:0.40000001 32:0.57098001 33:0.218182 34:0.246693 35:0 36:0 37:0 38:0.31869 39:0.38634199 40:0.65267098 41:0.89475602 42:0.96818203 43:0.903759 44:0.78628999 45:0.84024101 #docid = 153756
6.546594373323666 1:1 2:1 3:0.46153799 4:0.50631797 5:0 6:0 7:0 8:0.59474802 9:1 10:0.86282402 11:0.761617 12:0.914581 13:0.989631 14:0.87598199 15:0.89163202 16:0 17:0 18:0 19:0 20:0 21:0 22:0 23:0 24:0 25:0 26:0 27:0 28:0 29:0 30:0 31:0.2 32:0.36651 33:0.46153799 34:0.50631797 35:0 36:0 37:0 38:0.59077197 39:0.192563 40:0.821271 41:0.89367503 42:0.96783698 43:0.94441199 44:0.89203697 45:0.91295397 #docid = 348307
1 1:0.75 2:0.83682901 3:0.5625 4:0.61413097 5:0 6:0 7:0 8:0.71720201 9:0.78148901 10:0.91121101 11:0.84599102 12:0.94753802 13:0.97492999 14:0.91956598 15:0.92396897 16:0.68421102 17:0.74347103 18:0.455935 19:0.46561 20:0 21:0 22:0 23:0.50173098 24:0.72532898 25:0.77662897 26:0.83567899 27:0.94857001 28:0.811517 29:0.83218598 30:0.81897199 31:0.80000001 32:0.81140399 33:0.163266 34:0.18572199 35:0 36:0 37:0 38:0.24579901 39:0.77268302 40:0.58683401 41:0.87735099 42:0.96256202 43:0.82462299 44:0.74313301 45:0.77339399 #docid = 153369
3.2068800916296567 1:0.75 2:0.83682901 3:0.44999999 4:0.496957 5:0 6:0 7:0 8:0.60515398 9:0.78148901 10:0.86922401 11:0.76721799 12:0.916879 13:0.95892698 14:0.88139701 15:0.88788998 16:0 17:0 18:0 19:0 20:0 21:0 22:0 23:0 24:0 25:0 26:0 27:0 28:0 29:0 30:0 31:0.15000001 32:0.30670601 33:0.44999999 34:0.496957 35:0 36:0 37:0 38:0.59837401 39:0.149222 40:0.829997 41:0.869371 42:0.959948 43:0.92589998 44:0.89671201 45:0.90988302 #docid = 342056
-0.70050445440225673 1:0 2:0 3:0 4:0 5:0 6:0 7:0 8:0 9:0 10:0 11:0 12:0 13:0 14:0 15:0 16:0.42105299 17:0.56946599 18:0.63934702 19:0.64775699 20:0 21:0 22:0 23:0.72112602 24:0.49077901 25:0.87588203 26:0.89853197 27:0.96934599 28:0.88600999 29:0.88215899 30:0.88183802 31:0.40000001 32:0.56146097 33:0.179104 34:0.20302799 35:0 36:0 37:0 38:0.281652 39:0.42109501 40:0.60926199 41:0.86745101 42:0.959315 43:0.86808997 44:0.75117201 45:0.80409098 #docid = 14039
1.0619069233884861 1:1 2:1 3:0.42857099 4:0.47190499 5:0 6:0 7:0 8:0.56120902 9:1 10:0.84887803 11:0.73452002 12:0.90321702 13:0.98219699 14:0.86330599 15:0.867625 16:0.68421102 17:0.749578 18:0.38177601 19:0.39106199 20:0 21:0 22:0 23:0.43661901 24:0.74564201 25:0.73697501 26:0.80801702 27:0.93892503 28:0.77829099 29:0.80702299 30:0.80393898 31:0.85000002 32:0.83525401 33:0.141666 34:0.16155 35:0 36:0 37:0 38:0.21847799 39:0.832793 40:0.558267 41:0.85426402 42:0.95493197 43:0.79040098 44:0.72268897 45:0.75788099 #docid = 270349
2 1:0.25 2:0.278943 3:0.25 4:0.267919 5:0 6:0 7:0 8:0.33048999 9:0.30691901 10:0.39946899 11:0.37023899 12:0.68832397 13:0.298731 14:0.225024 15:0.26744801 16:0.36842099 17:0.51846498 18:0.62045598 19:0.62854701 20:0 21:0 22:0 23:0.68914801 24:0.41849601 25:0.853347 26:0.859074 27:0.95648003 28:0.87516099 29:0.86793 30:0.83223099 31:0.40000001 32:0.54408902 33:0.196722 34:0.222091 35:0 36:0 37:0 38:0.30250999 39:0.41988 40:0.61266798 41:0.852669 42:0.95439702 43:0.86946499 44:0.75090897 45:0.75663501 #docid = 63115
2 1:0.25 2:0.278943 3:0.1875 4:0.20471001 5:0 6:0 7:0 8:0.27048901 9:0.30691901 10:0.38121 11:0.33222601 12:0.65434098 13:0.28216699 14:0.208597 15:0.25192001 16:0.26315799 17:0.432392 18:0.58036 19:0.58975798 20:0 21:0 22:0 23:0.61721402 24:0.27579999 25:0.83851999 26:0.81201202 27:0.94033903 28:0.87430298 29:0.867688 30:0.86227798 31:0.30000001 32:0.48611701 33:0.18000001 34:0.2045 35:0 36:0 37:0 38:0.27506301 39:0.29844499 40:0.615861 41:0.85260302 42:0.95437503 43:0.87969601 44:0.76027101 45:0.804286 #docid = 266338
0.32577050631503646 1:0.75 2:0.83682901 3:0.49999899 4:0.54935998 5:0 6:0 7:0 8:0.656299 9:0.78148901 10:0.88903302 11:0.804681 12:0.93183398 13:0.96686101 14:0.89941698 15:0.885813 16:0.157895 17:0.311079 18:0.340114 19:0.34892899 20:0 21:0 22:0 23:0.395417 24:0.17373 25:0.70821601 26:0.685516 27:0.89182103 28:0.80904001 29:0.78929102 30:0.76972198 31:0.30000001 32:0.48611701 33:0.173077 34:0.19678199 35:0 36:0 37:0 38:0.265549 39:0.29844499 40:0.60710299 41:0.84566897 42:0.952039 43:0.87415898 44:0.754435 45:0.80423403 #docid = 54705
0.6942995323783876 1:1 2:1 3:0.285714 4:0.31981799 5:0 6:0 7:0 8:0.403247 9:1 10:0.772874 11:0.588588 12:0.83374 13:0.93320101 14:0.79398501 15:0.81083101 16:0.42105299 17:0.57912099 18:0.35454401 19:0.363419 20:0 21:0 22:0 23:0.414906 24:0.46984199 25:0.71800703 26:0.771007 27:0.925493 28:0.79231101 29:0.79322702 30:0.79259098 31:0.60000002 32:0.706128 33:0.13740399 34:0.15673 35:0 36:0 37:0 38:0.21444 39:0.59567398 40:0.55202597 41:0.835271 42:0.94849902 43:0.80755597 44:0.71690398 45:0.753851 #docid = 50885
1 1:0.75 2:0.83682901 3:0.44999999 4:0.496957 5:0 6:0 7:0 8:0.52319098 9:0.65054399 10:0.65609503 11:0.63840902 12:0.859227 13:0.69276297 14:0.68554199 15:0.70275599 16:0.78947401 17:0.83750898 18:0.61449403 19:0.62309301 20:0 21:0 22:0 23:0.49379799 24:0.603652 25:0.68705398 26:0.80046803 27:0.93623602 28:0.97234702 29:0.96723598 30:0.94880599 31:0.89999998 32:0.91059798 33:0.20930199 34:0.23668499 35:0 36:0 37:0 38:0.23298299 39:0.631724 40:0.50324899 41:0.834454 42:0.948219 43:0.989232 44:0.86299503 45:0.90071398 #docid = 123213
-6.2608404085429825 1:0.5 2:0.557886 3:0.42857099 4:0.46416399 5:0 6:0 7:0 8:0.49371901 9:0.47456899 10:0.546709 11:0.54156703 12:0.80762303 13:0.49276701 14:0.47419101 15:0.50297499 16:0.89473701 17:0.80412698 18:0.57954502 19:0.58745098 20:0 21:0 22:0 23:0.59287298 24:0.90853298 25:0.801844 26:0.83411402 27:0.94803202 28:0.82391602 29:0.849159 30:0.82768399 31:0.94999999 32:0.82573497 33:0.19 34:0.21460199 35:0 36:0 37:0 38:0.264377 39:0.86916798 40:0.57622999 41:0.83174598 42:0.94728899 43:0.82037801 44:0.74006897 45:0.76532602 #docid = 117819
-1 1:0.25 2:0.278943 3:0.214285 4:0.232081 5:0 6:0 7:0 8:0.232398 9:0.218511 10:0.24167299 11:0.249323 12:0.56429398 13:0.107143 14:0.082289003 15:0.13252699 16:0.31578901 17:0.53608501 18:0.47177401 19:0.483145 20:0 21:0 22:0 23:0.47909099 24:0.303945 25:0.75085598 26:0.82816899 27:0.94598299 28:0.96050501 29:0.96051902 30:0.94952399 31:0.34999999 32:0.57098001 33:0.152173 34:0.173647 35:0 36:0 37:0 38:0.21072599 39:0.30463701 40:0.53119498 41:0.82912201 42:0.94638503 43:0.96033603 44:0.83508199 45:0.88173598 #docid = 314425
4.5187957989813903 1:0.25 2:0.278943 3:0.166666 4:0.183121 5:0 6:0 7:0 8:0.191471 9:0.218511 10:0.22609399 11:0.22497401 12:0.53205901 13:0.090864003 14:0.067980997 15:0.119002 16:1 17:1 18:0.40803799 19:0.417932 20:0 21:0 22:0 23:0.414713 24:0.96131003 25:0.69419801 26:0.82980299 27:0.94654799 28:0.91210699 29:0.91828299 30:0.90684801 31:1 32:1 33:0.127119 34:0.145247 35:0 36:0 37:0 38:0.17685799 39:0.868141 40:0.48289499 41:0.826904 42:0.94561797 43:0.904333 44:0.79466802 45:0.83558702 #docid = 270717
-2.0977743245020974 1:0 2:0 3:0 4:0 5:0 6:0 7:0 8:0 9:0 10:0 11:0 12:0 13:0 14:0 15:0 16:0.26315799 17:0.432392 18:0.76172 19:0.76910698 20:0 21:0 22:0 23:0.78528601 24:0.27579999 25:0.91854298 26:0.85953802 27:0.956635 28:0.90545201 29:0.91165501 30:0.88601702 31:0.25 32:0.42631301 33:0.197368 34:0.223445 35:0 36:0 37:0 38:0.28623301 39:0.237119 40:0.62071002 41:0.81768799 42:0.94241202 43:0.88315302 44:0.76668102 45:0.79633999 #docid = 53812
1 1:0.5 2:0.557886 3:0.33333299 4:0.36623901 5:0 6:0 7:0 8:0.40807 9:0.47456899 10:0.51529402 11:0.48867801 12:0.77538699 13:0.47648799 14:0.445546 15:0.45043099 16:0.57894701 17:0.63977802 18:0.66203499 19:0.66815102 20:0 21:0 22:0 23:0.65745401 24:0.58200997 25:0.82084203 26:0.81353098 27:0.94087398 28:0.86119097 29:0.860228 30:0.83645201 31:0.64999998 32:0.67625701 33:0.216666 34:0.243545 35:0 36:0 37:0 38:0.292144 39:0.58870798 40:0.58658803 41:0.80566198 42:0.93817198 43:0.85554802 44:0.74731499 45:0.76792198 #docid = 272624
0.8215127037861123 1:0.5 2:0.557886 3:0.33333299 4:0.36623901 5:0 6:0 7:0 8:0.40807 9:0.47456899 10:0.51529402 11:0.48867801 12:0.77538699 13:0.47648799 14:0.445546 15:0.45043099 16:0.36842099 17:0.51846498 18:0.53320402 19:0.54195899 20:0 21:0 22:0 23:0.55752701 24:0.37786999 25:0.79232901 26:0.790748 27:0.93273598 28:0.85277998 29:0.843274 30:0.85192299 31:0.44999999 32:0.57700098 33:0.18493199 34:0.20908201 35:0 36:0 37:0 38:0.25910601 39:0.41291401 40:0.57379401 41:0.79649198 42:0.93489701 43:0.85399801 44:0.73825097 45:0.78556502 #docid = 153434
1 1:0.75 2:0.83682901 3:0.75 4:0.803756 5:0 6:0 7:0 8:0.88274598 9:0.78148901 10:0.965509 11:0.94278997 12:0.98152 13:0.99149501 14:0.96879297 15:0.97050101 16:0.31578901 17:0.44815299 18:0.32142901 19:0.32822201 20:0 21:0 22:0 23:0.346573 24:0.32589999 25:0.63050902 26:0.63405001 27:0.869461 28:0.758771 29:0.74289298 30:0.709481 31:0.44999999 32:0.58835202 33:0.139176 34:0.1583 35:0 36:0 37:0 38:0.207583 39:0.42846701 40:0.53413099 41:0.784877 42:0.93069398 43:0.81458098 44:0.70709503 45:0.737988 #docid = 150430
1 1:0.5 2:0.557886 3:0.60000002 4:0.63376099 5:0 6:0 7:0 8:0.62741297 9:0.47456899 10:0.58895397 11:0.60729402 12:0.84355301 13:0.50962698 14:0.51256502 15:0.53924799 16:0.63157898 17:0.66283798 18:0.57353002 19:0.580652 20:0 21:0 22:0 23:0.57598501 24:0.63273299 25:0.77108598 26:0.77758503 27:0.92792702 28:0.82916099 29:0.832784 30:0.83024597 31:0.69999999 32:0.695952 33:0.196261 34:0.221131 35:0 36:0 37:0 38:0.266673 39:0.63204801 40:0.55857199 41:0.78176302 42:0.92955601 43:0.830679 44:0.72920603 45:0.772246 #docid = 198287
11.720513388375704 1:0 2:0 3:0 4:0 5:0 6:0 7:0 8:0 9:0 10:0 11:0 12:0 13:0 14:0 15:0 16:0.26315799 17:0.47542799 18:0.41313699 19:0.42375001 20:0 21:0 22:0 23:0.44893801 24:0.273534 25:0.72096997 26:0.80318302 27:0.93720698 28:0.93677902 29:0.933936 30:0.900374 31:0.25 32:0.46874499 33:0.11194 34:0.128369 35:0 36:0 37:0 38:0.16868301 39:0.234725 40:0.482972 41:0.76822501 42:0.92455798 43:0.91417003 44:0.78664798 45:0.808698 #docid = 266039
0.31145629391269125 1:0.5 2:0.557886 3:0.42857099 4:0.46416399 5:0 6:0 7:0 8:0.49371901 9:0.47456899 10:0.546709 11:0.54156703 12:0.80762303 13:0.49276701 14:0.47419101 15:0.50297499 16:0.78947401 17:0.725851 18:0.57578701 19:0.582564 20:0 21:0 22:0 23:0.57283801 24:0.78614998 25:0.75440198 26:0.76405102 27:0.92289603 28:0.81006098 29:0.82377899 30:0.80428702 31:0.85000002 32:0.75039202 33:0.190299 34:0.214489 35:0 36:0 37:0 38:0.25780299 39:0.76450199 40:0.53942698 41:0.763035 42:0.92261899 43:0.80592102 44:0.71661299 45:0.74323797 #docid = 52887
-1 1:0.25 2:0.278943 3:0.25 4:0.267919 5:0 6:0 7:0 8:0.26048401 9:0.218511 10:0.25127399 11:0.263587 12:0.58174503 13:0.115498 14:0.091069996 15:0.140827 16:0.36842099 17:0.51846498 18:0.379168 19:0.387683 20:0 21:0 22:0 23:0.444152 24:0.41849601 25:0.71983099 26:0.754942 27:0.91946 28:0.79728699 29:0.78843999 30:0.77539498 31:0.40000001 32:0.54408902 33:0.124999 34:0.142442 35:0 36:0 37:0 38:0.196398 39:0.40189499 40:0.51445299 41:0.75704002 42:0.920362 43:0.792804 44:0.683496 45:0.71932298 #docid = 181327
2 1:0.25 2:0.278943 3:0.25 4:0.267919 5:0 6:0 7:0 8:0.33048999 9:0.30691901 10:0.39946899 11:0.37023899 12:0.68832397 13:0.298731 14:0.225024 15:0.26744801 16:0.210526 17:0.37173501 18:0.84782702 19:0.85248297 20:0 21:0 22:0 23:0.82714599 24:0.222187 25:0.78883499 26:0.76668501 27:0.92388201 28:0.80112797 29:0.80130899 30:0.79832298 31:0.25 32:0.408941 33:0.25862101 34:0.28893501 35:0 36:0 37:0 38:0.353771 39:0.25149399 40:0.55853403 41:0.75476301 42:0.91949999 43:0.79380399 44:0.67847598 45:0.70535702 #docid = 290414
12.352033217180701 1:0 2:0 3:0 4:0 5:0 6:0 7:0 8:0 9:0 10:0 11:0 12:0 13:0 14:0 15:0 16:0.26315799 17:0.47542799 18:0.42763099 19:0.43843701 20:0 21:0 22:0 23:0.435518 24:0.25259799 25:0.71734798 26:0.78611797 27:0.93105298 28:0.94169599 29:0.941131 30:0.91666502 31:0.25 32:0.46874499 33:0.115384 34:0.132278 35:0 36:0 37:0 38:0.162681 39:0.21674 40:0.47349399 41:0.75073701 42:0.91797 43:0.91885698 44:0.792373 45:0.81977803 #docid = 314402
-1 1:0.75 2:0.721057 3:0.5625 4:0.59254098 5:0 6:0 7:0 8:0.58210897 9:0.69308102 10:0.573273 11:0.60273701 12:0.84119099 13:0.538293 14:0.498467 15:0.51893002 16:0.52631599 17:0.64588499 18:0.91981101 19:0.92361099 20:0 21:0 22:0 23:0.78078598 24:0.46456999 25:0.594567 26:0.73845202 27:0.91313303 28:0.73275602 29:0.69742501 30:0.71912599 31:0.64999998 32:0.71332401 33:0.31967199 34:0.35605299 35:0 36:0 37:0 38:0.371654 39:0.53118098 40:0.44991201 41:0.741579 42:0.91445798 43:0.744003 44:0.61732 45:0.66234601 #docid = 123696
1.3802996215176435 1:0.25 2:0.278943 3:0.25 4:0.267919 5:0 6:0 7:0 8:0.33048999 9:0.30691901 10:0.39946899 11:0.37023899 12:0.68832397 13:0.298731 14:0.225024 15:0.157986 16:0.210526 17:0.37173501 18:0.330511 19:0.33871999 20:0 21:0 22:0 23:0.37278101 24:0.224453 25:0.68253201 26:0.67880303 27:0.88900203 28:0.79723299 29:0.77550101 30:0.78235501 31:0.25 32:0.42631301 33:0.115384 34:0.131878 35:0 36:0 37:0 38:0.185405 39:0.25388801 40:0.51394999 41:0.741207 42:0.91431397 43:0.80842298 44:0.68694597 45:0.749327 #docid = 44773
7.4747832504752125 1:0 2:0 3:0 4:0 5:0 6:0 7:0 8:0 9:0 10:0 11:0 12:0 13:0 14:0 15:0 16:0.31578901 17:0.49304801 18:0.33238801 19:0.34108701 20:0 21:0 22:0 23:0.387023 24:0.34745899 25:0.70200402 26:0.73961401 27:0.91358298 28:0.79580599 29:0.78557998 30:0.79307401 31:0.30000001 32:0.48611701 33:0.097824998 34:0.112136 35:0 36:0 37:0 38:0.157085 39:0.29844499 40:0.48499799 41:0.727364 42:0.908921 43:0.78164399 44:0.66960198 45:0.719037 #docid = 346375
-1.8807510810389934 1:0 2:0 3:0 4:0 5:0 6:0 7:0 8:0 9:0 10:0 11:0 12:0 13:0 14:0 15:0 16:0.52631599 17:0.619802 18:0.33621001 19:0.34374401 20:0 21:0 22:0 23:0.41235 24:0.63409799 25:0.686014 26:0.74265802 27:0.91475999 28:0.75177199 29:0.76428998 30:0.71596903 31:0.5 32:0.61108899 33:0.094935998 34:0.108503 35:0 36:0 37:0 38:0.161337 39:0.54374599 40:0.46993199 41:0.72016901 42:0.90607601 43:0.72609699 44:0.64392102 45:0.63264501 #docid = 272563
0.93877507931475357 1:0 2:0 3:0 4:0 5:0 6:0 7:0 8:0 9:0 10:0 11:0 12:0 13:0 14:0 15:0 16:0.157895 17:0.311079 18:0.50431001 19:0.514548 20:0 21:0 22:0 23:0.56803399 24:0.17373 25:0.81758499 26:0.76100498 27:0.92175198 28:0.85320503 29:0.85291201 30:0.82032698 31:0.15000001 32:0.30670601 33:0.128571 34:0.14688601 35:0 36:0 37:0 38:0.202563 39:0.149222 40:0.54216403 41:0.71907699 42:0.90564197 43:0.82850498 44:0.71022099 45:0.713332 #docid = 122636
1 1:0.75 2:0.83682901 3:0.49999899 4:0.54935998 5:0 6:0 7:0 8:0.656299 9:0.78148901 10:0.88903302 11:0.804681 12:0.93183398 13:0.96686101 14:0.89941698 15:0.90492302 16:0.26315799 17:0.47542799 18:0.18190099 19:0.18779799 20:0 21:0 22:0 23:0.17625199 24:0.230019 25:0.45297101 26:0.51722699 27:0.81111598 28:0.79402 29:0.75806099 30:0.744762 31:0.40000001 32:0.64815599 33:0.083916001 34:0.096557997 35:0 36:0 37:0 38:0.120465 39:0.34679899 40:0.413508 41:0.71562803 42:0.904266 43:0.86976099 44:0.73955601 45:0.80925101 #docid = 269123
4.4359689569241105 1:0 2:0 3:0 4:0 5:0 6:0 7:0 8:0 9:0 10:0 11:0 12:0 13:0 14:0 15:0 16:0.36842099 17:0.53608501 18:0.34125 19:0.34991601 20:0 21:0 22:0 23:0.39011401 24:0.39818299 25:0.70191699 26:0.743442 27:0.91506201 28:0.79149199 29:0.78674299 30:0.79155201 31:0.34999999 32:0.52854902 33:0.09375 34:0.107466 35:0 36:0 37:0 38:0.148333 39:0.34178501 40:0.46947399 41:0.71453702 42:0.90382999 43:0.76364398 44:0.66042298 45:0.70328498 #docid = 273041
2 1:0.25 2:0.278943 3:0.375 4:0.387831 5:0 6:0 7:0 8:0.29804799 9:0.175974 10:0.208722 11:0.23933899 12:0.55147398 13:0.049734998 14:0.051918998 15:0.10382 16:0.210526 17:0.414772 18:0.29999799 19:0.30896601 20:0 21:0 22:0 23:0.31220999 24:0.201875 25:0.62260598 26:0.68777198 27:0.89276302 28:0.89101303 29:0.87599701 30:0.83512402 31:0.25 32:0.46874499 33:0.108696 34:0.124686 35:0 36:0 37:0 38:0.14166 39:0.197577 40:0.433503 41:0.70824301 42:0.90129799 43:0.908342 44:0.77933502 45:0.80131501 #docid = 344268
0.2107924722867125 1:0.75 2:0.721057 3:0.642856 4:0.66887403 5:0 6:0 7:0 8:0.63797402 9:0.69308102 10:0.59008199 11:0.62965798 12:0.85489798 13:0.54650199 14:0.51370102 15:0.52888101 16:0.42105299 17:0.53608501 18:0.79591799 19:0.796179 20:0 21:0 22:0 23:0.68956798 24:0.386325 25:0.54640198 26:0.67710298 27:0.88828301 28:0.69208199 29:0.64851999 30:0.65398699 31:0.55000001 32:0.62662899 33:0.29464301 34:0.327575 35:0 36:0 37:0 38:0.35095999 39:0.46487799 40:0.43389201 41:0.70585102 42:0.90033001 43:0.71530902 44:0.58573598 45:0.62322599 #docid = 50120
0.30863900807767564 1:0.5 2:0.557886 3:0.60000002 4:0.63376099 5:0 6:0 7:0 8:0.62741297 9:0.47456899 10:0.58895397 11:0.60729402 12:0.84355301 13:0.50962698 14:0.51256502 15:0.53924799 16:0.36842099 17:0.51846498 18:0.74184901 19:0.74807602 20:0 21:0 22:0 23:0.65855199 24:0.334355 25:0.54803401 26:0.684991 27:0.89160198 28:0.69564998 29:0.65289497 30:0.68680799 31:0.44999999 32:0.57700098 33:0.26470599 34:0.29621801 35:0 36:0 37:0 38:0.32045799 39:0.375765 40:0.417923 41:0.695503 42:0.89610499 43:0.70994198 44:0.57930601 45:0.639094 #docid = 151730
5.89483763997805 1:0 2:0 3:0 4:0 5:0 6:0 7:0 8:0 9:0 10:0 11:0 12:0 13:0 14:0 15:0 16:0.31578901 17:0.47542799 18:0.38999999 19:0.39858001 20:0 21:0 22:0 23:0.422133 24:0.32652301 25:0.710495 26:0.72197598 27:0.90666801 28:0.80958498 29:0.79582202 30:0.80741501 31:0.30000001 32:0.46874499 33:0.107143 34:0.122455 35:0 36:0 37:0 38:0.16080201 39:0.28046 40:0.47388199 41:0.69425899 42:0.89559197 43:0.78441697 44:0.66876 45:0.71918398 #docid = 118408
-3.2100948238770446 1:0 2:0 3:0 4:0 5:0 6:0 7:0 8:0 9:0 10:0 11:0 12:0 13:0 14:0 15:0 16:0.210526 17:0.414772 18:0.309524 19:0.31869501 20:0 21:0 22:0 23:0.348813 24:0.21917599 25:0.730896 26:0.75737798 27:0.92038298 28:0.99251902 29:0.99779302 30:0.93470699 31:0.2 32:0.408941 33:0.075000003 34:0.086363003 35:0 36:0 37:0 38:0.117405 39:0.188504 40:0.45469901 41:0.69265503 42:0.89493001 43:0.95101702 44:0.821648 45:0.82341599 #docid = 261601
1.2389126687342724 1:0.25 2:0.278943 3:0.15000001 4:0.16565201 5:0 6:0 7:0 8:0.176061 9:0.218511 10:0.219594 11:0.2145 12:0.51710403 13:0.082930997 14:0.061987001 15:0.113336 16:0.84210497 17:0.65553898 18:0.50649399 19:0.51224101 20:0 21:0 22:0 23:0.57812101 24:1 25:0.69650799 26:0.70003402 27:0.89782602 28:0.53895098 29:0.57490999 30:0.54663199 31:0.85000002 32:0.66369599 33:0.155488 34:0.175633 35:0 36:0 37:0 38:0.242405 39:0.89865398 40:0.49666399 41:0.68539101 42:0.89191401 43:0.52026999 44:0.48587099 45:0.48382199 #docid = 203145
-1 1:0.25 2:0.278943 3:0.214285 4:0.232081 5:0 6:0 7:0 8:0.29734901 9:0.30691901 10:0.38968399 11:0.35020399 12:0.67087299 13:0.29037699 14:0.216221 15:0.25912699 16:0.157895 17:0.311079 18:0.247879 19:0.25509101 20:0 21:0 22:0 23:0.29358399 24:0.17373 25:0.62464303 26:0.615713 27:0.861054 28:0.76606798 29:0.738249 30:0.685799 31:0.2 32:0.36651 33:0.090908997 34:0.104158 35:0 36:0 37:0 38:0.152557 39:0.210548 40:0.47028601 41:0.67763501 42:0.88865799 43:0.77384698 44:0.650437 45:0.64718801 #docid = 151735
1 1:0.25 2:0.278943 3:0.1875 4:0.20471001 5:0 6:0 7:0 8:0.27048901 9:0.30691901 10:0.38121 11:0.33222601 12:0.65434098 13:0.28216699 14:0.208597 15:0.25192001 16:0.157895 17:0.311079 18:0.340114 19:0.34892899 20:0 21:0 22:0 23:0.345263 24:0.151151 25:0.578637 26:0.59485602 27:0.85118002 28:0.70695001 29:0.66687602 30:0.67599398 31:0.2 32:0.36651 33:0.117646 34:0.134353 35:0 36:0 37:0 38:0.17545 39:0.191384 40:0.446978 41:0.64551699 42:0.87476498 43:0.71964502 44:0.589656 45:0.64003801 #docid = 346136
1 1:0 2:0 3:0 4:0 5:0 6:0 7:0 8:0 9:0 10:0 11:0 12:0 13:0 14:0 15:0 16:0.210526 17:0.37173501 18:0.29999799 19:0.307803 20:0 21:0 22:0 23:0.340453 24:0.224453 25:0.65660298 26:0.65666199 27:0.87950099 28:0.78272802 29:0.75986999 30:0.74680799 31:0.2 32:0.36651 33:0.086956002 34:0.099678002 35:0 36:0 37:0 38:0.136011 39:0.192563 40:0.44545501 41:0.64282501 42:0.87356901 43:0.76657403 44:0.64364803 45:0.66969901 #docid = 50027
1.6621998126640847 1:0 2:0 3:0 4:0 5:0 6:0 7:0 8:0 9:0 10:0 11:0 12:0 13:0 14:0 15:0 16:0.157895 17:0.311079 18:0.30468801 19:0.312953 20:0 21:0 22:0 23:0.356738 24:0.17373 25:0.67868102 26:0.66206002 27:0.88184702 28:0.79486501 29:0.77153599 30:0.73708498 31:0.15000001 32:0.30670601 33:0.084905997 34:0.097461998 35:0 36:0 37:0 38:0.137458 39:0.149222 40:0.45645499 41:0.63948101 42:0.87207699 43:0.774795 44:0.64856398 45:0.65986001 #docid = 153101
-0.51439626779247405 1:1 2:0.83682901 3:0.35294101 4:0.381805 5:0 6:0 7:0 8:0.42214099 9:0.96245402 10:0.58828598 11:0.52680302 12:0.79895198 13:0.60658097 14:0.51188999 15:0.49088499 16:0.105263 17:0.164349 18:0.19897801 19:0.20239399 20:0 21:0 22:0 23:0.266588 24:0.143319 25:0.43737999 26:0.35855901 27:0.70614499 28:0.337666 29:0.222488 30:0.279989 31:0.30000001 32:0.408941 33:0.136363 34:0.15451799 35:0 36:0 37:0 38:0.21483199 39:0.31399801 40:0.475932 41:0.63565898 42:0.87036097 43:0.59466702 44:0.47301 45:0.52181602 #docid = 136958
4.8349750626598471 1:0 2:0 3:0 4:0 5:0 6:0 7:0 8:0 9:0 10:0 11:0 12:0 13:0 14:0 15:0 16:0.157895 17:0.311079 18:0.26590699 19:0.27348101 20:0 21:0 22:0 23:0.31378099 24:0.17373 25:0.64282 26:0.631796 27:0.86844099 28:0.77618802 29:0.74957198 30:0.71741003 31:0.15000001 32:0.30670601 33:0.078947999 34:0.090682 35:0 36:0 37:0 38:0.1283 39:0.149222 40:0.44210401 41:0.62412798 42:0.86512399 43:0.76414198 44:0.63776302 45:0.64714599 #docid = 265483
1 1:0.25 2:0.278943 3:0.15000001 4:0.16565201 5:0 6:0 7:0 8:0.176061 9:0.218511 10:0.219594 11:0.2145 12:0.51710403 13:0.082930997 14:0.061987001 15:0.113336 16:0.36842099 17:0.47542799 18:0.344697 19:0.350968 20:0 21:0 22:0 23:0.36351299 24:0.376623 25:0.62940001 26:0.63046902 27:0.86783898 28:0.75388902 29:0.74132103 30:0.71131802 31:0.40000001 32:0.49148101 33:0.110091 34:0.124876 35:0 36:0 37:0 38:0.156725 39:0.365926 40:0.42958599 41:0.62054098 42:0.86347502 43:0.73664403 44:0.63018602 45:0.63408101 #docid = 165939
-2.3233321096187893 1:0 2:0 3:0 4:0 5:0 6:0 7:0 8:0 9:0 10:0 11:0 12:0 13:0 14:0 15:0 16:0.26315799 17:0.47542799 18:0.264947 19:0.27288899 20:0 21:0 22:0 23:0.25403801 24:0.230019 25:0.54595101 26:0.62517601 27:0.86542302 28:0.86415899 29:0.83776897 30:0.813784 31:0.25 32:0.46874499 33:0.078124002 34:0.089869998 35:0 36:0 37:0 38:0.10304 39:0.197577 40:0.36709699 41:0.62005299 42:0.863249 43:0.85116398 44:0.71463197 45:0.73865998 #docid = 334586
-1 1:0.25 2:0.278943 3:0.30000001 4:0.316881 5:0 6:0 7:0 8:0.29666901 9:0.218511 10:0.262667 11:0.27958199 12:0.60022497 13:0.124004 14:0.101461 15:0.150649 16:0.210526 17:0.37173501 18:0.22413801 19:0.23063 20:0 21:0 22:0 23:0.258349 24:0.224453 25:0.58096898 26:0.58677602 27:0.84726202 28:0.73534298 29:0.71285099 30:0.69914401 31:0.25 32:0.408941 33:0.081522003 34:0.093350001 35:0 36:0 37:0 38:0.124704 39:0.23590399 40:0.414846 41:0.61067402 42:0.85888797 43:0.73601002 44:0.62100601 45:0.64806002 #docid = 122322
-3.5141205497889132 1:0.5 2:0.557886 3:0.49999899 4:0.53583598 5:0 6:0 7:0 8:0.55225599 9:0.47456899 10:0.56603998 11:0.57255 12:0.82507402 13:0.501122 14:0.49176899 15:0.51959097 16:0.94736803 17:0.68892097 18:0.68023401 19:0.68240303 20:0 21:0 22:0 23:0.63170499 24:0.91863102 25:0.53036702 26:0.61554998 27:0.86097801 28:0.48658299 29:0.48906901 30:0.49695 31:1 32:0.70735198 33:0.222222 34:0.24839599 35:0 36:0 37:0 38:0.28266701 39:0.87897098 40:0.389236 41:0.61030102 42:0.85871398 43:0.48330799 44:0.42236799 45:0.45421299 #docid = 53810
5.6588499819998219 1:0 2:0 3:0 4:0 5:0 6:0 7:0 8:0 9:0 10:0 11:0 12:0 13:0 14:0 15:0 16:0.210526 17:0.414772 18:0.240742 19:0.24830601 20:0 21:0 22:0 23:0.25269401 24:0.201875 25:0.56406897 26:0.62634099 27:0.86595702 28:0.85575098 29:0.82943398 30:0.79814899 31:0.2 32:0.408941 33:0.068181999 34:0.078555003 35:0 36:0 37:0 38:0.098585002 39:0.1734 40:0.37333301 41:0.61007398 42:0.85860699 43:0.83572102 44:0.69921601 45:0.71421701 #docid = 272034
3.6876500484093953 1:0.5 2:0.557886 3:0.30000001 4:0.331303 5:0 6:0 7:0 8:0.40551299 9:0.52543098 10:0.58665001 11:0.51579201 12:0.79232597 13:0.57330298 14:0.50984198 15:0.53667402 16:0 17:0 18:0 19:0 20:0 21:0 22:0 23:0 24:0 25:0 26:0 27:0 28:0 29:0 30:0 31:0.1 32:0.20446999 33:0.30000001 34:0.331303 35:0 36:0 37:0 38:0.41502801 39:0.104666 40:0.60071701 41:0.60981297 42:0.85848498 43:0.67682701 44:0.55129802 45:0.60851502 #docid = 309972
-2.162334286621626 1:0.5 2:0.557886 3:0.75 4:0.77565998 5:0 6:0 7:0 8:0.72801697 9:0.47456899 10:0.61706001 11:0.64652598 12:0.86319 13:0.51828903 14:0.53802401 15:0.56331301 16:0.31578901 17:0.414772 18:0.731251 19:0.73176998 20:0 21:0 22:0 23:0.67162699 24:0.30621001 25:0.54451197 26:0.58979303 27:0.84873098 28:0.57367003 29:0.49686399 30:0.53732699 31:0.40000001 32:0.47476599 33:0.27272701 34:0.302457 35:0 36:0 37:0 38:0.33545199 39:0.35158801 40:0.42086801 41:0.60253 42:0.85504699 43:0.58730298 44:0.44269699 45:0.50148898 #docid = 124242
0.15204905679702563 1:0.25 2:0.278943 3:0.30000001 4:0.316881 5:0 6:0 7:0 8:0.372587 9:0.30691901 10:0.411046 11:0.39270601 12:0.70680398 13:0.307237 14:0.23543601 15:0.27728999 16:0.31578901 17:0.40511701 18:0.30789599 19:0.31406099 20:0 21:0 22:0 23:0.38005099 24:0.38808501 25:0.594652 26:0.59076798 27:0.84920502 28:0.53833699 29:0.515818 30:0.528534 31:0.34999999 32:0.42631301 33:0.105 34:0.119217 35:0 36:0 37:0 38:0.17686 39:0.39330801 40:0.431171 41:0.59627402 42:0.85206097 43:0.52774698 44:0.437121 45:0.47708401 #docid = 219953
-1 1:0.25 2:0.278943 3:0.1875 4:0.20471001 5:0 6:0 7:0 8:0.27048901 9:0.30691901 10:0.38121 11:0.33222601 12:0.65434098 13:0.28216699 14:0.208597 15:0.25192001 16:0.42105299 17:0.455452 18:0.33913001 19:0.344533 20:0 21:0 22:0 23:0.41773099 24:0.53140402 25:0.60193598 26:0.60120797 27:0.85422301 28:0.52165103 29:0.51712698 30:0.46044201 31:0.44999999 32:0.46874499 33:0.109756 34:0.124233 35:0 36:0 37:0 38:0.18480299 39:0.51595801 40:0.430545 41:0.59571397 42:0.85179198 43:0.50353599 44:0.433337 45:0.40374601 #docid = 25825
-0.42023359353345313 1:0.5 2:0.557886 3:0.60000002 4:0.63376099 5:0 6:0 7:0 8:0.62741297 9:0.47456899 10:0.58895397 11:0.60729402 12:0.84355301 13:0.50962698 14:0.51256502 15:0.53924799 16:0.31578901 17:0.414772 18:0.66477501 19:0.66739202 20:0 21:0 22:0 23:0.61944097 24:0.30621001 25:0.52588803 26:0.58174402 27:0.84479398 28:0.56189901 29:0.48659101 30:0.52890402 31:0.40000001 32:0.47476599 33:0.24489699 34:0.27277201 35:0 36:0 37:0 38:0.30678001 39:0.35158801 40:0.40416801 41:0.59521002 42:0.85154998 43:0.57281202 44:0.43201199 45:0.489512 #docid = 343277
-2 1:0.5 2:0.557886 3:0.214285 4:0.239824 5:0 6:0 7:0 8:0.309892 9:0.52543098 10:0.54472703 11:0.43481699 12:0.73875701 13:0.54283798 14:0.47150701 15:0.50043797 16:0 17:0 18:0 19:0 20:0 21:0 22:0 23:0 24:0 25:0 26:0 27:0 28:0 29:0 30:0 31:0.1 32:0.20446999 33:0.214285 34:0.239824 35:0 36:0 37:0 38:0.316248 39:0.104666 40:0.54666603 41:0.59008002 42:0.84907299 43:0.65878099 44:0.51788098 45:0.57935899 #docid = 272646
0.22888844212863546 1:0.5 2:0.557886 3:0.25 4:0.27823299 5:0 6:0 7:0 8:0.32445601 9:0.47456899 10:0.479525 11:0.42623901 12:0.73250598 13:0.453076 14:0.41277799 15:0.444924 16:0.47368401 17:0.50880998 18:0.51617497 19:0.521828 20:0 21:0 22:0 23:0.49651599 24:0.45900401 25:0.47608799 26:0.57036698 27:0.839136 28:0.499892 29:0.45866001 30:0.45762399 31:0.55000001 32:0.55128503 33:0.170103 34:0.19167 35:0 36:0 37:0 38:0.22407 39:0.48282599 40:0.34817201 41:0.57381397 42:0.84107602 43:0.491532 44:0.39543399 45:0.41603801 #docid = 151724
-8 1:0.75 2:0.721057 3:0.5625 4:0.59254098 5:0 6:0 7:0 8:0.58210897 9:0.69308102 10:0.573273 11:0.60273701 12:0.84119099 13:0.538293 14:0.498467 15:0.51893002 16:0 17:0 18:0 19:0 20:0 21:0 22:0 23:0 24:0 25:0 26:0 27:0 28:0 29:0 30:0 31:0.15000001 32:0.264274 33:0.5625 34:0.59254098 35:0 36:0 37:0 38:0.57392502 39:0.131238 40:0.52707499 41:0.56304002 42:0.83565199 43:0.62565202 44:0.50874102 45:0.56579202 #docid = 198990
1 1:0.25 2:0.278943 3:0.107143 4:0.119912 5:0 6:0 7:0 8:0.133367 9:0.218511 10:0.198993 11:0.18082599 12:0.463534 13:0.052466001 14:0.042862002 15:0.095257998 16:0.210526 17:0.37173501 18:0.19499999 19:0.200866 20:0 21:0 22:0 23:0.226136 24:0.224453 25:0.54623699 26:0.55220002 27:0.829862 28:0.71080297 29:0.690409 30:0.67394501 31:0.25 32:0.408941 33:0.065789998 34:0.075505003 35:0 36:0 37:0 38:0.101766 39:0.23590399 40:0.374075 41:0.56094098 42:0.834584 43:0.69573301 44:0.58920199 45:0.60720599 #docid = 107438
0.33725230804165207 1:0.5 2:0.557886 3:0.49999899 4:0.53583598 5:0 6:0 7:0 8:0.55225599 9:0.47456899 10:0.56603998 11:0.57255 12:0.82507402 13:0.501122 14:0.49176899 15:0.51959097 16:0.105263 17:0.207386 18:0.51315802 19:0.51901001 20:0 21:0 22:0 23:0.49480301 24:0.10207 25:0.47609401 26:0.485241 27:0.79282701 28:0.54674202 29:0.45869699 30:0.50225002 31:0.2 32:0.32407799 33:0.23999999 34:0.26752099 35:0 36:0 37:0 38:0.301631 39:0.17579401 40:0.401052 41:0.55946499 42:0.83383 43:0.58596802 44:0.43000701 45:0.49909401 #docid = 53782
-1 1:0.25 2:0.278943 3:0.124999 4:0.139117 5:0 6:0 7:0 8:0.151731 9:0.218511 10:0.208399 11:0.196229 12:0.48917699 13:0.067451999 14:0.051619999 15:0.103536 16:0.210526 17:0.37173501 18:0.18571299 19:0.19137 20:0 21:0 22:0 23:0.21578901 24:0.224453 25:0.53430003 26:0.539985 27:0.82345301 28:0.70192701 29:0.68255001 30:0.65719903 31:0.25 32:0.408941 33:0.064102001 34:0.073586002 35:0 36:0 37:0 38:0.099275999 39:0.23590399 40:0.369275 41:0.55482 42:0.83144403 43:0.69066399 44:0.585352 45:0.59319597 #docid = 269491
-1 1:0.25 2:0.278943 3:0.25 4:0.267919 5:0 6:0 7:0 8:0.26048401 9:0.218511 10:0.25127399 11:0.263587 12:0.58174503 13:0.115498 14:0.091069996 15:0.140827 16:0.210526 17:0.37173501 18:0.367926 19:0.376537 20:0 21:0 22:0 23:0.33365199 24:0.18093801 25:0.38148701 26:0.540685 27:0.82382399 28:0.60891002 29:0.54938298 30:0.59342802 31:0.25 32:0.408941 33:0.127119 34:0.144623 35:0 36:0 37:0 38:0.15865301 39:0.19875599 40:0.275819 41:0.55101001 42:0.82947302 43:0.61080498 44:0.47501799 45:0.54474902 #docid = 168064
-3.8899900688877977 1:0.75 2:0.721057 3:0.375 4:0.40703499 5:0 6:0 7:0 8:0.433209 9:0.69308102 10:0.52240098 11:0.51520801 12:0.79197103 13:0.50681198 14:0.45222899 15:0.48525599 16:0 17:0 18:0 19:0 20:0 21:0 22:0 23:0 24:0 25:0 26:0 27:0 28:0 29:0 30:0 31:0.15000001 32:0.264274 33:0.375 34:0.40703499 35:0 36:0 37:0 38:0.424472 39:0.131238 40:0.46185601 41:0.548549 42:0.828192 43:0.60700297 44:0.46847001 45:0.53872198 #docid = 121594
-20.873778399831963 1:0.5 2:0.557886 3:1 4:1 5:0 6:0 7:0 8:0.87116402 9:0.47456899 10:0.65337598 11:0.69117802 12:0.884139 13:0.52711201 14:0.57085502 15:0.59434801 16:0 17:0 18:0 19:0 20:0 21:0 22:0 23:0 24:0 25:0 26:0 27:0 28:0 29:0 30:0 31:0.1 32:0.20446999 33:1 34:1 35:0 36:0 37:0 38:0.86337501 39:0.087897003 40:0.63140398 41:0.54382801 42:0.825719 43:0.61870497 44:0.57175499 45:0.62636298 #docid = 153800
-2 1:0 2:0 3:0 4:0 5:0 6:0 7:0 8:0 9:0 10:0 11:0 12:0 13:0 14:0 15:0 16:0.52631599 17:0.53608501 18:0.402895 19:0.409711 20:0 21:0 22:0 23:0.39875999 24:0.510351 25:0.43078199 26:0.54538298 27:0.82630301 28:0.44595999 29:0.432641 30:0.45535001 31:0.5 32:0.52854902 33:0.120967 34:0.137412 35:0 36:0 37:0 38:0.16557699 39:0.43948501 40:0.29963201 41:0.53637898 42:0.82177299 43:0.43589401 44:0.36204401 45:0.404672 #docid = 53397
-9.0348445143208878 1:0.5 2:0.557886 3:0.60000002 4:0.63376099 5:0 6:0 7:0 8:0.62741297 9:0.47456899 10:0.58895397 11:0.60729402 12:0.84355301 13:0.50962698 14:0.51256502 15:0.53924799 16:0 17:0 18:0 19:0 20:0 21:0 22:0 23:0 24:0 25:0 26:0 27:0 28:0 29:0 30:0 31:0.1 32:0.20446999 33:0.60000002 34:0.63376099 35:0 36:0 37:0 38:0.61454397 39:0.087897003 40:0.54713202 41:0.534338 42:0.82068199 43:0.60834801 44:0.52100199 45:0.58208197 #docid = 343278
4.1097217165243158 1:0.5 2:0.557886 3:0.60000002 4:0.63376099 5:0 6:0 7:0 8:0.62741297 9:0.47456899 10:0.58895397 11:0.60729402 12:0.84355301 13:0.50962698 14:0.51256502 15:0.53924799 16:0 17:0 18:0 19:0 20:0 21:0 22:0 23:0 24:0 25:0 26:0 27:0 28:0 29:0 30:0 31:0.1 32:0.20446999 33:0.60000002 34:0.63376099 35:0 36:0 37:0 38:0.61454397 39:0.087897003 40:0.54713202 41:0.534338 42:0.82068199 43:0.60834801 44:0.52100199 45:0.58208197 #docid = 307079
7.666151352255131 1:0 2:0 3:0 4:0 5:0 6:0 7:0 8:0 9:0 10:0 11:0 12:0 13:0 14:0 15:0 16:0.78947401 17:0.63977802 18:0.37308899 19:0.37993199 20:0 21:0 22:0 23:0.371701 24:0.76521403 25:0.41627201 26:0.54262698 27:0.82485098 28:0.383874 29:0.42412499 30:0.45466599 31:0.75 32:0.63078398 33:0.110293 34:0.125493 35:0 36:0 37:0 38:0.152061 39:0.65862 40:0.28622499 41:0.53245097 42:0.81967002 43:0.367668 44:0.35266599 45:0.399964 #docid = 345611
-14 1:0.5 2:0.557886 3:0.49999899 4:0.53583598 5:0 6:0 7:0 8:0.55225599 9:0.47456899 10:0.56603998 11:0.57255 12:0.82507402 13:0.501122 14:0.49176899 15:0.51959097 16:0 17:0 18:0 19:0 20:0 21:0 22:0 23:0 24:0 25:0 26:0 27:0 28:0 29:0 30:0 31:0.1 32:0.20446999 33:0.49999899 34:0.53583598 35:0 36:0 37:0 38:0.53872102 39:0.087897003 40:0.51743698 41:0.52971601 42:0.818196 43:0.60330898 44:0.50288999 45:0.56628001 #docid = 267139
-3.9004093384143488 1:0.5 2:0.557886 3:0.49999899 4:0.53583598 5:0 6:0 7:0 8:0.55225599 9:0.47456899 10:0.56603998 11:0.57255 12:0.82507402 13:0.501122 14:0.49176899 15:0.51959097 16:0 17:0 18:0 19:0 20:0 21:0 22:0 23:0 24:0 25:0 26:0 27:0 28:0 29:0 30:0 31:0.1 32:0.20446999 33:0.49999899 34:0.53583598 35:0 36:0 37:0 38:0.53872102 39:0.087897003 40:0.51743698 41:0.52971601 42:0.818196 43:0.60330898 44:0.50288999 45:0.56628001 #docid = 271751
-2.6313068379342432 1:0.5 2:0.557886 3:0.42857099 4:0.46416399 5:0 6:0 7:0 8:0.49371901 9:0.47456899 10:0.546709 11:0.54156703 12:0.80762303 13:0.49276701 14:0.47419101 15:0.50297499 16:0 17:0 18:0 19:0 20:0 21:0 22:0 23:0 24:0 25:0 26:0 27:0 28:0 29:0 30:0 31:0.1 32:0.20446999 33:0.42857099 34:0.46416399 35:0 36:0 37:0 38:0.480005 39:0.087897003 40:0.492533 41:0.52517402 42:0.815732 43:0.59836 44:0.48757899 45:0.552921 #docid = 271923
3.6614774647003898 1:0.75 2:0.83682901 3:0.40909001 4:0.45368499 5:0 6:0 7:0 8:0.56155401 9:0.78148901 10:0.85133302 11:0.73308802 12:0.902605 13:0.95112503 14:0.86510003 15:0.87248498 16:0.210526 17:0.37173501 18:0.088238001 19:0.091257997 20:0 21:0 22:0 23:0.104695 24:0.224453 25:0.36884201 26:0.35780501 27:0.70554203 28:0.55069 29:0.56298602 30:0.526627 31:0.34999999 32:0.52854902 33:0.045258 34:0.052168999 35:0 36:0 37:0 38:0.073853999 39:0.34178501 40:0.33237699 41:0.52403301 42:0.81511003 43:0.60864502 44:0.55242002 45:0.57370901 #docid = 268155
-1 1:0.5 2:0.557886 3:0.375 4:0.409421 5:0 6:0 7:0 8:0.44671401 9:0.47456899 10:0.52999997 11:0.51376498 12:0.79109102 13:0.484557 14:0.458969 15:0.48858699 16:0 17:0 18:0 19:0 20:0 21:0 22:0 23:0 24:0 25:0 26:0 27:0 28:0 29:0 30:0 31:0.1 32:0.20446999 33:0.375 34:0.409421 35:0 36:0 37:0 38:0.43308699 39:0.087897003 40:0.47113299 41:0.52070802 42:0.81328899 43:0.59349698 44:0.47431701 45:0.54135102 #docid = 343646
2 1:0 2:0 3:0 4:0 5:0 6:0 7:0 8:0 9:0 10:0 11:0 12:0 13:0 14:0 15:0 16:0.210526 17:0.37173501 18:0.16810501 19:0.17333899 20:0 21:0 22:0 23:0.19605599 24:0.224453 25:0.51030999 26:0.51495999 27:0.80985802 28:0.68336701 29:0.66650802 30:0.64186299 31:0.2 32:0.36651 33:0.049180001 34:0.056637 35:0 36:0 37:0 38:0.078846999 39:0.192563 40:0.33834699 41:0.509754 42:0.80720502 43:0.66356802 44:0.55912697 45:0.56921703 #docid = 272273
3 1:0 2:0 3:0 4:0 5:0 6:0 7:0 8:0 9:0 10:0 11:0 12:0 13:0 14:0 15:0 16:0.105263 17:0.207386 18:0.31451601 19:0.32124501 20:0 21:0 22:0 23:0.374697 24:0.122383 25:0.60316497 26:0.52779502 27:0.81691098 28:0.60226703 29:0.52438998 30:0.54763299 31:0.1 32:0.20446999 33:0.083333999 34:0.095241003 35:0 36:0 37:0 38:0.137861 39:0.104666 40:0.40219501 41:0.50092697 42:0.80220801 43:0.57616198 44:0.42415601 45:0.46004 #docid = 219015
1 1:0 2:0 3:0 4:0 5:0 6:0 7:0 8:0 9:0 10:0 11:0 12:0 13:0 14:0 15:0 16:0.42105299 17:0.48153499 18:0.28676701 19:0.29330799 20:0 21:0 22:0 23:0.29210299 24:0.40827999 25:0.36956599 26:0.493604 27:0.797723 28:0.40308499 29:0.396043 30:0.409174 31:0.40000001 32:0.47476599 33:0.082758002 34:0.094591998 35:0 36:0 37:0 38:0.116739 39:0.35158801 40:0.24806701 41:0.48263201 42:0.79156202 43:0.38326001 44:0.32443899 45:0.353542 #docid = 236946
2.0886242709031966 1:0 2:0 3:0 4:0 5:0 6:0 7:0 8:0 9:0 10:0 11:0 12:0 13:0 14:0 15:0 16:0.36842099 17:0.47542799 18:0.29166701 19:0.29782599 20:0 21:0 22:0 23:0.27440301 24:0.33310801 25:0.32215801 26:0.47783899 27:0.788423 28:0.51936698 29:0.47397 30:0.49128899 31:0.34999999 32:0.46874499 33:0.084678002 34:0.096625999 35:0 36:0 37:0 38:0.109873 39:0.285438 40:0.211909 41:0.468292 42:0.78293198 43:0.50378901 44:0.392914 45:0.42998299 #docid = 265925
1.9997176342769762 1:0 2:0 3:0 4:0 5:0 6:0 7:0 8:0 9:0 10:0 11:0 12:0 13:0 14:0 15:0 16:0.31578901 17:0.414772 18:0.270836 19:0.277235 20:0 21:0 22:0 23:0.276995 24:0.30621001 25:0.35960299 26:0.477485 27:0.78821099 28:0.42132601 29:0.38989499 30:0.39046401 31:0.30000001 32:0.408941 33:0.077586003 34:0.088756002 35:0 36:0 37:0 38:0.109902 39:0.26369101 40:0.239713 41:0.46601501 42:0.78153801 43:0.401512 44:0.31805101 45:0.328825 #docid = 270798
-11.731934935502849 1:1 2:0.88422799 3:0.49999899 4:0.53583598 5:0 6:0 7:0 8:0.55225599 9:0.949139 10:0.56603998 11:0.61949402 12:0.84979302 13:0.56105101 14:0.49176899 15:0.52391797 16:0.105263 17:0.207386 18:0.093750998 19:0.096827999 20:0 21:0 22:0 23:0.100492 24:0.10207 25:0.19758099 26:0.28118899 27:0.63650602 28:0.32941401 29:0.27607501 30:0.304129 31:0.30000001 32:0.408941 33:0.077586003 34:0.088756002 35:0 36:0 37:0 38:0.109902 39:0.26369101 40:0.239713 41:0.46601501 42:0.78153801 43:0.401512 44:0.31805101 45:0.38246199 #docid = 269013
-2.7536877960258117 1:0.5 2:0.557886 3:0.75 4:0.77565998 5:0 6:0 7:0 8:0.72801697 9:0.47456899 10:0.61706001 11:0.64652598 12:0.86319 13:0.51828903 14:0.53802401 15:0.56331301 16:0.105263 17:0.207386 18:0.121875 19:0.125696 20:0 21:0 22:0 23:0.129638 24:0.10207 25:0.233043 26:0.319074 27:0.672719 28:0.37527499 29:0.304153 30:0.30877101 31:0.2 32:0.32407799 33:0.071428001 34:0.081793003 35:0 36:0 37:0 38:0.10169 39:0.17579401 40:0.229201 41:0.44069901 42:0.76555699 43:0.42368701 44:0.30986899 45:0.35292301 #docid = 170642
2 1:0 2:0 3:0 4:0 5:0 6:0 7:0 8:0 9:0 10:0 11:0 12:0 13:0 14:0 15:0 16:0.210526 17:0.37173501 18:0.11818 19:0.122094 20:0 21:0 22:0 23:0.13931701 24:0.224453 25:0.42989701 26:0.42716199 27:0.75630301 28:0.613352 29:0.60985303 30:0.59319001 31:0.2 32:0.36651 33:0.034883998 34:0.040243998 35:0 36:0 37:0 38:0.056467999 39:0.192563 40:0.28134099 41:0.427068 42:0.756567 43:0.59221298 44:0.50834101 45:0.52750599 #docid = 242821
1 1:0 2:0 3:0 4:0 5:0 6:0 7:0 8:0 9:0 10:0 11:0 12:0 13:0 14:0 15:0 16:0.157895 17:0.311079 18:0.102273 19:0.105768 20:0 21:0 22:0 23:0.124888 24:0.17373 25:0.41720301 26:0.40122601 27:0.73835701 28:0.61140698 29:0.59580499 30:0.55623001 31:0.15000001 32:0.30670601 33:0.029412 34:0.033968002 35:0 36:0 37:0 38:0.049385998 39:0.149222 40:0.27129701 41:0.395973 42:0.73493701 43:0.58507597 44:0.49166399 45:0.48086399 #docid = 233455
-2 1:0.5 2:0.557886 3:0.27272701 4:0.302457 5:0 6:0 7:0 8:0.34817201 9:0.47456899 10:0.49031901 11:0.4452 12:0.746158 13:0.46075201 14:0.42268601 15:0.433676 16:0 17:0 18:0 19:0 20:0 21:0 22:0 23:0 24:0 25:0 26:0 27:0 28:0 29:0 30:0 31:0.1 32:0.20446999 33:0.058823999 34:0.067497998 35:0 36:0 37:0 38:0.084622003 39:0.087897003 40:0.20541801 41:0.38130099 42:0.72413403 43:0.43839499 44:0.29066899 45:0.34735799 #docid = 345178
4.6241824471758681 1:0.25 2:0.278943 3:0.49999899 4:0.5 5:0 6:0 7:0 8:0.50621402 9:0.30691901 10:0.44349799 11:0.44694999 12:0.74738902 13:0.32472199 14:0.264608 15:0.30486599 16:0 17:0 18:0 19:0 20:0 21:0 22:0 23:0 24:0 25:0 26:0 27:0 28:0 29:0 30:0 31:0.050000001 32:0.102235 33:0.49999899 34:0.5 35:0 36:0 37:0 38:0.52642798 39:0.061324999 40:0.49623799 41:0.37958401 42:0.72284299 43:0.475871 44:0.28009999 45:0.37189999 #docid = 267667
1.5141205497889132 1:0.25 2:0.278943 3:0.375 4:0.387831 5:0 6:0 7:0 8:0.428229 9:0.30691901 10:0.425219 11:0.41807601 12:0.72644001 13:0.315898 14:0.248179 15:0.28933501 16:0 17:0 18:0 19:0 20:0 21:0 22:0 23:0 24:0 25:0 26:0 27:0 28:0 29:0 30:0 31:0.050000001 32:0.102235 33:0.375 34:0.387831 35:0 36:0 37:0 38:0.44403699 39:0.061324999 40:0.47180301 41:0.376243 42:0.72031301 43:0.470644 44:0.26580301 45:0.35942599 #docid = 217954
-1.5065665259670808 1:0.25 2:0.278943 3:0.375 4:0.387831 5:0 6:0 7:0 8:0.428229 9:0.30691901 10:0.425219 11:0.41807601 12:0.72644001 13:0.315898 14:0.248179 15:0.28933501 16:0 17:0 18:0 19:0 20:0 21:0 22:0 23:0 24:0 25:0 26:0 27:0 28:0 29:0 30:0 31:0.050000001 32:0.102235 33:0.375 34:0.387831 35:0 36:0 37:0 38:0.44403699 39:0.061324999 40:0.47180301 41:0.376243 42:0.72031301 43:0.470644 44:0.26580301 45:0.35942599 #docid = 268953
1.232796333437074 1:0.25 2:0.278943 3:0.30000001 4:0.316881 5:0 6:0 7:0 8:0.372587 9:0.30691901 10:0.411046 11:0.39270601 12:0.70680398 13:0.307237 14:0.23543601 15:0.27728999 16:0 17:0 18:0 19:0 20:0 21:0 22:0 23:0 24:0 25:0 26:0 27:0 28:0 29:0 30:0 31:0.050000001 32:0.102235 33:0.30000001 34:0.316881 35:0 36:0 37:0 38:0.385456 39:0.061324999 40:0.45286801 41:0.37296 42:0.71780598 43:0.465514 44:0.25471401 45:0.349751 #docid = 336911
0.89707175457317589 1:0.25 2:0.278943 3:0.25 4:0.267919 5:0 6:0 7:0 8:0.33048999 9:0.30691901 10:0.39946899 11:0.37023899 12:0.68832397 13:0.298731 14:0.225024 15:0.26744801 16:0 17:0 18:0 19:0 20:0 21:0 22:0 23:0 24:0 25:0 26:0 27:0 28:0 29:0 30:0 31:0.050000001 32:0.102235 33:0.25 34:0.267919 35:0 36:0 37:0 38:0.34126601 39:0.061324999 40:0.43741301 41:0.36973399 42:0.71531999 43:0.460475 44:0.245653 45:0.34184501 #docid = 303693
-0.90222567549790256 1:0.25 2:0.278943 3:0.25 4:0.267919 5:0 6:0 7:0 8:0.33048999 9:0.30691901 10:0.39946899 11:0.37023899 12:0.68832397 13:0.298731 14:0.225024 15:0.26744801 16:0 17:0 18:0 19:0 20:0 21:0 22:0 23:0 24:0 25:0 26:0 27:0 28:0 29:0 30:0 31:0.050000001 32:0.102235 33:0.25 34:0.267919 35:0 36:0 37:0 38:0.34126601 39:0.061324999 40:0.43741301 41:0.36973399 42:0.71531999 43:0.460475 44:0.245653 45:0.34184501 #docid = 175829
1 1:0 2:0 3:0 4:0 5:0 6:0 7:0 8:0 9:0 10:0 11:0 12:0 13:0 14:0 15:0 16:0.157895 17:0.268042 18:0.17620701 19:0.181054 20:0 21:0 22:0 23:0.18348201 24:0.15279301 25:0.28115201 26:0.377985 27:0.72126102 28:0.40026399 29:0.33740199 30:0.381432 31:0.15000001 32:0.264274 33:0.049998999 34:0.057404999 35:0 36:0 37:0 38:0.071847998 39:0.131238 40:0.180326 41:0.368229 42:0.71415299 43:0.37924701 44:0.26880801 45:0.32295299 #docid = 268116
0.4465370043707253 1:0.25 2:0.278943 3:0.214285 4:0.232081 5:0 6:0 7:0 8:0.29734901 9:0.30691901 10:0.38968399 11:0.35020399 12:0.67087299 13:0.29037699 14:0.216221 15:0.25912699 16:0 17:0 18:0 19:0 20:0 21:0 22:0 23:0 24:0 25:0 26:0 27:0 28:0 29:0 30:0 31:0.050000001 32:0.102235 33:0.214285 34:0.232081 35:0 36:0 37:0 38:0.306566 39:0.061324999 40:0.42435899 41:0.36656299 42:0.71285599 43:0.45552599 44:0.237993 45:0.33516201 #docid = 340179
1 1:0 2:0 3:0 4:0 5:0 6:0 7:0 8:0 9:0 10:0 11:0 12:0 13:0 14:0 15:0 16:0.105263 17:0.207386 18:0.117468 19:0.121178 20:0 21:0 22:0 23:0.148892 24:0.122383 25:0.42365399 26:0.37627399 27:0.719962 28:0.46802899 29:0.41839501 30:0.42710799 31:0.1 32:0.20446999 33:0.031915002 34:0.036784001 35:0 36:0 37:0 38:0.055590998 39:0.104666 40:0.27295101 41:0.358235 42:0.70628101 43:0.432024 44:0.32915899 45:0.35319501 #docid = 133082
1 1:0 2:0 3:0 4:0 5:0 6:0 7:0 8:0 9:0 10:0 11:0 12:0 13:0 14:0 15:0 16:0.105263 17:0.207386 18:0.062501997 19:0.064657003 20:0 21:0 22:0 23:0.080698997 24:0.122383 25:0.32283899 26:0.26818901 27:0.622944 28:0.349592 29:0.350703 30:0.31561199 31:0.1 32:0.20446999 33:0.018518999 34:0.021392001 35:0 36:0 37:0 38:0.032719001 39:0.104666 40:0.210559 41:0.26854801 42:0.623833 43:0.32387301 44:0.275527 45:0.25558001 #docid = 340805
1 1:0 2:0 3:0 4:0 5:0 6:0 7:0 8:0 9:0 10:0 11:0 12:0 13:0 14:0 15:0 16:0.052632 17:0.103693 18:0.075002 19:0.077238999 20:0 21:0 22:0 23:0.078708 24:0.050723001 25:0.129502 26:0.17313799 27:0.49757001 28:0.16429301 29:0.048457 30:0.108572 31:0.050000001 32:0.102235 33:0.019479999 34:0.022426 35:0 36:0 37:0 38:0.028117999 39:0.043341 40:0.072273999 41:0.161808 42:0.478879 43:0.12526999 44:0.0057219998 45:0.067193002 #docid = 178419
1 1:0 2:0 3:0 4:0 5:0 6:0 7:0 8:0 9:0 10:0 11:0 12:0 13:0 14:0 15:0 16:0 17:0 18:0 19:0 20:0 21:0 22:0 23:0 24:0 25:0 26:0 27:0 28:0 29:0 30:0 31:0 32:0 33:0 34:0 35:0 36:0 37:0 38:0 39:0 40:0 41:0 42:0 43:0 44:0 45:0 #docid = 307774
-1.5187957989813903 1:0 2:0 3:0 4:0 5:0 6:0 7:0 8:0 9:0 10:0 11:0 12:0 13:0 14:0 15:0 16:0 17:0 18:0 19:0 20:0 21:0 22:0 23:0 24:0 25:0 26:0 27:0 28:0 29:0 30:0 31:0 32:0 33:0 34:0 35:0 36:0 37:0 38:0 39:0 40:0 41:0 42:0 43:0 44:0 45:0 #docid = 227298
1 1:0 2:0 3:0 4:0 5:0 6:0 7:0 8:0 9:0 10:0 11:0 12:0 13:0 14:0 15:0 16:0 17:0 18:0 19:0 20:0 21:0 22:0 23:0 24:0 25:0 26:0 27:0 28:0 29:0 30:0 31:0 32:0 33:0 34:0 35:0 36:0 37:0 38:0 39:0 40:0 41:0 42:0 43:0 44:0 45:0 #docid = 221292
0.51764142340711317 1:0 2:0 3:0 4:0 5:0 6:0 7:0 8:0 9:0 10:0 11:0 12:0 13:0 14:0 15:0 16:0 17:0 18:0 19:0 20:0 21:0 22:0 23:0 24:0 25:0 26:0 27:0 28:0 29:0 30:0 31:0 32:0 33:0 34:0 35:0 36:0 37:0 38:0 39:0 40:0 41:0 42:0 43:0 44:0 45:0 #docid = 298088
0.80964967675602872 1:0 2:0 3:0 4:0 5:0 6:0 7:0 8:0 9:0 10:0 11:0 12:0 13:0 14:0 15:0 16:0 17:0 18:0 19:0 20:0 21:0 22:0 23:0 24:0 25:0 26:0 27:0 28:0 29:0 30:0 31:0 32:0 33:0 34:0 35:0 36:0 37:0 38:0 39:0 40:0 41:0 42:0 43:0 44:0 45:0 #docid = 234398
2.1142657147742305 1:1 2:1 3:1 4:1 5:0 6:0 7:0 8:1 9:0.81764901 10:1 11:1 12:1 13:1 14:1 15:1 16:0.63636398 17:1 18:1 19:1 20:0 21:0 22:0 23:1 24:0.504278 25:1 26:1 27:1 28:1 29:1 30:1 31:0.69230801 32:1 33:0.75 34:0.802773 35:0 36:0 37:0 38:0.82097602 39:0.54304802 40:1 41:1 42:1 43:1 44:1 45:1 #docid = 259118
-0.94434774577577407 1:0 2:0 3:0 4:0 5:0 6:0 7:0 8:0 9:0 10:0 11:0 12:0 13:0 14:0 15:0 16:0.63636398 17:0.88093901 18:0.34351 19:0.34996301 20:0 21:0 22:0 23:0.419664 24:0.58383501 25:0.64569098 26:0.68537301 27:0.87486398 28:0.70505601 29:0.67006302 30:0.66579801 31:0.53846198 32:0.77591997 33:0.20588399 34:0.226302 35:0 36:0 37:0 38:0.287806 39:0.493325 40:0.60965699 41:0.66909301 42:0.86784899 43:0.68255103 44:0.64803499 45:0.64492202 #docid = 130821
0.75671266902004675 1:1 2:0.79248101 3:0.25 4:0.267919 5:0 6:0 7:0 8:0.369248 9:1 10:0.567536 11:0.54828799 12:0.78851199 13:0.55288202 14:0.344491 15:0.34851301 16:0.36363599 17:0.53724402 18:0.734694 19:0.72289199 20:0 21:0 22:0 23:0.817931 24:0.36363599 25:0.779746 26:0.65130502 27:0.85797602 28:0.59299999 29:0.54551399 30:0.54189903 31:0.46153799 32:0.57212502 33:0.51064003 34:0.53841501 35:0 36:0 37:0 38:0.63207197 39:0.46153799 40:0.77784401 41:0.65229303 42:0.859487 43:0.58397597 44:0.544806 45:0.508982 #docid = 90892
-0.057444947138403535 1:0 2:0 3:0 4:0 5:0 6:0 7:0 8:0 9:0 10:0 11:0 12:0 13:0 14:0 15:0 16:0.36363599 17:0.53724402 18:0.160714 19:0.16495401 20:0 21:0 22:0 23:0.22558799 24:0.36363599 25:0.52046001 26:0.483302 27:0.759157 28:0.37641299 29:0.414902 30:0.393475 31:0.30769199 32:0.473198 33:0.093024001 34:0.103028 35:0 36:0 37:0 38:0.149676 39:0.30769199 40:0.48014101 41:0.47035801 42:0.75194597 43:0.356617 44:0.39964801 45:0.38197601 #docid = 165145
1 1:0 2:0 3:0 4:0 5:0 6:0 7:0 8:0 9:0 10:0 11:0 12:0 13:0 14:0 15:0 16:0.18181799 17:0.46275601 18:0.084034003 19:0.087035999 20:0 21:0 22:0 23:0.102934 24:0.14879701 25:0.36362901 26:0.38133201 27:0.68066502 28:0.62065101 29:0.57931101 30:0.53546202 31:0.153846 32:0.40759 33:0.051612001 34:0.057640001 35:0 36:0 37:0 38:0.070937999 39:0.123994 40:0.320189 41:0.382523 42:0.68396699 43:0.59112298 44:0.54879898 45:0.51109201 #docid = 21409
-0.056820767635826996 1:0 2:0 3:0 4:0 5:0 6:0 7:0 8:0 9:0 10:0 11:0 12:0 13:0 14:0 15:0 16:0.18181799 17:0.46275601 18:0.108958 19:0.112749 20:0 21:0 22:0 23:0.115408 24:0.129289 25:0.37312901 26:0.38349101 27:0.68253601 28:0.57994902 29:0.533346 30:0.48998299 31:0.153846 32:0.40759 33:0.062991999 34:0.070294999 35:0 36:0 37:0 38:0.075643003 39:0.108709 40:0.32834899 41:0.37342301 42:0.67604899 43:0.55334097 44:0.50652403 45:0.46459299 #docid = 202891
0.18763507675572733 1:0.5 2:0.5 3:0.30000001 4:0.316881 5:0 6:0 7:0 8:0.416695 9:0.5 10:0.58473599 11:0.53749001 12:0.78151202 13:0.50236601 14:0.36251301 15:0.36251301 16:0 17:0 18:0 19:0 20:0 21:0 22:0 23:0 24:0 25:0 26:0 27:0 28:0 29:0 30:0 31:0.076922998 32:0.203795 33:0.056340002 34:0.062677003 35:0 36:0 37:0 38:0.093346 39:0.076922998 40:0.397439 41:0.34803301 42:0.65289098 43:0.39086601 44:0.35693401 45:0.34347799 #docid = 27514
-1 1:0.5 2:0.5 3:0.375 4:0.387831 5:0 6:0 7:0 8:0.357306 9:0.31764901 10:0.34049001 11:0.36318499 12:0.64355898 13:0.086565003 14:0.104884 15:0.104884 16:0 17:0 18:0 19:0 20:0 21:0 22:0 23:0 24:0 25:0 26:0 27:0 28:0 29:0 30:0 31:0.076922998 32:0.203795 33:1 34:1 35:0 36:0 37:0 38:0.72038001 39:0.047070999 40:0.43508601 41:0.337652 42:0.64293301 43:0.37435901 44:0.37661299 45:0.400796 #docid = 150778
-1 1:0.5 2:0.5 3:0.375 4:0.387831 5:0 6:0 7:0 8:0.357306 9:0.31764901 10:0.34049001 11:0.36318499 12:0.64355898 13:0.086565003 14:0.104884 15:0.104884 16:0 17:0 18:0 19:0 20:0 21:0 22:0 23:0 24:0 25:0 26:0 27:0 28:0 29:0 30:0 31:0.076922998 32:0.203795 33:0.050000001 34:0.055672999 35:0 36:0 37:0 38:0.051794 39:0.047070999 40:0.073705003 41:0.202315 42:0.474489 43:0.16695701 44:0.123215 45:0.13417999 #docid = 150763
-1 1:0 2:0 3:0 4:0 5:0 6:0 7:0 8:0 9:0 10:0 11:0 12:0 13:0 14:0 15:0 16:0.090908997 17:0.231378 18:0.045591 19:0.047208998 20:0 21:0 22:0 23:0.043620002 24:0.057888001 25:0.058568999 26:0.15561999 27:0.383798 28:0.083498001 29:0.087779999 30:0.061441999 31:0.076922998 32:0.203795 33:0.026844 34:0.029975999 35:0 36:0 37:0 38:0.028148999 39:0.047070999 40:0.04324 41:0.14833599 42:0.37242401 43:0.066444002 44:0.072034001 45:0.044689 #docid = 273359
1 1:1 2:0.89624101 3:0.444444 4:0.46940801 5:0 6:0 7:0 8:0.56542897 9:1 10:0.85622901 11:0.76229101 12:0.917934 13:0.97516102 14:0.87789398 15:0.87970698 16:0.82352901 17:1 18:0.85217601 19:0.86064601 20:0 21:0 22:0 23:0.78831899 24:0.681889 25:0.90929699 26:1 27:1 28:1 29:1 30:1 31:0.944444 32:1 33:0.38461599 34:0.40434 35:0 36:0 37:0 38:0.41490799 39:0.80452299 40:0.73561198 41:1 42:1 43:1 44:1 45:1 #docid = 345036
2.0336663611782768 1:0.5 2:0.5 3:0.380952 4:0.39894 5:0 6:0 7:0 8:0.388704 9:0.41837099 10:0.494573 11:0.46850899 12:0.77075899 13:0.49534699 14:0.46903899 15:0.46903899 16:0.88235301 17:0.899185 18:1 19:1 20:0 21:0 22:0 23:1 24:0.840523 25:0.99737799 26:0.97707099 27:0.99339902 28:0.90281999 29:0.91730797 30:0.88560998 31:0.88888901 32:0.81286502 33:0.41769999 34:0.434899 35:0 36:0 37:0 38:0.45685899 39:0.81133097 40:0.75203598 41:0.90114099 42:0.96717501 43:0.87604803 44:0.89042097 45:0.85541099 #docid = 50847
-2 1:0.5 2:0.5 3:0.444444 4:0.46054199 5:0 6:0 7:0 8:0.45681101 9:0.419532 10:0.49519601 11:0.49967501 12:0.79023099 13:0.48444 14:0.48227799 15:0.48227799 16:0 17:0 18:0 19:0 20:0 21:0 22:0 23:0 24:0 25:0 26:0 27:0 28:0 29:0 30:0 31:0.055555999 32:0.101897 33:0.77060902 34:0.76167101 35:0 36:0 37:0 38:0.63493699 39:0.061875001 40:0.49862701 41:0.424328 42:0.73645502 43:0.49270001 44:0.53570598 45:0.50708699 #docid = 345034
-0.033666361178276816 1:0.25 2:0.25 3:0.222223 4:0.230272 5:0 6:0 7:0 8:0.31021401 9:0.32435399 10:0.43688199 11:0.385905 12:0.71211398 13:0.42287999 14:0.33839101 15:0.33839101 16:0 17:0 18:0 19:0 20:0 21:0 22:0 23:0 24:0 25:0 26:0 27:0 28:0 29:0 30:0 31:0 32:0 33:0.36917701 34:0.36360899 35:0 36:0 37:0 38:0.46983901 39:0.049807001 40:0.53409201 41:0.361038 42:0.68903702 43:0.43241 44:0.37608901 45:0.36923799 #docid = 342610
-1 1:0.25 2:0.25 3:0.095238999 4:0.103062 5:0 6:0 7:0 8:0.096127003 9:0.163417 10:0.127517 11:0.133412 12:0.39097399 13:0.088868998 14:0.076802 15:0.076802 16:0 17:0 18:0 19:0 20:0 21:0 22:0 23:0 24:0 25:0 26:0 27:0 28:0 29:0 30:0 31:0 32:0 33:0.13978601 34:0.143705 35:0 36:0 37:0 38:0.110197 39:0.0039550001 40:0.080774002 41:0.106039 42:0.369537 43:0.22928999 44:0.135158 45:0.161162 #docid = 154762
5.530663083040082 1:0.83333302 2:1 3:1 4:1 5:0 6:0 7:0 8:1 9:0.859631 10:1 11:1 12:1 13:1 14:1 15:1 16:0 17:0 18:0 19:0 20:0 21:0 22:0 23:0 24:0 25:0 26:0 27:0 28:0 29:0 30:0 31:0.117647 32:0.308231 33:1 34:1 35:0 36:0 37:0 38:1 39:0.116039 40:1 41:0.97067398 42:0.98898602 43:0.89448798 44:1 45:1 #docid = 337149
2.3710213095703865 1:0.83333302 2:1 3:0.875 4:0.88206202 5:0 6:0 7:0 8:0.90058202 9:0.859631 10:0.95845002 11:0.94866401 12:0.98373097 13:0.99356598 14:0.96897799 15:0.96897799 16:0 17:0 18:0 19:0 20:0 21:0 22:0 23:0 24:0 25:0 26:0 27:0 28:0 29:0 30:0 31:0.117647 32:0.308231 33:0.87362802 34:0.88068199 35:0 36:0 37:0 38:0.89611399 39:0.116039 40:0.93590403 41:0.96163601 42:0.98553002 43:0.89110702 44:0.97424299 45:0.97648501 #docid = 306675
6 1:0.166667 2:0.2 3:0.46666601 4:0.43088299 5:0 6:0 7:0 8:0.31367901 9:0.135406 10:0.185994 11:0.20035499 12:0.50371498 13:0.04589 14:0.055628002 15:0.055628002 16:0.375 17:0.65233397 18:0.98039198 19:0.99923402 20:0 21:0 22:0 23:1 24:0.382898 25:1 26:1 27:1 28:0.95679098 29:1 30:0.98580998 31:0.35294101 32:0.597574 33:0.329763 34:0.34243199 35:0 36:0 37:0 38:0.401436 39:0.36057901 40:0.55442202 41:0.95960498 42:0.98474902 43:0.93433601 44:0.76657897 45:0.85272199 #docid = 48196
1.5601667392159868 1:0.33333299 2:0.40000001 3:0.93333298 4:0.86176598 5:0 6:0 7:0 8:0.67973399 9:0.30637699 10:0.43695101 11:0.454362 12:0.75647998 13:0.268769 14:0.32700199 15:0.32700199 16:0.65625 17:0.883811 18:0.85784203 19:0.87886298 20:0 21:0 22:0 23:0.84965497 24:0.62504202 25:0.87101299 26:0.99465901 27:0.99844199 28:0.98465502 29:0.96856201 30:0.99075103 31:0.64705902 32:0.82157302 33:0.29905999 34:0.311194 35:0 36:0 37:0 38:0.34939101 39:0.60679501 40:0.48196101 41:0.95140702 42:0.98158199 43:0.959589 44:0.74241602 45:0.85495502 #docid = 141020
-1 1:0.5 2:0.60000002 3:0.83999997 4:0.81923097 5:0 6:0 7:0 8:0.812051 9:0.55325401 10:0.73430097 11:0.72214502 12:0.89951003 13:0.63580602 14:0.63018799 15:0.63018799 16:0.5 17:0.74244201 18:0.74074203 19:0.760198 20:0 21:0 22:0 23:0.71537298 24:0.46129 25:0.77923697 26:0.883506 27:0.96397197 28:0.92765599 29:0.907938 30:0.908283 31:0.52941197 32:0.70890599 33:0.2721 34:0.28336301 35:0 36:0 37:0 38:0.313779 39:0.492502 40:0.461916 41:0.856103 42:0.94282901 43:0.911421 44:0.701442 45:0.78896898 #docid = 111681
-5 1:0.5 2:0.60000002 3:0.59999901 4:0.60000002 5:0 6:0 7:0 8:0.633322 9:0.55325401 10:0.66958398 11:0.64398801 12:0.86414897 13:0.62259299 14:0.583094 15:0.583094 16:1 17:0.94546801 18:0.93239999 19:0.94337398 20:0 21:0 22:0 23:0.90388602 24:1 25:0.87028998 26:0.88086498 27:0.96310103 28:0.94499302 29:0.898615 30:0.90552503 31:1 32:0.886917 33:0.319278 34:0.328585 35:0 36:0 37:0 38:0.373404 39:1 40:0.50340098 41:0.84001797 42:0.93590599 43:0.91863 44:0.685754 45:0.77692598 #docid = 283808
1.3959253383410299 1:0.66666698 2:0.80000001 3:0.80000001 4:0.80000103 5:0 6:0 7:0 8:0.83167702 9:0.72229499 10:0.86089599 11:0.840716 12:0.94643998 13:0.84021699 14:0.81115198 15:0.81115198 16:0 17:0 18:0 19:0 20:0 21:0 22:0 23:0 24:0 25:0 26:0 27:0 28:0 29:0 30:0 31:0.088234998 32:0.23117299 33:0.79780602 34:0.79765999 35:0 36:0 37:0 38:0.85588002 39:0.098416001 40:0.90308499 41:0.833655 42:0.93313497 43:0.79580802 44:0.82797998 45:0.84295201 #docid = 178689
-1.1041541291089914 1:0.33333299 2:0.40000001 3:0.39999899 4:0.40000001 5:0 6:0 7:0 8:0.39386001 9:0.33697799 10:0.38968 11:0.39191601 12:0.71083897 13:0.30726701 14:0.291181 15:0.291181 16:0.46875 17:0.74244201 18:0.686813 19:0.70720899 20:0 21:0 22:0 23:0.61914098 24:0.39169601 25:0.65063298 26:0.86452502 27:0.95765501 28:0.93201202 29:0.91121203 30:0.92411202 31:0.470588 32:0.696307 33:0.234549 34:0.24558 35:0 36:0 37:0 38:0.248246 39:0.385932 40:0.352521 41:0.81873697 42:0.92656201 43:0.908279 44:0.69496602 45:0.79499799 #docid = 223720
-0.77053297304894386 1:0.33333299 2:0.40000001 3:0.39999899 4:0.40000001 5:0 6:0 7:0 8:0.465 9:0.41591901 10:0.53048003 11:0.48470399 12:0.77643502 13:0.46281001 14:0.39424601 15:0.39424601 16:0.34375 17:0.62575102 18:0.57291698 19:0.59201902 20:0 21:0 22:0 23:0.569785 24:0.31808901 25:0.68117398 26:0.83860999 27:0.94880199 28:0.89171398 29:0.87312698 30:0.87212902 31:0.35294101 32:0.58901799 33:0.200518 34:0.210536 35:0 36:0 37:0 38:0.24465901 39:0.34106299 40:0.40077099 41:0.81287098 42:0.92394698 43:0.87167197 44:0.66770399 45:0.75186199 #docid = 253189
1 1:0.33333299 2:0.40000001 3:0.69999999 4:0.66843802 5:0 6:0 7:0 8:0.55827302 9:0.30637699 10:0.40015 11:0.42501 12:0.73586398 13:0.26185399 14:0.300161 15:0.300161 16:0.84375 17:0.87369901 18:0.81521702 19:0.82852101 20:0 21:0 22:0 23:0.78912801 24:0.80650002 25:0.75480503 26:0.86312801 27:0.95718402 28:0.92114198 29:0.87238401 30:0.88018698 31:0.82352901 32:0.80146801 33:0.27807999 34:0.28710601 35:0 36:0 37:0 38:0.316333 39:0.76724303 40:0.40672401 41:0.80863303 42:0.92204797 43:0.89138502 44:0.66182101 45:0.75124699 #docid = 293787
-1.3601269691040301 1:0.166667 2:0.2 3:0.69999999 4:0.60729498 5:0 6:0 7:0 8:0.41144499 9:0.137335 10:0.217071 11:0.21836799 12:0.53029299 13:0.058191001 14:0.078305997 15:0.078305997 16:0.59375 17:0.78819698 18:0.56547499 19:0.58149499 20:0 21:0 22:0 23:0.587901 24:0.59460902 25:0.65115601 26:0.81642199 27:0.94100201 28:0.89078498 29:0.83167797 30:0.855793 31:0.558824 32:0.73142099 33:0.188375 34:0.197363 35:0 36:0 37:0 38:0.233395 39:0.55199999 40:0.358078 41:0.785869 42:0.91169 43:0.87158799 44:0.63976997 45:0.74290103 #docid = 18540
-2 1:0.166667 2:0.2 3:0.34999999 4:0.33421999 5:0 6:0 7:0 8:0.353802 9:0.216276 10:0.317132 11:0.30092499 12:0.62928599 13:0.199773 14:0.14938501 15:0.14938501 16:0.34375 17:0.60657901 18:0.58760798 19:0.604963 20:0 21:0 22:0 23:0.60509402 24:0.33928701 25:0.67412901 26:0.828857 27:0.94539899 28:0.88303602 29:0.86444902 30:0.85973603 31:0.32352901 32:0.53765398 33:0.196153 34:0.20507 35:0 36:0 37:0 38:0.24593499 39:0.332782 40:0.37441599 41:0.779836 42:0.90890098 43:0.85185599 44:0.65174901 45:0.72977501 #docid = 115124
