SVM-light Version V6.02
0 # kernel type
3 # kernel parameter -d 
1 # kernel parameter -g 
1 # kernel parameter -s 
1 # kernel parameter -r 
empty# kernel parameter -u 
45 # highest feature index 
9029 # number of training documents 
2 # number of support vectors plus 1 
-0.99999991 # threshold b, each following line is a SV (starting with alpha*y)
3.2617266896531338e-009 1:0.60000002 2:0.60000002 3:1 4:1 5:0 6:0 7:0 8:1 9:0.624834 10:0.76730102 11:0.81609899 12:0.93480498 13:0.64968503 14:0.68022197 15:0.68676198 16:0.42105299 17:0.68090397 18:1 19:1 20:0 21:0 22:0 23:1 24:0.401391 25:0.93896598 26:0.94944602 27:0.98476899 28:0.955266 29:1 30:0.99778599 31:0.44185999 32:0.687033 33:1 34:1 35:0 36:0 37:0 38:1 39:0.42545 40:0.975968 41:0.92878503 42:0.97852403 43:0.97955298 44:1 45:1 #docid = 143821
