SVM-light Version V6.20
0 # kernel type
3 # kernel parameter -d 
1 # kernel parameter -g 
1 # kernel parameter -s 
1 # kernel parameter -r 
empty# kernel parameter -u 
46 # highest feature index 
15 # number of training documents 
2 # number of support vectors plus 1 
0 # threshold b, each following line is a SV (starting with alpha*y)
1 1:0.00026187484 2:0.027837444 3:0.24470502 4:0.24536346 8:0.22747493 9:-0.0068777697 10:0.16694713 11:0.15233611 12:0.23829804 13:0.17017764 14:0.18404134 15:0.17760363 16:-0.047413651 17:0.0051881908 18:-0.065144688 19:-0.065158889 23:-0.048179869 24:-0.0066878474 25:-0.054974452 26:-0.027722521 27:-0.19407752 28:0.17472857 29:0.096565872 30:0.10727284 31:-0.022631271 32:0.11366437 33:0.097998083 34:0.076334983 38:0.0086657479 39:0.016670745 40:-0.093874574 41:0.11029223 42:-0.029446051 43:0.29823402 44:0.11166885 45:0.18774761 #
