SVM-light Version V6.20
0 # kernel type
3 # kernel parameter -d 
1 # kernel parameter -g 
1 # kernel parameter -s 
1 # kernel parameter -r 
empty# kernel parameter -u 
47 # highest feature index 
88 # number of training documents 
2 # number of support vectors plus 1 
0 # threshold b, each following line is a SV (starting with alpha*y)
1 1:0.68941706 2:-0.31605282 3:0.23793292 4:-0.22044188 5:-1.6948054 11:1.6989833 12:0.33654168 13:0.11200655 14:-0.29374942 15:-2.0588772 16:0.81193572 17:0.15566745 18:-0.24951001 19:-0.74429905 20:0.23063472 21:0.20141694 22:-0.51173431 23:2.4818747 24:-0.42046213 25:0.15103339 26:0.81156343 27:-0.026264546 28:-0.61110824 29:0.018540263 30:0.45057485 31:-0.34608501 32:0.037372191 33:0.75683695 34:-0.27368045 35:0.086093552 36:0.073312119 37:0.18490428 38:-1.2443361 39:0.79124367 40:1.6731609 41:-0.2489939 42:-0.021092338 43:-0.28384757 44:0.29404378 45:-0.079337761 46:-1.2180587 #
