SVM-light Version V6.02
0 # kernel type
3 # kernel parameter -d 
1 # kernel parameter -g 
1 # kernel parameter -s 
1 # kernel parameter -r 
empty# kernel parameter -u 
46 # highest feature index 
41955 # number of training documents 
7363 # number of support vectors plus 1 
0 # threshold b, each following line is a SV (starting with alpha*y)
-19.029843925510807 1:0 2:0 3:0 4:0 5:0 6:0 7:0 8:0 9:0 10:0 11:0 12:0 13:0 14:0 15:0 16:0.001348 17:0 18:0.222222 19:0 20:0.001282 21:0 22:0 23:0 24:0 25:0 26:0 27:0 28:0 29:0 30:0 31:0 32:0 33:0 34:0 35:0 36:0 37:0 38:0 39:0 40:0 41:0 42:0 43:0.017240999 44:0 45:0 46:0 #docid = GX000-00-0000000 inc = 1 prob = 0.0246906
0.4413511833825175 1:0.03131 2:0.66666698 3:0.5 4:0.166667 5:0.033206001 6:0 7:0 8:0 9:0 10:0 11:0.023327 12:0.64115697 13:0.49895099 14:0.32315299 15:0.026674001 16:0.029246001 17:0.5 18:0.222222 19:0.111111 20:0.029398 21:0.68912798 22:0.63622802 23:0.86976397 24:0.71640003 25:0.72518599 26:0.55496103 27:0.69598502 28:0.50405997 29:0.60294598 30:0.67953402 31:0.730286 32:0.68741399 33:0.529688 34:0.43699601 35:0.64373899 36:0.37233701 37:0.64688998 38:0.68610698 39:0.82390797 40:0.75009203 41:0.38542601 42:0.92307699 43:0.086207002 44:0.33333299 45:0.44827601 46:0 #docid = GX000-24-12369390 inc = 0.600318836372593 prob = 0.416367
0.19446297639695276 1:0.078681998 2:0.166667 3:0.5 4:0.33333299 5:0.080022 6:0 7:0 8:0 9:0 10:0 11:0.108216 12:0.17463499 13:0.50104898 14:0.351114 15:0.112102 16:0.118642 17:0.5625 18:0.944444 19:0.33333299 20:0.119184 21:0.69696701 22:0.48638701 23:0.93876803 24:0.57708198 25:0.20989101 26:0.160965 27:0.18526 28:0.128353 29:0.20590401 30:0.213219 31:0.256479 32:0.156858 33:0.35202199 34:0.131372 35:0.079659998 36:0.068824999 37:0.64982402 38:0.57858098 39:0.86855698 40:0.64138502 41:0.010462 42:0.076922998 43:0.074712999 44:0.83333302 45:0.67816103 46:0 #docid = GX000-62-7863450 inc = 1 prob = 0.56895
54.460722952032597 1:0.019058 2:1 3:1 4:0.5 5:0.022591 6:0 7:0 8:0 9:0 10:0 11:0.021256 12:1 13:1 14:0.67426699 15:0.028989 16:0.020426 17:0.875 18:0.77777803 19:0.38888901 20:0.021043001 21:0.94914597 22:0.86762798 23:1 24:0.83812499 25:0.77613097 26:1 27:1 28:1 29:0.50556397 30:0.92200398 31:1 32:1 33:0.76981699 34:0.89027703 35:0.896671 36:0.94050002 37:0.91840303 38:0.86845702 39:1 40:0.86346 41:0.016642001 42:0.153846 43:0.040229999 44:0.83333302 45:0.89655203 46:0 #docid = GX016-48-5543459 inc = 1 prob = 0.775913
-0.495943720436201 1:0.039476998 2:0 3:0.75 4:0.166667 5:0.040555 6:0 7:0 8:0 9:0 10:0 11:0.036178 12:0 13:0.75157303 14:0.175557 15:0.039085999 16:0.053319 17:0.1875 18:1 19:0.111111 20:0.053668 21:0.60590702 22:0.469614 23:0.82718098 24:0.58266097 25:0 26:0 27:0 28:0 29:0.26698399 30:0.20412301 31:0.32337701 32:0.17645 33:0.28775999 34:0.074987002 35:0.0023729999 36:0.052280001 37:0.56587499 38:0.56944001 39:0.76984501 40:0.64656699 41:0.073711 42:0.076922998 43:0.034483001 44:0.33333299 45:0.218391 46:0 #docid = GX037-87-3082362 inc = 0.588907390055858 prob = 0.3348
-0.36539091238359878 1:0.0035389999 2:0.66666698 3:0.5 4:1 5:0.0068049999 6:0 7:0 8:0 9:0 10:0 11:0.0073150001 12:0.55636501 13:0.425787 14:1 15:0.011953 16:0.0021220001 17:0.5 18:0.166667 19:0.555556 20:0.0024309999 21:1 22:0.82121301 23:0.61856902 24:0.76079398 25:0.629282 26:0.49673 27:0.32245299 28:0.42913499 29:0.58688498 30:0.57473999 31:0.203756 32:0.61102599 33:0.69147003 34:0.55813003 35:0.32014599 36:0.62123299 37:0.92714202 38:0.87184298 39:0.67217398 40:0.82963699 41:0.64706999 42:0.384615 43:0.028736001 44:1 45:0.827586 46:0 #docid = GX058-98-1548149 inc = 1 prob = 0.431154
32.411017733268963 1:0.0049009998 2:0.66666698 3:0.25 4:0.66666698 5:0.0073489998 6:0 7:0 8:0 9:0 10:0 11:0.0077829999 12:0.73139 13:0.37295899 14:0.99742001 15:0.014407 16:0.002719 17:0.5625 18:0.055555999 19:0.33333299 20:0.0029180001 21:0.98243999 22:1 23:0.69535798 24:1 25:0.80844599 26:0.88210899 27:0.88767701 28:0.83227801 29:0.71521503 30:0.585253 31:0.71837199 32:0.44880199 33:1 34:1 35:1 36:1 37:1 38:1 39:0.817002 40:1 41:0.78339797 42:0.384615 43:0.040229999 44:1 45:0.80459797 46:0 #docid = GX068-48-12934837 inc = 1 prob = 0.659932
-27.84387605048687 1:0.000272 2:0 3:0 4:0 5:0.000272 6:0 7:0 8:0 9:0 10:0 11:0.00089000002 12:0 13:0 14:0 15:0.00089899998 16:2.2e-005 17:0.3125 18:0 19:1 20:0.00037600001 21:0.48104799 22:0.25674501 23:0 24:0 25:0 26:0 27:0 28:0 29:0 30:0 31:0 32:0 33:0 34:0 35:0 36:0 37:0.42752799 38:0 39:0 40:0 41:0.0054159998 42:0.076922998 43:0 44:0.83333302 45:1 46:0 #docid = GX169-47-11414154 inc = 1 prob = 0.0922221
-25.921572678463107 1:0 2:0 3:0 4:0 5:0 6:0 7:0 8:0 9:0 10:0 11:0 12:0 13:0 14:0 15:0 16:0 17:0.125 18:0 19:0.277778 20:0 21:0 22:0 23:0 24:0 25:0 26:0 27:0 28:0 29:0 30:0 31:0 32:0 33:0 34:0 35:0 36:0 37:0 38:0 39:0 40:0 41:0.01482 42:0.076922998 43:0 44:0.5 45:0.27586201 46:0 #docid = GX244-34-9828671 inc = 1 prob = 0.107432
-3.2590920349997532 1:0.591887 2:0 3:0 4:0.166667 5:0.59199798 6:0 7:0 8:0 9:0 10:0 11:0.41029599 12:0 13:0 14:0.175557 15:0.40934101 16:0.85160398 17:0.0625 18:0 19:0.38888901 20:0.851551 21:0.48154399 22:0.34492499 23:0.879188 24:0.48418799 25:0 26:0 27:0 28:0 29:0 30:0 31:0 32:0 33:0.232389 34:0.033326 35:0.00088900002 36:0.015306 37:0.44742101 38:0.48831901 39:0.81412399 40:0.57477099 41:0.0043620002 42:0.076922998 43:0 44:0.83333302 45:0.63218403 46:0 #docid = GX266-39-14413678 inc = 0.600318836372593 prob = 0.240162
-10.591835522800693 1:1 2:0 3:0 4:0.166667 5:1 6:0 7:0 8:0 9:0 10:0 11:1 12:0 13:0 14:0.175557 15:1 16:1 17:0.0625 18:0 19:0.555556 20:1 21:0.45156801 22:0.35715801 23:0.902004 24:0.496039 25:0 26:0 27:0 28:0 29:0 30:0 31:0 32:0 33:0.208336 34:0 35:0 36:0 37:0.41702899 38:0.49605301 39:0.83493 40:0.58319497 41:0.005597 42:0.076922998 43:0 44:1 45:0.68965501 46:0 #docid = GX271-51-4471771 inc = 1 prob = 0.251998
1.6447045287781208 1:0.17275301 2:0 3:0 4:0.33333299 5:0.172951 6:0 7:0 8:0 9:0 10:0 11:0.57445198 12:0 13:0 14:0.086167 15:0.57909298 16:0.1314 17:0.652174 18:0.3125 19:0.285714 20:0.131919 21:0.17682 22:0.36968401 23:0.36579999 24:0.271512 25:0 26:0 27:0 28:0 29:0 30:0 31:0 32:0 33:0.10413 34:0.004187 35:0.00040700001 36:0.00392 37:0.179065 38:0.37101501 39:0.30909801 40:0.28022701 41:0.013175 42:0.225806 43:0.190476 44:0.80000001 45:0.076086998 46:0 #docid = GX000-63-11995977 inc = 1 prob = 0.0317545
-2.5368753329966087 1:0.0065649999 2:0.75 3:0.75 4:0 5:0.0090159997 6:0 7:0 8:0 9:0 10:0 11:0.68444699 12:0.83295202 13:0.74048197 14:0 15:0.69374502 16:0.003788 17:0.173913 18:0.625 19:0.071428999 20:0.0041089999 21:0.66280699 22:0.85373402 23:0.335924 24:1 25:1 26:0.93646097 27:0.97838002 28:0.83252603 29:0.61347002 30:0.77019697 31:0.83159298 32:0.73234397 33:0 34:0 35:0 36:0 37:0.71866798 38:0.91107202 39:0.37010401 40:1 41:0.00056100002 42:0.032258 43:0.238095 44:0.2 45:0.108696 46:0 #docid = GX001-21-11212159 inc = 1 prob = 0.167547
-2.7258114078355096 1:0.027493 2:1 3:1 4:0.33333299 5:0.031148 6:0 7:0 8:0 9:0 10:0 11:0.67992198 12:1 13:0.86489397 14:0.086167 15:0.688232 16:0.011489 17:0.26087001 18:0.375 19:0.142857 20:0.011783 21:0.36171499 22:0.65327299 23:0.40359899 24:0.53117502 25:0.92097598 26:1 27:1 28:1 29:1 30:1 31:0.850263 32:1 33:0.113603 34:0.014324 35:0.00122 36:0.013116 37:0.38573799 38:0.70771903 39:0.41100299 40:0.57573497 41:0.30303299 42:1 43:0.285714 44:0.80000001 45:0 46:0 #docid = GX002-50-7293787 inc = 1 prob = 0.0717811
2.0973208563595023 1:0.031186 2:0 3:0.5 4:0 5:0.031966999 6:0 7:0 8:0 9:0 10:0 11:0.69916701 12:0 13:0.62756401 14:0 15:0.70668101 16:0.021095 17:0.43478301 18:1 19:0.285714 20:0.021784 21:0.73693001 22:0.74798203 23:0.57356799 24:0.75097197 25:0 26:0 27:0 28:0 29:0.36480799 30:0.62527102 31:0.97150803 32:0.51970899 33:0 34:0 35:0 36:0 37:0.75064701 38:0.74000603 39:0.54051298 40:0.71443999 41:0.0093350001 42:0.096773997 43:1 44:0.60000002 45:0.47826099 46:0 #docid = GX003-47-3035937 inc = 1 prob = 0.0788698
0.56019722111071246 1:0.17152201 2:0 3:0 4:0.33333299 5:0.171721 6:0 7:0 8:0 9:0 10:0 11:0.57512099 12:0 13:0 14:0.086167 15:0.57981098 16:0.130509 17:0.130435 18:0.3125 19:0.285714 20:0.130731 21:0.178697 22:0.369306 23:0.36497301 24:0.270973 25:0 26:0 27:0 28:0 29:0 30:0 31:0 32:0 33:0.10413 34:0.004187 35:0.00040700001 36:0.00392 37:0.182036 38:0.37181801 39:0.30936101 40:0.28092301 41:0.0093900003 42:0.032258 43:0.142857 44:0.80000001 45:0.097825997 46:0 #docid = GX004-95-1230642 inc = 1 prob = 0.0330054
3.4029288898481553 1:0.051293001 2:0.5 3:0.25 4:0 5:0.052459002 6:0 7:0 8:0 9:0 10:0 11:0.64101201 12:0.33409601 13:0.124412 14:0 15:0.64541101 16:0.042835001 17:1 18:0.625 19:0.142857 20:0.043643001 21:0 22:0 23:0.092752002 24:0 25:0.096749 26:0 27:0 28:0 29:0.103072 30:0.045593001 31:0.0058189998 32:0.019138999 33:0 34:0 35:0 36:0 37:0 38:0 39:0.010815 40:0.022763001 41:0.0062899999 42:0.064516 43:0.047619 44:0.40000001 45:0.184783 46:0 #docid = GX006-96-11572725 inc = 1 prob = 0.0336455
56.592547741733107 1:0.99794799 2:0 3:0.25 4:0 5:0.99713099 6:0 7:0 8:0 9:0 10:0 11:0 12:0 13:0.124412 14:0 15:0 16:0.921363 17:0 18:1 19:0.285714 20:0.92162597 21:0.00152 22:0.18926699 23:0.226142 24:0.069651999 25:0 26:0 27:0 28:0 29:0.072322004 30:0 31:0 32:0 33:0 34:0 35:0 36:0 37:0.001702 38:0.192128 39:0.157553 40:0.093970999 41:0 42:0 43:0 44:0.60000002 45:0.41304299 46:0 #docid = GX009-26-3264567 inc = 1 prob = 0.0342955
-12.793772210320583 1:0.056627002 2:0.75 3:0.75 4:0.33333299 5:0.059425998 6:0 7:0 8:0 9:0 10:0 11:0.68132699 12:0.83295202 13:0.74048197 14:0.37133199 15:0.69104803 16:0.019164 17:0.26087001 18:0.375 19:0.35714301 20:0.019532001 21:0.400433 22:0.58564901 23:0.53670198 24:0.51888603 25:0.767129 26:0.86043602 27:0.97566998 28:0.78035599 29:0.85615301 30:0.86701798 31:0.83548301 32:0.795587 33:0.43078199 34:0.34757099 35:0.44056201 36:0.266247 37:0.401546 38:0.60315901 39:0.51815498 40:0.52500403 41:0.00094200001 42:0.032258 43:0 44:0.60000002 45:0.29347801 46:0 #docid = GX011-63-1510863 inc = 0.651833215810893 prob = 0.115862
-0.54916903535305828 1:0.028724 2:0.5 3:0 4:0 5:0.029508 6:0 7:0 8:0 9:0 10:0 11:0.70541102 12:0.61580002 13:0 14:0 15:0.71283603 16:0.01342 17:0.217391 18:0.125 19:0.285714 20:0.01364 21:0.87874597 22:0.93925798 23:0.65142202 24:0.96649098 25:0.64187402 26:0.67731202 27:0.85974997 28:0.52916902 29:0 30:0 31:0 32:0 33:0 34:0 35:0 36:0 37:0.889898 38:0.93319702 39:0.62641102 40:0.91642302 41:0.00072200003 42:0.16129 43:0 44:0.60000002 45:0.33695701 46:0 #docid = GX012-83-6461625 inc = 1 prob = 0.503165
-24.373735701940731 1:0.0045139999 2:1 3:1 4:0 5:0.0077869999 6:0 7:0 8:0 9:0 10:0 11:0.68029702 12:1 13:0.86489397 14:0 15:0.68894702 16:0.001188 17:0.26087001 18:0.375 19:0 20:0.001436 21:0.31902999 22:0.83962798 23:0.18878201 24:0.861525 25:0.92097598 26:1 27:1 28:1 29:1 30:1 31:0.850263 32:1 33:0 34:0 35:0 36:0 37:0.39207101 38:0.91729701 39:0.24204899 40:0.88254702 41:0.003489 42:0.064516 43:0 44:0 45:0.065217003 46:0 #docid = GX020-55-3179021 inc = 1 prob = 0.145224
-5.1218351205939143 1:0.064423002 2:0.75 3:0.25 4:0 5:0.065984003 6:0 7:0 8:0 9:0 10:0 11:0.75306302 12:0.83295202 13:0.29569399 14:0 15:0.75695002 16:0.012231 17:0.30434799 18:0.375 19:0.071428999 20:0.012526 21:0.88778102 22:0.94697702 23:0.900787 24:0.93594801 25:0.687123 26:0.83172297 27:0.974316 28:0.76052898 29:0.34188399 30:0.31924 31:0.381625 32:0.20075101 33:0 34:0 35:0 36:0 37:0.91259903 38:0.95396399 39:0.90283602 40:0.89801103 41:0.163267 42:0.16129 43:0.285714 44:0.2 45:0.130435 46:0 #docid = GX037-76-2629022 inc = 1 prob = 0.0617455
-3.0590258491472611 1:0.052933998 2:0.5 3:0.5 4:0.33333299 5:0.054917999 6:0 7:0 8:0 9:0 10:0 11:0.691185 12:0.61580002 13:0.62756401 14:0.086167 15:0.70028597 16:0.022333 17:0.39130399 18:0.5625 19:0.214286 20:0.022799 21:0.74240202 22:0.87606001 23:0.71263099 24:0.89909703 25:0.42031699 26:0.60307503 27:0.85433501 28:0.47872299 29:0.55957299 30:0.700203 31:0.97829998 32:0.56727201 33:0.10866 34:0.0089180004 35:0.00081300002 36:0.0082590003 37:0.79571301 38:0.90055102 39:0.72244298 40:0.88519001 41:0.00042200001 42:0.064516 43:0.142857 44:0.60000002 45:0.22826099 46:0 #docid = GX042-66-7833344 inc = 0.634692310480556 prob = 0.248788
-2.2907345275809803 1:0.039393 2:0.5 3:0.5 4:0.33333299 5:0.041393001 6:0 7:0 8:0 9:0 10:0 11:0.69499701 12:0.61580002 13:0.62756401 14:0.086167 15:0.70516402 16:0.025725 17:0.52173901 18:0.75 19:0.142857 20:0.026314 21:0.76380599 22:0.75663 23:0.59958202 24:0.73621303 25:0.333882 26:0.56696099 27:0.850281 28:0.454041 29:0.45537901 30:0.66271299 31:0.97538602 32:0.54348999 33:0.113603 34:0.014324 35:0.00122 36:0.013116 37:0.792319 38:0.77172703 39:0.588709 40:0.72626197 41:0.239121 42:0.032258 43:0.047619 44:0.40000001 45:0.217391 46:0 #docid = GX042-73-2489904 inc = 0.61325404131809 prob = 0.540925
-4.8135652297567688 1:0.036931001 2:0.5 3:0.5 4:0.33333299 5:0.038934 6:0 7:0 8:0 9:0 10:0 11:0.69144702 12:0.61580002 13:0.62756401 14:0.086167 15:0.70162803 16:0.021911999 17:0.39130399 18:0.5625 19:0.214286 20:0.022377999 21:0.74822098 22:0.77042001 23:0.58063602 24:0.75929999 25:0.42031699 26:0.60307503 27:0.85433501 28:0.47872299 29:0.55957299 30:0.700203 31:0.97829998 32:0.56727201 33:0.10866 34:0.0089180004 35:0.00081300002 36:0.0082590003 37:0.78247398 38:0.78946102 39:0.57333601 40:0.75136501 41:0.00042200001 42:0.064516 43:0.142857 44:0.60000002 45:0.22826099 46:0 #docid = GX043-61-5803349 inc = 0.651833215810893 prob = 0.693151
0.48205990328600024 1:0.0049239998 2:0 3:0.25 4:0.33333299 5:0.0057379999 6:0 7:0 8:0 9:0 10:0 11:0.68062103 12:0 13:0.33186999 14:0.086167 15:0.68754399 16:0.0021790001 17:0.130435 18:0.375 19:0.35714301 20:0.002475 21:0.61950302 22:0.67292202 23:0.243359 24:0.743949 25:0 26:0 27:0 28:0 29:0.38371101 30:0.37441 31:0.594522 32:0.23569 33:0.099962004 34:0 35:0 36:0 37:0.65561903 38:0.73249799 39:0.219818 40:0.72064698 41:0.026626 42:0.032258 43:0 44:1 45:0.16304301 46:0 #docid = GX062-51-8529627 inc = 0.36026303371604 prob = 0.0747134
-2.0973208563595023 1:1 2:0 3:0 4:1 5:1 6:0 7:0 8:0 9:0 10:0 11:0.30677199 12:0 13:0 14:1 15:0.30263001 16:1 17:0.043478001 18:0 19:0.64285702 20:1 21:0.311517 22:0.39721799 23:0.48444799 24:0.30832401 25:0 26:0 27:0 28:0 29:0 30:0 31:0 32:0 33:1 34:1 35:1 36:1 37:0.32084 38:0.39921299 39:0.43783501 40:0.315009 41:0.0032579999 42:0.064516 43:0 44:0.2 45:0.576087 46:0 #docid = GX233-72-4348496 inc = 1 prob = 0.175291
-4.4179138692306807 1:0.354534 2:0.5 3:0 4:0.33333299 5:0.35532799 6:0 7:0 8:0 9:0 10:0 11:0.99930799 12:0.61580002 13:0 14:0.086167 15:0.99927002 16:0.194984 17:0.47826099 18:0 19:0.071428999 20:0.19519299 21:0.87838203 22:0.81499302 23:0.94357902 24:0.796947 25:0.35845301 26:0.577865 27:0.851632 28:0.46150601 29:0 30:0 31:0 32:0 33:0.119017 34:0.020594001 35:0.0016280001 36:0.018629 37:0.88584101 38:0.81184399 39:0.93179297 40:0.76380497 41:0.011536 42:0.032258 43:0 44:0.2 45:0.152174 46:0 #docid = GX262-15-13688903 inc = 1 prob = 0.750755
5.4415952445800784 1:0.019867999 2:0 3:0 4:0 5:0.019737 6:0 7:0 8:0 9:0 10:0 11:0.016197 12:0 13:0 14:0 15:0.01609 16:0.026241999 17:0.5 18:0.31818199 19:0.33333299 20:0.026098 21:0.96258003 22:0.96803403 23:0.84813899 24:0.96955001 25:0 26:0 27:0 28:0 29:0 30:0 31:0 32:0 33:0 34:0 35:0 36:0 37:0.95858097 38:0.96455902 39:0.845474 40:0.96544802 41:0.191798 42:0.4375 43:0.65048498 44:0.5 45:0.35087699 46:0 #docid = GX046-82-9869680 inc = 0.779343668428208 prob = 0.314069
-5.8943558726500029 1:1 2:1 3:1 4:1 5:1 6:0 7:0 8:0 9:0 10:0 11:1 12:1 13:1 14:1 15:1 16:1 17:0.33333299 18:0.45454499 19:0.166667 20:1 21:0.86561799 22:0.46486801 23:0.58417499 24:0.47498101 25:1 26:0 27:0 28:0 29:1 30:0 31:0 32:0 33:1 34:0 35:0 36:0 37:0.866602 38:0.46661299 39:0.58510202 40:0.47748801 41:0.00064099999 42:0.0625 43:0.029126 44:0 45:0.157895 46:0 #docid = GX243-81-9212950 inc = 0.701173100950635 prob = 0.235614
0.45276062806992456 1:0.011038 2:0 3:0 4:0 5:0.010965 6:0 7:0 8:0 9:0 10:0 11:0.011038 12:0 13:0 14:0 15:0.010965 16:0.02217 17:0 18:0 19:0.166667 20:0.021158 21:0.80504203 22:0.71202803 23:0.63429302 24:0.79841202 25:0 26:0 27:0 28:0 29:0 30:0 31:0 32:0 33:0 34:0 35:0 36:0 37:0.80735499 38:0.71270698 39:0.63350701 40:0.79963601 41:0 42:0 43:0 44:0 45:0.105263 46:0 #docid = GX267-92-3291990 inc = 0.259524407133938 prob = 0.190419
-0.75220797728594846 1:0 2:0 3:0 4:0 5:0 6:0 7:0 8:0 9:0 10:0 11:0 12:0 13:0 14:0 15:0 16:0.0014609999 17:0 18:0.444444 19:0 20:0.001362 21:0 22:0 23:0 24:0 25:0 26:0 27:0 28:0 29:0 30:0 31:0 32:0 33:0 34:0 35:0 36:0 37:0 38:0 39:0 40:0 41:0 42:0 43:0.166667 44:0 45:0 46:0 #docid = GX000-00-0000000 inc = 1 prob = 0.02021
0.1024800167214579 1:0.037296001 2:0.083333001 3:1 4:0 5:0.04662 6:0 7:0 8:0 9:0 10:0 11:0.063481003 12:0.114283 13:1 14:0 15:0.081725001 16:0.0058189998 17:0.026316 18:0.77777803 19:0.23076899 20:0.0058920002 21:1 22:1 23:0.945467 24:1 25:1 26:0.31183901 27:0.15558501 28:0.231309 29:0.91000301 30:0.961164 31:0.99978399 32:0.97413701 33:0 34:0 35:0 36:0 37:1 38:1 39:0.95710802 40:1 41:0.00037600001 42:0.000444 43:0.77777803 44:0.42857099 45:0.32941201 46:0 #docid = GX009-29-8843071 inc = 1 prob = 0.530436
0.64972796056449056 1:0.055943999 2:0.083333001 3:1 4:0 5:0.065268002 6:0 7:0 8:0 9:0 10:0 11:0.10717 12:0.114283 13:1 14:0 15:0.12619001 16:0.0088900002 17:0.026316 18:0.77777803 19:0.23076899 20:0.0089619998 21:0.99798501 22:0.98214 23:0.976533 24:0.979469 25:1 26:0.31183901 27:0.15558501 28:0.231309 29:0.91000301 30:0.961164 31:0.99978399 32:0.97413701 33:0 34:0 35:0 36:0 37:0.99353999 38:0.97949201 39:0.98108602 40:0.97748899 41:0.00037600001 42:0.000444 43:0.66666698 44:0.42857099 45:0.32941201 46:0 #docid = GX009-43-13527057 inc = 1 prob = 0.527719
-2.0284799326658822 1:0.020408001 2:0.25 3:0.5 4:1 5:0.023956999 6:0 7:0 8:0 9:0 10:0 11:0.087742999 12:0.304865 13:0.76034802 14:1 15:0.118724 16:0.0045929998 17:0.037037 18:0.88888901 19:0.090908997 20:0.0047780001 21:0.701828 22:0.49909401 23:0.40795901 24:0.356417 25:1 26:1 27:0.48706999 28:0.62572497 29:0.25415501 30:0 31:0 32:0 33:1 34:1 35:1 36:1 37:0.71825498 38:0.50392699 39:0.43020499 40:0.35312399 41:0.014618 42:0.046512 43:0 44:0.142857 45:0.084071003 46:0 #docid = GX000-25-5242073 inc = 1 prob = 0.317996
7.4921141205867396 1:0.306122 2:0 3:0.5 4:1 5:0.307897 6:0 7:0 8:0 9:0 10:0 11:1 12:0 13:0.76034802 14:1 15:1 16:0.20774999 17:0 18:0.5 19:0.21212099 20:0.207844 21:0.66830498 22:0.232912 23:0.36736399 24:0.198045 25:0 26:0 27:0 28:0 29:0.38984501 30:0.162889 31:0.0083060004 32:0.088368997 33:0.846062 34:0.84706599 35:0.86580998 36:0.73977703 37:0.67519498 38:0.236789 39:0.36613399 40:0.187052 41:0 42:0 43:0.016393 44:0.85714298 45:0.30088499 46:0 #docid = GX006-96-0399103 inc = 1 prob = 0.309796
-1.5564897913750855 1:0.023956999 2:0.25 3:0.5 4:0 5:0.026619 6:0 7:0 8:0 9:0 10:0 11:0.130512 12:0.304865 13:0.76034802 14:0 15:0.154799 16:0.015301 17:0.074074 18:0.33333299 19:0.15151501 20:0.015374 21:0.92273498 22:0.87736303 23:0.99083501 24:0.87734598 25:0.709135 26:0.410871 27:0.48464301 28:0.42776901 29:0.50550997 30:0.27768001 31:0.011875 32:0.150644 33:0 34:0 35:0 36:0 37:0.93987501 38:0.89693499 39:1 40:0.89317501 41:0.38195199 42:0.116279 43:1 44:0.57142901 45:0.150442 46:0 #docid = GX013-71-7825050 inc = 1 prob = 0.61404
-0.20995348755078425 1:0.019521 2:0 3:0.5 4:0 5:0.020408001 6:0 7:0 8:0 9:0 10:0 11:0.100504 12:0 13:0.76034802 14:0 15:0.113609 16:0.011954 17:0 18:0.38888901 19:0.18181799 20:0.011934 21:0.94173002 22:0.90510601 23:0.97448301 24:0.90637702 25:0 26:0 27:0 28:0 29:0.460015 30:0.23403899 31:0.010684 32:0.126968 33:0 34:0 35:0 36:0 37:0.95353103 38:0.91738802 39:0.97580099 40:0.91660798 41:0 42:0 43:0.016393 44:0.71428603 45:0.176991 46:0 #docid = GX022-33-10542365 inc = 1 prob = 0.740572
-5.7256708416608699 1:0.018634001 2:1 3:0.5 4:0 5:0.026619 6:0 7:0 8:0 9:0 10:0 11:0.068267003 12:1 13:0.83925402 14:0 15:0.115774 16:0.022847001 17:1 18:0.444444 19:0.15151501 20:0.024699001 21:0.551377 22:0.224388 23:0.303527 24:0.122759 25:0.26232299 26:0.29862699 27:1 28:1 29:0.46583 30:0.54691398 31:0.99404699 32:0.29670301 33:0 34:0 35:0 36:0 37:0.62205899 38:0.267481 39:0.355634 40:0.15001699 41:1 42:1 43:0.98360699 44:0.57142901 45:0.150442 46:0 #docid = GX048-49-0077427 inc = 1 prob = 0.0345919
2.0284799326658822 1:1 2:0 3:0 4:0 5:1 6:0 7:0 8:0 9:0 10:0 11:0 12:0 13:0 14:0 15:0 16:0.929012 17:0.037037 18:0 19:0.090908997 20:0.92904103 21:0.22072101 22:0 23:0 24:0.017165 25:0 26:0 27:0 28:0 29:0 30:0 31:0 32:0 33:0 34:0 35:0 36:0 37:0.227153 38:0 39:0 40:0 41:0.16159 42:0.023256 43:0 44:0.42857099 45:0.097345002 46:0 #docid = GX238-82-7628779 inc = 1 prob = 0.172545
2.3063150498537368 1:0.016039999 2:0 3:0 4:0 5:0.016039999 6:0 7:0 8:0 9:0 10:0 11:0.020311 12:0 13:0 14:0 15:0.020434 16:0.003608 17:0.050000001 18:0.166667 19:0.444444 20:0.003732 21:0.90070403 22:0.85250401 23:0.65526998 24:0.75217497 25:0 26:0 27:0 28:0 29:0 30:0 31:0 32:0 33:0 34:0 35:0 36:0 37:0.89294899 38:0.84373802 39:0.65199202 40:0.74729198 41:1 42:1 43:0.75510198 44:0.33333299 45:0.39344299 46:0 #docid = GX005-42-14098967 inc = 1 prob = 0.085558
-2.3063150498537368 1:0.022124 2:0.40000001 3:0.5 4:1 5:0.026549 6:0 7:0 8:0 9:0 10:0 11:0.028263001 12:0.44162199 13:0.53937697 14:1 15:0.033725999 16:0.002966 17:0.15000001 18:0.45833299 19:0.444444 20:0.0033120001 21:0.87515301 22:0.87268901 23:0.66891903 24:0.775639 25:1 26:0.60366601 27:0.56566399 28:0.47267801 29:0.94499099 30:0.79691899 31:0.728311 32:0.780788 33:1 34:1 35:1 36:1 37:0.90788698 38:0.92145699 39:0.72656101 40:0.81892997 41:0.088409998 42:0.014706 43:0.081633002 44:0.33333299 45:0.72131097 46:0 #docid = GX086-43-16107713 inc = 1 prob = 0.0833762
-0.3482979791683789 1:0.040883999 2:0 3:1 4:0 5:0.043094002 6:0 7:0 8:0 9:0 10:0 11:0.099691004 12:0 13:0.83993399 14:0 15:0.105307 16:0.051610999 17:0.034483001 18:0.5 19:0.33333299 20:0.051282 21:0.87053198 22:0.79188699 23:0.84266198 24:0.75641698 25:0 26:0 27:0 28:0 29:0.67379802 30:0.61613899 31:0.242598 32:0.71514899 33:0 34:0 35:0 36:0 37:0.89988899 38:0.79239202 39:0.87366498 40:0.77854401 41:0.97147101 42:0.99259299 43:0.23494001 44:0.2 45:0.246575 46:0 #docid = GX000-20-13879530 inc = 0.704347293354781 prob = 0.584442
97.205400316067781 1:0 2:0 3:0 4:0 5:0 6:0 7:0 8:0 9:0 10:0 11:0 12:0 13:0 14:0 15:0 16:0.128538 17:0 18:0 19:0.66666698 20:0.128071 21:0 22:0 23:0 24:0 25:0 26:0 27:0 28:0 29:0 30:0 31:0 32:0 33:0 34:0 35:0 36:0 37:0 38:0 39:0 40:0 41:0 42:0 43:0 44:0.60000002 45:0.53424698 46:0 #docid = GX006-56-7584409 inc = 0.601392509298934 prob = 0.5779
-0.76821014115751041 1:0.0066300002 2:0.142857 3:1 4:0 5:0.0099449996 6:0 7:0 8:0 9:0 10:0 11:0.019416999 12:0.143612 13:1 14:0 15:0.030269001 16:0.006641 17:0.034483001 18:0.33333299 19:0.66666698 20:0.0063319998 21:0.85949898 22:0.74471498 23:0.477588 24:0.82434797 25:0.91965902 26:0.27507001 27:0.002379 28:0.216133 29:1 30:1 31:1 32:1 33:0 34:0 35:0 36:0 37:0.94147998 38:0.80599201 39:0.58771503 40:0.88409698 41:0.001421 42:0.003704 43:0.054217 44:0.60000002 45:0.45205501 46:0 #docid = GX044-72-0557462 inc = 1 prob = 0.287998
-96.088892195741892 1:0.0055249999 2:1 3:1 4:0 5:0.01547 6:0 7:0 8:0 9:0 10:0 11:0.017878 12:1 13:1 14:0 15:0.050634999 16:0.0043230001 17:1 18:0.66666698 19:0.66666698 20:0.00544 21:0.805305 22:0.67453802 23:0.44077501 24:0.57595199 25:0.63813198 26:1 27:1 28:1 29:0.66973299 30:0.812482 31:0.996436 32:0.87360698 33:0 34:0 35:0 36:0 37:0.93922102 38:0.77758098 39:0.67502201 40:0.68035799 41:0.60832101 42:0.185185 43:0.072288997 44:0.40000001 45:0.39726001 46:0 #docid = GX230-35-1227235 inc = 1 prob = 0.0145975
1.7422024105272236 1:0.42168701 2:0.25 3:1 4:0 5:0.44578299 6:0 7:0 8:0 9:0 10:0 11:0.50234097 12:0.25 13:1 14:0 15:0.53102601 16:0.063649997 17:0.15000001 18:0.15000001 19:0 20:0.062454 21:1 22:0.99947703 23:0.97141802 24:1 25:0.82105899 26:0.93432701 27:0.64924002 28:0.947312 29:1 30:1 31:1 32:1 33:0 34:0 35:0 36:0 37:1 38:0.99782503 39:0.96848202 40:1 41:0.014484 42:0.041666999 43:0.045455001 44:0 45:0.0082639996 46:0 #docid = GX002-02-12768185 inc = 0.834571275324302 prob = 0.480513
-10.309052873522026 1:0.120482 2:0 3:0 4:1 5:0.126506 6:0 7:0 8:0 9:0 10:0 11:0.16877 12:0 13:0 14:1 15:0.17752101 16:0.125291 17:0.15000001 18:0.40000001 19:0.166667 20:0.12501299 21:0.444121 22:0 23:0.010723 24:0 25:0 26:0 27:0 28:0 29:0 30:0 31:0 32:0 33:0.95830601 34:0.979204 35:0.99961501 36:0.97850001 37:0.44289699 38:0 39:0.0082719997 40:0 41:0.0095490003 42:0.027778 43:0.045455001 44:0 45:0.198347 46:0 #docid = GX005-13-15194028 inc = 0.833968714700507 prob = 0.199253
10.589898395546291 1:0.463855 2:0.5 3:1 4:0 5:0.5 6:0 7:0 8:0 9:0 10:0 11:0.52163798 12:0.5 13:1 14:0 15:0.56453103 16:0.126771 17:1 18:0.40000001 19:0.111111 20:0.128189 21:0.98097402 22:1 23:1 24:0.93171799 25:0.37742999 26:0.83565098 27:0.82014 28:0.79086202 29:0.58716702 30:0.83804297 31:0.99864101 32:0.87263 33:0 34:0 35:0 36:0 37:0.98585302 38:1 39:1 40:0.933483 41:0.063346997 42:0.055555999 43:0 44:0.2 45:0.041322 46:0 #docid = GX008-06-7391946 inc = 0.834571275324302 prob = 0.259919
-2.5326629679954342 1:0.078313001 2:0 3:0 4:1 5:0.084337004 6:0 7:0 8:0 9:0 10:0 11:0.11129 12:0 13:0 14:1 15:0.120008 16:0.067984998 17:0.30000001 18:0 19:0.111111 20:0.067005001 21:0.471627 22:0.033608999 23:0 24:0.029291 25:0 26:0 27:0 28:0 29:0 30:0 31:0 32:0 33:1 34:1 35:1 36:1 37:0.471214 38:0.035489 39:0 40:0.030169999 41:0.0094079999 42:0.013889 43:0 44:0 45:0.099174 46:0 #docid = GX016-52-2125765 inc = 0.834571275324302 prob = 0.185277
4.1972278700828269 1:0.078313001 2:0.125 3:0.5 4:1 5:0.096386001 6:0 7:0 8:0 9:0 10:0 11:0.093175001 12:0.14324 13:0.56937498 14:1 15:0.119142 16:0 17:0.1 18:0.60000002 19:0.222222 20:0 21:0.741943 22:0.414511 23:0.169098 24:0.30403399 25:0.57296097 26:0.350097 27:0.372807 28:0.280902 29:0.25131601 30:0.18053301 31:0.49389401 32:0.169294 33:0.91995001 34:0.96039301 35:0.99923003 36:0.95905101 37:0.74827701 38:0.41143799 39:0.18959001 40:0.30790699 41:0.001163 42:0.013889 43:0.060605999 44:0.60000002 45:0.140496 46:0 #docid = GX022-29-5906135 inc = 0.834571275324302 prob = 0.618473
-0.17904618305075815 1:0.93975902 2:0 3:0 4:0 5:0.93975902 6:0 7:0 8:0 9:0 10:0 11:1 12:0 13:0 14:0 15:1 16:0.30207199 17:0.25 18:0.1 19:0.222222 20:0.30168301 21:0.71735698 22:0.22218201 23:0.36806801 24:0.226459 25:0 26:0 27:0 28:0 29:0 30:0 31:0 32:0 33:0 34:0 35:0 36:0 37:0.71131301 38:0.218007 39:0.35653999 40:0.22252201 41:0.025424 42:0.013889 43:0.030303 44:0.40000001 45:0.247934 46:0 #docid = GX027-71-5941625 inc = 0.834571275324302 prob = 0.824267
3.8279555515014749 1:0.31927699 2:0 3:0 4:1 5:0.32530099 6:0 7:0 8:0 9:0 10:0 11:0.29929599 12:0 13:0 14:0.71990198 15:0.30483299 16:0.27236199 17:0.15000001 18:0.44999999 19:0.166667 20:0.27236199 21:0.363787 22:0.58046699 23:0.65110201 24:0.59466797 25:0 26:0 27:0 28:0 29:0 30:0 31:0 32:0 33:0.68988699 34:0.21368299 35:0.0057560001 36:0.186977 37:0.36268401 38:0.57625598 39:0.641886 40:0.591784 41:0.17918999 42:0.041666999 43:0.060605999 44:0 45:0.132231 46:0 #docid = GX032-87-14243199 inc = 0.834571275324302 prob = 0.725411
-1.2294316750940677 1:0.150602 2:0 3:0 4:0 5:0.150602 6:0 7:0 8:0 9:0 10:0 11:0.142722 12:0 13:0 14:0 15:0.14268699 16:0.123282 17:0.55000001 18:0.25 19:0.166667 20:0.123531 21:0.57516801 22:0.714917 23:0.675713 24:0.70317203 25:0 26:0 27:0 28:0 29:0 30:0 31:0 32:0 33:0 34:0 35:0 36:0 37:0.57115799 38:0.70398998 39:0.66272402 40:0.69514298 41:0.58741701 42:1 43:0.98484802 44:0.40000001 45:0.14876001 46:0 #docid = GX034-83-16544809 inc = 0.834571275324302 prob = 0.7152
-9.3313276162989336 1:0.222892 2:1 3:1 4:0 5:0.283133 6:0 7:0 8:0 9:0 10:0 11:0.243237 12:1 13:1 14:0 15:0.31459999 16:0.080990002 17:0.64999998 18:0.30000001 19:0.166667 20:0.081506997 21:0.68603098 22:0.26564601 23:0.25124601 24:0.199743 25:0.883865 26:0.98973298 27:1 28:0.93690997 29:0.70330602 30:0.88554198 31:0.99918401 32:0.90998799 33:0 34:0 35:0 36:0 37:0.72068697 38:0.304656 39:0.294476 40:0.232079 41:1 42:0.347222 43:1 44:0.40000001 45:0.14876001 46:0 #docid = GX050-32-14161099 inc = 0.834571275324302 prob = 0.363348
0.87825331875180712 1:0.012048 2:0 3:0 4:0 5:0.012048 6:0 7:0 8:0 9:0 10:0 11:0.011247 12:0 13:0 14:0 15:0.011243 16:0.047683999 17:0 18:0.40000001 19:0.222222 20:0.047104999 21:0.48603901 22:0.50549501 23:0.401418 24:0.62700701 25:0 26:0 27:0 28:0 29:0 30:0 31:0 32:0 33:0 34:0 35:0 36:0 37:0.478084 38:0.49412999 39:0.39210501 40:0.61732799 41:0 42:0 43:0.015152 44:0.60000002 45:0.198347 46:0 #docid = GX059-85-15170931 inc = 0.834571275324302 prob = 0.323929
0.38258814233283633 1:0.20481899 2:0 3:1 4:0 5:0.216867 6:0 7:0 8:0 9:0 10:0 11:0.22334699 12:0 13:1 14:0 15:0.237627 16:0.066399001 17:0 18:0.34999999 19:0.222222 20:0.065734997 21:0.69534898 22:0.274995 23:0.250862 24:0.212566 25:0 26:0 27:0 28:0 29:0.64001 30:0.86009002 31:0.99891299 32:0.88997 33:0 34:0 35:0 36:0 37:0.697743 38:0.276362 39:0.25294301 40:0.215654 41:0 42:0 43:0.015152 44:0.60000002 45:0.198347 46:0 #docid = GX062-59-7644859 inc = 0.834571275324302 prob = 0.723798
2.1979161668052996 1:0.72891599 2:0.25 3:1 4:0 5:0.753012 6:0 7:0 8:0 9:0 10:0 11:0.82430798 12:0.25 13:1 14:0 15:0.85297698 16:0.207443 17:0.15000001 18:0.30000001 19:0.111111 20:0.206944 21:0.76314503 22:0.305428 23:0.403438 24:0.260575 25:0.82105899 26:0.93432701 27:0.64924002 28:0.947312 29:0.70330602 30:0.88554198 31:0.99918401 32:0.90998799 33:0 34:0 35:0 36:0 37:0.76064003 38:0.306348 39:0.39909601 40:0.26170099 41:0.0047019999 42:0.013889 43:0.121212 44:0.40000001 45:0.099174 46:0 #docid = GX065-61-4847040 inc = 0.834571275324302 prob = 0.522402
0.11039462219888652 1:1 2:0 3:0 4:0 5:1 6:0 7:0 8:0 9:0 10:0 11:0.96726501 12:0 13:0 14:0 15:0.96706098 16:0.96320599 17:0.2 18:0 19:0.222222 20:0.963269 21:0.381854 22:0.61633199 23:0.76282501 24:0.58426201 25:0 26:0 27:0 28:0 29:0 30:0 31:0 32:0 33:0 34:0 35:0 36:0 37:0.38335201 38:0.61164701 39:0.75102901 40:0.58138502 41:0.0029450001 42:0.013889 43:0 44:0.60000002 45:0.18181799 46:0 #docid = GX229-44-15627179 inc = 0.834571275324302 prob = 0.882538
-1.6010673640351039 1:0.72289199 2:0 3:0 4:0 5:0.72289199 6:0 7:0 8:0 9:0 10:0 11:0.709288 12:0 13:0 14:0 15:0.709153 16:1 17:0.2 18:0 19:0.166667 20:1 21:0.28736901 22:0.50489497 23:0.64453399 24:0.497895 25:0 26:0 27:0 28:0 29:0 30:0 31:0 32:0 33:0 34:0 35:0 36:0 37:0.28774801 38:0.50141603 39:0.63430202 40:0.49564201 41:0.00083799998 42:0.013889 43:0 44:0.2 45:0.190083 46:0 #docid = GX259-58-6502122 inc = 0.834571275324302 prob = 0.684073
2.9983546127769021 1:0.108434 2:0.25 3:0 4:1 5:0.126506 6:0 7:0 8:0 9:0 10:0 11:0.13034999 12:0.25 13:0 14:1 15:0.153304 16:0.015648 17:0.1 18:0 19:0.166667 20:0.01429 21:0.73505998 22:0.347693 23:0.202874 24:0.26648101 25:1 26:1 27:0.64943802 28:1 29:0 30:0 31:0 32:0 33:0.95830601 34:0.979204 35:0.99961501 36:0.97850001 37:0.74320197 38:0.364034 39:0.221112 40:0.27858901 41:0.011676 42:0.013889 43:0 44:0.40000001 45:0.115702 46:0 #docid = GX265-91-8323157 inc = 0.834571275324302 prob = 0.453974
-1.7422024105272236 1:0.114458 2:0 3:0 4:1 5:0.120482 6:0 7:0 8:0 9:0 10:0 11:0.106848 12:0 13:0 14:0.71990198 15:0.112431 16:0.144639 17:0.2 18:0 19:1 20:0.14523099 21:0.34970999 22:0.43552601 23:0.49698499 24:0.55462599 25:0 26:0 27:0 28:0 29:0 30:0 31:0 32:0 33:0.42444 34:0 35:0 36:0 37:0.34786099 38:0.43272001 39:0.49180701 40:0.55181903 41:0.00047699999 42:0.013889 43:0 44:1 45:1 46:0 #docid = GX272-70-6476709 inc = 0.834571275324302 prob = 0.265085
-3.369885019306647 1:0.047858998 2:1 3:0 4:1 5:0.049538001 6:0 7:0 8:0 9:0 10:0 11:0.094463997 12:1 13:0 14:1 15:0.102974 16:0.010412 17:0.1 18:0 19:0.052632 20:0.010205 21:0.62879097 22:0.48854199 23:0.31632599 24:0.37264499 25:1 26:1 27:1 28:1 29:0 30:0 31:0 32:0 33:0.95451301 34:0.97236598 35:0.99936098 36:0.97812599 37:0.80403697 38:0.78231198 39:0.480225 40:0.90621799 41:0.0049450002 42:0.012821 43:0 44:0 45:0.025210001 46:0 #docid = GX008-55-14357928 inc = 0.692572800090389 prob = 0.107122
3.369885019306647 1:0.026029 2:0 3:1 4:0 5:0.026868001 6:0 7:0 8:0 9:0 10:0 11:0.01935 12:0 13:0.79259598 14:0 15:0.019416001 16:0.025079999 17:0 18:0.418605 19:0.157895 20:0.025316 21:0.442269 22:0.81061298 23:0.464295 24:0.75926399 25:0 26:0 27:0 28:0 29:0.509826 30:0.54702997 31:0.0046040001 32:0.74873501 33:0 34:0 35:0 36:0 37:0.48629099 38:0.86853701 39:0.52084398 40:0.79522699 41:0.037889998 42:0.012821 43:0.043478001 44:0.33333299 45:0.21008401 46:0 #docid = GX017-79-13896734 inc = 0.719531935422559 prob = 0.12368
-0.78378389954849581 1:0.034425002 2:0 3:1 4:0 5:0.035264 6:0 7:0 8:0 9:0 10:0 11:0.044831999 12:0 13:0.824157 14:0 15:0.047786999 16:0.025079999 17:0.1 18:0.20930199 19:0.42105299 20:0.025246 21:0.998842 22:0.99831897 23:0.76915199 24:0.99821401 25:0 26:0 27:0 28:0 29:0.89401799 30:1 31:1 32:1 33:0 34:0 35:0 36:0 37:0.99914402 38:0.99863601 39:0.77181798 40:0.97632301 41:0.00030700001 42:0.012821 43:0.152174 44:1 45:0.51260501 46:0 #docid = GX048-84-10250762 inc = 0.725650225988823 prob = 0.342191
-0.2352558747887894 1:0.034425002 2:0 3:1 4:0 5:0.035264 6:0 7:0 8:0 9:0 10:0 11:0.044831999 12:0 13:0.824157 14:0 15:0.047786999 16:0.024987999 17:0.2 18:0.20930199 19:0.42105299 20:0.025177 21:1 22:1 23:0.77001798 24:1 25:0 26:0 27:0 28:0 29:0.89401799 30:0.953623 31:1 32:1 33:0 34:0 35:0 36:0 37:1 38:1 39:0.77248502 40:0.97763401 41:0.029803 42:0.012821 43:0.173913 44:1 45:0.50420201 46:0 #docid = GX146-90-16642520 inc = 0.725650225988823 prob = 0.336627
-0.26674630330705895 1:0.034425002 2:0 3:1 4:0 5:0.035264 6:0 7:0 8:0 9:0 10:0 11:0.044831999 12:0 13:0.824157 14:0 15:0.047786999 16:0.025103999 17:0.1 18:0.20930199 19:0.42105299 20:0.02527 21:0.99855202 22:0.99784201 23:0.76893598 24:0.997769 25:0 26:0 27:0 28:0 29:0.89401799 30:1 31:1 32:1 33:0 34:0 35:0 36:0 37:0.99885899 38:0.99816102 39:0.771595 40:0.975887 41:0.000416 42:0.012821 43:0 44:1 45:0.55462199 46:0 #docid = GX200-00-7493505 inc = 0.725650225988823 prob = 0.334797
1.2857860776443442 1:0.269521 2:0 3:0 4:1 5:0.27036101 6:0 7:0 8:0 9:0 10:0 11:0.41231599 12:0 13:0 14:1 15:0.43798399 16:0.35883 17:0.30000001 18:0 19:0.157895 20:0.35877299 21:0.58119899 22:0.39306399 23:0.470173 24:0.30733499 25:0 26:0 27:0 28:0 29:0 30:0 31:0 32:0 33:0.874919 34:0.92640501 35:0.99808502 36:0.94158202 37:0.61548901 38:0.387097 39:0.51807302 40:0.34038699 41:0.091546997 42:0.012821 43:0 44:0.222222 45:0.117647 46:0 #docid = GX261-81-4896686 inc = 0.725650225988823 prob = 0.330437
11.693087419651874 1:0.049913 2:0 3:0 4:0 5:0.049869999 6:0 7:0 8:0 9:0 10:0 11:0.36737299 12:0 13:0 14:0 15:0.372614 16:0.058240999 17:0.41666701 18:0.25 19:0.555556 20:0.058897998 21:0.90090197 22:0.84312898 23:0.96566099 24:0.887972 25:0 26:0 27:0 28:0 29:0 30:0 31:0 32:0 33:0 34:0 35:0 36:0 37:0.90644401 38:0.83433598 39:0.96039701 40:0.87961602 41:0.90653002 42:0.52173901 43:0.5 44:1 45:0.42623001 46:0 #docid = GX027-55-9691561 inc = 1 prob = 0.314672
0.97863209727239564 1:0.028212 2:0.166667 3:0 4:0 5:0.029054999 6:0 7:0 8:0 9:0 10:0 11:0.389072 12:0.166667 13:0 14:0 15:0.39692599 16:0.024445999 17:0.222222 18:0.33333299 19:0.555556 20:0.024821 21:0.93530798 22:0.88013798 23:0.898139 24:0.83865303 25:0.36394101 26:0.217659 27:0.18336 28:0.248154 29:0 30:0 31:0 32:0 33:0 34:0 35:0 36:0 37:0.94196397 38:0.87623203 39:0.90691 40:0.83493698 41:0.011384 42:0.043478001 43:0 44:0.80000001 45:0.655738 46:0 #docid = GX028-28-13812238 inc = 1 prob = 0.37177
-59.372647005891679 1:0.082465 2:0.58333302 3:1 4:1 5:0.088031001 6:0 7:0 8:0 9:0 10:0 11:0.41141799 12:0.48154101 13:1 14:1 15:0.42730999 16:0.091241002 17:0.277778 18:0.25 19:0.77777803 20:0.091759004 21:0.63833803 22:0.51440299 23:0.67268997 24:0.52210999 25:0.81213099 26:1 27:0.70740801 28:1 29:1 30:1 31:0.74532402 32:1 33:0.92303097 34:0.95965499 35:0.99855399 36:0.97212601 37:0.65786803 38:0.53267801 39:0.70485997 40:0.54078901 41:0.016914999 42:0.130435 43:0.70833302 44:0.80000001 45:1 46:0 #docid = GX031-55-16245423 inc = 0.706037059122157 prob = 0.242883
-0.20417940263004652 1:0.052517001 2:0 3:0 4:0 5:0.052471999 6:0 7:0 8:0 9:0 10:0 11:0.438241 12:0 13:0 14:0 15:0.44329399 16:0.048751999 17:0.027778 18:0.25 19:0.33333299 20:0.048661001 21:0.80068499 22:0.78418797 23:0.96713501 24:0.753905 25:0 26:0 27:0 28:0 29:0 30:0 31:0 32:0 33:0 34:0 35:0 36:0 37:0.80590701 38:0.78048402 39:0.96547002 40:0.75073701 41:1 42:0.60869598 43:1 44:0.40000001 45:0.344262 46:0 #docid = GX032-05-5392509 inc = 1 prob = 0.371034
-1.1540774180095354 1:0.105469 2:0.25 3:1 4:1 5:0.10928 6:0 7:0 8:0 9:0 10:0 11:0.482418 12:0.241699 13:1 14:1 15:0.496409 16:0.078573003 17:0.138889 18:0.33333299 19:0.555556 20:0.078810997 21:0.65154701 22:0.51225001 23:0.70511299 24:0.44003099 25:0.73644102 26:0.719639 27:0.40153801 28:0.64895099 29:0.87671697 30:0.94308197 31:0.744533 32:0.95326698 33:1 34:1 35:1 36:1 37:0.65874702 38:0.51901603 39:0.72029197 40:0.44818601 41:0.0075389999 42:0.043478001 43:0.58333302 44:0.2 45:0.459016 46:0 #docid = GX062-22-11864991 inc = 0.706037059122157 prob = 0.472986
0.72172494977621682 1:0.059896 2:0 3:0 4:0 5:0.059843998 6:0 7:0 8:0 9:0 10:0 11:0.419045 12:0 13:0 14:0 15:0.424108 16:0.085725002 17:0.083333001 18:0.166667 19:0.66666698 20:0.085822001 21:0.57481301 22:0.340128 23:0.44552401 24:0.25364 25:0 26:0 27:0 28:0 29:0 30:0 31:0 32:0 33:0 34:0 35:0 36:0 37:0.57850099 38:0.338557 39:0.442837 40:0.252177 41:0.022574 42:0.043478001 43:0 44:0.80000001 45:0.63934398 46:0 #docid = GX123-07-9220579 inc = 0.705703607804537 prob = 0.183339
39.798915504391289 1:0.135417 2:0 3:0 4:0 5:0.135299 6:0 7:0 8:0 9:0 10:0 11:0.32365 12:0 13:0 14:0 15:0.32822499 16:0.236001 17:0.055555999 18:0 19:0.77777803 20:0.236012 21:0.25662699 22:0.025673 23:0.015444 24:0 25:0 26:0 27:0 28:0 29:0 30:0 31:0 32:0 33:0 34:0 35:0 36:0 37:0.260593 38:0.025178 39:0.013495 40:0 41:0.0098839998 42:0.043478001 43:0 44:1 45:0.57376999 46:0 #docid = GX238-64-9825998 inc = 1 prob = 0.161891
8.0758689500202507 1:1 2:0.166667 3:0 4:0 5:1 6:0 7:0 8:0 9:0 10:0 11:0.62310499 12:0.166667 13:0 14:0 15:0.61960399 16:0.96368098 17:0.111111 18:0 19:0.33333299 20:0.963633 21:0.502985 22:0.217253 23:0.29948601 24:0.26837501 25:0.58489901 26:0.32936099 27:0.187328 28:0.30819499 29:0 30:0 31:0 32:0 33:0 34:0 35:0 36:0 37:0.507976 38:0.217785 39:0.301788 40:0.26952401 41:0.065812998 42:0.043478001 43:0 44:0.60000002 45:0.180328 46:0 #docid = GX250-22-8542052 inc = 1 prob = 0.164131
-0.53732509458076549 1:0.025173999 2:0 3:1 4:0.33333299 5:0.026885999 6:0 7:0 8:0 9:0 10:0 11:0.38868201 12:0 13:0.65184897 14:0.351073 15:0.39602199 16:0.014957 17:0 18:0.41666701 19:0.66666698 20:0.015052 21:1 22:0.94471103 23:0.89753598 24:0.949076 25:0 26:0 27:0 28:0 29:0.50876498 30:0.461943 31:0.390755 32:0.545735 33:0.33702099 34:0.058674999 35:0.162892 36:0.040534999 37:1 38:0.941989 39:0.90365797 40:0.94561398 41:0 42:0 43:0.083333001 44:0.80000001 45:0.655738 46:0 #docid = GX252-62-8137077 inc = 1 prob = 0.145549
-3.5155406091046757 1:0 2:0 3:0 4:0 5:0 6:0 7:0 8:0 9:0 10:0 11:0 12:0 13:0 14:0 15:0 16:0.0025569999 17:0 18:0.235294 19:0 20:0.0020659999 21:0 22:0 23:0 24:0 25:0 26:0 27:0 28:0 29:0 30:0 31:0 32:0 33:0 34:0 35:0 36:0 37:0 38:0 39:0 40:0 41:0 42:0 43:0.044776 44:0 45:0 46:0 #docid = GX000-00-0000000 inc = 1 prob = 0.0295736
-1.0247017367387545 1:0.074074 2:0 3:0 4:0 5:0.071428999 6:0 7:0 8:0 9:0 10:0 11:0.070471004 12:0 13:0 14:0 15:0.067953996 16:0.31066701 17:1 18:0.76470602 19:0.133333 20:0.311205 21:0.19528399 22:0.54318303 23:0.62180501 24:0.571697 25:0 26:0 27:0 28:0 29:0 30:0 31:0 32:0 33:0 34:0 35:0 36:0 37:0.200009 38:0.54584002 39:0.62043703 40:0.57450598 41:0.000826 42:0.050000001 43:0.044776 44:0.42857099 45:0.190083 46:0 #docid = GX007-98-7197468 inc = 1 prob = 0.252469
4.1650200698762205 1:0.96296299 2:0 3:1 4:1 5:0.96428603 6:0 7:0 8:0 9:0 10:0 11:0.95936 12:0 13:1 14:1 15:0.96081102 16:0.111244 17:0 18:0.41176501 19:0.26666701 20:0.111075 21:0.93864399 22:0.94401997 23:0.99968302 24:0.939996 25:0 26:0 27:0 28:0 29:0.64001 30:0.46151799 31:0.71356797 32:0.51153201 33:1 34:0 35:0 36:0 37:0.94528902 38:0.950495 39:0.999686 40:0.94621998 41:0 42:0 43:0.029851001 44:0.85714298 45:0.35537201 46:0 #docid = GX009-29-7948495 inc = 1 prob = 0.436122
0.72389236515357425 1:0.351852 2:1 3:1 4:0 5:0.39285699 6:0 7:0 8:0 9:0 10:0 11:0.351852 12:1 13:1 14:0 15:0.39285699 16:0.031714 17:0.54545498 18:0.29411799 19:0.33333299 20:0.031860001 21:0.83572698 22:0.55642903 23:0.49351799 24:0.38589999 25:0.69583303 26:0.55372399 27:1 28:0.471679 29:0.78049499 30:0.72532701 31:0.85671198 32:0.70550799 33:0 34:0 35:0 36:0 37:0.84613699 38:0.56646502 39:0.50296199 40:0.39545101 41:0.050700001 42:0.55000001 43:1 44:0.57142901 45:0.280992 46:0 #docid = GX013-73-4678442 inc = 1 prob = 0.342239
1.5031392488375737 1:0.166667 2:0 3:0 4:0 5:0.160714 6:0 7:0 8:0 9:0 10:0 11:0.163064 12:0 13:0 14:0 15:0.15724 16:0.036120001 17:0.45454499 18:0.29411799 19:0.33333299 20:0.036208998 21:0.94882202 22:0.96674597 23:0.90608001 24:0.96785402 25:0 26:0 27:0 28:0 29:0 30:0 31:0 32:0 33:0 34:0 35:0 36:0 37:0.94932801 38:0.96688801 39:0.90246803 40:0.96800297 41:0.016372001 42:0.30000001 43:0.985075 44:0.57142901 45:0.280992 46:0 #docid = GX015-46-0914114 inc = 1 prob = 0.667306
-1.5031392488375737 1:0.87036997 2:0.5 3:1 4:0 5:0.875 6:0 7:0 8:0 9:0 10:0 11:0.87036997 12:0.5 13:1 14:0 15:0.875 16:1 17:0.63636398 18:0.41176501 19:0.60000002 20:1 21:0.45477101 22:0.25635001 23:0.198512 24:0.19543999 25:0.374246 26:0.147422 27:0.001434 28:0.064214997 29:0.64001 30:0.54440498 31:0.71356797 32:0.51153201 33:0 34:0 35:0 36:0 37:0.47167799 38:0.26018101 39:0.201285 40:0.199108 41:0.00029900001 42:0.050000001 43:0.029851001 44:1 45:0.47107399 46:0 #docid = GX020-07-6517472 inc = 1 prob = 0.0353764
-0.71647275868639326 1:0.037037 2:0 3:0 4:0 5:0.035714 6:0 7:0 8:0 9:0 10:0 11:0.037037 12:0 13:0 14:0 15:0.035714 16:0.191644 17:0 18:0.35294101 19:0.26666701 20:0.191377 21:0.15733001 22:0.090250999 23:0.148193 24:0.081569999 25:0 26:0 27:0 28:0 29:0 30:0 31:0 32:0 33:0 34:0 35:0 36:0 37:0.16106001 38:0.090989999 39:0.14720801 40:0.081614003 41:0 42:0 43:0 44:0.57142901 45:0.214876 46:0 #docid = GX067-76-13840840 inc = 1 prob = 0.0447959
1.0172821302715735 1:0.96296299 2:0 3:1 4:1 5:0.96428603 6:0 7:0 8:0 9:0 10:0 11:0.95936 12:0 13:1 14:1 15:0.96081102 16:0.110863 17:0 18:0.41176501 19:0.26666701 20:0.110694 21:0.93919998 22:0.94454998 23:1 24:0.94050997 25:0 26:0 27:0 28:0 29:0.64001 30:0.46151799 31:0.71356797 32:0.51153201 33:1 34:0 35:0 36:0 37:0.94583201 38:0.95102298 39:1 40:0.94673097 41:0 42:0 43:0.044776 44:0.85714298 45:0.38016501 46:0 #docid = GX246-83-4292859 inc = 1 prob = 0.516365
-0.64947946077154484 1:0.074074 2:0 3:0 4:0 5:0.071428999 6:0 7:0 8:0 9:0 10:0 11:0.070471004 12:0 13:0 14:0 15:0.067953996 16:0.310287 17:1 18:0.76470602 19:0.133333 20:0.31082499 21:0.195484 22:0.54337299 23:0.62197101 24:0.57188201 25:0 26:0 27:0 28:0 29:0 30:0 31:0 32:0 33:0 34:0 35:0 36:0 37:0.200211 38:0.54602998 39:0.62060201 40:0.57468998 41:0.000216 42:0.050000001 43:0.089552 44:0.42857099 45:0.214876 46:0 #docid = GX250-05-0880157 inc = 1 prob = 0.256632
10.664338571642151 1:0.069408998 2:1 3:1 4:0 5:0.082262002 6:0 7:0 8:0 9:0 10:0 11:0.081317 12:1 13:1 14:0 15:0.097034 16:0.061549 17:0.125 18:0.5625 19:0 20:0.060718 21:0.90287501 22:0.68591702 23:0.56519097 24:0.310963 25:1 26:1 27:1 28:1 29:0.98809999 30:1 31:1 32:0.991988 33:0 34:0 35:0 36:0 37:0.91122401 38:0.72889298 39:0.64122403 40:0.35616499 41:0.021342 42:0.047619 43:0.0077180001 44:0 45:0.098765001 46:0 #docid = GX020-55-10252835 inc = 0.768417317429678 prob = 0.63609
-0.14110048259096042 1:0.007712 2:0 3:0 4:0 5:0.007712 6:0 7:0 8:0 9:0 10:0 11:0.010161 12:0 13:0 14:0 15:0.010193 16:0.019792 17:0.3125 18:0.0625 19:0.066666998 20:0.018612999 21:0.70105302 22:0.50108802 23:0.024548 24:0.147414 25:0 26:0 27:0 28:0 29:0 30:0 31:0 32:0 33:0 34:0 35:0 36:0 37:0.67617601 38:0.493274 39:0.026755 40:0.14325599 41:0.0039499998 42:0.047619 43:0.027563 44:0.2 45:0.098765001 46:0 #docid = GX028-99-2523897 inc = 0.768417317429678 prob = 0.488036
-4.5586010757353392 1:0 2:0 3:0 4:0 5:0 6:0 7:0 8:0 9:0 10:0 11:0 12:0 13:0 14:0 15:0 16:0.034710001 17:0.375 18:0.9375 19:0.133333 20:0.034749001 21:0.41569099 22:0.41936401 23:0.245649 24:0.625328 25:0 26:0 27:0 28:0 29:0 30:0 31:0 32:0 33:0 34:0 35:0 36:0 37:0.393325 38:0.39997399 39:0.24037001 40:0.61594599 41:0.110387 42:0.095238 43:0.002205 44:0.40000001 45:0.061728001 46:0 #docid = GX036-62-0004764 inc = 0.768417317429678 prob = 0.19702
-0.3168063473839311 1:0.028278001 2:0 3:0 4:0 5:0.028278001 6:0 7:0 8:0 9:0 10:0 11:0.030231001 12:0 13:0 14:0 15:0.030301001 16:0.028188 17:0.375 18:0.4375 19:0 20:0.027469 21:0.78075099 22:0.96918702 23:0.82152599 24:1 25:0 26:0 27:0 28:0 29:0 30:0 31:0 32:0 33:0 34:0 35:0 36:0 37:0.752226 38:0.952896 39:0.81777298 40:1 41:0.236202 42:0.238095 43:0.0088200001 44:0 45:0 46:0 #docid = GX048-23-16270483 inc = 0.768417317429678 prob = 0.531125
-3.9989182461866903 1:0 2:0 3:0 4:0 5:0 6:0 7:0 8:0 9:0 10:0 11:0 12:0 13:0 14:0 15:0 16:0.099858001 17:1 18:0.375 19:0.133333 20:0.100045 21:0.14043801 22:0.060083002 23:0.051401999 24:0.28387201 25:0 26:0 27:0 28:0 29:0 30:0 31:0 32:0 33:0 34:0 35:0 36:0 37:0.13363899 38:0.052761 39:0.048142001 40:0.28050801 41:0.038624998 42:0.047619 43:0.015436 44:0.40000001 45:0.061728001 46:0 #docid = GX050-05-9307796 inc = 0.768417317429678 prob = 0.14959
3.7405273472322733 1:0.028278001 2:1 3:0.66666698 4:0 5:0.038559999 6:0 7:0 8:0 9:0 10:0 11:0.034745999 12:1 13:0.69932997 14:0 15:0.047596 16:0.003823 17:0.1875 18:0.375 19:0.066666998 20:0.0028520001 21:1 22:0.94890398 23:0.461427 24:0.55431199 25:0.82105899 26:0.91581202 27:0.99949002 28:0.93602598 29:1 30:0.95592701 31:0.910914 32:1 33:0 34:0 35:0 36:0 37:1 38:1 39:0.57592899 40:0.60775602 41:0.0025539999 42:0.047619 43:0 44:0.2 45:0.012346 46:0 #docid = GX078-64-4295423 inc = 0.768417317429678 prob = 0.573075
-1.0196619819251822 1:0.028278001 2:0 3:0 4:0 5:0.028278001 6:0 7:0 8:0 9:0 10:0 11:0.033146001 12:0 13:0 14:0 15:0.033209998 16:1 17:0.0625 18:0.3125 19:0.133333 20:1 21:0 22:0.19913501 23:0.067459002 24:0.024692001 25:0 26:0 27:0 28:0 29:0 30:0 31:0 32:0 33:0 34:0 35:0 36:0 37:0 38:0.199423 39:0.069418997 40:0.025288999 41:0.00073999999 42:0.285714 43:1 44:0.2 45:0.061728001 46:0 #docid = GX079-36-9247768 inc = 0.716791001683241 prob = 0.115846
-3.77361703268582 1:1 2:0 3:0 4:0 5:1 6:0 7:0 8:0 9:0 10:0 11:1 12:0 13:0 14:0 15:1 16:0.66699201 17:0.1875 18:0.3125 19:0.33333299 20:0.66699201 21:0.439711 22:0.75475597 23:1 24:0.57464498 25:0 26:0 27:0 28:0 29:0 30:0 31:0 32:0 33:0 34:0 35:0 36:0 37:0.42509699 38:0.75344902 39:1 40:0.582609 41:0.0046350001 42:0.047619 43:0 44:0.2 45:0.197531 46:0 #docid = GX246-46-12808106 inc = 0.768417317429678 prob = 0.19188
-0.5961607523665009 1:0.071979001 2:0 3:0 4:0 5:0.071979001 6:0 7:0 8:0 9:0 10:0 11:0.073914997 12:0 13:0 14:0 15:0.073932 16:0.29477501 17:0.125 18:0 19:0.26666701 20:0.29383099 21:0.39175701 22:0.520769 23:0.65243602 24:0.45278299 25:0 26:0 27:0 28:0 29:0 30:0 31:0 32:0 33:0 34:0 35:0 36:0 37:0.382801 38:0.51957399 39:0.65273601 40:0.45864099 41:0.015982 42:0.047619 43:0 44:0.40000001 45:0.098765001 46:0 #docid = GX272-00-15330168 inc = 0.768417317429678 prob = 0.267584
-2.3516849781002969 1:0.00080500002 2:0 3:0 4:0 5:0.00080500002 6:0 7:0 8:0 9:0 10:0 11:0.040339999 12:0 13:0 14:0 15:0.024040001 16:0 17:0 18:0.210526 19:0 20:0 21:0 22:0.29246601 23:0.312967 24:0.0077760001 25:0 26:0 27:0 28:0 29:0 30:0 31:0 32:0 33:0 34:0 35:0 36:0 37:0 38:0.27570599 39:0.304905 40:0.010071 41:0 42:0 43:0.09375 44:0 45:0 46:0 #docid = GX000-00-0000000 inc = 1 prob = 0.0457882
-7.5577071261418496 1:0 2:0 3:0 4:0 5:0 6:0 7:0 8:0 9:0 10:0 11:0.046438001 12:0 13:0 14:0 15:0.030173 16:0.110507 17:0 18:0 19:0.45454499 20:0.110524 21:0.114867 22:0 23:0.020338001 24:0 25:0 26:0 27:0 28:0 29:0 30:0 31:0 32:0 33:0 34:0 35:0 36:0 37:0.115357 38:0 39:0 40:0 41:0 42:0 43:0 44:0.60000002 45:0.62295097 46:0 #docid = GX006-56-11728691 inc = 1 prob = 0.238212
1.1683270339064507 1:0.014895 2:0.66666698 3:0.2 4:1 5:0.016492 6:0 7:0 8:0 9:0 10:0 11:0.095858999 12:0.84030402 13:0.292099 14:1 15:0.100463 16:0.010961 17:0.46153799 18:0.105263 19:0.36363599 20:0.011272 21:0.68584502 22:0.917512 23:0.87647402 24:0.90033603 25:0.69798303 26:0.56848502 27:0.76428503 28:0.46103299 29:0.64721102 30:0.28048101 31:0.448194 32:0.166252 33:1 34:1 35:1 36:1 37:0.71382397 38:0.91828603 39:0.90955198 40:0.90124702 41:0.21924999 42:0.37272701 43:1 44:0.60000002 45:0.377049 46:0 #docid = GX096-34-3581751 inc = 1 prob = 0.211232
6.2934546306423726 1:0.012077 2:0.66666698 3:0.40000001 4:1 5:0.014079 6:0 7:0 8:0 9:0 10:0 11:0.078128003 12:0.76784497 13:0.525168 14:1 15:0.086553 16:0.014719 17:0.69230801 18:0.157895 19:0.45454499 20:0.015224 21:0.61645597 22:0.84071302 23:0.814381 24:0.82048202 25:0.56765801 26:1 27:1 28:1 29:1 30:0.85786998 31:0.95154703 32:0.64856398 33:0.95830601 34:0.98522502 35:0.99935597 36:0.984779 37:0.68647403 38:0.86125302 39:0.87557602 40:0.841093 41:0.0081249997 42:0.036364 43:0.34375 44:0.80000001 45:0.39344299 46:0 #docid = GX122-86-2114231 inc = 1 prob = 0.102012
2.4476104396933231 1:0.014895 2:0.66666698 3:0.40000001 4:1 5:0.016895 6:0 7:0 8:0 9:0 10:0 11:0.064760998 12:0.76784497 13:0.525168 14:1 15:0.072494999 16:0.010804 17:0.69230801 18:0.157895 19:0.45454499 20:0.011311 21:0.63139898 22:0.89162999 23:0.82492 24:0.86375803 25:0.56765801 26:1 27:1 28:1 29:1 30:0.85786998 31:0.95154703 32:0.64856398 33:0.95830601 34:0.98522502 35:0.99935597 36:0.984779 37:0.69884199 38:0.91001701 39:0.88869703 40:0.882397 41:0.0080810003 42:0.027272999 43:0.34375 44:0.80000001 45:0.39344299 46:0 #docid = GX122-92-7250537 inc = 1 prob = 0.214306
-1.2733501238413965 1:0.025974 2:0.30000001 3:0.75 4:0.5 5:0.030518999 6:0 7:0 8:0 9:0 10:0 11:0.90902603 12:0.29056799 13:0.88885897 14:0.5 15:0.91575301 16:0.016278001 17:0.222222 18:0.222222 19:0.117647 20:0.016752999 21:0.69174802 22:0.71091098 23:0.54302597 24:0.668109 25:0.99678397 26:1 27:0.632415 28:1 29:0.74229699 30:1 31:0.99073702 32:1 33:0.74631798 34:0.39685899 35:0.007216 36:0.289507 37:0.71205097 38:0.72527498 39:0.56806898 40:0.71505898 41:0.416877 42:0.038462002 43:0.027027 44:0.5 45:0.18181799 46:0 #docid = GX013-73-9677139 inc = 1 prob = 0.119041
0.49675745687002859 1:0.031168999 2:0.30000001 3:0.25 4:0 5:0.033766001 6:0 7:0 8:0 9:0 10:0 11:0.88672602 12:0.27637801 13:0.17502099 14:0 15:0.88489801 16:0.030737 17:0.37037 18:0.222222 19:0.117647 20:0.031399999 21:0.78898001 22:0.71838301 23:0.57530099 24:0.77599603 25:0.646842 26:0.82880098 27:0.62363899 28:0.87434101 29:0.146163 30:0 31:0 32:0 33:0 34:0 35:0 36:0 37:0.82053298 38:0.71414101 39:0.57758999 40:0.80663198 41:0.0028580001 42:0.038462002 43:0.40540501 44:0.5 45:0.16883101 46:0 #docid = GX062-58-7537071 inc = 1 prob = 0.106661
1.6179883258542418 1:0.66688299 2:0 3:0 4:0 5:0.66688299 6:0 7:0 8:0 9:0 10:0 11:0.166742 12:0 13:0 14:0 15:0.16692699 16:0.65471298 17:0.111111 18:0.185185 19:0.17647099 20:0.65489203 21:0.161614 22:0.129659 23:0.091992997 24:0.25744101 25:0 26:0 27:0 28:0 29:0 30:0 31:0 32:0 33:0 34:0 35:0 36:0 37:0.16746899 38:0 39:0 40:0.27559999 41:0.064658001 42:0.038462002 43:0 44:0.5 45:0.376623 46:0 #docid = GX063-31-10567784 inc = 1 prob = 0.182274
0.50899509360810569 1:0.33311701 2:0.2 3:0 4:0 5:0.334416 6:0 7:0 8:0 9:0 10:0 11:0.99269903 12:0.22362199 13:0 14:0 15:0.986691 16:0.182841 17:0.148148 18:0.148148 19:0.117647 20:0.183084 21:0.91224599 22:0.74162197 23:0.94422603 24:0.76609302 25:1 26:0.83406699 27:0.61663598 28:0.73757201 29:0 30:0 31:0 32:0 33:0 34:0 35:0 36:0 37:0.91796899 38:0.71263099 39:0.93886298 40:0.778346 41:0.013612 42:0.038462002 43:0 44:0 45:0.16883101 46:0 #docid = GX120-58-4097298 inc = 1 prob = 0.836402
-4.8346740122639309 1:0.020129999 2:0.1 3:0.5 4:1 5:0.023376999 6:0 7:0 8:0 9:0 10:0 11:0.94213998 12:0.071575999 13:0.60992903 14:1 15:0.94697899 16:0.01781 17:0.222222 18:0.148148 19:0.235294 20:0.018285001 21:0.68094999 22:0.430608 23:0.434542 24:0.48485801 25:0.245537 26:0.0262 27:0.028427999 28:0.109759 29:0.63494998 30:0.68614697 31:0.82699102 32:0.62759501 33:1 34:1 35:1 36:1 37:0.68871099 38:0.37810799 39:0.41677299 40:0.51830202 41:1 42:0.076922998 43:1 44:0 45:0.18181799 46:0 #docid = GX236-93-12190527 inc = 0.72866848729678 prob = 0.127315
3.4842832597729512 1:1 2:0 3:0 4:0 5:1 6:0 7:0 8:0 9:0 10:0 11:0 12:0 13:0 14:0 15:0 16:1 17:0.222222 18:0 19:0.17647099 20:1 21:0.162641 22:0.328013 23:0.40532401 24:0.42280599 25:0 26:0 27:0 28:0 29:0 30:0 31:0 32:0 33:0 34:0 35:0 36:0 37:0.16698401 38:0.229973 39:0.34310901 40:0.43842399 41:0.0057279998 42:0.115385 43:0 44:0.75 45:0.350649 46:0 #docid = GX261-63-9958597 inc = 1 prob = 0.244256
-12.474383606677023 1:0.26470599 2:1 3:1 4:0 5:0.29411799 6:0 7:0 8:0 9:0 10:0 11:0.32727501 12:1 13:1 14:0 15:0.365453 16:0.96487099 17:0.076922998 18:0.30000001 19:0.5 20:0.96624798 21:0.83271301 22:0.88698697 23:0.96258402 24:0.89898199 25:1 26:1 27:1 28:1 29:1 30:1 31:1 32:1 33:0 34:0 35:0 36:0 37:0.84938902 38:0.89647502 39:0.96972197 40:0.908921 41:0.084517002 42:0.024931001 43:0.39560401 44:0.57142901 45:0.86666697 46:0 #docid = GX021-16-10673452 inc = 0.208287501896298 prob = 0.111695
11.825518797045675 1:0.088234998 2:0 3:0 4:0 5:0.088234998 6:0 7:0 8:0 9:0 10:0 11:0.111699 12:0 13:0 14:0 15:0.112014 16:0.298985 17:0.23076899 18:0 19:0.125 20:0.29356399 21:0.60960102 22:0.354534 23:0.28935 24:0.24432001 25:0 26:0 27:0 28:0 29:0 30:0 31:0 32:0 33:0 34:0 35:0 36:0 37:0.60921401 38:0.351363 39:0.28937501 40:0.24506301 41:0.00196 42:0.0027699999 43:0 44:0.42857099 45:0.133333 46:0 #docid = GX253-98-7193122 inc = 0.890102967721928 prob = 0.14666
0.64886480963134829 1:0.088234998 2:0 3:0 4:0 5:0.088234998 6:0 7:0 8:0 9:0 10:0 11:0.107788 12:0 13:0 14:0 15:0.108051 16:0.17330199 17:0.23076899 18:0 19:0.625 20:0.17033 21:0.90256602 22:0.91606498 23:0.85210401 24:0.99267602 25:0 26:0 27:0 28:0 29:0 30:0 31:0 32:0 33:0 34:0 35:0 36:0 37:0.89655298 38:0.910092 39:0.84805298 40:0.98728901 41:0.000118 42:0.0027699999 43:0 44:0.42857099 45:0.80000001 46:0 #docid = GX272-21-11904217 inc = 0.890102967721928 prob = 0.219634
1.0787268839210427 1:0.027233001 2:0.25 3:1 4:0 5:0.028233999 6:0 7:0 8:0 9:0 10:0 11:0.027048999 12:0.185478 13:0.78579098 14:0 15:0.027725 16:0.025059 17:0.166667 18:0.83333302 19:0.166667 20:0.025184 21:0.607292 22:0.49405801 23:0.37874201 24:0.45903799 25:0.37095699 26:0.131144 27:0.029545 28:0 29:0.67437899 30:0.92145401 31:0.13054 32:1 33:0 34:0 35:0 36:0 37:0.602745 38:0.49247301 39:0.35180101 40:0.49223301 41:0.001854 42:0.0053190002 43:0.098901004 44:0.40000001 45:0.22973 46:0 #docid = GX000-66-4194368 inc = 1 prob = 0.187964
-0.95607672778279351 1:0.034040999 2:1 3:0.5 4:0 5:0.035241999 6:0 7:0 8:0 9:0 10:0 11:0.057817001 12:1 13:0.61296499 14:0 15:0.061259001 16:0.088000998 17:0.91666698 18:1 19:0.66666698 20:0.088768996 21:0.82827598 22:0.40741599 23:0.37789199 24:0.44377801 25:0.500754 26:0.54355901 27:1 28:0.80858898 29:0.46075499 30:0.681409 31:0.778575 32:0.54136199 33:0 34:0 35:0 36:0 37:0.83156103 38:0.40669301 39:0.350088 40:0.477319 41:0.040364999 42:0.031915002 43:0.010989 44:0.60000002 45:0.62162203 46:0 #docid = GX002-23-11010400 inc = 0.592493204927946 prob = 0.155775
0.95607672778279351 1:0.0044049998 2:0 3:0.75 4:1 5:0.0056070001 6:0 7:0 8:0 9:0 10:0 11:0.0078539997 12:0 13:1 14:1 15:0.011397 16:0.012799 17:0 18:0.5 19:0.25 20:0.012751 21:0.727548 22:0.31961799 23:0.183982 24:0.39608699 25:0 26:0 27:0 28:0 29:1 30:1 31:1 32:0.673913 33:1 34:0.93873799 35:0.90425998 36:0.94539398 37:0.76740199 38:0.36098099 39:0.182172 40:0.46501899 41:0 42:0 43:0.52747297 44:1 45:0.378378 46:0 #docid = GX005-09-12740168 inc = 1 prob = 0.0867215
-3.6552069186662131 1:0.053064 2:0.5 3:0.5 4:0.66666698 5:0.054265 6:0 7:0 8:0 9:0 10:0 11:0.064764 12:0.487524 13:0.60916901 14:0.64448202 15:0.067984998 16:0.247583 17:0.25 18:0.5 19:0.166667 20:0.24768101 21:0.56259 22:0.115536 23:0.18769599 24:0.25440499 25:0.74798697 26:0.86312997 27:0.64533198 28:0.88700998 29:0.72961402 30:0.91786402 31:0.76862198 32:0.62611997 33:0.880117 34:1 35:1 36:1 37:0.57167101 38:0.117519 39:0.152839 40:0.300872 41:0.023353999 42:0.047871999 43:0.0082419999 44:0.40000001 45:0.25675699 46:0 #docid = GX006-47-13400213 inc = 1 prob = 0.274479
2.5764800347451704 1:1 2:0 3:0 4:0 5:1 6:0 7:0 8:0 9:0 10:0 11:1 12:0 13:0 14:0 15:1 16:1 17:0.041666999 18:0 19:0.5 20:1 21:1 22:1 23:1 24:1 25:0 26:0 27:0 28:0 29:0 30:0 31:0 32:0 33:0 34:0 35:0 36:0 37:1 38:1 39:1 40:1 41:0.00053999998 42:0.010638 43:0 44:0.80000001 45:0.39189199 46:0 #docid = GX265-48-10802283 inc = 1 prob = 0.383336
4.593089281677635 1:0.016129 2:1 3:1 4:0.5 5:0.018284 6:0 7:0 8:0 9:0 10:0 11:0.015745999 12:1 13:1 14:0.5 15:0.017818 16:0.0071330001 17:0.47368401 18:0.081081003 19:0.30000001 20:0.0072909999 21:0.92196798 22:0.94695801 23:0.52795303 24:0.94746602 25:0.83947802 26:1 27:1 28:0.92816901 29:1 30:1 31:1 32:1 33:0.84028202 34:0.28216901 35:0.004344 36:0.54039103 37:0.96418601 38:0.931813 39:0.51704001 40:0.89449501 41:0.108055 42:0.133333 43:0.185185 44:0.25 45:0.174603 46:0 #docid = GX018-28-5127636 inc = 1 prob = 0.413487
-6.2727264709701904 1:0 2:0.5 3:1 4:0 5:0 6:0 7:0 8:0 9:0 10:0 11:0 12:0.5 13:1 14:0 15:0 16:0 17:0.157895 18:0.108108 19:0.1 20:0 21:0.64353597 22:0.90759099 23:0 24:1 25:1 26:0.91895097 27:0.54813898 28:1 29:0.87671697 30:0.93259698 31:0.99939102 32:0.95029497 33:0 34:0 35:0 36:0 37:0.81743699 38:1 39:0 40:1 41:0.206048 42:0.133333 43:0.111111 44:0 45:0.26984099 46:0 #docid = GX045-56-16333266 inc = 1 prob = 0.0340978
0.79105973247231987 1:0.124825 2:0.5 3:1 4:0.5 5:0.125879 6:0 7:0 8:0 9:0 10:0 11:0.122815 12:0.5 13:1 14:0.5 15:0.123901 16:0.080941997 17:0.157895 18:0.081081003 19:0.30000001 20:0.080955997 21:0.89795601 22:0.77660102 23:0.89557803 24:0.76060402 25:1 26:0.91895097 27:0.54813898 28:1 29:1 30:1 31:1 32:1 33:0.84028202 34:0.28216901 35:0.004344 36:0.54039103 37:0.90436602 38:0.71427703 39:0.87562698 40:0.67540598 41:0.029382 42:0.066666998 43:0.296296 44:0.5 45:0.26984099 46:0 #docid = GX054-89-11426340 inc = 1 prob = 0.657307
9.0024689917482874 1:1 2:0 3:0 4:0 5:1 6:0 7:0 8:0 9:0 10:0 11:1 12:0 13:0 14:0 15:1 16:0.90351897 17:0.052632 18:0 19:0.2 20:0.90330303 21:0.78533697 22:0.60653901 23:0.89308399 24:0.59067303 25:0 26:0 27:0 28:0 29:0 30:0 31:0 32:0 33:0 34:0 35:0 36:0 37:0.785905 38:0.54989898 39:0.859662 40:0.51707602 41:0.0054879999 42:0.066666998 43:0 44:0.25 45:0.126984 46:0 #docid = GX229-48-6099941 inc = 1 prob = 0.394302
2.2172862994423923 1:0.185133 2:0.25 3:0 4:0.5 5:0.184248 6:0 7:0 8:0 9:0 10:0 11:0.18535 12:0.26795 13:0 14:0.5 15:0.184862 16:0.174357 17:0.157895 18:0 19:0.1 20:0.174246 21:0.76833802 22:0.59192002 23:0.81127697 24:0.57827502 25:0.53590101 26:0.16240899 27:0.003333 28:0.122798 29:0 30:0 31:0 32:0 33:0.91672599 34:0.52215999 35:0.0072440002 36:1 37:0.76990598 38:0.53815502 39:0.76182503 40:0.50765598 41:0.121781 42:0.066666998 43:0 44:0.25 45:0.253968 46:0 #docid = GX231-18-6992496 inc = 0.798154397508973 prob = 0.633628
-9.0024689917482874 1:0.0035059999 2:0.5 3:1 4:0 5:0.003516 6:0 7:0 8:0 9:0 10:0 11:0.0032790001 12:0.5 13:1 14:0 15:0.0032879999 16:0.002135 17:0.63157898 18:0.27026999 19:0.5 20:0.002567 21:0.775922 22:0.87116498 23:0.209527 24:0.90871501 25:0.383073 26:0.61359298 27:0.54480702 28:0.75441402 29:0.50394797 30:0.71802402 31:0.99574 32:0.79198599 33:0 34:0 35:0 36:0 37:0.84578902 38:0.856749 39:0.16327 40:0.84430301 41:0.96871698 42:0.133333 43:0.037037 44:0.75 45:0.555556 46:0 #docid = GX237-07-15835654 inc = 1 prob = 0.0303412
-5.3841490141499548 1:0.524544 2:0 3:0 4:0 5:0.52320701 6:0 7:0 8:0 9:0 10:0 11:0.44466901 12:0 13:0 14:0 15:0.44326401 16:0.88981998 17:0.157895 18:0 19:0.60000002 20:0.88974202 21:0.519072 22:0.38347399 23:0.69316 24:0.37174901 25:0 26:0 27:0 28:0 29:0 30:0 31:0 32:0 33:0 34:0 35:0 36:0 37:0.52140099 38:0.34771901 39:0.61580902 40:0.32548699 41:0.035912 42:0.066666998 43:0 44:0.5 45:0.50793701 46:0 #docid = GX243-68-3962386 inc = 1 prob = 0.18651
0.72816598325351833 1:0.737728 2:0 3:0 4:0 5:0.73698997 6:0 7:0 8:0 9:0 10:0 11:0.71064901 12:0 13:0 14:0 15:0.70991898 16:1 17:0.52631599 18:0 19:0.30000001 20:1 21:0.66420001 22:0.46630901 23:0.76927698 24:0.452999 25:0 26:0 27:0 28:0 29:0 30:0 31:0 32:0 33:0 34:0 35:0 36:0 37:0.66577202 38:0.422755 39:0.70859998 40:0.39654899 41:0.107733 42:0.133333 43:0 44:0.5 45:0.222222 46:0 #docid = GX250-30-12317856 inc = 0.798154397508973 prob = 0.162021
1.8666336124392018 1:0.59046298 2:0 3:0 4:0 5:0.589311 6:0 7:0 8:0 9:0 10:0 11:0.491474 12:0 13:0 14:0 15:0.49018401 16:0.90245098 17:0.94736803 18:0 19:0.40000001 20:0.90266699 21:0.548751 22:0.42106301 23:0.72704202 24:0.40857199 25:0 26:0 27:0 28:0 29:0 30:0 31:0 32:0 33:0 34:0 35:0 36:0 37:0.55074501 38:0.38165101 39:0.656977 40:0.357582 41:0.207937 42:0.26666701 43:0 44:0.25 45:0.26984099 46:0 #docid = GX251-93-5290949 inc = 1 prob = 0.0360108
0.017618211917278526 1:0.55119199 2:0 3:0 4:0 5:0.54992998 6:0 7:0 8:0 9:0 10:0 11:0.56251401 12:0 13:0 14:0 15:0.561418 16:0.44128701 17:0.052632 18:0 19:0.2 20:0.44112301 21:0.792005 22:0.62783802 23:0.89356101 24:0.61205101 25:0 26:0 27:0 28:0 29:0 30:0 31:0 32:0 33:0 34:0 35:0 36:0 37:0.79214901 38:0.56908798 39:0.86012501 40:0.53567898 41:0.0054879999 42:0.066666998 43:0 44:0.25 45:0.126984 46:0 #docid = GX256-21-15346538 inc = 1 prob = 0.632264
0.15288738522398493 1:0.22440401 2:0.25 3:0 4:0.5 5:0.223629 6:0 7:0 8:0 9:0 10:0 11:0.22851001 12:0.26795 13:0 14:0.5 15:0.228131 16:0.166814 17:0.210526 18:0 19:0.60000002 20:0.166841 21:0.81995797 22:0.667831 23:0.87551898 24:0.65266901 25:0.454561 26:0.13068999 27:0.002962 28:0.097314 29:0 30:0 31:0 32:0 33:0.74686402 34:0 35:0 36:0 37:0.820189 38:0.60616601 39:0.83932799 40:0.57201397 41:0.0043680002 42:0.066666998 43:0 44:0.5 45:0.73015898 46:0 #docid = GX264-26-2159593 inc = 0.798154397508973 prob = 0.696781
1.2901349786938141 1:0.463534 2:0.25 3:0 4:1 5:0.46413499 6:0 7:0 8:0 9:0 10:0 11:0.47211599 12:0.26795 13:0 14:1 15:0.47312599 16:0.32213399 17:0.157895 18:0 19:1 20:0.322211 21:0.84110802 22:0.69434398 23:0.93999398 24:0.67738098 25:0.53590101 26:0.16240899 27:0.003333 28:0.122798 29:0 30:0 31:0 32:0 33:1 34:1 35:1 36:0.87513202 37:0.84129798 38:0.630126 39:0.91773897 40:0.593575 41:0.035767 42:0.066666998 43:0 44:0.75 45:1 46:0 #docid = GX272-51-0084430 inc = 1 prob = 0.635862
-0.37278411428758318 1:0 2:0 3:0 4:0 5:0 6:0 7:0 8:0 9:0 10:0 11:0 12:0 13:0 14:0 15:0 16:0 17:0 18:0.285714 19:0 20:0 21:0 22:0 23:0 24:0 25:0 26:0 27:0 28:0 29:0 30:0 31:0 32:0 33:0 34:0 35:0 36:0 37:0 38:0 39:0 40:0 41:0 42:0 43:0.052632 44:0 45:0 46:0 #docid = GX000-00-0000000 inc = 1 prob = 0.0328951
29.088572910217636 1:0.65384603 2:1 3:1 4:0 5:0.79245299 6:0 7:0 8:0 9:0 10:0 11:0.81889302 12:1 13:1 14:0 15:0.90455198 16:0.029571 17:0.45161301 18:0.64285702 19:0.222222 20:0.031491 21:1 22:1 23:0.98297501 24:1 25:0.75886798 26:0.94051301 27:0.99927402 28:0.95753503 29:1 30:1 31:1 32:1 33:0 34:0 35:0 36:0 37:1 38:1 39:0.99371499 40:1 41:0.26274601 42:0.0091739995 43:0 44:0.57142901 45:0.26315799 46:0 #docid = GX005-29-14357655 inc = 1 prob = 0.816926
-2.9580864345308271 1:0.211538 2:0.5 3:0.25 4:0 5:0.26415101 6:0 7:0 8:0 9:0 10:0 11:0.341517 12:0.67126602 13:0.32539499 14:0 15:0.39951399 16:0.021183001 17:1 18:0.64285702 19:0.222222 20:0.024549 21:0.40144399 22:0.243433 23:0.296509 24:0.131529 25:0.239287 26:0.144848 27:0.48968399 28:0.115708 29:0.32539499 30:0.147726 31:0.32284501 32:0.110145 33:0 34:0 35:0 36:0 37:0.39494699 38:0.227869 39:0.292932 40:0.131378 41:0.032065999 42:0.012232 43:0 44:0.57142901 45:0.26315799 46:0 #docid = GX006-29-14932066 inc = 1 prob = 0.139456
-1.740495075447285 1:0.076922998 2:0 3:0 4:0 5:0.075471997 6:0 7:0 8:0 9:0 10:0 11:0.082611002 12:0 13:0 14:0 15:0.075932004 16:0.0086430004 17:0.129032 18:0.285714 19:0.444444 20:0.0096500004 21:0.62043399 22:0.67381001 23:0.60307598 24:0.842749 25:0 26:0 27:0 28:0 29:0 30:0 31:0 32:0 33:0 34:0 35:0 36:0 37:0.58846802 38:0.63596499 39:0.57913899 40:0.80459601 41:0.026955999 42:0.006116 43:0.210526 44:0.42857099 45:0.40350899 46:0 #docid = GX020-13-11964736 inc = 1 prob = 0.49709
-1.8246620432133795 1:0.384615 2:0 3:0.75 4:0.25 5:0.45282999 6:0 7:0 8:0 9:0 10:0 11:0.26387799 12:0 13:0.60663402 14:0.213324 15:0.29141399 16:0.017031001 17:0 18:0.71428603 19:0.38888901 20:0.018115999 21:0.34060401 22:0.27656001 23:0.180494 24:0.205934 25:0 26:0 27:0 28:0 29:0.50404298 30:0.258634 31:0.1926 32:0.26196599 33:0.30362999 34:0.028646 35:0.063514002 36:0.035216 37:0.334158 38:0.27277201 39:0.18976299 40:0.20765901 41:0 42:0 43:0.035087999 44:1 45:0.42982501 46:0 #docid = GX050-94-7523645 inc = 1 prob = 0.0633271
-1.217743182754532 1:0.25 2:0 3:0 4:0 5:0.24528299 6:0 7:0 8:0 9:0 10:0 11:0.208312 12:0 13:0 14:0 15:0.191479 16:0.028977999 17:0.16129 18:0.285714 19:0.444444 20:0.030052001 21:0.52240902 22:0.49725601 23:0.41942599 24:0.48033401 25:0 26:0 27:0 28:0 29:0 30:0 31:0 32:0 33:0 34:0 35:0 36:0 37:0.50354898 38:0.47575501 39:0.40264201 40:0.46296501 41:0.67781901 42:0.0091739995 43:0.157895 44:0.71428603 45:0.45614001 46:0 #docid = GX103-99-13531273 inc = 1 prob = 0.258433
54.73237252871192 1:0.73076898 2:1 3:0 4:1 5:0.86792499 6:0 7:0 8:0 9:0 10:0 11:0.90150398 12:1 13:0 14:1 15:0.98048401 16:0.044737998 17:0.32258099 18:0 19:1 20:0.046728 21:0.97947198 22:0.96887398 23:0.99586397 24:0.96760899 25:1 26:1 27:1 28:1 29:0 30:0 31:0 32:0 33:1 34:1 35:1 36:1 37:0.97968102 38:0.96684802 39:1 40:0.96675497 41:0.022967 42:0.003058 43:0 44:0.57142901 45:1 46:0 #docid = GX255-98-11888745 inc = 1 prob = 0.620895
-59.856317303338301 1:0.076922998 2:0 3:0 4:0 5:0.075471997 6:0 7:0 8:0 9:0 10:0 11:0.069854997 12:0 13:0 14:0 15:0.064203002 16:0.238011 17:0.064516 18:0 19:0.444444 20:0.238297 21:0.100718 22:0.085694 23:0.13410801 24:0.111438 25:0 26:0 27:0 28:0 29:0 30:0 31:0 32:0 33:0 34:0 35:0 36:0 37:0.099673003 38:0.082709 39:0.12909199 40:0.108622 41:0.007793 42:0.003058 43:0 44:0.71428603 45:0.41228101 46:0 #docid = GX265-24-14223399 inc = 1 prob = 0.161189
-15.850857285357648 1:0.53846198 2:0 3:0 4:0 5:0.52830201 6:0 7:0 8:0 9:0 10:0 11:0.70625299 12:0 13:0 14:0 15:0.64913201 16:0.48881501 17:0.032258 18:0 19:0.444444 20:0.48878399 21:0.23346201 22:0 23:0 24:0 25:0 26:0 27:0 28:0 29:0 30:0 31:0 32:0 33:0 34:0 35:0 36:0 37:0.22842 38:0 39:0 40:0 41:0.083802998 42:0.003058 43:0 44:0.285714 45:0.324561 46:0 #docid = GX267-57-0060225 inc = 1 prob = 0.159189
-15.257267697306105 1:0.019564999 2:0 3:0 4:0 5:0.014208 6:0 7:0 8:0 9:0 10:0 11:0.016811 12:0 13:0 14:0 15:0.010775 16:0.123124 17:0.410256 18:0.25 19:0.30000001 20:0.12351 21:0 22:0.51506001 23:0.59393698 24:0.50311297 25:0 26:0 27:0 28:0 29:0 30:0 31:0 32:0 33:0 34:0 35:0 36:0 37:0 38:0.51959503 39:0.59443599 40:0.50757903 41:1 42:1 43:1 44:0.166667 45:0.188889 46:0 #docid = GX000-77-2463792 inc = 0.0686491935061059 prob = 0.114533
-1.4491669780918528 1:0.070652001 2:0 3:0 4:0 5:0.065573998 6:0 7:0 8:0 9:0 10:0 11:0.071904004 12:0 13:0 14:0 15:0.066197 16:0.36219999 17:0.102564 18:0.75 19:0.2 20:0.362492 21:0.086038999 22:0.56762499 23:0.68436301 24:0.52595901 25:0 26:0 27:0 28:0 29:0 30:0 31:0 32:0 33:0 34:0 35:0 36:0 37:0.091118999 38:0.57342398 39:0.68560898 40:0.53147501 41:3.6000001e-005 42:0.001431 43:0 44:0 45:0.055555999 46:0 #docid = GX003-10-2820641 inc = 0.0686491935061059 prob = 0.111696
-0.85451503963901132 1:0.083696 2:0.1 3:0.5 4:0 5:0.080874003 6:0 7:0 8:0 9:0 10:0 11:0.068857998 12:0.092505999 13:0.45124701 14:0 15:0.065022998 16:0.115483 17:0.74359 18:0.875 19:0.2 20:0.116412 21:0.106604 22:0.51167798 23:0.656573 24:0.55168903 25:0.067185998 26:0 27:0 28:0 29:0.152266 30:0 31:0 32:0 33:0 34:0 35:0 36:0 37:0.105132 38:0.51680899 39:0.65837401 40:0.557221 41:0.001186 42:0.011445 43:0.001509 44:0.33333299 45:0.088889003 46:0 #docid = GX003-85-2474298 inc = 0.125347516018852 prob = 0.121322
38.858090076946411 1:0.111957 2:0.60000002 3:1 4:1 5:0.118033 6:0 7:0 8:0 9:0 10:0 11:0.107076 12:0.60000002 13:1 14:1 15:0.11188 16:0.038180999 17:0.35897401 18:0.1875 19:0.5 20:0.038532 21:0.62401199 22:0.52805901 23:0.58850801 24:0.43275601 25:0.68690199 26:0.94679397 27:0.85413301 28:0.88905501 29:0.85938102 30:0.934829 31:0.99966502 32:0.94763899 33:0.959975 34:0.98218399 35:0.99975002 36:0.98593497 37:0.63137001 38:0.540905 39:0.60242301 40:0.44584301 41:0.00021 42:0.0057219998 43:0.007547 44:0.33333299 45:0.37777799 46:0 #docid = GX007-59-7020734 inc = 0.463927401313107 prob = 0.193829
3.2562336607090856 1:0.080435 2:0 3:0 4:0 5:0.075410001 6:0 7:0 8:0 9:0 10:0 11:0.079681002 12:0 13:0 14:0 15:0.074014001 16:0.085932001 17:0 18:0.1875 19:0.40000001 20:0.085918002 21:0.517021 22:0.662916 23:0.83514601 24:0.69958699 25:0 26:0 27:0 28:0 29:0 30:0 31:0 32:0 33:0 34:0 35:0 36:0 37:0.52165902 38:0.66908801 39:0.83607399 40:0.70620102 41:0 42:0 43:0 44:0.5 45:0.25555599 46:0 #docid = GX092-97-2008609 inc = 0.22013783472856 prob = 0.148651
13.112401857674513 1:0.0054350002 2:0 3:0 4:0 5:0 6:0 7:0 8:0 9:0 10:0 11:0.0062609999 12:0 13:0 14:0 15:0.000142 16:0.062983997 17:0.051282 18:0.125 19:0.5 20:0.063015997 21:0.198429 22:0.599132 23:0.64063197 24:0.58443898 25:0 26:0 27:0 28:0 29:0 30:0 31:0 32:0 33:0 34:0 35:0 36:0 37:0.204504 38:0.60435802 39:0.64134598 40:0.58961099 41:1.8999999e-005 42:0.001431 43:0 44:0.66666698 45:0.17777801 46:0 #docid = GX104-86-12427265 inc = 0.125347516018852 prob = 0.158777
-17.554708481722116 1:0 2:0.2 3:1 4:1 5:0.0010930001 6:0 7:0 8:0 9:0 10:0 11:0 12:0.2 13:1 14:1 15:0 16:0 17:0.051282 18:0.125 19:0.40000001 20:0 21:0.58354598 22:0.77740401 23:0.29300299 24:0.65179098 25:1 26:0.97520399 27:0.539213 28:1 29:1 30:1 31:1 32:1 33:1 34:1 35:1 36:1 37:0.62888199 38:0.79342002 39:0.37943599 40:0.66624898 41:0.000218 42:0.001431 43:0 44:0.5 45:0.26666701 46:0 #docid = GX219-80-11594269 inc = 0.463927401313107 prob = 0.0465298
-21.297140361909442 1:1 2:0 3:0 4:0 5:1 6:0 7:0 8:0 9:0 10:0 11:1 12:0 13:0 14:0 15:1 16:1 17:0 18:0 19:0.30000001 20:1 21:0.46415299 22:0.678662 23:0.866458 24:0.640643 25:0 26:0 27:0 28:0 29:0 30:0 31:0 32:0 33:0 34:0 35:0 36:0 37:0.46853399 38:0.685664 39:0.86800402 40:0.64745301 41:0.002052 42:0.001431 43:0 44:0.33333299 45:0.15555599 46:0 #docid = GX237-48-4943739 inc = 0.463927401313107 prob = 0.31568
1.1860729633385176 1:0.035870001 2:0 3:0 4:0 5:0.030601 6:0 7:0 8:0 9:0 10:0 11:0.035103999 12:0 13:0 14:0 15:0.029168 16:0.13897499 17:0.128205 18:0.25 19:0.30000001 20:0.139091 21:0.23058 22:0.611 23:0.71736199 24:0.58510602 25:0 26:0 27:0 28:0 29:0 30:0 31:0 32:0 33:0 34:0 35:0 36:0 37:0.236624 38:0.61684901 39:0.71833497 40:0.59082401 41:0.00083899999 42:0.001431 43:0 44:0 45:0.122222 46:0 #docid = GX245-43-15142053 inc = 0.22013783472856 prob = 0.286068
-1.2249139951178165 1:0.082102999 2:0.5 3:0 4:1 5:0.083178997 6:0 7:0 8:0 9:0 10:0 11:0.18539099 12:0.75037801 13:0 14:1 15:0.18433399 16:0.108941 17:0.235294 18:0.18181799 19:0.111111 20:0.108849 21:0.65397602 22:0.206588 23:0.261347 24:0.210885 25:0.54465598 26:0.782242 27:0.99820298 28:0.59385598 29:0 30:0 31:0 32:0 33:0.96904701 34:0.96144998 35:0.980995 36:0.91475803 37:0.64695001 38:0.214194 39:0.26544499 40:0.218198 41:0.021687999 42:0.125 43:0 44:0.142857 45:0.29166701 46:0 #docid = GX032-98-13924169 inc = 0.745246872044688 prob = 0.145484
-0.9675276183730066 1:0.030443 2:1 3:1 4:0 5:0.032348 6:0 7:0 8:0 9:0 10:0 11:0.053482998 12:1 13:1 14:0 15:0.053968001 16:0.051709998 17:0.52941197 18:0.81818199 19:0.222222 20:0.052023001 21:0.60724998 22:0.29992399 23:0.17013399 24:0.307621 25:0.41266701 26:0.84781301 27:0.32727501 28:1 29:0.62787098 30:0.85241598 31:0.218629 32:1 33:0 34:0 35:0 36:0 37:0.63232797 38:0.34644401 39:0.253021 40:0.350878 41:0.23709901 42:1 43:0.32258099 44:0.285714 45:0.47916701 46:0 #docid = GX047-18-2746969 inc = 0.745246872044688 prob = 0.234942
1.2249139951178165 1:0.091328003 2:0 3:0.5 4:0 5:0.090572998 6:0 7:0 8:0 9:0 10:0 11:0.208922 12:0 13:0.863846 14:0 15:0.20199899 16:0.063207999 17:0 18:0.54545498 19:0 20:0.063068002 21:0.70588499 22:0.311901 23:0.37245899 24:0.33253601 25:0 26:0 27:0 28:0 29:0.70330602 30:0.87973499 31:0.99873197 32:0.640055 33:0 34:0 35:0 36:0 37:0.68306202 38:0.314823 39:0.36465099 40:0.335504 41:0 42:0 43:0 44:0.142857 45:0.29166701 46:0 #docid = GX090-38-16485148 inc = 0.745246872044688 prob = 0.27095
0.9675276183730066 1:0.643911 2:0 3:0 4:0 5:0.64325303 6:0 7:0 8:0 9:0 10:0 11:0.50665599 12:0 13:0 14:0 15:0.51691198 16:0.64453 17:0.117647 18:0 19:0.222222 20:0.64453298 21:0 22:0 23:0.14040001 24:0 25:0 26:0 27:0 28:0 29:0 30:0 31:0 32:0 33:0 34:0 35:0 36:0 37:0 38:0 39:0.130536 40:0 41:0.00033099999 42:0.125 43:0 44:0.285714 45:0.39583299 46:0 #docid = GX230-03-15905472 inc = 0.610520825160122 prob = 0.149034
-10.523417546837512 1:0.119358 2:1 3:0 4:1 5:0.120482 6:0 7:0 8:0 9:0 10:0 11:0.132369 12:1 13:0 14:1 15:0.133919 16:0.012056 17:0.58823502 18:0.64705902 19:0 20:0.012206 21:0.92968398 22:1 23:0.77149397 24:1 25:0.50138599 26:0 27:0.78524601 28:0.070234001 29:0 30:0 31:0 32:0 33:1 34:1 35:1 36:1 37:0.91316998 38:1 39:0.77150398 40:1 41:1 42:0.26315799 43:0.137931 44:0.166667 45:0.30769199 46:0 #docid = GX001-21-2455320 inc = 0.725928255240826 prob = 0.645693
-0.21203903485008624 1:0.198596 2:0.5 3:0.33333299 4:1 5:0.199799 6:0 7:0 8:0 9:0 10:0 11:0.26182899 12:0.5 13:0.393868 14:1 15:0.263547 16:0.033611 17:0.058823999 18:0.117647 19:0.222222 20:0.033369001 21:0.52842402 22:0.63851798 23:0.56060302 24:0.71167898 25:1 26:0.55053598 27:0.017332001 28:0.28326401 29:0.83637202 30:0.193093 31:0.0066519999 32:0.098077998 33:0.90902698 34:0.228383 35:0.71393698 36:0.62792701 37:0.52021098 38:0.64353299 39:0.561997 40:0.716241 41:0.010421 42:0.105263 43:1 44:0.166667 45:0.403846 46:0 #docid = GX001-76-8686714 inc = 0.716864000171547 prob = 0.394833
0.52706162435967485 1:0.097291999 2:0.5 3:0.33333299 4:1 5:0.098393999 6:0 7:0 8:0 9:0 10:0 11:0.119169 12:0.5 13:0.393868 14:1 15:0.120698 16:0.038286 17:0.058823999 18:0.058823999 19:0.222222 20:0.03802 21:0.48096001 22:0.44071099 23:0.294736 24:0.35312301 25:1 26:0.55053598 27:0.017332001 28:0.28326401 29:1 30:0.26516601 31:0.0076040002 32:0.143278 33:0.90902698 34:0.67753297 35:0.71393698 36:0.62792701 37:0.47342801 38:0.44563699 39:0.29779199 40:0.356947 41:0.025467001 42:0.157895 43:0.396552 44:0.33333299 45:0.365385 46:0 #docid = GX002-03-10013464 inc = 0.725928255240826 prob = 0.769824
0.91658223414604822 1:0.25977901 2:0.5 3:0.33333299 4:1 5:0.261044 6:0 7:0 8:0 9:0 10:0 11:0.287633 12:0.5 13:0.393868 14:1 15:0.28939301 16:0.092809997 17:0.117647 18:0.117647 19:0.444444 20:0.092649996 21:0.104649 22:0 23:0 24:0 25:0.78206003 26:0.41968301 27:0.014852 28:0.191517 29:0.83637202 30:0.193093 31:0.0066519999 32:0.098077998 33:0.83322501 34:0.42741999 35:0.428161 36:0.33932501 37:0.089024998 38:0 39:0 40:0 41:0.035849001 42:0.157895 43:0.29310301 44:0.33333299 45:0.403846 46:0 #docid = GX010-79-6260463 inc = 0.725928255240826 prob = 0.270574
-3.9851460580515763 1:0.71815401 2:0 3:0.33333299 4:0 5:0.71787101 6:0 7:0 8:0 9:0 10:0 11:0.83695197 12:0 13:0.393868 14:0 15:0.83670402 16:0.29417801 17:0.17647099 18:0.235294 19:0.88888901 20:0.29421499 21:1 22:0.96060997 23:1 24:0.84903598 25:0 26:0 27:0 28:0 29:0.63015097 30:0.121033 31:0.0047490001 32:0.052878998 33:0 34:0 35:0 36:0 37:1 38:0.967704 39:1 40:0.85441601 41:0.0076930001 42:0.105263 43:0.051724002 44:0.83333302 45:0.73076898 46:0 #docid = GX031-06-7149273 inc = 0.725928255240826 prob = 0.473289
3.3040168930211369 1:0.024072001 2:0 3:1 4:0 5:0.0251 6:0 7:0 8:0 9:0 10:0 11:0.023173001 12:0 13:1 14:0 15:0.022938 16:0.010777 17:0.17647099 18:0.76470602 19:0.66666698 20:0.010951 21:0.62701398 22:0.53513199 23:0.28176701 24:0.429176 25:0 26:0 27:0 28:0 29:0.758412 30:1 31:1 32:1 33:0 34:0 35:0 36:0 37:0.63876802 38:0.55550802 39:0.30564001 40:0.44521999 41:0.000206 42:0.052632 43:0 44:0.66666698 45:0.59615397 46:0 #docid = GX037-19-5783018 inc = 0.725928255240826 prob = 0.856318
0.21203903485008624 1:0.102307 2:1 3:0.33333299 4:0 5:0.103414 6:0 7:0 8:0 9:0 10:0 11:0.12012 12:1 13:0.393868 14:0 15:0.121655 16:0.097510003 17:1 18:0.35294101 19:0.444444 20:0.097816996 21:0.29792601 22:0.39109299 23:0.360677 24:0.465859 25:0.33671901 26:0.045894001 27:0.76799202 28:0 29:0.50550997 30:0.078890003 31:0.002848 32:0.026439 33:0 34:0 35:0 36:0 37:0.29764801 38:0.395859 39:0.36415601 40:0.47042599 41:0.102648 42:0.47368401 43:0.137931 44:0.5 45:0.28846201 46:0 #docid = GX050-28-15467598 inc = 0.725928255240826 prob = 0.46585
0.55802548065364022 1:0 2:0.5 3:0.33333299 4:0 5:0 6:0 7:0 8:0 9:0 10:0 11:0 12:0.5 13:0.393868 14:0 15:0 16:0.001599 17:0.470588 18:0.29411799 19:0.33333299 20:0.001624 21:0.768058 22:0.73032701 23:0.315272 24:0.79444301 25:0.33890101 26:0.158086 27:0 28:0.0080239996 29:0.56099099 30:0.097838998 31:0.003798 32:0.038327999 33:0 34:0 35:0 36:0 37:0.78276497 38:0.74127901 39:0.33423999 40:0.802755 41:0.000551 42:0.052632 43:0 44:0.5 45:0.30769199 46:0 #docid = GX057-39-1550657 inc = 0.725928255240826 prob = 0.808239
-0.14397564886471326 1:0.14443301 2:0 3:0.66666698 4:1 5:0.14558201 6:0 7:0 8:0 9:0 10:0 11:0.16151901 12:0 13:0.787736 14:1 15:0.16310699 16:0.11092 17:0.235294 18:1 19:0.555556 20:0.111204 21:0.66626602 22:0.750884 23:0.67646599 24:0.68987399 25:0 26:0 27:0 28:0 29:0.428588 30:0.104134 31:0.301052 32:0.003727 33:0.79987597 34:0.32059601 35:0.28534499 36:0.216057 37:0.66851902 38:0.75764298 39:0.67899197 40:0.69517398 41:0.0024319999 42:0.105263 43:0.20689701 44:0.5 45:0.46153799 46:0 #docid = GX076-47-2900478 inc = 0.725928255240826 prob = 0.802529
1.3716038399600734 1:0.29588801 2:0 3:0 4:0 5:0.294177 6:0 7:0 8:0 9:0 10:0 11:0.35736999 12:0 13:0 14:0 15:0.35509399 16:0.21499901 17:0 18:0 19:0.66666698 20:0.21480399 21:0.496236 22:0.60125202 23:0.57328999 24:0.57349598 25:0 26:0 27:0 28:0 29:0 30:0 31:0 32:0 33:0 34:0 35:0 36:0 37:0.493884 38:0.60657501 39:0.57460898 40:0.57775903 41:0 42:0 43:0 44:1 45:0.30769199 46:0 #docid = GX229-07-0547769 inc = 0.725928255240826 prob = 0.858783
2.5734972206144651 1:0.51655 2:0.5 3:0 4:0 5:0.51606399 6:0 7:0 8:0 9:0 10:0 11:0.55219001 12:0.5 13:0 14:0 15:0.55156797 16:0.80303597 17:0.41176501 18:0 19:0.444444 20:0.80303699 21:0 22:0.31785101 23:0.266002 24:0.32708099 25:0.374246 26:0.183272 27:0.002473 28:0.025698001 29:0 30:0 31:0 32:0 33:0 34:0 35:0 36:0 37:0 38:0.322458 39:0.26930201 40:0.330847 41:0.010191 42:0.052632 43:0 44:0.5 45:0.44230801 46:0 #docid = GX235-07-0845301 inc = 0.725928255240826 prob = 0.428907
2.8602497614529101 1:0.086259 2:1 3:0.66666698 4:0 5:0.088353001 6:0 7:0 8:0 9:0 10:0 11:0.095131002 12:1 13:0.787736 14:0 15:0.098003998 16:0.015992999 17:0.35294101 18:0.41176501 19:0.444444 20:0.016044 21:0.13245 22:0.150346 23:0.11272 24:0.057730999 25:0.69583303 26:0.096441999 27:0.79513198 28:0.137848 29:0.73798501 30:0.16720399 31:0.31052399 32:0.061586 33:0 34:0 35:0 36:0 37:0.116582 38:0.15223201 39:0.114409 40:0.058456 41:0.013662 42:0.47368401 43:0.396552 44:0.33333299 45:0.26923099 46:0 #docid = GX237-80-7497206 inc = 0.725928255240826 prob = 0.398253
2.5415021995458531 1:0.228686 2:0 3:0 4:1 5:0.22791199 6:0 7:0 8:0 9:0 10:0 11:0.231277 12:0 13:0 14:1 15:0.230202 16:0.182053 17:0.058823999 18:0 19:0 20:0.181731 21:0.592673 22:0.52884698 23:0.57456201 24:0.58099198 25:0 26:0 27:0 28:0 29:0 30:0 31:0 32:0 33:1 34:1 35:1 36:1 37:0.58934301 38:0.53449702 39:0.576886 40:0.58604699 41:0.00066800002 42:0.052632 43:0 44:0 45:0 46:0 #docid = GX252-58-16549397 inc = 0.725928255240826 prob = 0.839412
2.5121040381921489 1:0.55263197 2:0 3:0 4:1 5:0.57894701 6:0 7:0 8:0 9:0 10:0 11:0.57358903 12:0 13:0 14:0.51090002 15:0.59083301 16:0.071190998 17:0 18:0.090908997 19:0.238095 20:0.067956999 21:0.75759101 22:0.90499401 23:0.95766598 24:0.932531 25:0 26:0 27:0 28:0 29:0 30:0 31:0 32:0 33:0.48959801 34:0 35:0 36:0 37:0.77084202 38:0.908292 39:0.960536 40:0.94288099 41:0 42:0 43:0.055555999 44:0.33333299 45:0.28431401 46:0 #docid = GX006-85-3507753 inc = 1 prob = 0.799273
15.555572725171714 1:0.73684198 2:0.25 3:0 4:0 5:0.76315802 6:0 7:0 8:0 9:0 10:0 11:0.757572 12:0.235038 13:0 14:0 15:0.77165598 16:0.159108 17:0.057870001 18:0.39393899 19:0.380952 20:0.16021501 21:0.59256703 22:0.82040602 23:0.93436998 24:0.854864 25:0.133773 26:0.140121 27:0 28:0.095421001 29:0 30:0 31:0 32:0 33:0 34:0 35:0 36:0 37:0.59954 38:0.82103699 39:0.93520099 40:0.862207 41:0.146309 42:0.056604002 43:0.25 44:0.83333302 45:0.41176501 46:0 #docid = GX008-05-13046702 inc = 1 prob = 0.735901
6.7091445787806379 1:0.42105299 2:0 3:0 4:0 5:0.42105299 6:0 7:0 8:0 9:0 10:0 11:0.463817 12:0 13:0 14:0 15:0.458379 16:0.085987002 17:0.0092590004 18:0.121212 19:0.380952 20:0.083655998 21:0.87922698 22:0.98207003 23:0.99430102 24:0.94612801 25:0 26:0 27:0 28:0 29:0 30:0 31:0 32:0 33:0 34:0 35:0 36:0 37:0.892308 38:0.98266703 39:0.99439299 40:0.95396799 41:0.00039999999 42:0.0094339997 43:0.25 44:0.83333302 45:0.41176501 46:0 #docid = GX010-22-13681895 inc = 1 prob = 0.8156
2.6490108920987723 1:0.36842099 2:0.5 3:0 4:0 5:0.42105299 6:0 7:0 8:0 9:0 10:0 11:0.38960701 12:0.47007599 13:0 14:0 15:0.43584299 16:0.063472003 17:0.060185 18:0.090908997 19:0.190476 20:0.062903002 21:0.762972 22:0.89921898 23:0.93974799 24:0.92811298 25:0.24349099 26:0.25188801 27:0.130394 28:0.176863 29:0 30:0 31:0 32:0 33:0 34:0 35:0 36:0 37:0.77227598 38:0.90178299 39:0.94611102 40:0.93749797 41:0.064368002 42:0.056604002 43:0.027778 44:0.5 45:0.205882 46:0 #docid = GX011-91-15370311 inc = 1 prob = 0.819216
6.6687252046077372 1:0.65789503 2:0 3:0 4:0 5:0.65789503 6:0 7:0 8:0 9:0 10:0 11:0.67872202 12:0 13:0 14:0 15:0.668329 16:0.14291801 17:0.0046299999 18:0 19:0.238095 20:0.13978501 21:0.60878497 22:0.828318 23:0.93485397 24:0.862239 25:0 26:0 27:0 28:0 29:0 30:0 31:0 32:0 33:0 34:0 35:0 36:0 37:0.61958498 38:0.830432 39:0.93545002 40:0.87103802 41:0.001447 42:0.0094339997 43:0 44:0.66666698 45:0.58823502 46:0 #docid = GX047-71-12253045 inc = 1 prob = 0.770957
-2.138505289511583 1:0 2:0.25 3:0 4:1 5:0.052632 6:0 7:0 8:0 9:0 10:0 11:0 12:0.355903 13:0 14:1 15:0.096770003 16:0.1575 17:0.0069439998 18:0.21212099 19:0.238095 20:0.155269 21:0 22:0 23:0 24:0 25:1 26:1 27:1 28:1 29:0 30:0 31:0 32:0 33:0.95830601 34:0.986323 35:0.99980199 36:0.986323 37:0.25679001 38:0.30591699 39:0.41210699 40:0.262539 41:0.01131 42:0.0094339997 43:0 44:0.83333302 45:0.431373 46:0 #docid = GX131-46-2508587 inc = 1 prob = 0.0388479
-32.053664351603871 1:0.078947 2:0.25 3:0.5 4:1 5:0.157895 6:0 7:0 8:0 9:0 10:0 11:0.145143 12:0.355903 13:0.73537999 14:1 15:0.29031 16:0.068189003 17:0.0069439998 18:0.30303001 19:0.190476 20:0.065913998 21:0.458386 22:0.38729 23:0.46825799 24:0.30424899 25:1 26:1 27:1 28:1 29:0.92913502 30:0.983643 31:0.99969602 32:0.98295999 33:1 34:1 35:1 36:1 37:0.59183401 38:0.423049 39:0.50311399 40:0.33453599 41:0.002871 42:0.0094339997 43:0 44:0.66666698 45:0.49019599 46:0 #docid = GX132-59-5114684 inc = 1 prob = 0.157412
0.097612202264443226 1:0.078947 2:0 3:0 4:0 5:0.078947 6:0 7:0 8:0 9:0 10:0 11:0.100493 12:0 13:0 14:0 15:0.100031 16:0.122655 17:0 18:0 19:0.380952 20:0.11957 21:0.36425799 22:0.67129099 23:0.79498303 24:0.76241601 25:0 26:0 27:0 28:0 29:0 30:0 31:0 32:0 33:0 34:0 35:0 36:0 37:0.37536699 38:0.67258602 39:0.795439 40:0.769844 41:0 42:0 43:0 44:0.66666698 45:0.76470602 46:0 #docid = GX236-51-16776510 inc = 1 prob = 0.520706
5.3323123351500712 1:0.034632001 2:1 3:0.5 4:1 5:0.074235998 6:0 7:0 8:0 9:0 10:0 11:0.046781 12:1 13:0.35020801 14:0.90075499 15:0.095348999 16:0.0055160001 17:1 18:0.5 19:0.5 20:0.0065319999 21:0.94844198 22:0.85639602 23:0.78024203 24:0.85096502 25:0.455118 26:0.93147397 27:1 28:0.79991698 29:0.27628499 30:0.065384001 31:0.001698 32:0.051006999 33:0.95234603 34:0.956985 35:0.99951398 36:0.96979302 37:0.988846 38:0.91343898 39:0.89498502 40:0.90489399 41:0.439073 42:0.39473701 43:0.5 44:0.5 45:0.42424199 46:0 #docid = GX001-89-8046650 inc = 1 prob = 0.388919
0.79559253092463678 1:0.034632001 2:0.25 3:1 4:0.5 5:0.048035 6:0 7:0 8:0 9:0 10:0 11:0.058090001 12:0.26771 13:0.85020798 14:0.5 15:0.083051004 16:0.011925 17:0.066666998 18:0.2 19:0.33333299 20:0.011644 21:0.88952601 22:0.73621899 23:0.75061798 24:0.73571199 25:1 26:1 27:0.63823497 28:1 29:1 30:1 31:1 32:1 33:0.55509001 34:0.040155999 35:0.000971 36:0.028186999 37:0.93378502 38:0.78411698 39:0.81141901 40:0.77973402 41:0.19358701 42:0.31578901 43:0.18181799 44:0.25 45:0.21212099 46:0 #docid = GX002-89-14149537 inc = 1 prob = 0.250201
0.65210248866255549 1:0.095238 2:0 3:1 4:0.5 5:0.100437 6:0 7:0 8:0 9:0 10:0 11:0.156921 12:0 13:0.85020798 14:0.5 15:0.169762 16:0.013953 17:0 18:0.5 19:0.33333299 20:0.013713 21:0.98530799 22:0.84636003 23:0.89933503 24:0.83254302 25:0 26:0 27:0 28:0 29:0.67074299 30:0.82630199 31:0.99897897 32:0.86511397 33:0.55509001 34:0.040155999 35:0.000971 36:0.028186999 37:0.98310697 38:0.84406102 39:0.90943199 40:0.83450902 41:0 42:0 43:0 44:0.25 45:0.30303001 46:0 #docid = GX003-51-9681334 inc = 1 prob = 0.662673
1.5143374998628474 1:0.04329 2:0 3:1 4:1 5:0.052402001 6:0 7:0 8:0 9:0 10:0 11:0.069784999 12:0 13:0.85020798 14:0.90075499 15:0.086042002 16:0.0068140002 17:0 18:0.40000001 19:0.33333299 20:0.0065319999 21:0.95735902 22:0.84102899 23:0.797086 24:0.83568001 25:0 26:0 27:0 28:0 29:0.753434 30:0.86857897 31:0.99931902 32:0.89796197 33:1 34:1 35:1 36:1 37:0.97374701 38:0.86584401 39:0.83937198 40:0.86064303 41:0 42:0 43:0.136364 44:0.25 45:0.39393899 46:0 #docid = GX004-61-4495510 inc = 1 prob = 0.418355
-0.50964450517232329 1:0.0086580003 2:0 3:1 4:0.5 5:0.0131 6:0 7:0 8:0 9:0 10:0 11:0.017349999 12:0 13:0.85020798 14:0.5 15:0.030890999 16:0.0090849996 17:0.133333 18:0.5 19:0.33333299 20:0.0090070004 21:0.76414901 22:0.58179498 23:0.625058 24:0.64698797 25:0 26:0 27:0 28:0 29:0.67074299 30:0.82630199 31:0.99897897 32:0.86511397 33:0.55509001 34:0.040155999 35:0.000971 36:0.028186999 37:0.84496599 38:0.68745297 39:0.68914199 40:0.70467401 41:0.046728998 42:0.026316 43:0 44:0.25 45:0.242424 46:0 #docid = GX005-21-8371356 inc = 0.0600406916361121 prob = 0.0862158
0.27924698362775757 1:0.112554 2:0.25 3:1 4:0.5 5:0.126638 6:0 7:0 8:0 9:0 10:0 11:0.174656 12:0.196869 13:0.85020798 14:0.5 15:0.193353 16:0.014642 17:0.066666998 18:0.30000001 19:0.33333299 20:0.014403 21:1 22:0.87218302 23:0.93708599 24:0.85618103 25:0.534401 26:0.177388 27:0.056471001 28:0.132366 29:0.85938102 30:0.92310798 31:0.99966002 32:0.94031101 33:0.55509001 34:0.040155999 35:0.000971 36:0.028186999 37:1 38:0.878802 39:0.959539 40:0.86711299 41:0.082351997 42:0.210526 43:0.227273 44:0.25 45:0.27272701 46:0 #docid = GX007-24-2877291 inc = 1 prob = 0.652866
8.8817841970012523e-016 1:0.025974 2:0.125 3:0.5 4:1 5:0.034933999 6:0 7:0 8:0 9:0 10:0 11:0.035085998 12:0.098434001 13:0.35020801 14:0.90075499 15:0.045844 16:0.0045019998 17:0.066666998 18:0.30000001 19:0.33333299 20:0.0042599998 21:0.93361801 22:0.84746802 23:0.747109 24:0.84630299 25:0.36768901 26:0.103985 27:0.00075599999 28:0.081152 29:0.353986 30:0.113709 31:0.0023779999 32:0.088602997 33:1 34:1 35:1 36:1 37:0.95389402 38:0.87965202 39:0.800668 40:0.87681001 41:0.28258401 42:0.28947401 43:0.136364 44:0.25 45:0.42424199 46:0 #docid = GX007-47-2444587 inc = 1 prob = 0.543112
0.49454470510534065 1:0.069264002 2:0.125 3:1 4:0.5 5:0.078602999 6:0 7:0 8:0 9:0 10:0 11:0.110526 12:0.098434001 13:0.85020798 14:0.5 15:0.12657399 16:0.0099780001 17:0.166667 18:0.40000001 19:0.33333299 20:0.0098989997 21:0.97935301 22:0.85408598 23:0.86115801 24:0.84264302 25:0.22232699 26:0.017185999 27:0.000189 28:0.013465 29:0.753434 30:0.86857897 31:0.99931902 32:0.89796197 33:0.55509001 34:0.040155999 35:0.000971 36:0.028186999 37:0.98416698 38:0.86330402 39:0.88872802 40:0.85478699 41:0.19232 42:0.23684201 43:0.409091 44:0.25 45:0.242424 46:0 #docid = GX007-73-15713697 inc = 1 prob = 0.747246
-2.1664399885254029 1:0.025974 2:0 3:0 4:0 5:0.017467 6:0 7:0 8:0 9:0 10:0 11:0.0068120002 12:0 13:0 14:0 15:0 16:0.41894099 17:0.066666998 18:0.69999999 19:1 20:0.41914201 21:0 22:0.080881998 23:0.24271099 24:0.150471 25:0 26:0 27:0 28:0 29:0 30:0 31:0 32:0 33:0 34:0 35:0 36:0 37:0 38:0.077858001 39:0.23759601 40:0.147075 41:0.0046040001 42:0.052632 43:1 44:1 45:0.939394 46:0 #docid = GX010-68-15740712 inc = 1 prob = 0.0310395
0.50964450517232329 1:0.61471897 2:0 3:0 4:1 5:0.62008703 6:0 7:0 8:0 9:0 10:0 11:1 12:0 13:0 14:0.90075499 15:1 16:0.427986 17:0.033333 18:0 19:0.66666698 20:0.42778301 21:0.78753901 22:0.62217402 23:0.90134299 24:0.59951001 25:0 26:0 27:0 28:0 29:0 30:0 31:0 32:0 33:0.90902698 34:0.91972703 35:0.99902898 36:0.943627 37:0.78652799 38:0.61216003 39:0.892923 40:0.59352797 41:0.0083699999 42:0.026316 43:0 44:0.75 45:1 46:0 #docid = GX259-59-7676725 inc = 1 prob = 0.409675
-8.8817841970012523e-016 1:0.54545498 2:0 3:0 4:0 5:0.54148501 6:0 7:0 8:0 9:0 10:0 11:0.36358601 12:0 13:0 14:0 15:0.35324401 16:0.483147 17:0.86666697 18:0 19:0.66666698 20:0.48397401 21:0.143626 22:0.040600002 23:0.077702999 24:0.0098339999 25:0 26:0 27:0 28:0 29:0 30:0 31:0 32:0 33:0 34:0 35:0 36:0 37:0.139819 38:0.039584 39:0.076401003 40:0.0095450003 41:0.28462401 42:1 43:0 44:0.25 45:0.242424 46:0 #docid = GX261-29-3693283 inc = 1 prob = 0.200705
-6.9016965548078062 1:1 2:0 3:0 4:0 5:1 6:0 7:0 8:0 9:0 10:0 11:0.68071097 12:0 13:0 14:0 15:0.66727298 16:1 17:0.033333 18:0 19:0.83333302 20:1 21:0.13715599 22:0 23:0 24:0 25:0 26:0 27:0 28:0 29:0 30:0 31:0 32:0 33:0 34:0 35:0 36:0 37:0.13371 38:0 39:0 40:0 41:0.035415001 42:0.026316 43:0 44:0.5 45:0.48484799 46:0 #docid = GX271-51-11190968 inc = 1 prob = 0.201321
9.0864409767059602 1:0.104046 2:0.5 3:0.66666698 4:1 5:0.127168 6:0 7:0 8:0 9:0 10:0 11:0.310772 12:0.79972601 13:0.521312 14:1 15:0.365982 16:0.045853 17:0.066666998 18:0.5 19:0 20:0.044024002 21:0.55492997 22:0 23:0 24:0 25:1 26:1 27:1 28:0.89146602 29:0.33659899 30:0.43616399 31:0.562186 32:0.46325499 33:1 34:0 35:0 36:0 37:0.60365599 38:0 39:0 40:0 41:0.186783 42:0.037037 43:0.826087 44:0 45:0 46:0 #docid = GX001-01-15261639 inc = 0.306813030407202 prob = 0.108676
1.1533280929646992 1:0.219653 2:0 3:0 4:0 5:0.219653 6:0 7:0 8:0 9:0 10:0 11:0.34962699 12:0 13:0 14:0 15:0.342902 16:0.141605 17:0.26666701 18:0.1 19:0.33333299 20:0.139635 21:0.70307899 22:0.21145 23:0.36840701 24:0.27857801 25:0 26:0 27:0 28:0 29:0 30:0 31:0 32:0 33:0 34:0 35:0 36:0 37:0.75193101 38:0.243488 39:0.33372599 40:0.304194 41:0.0012159999 42:0.018518999 43:0 44:0 45:0.62790698 46:0 #docid = GX028-33-6749745 inc = 0.764966568209663 prob = 0.224811
-2.4939551636408908 1:1 2:0 3:0 4:0 5:1 6:0 7:0 8:0 9:0 10:0 11:0.048838001 12:0 13:0 14:0 15:0.043563999 16:1 17:0.066666998 18:0.40000001 19:0.66666698 20:1 21:0 22:0.307684 23:0.55481702 24:0.42611301 25:0 26:0 27:0 28:0 29:0 30:0 31:0 32:0 33:0 34:0 35:0 36:0 37:0 38:0.36316499 39:0.51926601 40:0.47482601 41:0.0047709998 42:0.018518999 43:0 44:0.75 45:0.53488398 46:0 #docid = GX029-90-6858233 inc = 0.694486341975642 prob = 0.283639
-4.760753591569113 1:0.13872799 2:0 3:1 4:0 5:0.156069 6:0 7:0 8:0 9:0 10:0 11:0.075860001 12:0 13:1 14:0 15:0.115035 16:0.104922 17:0 18:0.25 19:0.88888901 20:0.103444 21:0.57225698 22:0.65131402 23:0.90785497 24:0.65192902 25:0 26:0 27:0 28:0 29:1 30:1 31:1 32:1 33:0 34:0 35:0 36:0 37:0.82221502 38:0.89925098 39:1 40:0.78843701 41:0 42:0 43:0 44:1 45:0.76744199 46:0 #docid = GX030-00-13982755 inc = 0.788875187954949 prob = 0.609886
-2.3720337168040704 1:0.098265998 2:0 3:0.33333299 4:0 5:0.104046 6:0 7:0 8:0 9:0 10:0 11:0.0092230001 12:0 13:0.082762003 14:0 15:0.0077880002 16:0.084288999 17:0 18:0.80000001 19:1 20:0.084402002 21:0.178727 22:0.29000199 23:0.527556 24:0.535721 25:0 26:0 27:0 28:0 29:0.037494998 30:0.012417 31:0.00064799999 32:0.006023 33:0 34:0 35:0 36:0 37:0.17607 38:0.329422 39:0.486406 40:0.59318501 41:0 42:0 43:0 44:1 45:0.76744199 46:0 #docid = GX032-58-9724980 inc = 0.788875187954949 prob = 0.233832
-1.4000107149202314 1:0 2:0 3:0 4:0 5:0 6:0 7:0 8:0 9:0 10:0 11:0.055946 12:0 13:0 14:0 15:0.056122001 16:0 17:0.40000001 18:0.5 19:1 20:0 21:1 22:1 23:0.76165301 24:1 25:0 26:0 27:0 28:0 29:0 30:0 31:0 32:0 33:0 34:0 35:0 36:0 37:1 38:1 39:0.71028203 40:1 41:0.0047709998 42:0.018518999 43:0 44:1 45:0.76744199 46:0 #docid = GX032-72-3799868 inc = 0.788875187954949 prob = 0.355342
0.73845844956656848 1:0.450867 2:0 3:0.33333299 4:0 5:0.45664701 6:0 7:0 8:0 9:0 10:0 11:1 12:0 13:0.43855 14:0 15:1 16:0.46068799 17:0.133333 18:0.30000001 19:0.33333299 20:0.45941901 21:0.56334198 22:0.126449 23:0.52436101 24:0.32196701 25:0 26:0 27:0 28:0 29:0.39517799 30:0.42699999 31:0.56023598 32:0.35833499 33:0 34:0 35:0 36:0 37:0.607252 38:0.14617901 39:0.49444601 40:0.357999 41:0.20474 42:0.055555999 43:0.847826 44:0.5 45:0.488372 46:0 #docid = GX037-37-2828579 inc = 0.788875187954949 prob = 0.124211
-2.445429495943813 1:0.17341 2:0 3:0 4:0 5:0.17341 6:0 7:0 8:0 9:0 10:0 11:0.074597999 12:0 13:0 14:0 15:0.073390998 16:0.085097998 17:0.2 18:0.1 19:0.444444 20:0.083052002 21:0.67409402 22:0.719347 23:0.98283702 24:0.71268898 25:0 26:0 27:0 28:0 29:0 30:0 31:0 32:0 33:0 34:0 35:0 36:0 37:0.71770602 38:0.86132401 39:0.93563598 40:0.79891902 41:0.016322 42:0.018518999 43:0 44:0.5 45:0.32558101 46:0 #docid = GX239-88-0870758 inc = 0.788875187954949 prob = 0.614891
3.2503412342394462 1:0.023120999 2:1 3:0.66666698 4:0 5:0.046243001 6:0 7:0 8:0 9:0 10:0 11:0.078302003 12:1 13:0.63986498 14:0 15:0.127739 16:0.0072829998 17:1 18:0.44999999 19:0.555556 20:0.0078330003 21:0.62237102 22:0.40731001 23:0.13761801 24:0.385802 25:0.255115 26:0.863213 27:0.70466101 28:1 29:0.44465601 30:0.58889699 31:0.60962898 32:0.57622802 33:0 34:0 35:0 36:0 37:0.74484599 38:0.47638801 39:0.235875 40:0.433328 41:0.54907 42:0.092592999 43:0.086957 44:0.5 45:0.25581399 46:0 #docid = GX245-97-5173856 inc = 0.788875187954949 prob = 0.0460248
-0.75638607059855545 1:0.063584 2:0 3:0 4:0 5:0.063584 6:0 7:0 8:0 9:0 10:0 11:0.069215998 12:0 13:0 14:0 15:0.068737999 16:0.127984 17:0.40000001 18:0.15000001 19:0.444444 20:0.126536 21:0.38632599 22:0.433056 23:0.71355402 24:0.53472102 25:0 26:0 27:0 28:0 29:0 30:0 31:0 32:0 33:0 34:0 35:0 36:0 37:0.411468 38:0.51075101 39:0.66995001 40:0.59545898 41:0.36472699 42:0.148148 43:0.23913001 44:0.5 45:0.79069799 46:0 #docid = GX248-15-8272687 inc = 0.788875187954949 prob = 0.34573
-0.099822478308908558 1:0 2:0 3:0 4:0 5:0 6:0 7:0 8:0 9:0 10:0 11:0 12:0 13:0 14:0 15:0 16:0.001306 17:0 18:0.40000001 19:0 20:0.001056 21:0 22:0 23:0 24:0 25:0 26:0 27:0 28:0 29:0 30:0 31:0 32:0 33:0 34:0 35:0 36:0 37:0 38:0 39:0 40:0 41:0 42:0 43:0.130435 44:0 45:0 46:0 #docid = GX000-00-0000000 inc = 1 prob = 0.0497134
-8.3240021419044297 1:0.020243 2:0 3:0 4:0 5:0.02008 6:0 7:0 8:0 9:0 10:0 11:0.019776 12:0 13:0 14:0 15:0.019618001 16:0.003889 17:0.210526 18:0.5 19:0.142857 20:0.0038620001 21:0.81668901 22:0.76210099 23:0.345927 24:0.65192002 25:0 26:0 27:0 28:0 29:0 30:0 31:0 32:0 33:0 34:0 35:0 36:0 37:0.80766499 38:0.69094199 39:0.34347501 40:0.67728698 41:0.347691 42:0.057691999 43:0.130435 44:0.40000001 45:0.206186 46:0 #docid = GX013-47-7906402 inc = 1 prob = 0.115904
-0.95898063702433944 1:0.038462002 2:0.111111 3:1 4:0 5:0.046185002 6:0 7:0 8:0 9:0 10:0 11:0.041177999 12:0.090038002 13:1 14:0 15:0.048803002 16:0.0091660004 17:0.26315799 18:0.69999999 19:0.095238 20:0.0091949999 21:0.88719302 22:0.78210199 23:0.52661198 24:0.62998801 25:0.19892301 26:0 27:0 28:0 29:0.64001 30:0.88210303 31:0.99912101 32:0.90804601 33:0 34:0 35:0 36:0 37:0.90939498 38:0.765746 39:0.58098298 40:0.71452498 41:1 42:1 43:0.26087001 44:0.80000001 45:0.32989699 46:0 #docid = GX014-34-4044402 inc = 1 prob = 0.225362
-5.4172619778955777 1:0.028340001 2:0 3:0 4:0 5:0.028112 6:0 7:0 8:0 9:0 10:0 11:0.031537998 12:0 13:0 14:0 15:0.031289998 16:0.0062219999 17:0 18:0.60000002 19:0.285714 20:0.0061949999 21:0.86185098 22:0.762034 23:0.43544599 24:0.63049603 25:0 26:0 27:0 28:0 29:0 30:0 31:0 32:0 33:0 34:0 35:0 36:0 37:0.85567802 38:0.70034701 39:0.432771 40:0.66316599 41:0 42:0 43:0.26087001 44:0.2 45:0.39175299 46:0 #docid = GX039-17-16294234 inc = 1 prob = 0.0525622
-28.343530350959554 1:0.0080970004 2:0 3:0 4:0 5:0.0080319997 6:0 7:0 8:0 9:0 10:0 11:0.0085659996 12:0 13:0 14:0 15:0.0084969997 16:0 17:0 18:0.40000001 19:0.42857099 20:0 21:0.75398397 22:0.981911 23:0.110208 24:1 25:0 26:0 27:0 28:0 29:0 30:0 31:0 32:0 33:0 34:0 35:0 36:0 37:0.73340702 38:0.72591197 39:0.108052 40:0.87120098 41:0 42:0 43:0 44:1 45:0.54639202 46:0 #docid = GX041-39-2848099 inc = 1 prob = 0.0771291
172.41633453352486 1:0.052632 2:0.33333299 3:1 4:1 5:0.068273 6:0 7:0 8:0 9:0 10:0 11:0.055610999 12:0.33333299 13:1 14:1 15:0.071073003 16:0.0047499998 17:0.157895 18:0.30000001 19:0.33333299 20:0.0047510001 21:0.971286 22:1 23:0.65019 24:0.84766001 25:1 26:1 27:0.72252798 28:1 29:1 30:1 31:1 32:1 33:1 34:1 35:1 36:1 37:0.98776901 38:0.976632 39:0.72604799 40:0.95728302 41:0.011939 42:0.019231001 43:1 44:0.80000001 45:0.494845 46:0 #docid = GX054-86-4718577 inc = 1 prob = 0.348816
-0.15869096780261316 1:0.056680001 2:0.33333299 3:0 4:0 5:0.062249001 6:0 7:0 8:0 9:0 10:0 11:0.060954001 12:0.33333299 13:0 14:0 15:0.066839002 16:0.010694 17:0.57894701 18:0.60000002 19:0.285714 20:0.010973 21:0.92831701 22:0.81761098 23:0.63257903 24:0.68431401 25:0.411264 26:0.80326903 27:0.72109199 28:0.84943497 29:0 30:0 31:0 32:0 33:0 34:0 35:0 36:0 37:0.93546599 38:0.77474499 39:0.65876698 40:0.74735701 41:0.00031900001 42:0.019231001 43:0.347826 44:0.60000002 45:0.402062 46:0 #docid = GX063-31-9073237 inc = 1 prob = 0.188422
-0.795727885208521 1:0.046558999 2:0 3:0 4:0 5:0.046185002 6:0 7:0 8:0 9:0 10:0 11:0.049192999 12:0 13:0 14:0 15:0.048803002 16:0.011916 17:0.42105299 18:0.60000002 19:0.285714 20:0.012112 21:0.88870102 22:0.75296199 23:0.56756598 24:0.61575401 25:0 26:0 27:0 28:0 29:0 30:0 31:0 32:0 33:0 34:0 35:0 36:0 37:0.88348401 38:0.69357198 39:0.56337303 40:0.650819 41:0.00031900001 42:0.019231001 43:0.347826 44:0.80000001 45:0.43299001 46:0 #docid = GX063-40-15606669 inc = 1 prob = 0.173002
-0.35428131641037908 1:0.044534001 2:0 3:0 4:0 5:0.044176999 6:0 7:0 8:0 9:0 10:0 11:0.044895999 12:0 13:0 14:0 15:0.044539999 16:0.004861 17:0.26315799 18:0 19:1 20:0.005223 21:0.941962 22:0.92493099 23:0.58969402 24:0.79706597 25:0 26:0 27:0 28:0 29:0 30:0 31:0 32:0 33:0 34:0 35:0 36:0 37:0.93134302 38:0.83505702 39:0.58384901 40:0.821814 41:0.00069199997 42:0.019231001 43:0 44:1 45:1 46:0 #docid = GX098-12-3621270 inc = 1 prob = 0.115306
-2.5265796569292434 1:0.044534001 2:0 3:0 4:0 5:0.044176999 6:0 7:0 8:0 9:0 10:0 11:0.044895999 12:0 13:0 14:0 15:0.044539999 16:0.004861 17:0.26315799 18:0 19:1 20:0.005223 21:0.941962 22:0.92493099 23:0.58969402 24:0.79706597 25:0 26:0 27:0 28:0 29:0 30:0 31:0 32:0 33:0 34:0 35:0 36:0 37:0.93134302 38:0.83437699 39:0.58384901 40:0.821814 41:0.00069199997 42:0.019231001 43:0 44:1 45:0.96907198 46:0 #docid = GX163-43-3789973 inc = 1 prob = 0.119325
-12.516479035717481 1:0.18218599 2:0 3:0 4:0 5:0.180723 6:0 7:0 8:0 9:0 10:0 11:0.17815 12:0 13:0 14:0 15:0.17674901 16:0.47923699 17:0.157895 18:0 19:0.190476 20:0.479137 21:0.41073999 22:0.488619 23:0.597987 24:0.43224001 25:0 26:0 27:0 28:0 29:0 30:0 31:0 32:0 33:0 34:0 35:0 36:0 37:0.41872001 38:0.46014899 39:0.59810102 40:0.46708599 41:0.131616 42:0.019231001 43:0 44:0.40000001 45:0.226804 46:0 #docid = GX242-04-5222965 inc = 1 prob = 0.1505
-7.8239727421660064 1:0.28542501 2:0 3:0 4:0 5:0.283133 6:0 7:0 8:0 9:0 10:0 11:0.265028 12:0 13:0 14:0 15:0.26295 16:0.50770801 17:0.157895 18:0 19:0.238095 20:0.50764 21:0.46843299 22:0.54334903 23:0.67307401 24:0.4878 25:0 26:0 27:0 28:0 29:0 30:0 31:0 32:0 33:0 34:0 35:0 36:0 37:0.47623301 38:0.51137698 39:0.67289603 40:0.52693099 41:0.006695 42:0.019231001 43:0 44:0.60000002 45:0.47422701 46:0 #docid = GX242-26-3237768 inc = 1 prob = 0.155772
